\data\
ngram 1=64
ngram 2=557
ngram 3=2209
ngram 4=5791

\1-grams:
-2.6081796	<unk>	0
0	<s>	-3.2259285
-1.5451958	</s>	0
-1.5734562	ReturnStmt	-0.50502646
-1.3501267	MethodCallExpr	-0.7210226
-1.0657644	SimpleName	-0.8162484
-1.4059465	ExpressionStmt	-0.8015856
-2.157806	VariableDeclarationExpr	-0.33740935
-2.0580573	VariableDeclarator	-0.3885841
-1.6361749	ClassOrInterfaceType	-0.6896046
-1.6036843	IntegerLiteralExpr	-0.50437474
-1.6036843	ObjectCreationExpr	-0.847222
-1.7095052	MethodDeclaration	-0.6895987
-1.9087079	MarkerAnnotationExpr	-0.63162214
-2.287517	Name	-0.29391518
-1.976994	Modifier	-0.30587807
-2.287517	Parameter	-0.292711
-1.6361749	StringLiteralExpr	-0.36439395
-1.4700139	BinaryExpr	-0.67253673
-2.4733138	VoidType	-0.29433122
-1.42627	FieldAccessExpr	-0.65182555
-1.5734562	TryStmt	-0.5681828
-1.6712942	BooleanLiteralExpr	-0.40966418
-2.157806	AssignExpr	-0.35484207
-1.7095052	EnclosedExpr	-0.42152977
-1.849714	CastExpr	-0.50596285
-1.849714	ArrayType	-0.51352286
-1.976994	PrimitiveType	-0.31883055
-2.287517	ArrayInitializerExpr	-0.28605118
-1.6712942	UnaryExpr	-0.5335362
-1.7095052	ArrayAccessExpr	-0.5978342
-2.157806	DoubleLiteralExpr	-0.280165
-1.4475914	IfStmt	-0.91068286
-1.6036843	ForStmt	-0.63875604
-1.7095052	WhileStmt	-0.54942846
-1.797784	BreakStmt	-0.42552137
-1.6712942	NullLiteralExpr	-0.42474622
-2.157806	ClassExpr	-0.344795
-1.7095052	ThrowStmt	-0.6421825
-1.976994	LambdaExpr	-0.40365607
-2.4733138	UnknownType	-0.29433122
-1.797784	CatchClause	-0.74076664
-2.4733138	$EMPTY$	-0.29433122
-1.6712942	ThisExpr	-0.3656966
-1.976994	FieldDeclaration	-0.368026
-2.3705544	WildcardType	-0.2933485
-1.849714	InstanceOfExpr	-0.47874534
-2.3705544	MethodReferenceExpr	-0.2929806
-1.6361749	ForEachStmt	-0.9004674
-1.797784	LongLiteralExpr	-0.31168777
-2.4733138	SuperExpr	-0.29433122
-2.0580573	SingleMemberAnnotationExpr	-0.48549408
-2.0580573	SwitchStmt	-0.48549408
-2.0580573	SwitchEntry	-0.31416887
-2.157806	ArrayCreationExpr	-0.32589048
-2.287517	ArrayCreationLevel	-0.27909413
-2.287517	CharLiteralExpr	-0.2862371
-1.976994	ConditionalExpr	-0.377043
-2.287517	EmptyStmt	-0.2925313
-2.287517	DoStmt	-0.271116
-1.976994	ContinueStmt	-0.406614
-1.976994	SynchronizedStmt	-0.3885841
-2.3705544	LabeledStmt	-0.29163408
-2.4733138	ClassOrInterfaceDeclaration	-0.29433122

\2-grams:
-1.5714471	ReturnStmt </s>	0
-1.317804	SimpleName </s>	0
-1.1891693	IntegerLiteralExpr </s>	0
-1.2811023	Name </s>	0
-1.251675	StringLiteralExpr </s>	0
-1.3786559	VoidType </s>	0
-1.0700256	BooleanLiteralExpr </s>	0
-0.9489973	DoubleLiteralExpr </s>	0
-1.0954956	BreakStmt </s>	0
-1.0746263	NullLiteralExpr </s>	0
-1.3766046	LambdaExpr </s>	0
-0.2952507	$EMPTY$ </s>	0
-1.0917611	ThisExpr </s>	0
-1.3607068	LongLiteralExpr </s>	0
-1.2789643	CharLiteralExpr </s>	0
-0.7506749	EmptyStmt </s>	0
-0.6854842	<s> ReturnStmt	-2.3090618
-1.9180859	ReturnStmt ReturnStmt	-0.25280666
-1.4834609	SimpleName ReturnStmt	-0.45477518
-1.4264283	IntegerLiteralExpr ReturnStmt	-0.26272833
-1.5336094	StringLiteralExpr ReturnStmt	-0.24412012
-1.3882287	VoidType ReturnStmt	-0.25280666
-1.2480193	TryStmt ReturnStmt	-0.36347753
-1.5805359	BooleanLiteralExpr ReturnStmt	-0.23260762
-1.0825931	PrimitiveType ReturnStmt	-0.240659
-1.2995104	BreakStmt ReturnStmt	-0.25280666
-1.3722154	NullLiteralExpr ReturnStmt	-0.23902847
-1.4048973	ThisExpr ReturnStmt	-0.24266012
-1.2340541	WildcardType ReturnStmt	-0.25280666
-1.4648194	LongLiteralExpr ReturnStmt	-0.25280666
-0.8971676	SwitchEntry ReturnStmt	-0.25280666
-1.0339396	ReturnStmt MethodCallExpr	-0.50265795
-0.72780204	MethodCallExpr MethodCallExpr	-0.64505315
-1.3295022	SimpleName MethodCallExpr	-0.63893217
-0.6241733	ExpressionStmt MethodCallExpr	-0.7448183
-1.1564717	IntegerLiteralExpr MethodCallExpr	-0.46864176
-1.3009182	StringLiteralExpr MethodCallExpr	-0.23659903
-0.94237155	BinaryExpr MethodCallExpr	-0.49066365
-0.9619235	FieldAccessExpr MethodCallExpr	-0.33876595
-1.3478677	BooleanLiteralExpr MethodCallExpr	-0.36347753
-1.1826105	EnclosedExpr MethodCallExpr	-0.23767443
-1.2472591	PrimitiveType MethodCallExpr	-0.25280666
-1.0316218	ArrayInitializerExpr MethodCallExpr	-0.23274523
-0.73258626	UnaryExpr MethodCallExpr	-0.44406465
-0.8227525	ArrayAccessExpr MethodCallExpr	-0.24418983
-0.69901156	IfStmt MethodCallExpr	-0.58201015
-1.227827	WhileStmt MethodCallExpr	-0.22305168
-1.1158301	NullLiteralExpr MethodCallExpr	-0.4851001
-0.7494108	ThrowStmt MethodCallExpr	-0.5395688
-1.5333664	ThisExpr MethodCallExpr	-0.25280666
-1.1708629	WildcardType MethodCallExpr	-0.25280666
-0.6475244	InstanceOfExpr MethodCallExpr	-0.36347753
-1.366026	LongLiteralExpr MethodCallExpr	-0.23274523
-1.0055723	ArrayCreationLevel MethodCallExpr	-0.22305168
-1.2149196	CharLiteralExpr MethodCallExpr	-0.25280666
-1.1340992	ConditionalExpr MethodCallExpr	-0.25280666
-1.0826887	ReturnStmt SimpleName	-0.38631067
-0.54056764	MethodCallExpr SimpleName	-0.4439784
-1.1323527	SimpleName SimpleName	-0.76489776
-1.7114815	ExpressionStmt SimpleName	-0.25280666
-0.6100366	VariableDeclarator SimpleName	-0.46038753
-0.2527729	ClassOrInterfaceType SimpleName	-0.41979715
-1.0489486	IntegerLiteralExpr SimpleName	-0.38943684
-0.37737244	ObjectCreationExpr SimpleName	-0.3683446
-0.9247286	Name SimpleName	-0.24517463
-0.648915	Modifier SimpleName	-0.2398627
-0.8488815	Parameter SimpleName	-0.22305168
-1.0276568	StringLiteralExpr SimpleName	-0.27953926
-0.7607708	BinaryExpr SimpleName	-0.5930437
-1.1488153	VoidType SimpleName	-0.25280666
-0.3599654	FieldAccessExpr SimpleName	-1.0624475
-0.9240705	BooleanLiteralExpr SimpleName	-0.39746588
-0.3643566	AssignExpr SimpleName	-0.24730952
-1.2998054	EnclosedExpr SimpleName	-0.25280666
-0.59082186	CastExpr SimpleName	-0.31047136
-0.37246186	ArrayType SimpleName	-0.3250365
-0.677392	PrimitiveType SimpleName	-0.24790356
-0.94176996	ArrayInitializerExpr SimpleName	-0.24266012
-0.51527494	UnaryExpr SimpleName	-0.3324032
-0.2421572	ArrayAccessExpr SimpleName	-0.5381131
-0.9394707	DoubleLiteralExpr SimpleName	-0.25280666
-0.7453637	IfStmt SimpleName	-0.52284336
-1.330302	BreakStmt SimpleName	-0.25280666
-0.92257655	NullLiteralExpr SimpleName	-0.31562927
-0.4239651	ClassExpr SimpleName	-0.23592693
-0.577731	ThrowStmt SimpleName	-0.35272527
-1.1891366	LambdaExpr SimpleName	-0.25280666
-0.2709406	UnknownType SimpleName	-0.25280666
-0.8992381	ThisExpr SimpleName	-0.26617804
-0.8772545	WildcardType SimpleName	-0.24122979
-0.43906003	InstanceOfExpr SimpleName	-0.543092
-0.5401399	MethodReferenceExpr SimpleName	-0.24601603
-1.1450291	LongLiteralExpr SimpleName	-0.22787139
-0.2709406	SuperExpr SimpleName	-0.25280666
-0.15419911	SwitchStmt SimpleName	-0.46038753
-0.6219842	SwitchEntry SimpleName	-0.24054858
-0.4733664	ArrayCreationExpr SimpleName	-0.36347753
-1.0805871	ArrayCreationLevel SimpleName	-0.25280666
-0.92189246	CharLiteralExpr SimpleName	-0.25280666
-0.72640145	ConditionalExpr SimpleName	-0.23563236
-0.8008448	ContinueStmt SimpleName	-0.23227751
-0.68661255	SynchronizedStmt SimpleName	-0.23227751
-0.27329028	LabeledStmt SimpleName	-0.23767443
-0.2709406	ClassOrInterfaceDeclaration SimpleName	-0.25280666
-0.20504662	<s> ExpressionStmt	-3.365936
-1.218273	ReturnStmt ExpressionStmt	-0.5409747
-1.2283133	SimpleName ExpressionStmt	-0.8618963
-1.1265168	IntegerLiteralExpr ExpressionStmt	-0.62015593
-1.2379019	Name ExpressionStmt	-0.25280666
-1.1327714	StringLiteralExpr ExpressionStmt	-0.34622088
-1.3252687	VoidType ExpressionStmt	-0.25280666
-0.57150686	TryStmt ExpressionStmt	-0.71280277
-1.0491349	BooleanLiteralExpr ExpressionStmt	-0.5186983
-1.2675636	PrimitiveType ExpressionStmt	-0.25280666
-1.0435079	DoubleLiteralExpr ExpressionStmt	-0.22305168
-0.61412424	ForStmt ExpressionStmt	-0.6258995
-0.7631104	BreakStmt ExpressionStmt	-0.46038753
-0.991564	NullLiteralExpr ExpressionStmt	-0.5186983
-0.64622855	LambdaExpr ExpressionStmt	-0.2910152
-1.0675516	ThisExpr ExpressionStmt	-0.2857675
-0.9428917	LongLiteralExpr ExpressionStmt	-0.38036472
-0.9975734	SwitchEntry ExpressionStmt	-0.23274523
-0.901955	CharLiteralExpr ExpressionStmt	-0.23245287
-0.7374439	EmptyStmt ExpressionStmt	-0.25280666
-0.84136087	DoStmt ExpressionStmt	-0.25280666
-0.6105818	ContinueStmt ExpressionStmt	-0.33152497
-0.6822999	ExpressionStmt VariableDeclarationExpr	-0.88635623
-1.2911248	TryStmt VariableDeclarationExpr	-0.36347753
-0.54404956	ForStmt VariableDeclarationExpr	-0.87536085
-0.057933703	ForEachStmt VariableDeclarationExpr	-0.65072304
-0.5233603	VariableDeclarationExpr VariableDeclarator	-0.23994468
-1.3735541	Name VariableDeclarator	-0.25280666
-0.9612292	Modifier VariableDeclarator	-0.23245287
-1.9925481	StringLiteralExpr VariableDeclarator	-0.25280666
-0.8530514	FieldDeclaration VariableDeclarator	-0.24418983
-1.9317086	SimpleName ClassOrInterfaceType	-0.5395688
-0.8033591	VariableDeclarator ClassOrInterfaceType	-0.33897206
-0.6724619	ClassOrInterfaceType ClassOrInterfaceType	-0.37840554
-0.3429972	ObjectCreationExpr ClassOrInterfaceType	-0.7539454
-1.3044288	Name ClassOrInterfaceType	-0.25280666
-1.3072317	Modifier ClassOrInterfaceType	-0.25280666
-1.2146562	Parameter ClassOrInterfaceType	-0.25280666
-0.73442197	CastExpr ClassOrInterfaceType	-0.4181533
-0.8099297	ArrayType ClassOrInterfaceType	-0.36347753
-1.3348812	PrimitiveType ClassOrInterfaceType	-0.25280666
-0.82338595	ClassExpr ClassOrInterfaceType	-0.23274523
-1.2478757	WildcardType ClassOrInterfaceType	-0.25280666
-1.140014	ArrayCreationExpr ClassOrInterfaceType	-0.25280666
-1.4778275	ReturnStmt IntegerLiteralExpr	-0.24191251
-1.3972151	SimpleName IntegerLiteralExpr	-0.5677556
-1.8075036	ExpressionStmt IntegerLiteralExpr	-0.24266012
-1.1534673	IntegerLiteralExpr IntegerLiteralExpr	-0.40215695
-1.263874	StringLiteralExpr IntegerLiteralExpr	-0.23692961
-1.2255746	BinaryExpr IntegerLiteralExpr	-0.4123835
-1.3980169	VoidType IntegerLiteralExpr	-0.25280666
-1.429467	BooleanLiteralExpr IntegerLiteralExpr	-0.2680079
-1.0821967	ArrayInitializerExpr IntegerLiteralExpr	-0.23767443
-1.3547052	UnaryExpr IntegerLiteralExpr	-0.23520286
-1.2559859	NullLiteralExpr IntegerLiteralExpr	-0.26894853
-1.6824392	ThisExpr IntegerLiteralExpr	-0.25280666
-1.4760568	LongLiteralExpr IntegerLiteralExpr	-0.25280666
-1.0538464	ArrayCreationLevel IntegerLiteralExpr	-0.24724287
-1.3148794	ReturnStmt ObjectCreationExpr	-0.5395688
-1.4916515	MethodCallExpr ObjectCreationExpr	-0.30548558
-1.4628253	SimpleName ObjectCreationExpr	-0.90754557
-1.4936345	ExpressionStmt ObjectCreationExpr	-0.23853882
-1.5195385	IntegerLiteralExpr ObjectCreationExpr	-0.31145877
-1.5452766	StringLiteralExpr ObjectCreationExpr	-0.24206205
-1.3980169	VoidType ObjectCreationExpr	-0.25280666
-1.6763166	BooleanLiteralExpr ObjectCreationExpr	-0.22305168
-1.5683866	EnclosedExpr ObjectCreationExpr	-0.25280666
-1.3183112	ArrayInitializerExpr ObjectCreationExpr	-0.25280666
-1.5518022	NullLiteralExpr ObjectCreationExpr	-0.24206205
-0.4849027	ThrowStmt ObjectCreationExpr	-0.7614175
-1.5129706	ThisExpr ObjectCreationExpr	-0.25280666
-1.6410748	LongLiteralExpr ObjectCreationExpr	-0.25280666
-2.0074048	ReturnStmt MethodDeclaration	-0.25280666
-1.582762	SimpleName MethodDeclaration	-0.7374275
-1.659976	IntegerLiteralExpr MethodDeclaration	-0.36347753
-1.6749302	StringLiteralExpr MethodDeclaration	-0.22305168
-1.4287798	VoidType MethodDeclaration	-0.25280666
-1.7218435	BooleanLiteralExpr MethodDeclaration	-0.22305168
-1.3513715	PrimitiveType MethodDeclaration	-0.25280666
-1.683193	NullLiteralExpr MethodDeclaration	-0.22305168
-1.2621516	WildcardType MethodDeclaration	-0.25280666
-1.5116268	LongLiteralExpr MethodDeclaration	-0.22305168
-1.0362537	EmptyStmt MethodDeclaration	-0.25280666
-1.308925	ClassOrInterfaceType MarkerAnnotationExpr	-0.22305168
-0.1409107	MethodDeclaration MarkerAnnotationExpr	-0.8028102
-1.3552142	Name MarkerAnnotationExpr	-0.25280666
-1.2556148	Parameter MarkerAnnotationExpr	-0.25280666
-1.743882	StringLiteralExpr MarkerAnnotationExpr	-0.22305168
-1.2635199	FieldDeclaration MarkerAnnotationExpr	-0.25280666
-1.2921934	WildcardType MarkerAnnotationExpr	-0.25280666
-0.11483351	MarkerAnnotationExpr Name	-0.27535668
-1.2967883	ThisExpr Name	-0.23804465
-0.1708777	SingleMemberAnnotationExpr Name	-0.4181533
-0.89580476	VariableDeclarationExpr Modifier	-0.23274523
-1.3642874	Name Modifier	-0.25280666
-0.9577175	Modifier Modifier	-0.25280666
-0.9863754	Parameter Modifier	-0.23767443
-1.9606308	StringLiteralExpr Modifier	-0.25280666
-0.4672022	FieldDeclaration Modifier	-0.30548558
-2.282612	SimpleName Parameter	-0.22839884
-0.6729302	LambdaExpr Parameter	-0.46038753
-0.08656353	CatchClause Parameter	-0.6400021
-1.4852138	ReturnStmt StringLiteralExpr	-0.2672899
-1.496274	MethodCallExpr StringLiteralExpr	-0.36347753
-1.5737472	SimpleName StringLiteralExpr	-0.43398988
-1.6382171	IntegerLiteralExpr StringLiteralExpr	-0.2341864
-1.3044288	Name StringLiteralExpr	-0.25280666
-1.2701045	StringLiteralExpr StringLiteralExpr	-0.25451806
-1.7281164	BinaryExpr StringLiteralExpr	-0.23929481
-1.8320364	BooleanLiteralExpr StringLiteralExpr	-0.25280666
-0.96069527	ArrayInitializerExpr StringLiteralExpr	-0.24418983
-1.3252901	DoubleLiteralExpr StringLiteralExpr	-0.25280666
-1.8115206	NullLiteralExpr StringLiteralExpr	-0.25280666
-1.4875928	LongLiteralExpr StringLiteralExpr	-0.22305168
-1.2820774	SwitchEntry StringLiteralExpr	-0.25280666
-1.2305307	ReturnStmt BinaryExpr	-0.33452192
-1.519974	SimpleName BinaryExpr	-0.6079214
-1.9503777	ExpressionStmt BinaryExpr	-0.25280666
-1.4809358	IntegerLiteralExpr BinaryExpr	-0.2574312
-1.5631268	StringLiteralExpr BinaryExpr	-0.23767443
-0.95116794	BinaryExpr BinaryExpr	-0.5009607
-1.3511424	VoidType BinaryExpr	-0.25280666
-1.7231724	BooleanLiteralExpr BinaryExpr	-0.25280666
-0.68941385	EnclosedExpr BinaryExpr	-0.4220011
-0.9382207	DoubleLiteralExpr BinaryExpr	-0.23853882
-0.64980215	IfStmt BinaryExpr	-0.76068914
-1.3776468	ForStmt BinaryExpr	-0.22305168
-0.44335508	WhileStmt BinaryExpr	-0.46666074
-1.5826762	NullLiteralExpr BinaryExpr	-0.25280666
-1.6083004	ThisExpr BinaryExpr	-0.25280666
-1.5649272	LongLiteralExpr BinaryExpr	-0.25280666
-0.9106903	ArrayCreationLevel BinaryExpr	-0.23274523
-1.2565501	CharLiteralExpr BinaryExpr	-0.25280666
-0.41102523	ConditionalExpr BinaryExpr	-0.30973747
-2.3060522	SimpleName VoidType	-0.25013083
-1.3488836	ReturnStmt FieldAccessExpr	-0.4217054
-0.9354637	MethodCallExpr FieldAccessExpr	-0.46086475
-1.4392867	SimpleName FieldAccessExpr	-0.5878149
-1.2662739	IntegerLiteralExpr FieldAccessExpr	-0.5942446
-1.4695103	StringLiteralExpr FieldAccessExpr	-0.24206205
-0.9890106	BinaryExpr FieldAccessExpr	-0.45893186
-1.3337231	VoidType FieldAccessExpr	-0.25280666
-1.0714247	FieldAccessExpr FieldAccessExpr	-0.36347753
-1.5162091	BooleanLiteralExpr FieldAccessExpr	-0.23853882
-1.0061609	AssignExpr FieldAccessExpr	-0.25280666
-1.4978913	EnclosedExpr FieldAccessExpr	-0.25280666
-1.2631762	ArrayInitializerExpr FieldAccessExpr	-0.25280666
-0.99174106	UnaryExpr FieldAccessExpr	-0.39031786
-1.1739439	ArrayAccessExpr FieldAccessExpr	-0.22305168
-1.7699485	IfStmt FieldAccessExpr	-0.22305168
-1.681202	NullLiteralExpr FieldAccessExpr	-0.25280666
-1.5818596	ThisExpr FieldAccessExpr	-0.25280666
-1.1950476	WildcardType FieldAccessExpr	-0.25280666
-1.3191197	LongLiteralExpr FieldAccessExpr	-0.23853882
-1.001351	SwitchEntry FieldAccessExpr	-0.22305168
-1.2397933	ArrayCreationLevel FieldAccessExpr	-0.25280666
-1.8887923	<s> TryStmt	-1.5538106
-1.7284174	ReturnStmt TryStmt	-0.24206205
-1.5958569	SimpleName TryStmt	-0.5124311
-1.5115386	IntegerLiteralExpr TryStmt	-0.27569857
-1.7463934	StringLiteralExpr TryStmt	-0.25280666
-1.3882287	VoidType TryStmt	-0.25280666
-1.008075	TryStmt TryStmt	-0.4181533
-1.421382	BooleanLiteralExpr TryStmt	-0.23563236
-1.3083242	DoubleLiteralExpr TryStmt	-0.25280666
-1.7342315	ForStmt TryStmt	-0.25280666
-1.4112569	BreakStmt TryStmt	-0.22305168
-1.6300329	NullLiteralExpr TryStmt	-0.23274523
-1.5021615	ThisExpr TryStmt	-0.22305168
-1.6247396	LongLiteralExpr TryStmt	-0.25280666
-1.4391811	ContinueStmt TryStmt	-0.25280666
-1.260554	ReturnStmt BooleanLiteralExpr	-0.32869092
-1.610172	SimpleName BooleanLiteralExpr	-0.34810388
-1.8236064	ExpressionStmt BooleanLiteralExpr	-0.240659
-1.5359945	IntegerLiteralExpr BooleanLiteralExpr	-0.23614195
-1.5695955	StringLiteralExpr BooleanLiteralExpr	-0.25280666
-1.4182816	VoidType BooleanLiteralExpr	-0.25280666
-1.4461032	BooleanLiteralExpr BooleanLiteralExpr	-0.2436156
-1.3354412	ArrayInitializerExpr BooleanLiteralExpr	-0.25280666
-1.1486005	WhileStmt BooleanLiteralExpr	-0.24418983
-1.6692805	NullLiteralExpr BooleanLiteralExpr	-0.25280666
-1.7160435	ThisExpr BooleanLiteralExpr	-0.25280666
-1.6757126	LongLiteralExpr BooleanLiteralExpr	-0.25280666
-2.7026033	SimpleName AssignExpr	-0.25280666
-0.7079183	ExpressionStmt AssignExpr	-0.89708006
-2.2629406	IntegerLiteralExpr AssignExpr	-0.25280666
-1.6943506	EnclosedExpr AssignExpr	-0.25280666
-1.2638547	MethodCallExpr EnclosedExpr	-0.4851001
-1.8268144	SimpleName EnclosedExpr	-0.38854882
-1.8985288	IntegerLiteralExpr EnclosedExpr	-0.23767443
-1.6749302	StringLiteralExpr EnclosedExpr	-0.22305168
-1.1048833	BinaryExpr EnclosedExpr	-0.40769345
-1.4512653	FieldAccessExpr EnclosedExpr	-0.23853882
-1.602494	EnclosedExpr EnclosedExpr	-0.25280666
-1.3513715	PrimitiveType EnclosedExpr	-0.25280666
-1.1571573	UnaryExpr EnclosedExpr	-0.23853882
-0.8761486	MethodReferenceExpr EnclosedExpr	-0.25280666
-1.6941257	LongLiteralExpr EnclosedExpr	-0.25280666
-1.426111	ReturnStmt CastExpr	-0.37291765
-1.6661832	SimpleName CastExpr	-0.5395688
-2.0919502	ExpressionStmt CastExpr	-0.25280666
-1.8688296	IntegerLiteralExpr CastExpr	-0.25280666
-1.4318472	BinaryExpr CastExpr	-0.30548558
-0.7056049	EnclosedExpr CastExpr	-0.39545053
-1.3888909	ThrowStmt CastExpr	-0.22305168
-1.343929	ArrayCreationLevel CastExpr	-0.25280666
-2.0726438	SimpleName ArrayType	-0.29854056
-1.0404848	VariableDeclarator ArrayType	-0.23461494
-1.3463268	Name ArrayType	-0.25280666
-1.3482126	Modifier ArrayType	-0.25280666
-1.2485144	Parameter ArrayType	-0.25280666
-1.2526711	CastExpr ArrayType	-0.23767443
-1.1151586	ClassExpr ArrayType	-0.25280666
-0.88520044	MethodReferenceExpr ArrayType	-0.25280666
-2.3802576	SimpleName PrimitiveType	-0.23227751
-0.81778	VariableDeclarator PrimitiveType	-0.36347753
-1.2628331	Parameter PrimitiveType	-0.25280666
-0.63258076	CastExpr PrimitiveType	-0.4107062
-0.82086647	ArrayType PrimitiveType	-0.31256095
-0.7554176	ArrayCreationExpr PrimitiveType	-0.23853882
-2.475741	SimpleName ArrayInitializerExpr	-0.24409519
-1.3927027	Name ArrayInitializerExpr	-0.25280666
-0.9676845	ArrayCreationLevel ArrayInitializerExpr	-0.23471023
-1.4927276	ReturnStmt UnaryExpr	-0.27194896
-1.6446499	SimpleName UnaryExpr	-0.4926464
-0.89701504	ExpressionStmt UnaryExpr	-0.5995706
-1.8020526	IntegerLiteralExpr UnaryExpr	-0.22962151
-1.6592766	StringLiteralExpr UnaryExpr	-0.23767443
-1.1622522	BinaryExpr UnaryExpr	-0.5150633
-1.3664426	EnclosedExpr UnaryExpr	-0.22305168
-0.76498306	IfStmt UnaryExpr	-0.6645075
-0.58252954	WhileStmt UnaryExpr	-0.48755002
-1.8309464	NullLiteralExpr UnaryExpr	-0.25280666
-1.7160435	ThisExpr UnaryExpr	-0.25280666
-1.6757126	LongLiteralExpr UnaryExpr	-0.25280666
-1.8692799	ReturnStmt ArrayAccessExpr	-0.22305168
-1.2638547	MethodCallExpr ArrayAccessExpr	-0.4181533
-1.6150506	SimpleName ArrayAccessExpr	-0.6258995
-1.8985288	IntegerLiteralExpr ArrayAccessExpr	-0.23274523
-1.6749302	StringLiteralExpr ArrayAccessExpr	-0.22305168
-1.3165779	BinaryExpr ArrayAccessExpr	-0.4851001
-1.4512653	FieldAccessExpr ArrayAccessExpr	-0.23853882
-1.8753693	BooleanLiteralExpr ArrayAccessExpr	-0.25280666
-1.04258	AssignExpr ArrayAccessExpr	-0.25280666
-1.3704845	UnaryExpr ArrayAccessExpr	-0.23853882
-1.1699525	InstanceOfExpr ArrayAccessExpr	-0.22305168
-2.441527	SimpleName DoubleLiteralExpr	-0.23274523
-2.2629406	IntegerLiteralExpr DoubleLiteralExpr	-0.25280666
-2.1904442	BinaryExpr DoubleLiteralExpr	-0.25280666
-1.4110907	DoubleLiteralExpr DoubleLiteralExpr	-0.25280666
-1.1261113	<s> IfStmt	-2.417324
-1.3543603	ReturnStmt IfStmt	-0.3688028
-1.3606726	SimpleName IfStmt	-0.8211444
-1.5696472	IntegerLiteralExpr IfStmt	-0.2718928
-1.3359802	StringLiteralExpr IfStmt	-0.2910152
-1.3423455	VoidType IfStmt	-0.25280666
-0.84694546	TryStmt IfStmt	-0.38094896
-1.1894382	BooleanLiteralExpr IfStmt	-0.3066549
-1.2816472	PrimitiveType IfStmt	-0.25280666
-1.268601	DoubleLiteralExpr IfStmt	-0.25280666
-0.77643687	ForStmt IfStmt	-0.43684328
-0.69766086	BreakStmt IfStmt	-0.49521714
-1.4932514	NullLiteralExpr IfStmt	-0.23055625
-1.3482462	LambdaExpr IfStmt	-0.25280666
-1.1962707	ThisExpr IfStmt	-0.22717962
-1.3271246	LongLiteralExpr IfStmt	-0.23274523
-1.0282689	CharLiteralExpr IfStmt	-0.25280666
-0.9990029	EmptyStmt IfStmt	-0.25280666
-0.44321424	DoStmt IfStmt	-0.23767443
-0.85864043	ContinueStmt IfStmt	-0.31912592
-1.7100828	<s> ForStmt	-2.055884
-1.7416584	ReturnStmt ForStmt	-0.22717962
-1.569309	SimpleName ForStmt	-0.5857823
-1.6277333	IntegerLiteralExpr ForStmt	-0.29855368
-1.7656021	StringLiteralExpr ForStmt	-0.25280666
-1.3980169	VoidType ForStmt	-0.25280666
-1.1144167	TryStmt ForStmt	-0.39031786
-1.5922482	BooleanLiteralExpr ForStmt	-0.23274523
-1.3995597	ForStmt ForStmt	-0.23563236
-1.6229321	BreakStmt ForStmt	-0.25280666
-1.7929265	NullLiteralExpr ForStmt	-0.25280666
-1.3915098	LambdaExpr ForStmt	-0.25280666
-1.6824392	ThisExpr ForStmt	-0.25280666
-1.4760568	LongLiteralExpr ForStmt	-0.25280666
-3.4120102	<s> WhileStmt	-0.5743309
-2.0074048	ReturnStmt WhileStmt	-0.25280666
-1.885145	SimpleName WhileStmt	-0.27367023
-2.0272129	IntegerLiteralExpr WhileStmt	-0.25280666
-1.4287798	VoidType WhileStmt	-0.25280666
-1.2632036	TryStmt WhileStmt	-0.24206205
-1.8753693	BooleanLiteralExpr WhileStmt	-0.25280666
-1.7749375	ForStmt WhileStmt	-0.25280666
-1.683193	NullLiteralExpr WhileStmt	-0.23274523
-1.6941257	LongLiteralExpr WhileStmt	-0.25280666
-1.3191009	CharLiteralExpr WhileStmt	-0.25280666
-2.0600543	ReturnStmt BreakStmt	-0.25280666
-1.9744289	SimpleName BreakStmt	-0.32511252
-2.082571	IntegerLiteralExpr BreakStmt	-0.25280666
-1.7080392	StringLiteralExpr BreakStmt	-0.25280666
-1.7550828	BooleanLiteralExpr BreakStmt	-0.25280666
-1.459065	BreakStmt BreakStmt	-0.23274523
-1.8950541	NullLiteralExpr BreakStmt	-0.25280666
-1.7334738	LongLiteralExpr BreakStmt	-0.25280666
-1.492782	ContinueStmt BreakStmt	-0.25280666
-1.3250629	ReturnStmt NullLiteralExpr	-0.34018874
-1.5484794	SimpleName NullLiteralExpr	-0.3906177
-2.034991	ExpressionStmt NullLiteralExpr	-0.25280666
-1.44643	IntegerLiteralExpr NullLiteralExpr	-0.2973673
-1.3124912	Name NullLiteralExpr	-0.25280666
-1.6592766	StringLiteralExpr NullLiteralExpr	-0.23274523
-1.8413109	BinaryExpr NullLiteralExpr	-0.23274523
-1.7061316	BooleanLiteralExpr NullLiteralExpr	-0.24266012
-1.0920601	ArrayInitializerExpr NullLiteralExpr	-0.25280666
-1.3934525	NullLiteralExpr NullLiteralExpr	-0.2398627
-1.7160435	ThisExpr NullLiteralExpr	-0.25280666
-1.6757126	LongLiteralExpr NullLiteralExpr	-0.25280666
-1.764579	MethodCallExpr ClassExpr	-0.24206205
-1.776591	SimpleName ClassExpr	-0.61248875
-2.2629406	IntegerLiteralExpr ClassExpr	-0.25280666
-2.0269985	StringLiteralExpr ClassExpr	-0.25280666
-1.5404221	<s> ThrowStmt	-2.2799864
-1.6150506	SimpleName ThrowStmt	-0.5942446
-1.8178091	IntegerLiteralExpr ThrowStmt	-0.24418983
-1.6749302	StringLiteralExpr ThrowStmt	-0.23767443
-1.4287798	VoidType ThrowStmt	-0.25280666
-1.8088051	TryStmt ThrowStmt	-0.25280666
-1.6294087	BooleanLiteralExpr ThrowStmt	-0.24206205
-1.3513715	PrimitiveType ThrowStmt	-0.25280666
-1.683193	NullLiteralExpr ThrowStmt	-0.22884183
-1.4148731	LambdaExpr ThrowStmt	-0.25280666
-1.6941257	LongLiteralExpr ThrowStmt	-0.25280666
-1.9703722	ReturnStmt LambdaExpr	-0.22305168
-1.717888	SimpleName LambdaExpr	-0.41967207
-2.007811	IntegerLiteralExpr LambdaExpr	-0.23274523
-1.9702916	NullLiteralExpr LambdaExpr	-0.25280666
-1.4568424	LambdaExpr LambdaExpr	-0.25280666
-1.6107546	ThisExpr LambdaExpr	-0.25280666
-1.0020599	Parameter UnknownType	-0.22305168
-1.9069421	ReturnStmt CatchClause	-0.22305168
-1.7423908	SimpleName CatchClause	-0.7614175
-1.9390045	IntegerLiteralExpr CatchClause	-0.22305168
-1.8769238	StringLiteralExpr CatchClause	-0.25280666
-1.7550828	BooleanLiteralExpr CatchClause	-0.22305168
-1.3360014	BreakStmt CatchClause	-0.23853882
-1.7124306	NullLiteralExpr CatchClause	-0.22305168
-1.7718935	ThisExpr CatchClause	-0.25280666
-1.2386248	ContinueStmt CatchClause	-0.22305168
-1.5302252	<s> $EMPTY$	-2.712755
-1.769417	ReturnStmt ThisExpr	-0.24206205
-1.3646986	MethodCallExpr ThisExpr	-0.31145877
-1.7230929	SimpleName ThisExpr	-0.32863158
-2.0019732	IntegerLiteralExpr ThisExpr	-0.25280666
-2.0221512	BinaryExpr ThisExpr	-0.25280666
-0.89726645	FieldAccessExpr ThisExpr	-0.543092
-1.8531626	BooleanLiteralExpr ThisExpr	-0.25280666
-1.8309464	NullLiteralExpr ThisExpr	-0.25280666
-1.4312835	ThisExpr ThisExpr	-0.24242081
-1.1661398	InstanceOfExpr ThisExpr	-0.22305168
-1.6757126	LongLiteralExpr ThisExpr	-0.25280666
-0.36718166	SynchronizedStmt ThisExpr	-0.4181533
-2.101739	SimpleName FieldDeclaration	-0.2932146
-2.181615	IntegerLiteralExpr FieldDeclaration	-0.25280666
-1.9606308	StringLiteralExpr FieldDeclaration	-0.25280666
-1.4854529	VoidType FieldDeclaration	-0.25280666
-2.007497	BooleanLiteralExpr FieldDeclaration	-0.25280666
-1.800113	LongLiteralExpr FieldDeclaration	-0.25280666
-2.1578765	SimpleName WildcardType	-0.27228153
-1.3286773	WildcardType WildcardType	-0.25280666
-1.9270735	ReturnStmt InstanceOfExpr	-0.22305168
-2.0726438	SimpleName InstanceOfExpr	-0.34969306
-2.0919502	ExpressionStmt InstanceOfExpr	-0.25280666
-2.113143	IntegerLiteralExpr InstanceOfExpr	-0.25280666
-1.9030735	StringLiteralExpr InstanceOfExpr	-0.25280666
-1.7748507	BinaryExpr InstanceOfExpr	-0.23274523
-1.2667178	EnclosedExpr InstanceOfExpr	-0.24418983
-0.9680897	IfStmt InstanceOfExpr	-0.5076162
-2.2957861	ReturnStmt MethodReferenceExpr	-0.25280666
-2.0542912	SimpleName MethodReferenceExpr	-0.4117236
-2.6187804	<s> ForEachStmt	-1.6306492
-1.8346245	ReturnStmt ForEachStmt	-0.22305168
-1.8111233	SimpleName ForEachStmt	-0.6645075
-1.6382171	IntegerLiteralExpr ForEachStmt	-0.36347753
-1.7856998	StringLiteralExpr ForEachStmt	-0.25280666
-1.4080311	VoidType ForEachStmt	-0.25280666
-1.5747222	TryStmt ForEachStmt	-0.22305168
-1.6042851	BooleanLiteralExpr ForEachStmt	-0.23853882
-1.6353931	BreakStmt ForEachStmt	-0.25280666
-1.8115206	NullLiteralExpr ForEachStmt	-0.25280666
-1.6989164	ThisExpr ForEachStmt	-0.25280666
-1.4875928	LongLiteralExpr ForEachStmt	-0.22305168
-1.3025985	CharLiteralExpr ForEachStmt	-0.25280666
-1.6402137	ReturnStmt LongLiteralExpr	-0.240659
-1.660699	SimpleName LongLiteralExpr	-0.33601284
-1.9390045	IntegerLiteralExpr LongLiteralExpr	-0.25280666
-1.8772589	BinaryExpr LongLiteralExpr	-0.22305168
-1.92351	BooleanLiteralExpr LongLiteralExpr	-0.25280666
-1.5072523	UnaryExpr LongLiteralExpr	-0.24409519
-1.8950541	NullLiteralExpr LongLiteralExpr	-0.25280666
-1.7718935	ThisExpr LongLiteralExpr	-0.25280666
-1.5370692	LongLiteralExpr LongLiteralExpr	-0.2262589
-1.4004556	MethodCallExpr SuperExpr	-0.46038753
-0.89863443	VariableDeclarationExpr SingleMemberAnnotationExpr	-0.22305168
-1.1133479	MethodDeclaration SingleMemberAnnotationExpr	-0.22305168
-1.3735541	Name SingleMemberAnnotationExpr	-0.25280666
-1.3747959	Modifier SingleMemberAnnotationExpr	-0.25280666
-1.2759552	FieldDeclaration SingleMemberAnnotationExpr	-0.25280666
-4.2982435	<s> SwitchStmt	-0.23853882
-2.6463857	SimpleName SwitchStmt	-0.25280666
-2.220377	IntegerLiteralExpr SwitchStmt	-0.25280666
-2.0395365	BooleanLiteralExpr SwitchStmt	-0.25280666
-1.8596604	ThisExpr SwitchStmt	-0.25280666
-2.4098127	SimpleName SwitchEntry	-0.24561416
-1.9925481	StringLiteralExpr SwitchEntry	-0.25280666
-1.8303297	BooleanLiteralExpr SwitchEntry	-0.23767443
-1.4941361	BreakStmt SwitchEntry	-0.22305168
-1.5325842	ContinueStmt SwitchEntry	-0.25280666
-1.9025468	ReturnStmt ArrayCreationExpr	-0.23227751
-1.6888404	SimpleName ArrayCreationExpr	-0.48841625
-2.0605972	IntegerLiteralExpr ArrayCreationExpr	-0.25280666
-2.0288305	NullLiteralExpr ArrayCreationExpr	-0.25280666
-2.7671955	SimpleName ArrayCreationLevel	-0.25280666
-1.424413	PrimitiveType ArrayCreationLevel	-0.25280666
-1.0383612	WildcardType ArrayCreationLevel	-0.25280666
-2.475741	SimpleName CharLiteralExpr	-0.23632453
-2.3101337	IntegerLiteralExpr CharLiteralExpr	-0.25280666
-1.3922013	CharLiteralExpr CharLiteralExpr	-0.25280666
-1.9703722	ReturnStmt ConditionalExpr	-0.23274523
-2.101739	SimpleName ConditionalExpr	-0.23461494
-2.1235003	ExpressionStmt ConditionalExpr	-0.25280666
-1.6660653	EnclosedExpr ConditionalExpr	-0.25280666
-2.123442	IfStmt ConditionalExpr	-0.25280666
-1.8360007	ThisExpr ConditionalExpr	-0.25280666
-2.5818357	SimpleName EmptyStmt	-0.25280666
-2.3101337	IntegerLiteralExpr EmptyStmt	-0.25280666
-2.064419	StringLiteralExpr EmptyStmt	-0.25280666
-2.475741	SimpleName DoStmt	-0.23853882
-2.3101337	IntegerLiteralExpr DoStmt	-0.25280666
-2.1117175	BooleanLiteralExpr DoStmt	-0.25280666
-2.1533573	ReturnStmt ContinueStmt	-0.25280666
-2.0094748	SimpleName ContinueStmt	-0.3330558
-2.181615	IntegerLiteralExpr ContinueStmt	-0.25280666
-1.9606308	StringLiteralExpr ContinueStmt	-0.25280666
-2.007497	BooleanLiteralExpr ContinueStmt	-0.25280666
-1.9702916	NullLiteralExpr ContinueStmt	-0.25280666
-2.917853	<s> SynchronizedStmt	-1.0401711
-1.9703722	ReturnStmt SynchronizedStmt	-0.22305168
-2.0094748	SimpleName SynchronizedStmt	-0.36347753
-2.007811	IntegerLiteralExpr SynchronizedStmt	-0.22305168
-1.4854529	VoidType SynchronizedStmt	-0.25280666
-1.8102608	BooleanLiteralExpr SynchronizedStmt	-0.22305168
-2.4939146	SimpleName LabeledStmt	-0.23853882
-2.335804	IntegerLiteralExpr LabeledStmt	-0.25280666
-2.8431015	SimpleName ClassOrInterfaceDeclaration	-0.25280666

\3-grams:
-1.7697412	SimpleName ReturnStmt </s>	0
-1.4477828	IntegerLiteralExpr ReturnStmt </s>	0
-1.4494116	NullLiteralExpr ReturnStmt </s>	0
-1.0511508	ThisExpr ReturnStmt </s>	0
-0.7148731	ReturnStmt SimpleName </s>	0
-1.376096	MethodCallExpr SimpleName </s>	0
-1.2661676	SimpleName SimpleName </s>	0
-1.1197081	ExpressionStmt SimpleName </s>	0
-1.572125	ClassOrInterfaceType SimpleName </s>	0
-1.1106349	IntegerLiteralExpr SimpleName </s>	0
-1.3164477	ObjectCreationExpr SimpleName </s>	0
-1.0834714	Name SimpleName </s>	0
-1.1670899	StringLiteralExpr SimpleName </s>	0
-0.8626528	VoidType SimpleName </s>	0
-0.9942296	BooleanLiteralExpr SimpleName </s>	0
-1.3253689	ArrayType SimpleName </s>	0
-1.4237809	PrimitiveType SimpleName </s>	0
-0.9954219	ArrayInitializerExpr SimpleName </s>	0
-1.2159902	UnaryExpr SimpleName </s>	0
-0.84829485	NullLiteralExpr SimpleName </s>	0
-1.2117299	ClassExpr SimpleName </s>	0
-0.8316618	ThrowStmt SimpleName </s>	0
-0.60639304	LambdaExpr SimpleName </s>	0
-1.1961951	UnknownType SimpleName </s>	0
-1.005763	ThisExpr SimpleName </s>	0
-1.3132117	WildcardType SimpleName </s>	0
-0.93345505	MethodReferenceExpr SimpleName </s>	0
-1.02041	LongLiteralExpr SimpleName </s>	0
-0.99816084	SuperExpr SimpleName </s>	0
-1.0353372	ReturnStmt IntegerLiteralExpr </s>	0
-1.0624573	SimpleName IntegerLiteralExpr </s>	0
-0.956464	ExpressionStmt IntegerLiteralExpr </s>	0
-0.9186772	IntegerLiteralExpr IntegerLiteralExpr </s>	0
-1.0031271	StringLiteralExpr IntegerLiteralExpr </s>	0
-1.0532805	BooleanLiteralExpr IntegerLiteralExpr </s>	0
-1.1480708	UnaryExpr IntegerLiteralExpr </s>	0
-1.1626073	NullLiteralExpr IntegerLiteralExpr </s>	0
-0.73698753	LongLiteralExpr IntegerLiteralExpr </s>	0
-1.1150604	ArrayCreationLevel IntegerLiteralExpr </s>	0
-1.0301228	ThisExpr Name </s>	0
-0.78601706	ReturnStmt StringLiteralExpr </s>	0
-1.0679636	SimpleName StringLiteralExpr </s>	0
-1.0016862	IntegerLiteralExpr StringLiteralExpr </s>	0
-1.1797857	StringLiteralExpr StringLiteralExpr </s>	0
-0.36133385	LongLiteralExpr StringLiteralExpr </s>	0
-1.2161112	SimpleName VoidType </s>	0
-0.8088952	ReturnStmt BooleanLiteralExpr </s>	0
-1.0843716	SimpleName BooleanLiteralExpr </s>	0
-0.8627821	ExpressionStmt BooleanLiteralExpr </s>	0
-1.0016558	IntegerLiteralExpr BooleanLiteralExpr </s>	0
-0.91686034	StringLiteralExpr BooleanLiteralExpr </s>	0
-0.57155347	VoidType BooleanLiteralExpr </s>	0
-1.1183356	BooleanLiteralExpr BooleanLiteralExpr </s>	0
-0.7107554	NullLiteralExpr BooleanLiteralExpr </s>	0
-0.93992186	SimpleName DoubleLiteralExpr </s>	0
-0.54748565	IntegerLiteralExpr DoubleLiteralExpr </s>	0
-0.8207631	DoubleLiteralExpr DoubleLiteralExpr </s>	0
-1.1279589	SimpleName BreakStmt </s>	0
-0.8092102	IntegerLiteralExpr BreakStmt </s>	0
-0.8092102	StringLiteralExpr BreakStmt </s>	0
-0.96704507	BooleanLiteralExpr BreakStmt </s>	0
-0.66493714	ReturnStmt NullLiteralExpr </s>	0
-0.83185554	SimpleName NullLiteralExpr </s>	0
-0.75481755	IntegerLiteralExpr NullLiteralExpr </s>	0
-0.9107236	StringLiteralExpr NullLiteralExpr </s>	0
-0.9146743	BooleanLiteralExpr NullLiteralExpr </s>	0
-0.7118749	ThisExpr NullLiteralExpr </s>	0
-0.31128487	LongLiteralExpr NullLiteralExpr </s>	0
-1.4318125	SimpleName LambdaExpr </s>	0
-0.00041528	<s> $EMPTY$ </s>	0
-0.43969983	ReturnStmt ThisExpr </s>	0
-0.83052623	SimpleName ThisExpr </s>	0
-0.7159658	BooleanLiteralExpr ThisExpr </s>	0
-0.5753288	NullLiteralExpr ThisExpr </s>	0
-0.8973701	ThisExpr ThisExpr </s>	0
-0.7311791	ReturnStmt LongLiteralExpr </s>	0
-1.2122722	SimpleName LongLiteralExpr </s>	0
-0.9387668	LongLiteralExpr LongLiteralExpr </s>	0
-1.1509163	SimpleName CharLiteralExpr </s>	0
-0.60854393	SimpleName EmptyStmt </s>	0
-0.2672182	IntegerLiteralExpr EmptyStmt </s>	0
-2.0756786	SimpleName ReturnStmt ReturnStmt	-0.5529849
-1.1707385	ReturnStmt SimpleName ReturnStmt	-1.3973713
-1.4368159	MethodCallExpr SimpleName ReturnStmt	-1.294353
-1.3845913	SimpleName SimpleName ReturnStmt	-2.2414513
-1.6781669	ClassOrInterfaceType SimpleName ReturnStmt	-0.9509249
-1.738757	IntegerLiteralExpr SimpleName ReturnStmt	-0.98848426
-1.6222686	ObjectCreationExpr SimpleName ReturnStmt	-1.3126527
-1.4892495	StringLiteralExpr SimpleName ReturnStmt	-0.73824954
-1.3973166	ArrayType SimpleName ReturnStmt	-0.22374825
-1.4237841	PrimitiveType SimpleName ReturnStmt	-0.41585463
-1.2698739	UnaryExpr SimpleName ReturnStmt	-0.7579644
-0.77507114	IfStmt SimpleName ReturnStmt	-1.465367
-1.4179754	NullLiteralExpr SimpleName ReturnStmt	-0.48788196
-1.4078509	ThrowStmt SimpleName ReturnStmt	-0.16227488
-1.2586317	UnknownType SimpleName ReturnStmt	-0.8137946
-1.4479512	ThisExpr SimpleName ReturnStmt	-0.6899433
-1.3994267	WildcardType SimpleName ReturnStmt	-1.382197
-0.69896424	SwitchEntry SimpleName ReturnStmt	-0.5569867
-1.2488104	ReturnStmt IntegerLiteralExpr ReturnStmt	-0.4280461
-1.4899476	SimpleName IntegerLiteralExpr ReturnStmt	-1.6153246
-1.5684618	IntegerLiteralExpr IntegerLiteralExpr ReturnStmt	-1.1684089
-1.1144576	ArrayInitializerExpr IntegerLiteralExpr ReturnStmt	-0.16227488
-1.2575324	UnaryExpr IntegerLiteralExpr ReturnStmt	-0.6498949
-1.2124254	ArrayCreationLevel IntegerLiteralExpr ReturnStmt	-0.16227488
-1.0438495	ReturnStmt StringLiteralExpr ReturnStmt	-0.8162263
-1.3108643	SimpleName StringLiteralExpr ReturnStmt	-1.8456113
-1.450086	StringLiteralExpr StringLiteralExpr ReturnStmt	-0.38120818
-1.4440085	SimpleName VoidType ReturnStmt	-0.16227488
-1.7552857	<s> TryStmt ReturnStmt	-0.8540149
-1.446764	SimpleName TryStmt ReturnStmt	-0.16227488
-0.84806967	StringLiteralExpr TryStmt ReturnStmt	-0.38120818
-0.97223574	NullLiteralExpr TryStmt ReturnStmt	-0.38120818
-1.1330149	ReturnStmt BooleanLiteralExpr ReturnStmt	-1.3373232
-1.5388151	SimpleName BooleanLiteralExpr ReturnStmt	-0.99091303
-1.3708792	BooleanLiteralExpr BooleanLiteralExpr ReturnStmt	-0.5301822
-0.7564216	SimpleName PrimitiveType ReturnStmt	-1.8446413
-0.9859099	ArrayType PrimitiveType ReturnStmt	-0.7960229
-1.3585995	SimpleName BreakStmt ReturnStmt	-0.16227488
-0.85900784	IntegerLiteralExpr BreakStmt ReturnStmt	-0.38120818
-0.85900784	StringLiteralExpr BreakStmt ReturnStmt	-0.38120818
-1.2768528	ReturnStmt NullLiteralExpr ReturnStmt	-0.76803714
-1.2432346	SimpleName NullLiteralExpr ReturnStmt	-1.1544602
-1.3246077	IntegerLiteralExpr NullLiteralExpr ReturnStmt	-0.4280461
-1.0070913	StringLiteralExpr NullLiteralExpr ReturnStmt	-0.38120818
-0.87659013	ReturnStmt ThisExpr ReturnStmt	-0.16227488
-1.4533833	SimpleName ThisExpr ReturnStmt	-0.8033396
-1.1761738	ThisExpr ThisExpr ReturnStmt	-0.38120818
-1.2176453	SimpleName WildcardType ReturnStmt	-0.9509249
-0.9667422	ReturnStmt LongLiteralExpr ReturnStmt	-0.38120818
-1.4103785	SimpleName LongLiteralExpr ReturnStmt	-0.55706483
-0.8370537	SimpleName SwitchEntry ReturnStmt	-0.16227488
-0.53545177	StringLiteralExpr SwitchEntry ReturnStmt	-0.38120818
-0.7360578	BooleanLiteralExpr SwitchEntry ReturnStmt	-0.38120818
-0.29720664	<s> ReturnStmt MethodCallExpr	-2.6388128
-0.8291817	SimpleName ReturnStmt MethodCallExpr	-2.5359764
-0.79997575	IntegerLiteralExpr ReturnStmt MethodCallExpr	-2.1092873
-0.9228308	StringLiteralExpr ReturnStmt MethodCallExpr	-2.5674005
-0.21680151	TryStmt ReturnStmt MethodCallExpr	-1.0301061
-0.99402237	BooleanLiteralExpr ReturnStmt MethodCallExpr	-1.0648682
-0.87461805	PrimitiveType ReturnStmt MethodCallExpr	-1.0116227
-1.0464727	NullLiteralExpr ReturnStmt MethodCallExpr	-1.5191267
-0.89811516	ThisExpr ReturnStmt MethodCallExpr	-0.9509249
-0.3071945	WildcardType ReturnStmt MethodCallExpr	-0.60274416
-0.8540952	LongLiteralExpr ReturnStmt MethodCallExpr	-0.16227488
-0.7016589	SwitchEntry ReturnStmt MethodCallExpr	-0.16227488
-0.5826411	ReturnStmt MethodCallExpr MethodCallExpr	-2.3255317
-0.57578367	MethodCallExpr MethodCallExpr MethodCallExpr	-3.302025
-0.6618519	SimpleName MethodCallExpr MethodCallExpr	-2.882637
-0.71443486	ExpressionStmt MethodCallExpr MethodCallExpr	-3.3158283
-0.85950875	IntegerLiteralExpr MethodCallExpr MethodCallExpr	-1.8245361
-0.603076	StringLiteralExpr MethodCallExpr MethodCallExpr	-1.5419894
-0.937066	BinaryExpr MethodCallExpr MethodCallExpr	-1.4660671
-0.7568459	FieldAccessExpr MethodCallExpr MethodCallExpr	-0.51276463
-0.66036147	EnclosedExpr MethodCallExpr MethodCallExpr	-0.16227488
-0.48784044	PrimitiveType MethodCallExpr MethodCallExpr	-0.16227488
-0.5907376	ArrayInitializerExpr MethodCallExpr MethodCallExpr	-0.16227488
-0.67972964	UnaryExpr MethodCallExpr MethodCallExpr	-0.9376675
-0.7101484	ArrayAccessExpr MethodCallExpr MethodCallExpr	-0.38120818
-0.76716137	IfStmt MethodCallExpr MethodCallExpr	-1.1550449
-0.9055673	NullLiteralExpr MethodCallExpr MethodCallExpr	-0.8540149
-0.6206461	InstanceOfExpr MethodCallExpr MethodCallExpr	-0.6779236
-0.5907376	LongLiteralExpr MethodCallExpr MethodCallExpr	-0.97211415
-1.526573	ReturnStmt SimpleName MethodCallExpr	-0.38120818
-1.1432322	MethodCallExpr SimpleName MethodCallExpr	-2.8573496
-1.2848524	SimpleName SimpleName MethodCallExpr	-3.3926375
-1.1238142	ExpressionStmt SimpleName MethodCallExpr	-0.38120818
-1.5800825	ClassOrInterfaceType SimpleName MethodCallExpr	-1.942151
-1.0556219	IntegerLiteralExpr SimpleName MethodCallExpr	-2.4999282
-1.3214029	ObjectCreationExpr SimpleName MethodCallExpr	-1.9331961
-1.0873146	Name SimpleName MethodCallExpr	-0.6498949
-1.171397	StringLiteralExpr SimpleName MethodCallExpr	-1.9658653
-0.99630636	BinaryExpr SimpleName MethodCallExpr	-1.5772347
-0.86491984	VoidType SimpleName MethodCallExpr	-0.16227488
-1.0883374	BooleanLiteralExpr SimpleName MethodCallExpr	-1.7067997
-1.1625603	AssignExpr SimpleName MethodCallExpr	-2.3618436
-1.1557221	CastExpr SimpleName MethodCallExpr	-1.8898069
-1.3309613	ArrayType SimpleName MethodCallExpr	-0.9051674
-1.3411598	PrimitiveType SimpleName MethodCallExpr	-2.301173
-1.4510285	UnaryExpr SimpleName MethodCallExpr	-1.2519549
-1.3472316	NullLiteralExpr SimpleName MethodCallExpr	-1.2731441
-1.2170135	ClassExpr SimpleName MethodCallExpr	-1.1122929
-1.3643003	ThisExpr SimpleName MethodCallExpr	-1.3822887
-1.1862636	WildcardType SimpleName MethodCallExpr	-1.5529848
-1.0238674	LongLiteralExpr SimpleName MethodCallExpr	-1.0970529
-0.9415002	CharLiteralExpr SimpleName MethodCallExpr	-0.38120818
-0.24585277	<s> ExpressionStmt MethodCallExpr	-3.121736
-0.55011916	ReturnStmt ExpressionStmt MethodCallExpr	-2.0646026
-0.47549617	SimpleName ExpressionStmt MethodCallExpr	-3.6469455
-0.35346478	IntegerLiteralExpr ExpressionStmt MethodCallExpr	-2.9965944
-0.4517505	Name ExpressionStmt MethodCallExpr	-0.6498949
-0.6891314	StringLiteralExpr ExpressionStmt MethodCallExpr	-2.875556
-0.61427605	VoidType ExpressionStmt MethodCallExpr	-2.6458342
-0.3790507	TryStmt ExpressionStmt MethodCallExpr	-2.4335604
-0.45689827	BooleanLiteralExpr ExpressionStmt MethodCallExpr	-2.541618
-0.4517505	PrimitiveType ExpressionStmt MethodCallExpr	-1.0301061
-0.46471977	DoubleLiteralExpr ExpressionStmt MethodCallExpr	-0.76629096
-1.085221	ForStmt ExpressionStmt MethodCallExpr	-0.38120818
-0.70840794	BreakStmt ExpressionStmt MethodCallExpr	-1.4279366
-0.39593208	NullLiteralExpr ExpressionStmt MethodCallExpr	-2.3470783
-0.4276507	LambdaExpr ExpressionStmt MethodCallExpr	-1.5672253
-0.42593592	ThisExpr ExpressionStmt MethodCallExpr	-2.3069508
-0.3125174	LongLiteralExpr ExpressionStmt MethodCallExpr	-1.9830581
-0.39062503	SwitchEntry ExpressionStmt MethodCallExpr	-0.9051674
-0.5263704	CharLiteralExpr ExpressionStmt MethodCallExpr	-0.53584206
-0.4517505	DoStmt ExpressionStmt MethodCallExpr	-0.16227488
-0.7188047	ContinueStmt ExpressionStmt MethodCallExpr	-0.99231756
-1.2280802	ReturnStmt IntegerLiteralExpr MethodCallExpr	-0.16227488
-1.2080863	SimpleName IntegerLiteralExpr MethodCallExpr	-2.5977354
-1.2076718	IntegerLiteralExpr IntegerLiteralExpr MethodCallExpr	-1.6833186
-1.1286318	StringLiteralExpr IntegerLiteralExpr MethodCallExpr	-1.2061974
-0.8697312	BinaryExpr IntegerLiteralExpr MethodCallExpr	-1.2933476
-1.1736171	BooleanLiteralExpr IntegerLiteralExpr MethodCallExpr	-0.7960229
-1.0199461	ArrayInitializerExpr IntegerLiteralExpr MethodCallExpr	-1.3658983
-1.2293838	UnaryExpr IntegerLiteralExpr MethodCallExpr	-0.38089544
-1.1457419	NullLiteralExpr IntegerLiteralExpr MethodCallExpr	-1.0301061
-1.0991517	ArrayCreationLevel IntegerLiteralExpr MethodCallExpr	-0.72907615
-1.2478168	SimpleName StringLiteralExpr MethodCallExpr	-2.486641
-1.1808467	IntegerLiteralExpr StringLiteralExpr MethodCallExpr	-0.38120818
-1.202316	StringLiteralExpr StringLiteralExpr MethodCallExpr	-1.3578627
-0.9230403	BinaryExpr StringLiteralExpr MethodCallExpr	-1.779155
-0.92241657	ReturnStmt BinaryExpr MethodCallExpr	-1.7701877
-0.83482355	SimpleName BinaryExpr MethodCallExpr	-1.8013228
-0.96756965	IntegerLiteralExpr BinaryExpr MethodCallExpr	-1.3578627
-0.7535442	StringLiteralExpr BinaryExpr MethodCallExpr	-0.38120818
-0.79879534	BinaryExpr BinaryExpr MethodCallExpr	-1.9099662
-0.80715615	EnclosedExpr BinaryExpr MethodCallExpr	-1.5843934
-0.7312798	IfStmt BinaryExpr MethodCallExpr	-2.4275634
-0.79581696	WhileStmt BinaryExpr MethodCallExpr	-1.6542163
-0.8179953	NullLiteralExpr BinaryExpr MethodCallExpr	-0.38120818
-0.5460082	ThisExpr BinaryExpr MethodCallExpr	-0.5529849
-0.8527465	ArrayCreationLevel BinaryExpr MethodCallExpr	-0.4280461
-0.91043055	ConditionalExpr BinaryExpr MethodCallExpr	-0.9051674
-1.0439694	ReturnStmt FieldAccessExpr MethodCallExpr	-0.7960229
-1.1290689	MethodCallExpr FieldAccessExpr MethodCallExpr	-0.4280461
-1.2369212	SimpleName FieldAccessExpr MethodCallExpr	-1.1590466
-1.1145391	IntegerLiteralExpr FieldAccessExpr MethodCallExpr	-0.9051674
-0.9942309	BinaryExpr FieldAccessExpr MethodCallExpr	-1.1550449
-0.2990604	EnclosedExpr FieldAccessExpr MethodCallExpr	-1.3311361
-1.4816744	ReturnStmt BooleanLiteralExpr MethodCallExpr	-0.38120818
-1.5833292	SimpleName BooleanLiteralExpr MethodCallExpr	-1.6411209
-1.2705029	IntegerLiteralExpr BooleanLiteralExpr MethodCallExpr	-0.38120818
-1.2741178	BooleanLiteralExpr BooleanLiteralExpr MethodCallExpr	-0.16227488
-1.0745665	SimpleName EnclosedExpr MethodCallExpr	-0.38089544
-0.828817	IntegerLiteralExpr EnclosedExpr MethodCallExpr	-0.38120818
-1.2735494	BinaryExpr EnclosedExpr MethodCallExpr	-0.16227488
-1.0509828	CastExpr PrimitiveType MethodCallExpr	-0.60274416
-0.93538845	SimpleName ArrayInitializerExpr MethodCallExpr	-0.16227488
-0.8713081	ArrayCreationLevel ArrayInitializerExpr MethodCallExpr	-1.3017142
-0.7644963	ReturnStmt UnaryExpr MethodCallExpr	-0.4280461
-0.9726823	SimpleName UnaryExpr MethodCallExpr	-1.5843934
-0.65003955	IntegerLiteralExpr UnaryExpr MethodCallExpr	-1.1939629
-0.6627246	StringLiteralExpr UnaryExpr MethodCallExpr	-1.3126527
-0.4671648	BinaryExpr UnaryExpr MethodCallExpr	-1.2930664
-0.4425545	IfStmt UnaryExpr MethodCallExpr	-2.1070755
-0.19006671	WhileStmt UnaryExpr MethodCallExpr	-1.9803087
-0.489373	NullLiteralExpr UnaryExpr MethodCallExpr	-1.1270162
-0.882825	MethodCallExpr ArrayAccessExpr MethodCallExpr	-0.38120818
-0.9579297	SimpleName ArrayAccessExpr MethodCallExpr	-0.927738
-0.62875164	IntegerLiteralExpr ArrayAccessExpr MethodCallExpr	-1.0970529
-0.94977176	BinaryExpr ArrayAccessExpr MethodCallExpr	-0.38120818
-0.5179198	<s> IfStmt MethodCallExpr	-2.125062
-0.6257393	ReturnStmt IfStmt MethodCallExpr	-1.6041374
-0.7471512	SimpleName IfStmt MethodCallExpr	-1.7726567
-0.672469	IntegerLiteralExpr IfStmt MethodCallExpr	-1.5191267
-0.45061943	StringLiteralExpr IfStmt MethodCallExpr	-1.0288172
-0.6989932	VoidType IfStmt MethodCallExpr	-0.7520309
-0.81355023	TryStmt IfStmt MethodCallExpr	-0.7960229
-0.7072311	BooleanLiteralExpr IfStmt MethodCallExpr	-1.5072274
-0.446067	ForStmt IfStmt MethodCallExpr	-1.494993
-0.7214016	BreakStmt IfStmt MethodCallExpr	-1.4422865
-0.7034694	NullLiteralExpr IfStmt MethodCallExpr	-1.4765525
-0.632114	ThisExpr IfStmt MethodCallExpr	-0.8540149
-0.719963	LongLiteralExpr IfStmt MethodCallExpr	-0.72907615
-0.5869908	CharLiteralExpr IfStmt MethodCallExpr	-0.38120818
-0.25726372	EmptyStmt IfStmt MethodCallExpr	-1.1550449
-0.49959248	DoStmt IfStmt MethodCallExpr	-0.6498949
-0.5453103	ContinueStmt IfStmt MethodCallExpr	-0.7168846
-0.98070514	SimpleName WhileStmt MethodCallExpr	-0.9509249
-0.8434959	IntegerLiteralExpr WhileStmt MethodCallExpr	-0.5529849
-1.2726238	ReturnStmt NullLiteralExpr MethodCallExpr	-0.5529849
-1.3877107	SimpleName NullLiteralExpr MethodCallExpr	-1.6136827
-1.0661423	IntegerLiteralExpr NullLiteralExpr MethodCallExpr	-0.9051674
-0.716905	BinaryExpr NullLiteralExpr MethodCallExpr	-0.6498949
-0.8149898	ArrayInitializerExpr NullLiteralExpr MethodCallExpr	-1.0301061
-1.0032834	NullLiteralExpr NullLiteralExpr MethodCallExpr	-0.38120818
-2.8416293	<s> ThrowStmt MethodCallExpr	-0.38120818
-0.76619685	SimpleName ThrowStmt MethodCallExpr	-2.1032133
-0.72183967	IntegerLiteralExpr ThrowStmt MethodCallExpr	-1.2061974
-0.6709304	StringLiteralExpr ThrowStmt MethodCallExpr	-0.6498949
-0.26698595	TryStmt ThrowStmt MethodCallExpr	-0.16227488
-0.5754469	NullLiteralExpr ThrowStmt MethodCallExpr	-1.3311361
-1.5160378	SimpleName ThisExpr MethodCallExpr	-1.4133229
-1.1839933	SimpleName WildcardType MethodCallExpr	-0.8540149
-0.3337268	SimpleName InstanceOfExpr MethodCallExpr	-1.8620825
-0.4603755	StringLiteralExpr InstanceOfExpr MethodCallExpr	-0.5529849
-0.55464876	BinaryExpr InstanceOfExpr MethodCallExpr	-0.38120818
-0.41806185	EnclosedExpr InstanceOfExpr MethodCallExpr	-1.1078942
-0.81111175	IfStmt InstanceOfExpr MethodCallExpr	-0.30171418
-1.2140083	SimpleName LongLiteralExpr MethodCallExpr	-1.1813738
-1.0575931	UnaryExpr LongLiteralExpr MethodCallExpr	-0.38120818
-0.8903997	SimpleName ArrayCreationLevel MethodCallExpr	-0.38120818
-0.843403	PrimitiveType ArrayCreationLevel MethodCallExpr	-0.38120818
-1.1220742	SimpleName CharLiteralExpr MethodCallExpr	-0.38120818
-0.844059	SimpleName ConditionalExpr MethodCallExpr	-0.5529849
-0.9996517	<s> ReturnStmt SimpleName	-2.7461095
-0.8394001	SimpleName ReturnStmt SimpleName	-1.7888485
-1.0788573	IntegerLiteralExpr ReturnStmt SimpleName	-1.1362078
-1.04867	StringLiteralExpr ReturnStmt SimpleName	-1.0263183
-0.3120552	VoidType ReturnStmt SimpleName	-0.38120818
-1.0193682	BooleanLiteralExpr ReturnStmt SimpleName	-0.81601167
-0.893376	PrimitiveType ReturnStmt SimpleName	-0.61993164
-0.7138151	BreakStmt ReturnStmt SimpleName	-0.16227488
-1.0747465	NullLiteralExpr ReturnStmt SimpleName	-0.8235407
-0.3497095	ReturnStmt MethodCallExpr SimpleName	-2.4301457
-0.45142442	MethodCallExpr MethodCallExpr SimpleName	-3.4493732
-0.33028722	SimpleName MethodCallExpr SimpleName	-3.0276833
-0.5198983	ExpressionStmt MethodCallExpr SimpleName	-3.275254
-0.23340379	IntegerLiteralExpr MethodCallExpr SimpleName	-2.5160034
-0.51156425	StringLiteralExpr MethodCallExpr SimpleName	-2.5151963
-0.2680166	BinaryExpr MethodCallExpr SimpleName	-2.3007782
-0.3052861	FieldAccessExpr MethodCallExpr SimpleName	-1.8430195
-0.16008793	BooleanLiteralExpr MethodCallExpr SimpleName	-1.1980796
-0.43478802	EnclosedExpr MethodCallExpr SimpleName	-0.4280461
-0.41842994	PrimitiveType MethodCallExpr SimpleName	-0.8540149
-0.36020792	ArrayInitializerExpr MethodCallExpr SimpleName	-1.649895
-0.3050937	UnaryExpr MethodCallExpr SimpleName	-1.9996642
-0.37911162	ArrayAccessExpr MethodCallExpr SimpleName	-1.3822887
-0.29104108	IfStmt MethodCallExpr SimpleName	-2.1903186
-0.24109006	WhileStmt MethodCallExpr SimpleName	-1.0970529
-0.1524547	NullLiteralExpr MethodCallExpr SimpleName	-1.8744925
-0.099927604	ThrowStmt MethodCallExpr SimpleName	-1.7571049
-0.22025424	ThisExpr MethodCallExpr SimpleName	-1.4133229
-0.22025424	WildcardType MethodCallExpr SimpleName	-0.8540149
-0.27310324	InstanceOfExpr MethodCallExpr SimpleName	-2.2273867
-0.36020792	LongLiteralExpr MethodCallExpr SimpleName	-0.9599227
-0.24109006	ArrayCreationLevel MethodCallExpr SimpleName	-0.16227488
-0.22025424	CharLiteralExpr MethodCallExpr SimpleName	-0.38120818
-0.22025424	ConditionalExpr MethodCallExpr SimpleName	-0.5529849
-0.9661789	ReturnStmt SimpleName SimpleName	-1.5371907
-0.6929374	MethodCallExpr SimpleName SimpleName	-3.327581
-1.124492	SimpleName SimpleName SimpleName	-3.1183014
-1.0446689	ExpressionStmt SimpleName SimpleName	-1.2084583
-0.16805688	VariableDeclarator SimpleName SimpleName	-2.5504847
-0.72806084	ClassOrInterfaceType SimpleName SimpleName	-2.8495612
-0.95883656	IntegerLiteralExpr SimpleName SimpleName	-2.01623
-1.0185698	ObjectCreationExpr SimpleName SimpleName	-1.8406553
-0.8466735	Name SimpleName SimpleName	-1.035195
-0.84510213	Modifier SimpleName SimpleName	-1.9796301
-0.35088372	Parameter SimpleName SimpleName	-2.6814387
-0.9982958	StringLiteralExpr SimpleName SimpleName	-1.4692688
-0.8886486	BinaryExpr SimpleName SimpleName	-1.7906961
-0.8195446	VoidType SimpleName SimpleName	-0.25808933
-0.03631665	FieldAccessExpr SimpleName SimpleName	-2.4862328
-0.88329446	BooleanLiteralExpr SimpleName SimpleName	-1.2874454
-1.1874564	AssignExpr SimpleName SimpleName	-1.7576551
-0.80381167	CastExpr SimpleName SimpleName	-1.3497406
-0.5654532	ArrayType SimpleName SimpleName	-1.5670844
-1.0192739	PrimitiveType SimpleName SimpleName	-1.2885281
-0.9366093	ArrayInitializerExpr SimpleName SimpleName	-1.1078942
-1.2534808	UnaryExpr SimpleName SimpleName	-0.8769661
-0.5489544	ArrayAccessExpr SimpleName SimpleName	-1.2759132
-0.8981824	NullLiteralExpr SimpleName SimpleName	-1.2137133
-1.1174817	ClassExpr SimpleName SimpleName	-1.1375858
-0.9864677	ThrowStmt SimpleName SimpleName	-1.0442436
-0.58197194	LambdaExpr SimpleName SimpleName	-0.38120818
-1.1667231	ThisExpr SimpleName SimpleName	-1.630328
-1.0938761	WildcardType SimpleName SimpleName	-1.820372
-0.16774914	InstanceOfExpr SimpleName SimpleName	-1.4864062
-1.0415553	MethodReferenceExpr SimpleName SimpleName	-0.88201344
-0.95635355	LongLiteralExpr SimpleName SimpleName	-0.72907615
-0.94027954	SuperExpr SimpleName SimpleName	-1.7321581
-0.5948814	ConditionalExpr SimpleName SimpleName	-0.80638856
-2.1110976	SimpleName ExpressionStmt SimpleName	-1.2160897
-0.57179064	VariableDeclarationExpr VariableDeclarator SimpleName	-3.7067235
-0.23775761	Name VariableDeclarator SimpleName	-0.16227488
-0.61237407	Modifier VariableDeclarator SimpleName	-3.183667
-0.6064986	StringLiteralExpr VariableDeclarator SimpleName	-1.5191267
-0.64179474	FieldDeclaration VariableDeclarator SimpleName	-0.7960229
-0.0591752	SimpleName ClassOrInterfaceType SimpleName	-3.1200848
-0.14899784	VariableDeclarator ClassOrInterfaceType SimpleName	-3.468945
-0.15451433	ClassOrInterfaceType ClassOrInterfaceType SimpleName	-0.9051674
-0.051440075	ObjectCreationExpr ClassOrInterfaceType SimpleName	-2.6017597
-0.27341002	Name ClassOrInterfaceType SimpleName	-1.2731441
-0.12293276	Modifier ClassOrInterfaceType SimpleName	-1.494993
-0.27341002	Parameter ClassOrInterfaceType SimpleName	-2.625786
-0.1203397	CastExpr ClassOrInterfaceType SimpleName	-2.064022
-0.092089675	ArrayType ClassOrInterfaceType SimpleName	-1.9942871
-0.12293276	PrimitiveType ClassOrInterfaceType SimpleName	-1.0970529
-0.22568493	ClassExpr ClassOrInterfaceType SimpleName	-1.2519549
-0.27341002	WildcardType ClassOrInterfaceType SimpleName	-1.5461884
-0.12293276	ArrayCreationExpr ClassOrInterfaceType SimpleName	-0.9509249
-0.97343004	ReturnStmt IntegerLiteralExpr SimpleName	-1.0387919
-0.9629741	SimpleName IntegerLiteralExpr SimpleName	-2.318606
-0.7328681	ExpressionStmt IntegerLiteralExpr SimpleName	-0.5289347
-0.88485986	IntegerLiteralExpr IntegerLiteralExpr SimpleName	-1.9672747
-0.8259313	StringLiteralExpr IntegerLiteralExpr SimpleName	-0.47780544
-0.7208352	BinaryExpr IntegerLiteralExpr SimpleName	-1.141043
-0.87705135	BooleanLiteralExpr IntegerLiteralExpr SimpleName	-0.7858304
-1.0682722	UnaryExpr IntegerLiteralExpr SimpleName	-1.0307845
-0.95904535	NullLiteralExpr IntegerLiteralExpr SimpleName	-0.30171418
-0.8595775	ThisExpr IntegerLiteralExpr SimpleName	-0.38120818
-1.0425045	ArrayCreationLevel IntegerLiteralExpr SimpleName	-0.38120818
-0.40516782	ReturnStmt ObjectCreationExpr SimpleName	-1.2469227
-0.27446446	MethodCallExpr ObjectCreationExpr SimpleName	-1.2335579
-0.3782016	SimpleName ObjectCreationExpr SimpleName	-2.4772732
-0.3434584	ExpressionStmt ObjectCreationExpr SimpleName	-0.31399328
-0.47029954	IntegerLiteralExpr ObjectCreationExpr SimpleName	-0.6833186
-0.254019	StringLiteralExpr ObjectCreationExpr SimpleName	-0.5992197
-0.3420203	VoidType ObjectCreationExpr SimpleName	-0.38120818
-0.17030561	ArrayInitializerExpr ObjectCreationExpr SimpleName	-0.16227488
-0.455292	NullLiteralExpr ObjectCreationExpr SimpleName	-0.38120818
-0.04603169	ThrowStmt ObjectCreationExpr SimpleName	-2.0378904
-0.3420203	ThisExpr ObjectCreationExpr SimpleName	-0.4280461
-0.6242737	MarkerAnnotationExpr Name SimpleName	-1.3311361
-0.602293	ThisExpr Name SimpleName	-0.6787831
-0.46087992	Name Modifier SimpleName	-3.227846
-0.5646523	Modifier Modifier SimpleName	-0.16227488
-0.48060465	Parameter Modifier SimpleName	-2.0844638
-0.24666548	StringLiteralExpr Modifier SimpleName	-0.72907615
-0.7588011	SimpleName Parameter SimpleName	-3.6495473
-0.119627245	CatchClause Parameter SimpleName	-3.2766457
-1.1154141	ReturnStmt StringLiteralExpr SimpleName	-0.38120818
-0.21638417	MethodCallExpr StringLiteralExpr SimpleName	-1.428819
-1.1387742	SimpleName StringLiteralExpr SimpleName	-1.7151222
-0.9148357	IntegerLiteralExpr StringLiteralExpr SimpleName	-0.51276463
-1.059755	StringLiteralExpr StringLiteralExpr SimpleName	-1.1219186
-0.8397025	BinaryExpr StringLiteralExpr SimpleName	-1.6314986
-0.7534717	ReturnStmt BinaryExpr SimpleName	-1.8816193
-0.6338994	SimpleName BinaryExpr SimpleName	-1.9508096
-0.61258215	ExpressionStmt BinaryExpr SimpleName	-1.4759697
-0.85224855	IntegerLiteralExpr BinaryExpr SimpleName	-2.2512531
-0.6763789	StringLiteralExpr BinaryExpr SimpleName	-0.68604517
-0.6262456	BinaryExpr BinaryExpr SimpleName	-1.8421073
-0.4981706	BooleanLiteralExpr BinaryExpr SimpleName	-0.38120818
-0.6719943	EnclosedExpr BinaryExpr SimpleName	-1.4718821
-0.63181275	IfStmt BinaryExpr SimpleName	-2.3719466
-0.5162344	ForStmt BinaryExpr SimpleName	-0.22374825
-0.5945859	WhileStmt BinaryExpr SimpleName	-1.0841689
-0.73240995	NullLiteralExpr BinaryExpr SimpleName	-0.7167963
-0.4981706	ThisExpr BinaryExpr SimpleName	-0.53584206
-0.4981706	LongLiteralExpr BinaryExpr SimpleName	-0.51276463
-0.62821066	ArrayCreationLevel BinaryExpr SimpleName	-1.5072274
-0.26905373	CharLiteralExpr BinaryExpr SimpleName	-0.38120818
-0.4469231	ConditionalExpr BinaryExpr SimpleName	-1.2167445
-1.1123967	SimpleName VoidType SimpleName	-0.470778
-0.19414017	ReturnStmt FieldAccessExpr SimpleName	-1.9923176
-0.24235079	MethodCallExpr FieldAccessExpr SimpleName	-3.2861822
-0.14551774	SimpleName FieldAccessExpr SimpleName	-3.504201
-0.09283134	IntegerLiteralExpr FieldAccessExpr SimpleName	-3.3764591
-0.24642901	StringLiteralExpr FieldAccessExpr SimpleName	-1.9762307
-0.21103023	BinaryExpr FieldAccessExpr SimpleName	-2.4547155
-0.16418886	VoidType FieldAccessExpr SimpleName	-0.16227488
-0.2236445	FieldAccessExpr FieldAccessExpr SimpleName	-2.0747764
-0.17090479	BooleanLiteralExpr FieldAccessExpr SimpleName	-1.789774
-0.3329679	AssignExpr FieldAccessExpr SimpleName	-2.2853787
-0.16418886	ArrayInitializerExpr FieldAccessExpr SimpleName	-0.38120818
-0.19074377	UnaryExpr FieldAccessExpr SimpleName	-1.2519549
-0.17857462	ArrayAccessExpr FieldAccessExpr SimpleName	-0.9509249
-0.17857462	IfStmt FieldAccessExpr SimpleName	-1.2296785
-0.16418886	NullLiteralExpr FieldAccessExpr SimpleName	-0.7960229
-0.16418886	ThisExpr FieldAccessExpr SimpleName	-0.6498949
-0.16418886	WildcardType FieldAccessExpr SimpleName	-0.72907615
-0.17090479	LongLiteralExpr FieldAccessExpr SimpleName	-2.0153828
-0.17857462	SwitchEntry FieldAccessExpr SimpleName	-0.4280461
-0.16418886	ArrayCreationLevel FieldAccessExpr SimpleName	-0.38120818
-1.1101996	ReturnStmt BooleanLiteralExpr SimpleName	-0.91868937
-0.7820876	SimpleName BooleanLiteralExpr SimpleName	-1.3935217
-0.6399794	ExpressionStmt BooleanLiteralExpr SimpleName	-1.0952263
-0.8285935	IntegerLiteralExpr BooleanLiteralExpr SimpleName	-0.73147273
-0.8535836	StringLiteralExpr BooleanLiteralExpr SimpleName	-0.46292502
-0.54183567	VoidType BooleanLiteralExpr SimpleName	-0.57593966
-0.83206016	BooleanLiteralExpr BooleanLiteralExpr SimpleName	-0.7655511
-0.294284	ThisExpr BooleanLiteralExpr SimpleName	-0.7960229
-0.54183567	LongLiteralExpr BooleanLiteralExpr SimpleName	-0.61733234
-0.16574696	SimpleName AssignExpr SimpleName	-0.8540149
-0.36940998	ExpressionStmt AssignExpr SimpleName	-2.3719115
-0.16574696	IntegerLiteralExpr AssignExpr SimpleName	-1.0301061
-0.16574696	EnclosedExpr AssignExpr SimpleName	-1.0970529
-1.3261396	BinaryExpr EnclosedExpr SimpleName	-0.16227488
-0.30391	ReturnStmt CastExpr SimpleName	-1.04039
-0.5323051	SimpleName CastExpr SimpleName	-1.7030288
-0.5957452	IntegerLiteralExpr CastExpr SimpleName	-1.6136827
-0.5113214	BinaryExpr CastExpr SimpleName	-1.0301061
-0.36653394	EnclosedExpr CastExpr SimpleName	-1.678783
-0.25557715	ThrowStmt CastExpr SimpleName	-0.5919459
-0.3038306	SimpleName ArrayType SimpleName	-1.3625445
-0.39188978	VariableDeclarator ArrayType SimpleName	-2.456075
-0.16859615	Name ArrayType SimpleName	-0.38120818
-0.16859615	Modifier ArrayType SimpleName	-0.7960229
-0.41557318	Parameter ArrayType SimpleName	-1.9331961
-0.3504474	CastExpr ArrayType SimpleName	-0.64983296
-0.16859615	ClassExpr ArrayType SimpleName	-0.6498949
-0.16859615	MethodReferenceExpr ArrayType SimpleName	-0.6498949
-0.18178454	VariableDeclarator PrimitiveType SimpleName	-2.2088826
-0.252808	Parameter PrimitiveType SimpleName	-1.5249561
-0.35922554	CastExpr PrimitiveType SimpleName	-1.1148247
-0.3702636	ArrayType PrimitiveType SimpleName	-1.3679972
-0.8920333	SimpleName ArrayInitializerExpr SimpleName	-0.38120818
-0.83286315	ArrayCreationLevel ArrayInitializerExpr SimpleName	-0.9484795
-0.4325145	ReturnStmt UnaryExpr SimpleName	-0.83121216
-0.3551217	SimpleName UnaryExpr SimpleName	-1.8169059
-0.1435703	ExpressionStmt UnaryExpr SimpleName	-1.5894418
-0.53063476	IntegerLiteralExpr UnaryExpr SimpleName	-1.8215339
-0.4231358	StringLiteralExpr UnaryExpr SimpleName	-0.587747
-0.35218334	BinaryExpr UnaryExpr SimpleName	-1.6234446
-0.23334016	EnclosedExpr UnaryExpr SimpleName	-0.22374825
-0.37859195	IfStmt UnaryExpr SimpleName	-1.5422003
-0.7244368	WhileStmt UnaryExpr SimpleName	-0.5529849
-0.40758255	NullLiteralExpr UnaryExpr SimpleName	-0.16227488
-0.21334986	ThisExpr UnaryExpr SimpleName	-0.38120818
-0.49802393	LongLiteralExpr UnaryExpr SimpleName	-0.38120818
-0.12827381	ReturnStmt ArrayAccessExpr SimpleName	-0.51276463
-0.1173255	MethodCallExpr ArrayAccessExpr SimpleName	-1.8038263
-0.09782478	SimpleName ArrayAccessExpr SimpleName	-1.9450953
-0.21981683	IntegerLiteralExpr ArrayAccessExpr SimpleName	-2.0844638
-0.12827381	StringLiteralExpr ArrayAccessExpr SimpleName	-0.7960229
-0.098496445	BinaryExpr ArrayAccessExpr SimpleName	-1.2480375
-0.12307726	FieldAccessExpr ArrayAccessExpr SimpleName	-0.5529849
-0.11850278	BooleanLiteralExpr ArrayAccessExpr SimpleName	-1.7433165
-0.26715878	AssignExpr ArrayAccessExpr SimpleName	-2.0530155
-0.12307726	UnaryExpr ArrayAccessExpr SimpleName	-2.060626
-0.12827381	InstanceOfExpr ArrayAccessExpr SimpleName	-0.16227488
-0.80542487	SimpleName DoubleLiteralExpr SimpleName	-0.38120818
-0.2962712	BinaryExpr DoubleLiteralExpr SimpleName	-0.38120818
-0.7066877	<s> IfStmt SimpleName	-1.958675
-0.8845953	ReturnStmt IfStmt SimpleName	-1.3902576
-0.7546299	SimpleName IfStmt SimpleName	-1.5324719
-0.7876853	IntegerLiteralExpr IfStmt SimpleName	-0.4087007
-0.8507935	StringLiteralExpr IfStmt SimpleName	-0.4832008
-0.7242778	VoidType IfStmt SimpleName	-0.5529849
-1.0031438	TryStmt IfStmt SimpleName	-0.38120818
-0.8224474	BooleanLiteralExpr IfStmt SimpleName	-1.2347755
-0.5854809	ForStmt IfStmt SimpleName	-1.5072274
-1.0862777	BreakStmt IfStmt SimpleName	-0.27081406
-0.7304096	NullLiteralExpr IfStmt SimpleName	-1.0073034
-0.77066016	ThisExpr IfStmt SimpleName	-1.0812587
-0.6214997	LongLiteralExpr IfStmt SimpleName	-0.4280461
-0.6689714	DoStmt IfStmt SimpleName	-0.22374825
-0.9101865	ContinueStmt IfStmt SimpleName	-0.6498949
-1.3750163	SimpleName BreakStmt SimpleName	-0.16227488
-1.0551379	ReturnStmt NullLiteralExpr SimpleName	-1.4014446
-0.86248314	SimpleName NullLiteralExpr SimpleName	-1.1457467
-0.29408792	ExpressionStmt NullLiteralExpr SimpleName	-0.5301822
-1.0643847	IntegerLiteralExpr NullLiteralExpr SimpleName	-0.7488722
-0.47146195	BinaryExpr NullLiteralExpr SimpleName	-0.76803714
-0.8480153	BooleanLiteralExpr NullLiteralExpr SimpleName	-0.16227488
-0.9067333	NullLiteralExpr NullLiteralExpr SimpleName	-0.38120818
-0.66985184	ThisExpr NullLiteralExpr SimpleName	-0.16227488
-0.27349573	MethodCallExpr ClassExpr SimpleName	-1.4422865
-0.107383825	SimpleName ClassExpr SimpleName	-2.2891366
-0.18590592	IntegerLiteralExpr ClassExpr SimpleName	-2.199056
-0.36539274	StringLiteralExpr ClassExpr SimpleName	-1.2731441
-1.4570094	<s> ThrowStmt SimpleName	-1.4422865
-1.0370766	SimpleName ThrowStmt SimpleName	-0.8644471
-0.62170315	IntegerLiteralExpr ThrowStmt SimpleName	-0.4280461
-0.57957196	StringLiteralExpr ThrowStmt SimpleName	-0.4210377
-0.43371767	VoidType ThrowStmt SimpleName	-0.22374825
-0.58211577	BooleanLiteralExpr ThrowStmt SimpleName	-0.8540149
-0.43371767	PrimitiveType ThrowStmt SimpleName	-0.60413736
-0.61196107	NullLiteralExpr ThrowStmt SimpleName	-0.72907615
-1.3407694	SimpleName LambdaExpr SimpleName	-0.38120818
-0.14128706	Parameter UnknownType SimpleName	-1.9808913
-0.35700393	MethodCallExpr ThisExpr SimpleName	-0.43593597
-0.829481	SimpleName ThisExpr SimpleName	-1.6452819
-0.29094794	BinaryExpr ThisExpr SimpleName	-0.16227488
-0.15826754	FieldAccessExpr ThisExpr SimpleName	-1.7506293
-0.93443704	ThisExpr ThisExpr SimpleName	-0.72907615
-0.3213738	InstanceOfExpr ThisExpr SimpleName	-0.8769697
-0.8085646	SimpleName WildcardType SimpleName	-1.9661378
-0.53052974	WildcardType WildcardType SimpleName	-0.5569867
-0.20804663	ReturnStmt InstanceOfExpr SimpleName	-0.9051674
-0.5178115	SimpleName InstanceOfExpr SimpleName	-1.6321661
-0.19072369	ExpressionStmt InstanceOfExpr SimpleName	-0.72907615
-0.372697	StringLiteralExpr InstanceOfExpr SimpleName	-0.38120818
-0.3181418	BinaryExpr InstanceOfExpr SimpleName	-1.2731441
-0.5292541	EnclosedExpr InstanceOfExpr SimpleName	-1.2296785
-0.1776654	IfStmt InstanceOfExpr SimpleName	-1.948748
-0.22013992	ReturnStmt MethodReferenceExpr SimpleName	-0.38120818
-0.23215547	SimpleName MethodReferenceExpr SimpleName	-1.1075706
-0.9561221	SimpleName LongLiteralExpr SimpleName	-1.0372949
-0.31759247	BooleanLiteralExpr LongLiteralExpr SimpleName	-0.16227488
-0.8801198	LongLiteralExpr LongLiteralExpr SimpleName	-0.86661744
-0.076128006	MethodCallExpr SuperExpr SimpleName	-1.8597419
-0.082263075	<s> SwitchStmt SimpleName	-0.4280461
-0.0793457	SimpleName SwitchStmt SimpleName	-0.4280461
-0.0793457	IntegerLiteralExpr SwitchStmt SimpleName	-0.38120818
-0.0793457	BooleanLiteralExpr SwitchStmt SimpleName	-0.8540149
-0.0793457	ThisExpr SwitchStmt SimpleName	-0.38120818
-0.4597273	SimpleName SwitchEntry SimpleName	-0.7748336
-0.46983007	BooleanLiteralExpr SwitchEntry SimpleName	-0.76803714
-0.46381116	BreakStmt SwitchEntry SimpleName	-0.6498949
-0.2405607	ContinueStmt SwitchEntry SimpleName	-0.8540149
-0.44658563	ReturnStmt ArrayCreationExpr SimpleName	-0.5529849
-0.20346723	SimpleName ArrayCreationExpr SimpleName	-2.6593459
-0.38881075	IntegerLiteralExpr ArrayCreationExpr SimpleName	-0.5529849
-0.20125413	NullLiteralExpr ArrayCreationExpr SimpleName	-0.4280461
-0.920977	SimpleName ArrayCreationLevel SimpleName	-1.4735668
-0.9602521	SimpleName CharLiteralExpr SimpleName	-0.25808933
-0.75153387	CharLiteralExpr CharLiteralExpr SimpleName	-0.7168846
-0.59013927	ReturnStmt ConditionalExpr SimpleName	-0.38120818
-0.57206905	SimpleName ConditionalExpr SimpleName	-1.0673014
-0.26266018	ThisExpr ConditionalExpr SimpleName	-0.38120818
-0.6671384	SimpleName ContinueStmt SimpleName	-0.82598615
-0.5100142	IntegerLiteralExpr ContinueStmt SimpleName	-0.38120818
-0.6280596	StringLiteralExpr ContinueStmt SimpleName	-0.38120818
-0.7018039	BooleanLiteralExpr ContinueStmt SimpleName	-0.38120818
-0.8030305	<s> SynchronizedStmt SimpleName	-0.4478422
-0.42876953	SimpleName SynchronizedStmt SimpleName	-0.9286485
-0.25472987	VoidType SynchronizedStmt SimpleName	-0.16227488
-0.13646811	SimpleName LabeledStmt SimpleName	-0.7960229
-0.1313166	IntegerLiteralExpr LabeledStmt SimpleName	-0.19810566
-0.13036835	SimpleName ClassOrInterfaceDeclaration SimpleName	-0.38120818
-0.32323197	ReturnStmt ReturnStmt ExpressionStmt	-0.5529849
-1.2111747	SimpleName ReturnStmt ExpressionStmt	-2.398083
-1.1469705	IntegerLiteralExpr ReturnStmt ExpressionStmt	-1.754837
-1.2387605	StringLiteralExpr ReturnStmt ExpressionStmt	-1.0420053
-1.0826861	BooleanLiteralExpr ReturnStmt ExpressionStmt	-0.80638856
-1.1462756	NullLiteralExpr ReturnStmt ExpressionStmt	-1.3126527
-0.96598905	ThisExpr ReturnStmt ExpressionStmt	-0.7960229
-0.91343904	LongLiteralExpr ReturnStmt ExpressionStmt	-0.50583416
-0.9910025	ReturnStmt SimpleName ExpressionStmt	-1.6199317
-1.3370192	MethodCallExpr SimpleName ExpressionStmt	-2.3315437
-1.1517884	SimpleName SimpleName ExpressionStmt	-3.9200845
-1.0858735	ExpressionStmt SimpleName ExpressionStmt	-0.38120818
-1.5090448	ClassOrInterfaceType SimpleName ExpressionStmt	-2.7423816
-1.0861781	IntegerLiteralExpr SimpleName ExpressionStmt	-2.5230217
-1.1114836	ObjectCreationExpr SimpleName ExpressionStmt	-2.8457944
-1.0517166	Name SimpleName ExpressionStmt	-0.38120818
-1.1316731	StringLiteralExpr SimpleName ExpressionStmt	-1.9741774
-0.84101355	BooleanLiteralExpr SimpleName ExpressionStmt	-1.4910262
-1.1390866	ArrayType SimpleName ExpressionStmt	-0.60413736
-1.279597	PrimitiveType SimpleName ExpressionStmt	-0.76383823
-0.7754797	ArrayInitializerExpr SimpleName ExpressionStmt	-0.60274416
-0.7756479	UnaryExpr SimpleName ExpressionStmt	-2.5713212
-0.74443436	DoubleLiteralExpr SimpleName ExpressionStmt	-0.38120818
-0.58055806	IfStmt SimpleName ExpressionStmt	-2.0844638
-1.038219	NullLiteralExpr SimpleName ExpressionStmt	-1.5486792
-1.0596609	ClassExpr SimpleName ExpressionStmt	-2.760709
-0.5794777	ThrowStmt SimpleName ExpressionStmt	-1.0648682
-1.1561368	UnknownType SimpleName ExpressionStmt	-1.8030403
-1.0839496	ThisExpr SimpleName ExpressionStmt	-1.8259861
-1.260163	WildcardType SimpleName ExpressionStmt	-1.0478349
-1.0831275	MethodReferenceExpr SimpleName ExpressionStmt	-0.9051674
-1.1441596	LongLiteralExpr SimpleName ExpressionStmt	-0.16227488
-0.97234595	SuperExpr SimpleName ExpressionStmt	-1.340091
-0.66736674	SwitchEntry SimpleName ExpressionStmt	-0.8540149
-0.74443436	ArrayCreationLevel SimpleName ExpressionStmt	-1.4950606
-0.9161963	CharLiteralExpr SimpleName ExpressionStmt	-0.38120818
-0.7093191	ContinueStmt SimpleName ExpressionStmt	-0.31509882
-0.54030764	SynchronizedStmt SimpleName ExpressionStmt	-0.9249635
-1.0090535	ReturnStmt IntegerLiteralExpr ExpressionStmt	-1.0230978
-1.0244336	SimpleName IntegerLiteralExpr ExpressionStmt	-3.2905254
-0.9609094	IntegerLiteralExpr IntegerLiteralExpr ExpressionStmt	-2.4217272
-0.85129124	StringLiteralExpr IntegerLiteralExpr ExpressionStmt	-1.9552462
-0.5810486	VoidType IntegerLiteralExpr ExpressionStmt	-0.16227488
-1.1565521	BooleanLiteralExpr IntegerLiteralExpr ExpressionStmt	-0.16227488
-0.8427027	ArrayInitializerExpr IntegerLiteralExpr ExpressionStmt	-1.746805
-1.1137874	UnaryExpr IntegerLiteralExpr ExpressionStmt	-1.4759697
-0.99130464	NullLiteralExpr IntegerLiteralExpr ExpressionStmt	-0.4280461
-0.88602936	ThisExpr IntegerLiteralExpr ExpressionStmt	-0.6588927
-0.9380981	ArrayCreationLevel IntegerLiteralExpr ExpressionStmt	-1.340091
-0.82920015	ThisExpr Name ExpressionStmt	-0.5919459
-1.1820196	ReturnStmt StringLiteralExpr ExpressionStmt	-0.99231756
-1.0361723	SimpleName StringLiteralExpr ExpressionStmt	-2.9537387
-0.958998	IntegerLiteralExpr StringLiteralExpr ExpressionStmt	-2.1122928
-1.0171974	StringLiteralExpr StringLiteralExpr ExpressionStmt	-2.0830445
-0.88526934	ArrayInitializerExpr StringLiteralExpr ExpressionStmt	-0.5529849
-0.5820378	NullLiteralExpr StringLiteralExpr ExpressionStmt	-0.9509249
-1.03019	SimpleName VoidType ExpressionStmt	-2.8999488
-0.057732105	<s> TryStmt ExpressionStmt	-1.9571545
-0.32736686	ReturnStmt TryStmt ExpressionStmt	-1.1342231
-0.25812396	SimpleName TryStmt ExpressionStmt	-2.7086856
-0.47996983	IntegerLiteralExpr TryStmt ExpressionStmt	-1.8454525
-0.58472514	StringLiteralExpr TryStmt ExpressionStmt	-1.1898069
-0.58472514	VoidType TryStmt ExpressionStmt	-1.587747
-0.18906006	TryStmt TryStmt ExpressionStmt	-0.9037742
-0.43507886	BooleanLiteralExpr TryStmt ExpressionStmt	-0.9331698
-0.22830863	DoubleLiteralExpr TryStmt ExpressionStmt	-0.5529849
-0.22830863	ForStmt TryStmt ExpressionStmt	-0.16227488
-0.25014997	BreakStmt TryStmt ExpressionStmt	-0.8540149
-0.53635824	NullLiteralExpr TryStmt ExpressionStmt	-1.0648682
-0.25014997	ThisExpr TryStmt ExpressionStmt	-0.6819254
-0.22830863	LongLiteralExpr TryStmt ExpressionStmt	-0.38120818
-0.8853331	ReturnStmt BooleanLiteralExpr ExpressionStmt	-1.6041374
-0.95369226	SimpleName BooleanLiteralExpr ExpressionStmt	-2.4338908
-0.8552182	ExpressionStmt BooleanLiteralExpr ExpressionStmt	-0.38120818
-0.99116826	IntegerLiteralExpr BooleanLiteralExpr ExpressionStmt	-1.2141663
-0.994949	BooleanLiteralExpr BooleanLiteralExpr ExpressionStmt	-1.6073425
-0.56777537	ArrayInitializerExpr BooleanLiteralExpr ExpressionStmt	-0.9051674
-0.51645917	WhileStmt BooleanLiteralExpr ExpressionStmt	-0.22374825
-0.56777537	LongLiteralExpr BooleanLiteralExpr ExpressionStmt	-0.38120818
-0.8001885	SimpleName PrimitiveType ExpressionStmt	-1.1412566
-0.84712124	SimpleName DoubleLiteralExpr ExpressionStmt	-0.83319306
-0.8576041	DoubleLiteralExpr DoubleLiteralExpr ExpressionStmt	-0.99231756
-0.78244317	<s> ForStmt ExpressionStmt	-1.942151
-0.58691734	ReturnStmt ForStmt ExpressionStmt	-0.6498949
-0.57626534	SimpleName ForStmt ExpressionStmt	-1.4759697
-0.7662379	IntegerLiteralExpr ForStmt ExpressionStmt	-1.4451714
-0.7904246	TryStmt ForStmt ExpressionStmt	-0.8540149
-0.55883586	BooleanLiteralExpr ForStmt ExpressionStmt	-0.22374825
-0.56032085	ForStmt ForStmt ExpressionStmt	-0.16227488
-0.23872325	BreakStmt ForStmt ExpressionStmt	-0.38120818
-0.5482954	NullLiteralExpr ForStmt ExpressionStmt	-0.6588927
-0.44794834	ThisExpr ForStmt ExpressionStmt	-0.4478422
-0.44794834	LongLiteralExpr ForStmt ExpressionStmt	-0.4280461
-0.5597049	SimpleName BreakStmt ExpressionStmt	-1.3980829
-0.6846142	IntegerLiteralExpr BreakStmt ExpressionStmt	-1.3714308
-0.7973987	BooleanLiteralExpr BreakStmt ExpressionStmt	-0.25710687
-0.6054563	BreakStmt BreakStmt ExpressionStmt	-0.22374825
-0.49888337	NullLiteralExpr BreakStmt ExpressionStmt	-0.86737883
-0.49888337	LongLiteralExpr BreakStmt ExpressionStmt	-0.4087007
-0.26947418	ContinueStmt BreakStmt ExpressionStmt	-0.38120818
-0.738152	ReturnStmt NullLiteralExpr ExpressionStmt	-1.0970529
-0.8467779	SimpleName NullLiteralExpr ExpressionStmt	-2.5084321
-0.73326004	IntegerLiteralExpr NullLiteralExpr ExpressionStmt	-0.7220677
-0.30255362	Name NullLiteralExpr ExpressionStmt	-0.16227488
-0.7132123	StringLiteralExpr NullLiteralExpr ExpressionStmt	-0.8929759
-0.77653503	ArrayInitializerExpr NullLiteralExpr ExpressionStmt	-1.547522
-0.66319215	NullLiteralExpr NullLiteralExpr ExpressionStmt	-1.3126527
-0.69023895	ThisExpr NullLiteralExpr ExpressionStmt	-0.4280461
-0.47372556	ReturnStmt LambdaExpr ExpressionStmt	-1.4280461
-0.83476937	SimpleName LambdaExpr ExpressionStmt	-1.6156664
-0.554036	IntegerLiteralExpr LambdaExpr ExpressionStmt	-0.9509249
-0.24606964	LambdaExpr LambdaExpr ExpressionStmt	-0.38120818
-0.45990455	ThisExpr LambdaExpr ExpressionStmt	-0.38120818
-1.0584426	SimpleName ThisExpr ExpressionStmt	-1.8411596
-0.57111377	IntegerLiteralExpr ThisExpr ExpressionStmt	-0.16227488
-0.57111377	NullLiteralExpr ThisExpr ExpressionStmt	-0.38120818
-0.75506216	ThisExpr ThisExpr ExpressionStmt	-1.3126527
-0.5156961	SynchronizedStmt ThisExpr ExpressionStmt	-1.2998785
-0.81307864	ReturnStmt LongLiteralExpr ExpressionStmt	-0.38120818
-0.8285878	SimpleName LongLiteralExpr ExpressionStmt	-1.9509903
-0.5461248	IntegerLiteralExpr LongLiteralExpr ExpressionStmt	-0.38120818
-0.74527115	UnaryExpr LongLiteralExpr ExpressionStmt	-0.51276463
-0.29670438	NullLiteralExpr LongLiteralExpr ExpressionStmt	-0.7168846
-0.8041049	LongLiteralExpr LongLiteralExpr ExpressionStmt	-1.7502655
-0.77340674	BooleanLiteralExpr SwitchEntry ExpressionStmt	-0.8540149
-0.583361	BreakStmt SwitchEntry ExpressionStmt	-0.22374825
-0.8363611	SimpleName CharLiteralExpr ExpressionStmt	-0.54067135
-0.291321	IntegerLiteralExpr CharLiteralExpr ExpressionStmt	-0.16227488
-0.7439009	CharLiteralExpr CharLiteralExpr ExpressionStmt	-0.38094008
-0.6031663	SimpleName EmptyStmt ExpressionStmt	-0.38120818
-0.49091738	StringLiteralExpr EmptyStmt ExpressionStmt	-0.16227488
-0.521221	IntegerLiteralExpr DoStmt ExpressionStmt	-0.16227488
-0.23788683	ReturnStmt ContinueStmt ExpressionStmt	-0.16227488
-0.4974376	SimpleName ContinueStmt ExpressionStmt	-1.1365615
-0.446595	IntegerLiteralExpr ContinueStmt ExpressionStmt	-0.38120818
-0.546591	StringLiteralExpr ContinueStmt ExpressionStmt	-0.16227488
-0.6068007	BooleanLiteralExpr ContinueStmt ExpressionStmt	-0.5529849
-0.446595	NullLiteralExpr ContinueStmt ExpressionStmt	-0.4280461
-0.40630803	<s> ExpressionStmt VariableDeclarationExpr	-3.34327
-0.56352496	ReturnStmt ExpressionStmt VariableDeclarationExpr	-2.243919
-0.5638037	SimpleName ExpressionStmt VariableDeclarationExpr	-3.503512
-0.5072437	IntegerLiteralExpr ExpressionStmt VariableDeclarationExpr	-2.7095845
-0.37474832	StringLiteralExpr ExpressionStmt VariableDeclarationExpr	-2.43877
-0.64505327	VoidType ExpressionStmt VariableDeclarationExpr	-1.7960229
-0.6378996	TryStmt ExpressionStmt VariableDeclarationExpr	-2.1552987
-0.54124856	BooleanLiteralExpr ExpressionStmt VariableDeclarationExpr	-2.1788116
-0.4878754	DoubleLiteralExpr ExpressionStmt VariableDeclarationExpr	-0.99231756
-0.22595793	ForStmt ExpressionStmt VariableDeclarationExpr	-1.9989436
-0.5445615	BreakStmt ExpressionStmt VariableDeclarationExpr	-1.6199746
-0.468257	NullLiteralExpr ExpressionStmt VariableDeclarationExpr	-1.8921049
-0.80863744	LambdaExpr ExpressionStmt VariableDeclarationExpr	-1.789774
-0.7057819	ThisExpr ExpressionStmt VariableDeclarationExpr	-1.2609527
-0.89729166	LongLiteralExpr ExpressionStmt VariableDeclarationExpr	-1.4628083
-0.653446	CharLiteralExpr ExpressionStmt VariableDeclarationExpr	-0.4280461
-0.47268343	EmptyStmt ExpressionStmt VariableDeclarationExpr	-0.38120818
-0.47268343	DoStmt ExpressionStmt VariableDeclarationExpr	-0.16227488
-0.6504252	ContinueStmt ExpressionStmt VariableDeclarationExpr	-1.0648682
-1.4851247	<s> TryStmt VariableDeclarationExpr	-1.0970529
-1.467164	SimpleName TryStmt VariableDeclarationExpr	-0.16227488
-1.1945918	IntegerLiteralExpr TryStmt VariableDeclarationExpr	-0.16227488
-1.0311542	TryStmt TryStmt VariableDeclarationExpr	-0.38120818
-0.08786285	<s> ForStmt VariableDeclarationExpr	-2.634872
-0.5465222	ReturnStmt ForStmt VariableDeclarationExpr	-1.5419894
-0.3588838	SimpleName ForStmt VariableDeclarationExpr	-2.546421
-0.40267253	IntegerLiteralExpr ForStmt VariableDeclarationExpr	-2.1468246
-0.22118199	StringLiteralExpr ForStmt VariableDeclarationExpr	-1.5072274
-0.22118199	VoidType ForStmt VariableDeclarationExpr	-1.7067997
-0.23421855	TryStmt ForStmt VariableDeclarationExpr	-1.5419894
-0.52132595	BooleanLiteralExpr ForStmt VariableDeclarationExpr	-1.2933476
-0.62046397	ForStmt ForStmt VariableDeclarationExpr	-0.38120818
-0.5132374	NullLiteralExpr ForStmt VariableDeclarationExpr	-0.8540149
-0.22118199	LambdaExpr ForStmt VariableDeclarationExpr	-0.5529849
-0.419895	ThisExpr ForStmt VariableDeclarationExpr	-0.5529849
-0.419895	LongLiteralExpr ForStmt VariableDeclarationExpr	-0.38120818
-0.0012713848	<s> ForEachStmt VariableDeclarationExpr	-1.5191267
-0.03372793	ReturnStmt ForEachStmt VariableDeclarationExpr	-0.99231756
-0.011904671	SimpleName ForEachStmt VariableDeclarationExpr	-1.7514383
-0.024144884	IntegerLiteralExpr ForEachStmt VariableDeclarationExpr	-1.4560748
-0.03141165	StringLiteralExpr ForEachStmt VariableDeclarationExpr	-1.3126527
-0.03141165	VoidType ForEachStmt VariableDeclarationExpr	-0.4280461
-0.03372793	TryStmt ForEachStmt VariableDeclarationExpr	-1.2061974
-0.032501023	BooleanLiteralExpr ForEachStmt VariableDeclarationExpr	-1.3658983
-0.03141165	BreakStmt ForEachStmt VariableDeclarationExpr	-0.16227488
-0.03141165	NullLiteralExpr ForEachStmt VariableDeclarationExpr	-1.2519549
-0.03141165	ThisExpr ForEachStmt VariableDeclarationExpr	-0.16227488
-0.03372793	LongLiteralExpr ForEachStmt VariableDeclarationExpr	-0.5529849
-0.03141165	CharLiteralExpr ForEachStmt VariableDeclarationExpr	-0.38120818
-0.35102904	ExpressionStmt VariableDeclarationExpr VariableDeclarator	-3.6210315
-0.15693429	TryStmt VariableDeclarationExpr VariableDeclarator	-0.88149774
-0.042542715	ForStmt VariableDeclarationExpr VariableDeclarator	-3.0460942
-0.15928686	ForEachStmt VariableDeclarationExpr VariableDeclarator	-2.1250815
-1.2488123	MarkerAnnotationExpr Name VariableDeclarator	-0.16227488
-0.47918868	VariableDeclarationExpr Modifier VariableDeclarator	-2.9423726
-0.68155503	Modifier Modifier VariableDeclarator	-1.494993
-0.42240337	FieldDeclaration Modifier VariableDeclarator	-0.8981589
-0.8159403	Name StringLiteralExpr VariableDeclarator	-1.7592189
-0.673092	SimpleName FieldDeclaration VariableDeclarator	-1.6939117
-0.52431554	IntegerLiteralExpr FieldDeclaration VariableDeclarator	-0.38120818
-0.2842893	VoidType FieldDeclaration VariableDeclarator	-0.5529849
-1.9873294	MethodCallExpr SimpleName ClassOrInterfaceType	-2.0812588
-1.8903376	SimpleName SimpleName ClassOrInterfaceType	-3.5278418
-1.172018	ClassOrInterfaceType SimpleName ClassOrInterfaceType	-3.1762342
-1.2083335	Modifier SimpleName ClassOrInterfaceType	-2.391834
-1.5221213	ArrayType SimpleName ClassOrInterfaceType	-0.9509249
-1.5570716	WildcardType SimpleName ClassOrInterfaceType	-1.4133229
-0.662948	VariableDeclarationExpr VariableDeclarator ClassOrInterfaceType	-3.862935
-0.71556985	Modifier VariableDeclarator ClassOrInterfaceType	-3.2086034
-0.7029205	StringLiteralExpr VariableDeclarator ClassOrInterfaceType	-2.183921
-0.74985886	FieldDeclaration VariableDeclarator ClassOrInterfaceType	-0.7960229
-0.73128676	VariableDeclarator ClassOrInterfaceType ClassOrInterfaceType	-0.38120818
-0.6909938	ClassOrInterfaceType ClassOrInterfaceType ClassOrInterfaceType	-0.5529849
-1.14626	ObjectCreationExpr ClassOrInterfaceType ClassOrInterfaceType	-0.5529849
-0.469266	Parameter ClassOrInterfaceType ClassOrInterfaceType	-0.38120818
-0.81046796	CastExpr ClassOrInterfaceType ClassOrInterfaceType	-0.38120818
-0.5662528	ClassExpr ClassOrInterfaceType ClassOrInterfaceType	-0.16227488
-0.2440965	ReturnStmt ObjectCreationExpr ClassOrInterfaceType	-2.4457748
-0.3917107	MethodCallExpr ObjectCreationExpr ClassOrInterfaceType	-2.325673
-0.2473905	SimpleName ObjectCreationExpr ClassOrInterfaceType	-3.929425
-0.32476392	ExpressionStmt ObjectCreationExpr ClassOrInterfaceType	-0.7960229
-0.22216454	IntegerLiteralExpr ObjectCreationExpr ClassOrInterfaceType	-2.4309318
-0.4314454	StringLiteralExpr ObjectCreationExpr ClassOrInterfaceType	-1.5072274
-0.32397622	VoidType ObjectCreationExpr ClassOrInterfaceType	-1.0301061
-0.17180882	BooleanLiteralExpr ObjectCreationExpr ClassOrInterfaceType	-0.7960229
-0.15807238	EnclosedExpr ObjectCreationExpr ClassOrInterfaceType	-0.16227488
-0.23886482	NullLiteralExpr ObjectCreationExpr ClassOrInterfaceType	-1.6136827
-0.32397622	ThisExpr ObjectCreationExpr ClassOrInterfaceType	-0.5529849
-0.15807238	LongLiteralExpr ObjectCreationExpr ClassOrInterfaceType	-0.38120818
-1.0549774	MarkerAnnotationExpr Name ClassOrInterfaceType	-1.0478349
-0.8574959	Parameter Modifier ClassOrInterfaceType	-1.9721142
-1.0294986	SimpleName Parameter ClassOrInterfaceType	-2.966083
-0.8206473	ReturnStmt CastExpr ClassOrInterfaceType	-1.0301061
-0.5025549	SimpleName CastExpr ClassOrInterfaceType	-2.309339
-0.26418918	ExpressionStmt CastExpr ClassOrInterfaceType	-0.16227488
-0.67099965	IntegerLiteralExpr CastExpr ClassOrInterfaceType	-0.38120818
-0.52152157	EnclosedExpr CastExpr ClassOrInterfaceType	-1.9147127
-0.87595654	SimpleName ArrayType ClassOrInterfaceType	-0.16227488
-0.6042641	VariableDeclarator ArrayType ClassOrInterfaceType	-2.2710712
-0.6314472	Parameter ArrayType ClassOrInterfaceType	-0.7960229
-0.6991038	CastExpr ArrayType ClassOrInterfaceType	-0.4280461
-1.0677311	ArrayType PrimitiveType ClassOrInterfaceType	-1.0970529
-0.70701134	MethodCallExpr ClassExpr ClassOrInterfaceType	-1.0970529
-0.9846503	SimpleName ClassExpr ClassOrInterfaceType	-0.50583416
-1.0770504	SimpleName WildcardType ClassOrInterfaceType	-1.4422865
-0.98813975	SimpleName ArrayCreationExpr ClassOrInterfaceType	-0.9509249
-1.3524629	<s> ReturnStmt IntegerLiteralExpr	-2.3949697
-1.4805171	SimpleName ReturnStmt IntegerLiteralExpr	-1.2940989
-1.2485129	IntegerLiteralExpr ReturnStmt IntegerLiteralExpr	-0.56546617
-1.1989447	PrimitiveType ReturnStmt IntegerLiteralExpr	-1.1813738
-1.4061462	NullLiteralExpr ReturnStmt IntegerLiteralExpr	-0.38120818
-1.4486923	ReturnStmt SimpleName IntegerLiteralExpr	-0.6497854
-1.158176	MethodCallExpr SimpleName IntegerLiteralExpr	-2.2747655
-1.3933315	SimpleName SimpleName IntegerLiteralExpr	-2.7827408
-1.6247705	ClassOrInterfaceType SimpleName IntegerLiteralExpr	-1.2945493
-1.281879	IntegerLiteralExpr SimpleName IntegerLiteralExpr	-2.1088176
-1.3485881	ObjectCreationExpr SimpleName IntegerLiteralExpr	-1.6769055
-1.3470615	StringLiteralExpr SimpleName IntegerLiteralExpr	-0.7048612
-0.78609806	BinaryExpr SimpleName IntegerLiteralExpr	-2.0016234
-0.8771082	VoidType SimpleName IntegerLiteralExpr	-0.6498949
-1.1029905	BooleanLiteralExpr SimpleName IntegerLiteralExpr	-0.8317385
-1.0486585	AssignExpr SimpleName IntegerLiteralExpr	-1.3576269
-0.3337936	EnclosedExpr SimpleName IntegerLiteralExpr	-0.16227488
-1.4443454	CastExpr SimpleName IntegerLiteralExpr	-1.3557587
-1.2771404	PrimitiveType SimpleName IntegerLiteralExpr	-1.9676943
-1.4914322	UnaryExpr SimpleName IntegerLiteralExpr	-1.4396392
-0.4484281	ArrayAccessExpr SimpleName IntegerLiteralExpr	-1.7820005
-1.3800142	NullLiteralExpr SimpleName IntegerLiteralExpr	-0.47094283
-1.3802805	ClassExpr SimpleName IntegerLiteralExpr	-1.789774
-1.3020556	ThisExpr SimpleName IntegerLiteralExpr	-0.6732969
-1.1440563	MethodReferenceExpr SimpleName IntegerLiteralExpr	-0.5529849
-1.0426213	LongLiteralExpr SimpleName IntegerLiteralExpr	-0.41565752
-2.1418772	SimpleName ExpressionStmt IntegerLiteralExpr	-0.38089544
-1.0122081	LambdaExpr ExpressionStmt IntegerLiteralExpr	-0.8809525
-1.2260481	ReturnStmt IntegerLiteralExpr IntegerLiteralExpr	-0.72907615
-1.1721712	SimpleName IntegerLiteralExpr IntegerLiteralExpr	-2.2954497
-0.9108412	IntegerLiteralExpr IntegerLiteralExpr IntegerLiteralExpr	-2.5253224
-1.1269963	StringLiteralExpr IntegerLiteralExpr IntegerLiteralExpr	-0.30171418
-0.63750756	BinaryExpr IntegerLiteralExpr IntegerLiteralExpr	-1.2438675
-1.0388417	BooleanLiteralExpr IntegerLiteralExpr IntegerLiteralExpr	-0.8232786
-0.85063934	ArrayInitializerExpr IntegerLiteralExpr IntegerLiteralExpr	-1.1170417
-1.128809	UnaryExpr IntegerLiteralExpr IntegerLiteralExpr	-0.5721418
-0.6731339	NullLiteralExpr IntegerLiteralExpr IntegerLiteralExpr	-0.5280125
-0.8945036	ThisExpr IntegerLiteralExpr IntegerLiteralExpr	-0.38120818
-1.0976591	ArrayCreationLevel IntegerLiteralExpr IntegerLiteralExpr	-0.7960229
-1.2565622	ReturnStmt StringLiteralExpr IntegerLiteralExpr	-0.38120818
-1.3077848	SimpleName StringLiteralExpr IntegerLiteralExpr	-1.4304522
-1.1854964	StringLiteralExpr StringLiteralExpr IntegerLiteralExpr	-0.4087007
-1.20126	BinaryExpr StringLiteralExpr IntegerLiteralExpr	-0.16227488
-0.9233696	ArrayInitializerExpr StringLiteralExpr IntegerLiteralExpr	-0.16227488
-1.1882492	ReturnStmt BinaryExpr IntegerLiteralExpr	-1.124704
-1.1212373	SimpleName BinaryExpr IntegerLiteralExpr	-1.2409595
-0.7439309	ExpressionStmt BinaryExpr IntegerLiteralExpr	-0.16227488
-0.7989388	IntegerLiteralExpr BinaryExpr IntegerLiteralExpr	-0.672257
-0.9134215	BinaryExpr BinaryExpr IntegerLiteralExpr	-1.5345014
-0.9969073	EnclosedExpr BinaryExpr IntegerLiteralExpr	-0.7505032
-0.7728988	ArrayCreationLevel BinaryExpr IntegerLiteralExpr	-1.4158547
-1.4502399	SimpleName VoidType IntegerLiteralExpr	-0.51276463
-1.1286445	SimpleName BooleanLiteralExpr IntegerLiteralExpr	-1.3721174
-0.99637467	IntegerLiteralExpr BooleanLiteralExpr IntegerLiteralExpr	-0.7802287
-1.0253469	StringLiteralExpr BooleanLiteralExpr IntegerLiteralExpr	-0.38120818
-0.7750073	NullLiteralExpr BooleanLiteralExpr IntegerLiteralExpr	-0.22374825
-0.9577603	SimpleName ArrayInitializerExpr IntegerLiteralExpr	-1.4987129
-0.8909718	ArrayCreationLevel ArrayInitializerExpr IntegerLiteralExpr	-1.2816942
-1.1955876	ReturnStmt UnaryExpr IntegerLiteralExpr	-0.38089544
-0.76376325	SimpleName UnaryExpr IntegerLiteralExpr	-1.0378903
-0.6836834	IntegerLiteralExpr UnaryExpr IntegerLiteralExpr	-0.9436256
-1.3592422	ReturnStmt NullLiteralExpr IntegerLiteralExpr	-0.5529849
-1.4899974	SimpleName NullLiteralExpr IntegerLiteralExpr	-0.509811
-1.2682116	IntegerLiteralExpr NullLiteralExpr IntegerLiteralExpr	-0.16227488
-0.7809186	BooleanLiteralExpr NullLiteralExpr IntegerLiteralExpr	-0.16227488
-0.8498293	ArrayInitializerExpr NullLiteralExpr IntegerLiteralExpr	-0.7488722
-1.5770143	SimpleName ThisExpr IntegerLiteralExpr	-0.73637676
-1.6300827	SimpleName LongLiteralExpr IntegerLiteralExpr	-0.8540149
-0.37504455	BinaryExpr LongLiteralExpr IntegerLiteralExpr	-0.38120818
-0.91043526	SimpleName ArrayCreationLevel IntegerLiteralExpr	-0.9042961
-0.8613405	PrimitiveType ArrayCreationLevel IntegerLiteralExpr	-1.0301061
-1.1054173	<s> ReturnStmt ObjectCreationExpr	-2.340091
-1.2421578	SimpleName ReturnStmt ObjectCreationExpr	-2.113788
-1.3236599	IntegerLiteralExpr ReturnStmt ObjectCreationExpr	-0.6819254
-1.2938702	StringLiteralExpr ReturnStmt ObjectCreationExpr	-1.2626787
-1.190805	NullLiteralExpr ReturnStmt ObjectCreationExpr	-0.8137946
-0.9946237	ThisExpr ReturnStmt ObjectCreationExpr	-0.16227488
-0.75906944	SwitchEntry ReturnStmt ObjectCreationExpr	-0.38120818
-1.1060164	MethodCallExpr MethodCallExpr ObjectCreationExpr	-1.9509249
-1.6466588	SimpleName MethodCallExpr ObjectCreationExpr	-1.4628083
-1.1295074	ExpressionStmt MethodCallExpr ObjectCreationExpr	-1.6366667
-1.6767901	IfStmt MethodCallExpr ObjectCreationExpr	-0.38120818
-1.6080034	ReturnStmt SimpleName ObjectCreationExpr	-1.4280461
-1.5290849	MethodCallExpr SimpleName ObjectCreationExpr	-1.9962479
-1.4038278	SimpleName SimpleName ObjectCreationExpr	-3.8529823
-1.6657598	ClassOrInterfaceType SimpleName ObjectCreationExpr	-1.7834338
-1.143026	IntegerLiteralExpr SimpleName ObjectCreationExpr	-2.7165935
-1.2627814	ObjectCreationExpr SimpleName ObjectCreationExpr	-2.0844638
-1.4781408	StringLiteralExpr SimpleName ObjectCreationExpr	-1.4694388
-1.4182034	BooleanLiteralExpr SimpleName ObjectCreationExpr	-1.0648682
-1.3693919	AssignExpr SimpleName ObjectCreationExpr	-1.9637622
-1.1950985	CastExpr SimpleName ObjectCreationExpr	-0.22374825
-1.5232779	PrimitiveType SimpleName ObjectCreationExpr	-0.38120818
-1.0303556	ArrayInitializerExpr SimpleName ObjectCreationExpr	-0.16227488
-1.4092758	NullLiteralExpr SimpleName ObjectCreationExpr	-0.51276463
-1.4000396	ThrowStmt SimpleName ObjectCreationExpr	-0.16227488
-1.545614	ThisExpr SimpleName ObjectCreationExpr	-0.38120818
-1.3895466	WildcardType SimpleName ObjectCreationExpr	-1.0301061
-1.2429223	LongLiteralExpr SimpleName ObjectCreationExpr	-0.6498949
-0.81273276	ConditionalExpr SimpleName ObjectCreationExpr	-0.16227488
-4.2488074	<s> ExpressionStmt ObjectCreationExpr	-0.38120818
-2.0230768	SimpleName ExpressionStmt ObjectCreationExpr	-0.5529849
-1.5148503	TryStmt ExpressionStmt ObjectCreationExpr	-0.16227488
-1.1840879	LambdaExpr ExpressionStmt ObjectCreationExpr	-0.38120818
-1.4376335	ReturnStmt IntegerLiteralExpr ObjectCreationExpr	-1.6833186
-1.5170184	SimpleName IntegerLiteralExpr ObjectCreationExpr	-2.0478349
-1.6171314	IntegerLiteralExpr IntegerLiteralExpr ObjectCreationExpr	-1.2519549
-1.1387641	ArrayInitializerExpr IntegerLiteralExpr ObjectCreationExpr	-0.16227488
-1.443982	UnaryExpr IntegerLiteralExpr ObjectCreationExpr	-0.4280461
-1.752973	SimpleName StringLiteralExpr ObjectCreationExpr	-1.3126527
-1.2725414	IntegerLiteralExpr StringLiteralExpr ObjectCreationExpr	-0.5529849
-1.455404	StringLiteralExpr StringLiteralExpr ObjectCreationExpr	-0.38120818
-1.3362055	SimpleName VoidType ObjectCreationExpr	-0.927738
-1.5003583	ReturnStmt BooleanLiteralExpr ObjectCreationExpr	-0.6498949
-1.8120149	SimpleName BooleanLiteralExpr ObjectCreationExpr	-0.16227488
-1.3709728	SimpleName EnclosedExpr ObjectCreationExpr	-0.16227488
-1.1419652	ArrayCreationLevel ArrayInitializerExpr ObjectCreationExpr	-0.16227488
-1.5057023	ReturnStmt NullLiteralExpr ObjectCreationExpr	-1.4133229
-1.673371	SimpleName NullLiteralExpr ObjectCreationExpr	-0.9898859
-1.3967459	IntegerLiteralExpr NullLiteralExpr ObjectCreationExpr	-0.4280461
-0.016854927	<s> ThrowStmt ObjectCreationExpr	-2.875204
-0.1845706	SimpleName ThrowStmt ObjectCreationExpr	-2.9066126
-0.35637894	IntegerLiteralExpr ThrowStmt ObjectCreationExpr	-2.3838942
-0.40865874	StringLiteralExpr ThrowStmt ObjectCreationExpr	-0.7960229
-0.39407793	VoidType ThrowStmt ObjectCreationExpr	-2.4772642
-0.2971559	BooleanLiteralExpr ThrowStmt ObjectCreationExpr	-1.1550449
-0.39407793	PrimitiveType ThrowStmt ObjectCreationExpr	-1.6752007
-0.45102823	NullLiteralExpr ThrowStmt ObjectCreationExpr	-1.1813738
-0.20466684	LambdaExpr ThrowStmt ObjectCreationExpr	-1.2296785
-0.20466684	LongLiteralExpr ThrowStmt ObjectCreationExpr	-0.72907615
-1.6271887	SimpleName ThisExpr ObjectCreationExpr	-0.5529849
-1.2097746	ThisExpr ThisExpr ObjectCreationExpr	-0.4280461
-1.7313043	SimpleName LongLiteralExpr ObjectCreationExpr	-0.38120818
-1.5786912	IntegerLiteralExpr ReturnStmt MethodDeclaration	-0.16227488
-1.5571492	SimpleName SimpleName MethodDeclaration	-3.4477162
-1.1963117	ExpressionStmt SimpleName MethodDeclaration	-1.1270162
-1.7345355	ClassOrInterfaceType SimpleName MethodDeclaration	-0.38120818
-1.8093792	IntegerLiteralExpr SimpleName MethodDeclaration	-0.99231756
-1.0007646	ObjectCreationExpr SimpleName MethodDeclaration	-2.8821828
-1.6564546	StringLiteralExpr SimpleName MethodDeclaration	-0.38120818
-1.7223457	BooleanLiteralExpr SimpleName MethodDeclaration	-0.72907615
-1.4331993	ArrayType SimpleName MethodDeclaration	-0.4280461
-1.4698633	PrimitiveType SimpleName MethodDeclaration	-2.0876455
-1.7069342	UnaryExpr SimpleName MethodDeclaration	-0.5529849
-1.2892392	UnknownType SimpleName MethodDeclaration	-0.99231756
-1.4435706	WildcardType SimpleName MethodDeclaration	-2.030106
-1.0547801	SuperExpr SimpleName MethodDeclaration	-0.16227488
-0.34114587	ClassOrInterfaceDeclaration SimpleName MethodDeclaration	-0.38120818
-1.3236581	ReturnStmt IntegerLiteralExpr MethodDeclaration	-1.8752042
-1.4768254	SimpleName IntegerLiteralExpr MethodDeclaration	-1.8854233
-1.065199	ExpressionStmt IntegerLiteralExpr MethodDeclaration	-1.1270162
-1.5070093	UnaryExpr IntegerLiteralExpr MethodDeclaration	-0.38120818
-1.0654858	ReturnStmt StringLiteralExpr MethodDeclaration	-1.0970529
-1.7189213	SimpleName StringLiteralExpr MethodDeclaration	-1.3488649
-1.2348123	SimpleName VoidType MethodDeclaration	-2.2853787
-1.1536932	ReturnStmt BooleanLiteralExpr MethodDeclaration	-2.2086034
-1.5909858	SimpleName BooleanLiteralExpr MethodDeclaration	-1.3822887
-1.0720111	ArrayType PrimitiveType MethodDeclaration	-1.3311361
-1.5549788	ReturnStmt NullLiteralExpr MethodDeclaration	-1.2296785
-1.8595389	SimpleName NullLiteralExpr MethodDeclaration	-0.7960229
-1.2318718	SimpleName WildcardType MethodDeclaration	-0.9509249
-1.4288225	SimpleName LongLiteralExpr MethodDeclaration	-1.2933476
-1.0937178	UnaryExpr LongLiteralExpr MethodDeclaration	-1.3980829
-0.7022593	SimpleName EmptyStmt MethodDeclaration	-0.4280461
-0.60542005	Name ClassOrInterfaceType MarkerAnnotationExpr	-0.5529849
-0.60542005	WildcardType ClassOrInterfaceType MarkerAnnotationExpr	-0.8540149
-0.07304599	ReturnStmt MethodDeclaration MarkerAnnotationExpr	-0.16227488
-0.0462053	SimpleName MethodDeclaration MarkerAnnotationExpr	-3.8786545
-0.055510357	IntegerLiteralExpr MethodDeclaration MarkerAnnotationExpr	-2.2204378
-0.07872415	StringLiteralExpr MethodDeclaration MarkerAnnotationExpr	-1.5419894
-0.20443368	VoidType MethodDeclaration MarkerAnnotationExpr	-2.5823686
-0.07872415	BooleanLiteralExpr MethodDeclaration MarkerAnnotationExpr	-2.2689881
-0.07304599	PrimitiveType MethodDeclaration MarkerAnnotationExpr	-1.3311361
-0.07872415	NullLiteralExpr MethodDeclaration MarkerAnnotationExpr	-1.3658983
-0.07304599	WildcardType MethodDeclaration MarkerAnnotationExpr	-0.9509249
-0.07872415	LongLiteralExpr MethodDeclaration MarkerAnnotationExpr	-1.649895
-0.07304599	EmptyStmt MethodDeclaration MarkerAnnotationExpr	-0.4280461
-1.2414197	MarkerAnnotationExpr Name MarkerAnnotationExpr	-1.2519549
-1.0448492	SimpleName Parameter MarkerAnnotationExpr	-1.7571049
-0.80362964	Name StringLiteralExpr MarkerAnnotationExpr	-1.3311361
-1.5342746	StringLiteralExpr StringLiteralExpr MarkerAnnotationExpr	-0.72907615
-1.114744	SimpleName FieldDeclaration MarkerAnnotationExpr	-0.16227488
-0.74848163	SimpleName WildcardType MarkerAnnotationExpr	-1.2061974
-0.0650074	ClassOrInterfaceType MarkerAnnotationExpr Name	-1.0301061
-0.01618731	MethodDeclaration MarkerAnnotationExpr Name	-3.3239748
-0.060388457	Name MarkerAnnotationExpr Name	-1.2519549
-0.060388457	Parameter MarkerAnnotationExpr Name	-1.4560748
-0.0650074	StringLiteralExpr MarkerAnnotationExpr Name	-1.4280461
-0.060388457	FieldDeclaration MarkerAnnotationExpr Name	-0.16227488
-0.060388457	WildcardType MarkerAnnotationExpr Name	-0.6970806
-0.7998806	MethodCallExpr ThisExpr Name	-0.4280461
-1.4830129	SimpleName ThisExpr Name	-0.75601375
-1.1572752	FieldAccessExpr ThisExpr Name	-0.5529849
-1.2514145	SynchronizedStmt ThisExpr Name	-0.4280461
-0.094004184	VariableDeclarationExpr SingleMemberAnnotationExpr Name	-2.3540454
-0.094004184	MethodDeclaration SingleMemberAnnotationExpr Name	-1.1270162
-0.087109305	Name SingleMemberAnnotationExpr Name	-0.72907615
-0.087109305	Modifier SingleMemberAnnotationExpr Name	-1.2061974
-0.087109305	FieldDeclaration SingleMemberAnnotationExpr Name	-0.38120818
-0.45815867	ExpressionStmt VariableDeclarationExpr Modifier	-3.2426267
-0.81134593	ForEachStmt VariableDeclarationExpr Modifier	-1.3488649
-0.919174	MarkerAnnotationExpr Name Modifier	-3.5787272
-0.5494034	Name Modifier Modifier	-0.16227488
-0.6805216	Modifier Modifier Modifier	-1.494993
-0.62768936	FieldDeclaration Modifier Modifier	-1.494993
-0.9267755	SimpleName Parameter Modifier	-1.8611934
-1.1689833	CatchClause Parameter Modifier	-0.5529849
-0.8147099	Name StringLiteralExpr Modifier	-0.72907615
-0.37100035	SimpleName FieldDeclaration Modifier	-1.2409595
-0.3859651	IntegerLiteralExpr FieldDeclaration Modifier	-0.38120818
-0.19940437	StringLiteralExpr FieldDeclaration Modifier	-0.38120818
-0.19940437	BooleanLiteralExpr FieldDeclaration Modifier	-0.7488722
-0.19940437	LongLiteralExpr FieldDeclaration Modifier	-0.38120818
-2.1172345	SimpleName SimpleName Parameter	-2.1211865
-0.7918663	Modifier SimpleName Parameter	-2.9681668
-1.8711356	PrimitiveType SimpleName Parameter	-0.76383823
-1.4013402	UnknownType SimpleName Parameter	-2.0116227
-0.4842685	ReturnStmt LambdaExpr Parameter	-2.04083
-0.32375905	SimpleName LambdaExpr Parameter	-2.9027479
-0.40667945	IntegerLiteralExpr LambdaExpr Parameter	-1.1270162
-0.25186634	NullLiteralExpr LambdaExpr Parameter	-0.16227488
-0.46942985	ThisExpr LambdaExpr Parameter	-0.38120818
-0.049697187	ReturnStmt CatchClause Parameter	-1.494993
-0.013811533	SimpleName CatchClause Parameter	-2.6623101
-0.049697187	IntegerLiteralExpr CatchClause Parameter	-2.3557587
-0.04622451	StringLiteralExpr CatchClause Parameter	-2.8265648
-0.049697187	BooleanLiteralExpr CatchClause Parameter	-0.9509249
-0.04785657	BreakStmt CatchClause Parameter	-1.0970529
-0.049697187	NullLiteralExpr CatchClause Parameter	-1.1270162
-0.04622451	ThisExpr CatchClause Parameter	-0.9509249
-0.049697187	ContinueStmt CatchClause Parameter	-0.4280461
-2.6115417	<s> ReturnStmt StringLiteralExpr	-1.1550449
-1.71987	SimpleName ReturnStmt StringLiteralExpr	-0.75737745
-1.215173	StringLiteralExpr ReturnStmt StringLiteralExpr	-0.8717437
-1.1778024	BooleanLiteralExpr ReturnStmt StringLiteralExpr	-0.41200882
-1.4097421	NullLiteralExpr ReturnStmt StringLiteralExpr	-0.5529849
-1.3880483	ReturnStmt MethodCallExpr StringLiteralExpr	-0.4280461
-1.5303035	BinaryExpr MethodCallExpr StringLiteralExpr	-0.16227488
-1.4083494	UnaryExpr MethodCallExpr StringLiteralExpr	-0.38120818
-1.1358057	IfStmt MethodCallExpr StringLiteralExpr	-1.7362547
-1.4639899	MethodCallExpr SimpleName StringLiteralExpr	-1.9340941
-1.5891213	SimpleName SimpleName StringLiteralExpr	-2.3232663
-1.7296488	ClassOrInterfaceType SimpleName StringLiteralExpr	-0.8580166
-1.8031628	IntegerLiteralExpr SimpleName StringLiteralExpr	-1.9148735
-1.1974077	ObjectCreationExpr SimpleName StringLiteralExpr	-1.9215333
-1.4208933	StringLiteralExpr SimpleName StringLiteralExpr	-1.2936791
-1.3772756	BinaryExpr SimpleName StringLiteralExpr	-1.3041644
-1.7173444	BooleanLiteralExpr SimpleName StringLiteralExpr	-0.38120818
-1.4165274	AssignExpr SimpleName StringLiteralExpr	-1.0052825
-1.0515469	ArrayInitializerExpr SimpleName StringLiteralExpr	-0.72907615
-1.5993098	NullLiteralExpr SimpleName StringLiteralExpr	-0.5529849
-1.3100573	ClassExpr SimpleName StringLiteralExpr	-1.9263567
-1.4906843	ThisExpr SimpleName StringLiteralExpr	-0.38120818
-0.986467	CharLiteralExpr SimpleName StringLiteralExpr	-0.7960229
-1.4899275	ReturnStmt IntegerLiteralExpr StringLiteralExpr	-0.16227488
-1.8918803	SimpleName IntegerLiteralExpr StringLiteralExpr	-1.6336989
