\data\
ngram 1=64
ngram 2=559
ngram 3=2193
ngram 4=5746
ngram 5=11869
ngram 6=21084

\1-grams:
-2.607233	<unk>	0
0	<s>	-3.323952
-1.5465353	</s>	0
-1.5747811	ReturnStmt	-0.56113
-1.3693602	MethodCallExpr	-0.80884105
-1.0672491	SimpleName	-0.9072246
-1.4073457	ExpressionStmt	-0.83378196
-2.1584735	VariableDeclarationExpr	-0.36478743
-2.0589073	VariableDeclarator	-0.4866218
-1.6374638	ClassOrInterfaceType	-0.75594157
-1.6049925	IntegerLiteralExpr	-0.56871307
-1.6049925	ObjectCreationExpr	-0.94525963
-1.7107449	MethodDeclaration	-0.73751926
-1.9097632	MarkerAnnotationExpr	-0.7296598
-2.2878757	Name	-0.28596628
-1.9779642	Modifier	-0.37709713
-2.2878757	Parameter	-0.2773409
-1.6374638	StringLiteralExpr	-0.40662438
-1.471388	BinaryExpr	-0.75325537
-2.473034	VoidType	-0.28898072
-1.4276615	FieldAccessExpr	-0.7321365
-1.5747811	TryStmt	-0.6418981
-1.6725606	BooleanLiteralExpr	-0.46441537
-2.1584735	AssignExpr	-0.41030812
-1.7107449	EnclosedExpr	-0.47509372
-1.850833	CastExpr	-0.5808161
-1.850833	ArrayType	-0.6115605
-1.9779642	PrimitiveType	-0.33376998
-2.2878757	ArrayInitializerExpr	-0.29210132
-1.6725606	UnaryExpr	-0.6187349
-1.7107449	ArrayAccessExpr	-0.66417116
-2.1584735	DoubleLiteralExpr	-0.3126882
-1.4489746	IfStmt	-0.9830117
-1.6049925	ForStmt	-0.7265095
-1.7107449	WhileStmt	-0.62428176
-1.7989523	BreakStmt	-0.48267388
-1.6374638	NullLiteralExpr	-0.48031643
-2.1584735	ClassExpr	-0.38371524
-1.7107449	ThrowStmt	-0.71703583
-1.9779642	LambdaExpr	-0.4487511
-2.473034	UnknownType	-0.28898072
-1.7989523	CatchClause	-0.8388043
-2.473034	$EMPTY$	-0.28898072
-1.6725606	ThisExpr	-0.38840413
-1.9779642	FieldDeclaration	-0.43924505
-2.370661	WildcardType	-0.2818891
-1.850833	InstanceOfExpr	-0.49863714
-2.2878757	MethodReferenceExpr	-0.33112687
-1.6374638	ForEachStmt	-0.9985052
-1.7526131	LongLiteralExpr	-0.34619966
-2.473034	SuperExpr	-0.28898072
-2.0589073	SingleMemberAnnotationExpr	-0.58353186
-2.0589073	SwitchStmt	-0.58353186
-2.0589073	SwitchEntry	-0.3571736
-2.1584735	ArrayCreationExpr	-0.40851367
-2.2878757	ArrayCreationLevel	-0.31456664
-2.2878757	CharLiteralExpr	-0.2984824
-1.9779642	ConditionalExpr	-0.4866218
-2.2878757	EmptyStmt	-0.27606663
-2.2878757	DoStmt	-0.34233505
-1.9779642	ContinueStmt	-0.4793191
-1.9779642	SynchronizedStmt	-0.4866218
-2.370661	LabeledStmt	-0.26975074
-2.473034	ClassOrInterfaceDeclaration	-0.28898072

\2-grams:
-1.5396578	ReturnStmt </s>	0
-1.317477	SimpleName </s>	0
-1.1853833	IntegerLiteralExpr </s>	0
-1.283282	Name </s>	0
-1.2281731	StringLiteralExpr </s>	0
-1.4100382	VoidType </s>	0
-1.0483733	BooleanLiteralExpr </s>	0
-0.8698691	DoubleLiteralExpr </s>	0
-1.0636655	BreakStmt </s>	0
-1.0739589	NullLiteralExpr </s>	0
-1.3927598	LambdaExpr </s>	0
-0.300563	$EMPTY$ </s>	0
-1.1535743	ThisExpr </s>	0
-1.1463028	LongLiteralExpr </s>	0
-1.2867795	CharLiteralExpr </s>	0
-0.7714324	EmptyStmt </s>	0
-0.71982706	<s> ReturnStmt	-2.2660139
-1.9543155	ReturnStmt ReturnStmt	-0.2562481
-1.4834056	SimpleName ReturnStmt	-0.45097142
-1.49949	IntegerLiteralExpr ReturnStmt	-0.26710835
-1.4886894	StringLiteralExpr ReturnStmt	-0.24362725
-1.4204283	VoidType ReturnStmt	-0.2562481
-1.3752365	TryStmt ReturnStmt	-0.23793365
-1.5328103	BooleanLiteralExpr ReturnStmt	-0.22822535
-1.105473	PrimitiveType ReturnStmt	-0.2391502
-1.2425722	BreakStmt ReturnStmt	-0.2562481
-1.3538331	NullLiteralExpr ReturnStmt	-0.23826864
-1.5086341	ThisExpr ReturnStmt	-0.2391502
-1.2359295	WildcardType ReturnStmt	-0.2562481
-1.4933438	LongLiteralExpr ReturnStmt	-0.2562481
-0.8153388	SwitchEntry ReturnStmt	-0.2562481
-1.0209324	ReturnStmt MethodCallExpr	-0.49918061
-0.713351	MethodCallExpr MethodCallExpr	-0.6531069
-1.318482	SimpleName MethodCallExpr	-0.66107416
-0.6184616	ExpressionStmt MethodCallExpr	-0.74421316
-1.1206672	IntegerLiteralExpr MethodCallExpr	-0.4920218
-1.286033	StringLiteralExpr MethodCallExpr	-0.22849166
-0.9330104	BinaryExpr MethodCallExpr	-0.49127156
-1.00855	FieldAccessExpr MethodCallExpr	-0.28316098
-1.3301947	BooleanLiteralExpr MethodCallExpr	-0.3628724
-1.1257436	EnclosedExpr MethodCallExpr	-0.23497882
-1.2634531	PrimitiveType MethodCallExpr	-0.2562481
-1.0560191	ArrayInitializerExpr MethodCallExpr	-0.22811443
-0.71842617	UnaryExpr MethodCallExpr	-0.44385076
-0.77516454	ArrayAccessExpr MethodCallExpr	-0.24516702
-0.68683517	IfStmt MethodCallExpr	-0.59692293
-1.265918	WhileStmt MethodCallExpr	-0.2147028
-1.0502348	NullLiteralExpr MethodCallExpr	-0.5434703
-0.7240144	ThrowStmt MethodCallExpr	-0.5389637
-1.5523541	ThisExpr MethodCallExpr	-0.2562481
-1.177187	WildcardType MethodCallExpr	-0.2562481
-0.71387345	InstanceOfExpr MethodCallExpr	-0.30488044
-1.404878	LongLiteralExpr MethodCallExpr	-0.22811443
-1.0367632	ArrayCreationLevel MethodCallExpr	-0.2147028
-1.2301384	CharLiteralExpr MethodCallExpr	-0.2562481
-1.0775279	ReturnStmt SimpleName	-0.38566518
-0.5474675	MethodCallExpr SimpleName	-0.44224164
-1.14159	SimpleName SimpleName	-0.7645954
-1.7364982	ExpressionStmt SimpleName	-0.2562481
-0.58686197	VariableDeclarator SimpleName	-0.45978242
-0.2426387	ClassOrInterfaceType SimpleName	-0.41338354
-1.0588297	IntegerLiteralExpr SimpleName	-0.39211118
-0.36526048	ObjectCreationExpr SimpleName	-0.36981016
-0.9373529	Name SimpleName	-0.24195349
-0.613869	Modifier SimpleName	-0.23869357
-0.8608761	Parameter SimpleName	-0.2147028
-1.0242728	StringLiteralExpr SimpleName	-0.2767444
-0.7562766	BinaryExpr SimpleName	-0.5917462
-1.1653959	VoidType SimpleName	-0.2562481
-0.32618716	FieldAccessExpr SimpleName	-1.0618424
-0.9171697	BooleanLiteralExpr SimpleName	-0.4193913
-0.31645513	AssignExpr SimpleName	-0.24487296
-1.3368654	EnclosedExpr SimpleName	-0.2562481
-0.56924844	CastExpr SimpleName	-0.31018063
-0.35712	ArrayType SimpleName	-0.30412218
-0.63403606	PrimitiveType SimpleName	-0.24536896
-0.9593533	ArrayInitializerExpr SimpleName	-0.24195349
-0.50909376	UnaryExpr SimpleName	-0.33025846
-0.22996981	ArrayAccessExpr SimpleName	-0.5615418
-0.9674327	DoubleLiteralExpr SimpleName	-0.2562481
-0.7653051	IfStmt SimpleName	-0.5296825
-1.3760002	BreakStmt SimpleName	-0.2562481
-0.93389344	NullLiteralExpr SimpleName	-0.31296948
-0.3762582	ClassExpr SimpleName	-0.2336736
-0.5623242	ThrowStmt SimpleName	-0.3535307
-1.2157409	LambdaExpr SimpleName	-0.2562481
-0.27575225	UnknownType SimpleName	-0.2562481
-0.86296594	ThisExpr SimpleName	-0.26352504
-0.88982433	WildcardType SimpleName	-0.23994927
-0.39054146	InstanceOfExpr SimpleName	-0.5434703
-0.42128816	MethodReferenceExpr SimpleName	-0.2391502
-1.122307	LongLiteralExpr SimpleName	-0.21776123
-0.27575225	SuperExpr SimpleName	-0.2562481
-0.11835834	SwitchStmt SimpleName	-0.45978242
-0.5812676	SwitchEntry SimpleName	-0.24050319
-0.43135548	ArrayCreationExpr SimpleName	-0.3628724
-1.1029642	ArrayCreationLevel SimpleName	-0.2562481
-0.94211435	CharLiteralExpr SimpleName	-0.2562481
-0.6200178	ConditionalExpr SimpleName	-0.22269997
-0.74919367	ContinueStmt SimpleName	-0.22849166
-0.6200178	SynchronizedStmt SimpleName	-0.22849166
-0.29355055	LabeledStmt SimpleName	-0.23497882
-0.27575225	ClassOrInterfaceDeclaration SimpleName	-0.2562481
-0.18723781	<s> ExpressionStmt	-3.3819714
-1.200235	ReturnStmt ExpressionStmt	-0.54076076
-1.2440962	SimpleName ExpressionStmt	-0.8372829
-1.1262408	IntegerLiteralExpr ExpressionStmt	-0.60145867
-1.2392627	Name ExpressionStmt	-0.2562481
-1.1173162	StringLiteralExpr ExpressionStmt	-0.342435
-1.3524332	VoidType ExpressionStmt	-0.2562481
-0.5543251	TryStmt ExpressionStmt	-0.71073765
-1.0308471	BooleanLiteralExpr ExpressionStmt	-0.51848435
-1.276874	PrimitiveType ExpressionStmt	-0.2562481
-1.0698286	DoubleLiteralExpr ExpressionStmt	-0.2147028
-0.59184384	ForStmt ExpressionStmt	-0.59952515
-0.75544834	BreakStmt ExpressionStmt	-0.45978242
-0.94230026	NullLiteralExpr ExpressionStmt	-0.54076076
-0.6110142	LambdaExpr ExpressionStmt	-0.28636688
-1.1272436	ThisExpr ExpressionStmt	-0.28249907
-0.9218525	LongLiteralExpr ExpressionStmt	-0.42308557
-1.025451	SwitchEntry ExpressionStmt	-0.22811443
-0.82358724	CharLiteralExpr ExpressionStmt	-0.22835018
-0.75708747	EmptyStmt ExpressionStmt	-0.2562481
-0.85611355	DoStmt ExpressionStmt	-0.2562481
-0.562497	ContinueStmt ExpressionStmt	-0.32891843
-0.67432237	ExpressionStmt VariableDeclarationExpr	-0.87475574
-1.2296269	TryStmt VariableDeclarationExpr	-0.3628724
-0.5211619	ForStmt VariableDeclarationExpr	-0.87475574
-0.045587726	ForEachStmt VariableDeclarationExpr	-0.6506777
-0.4676159	VariableDeclarationExpr VariableDeclarator	-0.23973076
-1.3777924	Name VariableDeclarator	-0.2562481
-0.8726076	Modifier VariableDeclarator	-0.22835018
-2.011695	StringLiteralExpr VariableDeclarator	-0.2562481
-0.76263845	FieldDeclaration VariableDeclarator	-0.24516702
-1.9319683	SimpleName ClassOrInterfaceType	-0.5389637
-0.75452536	VariableDeclarator ClassOrInterfaceType	-0.33935037
-0.64275515	ClassOrInterfaceType ClassOrInterfaceType	-0.3746197
-0.33009177	ObjectCreationExpr ClassOrInterfaceType	-0.7543237
-1.3070865	Name ClassOrInterfaceType	-0.2562481
-1.3274424	Modifier ClassOrInterfaceType	-0.2562481
-1.2163774	Parameter ClassOrInterfaceType	-0.2562481
-0.6977764	CastExpr ClassOrInterfaceType	-0.4185316
-0.7591865	ArrayType ClassOrInterfaceType	-0.3628724
-1.3429984	PrimitiveType ClassOrInterfaceType	-0.2562481
-0.8485916	ClassExpr ClassOrInterfaceType	-0.22811443
-1.2501373	WildcardType ClassOrInterfaceType	-0.2562481
-1.1565359	ArrayCreationExpr ClassOrInterfaceType	-0.2562481
-1.4474207	ReturnStmt IntegerLiteralExpr	-0.24094176
-1.3961421	SimpleName IntegerLiteralExpr	-0.5735973
-1.8339622	ExpressionStmt IntegerLiteralExpr	-0.24548325
-1.1492796	IntegerLiteralExpr IntegerLiteralExpr	-0.40551504
-1.2386	StringLiteralExpr IntegerLiteralExpr	-0.23474137
-1.2041177	BinaryExpr IntegerLiteralExpr	-0.3840617
-1.4310728	VoidType IntegerLiteralExpr	-0.2562481
-1.3913404	BooleanLiteralExpr IntegerLiteralExpr	-0.2662059
-1.1036499	ArrayInitializerExpr IntegerLiteralExpr	-0.23497882
-1.2856795	UnaryExpr IntegerLiteralExpr	-0.2315331
-1.2453321	NullLiteralExpr IntegerLiteralExpr	-0.27357125
-1.6836735	ThisExpr IntegerLiteralExpr	-0.2562481
-1.5043852	LongLiteralExpr IntegerLiteralExpr	-0.2562481
-1.0798073	ArrayCreationLevel IntegerLiteralExpr	-0.24761498
-1.3614589	ReturnStmt ObjectCreationExpr	-0.50117505
-1.4443524	MethodCallExpr ObjectCreationExpr	-0.30488044
-1.4619768	SimpleName ObjectCreationExpr	-0.90694046
-1.4469604	ExpressionStmt ObjectCreationExpr	-0.23793365
-1.5061655	IntegerLiteralExpr ObjectCreationExpr	-0.3076729
-1.4981774	StringLiteralExpr ObjectCreationExpr	-0.24244034
-1.4310728	VoidType ObjectCreationExpr	-0.2562481
-1.7091043	BooleanLiteralExpr ObjectCreationExpr	-0.2147028
-1.5905614	EnclosedExpr ObjectCreationExpr	-0.2562481
-1.3243746	ArrayInitializerExpr ObjectCreationExpr	-0.2562481
-1.5153297	NullLiteralExpr ObjectCreationExpr	-0.24244034
-0.46953523	ThrowStmt ObjectCreationExpr	-0.7608124
-1.519004	ThisExpr ObjectCreationExpr	-0.2562481
-1.6624769	LongLiteralExpr ObjectCreationExpr	-0.2562481
-2.0388856	ReturnStmt MethodDeclaration	-0.2562481
-1.5797344	SimpleName MethodDeclaration	-0.7336416
-1.5268306	IntegerLiteralExpr MethodDeclaration	-0.45978242
-1.7066594	StringLiteralExpr MethodDeclaration	-0.2147028
-1.464668	VoidType MethodDeclaration	-0.2562481
-1.7521081	BooleanLiteralExpr MethodDeclaration	-0.2147028
-1.3591676	PrimitiveType MethodDeclaration	-0.2562481
-1.7301127	NullLiteralExpr MethodDeclaration	-0.2147028
-1.2648257	WildcardType MethodDeclaration	-0.2562481
-1.5393009	LongLiteralExpr MethodDeclaration	-0.2147028
-1.0395423	EmptyStmt MethodDeclaration	-0.2562481
-1.3351507	ClassOrInterfaceType MarkerAnnotationExpr	-0.2147028
-0.12606253	MethodDeclaration MarkerAnnotationExpr	-0.8022051
-1.3590078	Name MarkerAnnotationExpr	-0.2562481
-1.2589029	Parameter MarkerAnnotationExpr	-0.2562481
-1.7735698	StringLiteralExpr MarkerAnnotationExpr	-0.2147028
-1.2751477	FieldDeclaration MarkerAnnotationExpr	-0.2562481
-1.2957826	WildcardType MarkerAnnotationExpr	-0.2562481
-0.08905252	MarkerAnnotationExpr Name	-0.27470103
-1.2167721	ThisExpr Name	-0.23624268
-0.13050537	SingleMemberAnnotationExpr Name	-0.4185316
-0.9200703	VariableDeclarationExpr Modifier	-0.22811443
-1.3682985	Name Modifier	-0.2562481
-0.8701828	Modifier Modifier	-0.2562481
-1.008388	Parameter Modifier	-0.23497882
-1.9814781	StringLiteralExpr Modifier	-0.2562481
-0.42785108	FieldDeclaration Modifier	-0.30488044
-2.243028	SimpleName Parameter	-0.22244872
-0.6330101	LambdaExpr Parameter	-0.45978242
-0.06762544	CatchClause Parameter	-0.6403804
-1.4534417	ReturnStmt StringLiteralExpr	-0.26689187
-1.447722	MethodCallExpr StringLiteralExpr	-0.3628724
-1.5724853	SimpleName StringLiteralExpr	-0.43582386
-1.6184955	IntegerLiteralExpr StringLiteralExpr	-0.23054852
-1.3070865	Name StringLiteralExpr	-0.2562481
-1.2439089	StringLiteralExpr StringLiteralExpr	-0.25132325
-1.5006932	BinaryExpr StringLiteralExpr	-0.268331
-1.8634726	BooleanLiteralExpr StringLiteralExpr	-0.2562481
-0.8765758	ArrayInitializerExpr StringLiteralExpr	-0.24516702
-1.3379433	DoubleLiteralExpr StringLiteralExpr	-0.2562481
-1.8532982	NullLiteralExpr StringLiteralExpr	-0.2562481
-1.5157148	LongLiteralExpr StringLiteralExpr	-0.2147028
-1.295689	SwitchEntry StringLiteralExpr	-0.2562481
-1.2105087	ReturnStmt BinaryExpr	-0.33168918
-1.5232557	SimpleName BinaryExpr	-0.60145855
-1.9690974	ExpressionStmt BinaryExpr	-0.2562481
-1.4737692	IntegerLiteralExpr BinaryExpr	-0.2549141
-1.5975635	StringLiteralExpr BinaryExpr	-0.23497882
-0.93892676	BinaryExpr BinaryExpr	-0.5009153
-1.3802814	VoidType BinaryExpr	-0.2562481
-1.7600015	BooleanLiteralExpr BinaryExpr	-0.2562481
-0.6681218	EnclosedExpr BinaryExpr	-0.42816716
-0.86154187	DoubleLiteralExpr BinaryExpr	-0.23793365
-0.637559	IfStmt BinaryExpr	-0.7541099
-1.3026398	ForStmt BinaryExpr	-0.2147028
-0.4265759	WhileStmt BinaryExpr	-0.44205362
-1.6316853	NullLiteralExpr BinaryExpr	-0.2562481
-1.6130692	ThisExpr BinaryExpr	-0.2562481
-1.5886549	LongLiteralExpr BinaryExpr	-0.2562481
-0.83329076	ArrayCreationLevel BinaryExpr	-0.22811443
-1.2646645	CharLiteralExpr BinaryExpr	-0.2562481
-0.32518032	ConditionalExpr BinaryExpr	-0.3047674
-2.2601962	SimpleName VoidType	-0.24847722
-1.4074605	ReturnStmt FieldAccessExpr	-0.4185316
-0.9164123	MethodCallExpr FieldAccessExpr	-0.44007194
-1.4428939	SimpleName FieldAccessExpr	-0.58517885
-1.2642015	IntegerLiteralExpr FieldAccessExpr	-0.59462285
-1.4357419	StringLiteralExpr FieldAccessExpr	-0.24244034
-0.976637	BinaryExpr FieldAccessExpr	-0.45730674
-1.361519	VoidType FieldAccessExpr	-0.2562481
-1.0129771	FieldAccessExpr FieldAccessExpr	-0.3628724
-1.4814101	BooleanLiteralExpr FieldAccessExpr	-0.23793365
-1.0199463	AssignExpr FieldAccessExpr	-0.2562481
-1.5248461	EnclosedExpr FieldAccessExpr	-0.2562481
-1.2694231	ArrayInitializerExpr FieldAccessExpr	-0.2562481
-0.96310925	UnaryExpr FieldAccessExpr	-0.4185316
-1.2039487	ArrayAccessExpr FieldAccessExpr	-0.2147028
-1.8027885	IfStmt FieldAccessExpr	-0.2147028
-1.6102076	NullLiteralExpr FieldAccessExpr	-0.2147028
-1.5877558	ThisExpr FieldAccessExpr	-0.2562481
-1.1958988	WildcardType FieldAccessExpr	-0.2562481
-1.2700969	LongLiteralExpr FieldAccessExpr	-0.23793365
-1.0290856	SwitchEntry FieldAccessExpr	-0.2147028
-1.255837	ArrayCreationLevel FieldAccessExpr	-0.2562481
-1.8929849	<s> TryStmt	-1.5489568
-1.8373773	ReturnStmt TryStmt	-0.22811443
-1.5965104	SimpleName TryStmt	-0.4954837
-1.49949	IntegerLiteralExpr TryStmt	-0.27357125
-1.7760298	StringLiteralExpr TryStmt	-0.2562481
-1.4204283	VoidType TryStmt	-0.2562481
-0.9747905	TryStmt TryStmt	-0.4185316
-1.3848236	BooleanLiteralExpr TryStmt	-0.23299631
-1.3217793	DoubleLiteralExpr TryStmt	-0.2562481
-1.7580345	ForStmt TryStmt	-0.2562481
-1.2425722	BreakStmt TryStmt	-0.23793365
-1.506989	NullLiteralExpr TryStmt	-0.23299631
-1.5086341	ThisExpr TryStmt	-0.2147028
-1.6466744	LongLiteralExpr TryStmt	-0.2562481
-1.445813	ContinueStmt TryStmt	-0.2562481
-1.2354702	ReturnStmt BooleanLiteralExpr	-0.328975
-1.6080593	SimpleName BooleanLiteralExpr	-0.34516317
-1.849792	ExpressionStmt BooleanLiteralExpr	-0.2391502
-1.5198324	IntegerLiteralExpr BooleanLiteralExpr	-0.22994253
-1.5177988	StringLiteralExpr BooleanLiteralExpr	-0.2562481
-1.4531784	VoidType BooleanLiteralExpr	-0.2562481
-1.404675	BooleanLiteralExpr BooleanLiteralExpr	-0.27118084
-1.3414425	ArrayInitializerExpr BooleanLiteralExpr	-0.2562481
-1.0665766	WhileStmt BooleanLiteralExpr	-0.24516702
-1.7165184	NullLiteralExpr BooleanLiteralExpr	-0.2562481
-1.7154771	ThisExpr BooleanLiteralExpr	-0.2562481
-1.695919	LongLiteralExpr BooleanLiteralExpr	-0.2562481
-2.7508652	SimpleName AssignExpr	-0.2562481
-0.726144	ExpressionStmt AssignExpr	-0.8634748
-2.2930865	IntegerLiteralExpr AssignExpr	-0.2562481
-1.7059789	EnclosedExpr AssignExpr	-0.2562481
-1.2297237	MethodCallExpr EnclosedExpr	-0.4854784
-1.8233492	SimpleName EnclosedExpr	-0.38827622
-1.9437594	IntegerLiteralExpr EnclosedExpr	-0.23497882
-1.7066594	StringLiteralExpr EnclosedExpr	-0.2147028
-1.0863913	BinaryExpr EnclosedExpr	-0.40889007
-1.5821042	FieldAccessExpr EnclosedExpr	-0.2147028
-1.6220844	EnclosedExpr EnclosedExpr	-0.2562481
-1.3591676	PrimitiveType EnclosedExpr	-0.2562481
-1.1105034	UnaryExpr EnclosedExpr	-0.23793365
-0.97359914	MethodReferenceExpr EnclosedExpr	-0.2562481
-1.7136581	LongLiteralExpr EnclosedExpr	-0.2562481
-1.4848665	ReturnStmt CastExpr	-0.32891843
-1.6597977	SimpleName CastExpr	-0.5389637
-2.1050122	ExpressionStmt CastExpr	-0.2562481
-1.8229121	IntegerLiteralExpr CastExpr	-0.2562481
-1.3957987	BinaryExpr CastExpr	-0.30488044
-0.6816595	EnclosedExpr CastExpr	-0.39540517
-1.4168693	ThrowStmt CastExpr	-0.2147028
-1.3544567	ArrayCreationLevel CastExpr	-0.2562481
-2.0602245	SimpleName ArrayType	-0.29849514
-0.95637214	VariableDeclarator ArrayType	-0.23200843
-1.3499117	Name ArrayType	-0.2562481
-1.3635515	Modifier ArrayType	-0.2562481
-1.2515198	Parameter ArrayType	-0.2562481
-1.2806495	CastExpr ArrayType	-0.23497882
-1.1235156	ClassExpr ArrayType	-0.2562481
-0.9839537	MethodReferenceExpr ArrayType	-0.2562481
-2.3472059	SimpleName PrimitiveType	-0.22849166
-0.7647221	VariableDeclarator PrimitiveType	-0.3628724
-1.2664136	Parameter PrimitiveType	-0.2562481
-0.60224336	CastExpr PrimitiveType	-0.40809965
-0.7668946	ArrayType PrimitiveType	-0.31394115
-0.66545236	ArrayCreationExpr PrimitiveType	-0.23793365
-2.4166672	SimpleName ArrayInitializerExpr	-0.243967
-1.3974264	Name ArrayInitializerExpr	-0.2562481
-0.8764024	ArrayCreationLevel ArrayInitializerExpr	-0.23084716
-1.4595474	ReturnStmt UnaryExpr	-0.22558615
-1.6425648	SimpleName UnaryExpr	-0.50329024
-0.88457584	ExpressionStmt UnaryExpr	-0.59952515
-1.7704169	IntegerLiteralExpr UnaryExpr	-0.2245071
-1.691427	StringLiteralExpr UnaryExpr	-0.23497882
-1.1422279	BinaryExpr UnaryExpr	-0.51544166
-1.396153	EnclosedExpr UnaryExpr	-0.2147028
-0.75008357	IfStmt UnaryExpr	-0.6639024
-0.55867636	WhileStmt UnaryExpr	-0.48376417
-1.8720347	NullLiteralExpr UnaryExpr	-0.2562481
-1.7154771	ThisExpr UnaryExpr	-0.2562481
-1.695919	LongLiteralExpr UnaryExpr	-0.2562481
-1.900449	ReturnStmt ArrayAccessExpr	-0.2147028
-1.2297237	MethodCallExpr ArrayAccessExpr	-0.4854784
-1.6119782	SimpleName ArrayAccessExpr	-0.6258541
-1.9437594	IntegerLiteralExpr ArrayAccessExpr	-0.22811443
-1.7066594	StringLiteralExpr ArrayAccessExpr	-0.2147028
-1.3856835	BinaryExpr ArrayAccessExpr	-0.4185316
-1.3471653	FieldAccessExpr ArrayAccessExpr	-0.23793365
-1.9042765	BooleanLiteralExpr ArrayAccessExpr	-0.2562481
-1.0527804	AssignExpr ArrayAccessExpr	-0.2562481
-1.2966418	UnaryExpr ArrayAccessExpr	-0.23793365
-1.1683688	InstanceOfExpr ArrayAccessExpr	-0.2147028
-2.3922582	SimpleName DoubleLiteralExpr	-0.22811443
-2.2930865	IntegerLiteralExpr DoubleLiteralExpr	-0.2562481
-2.2087386	BinaryExpr DoubleLiteralExpr	-0.2562481
-1.4192013	DoubleLiteralExpr DoubleLiteralExpr	-0.2562481
-1.1981142	<s> IfStmt	-2.344691
-1.3329792	ReturnStmt IfStmt	-0.36564153
-1.3820053	SimpleName IfStmt	-0.8070839
-1.5614257	IntegerLiteralExpr IfStmt	-0.2687315
-1.310237	StringLiteralExpr IfStmt	-0.2898461
-1.3707988	VoidType IfStmt	-0.2562481
-0.82226217	TryStmt IfStmt	-0.4115492
-1.1668143	BooleanLiteralExpr IfStmt	-0.3034936
-1.2907227	PrimitiveType IfStmt	-0.2562481
-1.2838202	DoubleLiteralExpr IfStmt	-0.2562481
-0.7487124	ForStmt IfStmt	-0.43679786
-0.6924934	BreakStmt IfStmt	-0.49500328
-1.4675308	NullLiteralExpr IfStmt	-0.21912748
-1.366267	LambdaExpr IfStmt	-0.2562481
-1.1358443	ThisExpr IfStmt	-0.2204
-1.2766666	LongLiteralExpr IfStmt	-0.22811443
-1.0502896	CharLiteralExpr IfStmt	-0.2562481
-1.0007666	EmptyStmt IfStmt	-0.2562481
-0.35649925	DoStmt IfStmt	-0.23497882
-0.7917032	ContinueStmt IfStmt	-0.32891843
-1.6705154	<s> ForStmt	-2.0945954
-1.6975025	ReturnStmt ForStmt	-0.2204
-1.5689056	SimpleName ForStmt	-0.5567732
-1.6098689	IntegerLiteralExpr ForStmt	-0.3004419
-1.7946093	StringLiteralExpr ForStmt	-0.2562481
-1.4310728	VoidType ForStmt	-0.2562481
-1.0742145	TryStmt ForStmt	-0.39129505
-1.5420011	BooleanLiteralExpr ForStmt	-0.22269997
-1.5468751	ForStmt ForStmt	-0.22269997
-1.656475	BreakStmt ForStmt	-0.2562481
-1.8353367	NullLiteralExpr ForStmt	-0.2562481
-1.4066379	LambdaExpr ForStmt	-0.2562481
-1.6836735	ThisExpr ForStmt	-0.2562481
-1.5043852	LongLiteralExpr ForStmt	-0.2562481
-3.440385	<s> WhileStmt	-0.5389637
-2.0388856	ReturnStmt WhileStmt	-0.2562481
-1.8815336	SimpleName WhileStmt	-0.26988438
-2.0719767	IntegerLiteralExpr WhileStmt	-0.2562481
-1.464668	VoidType WhileStmt	-0.2562481
-1.2090735	TryStmt WhileStmt	-0.24244034
-1.9042765	BooleanLiteralExpr WhileStmt	-0.2562481
-1.7928064	ForStmt WhileStmt	-0.2562481
-1.7301127	NullLiteralExpr WhileStmt	-0.22811443
-1.7136581	LongLiteralExpr WhileStmt	-0.2562481
-1.3263408	CharLiteralExpr WhileStmt	-0.2562481
-2.0882733	ReturnStmt BreakStmt	-0.2562481
-1.9661796	SimpleName BreakStmt	-0.3231117
-2.1245399	IntegerLiteralExpr BreakStmt	-0.2562481
-1.7388272	StringLiteralExpr BreakStmt	-0.2562481
-1.7833414	BooleanLiteralExpr BreakStmt	-0.2562481
-1.4994044	BreakStmt BreakStmt	-0.22811443
-1.9336449	NullLiteralExpr BreakStmt	-0.2562481
-1.7514701	LongLiteralExpr BreakStmt	-0.2562481
-1.4912641	ContinueStmt BreakStmt	-0.2562481
-1.2939118	ReturnStmt NullLiteralExpr	-0.33846354
-1.5429512	SimpleName NullLiteralExpr	-0.39021122
-1.841805	ExpressionStmt NullLiteralExpr	-0.2562481
-1.4280977	IntegerLiteralExpr NullLiteralExpr	-0.29511166
-1.3070865	Name NullLiteralExpr	-0.2562481
-1.6767107	StringLiteralExpr NullLiteralExpr	-0.22811443
-1.8693736	BinaryExpr NullLiteralExpr	-0.22811443
-1.441985	VoidType NullLiteralExpr	-0.2562481
-1.7229711	BooleanLiteralExpr NullLiteralExpr	-0.24195349
-1.1087134	ArrayInitializerExpr NullLiteralExpr	-0.2562481
-1.3656036	NullLiteralExpr NullLiteralExpr	-0.23624268
-1.6992843	ThisExpr NullLiteralExpr	-0.2562481
-1.6788762	LongLiteralExpr NullLiteralExpr	-0.2562481
-1.6723775	MethodCallExpr ClassExpr	-0.24244034
-1.76358	SimpleName ClassExpr	-0.6087029
-2.2930865	IntegerLiteralExpr ClassExpr	-0.2562481
-2.0441723	StringLiteralExpr ClassExpr	-0.2562481
-1.5368063	<s> ThrowStmt	-2.283833
-1.6119782	SimpleName ThrowStmt	-0.59462285
-1.7829579	IntegerLiteralExpr ThrowStmt	-0.24516702
-1.7066594	StringLiteralExpr ThrowStmt	-0.23497882
-1.464668	VoidType ThrowStmt	-0.2562481
-1.8303624	TryStmt ThrowStmt	-0.2562481
-1.5708017	BooleanLiteralExpr ThrowStmt	-0.24244034
-1.3591676	PrimitiveType ThrowStmt	-0.2562481
-1.7301127	NullLiteralExpr ThrowStmt	-0.22269997
-1.4283239	LambdaExpr ThrowStmt	-0.2562481
-1.7136581	LongLiteralExpr ThrowStmt	-0.2562481
-1.9948574	ReturnStmt LambdaExpr	-0.2147028
-1.7085961	SimpleName LambdaExpr	-0.4204775
-2.0473056	IntegerLiteralExpr LambdaExpr	-0.22811443
-2.0054636	NullLiteralExpr LambdaExpr	-0.2562481
-1.4670622	LambdaExpr LambdaExpr	-0.2562481
-1.612303	ThisExpr LambdaExpr	-0.2562481
-1.0254481	Parameter UnknownType	-0.2147028
-1.9357895	ReturnStmt CatchClause	-0.2147028
-1.7365338	SimpleName CatchClause	-0.7608124
-1.9822683	IntegerLiteralExpr CatchClause	-0.2147028
-1.901706	StringLiteralExpr CatchClause	-0.2562481
-1.7833414	BooleanLiteralExpr CatchClause	-0.2147028
-1.2702537	BreakStmt CatchClause	-0.23793365
-1.9336449	NullLiteralExpr CatchClause	-0.2562481
-1.7680278	ThisExpr CatchClause	-0.2562481
-1.4912641	ContinueStmt CatchClause	-0.2562481
-1.5418911	<s> $EMPTY$	-2.7003317
-1.7193115	ReturnStmt ThisExpr	-0.23793365
-1.3251858	MethodCallExpr ThisExpr	-0.3076729
-1.7210793	SimpleName ThisExpr	-0.32705095
-2.0479028	IntegerLiteralExpr ThisExpr	-0.2562481
-2.0599906	BinaryExpr ThisExpr	-0.2562481
-0.926417	FieldAccessExpr ThisExpr	-0.4854784
-1.8833954	BooleanLiteralExpr ThisExpr	-0.2562481
-1.8720347	NullLiteralExpr ThisExpr	-0.2562481
-1.3415174	ThisExpr ThisExpr	-0.23729126
-1.1647522	InstanceOfExpr ThisExpr	-0.2147028
-1.695919	LongLiteralExpr ThisExpr	-0.2562481
-0.3289466	SynchronizedStmt ThisExpr	-0.33935037
-2.0829072	SimpleName FieldDeclaration	-0.29359287
-2.2176614	IntegerLiteralExpr FieldDeclaration	-0.2562481
-1.9814781	StringLiteralExpr FieldDeclaration	-0.2562481
-1.5271719	VoidType FieldDeclaration	-0.2562481
-2.0270631	BooleanLiteralExpr FieldDeclaration	-0.2562481
-1.8151835	LongLiteralExpr FieldDeclaration	-0.2562481
-2.2515273	SimpleName WildcardType	-0.24223164
-1.333469	WildcardType WildcardType	-0.2562481
-1.9546001	ReturnStmt InstanceOfExpr	-0.2147028
-2.0602245	SimpleName InstanceOfExpr	-0.32891843
-2.1050122	ExpressionStmt InstanceOfExpr	-0.2562481
-2.153417	IntegerLiteralExpr InstanceOfExpr	-0.2562481
-1.9267032	StringLiteralExpr InstanceOfExpr	-0.2562481
-1.9233453	BinaryExpr InstanceOfExpr	-0.2147028
-1.1852489	EnclosedExpr InstanceOfExpr	-0.24516702
-0.947125	IfStmt InstanceOfExpr	-0.50500965
-2.2829847	ReturnStmt MethodReferenceExpr	-0.2562481
-2.0231504	SimpleName MethodReferenceExpr	-0.40908757
-2.3363583	IntegerLiteralExpr MethodReferenceExpr	-0.2562481
-2.6113975	<s> ForEachStmt	-1.6358737
-1.8677692	ReturnStmt ForEachStmt	-0.2147028
-1.8107252	SimpleName ForEachStmt	-0.6639024
-1.6184955	IntegerLiteralExpr ForEachStmt	-0.3628724
-1.8140194	StringLiteralExpr ForEachStmt	-0.2562481
-1.441985	VoidType ForEachStmt	-0.2562481
-1.6030436	TryStmt ForEachStmt	-0.2147028
-1.7229711	BooleanLiteralExpr ForEachStmt	-0.2147028
-1.6682248	BreakStmt ForEachStmt	-0.2562481
-1.8532982	NullLiteralExpr ForEachStmt	-0.2562481
-1.6992843	ThisExpr ForEachStmt	-0.2562481
-1.6788762	LongLiteralExpr ForEachStmt	-0.2562481
-1.3100814	CharLiteralExpr ForEachStmt	-0.2562481
-1.5864574	ReturnStmt LongLiteralExpr	-0.2391502
-1.6159328	SimpleName LongLiteralExpr	-0.32978103
-1.9625872	IntegerLiteralExpr LongLiteralExpr	-0.2562481
-1.9009455	BinaryExpr LongLiteralExpr	-0.2147028
-1.4764698	VoidType LongLiteralExpr	-0.2562481
-1.9262124	BooleanLiteralExpr LongLiteralExpr	-0.2562481
-1.5337076	UnaryExpr LongLiteralExpr	-0.24195349
-1.9121222	NullLiteralExpr LongLiteralExpr	-0.2562481
-1.7497951	ThisExpr LongLiteralExpr	-0.2562481
-1.5515925	LongLiteralExpr LongLiteralExpr	-0.21912748
-1.4866221	MethodCallExpr SuperExpr	-0.3628724
-0.9228696	VariableDeclarationExpr SingleMemberAnnotationExpr	-0.2147028
-1.1380093	MethodDeclaration SingleMemberAnnotationExpr	-0.2147028
-1.3777924	Name SingleMemberAnnotationExpr	-0.2562481
-1.386752	Modifier SingleMemberAnnotationExpr	-0.2562481
-1.2859292	FieldDeclaration SingleMemberAnnotationExpr	-0.2562481
-4.220518	<s> SwitchStmt	-0.23793365
-2.6997883	SimpleName SwitchStmt	-0.2562481
-2.2537386	IntegerLiteralExpr SwitchStmt	-0.2562481
-2.0564137	BooleanLiteralExpr SwitchStmt	-0.2562481
-1.8497367	ThisExpr SwitchStmt	-0.2562481
-2.3691483	SimpleName SwitchEntry	-0.24699433
-2.011695	StringLiteralExpr SwitchEntry	-0.2562481
-1.8534799	BooleanLiteralExpr SwitchEntry	-0.23497882
-1.5329655	BreakStmt SwitchEntry	-0.2147028
-1.524443	ContinueStmt SwitchEntry	-0.2562481
-1.819489	ReturnStmt ArrayCreationExpr	-0.22849166
-1.7185442	SimpleName ArrayCreationExpr	-0.45978242
-2.0967941	IntegerLiteralExpr ArrayCreationExpr	-0.22811443
-2.060924	NullLiteralExpr ArrayCreationExpr	-0.2562481
-2.80876	SimpleName ArrayCreationLevel	-0.2562481
-1.4306343	PrimitiveType ArrayCreationLevel	-0.2562481
-1.0614153	WildcardType ArrayCreationLevel	-0.2562481
-2.4166672	SimpleName CharLiteralExpr	-0.23309593
-2.3363583	IntegerLiteralExpr CharLiteralExpr	-0.2562481
-1.398249	CharLiteralExpr CharLiteralExpr	-0.2562481
-1.9948574	ReturnStmt ConditionalExpr	-0.22811443
-2.1952538	SimpleName ConditionalExpr	-0.22849166
-2.1350427	ExpressionStmt ConditionalExpr	-0.2562481
-1.680311	EnclosedExpr ConditionalExpr	-0.2562481
-2.1352556	IfStmt ConditionalExpr	-0.2562481
-1.8278236	ThisExpr ConditionalExpr	-0.2562481
-2.6232927	SimpleName EmptyStmt	-0.2562481
-2.3363583	IntegerLiteralExpr EmptyStmt	-0.2562481
-2.0792758	StringLiteralExpr EmptyStmt	-0.2562481
-2.4166672	SimpleName DoStmt	-0.23793365
-2.3363583	IntegerLiteralExpr DoStmt	-0.2562481
-2.121832	BooleanLiteralExpr DoStmt	-0.2562481
-2.174807	ReturnStmt ContinueStmt	-0.2562481
-1.9937315	SimpleName ContinueStmt	-0.3393504
-2.2176614	IntegerLiteralExpr ContinueStmt	-0.2562481
-1.9814781	StringLiteralExpr ContinueStmt	-0.2562481
-2.0270631	BooleanLiteralExpr ContinueStmt	-0.2562481
-2.0054636	NullLiteralExpr ContinueStmt	-0.2562481
-2.964294	<s> SynchronizedStmt	-0.9912613
-1.9948574	ReturnStmt SynchronizedStmt	-0.2147028
-1.9937315	SimpleName SynchronizedStmt	-0.3628724
-2.2176614	IntegerLiteralExpr SynchronizedStmt	-0.2562481
-1.5271719	VoidType SynchronizedStmt	-0.2562481
-2.0270631	BooleanLiteralExpr SynchronizedStmt	-0.2562481
-2.4294064	SimpleName LabeledStmt	-0.23793365
-2.3597262	IntegerLiteralExpr LabeledStmt	-0.2562481
-2.8755772	SimpleName ClassOrInterfaceDeclaration	-0.2562481

\3-grams:
-1.832091	SimpleName ReturnStmt </s>	0
-1.4082528	IntegerLiteralExpr ReturnStmt </s>	0
-1.3965014	NullLiteralExpr ReturnStmt </s>	0
-0.97559774	ThisExpr ReturnStmt </s>	0
-0.7149029	ReturnStmt SimpleName </s>	0
-1.3695436	MethodCallExpr SimpleName </s>	0
-1.2506554	SimpleName SimpleName </s>	0
-1.1180068	ExpressionStmt SimpleName </s>	0
-1.5634708	ClassOrInterfaceType SimpleName </s>	0
-1.1149212	IntegerLiteralExpr SimpleName </s>	0
-1.3202101	ObjectCreationExpr SimpleName </s>	0
-0.9919952	Name SimpleName </s>	0
-1.1712883	StringLiteralExpr SimpleName </s>	0
-0.85978043	VoidType SimpleName </s>	0
-0.96212643	BooleanLiteralExpr SimpleName </s>	0
-1.2860405	ArrayType SimpleName </s>	0
-1.4205127	PrimitiveType SimpleName </s>	0
-0.9919952	ArrayInitializerExpr SimpleName </s>	0
-1.2106754	UnaryExpr SimpleName </s>	0
-0.84800893	NullLiteralExpr SimpleName </s>	0
-1.2268506	ClassExpr SimpleName </s>	0
-0.8321269	ThrowStmt SimpleName </s>	0
-0.7563441	LambdaExpr SimpleName </s>	0
-1.1949997	UnknownType SimpleName </s>	0
-1.0052099	ThisExpr SimpleName </s>	0
-1.3104303	WildcardType SimpleName </s>	0
-0.9756532	MethodReferenceExpr SimpleName </s>	0
-1.049804	LongLiteralExpr SimpleName </s>	0
-0.93620265	SuperExpr SimpleName </s>	0
-1.0223241	ReturnStmt IntegerLiteralExpr </s>	0
-1.0683043	SimpleName IntegerLiteralExpr </s>	0
-1.0324949	ExpressionStmt IntegerLiteralExpr </s>	0
-0.9387088	IntegerLiteralExpr IntegerLiteralExpr </s>	0
-1.008707	StringLiteralExpr IntegerLiteralExpr </s>	0
-1.058698	BooleanLiteralExpr IntegerLiteralExpr </s>	0
-1.1500056	UnaryExpr IntegerLiteralExpr </s>	0
-1.1432822	NullLiteralExpr IntegerLiteralExpr </s>	0
-0.73345	LongLiteralExpr IntegerLiteralExpr </s>	0
-1.0890182	ArrayCreationLevel IntegerLiteralExpr </s>	0
-1.0273218	ThisExpr Name </s>	0
-0.7818697	ReturnStmt StringLiteralExpr </s>	0
-1.065637	SimpleName StringLiteralExpr </s>	0
-1.0009412	IntegerLiteralExpr StringLiteralExpr </s>	0
-1.173481	StringLiteralExpr StringLiteralExpr </s>	0
-0.37047422	LongLiteralExpr StringLiteralExpr </s>	0
-1.2433348	SimpleName VoidType </s>	0
-0.79472286	ReturnStmt BooleanLiteralExpr </s>	0
-1.0729619	SimpleName BooleanLiteralExpr </s>	0
-0.85165155	ExpressionStmt BooleanLiteralExpr </s>	0
-1.0062447	IntegerLiteralExpr BooleanLiteralExpr </s>	0
-0.9070336	StringLiteralExpr BooleanLiteralExpr </s>	0
-0.5647391	VoidType BooleanLiteralExpr </s>	0
-1.120515	BooleanLiteralExpr BooleanLiteralExpr </s>	0
-0.70300174	NullLiteralExpr BooleanLiteralExpr </s>	0
-0.8883218	SimpleName DoubleLiteralExpr </s>	0
-0.52630544	IntegerLiteralExpr DoubleLiteralExpr </s>	0
-0.7853284	DoubleLiteralExpr DoubleLiteralExpr </s>	0
-1.1163377	SimpleName BreakStmt </s>	0
-0.8632455	IntegerLiteralExpr BreakStmt </s>	0
-0.7977971	StringLiteralExpr BreakStmt </s>	0
-0.95255893	BooleanLiteralExpr BreakStmt </s>	0
-0.66471255	ReturnStmt NullLiteralExpr </s>	0
-0.82759976	SimpleName NullLiteralExpr </s>	0
-0.7731231	IntegerLiteralExpr NullLiteralExpr </s>	0
-0.90601176	StringLiteralExpr NullLiteralExpr </s>	0
-0.9115185	BooleanLiteralExpr NullLiteralExpr </s>	0
-0.70926464	ThisExpr NullLiteralExpr </s>	0
-0.30764472	LongLiteralExpr NullLiteralExpr </s>	0
-1.4365602	SimpleName LambdaExpr </s>	0
-0.00043266642	<s> $EMPTY$ </s>	0
-0.33497047	ReturnStmt ThisExpr </s>	0
-0.84538656	SimpleName ThisExpr </s>	0
-0.7270356	BooleanLiteralExpr ThisExpr </s>	0
-0.8950564	ThisExpr ThisExpr </s>	0
-0.70512587	ReturnStmt LongLiteralExpr </s>	0
-1.1398269	SimpleName LongLiteralExpr </s>	0
-0.31401783	VoidType LongLiteralExpr </s>	0
-0.88677204	LongLiteralExpr LongLiteralExpr </s>	0
-1.1504236	SimpleName CharLiteralExpr </s>	0
-0.61548734	SimpleName EmptyStmt </s>	0
-0.2679955	IntegerLiteralExpr EmptyStmt </s>	0
-2.0739236	SimpleName ReturnStmt ReturnStmt	-0.2130643
-1.1709683	ReturnStmt SimpleName ReturnStmt	-0.2330639
-1.4296806	MethodCallExpr SimpleName ReturnStmt	-0.2522937
-1.4310976	SimpleName SimpleName ReturnStmt	-0.47232962
-1.6691458	ClassOrInterfaceType SimpleName ReturnStmt	-0.2130643
-1.7407928	IntegerLiteralExpr SimpleName ReturnStmt	-0.2130643
-1.6304157	ObjectCreationExpr SimpleName ReturnStmt	-0.2278178
-1.4973251	StringLiteralExpr SimpleName ReturnStmt	-0.22532383
-1.3549082	ArrayType SimpleName ReturnStmt	-0.2130643
-1.4289075	PrimitiveType SimpleName ReturnStmt	-0.2130643
-1.2642616	UnaryExpr SimpleName ReturnStmt	-0.22370128
-0.76660407	IfStmt SimpleName ReturnStmt	-0.38190845
-1.4242237	NullLiteralExpr SimpleName ReturnStmt	-0.2130643
-1.4054159	ThrowStmt SimpleName ReturnStmt	-0.2130643
-1.2568632	UnknownType SimpleName ReturnStmt	-0.2130643
-1.4529113	ThisExpr SimpleName ReturnStmt	-0.22948849
-1.3965161	WildcardType SimpleName ReturnStmt	-0.2130643
-0.6997045	SwitchEntry SimpleName ReturnStmt	-0.22284408
-1.2705303	ReturnStmt IntegerLiteralExpr ReturnStmt	-0.23793954
-1.5181967	SimpleName IntegerLiteralExpr ReturnStmt	-0.27629548
-1.6272874	IntegerLiteralExpr IntegerLiteralExpr ReturnStmt	-0.22948849
-1.1299379	ArrayInitializerExpr IntegerLiteralExpr ReturnStmt	-0.2130643
-1.2917416	UnaryExpr IntegerLiteralExpr ReturnStmt	-0.2130643
-1.0362415	ReturnStmt StringLiteralExpr ReturnStmt	-0.22532383
-1.3041186	SimpleName StringLiteralExpr ReturnStmt	-0.24882367
-1.4251086	StringLiteralExpr StringLiteralExpr ReturnStmt	-0.2130643
-1.4709051	SimpleName VoidType ReturnStmt	-0.2130643
-1.9142054	<s> TryStmt ReturnStmt	-0.5393317
-1.4835289	SimpleName TryStmt ReturnStmt	-0.2130643
-0.8703583	StringLiteralExpr TryStmt ReturnStmt	-0.2130643
-1.1153389	ReturnStmt BooleanLiteralExpr ReturnStmt	-0.23158589
-1.5179149	SimpleName BooleanLiteralExpr ReturnStmt	-0.22636274
-1.3609158	BooleanLiteralExpr BooleanLiteralExpr ReturnStmt	-0.2130643
-0.76222223	SimpleName PrimitiveType ReturnStmt	-0.23167507
-0.99250656	ArrayType PrimitiveType ReturnStmt	-0.2130643
-1.3238292	SimpleName BreakStmt ReturnStmt	-0.2130643
-0.9177642	IntegerLiteralExpr BreakStmt ReturnStmt	-0.2130643
-0.8442647	StringLiteralExpr BreakStmt ReturnStmt	-0.2130643
-1.2772549	ReturnStmt NullLiteralExpr ReturnStmt	-0.2130643
-1.234015	SimpleName NullLiteralExpr ReturnStmt	-0.24477288
-1.3260369	IntegerLiteralExpr NullLiteralExpr ReturnStmt	-0.2130643
-0.99797726	StringLiteralExpr NullLiteralExpr ReturnStmt	-0.2130643
-1.5107359	SimpleName ThisExpr ReturnStmt	-0.22284408
-1.1708786	ThisExpr ThisExpr ReturnStmt	-0.2130643
-1.1864945	SimpleName WildcardType ReturnStmt	-0.2130643
-0.9679761	ReturnStmt LongLiteralExpr ReturnStmt	-0.2130643
-1.4336197	SimpleName LongLiteralExpr ReturnStmt	-0.22284408
-0.79341274	SimpleName SwitchEntry ReturnStmt	-0.2130643
-0.5119447	StringLiteralExpr SwitchEntry ReturnStmt	-0.2130643
-0.6979231	BooleanLiteralExpr SwitchEntry ReturnStmt	-0.2130643
-0.2930852	<s> ReturnStmt MethodCallExpr	-2.5018473
-0.8311238	SimpleName ReturnStmt MethodCallExpr	-0.5005349
-0.76763403	IntegerLiteralExpr ReturnStmt MethodCallExpr	-0.31733802
-0.90419364	StringLiteralExpr ReturnStmt MethodCallExpr	-0.23185353
-0.32156047	TryStmt ReturnStmt MethodCallExpr	-0.2383017
-0.99041724	BooleanLiteralExpr ReturnStmt MethodCallExpr	-0.23793954
-0.8763025	PrimitiveType ReturnStmt MethodCallExpr	-0.22948849
-1.0172191	NullLiteralExpr ReturnStmt MethodCallExpr	-0.23793954
-0.8413908	ThisExpr ReturnStmt MethodCallExpr	-0.2130643
-0.302323	WildcardType ReturnStmt MethodCallExpr	-0.2130643
-0.84783167	LongLiteralExpr ReturnStmt MethodCallExpr	-0.2130643
-0.6959702	SwitchEntry ReturnStmt MethodCallExpr	-0.2130643
-0.5786951	ReturnStmt MethodCallExpr MethodCallExpr	-0.4091552
-0.5826595	MethodCallExpr MethodCallExpr MethodCallExpr	-0.5373374
-0.6467821	SimpleName MethodCallExpr MethodCallExpr	-0.64282936
-0.71183974	ExpressionStmt MethodCallExpr MethodCallExpr	-0.5936273
-0.8773825	IntegerLiteralExpr MethodCallExpr MethodCallExpr	-0.23083836
-0.6182102	StringLiteralExpr MethodCallExpr MethodCallExpr	-0.23809469
-0.93015754	BinaryExpr MethodCallExpr MethodCallExpr	-0.23185353
-0.72703755	FieldAccessExpr MethodCallExpr MethodCallExpr	-0.22948849
-0.64964163	EnclosedExpr MethodCallExpr MethodCallExpr	-0.2130643
-0.48135924	PrimitiveType MethodCallExpr MethodCallExpr	-0.2130643
-0.580057	ArrayInitializerExpr MethodCallExpr MethodCallExpr	-0.2130643
-0.67526346	UnaryExpr MethodCallExpr MethodCallExpr	-0.3072113
-0.7007961	ArrayAccessExpr MethodCallExpr MethodCallExpr	-0.2130643
-0.75845027	IfStmt MethodCallExpr MethodCallExpr	-0.38428482
-0.9544065	NullLiteralExpr MethodCallExpr MethodCallExpr	-0.2130643
-0.5580425	InstanceOfExpr MethodCallExpr MethodCallExpr	-0.22803007
-0.580057	LongLiteralExpr MethodCallExpr MethodCallExpr	-0.2130643
-1.5174882	ReturnStmt SimpleName MethodCallExpr	-0.2130643
-1.1327071	MethodCallExpr SimpleName MethodCallExpr	-0.44508705
-1.2838717	SimpleName SimpleName MethodCallExpr	-0.5913861
-1.1183585	ExpressionStmt SimpleName MethodCallExpr	-0.2130643
-1.5641541	ClassOrInterfaceType SimpleName MethodCallExpr	-0.2130643
-1.0576223	IntegerLiteralExpr SimpleName MethodCallExpr	-0.46868855
-1.3206414	ObjectCreationExpr SimpleName MethodCallExpr	-0.31733802
-0.9922671	Name SimpleName MethodCallExpr	-0.2130643
-1.1716676	StringLiteralExpr SimpleName MethodCallExpr	-0.30524847
-0.9949397	BinaryExpr SimpleName MethodCallExpr	-0.53490275
-0.8599745	VoidType SimpleName MethodCallExpr	-0.2130643
-0.9622951	BooleanLiteralExpr SimpleName MethodCallExpr	-0.6062785
-1.1782577	AssignExpr SimpleName MethodCallExpr	-0.22119877
-1.1525323	CastExpr SimpleName MethodCallExpr	-0.23387277
-1.2865044	ArrayType SimpleName MethodCallExpr	-0.2130643
-1.3384452	PrimitiveType SimpleName MethodCallExpr	-0.22948849
-1.4448802	UnaryExpr SimpleName MethodCallExpr	-0.23793954
-1.3464664	NullLiteralExpr SimpleName MethodCallExpr	-0.23793954
-1.2273266	ClassExpr SimpleName MethodCallExpr	-0.22948849
-0.75649697	LambdaExpr SimpleName MethodCallExpr	-0.2130643
-1.3613433	ThisExpr SimpleName MethodCallExpr	-0.23793954
-1.1884975	WildcardType SimpleName MethodCallExpr	-0.22532383
-1.0501324	LongLiteralExpr SimpleName MethodCallExpr	-0.23793954
-0.93643403	CharLiteralExpr SimpleName MethodCallExpr	-0.2130643
-0.26299292	<s> ExpressionStmt MethodCallExpr	-2.9677947
-0.5488595	ReturnStmt ExpressionStmt MethodCallExpr	-0.37015623
-0.44937372	SimpleName ExpressionStmt MethodCallExpr	-0.7397975
-0.33431345	IntegerLiteralExpr ExpressionStmt MethodCallExpr	-0.45498428
-0.23722221	Name ExpressionStmt MethodCallExpr	-0.2130643
-0.6845256	StringLiteralExpr ExpressionStmt MethodCallExpr	-0.23120724
-0.6110749	VoidType ExpressionStmt MethodCallExpr	-0.2130643
-0.378263	TryStmt ExpressionStmt MethodCallExpr	-0.5517951
-0.45582822	BooleanLiteralExpr ExpressionStmt MethodCallExpr	-0.43089992
-0.44820023	PrimitiveType ExpressionStmt MethodCallExpr	-0.2130643
-0.46615177	DoubleLiteralExpr ExpressionStmt MethodCallExpr	-0.22532383
-1.0535889	ForStmt ExpressionStmt MethodCallExpr	-0.2130643
-0.7060064	BreakStmt ExpressionStmt MethodCallExpr	-0.30081955
-0.36393416	NullLiteralExpr ExpressionStmt MethodCallExpr	-0.5048548
-0.4546368	LambdaExpr ExpressionStmt MethodCallExpr	-0.30081955
-0.38849416	ThisExpr ExpressionStmt MethodCallExpr	-0.36324042
-0.24809356	LongLiteralExpr ExpressionStmt MethodCallExpr	-0.3668791
-0.3953395	SwitchEntry ExpressionStmt MethodCallExpr	-0.23793954
-0.52219105	CharLiteralExpr ExpressionStmt MethodCallExpr	-0.22532383
-0.44820023	DoStmt ExpressionStmt MethodCallExpr	-0.2130643
-0.71921694	ContinueStmt ExpressionStmt MethodCallExpr	-0.23793954
-1.1955277	ReturnStmt IntegerLiteralExpr MethodCallExpr	-0.2130643
-1.2033925	SimpleName IntegerLiteralExpr MethodCallExpr	-0.5307552
-1.0054667	ExpressionStmt IntegerLiteralExpr MethodCallExpr	-0.2130643
-1.2066554	IntegerLiteralExpr IntegerLiteralExpr MethodCallExpr	-0.31733802
-1.105687	StringLiteralExpr IntegerLiteralExpr MethodCallExpr	-0.2130643
-0.85648954	BinaryExpr IntegerLiteralExpr MethodCallExpr	-0.36324042
-1.1503035	BooleanLiteralExpr IntegerLiteralExpr MethodCallExpr	-0.2130643
-1.0008574	ArrayInitializerExpr IntegerLiteralExpr MethodCallExpr	-0.2130643
-1.2005692	UnaryExpr IntegerLiteralExpr MethodCallExpr	-0.2130643
-1.1107919	NullLiteralExpr IntegerLiteralExpr MethodCallExpr	-0.2130643
-1.0585079	ArrayCreationLevel IntegerLiteralExpr MethodCallExpr	-0.2130643
-1.246259	SimpleName StringLiteralExpr MethodCallExpr	-0.3950449
-1.1701877	IntegerLiteralExpr StringLiteralExpr MethodCallExpr	-0.2130643
-1.2011185	StringLiteralExpr StringLiteralExpr MethodCallExpr	-0.22948849
-0.94975495	BinaryExpr StringLiteralExpr MethodCallExpr	-0.23809469
-0.9172383	ReturnStmt BinaryExpr MethodCallExpr	-0.30081955
-0.82681656	SimpleName BinaryExpr MethodCallExpr	-0.48833644
-0.983471	IntegerLiteralExpr BinaryExpr MethodCallExpr	-0.22948849
-0.7463112	StringLiteralExpr BinaryExpr MethodCallExpr	-0.2130643
-0.79677373	BinaryExpr BinaryExpr MethodCallExpr	-0.46015042
-0.79545546	EnclosedExpr BinaryExpr MethodCallExpr	-0.46015042
-0.7247572	IfStmt BinaryExpr MethodCallExpr	-0.6573404
-0.8646859	WhileStmt BinaryExpr MethodCallExpr	-0.32876354
-0.81300426	NullLiteralExpr BinaryExpr MethodCallExpr	-0.2130643
-0.5413301	ThisExpr BinaryExpr MethodCallExpr	-0.2130643
-0.8437963	ArrayCreationLevel BinaryExpr MethodCallExpr	-0.2130643
-0.91063607	ConditionalExpr BinaryExpr MethodCallExpr	-0.23793954
-1.0539358	MethodCallExpr FieldAccessExpr MethodCallExpr	-0.22948849
-1.2645888	SimpleName FieldAccessExpr MethodCallExpr	-0.22948849
-1.128093	IntegerLiteralExpr FieldAccessExpr MethodCallExpr	-0.2130643
-1.0110775	BinaryExpr FieldAccessExpr MethodCallExpr	-0.2383017
-0.30099413	EnclosedExpr FieldAccessExpr MethodCallExpr	-0.2130643
-1.4647086	ReturnStmt BooleanLiteralExpr MethodCallExpr	-0.2130643
-1.5663848	SimpleName BooleanLiteralExpr MethodCallExpr	-0.2130643
-1.2696159	IntegerLiteralExpr BooleanLiteralExpr MethodCallExpr	-0.2130643
-1.2765844	BooleanLiteralExpr BooleanLiteralExpr MethodCallExpr	-0.2130643
-1.0637927	SimpleName EnclosedExpr MethodCallExpr	-0.22948849
-0.80966336	IntegerLiteralExpr EnclosedExpr MethodCallExpr	-0.2130643
-1.2437096	BinaryExpr EnclosedExpr MethodCallExpr	-0.2130643
-1.0639341	CastExpr PrimitiveType MethodCallExpr	-0.23793954
-0.94389415	SimpleName ArrayInitializerExpr MethodCallExpr	-0.2130643
-0.8871715	ArrayCreationLevel ArrayInitializerExpr MethodCallExpr	-0.22948849
-0.71722233	ReturnStmt UnaryExpr MethodCallExpr	-0.23793954
-1.0337545	SimpleName UnaryExpr MethodCallExpr	-0.23793954
-0.64688396	IntegerLiteralExpr UnaryExpr MethodCallExpr	-0.22948849
-0.6521855	StringLiteralExpr UnaryExpr MethodCallExpr	-0.2130643
-0.46505374	BinaryExpr UnaryExpr MethodCallExpr	-0.3437498
-0.44098055	IfStmt UnaryExpr MethodCallExpr	-0.5115504
-0.18854034	WhileStmt UnaryExpr MethodCallExpr	-0.6062785
-0.48300168	NullLiteralExpr UnaryExpr MethodCallExpr	-0.2130643
-0.92612433	MethodCallExpr ArrayAccessExpr MethodCallExpr	-0.2130643
-0.94250315	SimpleName ArrayAccessExpr MethodCallExpr	-0.23185353
-0.60587853	IntegerLiteralExpr ArrayAccessExpr MethodCallExpr	-0.2130643
-0.85917753	BinaryExpr ArrayAccessExpr MethodCallExpr	-0.2130643
-0.52389956	<s> IfStmt MethodCallExpr	-1.9946228
-0.62042606	ReturnStmt IfStmt MethodCallExpr	-0.36324042
-0.7321614	SimpleName IfStmt MethodCallExpr	-0.46856815
-0.66509056	IntegerLiteralExpr IfStmt MethodCallExpr	-0.2383017
-0.44704914	StringLiteralExpr IfStmt MethodCallExpr	-0.22857639
-0.69220173	VoidType IfStmt MethodCallExpr	-0.2130643
-0.90985733	TryStmt IfStmt MethodCallExpr	-0.22948849
-0.69985265	BooleanLiteralExpr IfStmt MethodCallExpr	-0.2383017
-0.44367477	ForStmt IfStmt MethodCallExpr	-0.6642704
-0.7174948	BreakStmt IfStmt MethodCallExpr	-0.36324042
-0.67602074	NullLiteralExpr IfStmt MethodCallExpr	-0.22948849
-0.6284625	ThisExpr IfStmt MethodCallExpr	-0.23793954
-0.7079333	LongLiteralExpr IfStmt MethodCallExpr	-0.2130643
-0.58076024	CharLiteralExpr IfStmt MethodCallExpr	-0.2130643
-0.25204927	EmptyStmt IfStmt MethodCallExpr	-0.2130643
-0.5020367	DoStmt IfStmt MethodCallExpr	-0.23793954
-0.4908213	ContinueStmt IfStmt MethodCallExpr	-0.23185353
-0.99983567	SimpleName WhileStmt MethodCallExpr	-0.23793954
-0.8493295	IntegerLiteralExpr WhileStmt MethodCallExpr	-0.2130643
-1.2259887	ReturnStmt NullLiteralExpr MethodCallExpr	-0.2130643
-1.338175	SimpleName NullLiteralExpr MethodCallExpr	-0.22948849
-0.5650774	ExpressionStmt NullLiteralExpr MethodCallExpr	-0.2130643
-1.0531157	IntegerLiteralExpr NullLiteralExpr MethodCallExpr	-0.23793954
-0.6962765	BinaryExpr NullLiteralExpr MethodCallExpr	-0.2130643
-0.85850525	ArrayInitializerExpr NullLiteralExpr MethodCallExpr	-0.2130643
-0.93789226	NullLiteralExpr NullLiteralExpr MethodCallExpr	-0.2130643
-2.8272338	<s> ThrowStmt MethodCallExpr	-0.2130643
-0.75977135	SimpleName ThrowStmt MethodCallExpr	-0.36324042
-0.7066545	IntegerLiteralExpr ThrowStmt MethodCallExpr	-0.2130643
-0.65496945	StringLiteralExpr ThrowStmt MethodCallExpr	-0.2130643
-0.25936845	TryStmt ThrowStmt MethodCallExpr	-0.2130643
-0.5701312	NullLiteralExpr ThrowStmt MethodCallExpr	-0.23793954
-1.5308771	SimpleName ThisExpr MethodCallExpr	-0.23793954
-1.1554921	SimpleName WildcardType MethodCallExpr	-0.2130643
-0.3796959	SimpleName InstanceOfExpr MethodCallExpr	-0.36324042
-0.48152894	StringLiteralExpr InstanceOfExpr MethodCallExpr	-0.2130643
-0.44011766	EnclosedExpr InstanceOfExpr MethodCallExpr	-0.23793954
-0.8393087	IfStmt InstanceOfExpr MethodCallExpr	-0.22948849
-1.2404711	SimpleName LongLiteralExpr MethodCallExpr	-0.2383017
-1.0139767	UnaryExpr LongLiteralExpr MethodCallExpr	-0.2130643
-0.9023485	SimpleName ArrayCreationLevel MethodCallExpr	-0.2130643
-0.853655	PrimitiveType ArrayCreationLevel MethodCallExpr	-0.2130643
-1.1253223	SimpleName CharLiteralExpr MethodCallExpr	-0.2130643
-1.0231328	<s> ReturnStmt SimpleName	-2.498373
-0.84343076	SimpleName ReturnStmt SimpleName	-0.36479616
-1.1631641	IntegerLiteralExpr ReturnStmt SimpleName	-0.2130643
-1.0406042	StringLiteralExpr ReturnStmt SimpleName	-0.22710378
-0.3079823	VoidType ReturnStmt SimpleName	-0.2130643
-1.0206934	BooleanLiteralExpr ReturnStmt SimpleName	-0.22284408
-0.89880407	PrimitiveType ReturnStmt SimpleName	-0.22532383
-0.71011627	BreakStmt ReturnStmt SimpleName	-0.2130643
-1.0487306	NullLiteralExpr ReturnStmt SimpleName	-0.22119877
-0.35049093	ReturnStmt MethodCallExpr SimpleName	-0.3545386
-0.43588755	MethodCallExpr MethodCallExpr SimpleName	-0.5392202
-0.33774832	SimpleName MethodCallExpr SimpleName	-0.44746023
-0.5210172	ExpressionStmt MethodCallExpr SimpleName	-0.5585356
-0.2174877	IntegerLiteralExpr MethodCallExpr SimpleName	-0.5296064
-0.5315719	StringLiteralExpr MethodCallExpr SimpleName	-0.23460531
-0.26938722	BinaryExpr MethodCallExpr SimpleName	-0.47805876
-0.3985775	FieldAccessExpr MethodCallExpr SimpleName	-0.36324042
-0.16159657	BooleanLiteralExpr MethodCallExpr SimpleName	-0.3072113
-0.4436379	EnclosedExpr MethodCallExpr SimpleName	-0.23793954
-0.42023396	PrimitiveType MethodCallExpr SimpleName	-0.2130643
-0.36887485	ArrayInitializerExpr MethodCallExpr SimpleName	-0.23793954
-0.30661643	UnaryExpr MethodCallExpr SimpleName	-0.38701788
-0.38269603	ArrayAccessExpr MethodCallExpr SimpleName	-0.2383017
-0.28341353	IfStmt MethodCallExpr SimpleName	-0.57145077
-0.24952278	WhileStmt MethodCallExpr SimpleName	-0.23793954
-0.13118601	NullLiteralExpr MethodCallExpr SimpleName	-0.5328835
-0.10080266	ThrowStmt MethodCallExpr SimpleName	-0.33512112
-0.21980503	ThisExpr MethodCallExpr SimpleName	-0.2130643
-0.21980503	WildcardType MethodCallExpr SimpleName	-0.2130643
-0.33336276	InstanceOfExpr MethodCallExpr SimpleName	-0.36324042
-0.36887485	LongLiteralExpr MethodCallExpr SimpleName	-0.22948849
-0.24952278	ArrayCreationLevel MethodCallExpr SimpleName	-0.23793954
-0.21980503	CharLiteralExpr MethodCallExpr SimpleName	-0.2130643
-0.96880186	ReturnStmt SimpleName SimpleName	-0.23299234
-0.7018633	MethodCallExpr SimpleName SimpleName	-0.6148148
-1.1388948	SimpleName SimpleName SimpleName	-0.6459324
-1.0480285	ExpressionStmt SimpleName SimpleName	-0.2130643
-0.16868767	VariableDeclarator SimpleName SimpleName	-0.22918423
-0.7214053	ClassOrInterfaceType SimpleName SimpleName	-0.28674453
-0.96563673	IntegerLiteralExpr SimpleName SimpleName	-0.34652787
-1.0257528	ObjectCreationExpr SimpleName SimpleName	-0.2820779
-0.7660818	Name SimpleName SimpleName	-0.2200273
-0.8564507	Modifier SimpleName SimpleName	-0.2282028
-0.3624386	Parameter SimpleName SimpleName	-0.21629979
-1.0059633	StringLiteralExpr SimpleName SimpleName	-0.26000816
-0.8898835	BinaryExpr SimpleName SimpleName	-0.3661409
-0.8197819	VoidType SimpleName SimpleName	-0.2130643
-0.03643301	FieldAccessExpr SimpleName SimpleName	-0.45013
-0.9271486	BooleanLiteralExpr SimpleName SimpleName	-0.37496644
-1.1982142	AssignExpr SimpleName SimpleName	-0.2130643
-0.8060981	CastExpr SimpleName SimpleName	-0.26795477
-0.61992663	ArrayType SimpleName SimpleName	-0.27190363
-1.0224433	PrimitiveType SimpleName SimpleName	-0.22155589
-0.93692935	ArrayInitializerExpr SimpleName SimpleName	-0.2130643
-1.255249	UnaryExpr SimpleName SimpleName	-0.22334394
-0.53429013	ArrayAccessExpr SimpleName SimpleName	-0.2807298
-0.9002584	NullLiteralExpr SimpleName SimpleName	-0.28187612
-1.1346133	ClassExpr SimpleName SimpleName	-0.22710378
-0.9901979	ThrowStmt SimpleName SimpleName	-0.23185353
-0.7245203	LambdaExpr SimpleName SimpleName	-0.2130643
-1.1709174	ThisExpr SimpleName SimpleName	-0.22803447
-1.1040988	WildcardType SimpleName SimpleName	-0.2157589
-0.16823785	InstanceOfExpr SimpleName SimpleName	-0.27748892
-0.9221776	MethodReferenceExpr SimpleName SimpleName	-0.2191508
-0.9841212	LongLiteralExpr SimpleName SimpleName	-0.22532383
-0.8889137	SuperExpr SimpleName SimpleName	-0.2130643
-0.7006216	ConditionalExpr SimpleName SimpleName	-0.22948849
-2.0913296	SimpleName ExpressionStmt SimpleName	-0.2130643
-0.55968845	VariableDeclarationExpr VariableDeclarator SimpleName	-0.2383017
-0.22973461	Name VariableDeclarator SimpleName	-0.2130643
-0.60111356	Modifier VariableDeclarator SimpleName	-0.23793954
-0.59357	StringLiteralExpr VariableDeclarator SimpleName	-0.2130643
-0.6264267	FieldDeclaration VariableDeclarator SimpleName	-0.2130643
-0.05736936	SimpleName ClassOrInterfaceType SimpleName	-0.38956934
-0.14574604	VariableDeclarator ClassOrInterfaceType SimpleName	-0.2760244
-0.15003128	ClassOrInterfaceType ClassOrInterfaceType SimpleName	-0.46015042
-0.05043846	ObjectCreationExpr ClassOrInterfaceType SimpleName	-0.33341056
-0.26769882	Name ClassOrInterfaceType SimpleName	-0.2130643
-0.11762898	Modifier ClassOrInterfaceType SimpleName	-0.2130643
-0.26769882	Parameter ClassOrInterfaceType SimpleName	-0.2130643
-0.11780087	CastExpr ClassOrInterfaceType SimpleName	-0.35881147
-0.08917132	ArrayType ClassOrInterfaceType SimpleName	-0.23815677
-0.11762898	PrimitiveType ClassOrInterfaceType SimpleName	-0.2130643
-0.22309002	ClassExpr ClassOrInterfaceType SimpleName	-0.23793954
-0.26769882	WildcardType ClassOrInterfaceType SimpleName	-0.2130643
-0.11762898	ArrayCreationExpr ClassOrInterfaceType SimpleName	-0.2130643
-0.9679237	ReturnStmt IntegerLiteralExpr SimpleName	-0.22284408
-0.9717371	SimpleName IntegerLiteralExpr SimpleName	-0.46863335
-0.8322842	ExpressionStmt IntegerLiteralExpr SimpleName	-0.22284408
-0.9071569	IntegerLiteralExpr IntegerLiteralExpr SimpleName	-0.26442316
-0.82912767	StringLiteralExpr IntegerLiteralExpr SimpleName	-0.22948849
-0.8418025	BinaryExpr IntegerLiteralExpr SimpleName	-0.23619194
-0.8804987	BooleanLiteralExpr IntegerLiteralExpr SimpleName	-0.22542933
-1.07703	UnaryExpr IntegerLiteralExpr SimpleName	-0.22532383
-0.95263445	NullLiteralExpr IntegerLiteralExpr SimpleName	-0.2130643
-0.8615496	ThisExpr IntegerLiteralExpr SimpleName	-0.2130643
-1.0271051	ArrayCreationLevel IntegerLiteralExpr SimpleName	-0.2130643
-0.36364573	ReturnStmt ObjectCreationExpr SimpleName	-0.27556267
-0.26973298	MethodCallExpr ObjectCreationExpr SimpleName	-0.25854743
-0.37669402	SimpleName ObjectCreationExpr SimpleName	-0.4073523
-0.33700073	ExpressionStmt ObjectCreationExpr SimpleName	-0.22532383
-0.4655014	IntegerLiteralExpr ObjectCreationExpr SimpleName	-0.22119877
-0.24938701	StringLiteralExpr ObjectCreationExpr SimpleName	-0.2130643
-0.33545488	VoidType ObjectCreationExpr SimpleName	-0.2130643
-0.16447276	ArrayInitializerExpr ObjectCreationExpr SimpleName	-0.2130643
-0.4458785	NullLiteralExpr ObjectCreationExpr SimpleName	-0.2130643
-0.04510699	ThrowStmt ObjectCreationExpr SimpleName	-0.3971596
-0.33545488	ThisExpr ObjectCreationExpr SimpleName	-0.2130643
-0.62776256	MarkerAnnotationExpr Name SimpleName	-0.23185353
-0.6058479	ThisExpr Name SimpleName	-0.22284408
-0.4464745	Name Modifier SimpleName	-0.2130643
-0.547564	Modifier Modifier SimpleName	-0.2130643
-0.4728189	Parameter Modifier SimpleName	-0.23793954
-0.23615968	StringLiteralExpr Modifier SimpleName	-0.2130643
-0.7621269	SimpleName Parameter SimpleName	-0.2383017
-0.12028722	CatchClause Parameter SimpleName	-0.7154229
-1.1114504	ReturnStmt StringLiteralExpr SimpleName	-0.2130643
-0.2165478	MethodCallExpr StringLiteralExpr SimpleName	-0.23185353
-1.1401818	SimpleName StringLiteralExpr SimpleName	-0.3168788
-0.9185773	IntegerLiteralExpr StringLiteralExpr SimpleName	-0.2130643
-1.060817	StringLiteralExpr StringLiteralExpr SimpleName	-0.23429748
-0.86856514	BinaryExpr StringLiteralExpr SimpleName	-0.22267473
-0.7502949	ReturnStmt BinaryExpr SimpleName	-0.28110152
-0.654352	SimpleName BinaryExpr SimpleName	-0.4273095
-0.6095578	ExpressionStmt BinaryExpr SimpleName	-0.2130643
-0.79390705	IntegerLiteralExpr BinaryExpr SimpleName	-0.22394444
-0.67069024	StringLiteralExpr BinaryExpr SimpleName	-0.2130643
-0.62527734	BinaryExpr BinaryExpr SimpleName	-0.3942208
-0.49484628	BooleanLiteralExpr BinaryExpr SimpleName	-0.2130643
-0.66207343	EnclosedExpr BinaryExpr SimpleName	-0.3659058
-0.6256785	IfStmt BinaryExpr SimpleName	-0.68759143
-0.52008873	ForStmt BinaryExpr SimpleName	-0.2130643
-0.5486244	WhileStmt BinaryExpr SimpleName	-0.35881147
-0.72979766	NullLiteralExpr BinaryExpr SimpleName	-0.2130643
-0.49484628	ThisExpr BinaryExpr SimpleName	-0.2130643
-0.49484628	LongLiteralExpr BinaryExpr SimpleName	-0.2130643
-0.63138825	ArrayCreationLevel BinaryExpr SimpleName	-0.22948849
-0.26532152	CharLiteralExpr BinaryExpr SimpleName	-0.2130643
-0.4448961	ConditionalExpr BinaryExpr SimpleName	-0.23534405
-1.1324712	SimpleName VoidType SimpleName	-0.23488589
-0.14011467	ReturnStmt FieldAccessExpr SimpleName	-0.46015042
-0.2538691	MethodCallExpr FieldAccessExpr SimpleName	-0.8025731
-0.13962334	SimpleName FieldAccessExpr SimpleName	-1.0164529
-0.08822303	IntegerLiteralExpr FieldAccessExpr SimpleName	-0.6642704
-0.23183039	StringLiteralExpr FieldAccessExpr SimpleName	-0.2383017
-0.20210865	BinaryExpr FieldAccessExpr SimpleName	-0.8025731
-0.15042888	VoidType FieldAccessExpr SimpleName	-0.2130643
-0.21268319	FieldAccessExpr FieldAccessExpr SimpleName	-0.46015042
-0.15824176	BooleanLiteralExpr FieldAccessExpr SimpleName	-0.2383017
-0.31479448	AssignExpr FieldAccessExpr SimpleName	-0.2130643
-0.15042888	ArrayInitializerExpr FieldAccessExpr SimpleName	-0.2130643
-0.14011467	UnaryExpr FieldAccessExpr SimpleName	-0.46015042
-0.16886091	ArrayAccessExpr FieldAccessExpr SimpleName	-0.23793954
-0.16886091	IfStmt FieldAccessExpr SimpleName	-0.23793954
-0.16886091	NullLiteralExpr FieldAccessExpr SimpleName	-0.23793954
-0.15042888	ThisExpr FieldAccessExpr SimpleName	-0.2130643
-0.15042888	WildcardType FieldAccessExpr SimpleName	-0.2130643
-0.15824176	LongLiteralExpr FieldAccessExpr SimpleName	-0.2383017
-0.16886091	SwitchEntry FieldAccessExpr SimpleName	-0.23793954
-0.15042888	ArrayCreationLevel FieldAccessExpr SimpleName	-0.2130643
-1.1056576	ReturnStmt BooleanLiteralExpr SimpleName	-0.21847034
-0.7789644	SimpleName BooleanLiteralExpr SimpleName	-0.30575976
-0.64629495	ExpressionStmt BooleanLiteralExpr SimpleName	-0.21847034
-0.8365258	IntegerLiteralExpr BooleanLiteralExpr SimpleName	-0.21792665
-0.849673	StringLiteralExpr BooleanLiteralExpr SimpleName	-0.2130643
-0.5377161	VoidType BooleanLiteralExpr SimpleName	-0.2130643
-0.68528706	BooleanLiteralExpr BooleanLiteralExpr SimpleName	-0.22710378
-0.29007795	ThisExpr BooleanLiteralExpr SimpleName	-0.2130643
-0.5377161	LongLiteralExpr BooleanLiteralExpr SimpleName	-0.2130643
-0.14680429	SimpleName AssignExpr SimpleName	-0.2130643
-0.35508257	ExpressionStmt AssignExpr SimpleName	-0.61442465
-0.14680429	IntegerLiteralExpr AssignExpr SimpleName	-0.2130643
-0.14680429	EnclosedExpr AssignExpr SimpleName	-0.2130643
-1.33901	BinaryExpr EnclosedExpr SimpleName	-0.2130643
-0.34393078	ReturnStmt CastExpr SimpleName	-0.26863483
-0.5267488	SimpleName CastExpr SimpleName	-0.29376665
-0.58356696	IntegerLiteralExpr CastExpr SimpleName	-0.2130643
-0.50252014	BinaryExpr CastExpr SimpleName	-0.22948849
-0.36148688	EnclosedExpr CastExpr SimpleName	-0.23240641
-0.2560973	ThrowStmt CastExpr SimpleName	-0.2130643
-0.2974169	SimpleName ArrayType SimpleName	-0.22857639
-0.38118154	VariableDeclarator ArrayType SimpleName	-0.2383017
-0.16161343	Name ArrayType SimpleName	-0.2130643
-0.16161343	Modifier ArrayType SimpleName	-0.2130643
-0.4065608	Parameter ArrayType SimpleName	-0.2130643
-0.34599367	CastExpr ArrayType SimpleName	-0.22532383
-0.16161343	ClassExpr ArrayType SimpleName	-0.2130643
-0.16161343	MethodReferenceExpr ArrayType SimpleName	-0.2130643
-0.17582461	VariableDeclarator PrimitiveType SimpleName	-0.24318895
-0.24076164	Parameter PrimitiveType SimpleName	-0.2130643
-0.3504631	CastExpr PrimitiveType SimpleName	-0.22857639
-0.36015412	ArrayType PrimitiveType SimpleName	-0.21847034
-0.8986472	SimpleName ArrayInitializerExpr SimpleName	-0.2130643
-0.8460487	ArrayCreationLevel ArrayInitializerExpr SimpleName	-0.22119877
-0.5075782	ReturnStmt UnaryExpr SimpleName	-0.22803007
-0.315829	SimpleName UnaryExpr SimpleName	-0.36016628
-0.1429919	ExpressionStmt UnaryExpr SimpleName	-0.50410384
-0.52854276	IntegerLiteralExpr UnaryExpr SimpleName	-0.2191508
-0.42562774	StringLiteralExpr UnaryExpr SimpleName	-0.2130643
-0.35111627	BinaryExpr UnaryExpr SimpleName	-0.3340418
-0.23737133	EnclosedExpr UnaryExpr SimpleName	-0.2130643
-0.37759048	IfStmt UnaryExpr SimpleName	-0.45071915
-0.72506905	WhileStmt UnaryExpr SimpleName	-0.23793954
-0.40395164	NullLiteralExpr UnaryExpr SimpleName	-0.2130643
-0.20947087	ThisExpr UnaryExpr SimpleName	-0.2130643
-0.49455243	LongLiteralExpr UnaryExpr SimpleName	-0.2130643
-0.12537996	ReturnStmt ArrayAccessExpr SimpleName	-0.22948849
-0.09587803	MethodCallExpr ArrayAccessExpr SimpleName	-0.3895073
-0.09580098	SimpleName ArrayAccessExpr SimpleName	-0.59039366
-0.21588196	IntegerLiteralExpr ArrayAccessExpr SimpleName	-0.23793954
-0.12537996	StringLiteralExpr ArrayAccessExpr SimpleName	-0.22948849
-0.11413746	BinaryExpr ArrayAccessExpr SimpleName	-0.31733802
-0.11787435	FieldAccessExpr ArrayAccessExpr SimpleName	-0.22948849
-0.11231802	BooleanLiteralExpr ArrayAccessExpr SimpleName	-0.2130643
-0.26021448	AssignExpr ArrayAccessExpr SimpleName	-0.2130643
-0.11787435	UnaryExpr ArrayAccessExpr SimpleName	-0.23185353
-0.12537996	InstanceOfExpr ArrayAccessExpr SimpleName	-0.23793954
-0.8226862	SimpleName DoubleLiteralExpr SimpleName	-0.2130643
-0.29633173	BinaryExpr DoubleLiteralExpr SimpleName	-0.2130643
-0.73537624	<s> IfStmt SimpleName	-1.6701387
-0.89971316	ReturnStmt IfStmt SimpleName	-0.22284408
-0.7447677	SimpleName IfStmt SimpleName	-0.40945825
-0.8028031	IntegerLiteralExpr IfStmt SimpleName	-0.22532383
-0.86139596	StringLiteralExpr IfStmt SimpleName	-0.2130643
-0.7344828	VoidType IfStmt SimpleName	-0.2130643
-1.0394804	TryStmt IfStmt SimpleName	-0.2130643
-0.8375652	BooleanLiteralExpr IfStmt SimpleName	-0.22532383
-0.59061664	ForStmt IfStmt SimpleName	-0.5015431
-1.0986742	BreakStmt IfStmt SimpleName	-0.2130643
-0.72050095	NullLiteralExpr IfStmt SimpleName	-0.22532383
-0.77724075	ThisExpr IfStmt SimpleName	-0.2130643
-0.6353702	LongLiteralExpr IfStmt SimpleName	-0.23793954
-0.67498255	DoStmt IfStmt SimpleName	-0.2130643
-1.395211	SimpleName BreakStmt SimpleName	-0.2130643
-1.0659243	ReturnStmt NullLiteralExpr SimpleName	-0.22284408
-0.862932	SimpleName NullLiteralExpr SimpleName	-0.33972687
-0.5415285	ExpressionStmt NullLiteralExpr SimpleName	-0.2130643
-1.0768595	IntegerLiteralExpr NullLiteralExpr SimpleName	-0.2130643
-0.48294336	BinaryExpr NullLiteralExpr SimpleName	-0.2130643
-0.85082394	BooleanLiteralExpr NullLiteralExpr SimpleName	-0.2130643
-0.88187665	NullLiteralExpr NullLiteralExpr SimpleName	-0.2130643
-0.6714001	ThisExpr NullLiteralExpr SimpleName	-0.2130643
-0.25417212	MethodCallExpr ClassExpr SimpleName	-0.2383017
-0.101104476	SimpleName ClassExpr SimpleName	-0.3302099
-0.1682806	IntegerLiteralExpr ClassExpr SimpleName	-0.2130643
-0.3411119	StringLiteralExpr ClassExpr SimpleName	-0.2130643
-1.4599049	<s> ThrowStmt SimpleName	-1.2525421
-1.024882	SimpleName ThrowStmt SimpleName	-0.2130643
-0.6109808	IntegerLiteralExpr ThrowStmt SimpleName	-0.2130643
-0.5671921	StringLiteralExpr ThrowStmt SimpleName	-0.2130643
-0.4263163	VoidType ThrowStmt SimpleName	-0.2130643
-0.5715691	BooleanLiteralExpr ThrowStmt SimpleName	-0.2130643
-0.4263163	PrimitiveType ThrowStmt SimpleName	-0.2130643
-0.59655684	NullLiteralExpr ThrowStmt SimpleName	-0.2130643
-1.3532788	SimpleName LambdaExpr SimpleName	-0.2130643
-0.14672741	Parameter UnknownType SimpleName	-0.22284412
-0.3515586	MethodCallExpr ThisExpr SimpleName	-0.22284408
-0.81409997	SimpleName ThisExpr SimpleName	-0.26738545
-0.28259066	BinaryExpr ThisExpr SimpleName	-0.2130643
-0.18430392	FieldAccessExpr ThisExpr SimpleName	-0.22311662
-0.8897234	ThisExpr ThisExpr SimpleName	-0.2130643
-0.32452422	InstanceOfExpr ThisExpr SimpleName	-0.2130643
-0.78470623	SimpleName WildcardType SimpleName	-0.22124857
-0.5312345	WildcardType WildcardType SimpleName	-0.2130643
-0.19502991	ReturnStmt InstanceOfExpr SimpleName	-0.23793954
-0.49849176	SimpleName InstanceOfExpr SimpleName	-0.2383017
-0.17313242	ExpressionStmt InstanceOfExpr SimpleName	-0.2130643
-0.34835505	StringLiteralExpr InstanceOfExpr SimpleName	-0.2130643
-0.19502991	BinaryExpr InstanceOfExpr SimpleName	-0.23793954
-0.49417207	EnclosedExpr InstanceOfExpr SimpleName	-0.2130643
-0.1686303	IfStmt InstanceOfExpr SimpleName	-0.6711862
-0.18322244	ReturnStmt MethodReferenceExpr SimpleName	-0.2130643
-0.20640415	SimpleName MethodReferenceExpr SimpleName	-0.23299234
-0.18322244	IntegerLiteralExpr MethodReferenceExpr SimpleName	-0.2130643
-0.9631582	SimpleName LongLiteralExpr SimpleName	-0.33512112
-0.31201035	BooleanLiteralExpr LongLiteralExpr SimpleName	-0.2130643
-0.8786537	LongLiteralExpr LongLiteralExpr SimpleName	-0.23561834
-0.0989914	MethodCallExpr SuperExpr SimpleName	-0.22857639
-0.06445526	<s> SwitchStmt SimpleName	-0.2383017
-0.06159545	SimpleName SwitchStmt SimpleName	-0.2130643
-0.06159545	IntegerLiteralExpr SwitchStmt SimpleName	-0.2130643
-0.06159545	BooleanLiteralExpr SwitchStmt SimpleName	-0.2130643
-0.06159545	ThisExpr SwitchStmt SimpleName	-0.2130643
-0.4444077	SimpleName SwitchEntry SimpleName	-0.22803007
-0.45880425	BooleanLiteralExpr SwitchEntry SimpleName	-0.2130643
-0.44978434	BreakStmt SwitchEntry SimpleName	-0.23793954
-0.22836535	ContinueStmt SwitchEntry SimpleName	-0.2130643
-0.42611754	ReturnStmt ArrayCreationExpr SimpleName	-0.23793954
-0.21264513	SimpleName ArrayCreationExpr SimpleName	-0.7154229
-0.31959748	IntegerLiteralExpr ArrayCreationExpr SimpleName	-0.23793954
-0.18642266	NullLiteralExpr ArrayCreationExpr SimpleName	-0.2130643
-0.9280714	SimpleName ArrayCreationLevel SimpleName	-0.2130643
-0.9693218	SimpleName CharLiteralExpr SimpleName	-0.2130643
-0.75756586	CharLiteralExpr CharLiteralExpr SimpleName	-0.2130643
-0.5369642	ReturnStmt ConditionalExpr SimpleName	-0.2130643
-0.526137	SimpleName ConditionalExpr SimpleName	-0.22532383
-0.23758028	ThisExpr ConditionalExpr SimpleName	-0.2130643
-0.63341683	SimpleName ContinueStmt SimpleName	-0.23815677
-0.49268353	IntegerLiteralExpr ContinueStmt SimpleName	-0.2130643
-0.60674345	StringLiteralExpr ContinueStmt SimpleName	-0.2130643
-0.67741364	BooleanLiteralExpr ContinueStmt SimpleName	-0.2130643
-0.7463204	<s> SynchronizedStmt SimpleName	-0.38428482
-0.4120656	SimpleName SynchronizedStmt SimpleName	-0.23815677
-0.23758028	VoidType SynchronizedStmt SimpleName	-0.2130643
-0.14512964	SimpleName LabeledStmt SimpleName	-0.2383017
-0.1380715	IntegerLiteralExpr LabeledStmt SimpleName	-0.2130643
-0.1310878	SimpleName ClassOrInterfaceDeclaration SimpleName	-0.2130643
-0.31817412	ReturnStmt ReturnStmt ExpressionStmt	-0.2130643
-1.184353	SimpleName ReturnStmt ExpressionStmt	-0.36324042
-1.1240722	IntegerLiteralExpr ReturnStmt ExpressionStmt	-0.22532383
-1.2164755	StringLiteralExpr ReturnStmt ExpressionStmt	-0.2130643
-1.0800165	BooleanLiteralExpr ReturnStmt ExpressionStmt	-0.2130643
-1.1107512	NullLiteralExpr ReturnStmt ExpressionStmt	-0.22532383
-0.90136516	ThisExpr ReturnStmt ExpressionStmt	-0.2130643
-0.9062499	LongLiteralExpr ReturnStmt ExpressionStmt	-0.2130643
-0.9948027	ReturnStmt SimpleName ExpressionStmt	-0.34723917
-1.3381512	MethodCallExpr SimpleName ExpressionStmt	-0.38183892
-1.1677389	SimpleName SimpleName ExpressionStmt	-1.0622104
-1.0908778	ExpressionStmt SimpleName ExpressionStmt	-0.2130643
-1.5122398	ClassOrInterfaceType SimpleName ExpressionStmt	-0.2130643
-1.0399466	IntegerLiteralExpr SimpleName ExpressionStmt	-0.5356353
-1.1207997	ObjectCreationExpr SimpleName ExpressionStmt	-0.36028278
-1.1421018	StringLiteralExpr SimpleName ExpressionStmt	-0.27954945
-0.8869677	BooleanLiteralExpr SimpleName ExpressionStmt	-0.46015042
-1.1131968	ArrayType SimpleName ExpressionStmt	-0.2130643
-1.2926611	PrimitiveType SimpleName ExpressionStmt	-0.2130643
-0.7886917	ArrayInitializerExpr SimpleName ExpressionStmt	-0.22948849
-0.77171636	UnaryExpr SimpleName ExpressionStmt	-0.5015431
-0.7443383	DoubleLiteralExpr SimpleName ExpressionStmt	-0.2130643
-0.5731983	IfStmt SimpleName ExpressionStmt	-0.6504821
-1.0425935	NullLiteralExpr SimpleName ExpressionStmt	-0.32876354
-1.0762304	ClassExpr SimpleName ExpressionStmt	-0.23809469
-0.5813247	ThrowStmt SimpleName ExpressionStmt	-0.35881147
-1.1627991	UnknownType SimpleName ExpressionStmt	-0.2130643
-1.0892905	ThisExpr SimpleName ExpressionStmt	-0.23793954
-1.2673693	WildcardType SimpleName ExpressionStmt	-0.2130643
-1.1110593	MethodReferenceExpr SimpleName ExpressionStmt	-0.2130643
-1.0244176	LongLiteralExpr SimpleName ExpressionStmt	-0.23793954
-0.91816354	SuperExpr SimpleName ExpressionStmt	-0.2130643
-0.67051584	SwitchEntry SimpleName ExpressionStmt	-0.23815677
-0.7443383	ArrayCreationLevel SimpleName ExpressionStmt	-0.2130643
-0.91816354	CharLiteralExpr SimpleName ExpressionStmt	-0.2130643
-0.7219294	ContinueStmt SimpleName ExpressionStmt	-0.22532383
-0.5424625	SynchronizedStmt SimpleName ExpressionStmt	-0.23185353
-0.9980245	ReturnStmt IntegerLiteralExpr ExpressionStmt	-0.23815677
-1.0309747	SimpleName IntegerLiteralExpr ExpressionStmt	-0.7719043
-0.92482036	IntegerLiteralExpr IntegerLiteralExpr ExpressionStmt	-0.48817915
-0.8511043	StringLiteralExpr IntegerLiteralExpr ExpressionStmt	-0.2383017
-0.57791233	VoidType IntegerLiteralExpr ExpressionStmt	-0.2130643
-1.1535275	BooleanLiteralExpr IntegerLiteralExpr ExpressionStmt	-0.2130643
-0.8506558	ArrayInitializerExpr IntegerLiteralExpr ExpressionStmt	-0.22948849
-1.1170219	UnaryExpr IntegerLiteralExpr ExpressionStmt	-0.22948849
-1.1136849	NullLiteralExpr IntegerLiteralExpr ExpressionStmt	-0.2130643
-0.8841003	ThisExpr IntegerLiteralExpr ExpressionStmt	-0.2130643
-0.91977024	ArrayCreationLevel IntegerLiteralExpr ExpressionStmt	-0.22948849
-0.8389339	ThisExpr Name ExpressionStmt	-0.23793954
-1.1706829	ReturnStmt StringLiteralExpr ExpressionStmt	-0.2130643
-1.0349076	SimpleName StringLiteralExpr ExpressionStmt	-0.5740938
-0.9590175	IntegerLiteralExpr StringLiteralExpr ExpressionStmt	-0.22948849
-1.0096112	StringLiteralExpr StringLiteralExpr ExpressionStmt	-0.23488589
-0.8776501	ArrayInitializerExpr StringLiteralExpr ExpressionStmt	-0.2130643
-0.57650054	NullLiteralExpr StringLiteralExpr ExpressionStmt	-0.2130643
-1.0555403	SimpleName VoidType ExpressionStmt	-0.2760244
-0.053127263	<s> TryStmt ExpressionStmt	-1.769737
-0.37155014	ReturnStmt TryStmt ExpressionStmt	-0.22948849
-0.23734666	SimpleName TryStmt ExpressionStmt	-0.5974388
-0.47183394	IntegerLiteralExpr TryStmt ExpressionStmt	-0.3072113
-0.5749549	StringLiteralExpr TryStmt ExpressionStmt	-0.2130643
-0.5749549	VoidType TryStmt ExpressionStmt	-0.2130643
-0.1866255	TryStmt TryStmt ExpressionStmt	-0.31733802
-0.42702132	BooleanLiteralExpr TryStmt ExpressionStmt	-0.23387277
-0.22158219	DoubleLiteralExpr TryStmt ExpressionStmt	-0.2130643
-0.22158219	ForStmt TryStmt ExpressionStmt	-0.2130643
-0.23421575	BreakStmt TryStmt ExpressionStmt	-0.2383017
-0.42702132	NullLiteralExpr TryStmt ExpressionStmt	-0.23284921
-0.25161755	ThisExpr TryStmt ExpressionStmt	-0.2130643
-0.22158219	LongLiteralExpr TryStmt ExpressionStmt	-0.2130643
-0.8716772	ReturnStmt BooleanLiteralExpr ExpressionStmt	-0.28405917
-0.9460525	SimpleName BooleanLiteralExpr ExpressionStmt	-0.41180217
-0.845145	ExpressionStmt BooleanLiteralExpr ExpressionStmt	-0.2130643
-0.9967894	IntegerLiteralExpr BooleanLiteralExpr ExpressionStmt	-0.22532383
-1.0059427	BooleanLiteralExpr BooleanLiteralExpr ExpressionStmt	-0.22532383
-0.56149596	ArrayInitializerExpr BooleanLiteralExpr ExpressionStmt	-0.2130643
-0.51420194	WhileStmt BooleanLiteralExpr ExpressionStmt	-0.22948849
-0.56149596	LongLiteralExpr BooleanLiteralExpr ExpressionStmt	-0.2130643
-0.80195034	SimpleName PrimitiveType ExpressionStmt	-0.23185353
-0.8631732	SimpleName DoubleLiteralExpr ExpressionStmt	-0.2130643
-0.86538893	DoubleLiteralExpr DoubleLiteralExpr ExpressionStmt	-0.2130643
-0.87339973	<s> ForStmt ExpressionStmt	-1.7006997
-0.57589436	ReturnStmt ForStmt ExpressionStmt	-0.23793954
-0.5975882	SimpleName ForStmt ExpressionStmt	-0.36324042
-0.750386	IntegerLiteralExpr ForStmt ExpressionStmt	-0.2130643
-0.7756511	TryStmt ForStmt ExpressionStmt	-0.2130643
-0.50963694	BooleanLiteralExpr ForStmt ExpressionStmt	-0.22948849
-0.50963694	ForStmt ForStmt ExpressionStmt	-0.23793954
-0.23094282	BreakStmt ForStmt ExpressionStmt	-0.2130643
-0.5369445	NullLiteralExpr ForStmt ExpressionStmt	-0.2130643
-0.43803895	ThisExpr ForStmt ExpressionStmt	-0.2130643
-0.43803895	LongLiteralExpr ForStmt ExpressionStmt	-0.2130643
-0.5569929	SimpleName BreakStmt ExpressionStmt	-0.38428482
-0.7293656	IntegerLiteralExpr BreakStmt ExpressionStmt	-0.2130643
-0.79313934	BooleanLiteralExpr BreakStmt ExpressionStmt	-0.2130643
-0.5978745	BreakStmt BreakStmt ExpressionStmt	-0.2130643
-0.4945946	NullLiteralExpr BreakStmt ExpressionStmt	-0.2130643
-0.4945946	LongLiteralExpr BreakStmt ExpressionStmt	-0.2130643
-0.2651732	ContinueStmt BreakStmt ExpressionStmt	-0.2130643
-0.7248066	ReturnStmt NullLiteralExpr ExpressionStmt	-0.2382111
-0.828138	SimpleName NullLiteralExpr ExpressionStmt	-0.5015431
-0.7357819	IntegerLiteralExpr NullLiteralExpr ExpressionStmt	-0.23387277
-0.29328394	Name NullLiteralExpr ExpressionStmt	-0.2130643
-0.7043031	StringLiteralExpr NullLiteralExpr ExpressionStmt	-0.22948849
-0.29328394	VoidType NullLiteralExpr ExpressionStmt	-0.2130643
-0.81688625	ArrayInitializerExpr NullLiteralExpr ExpressionStmt	-0.2130643
-0.60718083	NullLiteralExpr NullLiteralExpr ExpressionStmt	-0.23815677
-0.67392915	ThisExpr NullLiteralExpr ExpressionStmt	-0.2130643
-0.4629373	ReturnStmt LambdaExpr ExpressionStmt	-0.23793954
-0.81455755	SimpleName LambdaExpr ExpressionStmt	-0.22948849
-0.53254294	IntegerLiteralExpr LambdaExpr ExpressionStmt	-0.2130643
-0.23549485	LambdaExpr LambdaExpr ExpressionStmt	-0.2130643
-0.44539598	ThisExpr LambdaExpr ExpressionStmt	-0.2130643
-1.0844471	SimpleName ThisExpr ExpressionStmt	-0.29259726
-0.31243172	NullLiteralExpr ThisExpr ExpressionStmt	-0.2130643
-0.8864745	ThisExpr ThisExpr ExpressionStmt	-0.23793954
-0.44285882	SynchronizedStmt ThisExpr ExpressionStmt	-0.3437498
-0.80089855	ReturnStmt LongLiteralExpr ExpressionStmt	-0.2130643
-0.8332545	SimpleName LongLiteralExpr ExpressionStmt	-0.42722958
-0.5387951	IntegerLiteralExpr LongLiteralExpr ExpressionStmt	-0.2130643
-0.7020323	UnaryExpr LongLiteralExpr ExpressionStmt	-0.23793954
-0.2906877	NullLiteralExpr LongLiteralExpr ExpressionStmt	-0.2130643
-0.79871994	LongLiteralExpr LongLiteralExpr ExpressionStmt	-0.23793954
-0.7790491	BooleanLiteralExpr SwitchEntry ExpressionStmt	-0.2130643
-0.59765863	BreakStmt SwitchEntry ExpressionStmt	-0.22948849
-0.79947364	SimpleName CharLiteralExpr ExpressionStmt	-0.22948849
-0.2766273	IntegerLiteralExpr CharLiteralExpr ExpressionStmt	-0.2130643
-0.7107887	CharLiteralExpr CharLiteralExpr ExpressionStmt	-0.2130643
-0.60987824	SimpleName EmptyStmt ExpressionStmt	-0.2130643
-0.4950923	StringLiteralExpr EmptyStmt ExpressionStmt	-0.2130643
-0.5228075	IntegerLiteralExpr DoStmt ExpressionStmt	-0.2130643
-0.22367291	ReturnStmt ContinueStmt ExpressionStmt	-0.2130643
-0.46463668	SimpleName ContinueStmt ExpressionStmt	-0.33512112
-0.4263863	IntegerLiteralExpr ContinueStmt ExpressionStmt	-0.2130643
-0.52236104	StringLiteralExpr ContinueStmt ExpressionStmt	-0.2130643
-0.5796863	BooleanLiteralExpr ContinueStmt ExpressionStmt	-0.2130643
-0.4263863	NullLiteralExpr ContinueStmt ExpressionStmt	-0.2130643
-0.3770552	<s> ExpressionStmt VariableDeclarationExpr	-3.2005658
-0.56190985	ReturnStmt ExpressionStmt VariableDeclarationExpr	-0.3437498
-0.5560669	SimpleName ExpressionStmt VariableDeclarationExpr	-0.93727165
-0.4875774	IntegerLiteralExpr ExpressionStmt VariableDeclarationExpr	-0.46868855
-0.37230012	StringLiteralExpr ExpressionStmt VariableDeclarationExpr	-0.46015042
-0.6406232	VoidType ExpressionStmt VariableDeclarationExpr	-0.2130643
-0.63626385	TryStmt ExpressionStmt VariableDeclarationExpr	-0.5393317
-0.5396334	BooleanLiteralExpr ExpressionStmt VariableDeclarationExpr	-0.46015042
-0.48927093	DoubleLiteralExpr ExpressionStmt VariableDeclarationExpr	-0.22948849
-0.19906314	ForStmt ExpressionStmt VariableDeclarationExpr	-0.7089748
-0.5425632	BreakStmt ExpressionStmt VariableDeclarationExpr	-0.47489154
-0.48916775	NullLiteralExpr ExpressionStmt VariableDeclarationExpr	-0.46868855
-0.8123579	LambdaExpr ExpressionStmt VariableDeclarationExpr	-0.2130643
-0.68201035	ThisExpr ExpressionStmt VariableDeclarationExpr	-0.22948849
-0.8879665	LongLiteralExpr ExpressionStmt VariableDeclarationExpr	-0.2130643
-0.6524131	CharLiteralExpr ExpressionStmt VariableDeclarationExpr	-0.23793954
-0.4682899	EmptyStmt ExpressionStmt VariableDeclarationExpr	-0.2130643
-0.4682899	DoStmt ExpressionStmt VariableDeclarationExpr	-0.2130643
-0.6462737	ContinueStmt ExpressionStmt VariableDeclarationExpr	-0.2383017
-1.477856	<s> TryStmt VariableDeclarationExpr	-0.90730846
-1.417828	SimpleName TryStmt VariableDeclarationExpr	-0.2130643
-1.1641086	IntegerLiteralExpr TryStmt VariableDeclarationExpr	-0.2130643
-1.0142854	TryStmt TryStmt VariableDeclarationExpr	-0.2130643
-0.06831054	<s> ForStmt VariableDeclarationExpr	-2.5039055
-0.5334905	ReturnStmt ForStmt VariableDeclarationExpr	-0.23793954
-0.32602444	SimpleName ForStmt VariableDeclarationExpr	-0.87512374
-0.39521846	IntegerLiteralExpr ForStmt VariableDeclarationExpr	-0.36324042
-0.21279295	StringLiteralExpr ForStmt VariableDeclarationExpr	-0.2130643
-0.21279295	VoidType ForStmt VariableDeclarationExpr	-0.2130643
-0.23001361	TryStmt ForStmt VariableDeclarationExpr	-0.46015042
-0.47317314	BooleanLiteralExpr ForStmt VariableDeclarationExpr	-0.23793954
-0.56944555	ForStmt ForStmt VariableDeclarationExpr	-0.2130643
-0.5009799	NullLiteralExpr ForStmt VariableDeclarationExpr	-0.2130643
-0.21279295	LambdaExpr ForStmt VariableDeclarationExpr	-0.2130643
-0.40916163	ThisExpr ForStmt VariableDeclarationExpr	-0.2130643
-0.40916163	LongLiteralExpr ForStmt VariableDeclarationExpr	-0.2130643
-0.0010020102	<s> ForEachStmt VariableDeclarationExpr	-1.3352118
-0.027233023	ReturnStmt ForEachStmt VariableDeclarationExpr	-0.23793954
-0.009486074	SimpleName ForEachStmt VariableDeclarationExpr	-0.52906007
-0.019183928	IntegerLiteralExpr ForEachStmt VariableDeclarationExpr	-0.32876354
-0.0246766	StringLiteralExpr ForEachStmt VariableDeclarationExpr	-0.2130643
-0.0246766	VoidType ForEachStmt VariableDeclarationExpr	-0.2130643
-0.027233023	TryStmt ForEachStmt VariableDeclarationExpr	-0.23793954
-0.027233023	BooleanLiteralExpr ForEachStmt VariableDeclarationExpr	-0.23793954
-0.0246766	BreakStmt ForEachStmt VariableDeclarationExpr	-0.2130643
-0.0246766	NullLiteralExpr ForEachStmt VariableDeclarationExpr	-0.2130643
-0.0246766	ThisExpr ForEachStmt VariableDeclarationExpr	-0.2130643
-0.0246766	LongLiteralExpr ForEachStmt VariableDeclarationExpr	-0.2130643
-0.0246766	CharLiteralExpr ForEachStmt VariableDeclarationExpr	-0.2130643
-0.334867	ExpressionStmt VariableDeclarationExpr VariableDeclarator	-0.94445026
-0.14623712	TryStmt VariableDeclarationExpr VariableDeclarator	-0.23185353
-0.03998961	ForStmt VariableDeclarationExpr VariableDeclarator	-0.87512374
-0.15365389	ForEachStmt VariableDeclarationExpr VariableDeclarator	-0.7153324
-1.2476214	MarkerAnnotationExpr Name VariableDeclarator	-0.2130643
-0.4693759	VariableDeclarationExpr Modifier VariableDeclarator	-0.23429748
-0.6519089	Modifier Modifier VariableDeclarator	-0.2130643
-0.40883753	FieldDeclaration Modifier VariableDeclarator	-0.23387277
-0.8125936	Name StringLiteralExpr VariableDeclarator	-0.2130643
-0.64118856	SimpleName FieldDeclaration VariableDeclarator	-0.23387277
-0.49676797	IntegerLiteralExpr FieldDeclaration VariableDeclarator	-0.2130643
-0.26645333	VoidType FieldDeclaration VariableDeclarator	-0.2130643
-1.9883507	MethodCallExpr SimpleName ClassOrInterfaceType	-0.23793954
-1.8912536	SimpleName SimpleName ClassOrInterfaceType	-0.6062785
-1.1640352	ClassOrInterfaceType SimpleName ClassOrInterfaceType	-0.46015042
-1.2043848	Modifier SimpleName ClassOrInterfaceType	-0.2130643
-1.4728585	ArrayType SimpleName ClassOrInterfaceType	-0.2130643
-1.5535494	WildcardType SimpleName ClassOrInterfaceType	-0.2130643
-0.6423013	VariableDeclarationExpr VariableDeclarator ClassOrInterfaceType	-0.23185353
-0.6956532	Modifier VariableDeclarator ClassOrInterfaceType	-0.23793954
-0.67991066	StringLiteralExpr VariableDeclarator ClassOrInterfaceType	-0.2130643
-0.7230581	FieldDeclaration VariableDeclarator ClassOrInterfaceType	-0.2130643
-0.71366787	VariableDeclarator ClassOrInterfaceType ClassOrInterfaceType	-0.2130643
-0.6829402	ClassOrInterfaceType ClassOrInterfaceType ClassOrInterfaceType	-0.2130643
-1.1286412	ObjectCreationExpr ClassOrInterfaceType ClassOrInterfaceType	-0.2130643
-0.45714056	Parameter ClassOrInterfaceType ClassOrInterfaceType	-0.2130643
-0.7928492	CastExpr ClassOrInterfaceType ClassOrInterfaceType	-0.2130643
-0.5479219	ClassExpr ClassOrInterfaceType ClassOrInterfaceType	-0.2130643
-0.271445	ReturnStmt ObjectCreationExpr ClassOrInterfaceType	-0.44227678
-0.38454193	MethodCallExpr ObjectCreationExpr ClassOrInterfaceType	-0.2383017
-0.24609627	SimpleName ObjectCreationExpr ClassOrInterfaceType	-0.9653004
-0.31759512	ExpressionStmt ObjectCreationExpr ClassOrInterfaceType	-0.2383017
-0.2162083	IntegerLiteralExpr ObjectCreationExpr ClassOrInterfaceType	-0.36324042
-0.42134762	StringLiteralExpr ObjectCreationExpr ClassOrInterfaceType	-0.2130643
-0.31689844	VoidType ObjectCreationExpr ClassOrInterfaceType	-0.2130643
-0.1705145	BooleanLiteralExpr ObjectCreationExpr ClassOrInterfaceType	-0.23793954
-0.1518688	EnclosedExpr ObjectCreationExpr ClassOrInterfaceType	-0.2130643
-0.23362395	NullLiteralExpr ObjectCreationExpr ClassOrInterfaceType	-0.2383017
-0.31689844	ThisExpr ObjectCreationExpr ClassOrInterfaceType	-0.2130643
-0.1518688	LongLiteralExpr ObjectCreationExpr ClassOrInterfaceType	-0.2130643
-1.0644842	MarkerAnnotationExpr Name ClassOrInterfaceType	-0.2130643
-0.8575733	Parameter Modifier ClassOrInterfaceType	-0.2130643
-1.0356135	SimpleName Parameter ClassOrInterfaceType	-0.22948849
-0.7643515	ReturnStmt CastExpr ClassOrInterfaceType	-0.23793954
-0.49615782	SimpleName CastExpr ClassOrInterfaceType	-0.584036
-0.25425562	ExpressionStmt CastExpr ClassOrInterfaceType	-0.2130643
-0.65249497	IntegerLiteralExpr CastExpr ClassOrInterfaceType	-0.2130643
-0.5125301	EnclosedExpr CastExpr ClassOrInterfaceType	-0.36324042
-0.84383285	SimpleName ArrayType ClassOrInterfaceType	-0.2130643
-0.5846443	VariableDeclarator ArrayType ClassOrInterfaceType	-0.2383017
-0.61070603	Parameter ArrayType ClassOrInterfaceType	-0.2130643
-0.6720788	CastExpr ArrayType ClassOrInterfaceType	-0.2130643
-1.0670066	ArrayType PrimitiveType ClassOrInterfaceType	-0.2130643
-0.7155402	MethodCallExpr ClassExpr ClassOrInterfaceType	-0.2130643
-1.0004432	SimpleName ClassExpr ClassOrInterfaceType	-0.2130643
-1.0559905	SimpleName WildcardType ClassOrInterfaceType	-0.22948849
-0.9643475	SimpleName ArrayCreationExpr ClassOrInterfaceType	-0.2383017
-1.3163853	<s> ReturnStmt IntegerLiteralExpr	-2.2067847
-1.6879145	SimpleName ReturnStmt IntegerLiteralExpr	-0.2235511
-1.2192967	IntegerLiteralExpr ReturnStmt IntegerLiteralExpr	-0.22532383
-1.1860968	PrimitiveType ReturnStmt IntegerLiteralExpr	-0.2130643
-1.3557736	NullLiteralExpr ReturnStmt IntegerLiteralExpr	-0.2130643
-1.4546859	ReturnStmt SimpleName IntegerLiteralExpr	-0.22532383
-1.1497853	MethodCallExpr SimpleName IntegerLiteralExpr	-0.3398531
-1.3517396	SimpleName SimpleName IntegerLiteralExpr	-0.4881894
-1.6153934	ClassOrInterfaceType SimpleName IntegerLiteralExpr	-0.2130643
-1.2858593	IntegerLiteralExpr SimpleName IntegerLiteralExpr	-0.2699557
-1.2480731	ObjectCreationExpr SimpleName IntegerLiteralExpr	-0.2509416
-1.3499627	StringLiteralExpr SimpleName IntegerLiteralExpr	-0.22549969
-0.78601843	BinaryExpr SimpleName IntegerLiteralExpr	-0.37388822
-0.87391055	VoidType SimpleName IntegerLiteralExpr	-0.2130643
-1.1451302	BooleanLiteralExpr SimpleName IntegerLiteralExpr	-0.27816388
-1.064858	AssignExpr SimpleName IntegerLiteralExpr	-0.22549969
-0.3297956	EnclosedExpr SimpleName IntegerLiteralExpr	-0.2130643
-1.4416357	CastExpr SimpleName IntegerLiteralExpr	-0.2130643
-1.2760619	PrimitiveType SimpleName IntegerLiteralExpr	-0.21591792
-1.4917977	UnaryExpr SimpleName IntegerLiteralExpr	-0.21847034
-0.43133998	ArrayAccessExpr SimpleName IntegerLiteralExpr	-0.3223723
-1.3850229	NullLiteralExpr SimpleName IntegerLiteralExpr	-0.22284408
-1.3842616	ClassExpr SimpleName IntegerLiteralExpr	-0.2130643
-1.3008959	ThisExpr SimpleName IntegerLiteralExpr	-0.22284408
-1.1692353	MethodReferenceExpr SimpleName IntegerLiteralExpr	-0.2130643
-1.0739948	LongLiteralExpr SimpleName IntegerLiteralExpr	-0.22284408
-2.1210706	SimpleName ExpressionStmt IntegerLiteralExpr	-0.2130643
-1.067581	LambdaExpr ExpressionStmt IntegerLiteralExpr	-0.2130643
-1.2148414	ReturnStmt IntegerLiteralExpr IntegerLiteralExpr	-0.2130643
-1.145256	SimpleName IntegerLiteralExpr IntegerLiteralExpr	-0.43303233
-0.93040305	IntegerLiteralExpr IntegerLiteralExpr IntegerLiteralExpr	-0.37923488
-1.1215547	StringLiteralExpr IntegerLiteralExpr IntegerLiteralExpr	-0.2130643
-0.6337594	BinaryExpr IntegerLiteralExpr IntegerLiteralExpr	-0.23323277
-1.0437243	BooleanLiteralExpr IntegerLiteralExpr IntegerLiteralExpr	-0.22948849
-0.8576367	ArrayInitializerExpr IntegerLiteralExpr IntegerLiteralExpr	-0.22284408
-1.1301067	UnaryExpr IntegerLiteralExpr IntegerLiteralExpr	-0.2200273
-0.6448217	NullLiteralExpr IntegerLiteralExpr IntegerLiteralExpr	-0.22710378
-0.89128137	ThisExpr IntegerLiteralExpr IntegerLiteralExpr	-0.2130643
-1.0722935	ArrayCreationLevel IntegerLiteralExpr IntegerLiteralExpr	-0.2130643
-1.2407665	ReturnStmt StringLiteralExpr IntegerLiteralExpr	-0.2130643
-1.300503	SimpleName StringLiteralExpr IntegerLiteralExpr	-0.26645172
-1.1786036	StringLiteralExpr StringLiteralExpr IntegerLiteralExpr	-0.2130643
-1.2158476	BinaryExpr StringLiteralExpr IntegerLiteralExpr	-0.2130643
-0.9137636	ArrayInitializerExpr StringLiteralExpr IntegerLiteralExpr	-0.2130643
-1.1782302	ReturnStmt BinaryExpr IntegerLiteralExpr	-0.22803007
-1.1108956	SimpleName BinaryExpr IntegerLiteralExpr	-0.3610203
-0.7370552	ExpressionStmt BinaryExpr IntegerLiteralExpr	-0.2130643
-0.82966954	IntegerLiteralExpr BinaryExpr IntegerLiteralExpr	-0.22803007
-0.9102122	BinaryExpr BinaryExpr IntegerLiteralExpr	-0.30081955
-0.9820152	EnclosedExpr BinaryExpr IntegerLiteralExpr	-0.22857639
-0.7773399	ArrayCreationLevel BinaryExpr IntegerLiteralExpr	-0.23793954
-1.477622	SimpleName VoidType IntegerLiteralExpr	-0.2130643
-1.1192706	SimpleName BooleanLiteralExpr IntegerLiteralExpr	-0.25969595
-1.0072008	IntegerLiteralExpr BooleanLiteralExpr IntegerLiteralExpr	-0.2380602
-1.0141529	StringLiteralExpr BooleanLiteralExpr IntegerLiteralExpr	-0.2130643
-0.7668121	NullLiteralExpr BooleanLiteralExpr IntegerLiteralExpr	-0.2130643
-0.96423304	SimpleName ArrayInitializerExpr IntegerLiteralExpr	-0.2130643
-0.9055259	ArrayCreationLevel ArrayInitializerExpr IntegerLiteralExpr	-0.22119877
-1.1227316	ReturnStmt UnaryExpr IntegerLiteralExpr	-0.2130643
-0.71223503	SimpleName UnaryExpr IntegerLiteralExpr	-0.26147425
-0.67434514	IntegerLiteralExpr UnaryExpr IntegerLiteralExpr	-0.22682524
-1.3502344	ReturnStmt NullLiteralExpr IntegerLiteralExpr	-0.2130643
-1.4844476	SimpleName NullLiteralExpr IntegerLiteralExpr	-0.2130643
-1.2710664	IntegerLiteralExpr NullLiteralExpr IntegerLiteralExpr	-0.2130643
-0.78893954	BooleanLiteralExpr NullLiteralExpr IntegerLiteralExpr	-0.23793954
-0.91848665	ArrayInitializerExpr NullLiteralExpr IntegerLiteralExpr	-0.2130643
-1.5848931	SimpleName ThisExpr IntegerLiteralExpr	-0.2130643
-1.6510297	SimpleName LongLiteralExpr IntegerLiteralExpr	-0.2130643
-0.38812757	BinaryExpr LongLiteralExpr IntegerLiteralExpr	-0.2130643
-0.9193457	SimpleName ArrayCreationLevel IntegerLiteralExpr	-0.2130643
-0.86881757	PrimitiveType ArrayCreationLevel IntegerLiteralExpr	-0.2130643
-1.1159711	<s> ReturnStmt ObjectCreationExpr	-2.1055727
-1.2329402	SimpleName ReturnStmt ObjectCreationExpr	-0.47489154
-1.3281131	IntegerLiteralExpr ReturnStmt ObjectCreationExpr	-0.2130643
-1.304632	StringLiteralExpr ReturnStmt ObjectCreationExpr	-0.2130643
-1.179194	NullLiteralExpr ReturnStmt ObjectCreationExpr	-0.2130643
-0.7627605	SwitchEntry ReturnStmt ObjectCreationExpr	-0.2130643
-1.1108805	MethodCallExpr MethodCallExpr ObjectCreationExpr	-0.30524847
-1.6620448	SimpleName MethodCallExpr ObjectCreationExpr	-0.22948849
-1.1257483	ExpressionStmt MethodCallExpr ObjectCreationExpr	-0.5015431
-1.6536094	IfStmt MethodCallExpr ObjectCreationExpr	-0.2130643
-1.6053038	ReturnStmt SimpleName ObjectCreationExpr	-0.2130643
-1.5224568	MethodCallExpr SimpleName ObjectCreationExpr	-0.36324042
-1.3823633	SimpleName SimpleName ObjectCreationExpr	-0.90730846
-1.6563317	ClassOrInterfaceType SimpleName ObjectCreationExpr	-0.2130643
-1.1473606	IntegerLiteralExpr SimpleName ObjectCreationExpr	-0.4934293
-1.2670189	ObjectCreationExpr SimpleName ObjectCreationExpr	-0.36324042
-1.4854946	StringLiteralExpr SimpleName ObjectCreationExpr	-0.22948849
-1.4564391	BooleanLiteralExpr SimpleName ObjectCreationExpr	-0.2383017
-1.3775275	AssignExpr SimpleName ObjectCreationExpr	-0.2130643
-1.1954062	CastExpr SimpleName ObjectCreationExpr	-0.22948849
-1.5195667	PrimitiveType SimpleName ObjectCreationExpr	-0.2130643
-1.0266196	ArrayInitializerExpr SimpleName ObjectCreationExpr	-0.2130643
-1.4149983	NullLiteralExpr SimpleName ObjectCreationExpr	-0.22948849
-1.3973584	ThrowStmt SimpleName ObjectCreationExpr	-0.2130643
-1.541831	ThisExpr SimpleName ObjectCreationExpr	-0.2130643
-1.386288	WildcardType SimpleName ObjectCreationExpr	-0.2130643
-1.2581437	LongLiteralExpr SimpleName ObjectCreationExpr	-0.2130643
-0.75279415	ConditionalExpr SimpleName ObjectCreationExpr	-0.23793954
-4.2635345	<s> ExpressionStmt ObjectCreationExpr	-0.2130643
-1.9733727	SimpleName ExpressionStmt ObjectCreationExpr	-0.2130643
-1.5143607	TryStmt ExpressionStmt ObjectCreationExpr	-0.23793954
-1.2003298	LambdaExpr ExpressionStmt ObjectCreationExpr	-0.2130643
-1.418388	ReturnStmt IntegerLiteralExpr ObjectCreationExpr	-0.2130643
-1.5200467	SimpleName IntegerLiteralExpr ObjectCreationExpr	-0.46015042
-1.6307963	IntegerLiteralExpr IntegerLiteralExpr ObjectCreationExpr	-0.23793954
-1.1315877	ArrayInitializerExpr IntegerLiteralExpr ObjectCreationExpr	-0.2130643
-1.4333957	UnaryExpr IntegerLiteralExpr ObjectCreationExpr	-0.2130643
-1.7317804	SimpleName StringLiteralExpr ObjectCreationExpr	-0.23793954
-1.2532374	IntegerLiteralExpr StringLiteralExpr ObjectCreationExpr	-0.2130643
-1.4296775	StringLiteralExpr StringLiteralExpr ObjectCreationExpr	-0.2130643
-1.3707553	SimpleName VoidType ObjectCreationExpr	-0.22948849
-1.5110301	ReturnStmt BooleanLiteralExpr ObjectCreationExpr	-0.23793954
-1.8283257	SimpleName BooleanLiteralExpr ObjectCreationExpr	-0.2130643
-1.3733064	SimpleName EnclosedExpr ObjectCreationExpr	-0.2130643
-1.140165	ArrayCreationLevel ArrayInitializerExpr ObjectCreationExpr	-0.2130643
-1.4871423	ReturnStmt NullLiteralExpr ObjectCreationExpr	-0.2130643
-1.6563864	SimpleName NullLiteralExpr ObjectCreationExpr	-0.2130643
-1.3954171	IntegerLiteralExpr NullLiteralExpr ObjectCreationExpr	-0.2130643
-0.016692473	<s> ThrowStmt ObjectCreationExpr	-2.6890638
-0.18271959	SimpleName ThrowStmt ObjectCreationExpr	-0.8403617
-0.35069042	IntegerLiteralExpr ThrowStmt ObjectCreationExpr	-0.2383017
-0.40617582	StringLiteralExpr ThrowStmt ObjectCreationExpr	-0.23793954
-0.38629454	VoidType ThrowStmt ObjectCreationExpr	-0.2130643
-0.29203728	BooleanLiteralExpr ThrowStmt ObjectCreationExpr	-0.2383017
-0.38629454	PrimitiveType ThrowStmt ObjectCreationExpr	-0.2130643
-0.44473138	NullLiteralExpr ThrowStmt ObjectCreationExpr	-0.23793954
-0.198105	LambdaExpr ThrowStmt ObjectCreationExpr	-0.2130643
-0.198105	LongLiteralExpr ThrowStmt ObjectCreationExpr	-0.2130643
-1.6282027	SimpleName ThisExpr ObjectCreationExpr	-0.2130643
-1.1736134	ThisExpr ThisExpr ObjectCreationExpr	-0.2130643
-1.7480166	SimpleName LongLiteralExpr ObjectCreationExpr	-0.2130643
-1.5466726	IntegerLiteralExpr ReturnStmt MethodDeclaration	-0.2130643
-1.5574346	SimpleName SimpleName MethodDeclaration	-0.6642704
-1.1930746	ExpressionStmt SimpleName MethodDeclaration	-0.2130643
-1.7235665	ClassOrInterfaceType SimpleName MethodDeclaration	-0.2130643
-1.80927	IntegerLiteralExpr SimpleName MethodDeclaration	-0.2130643
-1.0053861	ObjectCreationExpr SimpleName MethodDeclaration	-0.6297935
-1.6542392	StringLiteralExpr SimpleName MethodDeclaration	-0.2130643
-1.7519169	BooleanLiteralExpr SimpleName MethodDeclaration	-0.2130643
-1.3880463	ArrayType SimpleName MethodDeclaration	-0.2130643
-1.4745352	PrimitiveType SimpleName MethodDeclaration	-0.23793954
-1.6992476	UnaryExpr SimpleName MethodDeclaration	-0.2130643
-1.2862605	UnknownType SimpleName MethodDeclaration	-0.2130643
-1.4392564	WildcardType SimpleName MethodDeclaration	-0.2130643
-0.9841085	SuperExpr SimpleName MethodDeclaration	-0.2130643
-0.33697814	ClassOrInterfaceDeclaration SimpleName MethodDeclaration	-0.2130643
-1.2796052	ReturnStmt IntegerLiteralExpr MethodDeclaration	-0.23793954
-1.4567051	SimpleName IntegerLiteralExpr MethodDeclaration	-0.6062785
-1.139042	ExpressionStmt IntegerLiteralExpr MethodDeclaration	-0.2130643
-1.7434578	IntegerLiteralExpr IntegerLiteralExpr MethodDeclaration	-0.2130643
-1.4435278	UnaryExpr IntegerLiteralExpr MethodDeclaration	-0.2130643
-1.0702441	ReturnStmt StringLiteralExpr MethodDeclaration	-0.2383017
-1.735142	SimpleName StringLiteralExpr MethodDeclaration	-0.2383017
-1.2635313	SimpleName VoidType MethodDeclaration	-0.23185353
-1.1473615	ReturnStmt BooleanLiteralExpr MethodDeclaration	-0.36324042
-1.6004304	SimpleName BooleanLiteralExpr MethodDeclaration	-0.2383017
-1.0711063	ArrayType PrimitiveType MethodDeclaration	-0.2130643
-1.5668739	ReturnStmt NullLiteralExpr MethodDeclaration	-0.2130643
-1.88331	SimpleName NullLiteralExpr MethodDeclaration	-0.2130643
-1.2010173	SimpleName WildcardType MethodDeclaration	-0.2130643
-1.4517798	SimpleName LongLiteralExpr MethodDeclaration	-0.2383017
-1.0417714	UnaryExpr LongLiteralExpr MethodDeclaration	-0.2130643
-0.70077485	SimpleName EmptyStmt MethodDeclaration	-0.2130643
-0.6047317	Name ClassOrInterfaceType MarkerAnnotationExpr	-0.2130643
-0.6047317	WildcardType ClassOrInterfaceType MarkerAnnotationExpr	-0.2130643
-0.06532568	ReturnStmt MethodDeclaration MarkerAnnotationExpr	-0.2130643
-0.0434844	SimpleName MethodDeclaration MarkerAnnotationExpr	-0.90730846
-0.039719544	IntegerLiteralExpr MethodDeclaration MarkerAnnotationExpr	-0.46015042
-0.072460674	StringLiteralExpr MethodDeclaration MarkerAnnotationExpr	-0.23793954
-0.19551784	VoidType MethodDeclaration MarkerAnnotationExpr	-0.2130643
-0.072460674	BooleanLiteralExpr MethodDeclaration MarkerAnnotationExpr	-0.23793954
-0.06532568	PrimitiveType MethodDeclaration MarkerAnnotationExpr	-0.2130643
-0.072460674	NullLiteralExpr MethodDeclaration MarkerAnnotationExpr	-0.23793954
-0.06532568	WildcardType MethodDeclaration MarkerAnnotationExpr	-0.2130643
-0.072460674	LongLiteralExpr MethodDeclaration MarkerAnnotationExpr	-0.23793954
-0.06532568	EmptyStmt MethodDeclaration MarkerAnnotationExpr	-0.2130643
-1.2401292	MarkerAnnotationExpr Name MarkerAnnotationExpr	-0.2130643
-1.0519243	SimpleName Parameter MarkerAnnotationExpr	-0.23793954
-0.8016175	Name StringLiteralExpr MarkerAnnotationExpr	-0.2130643
-1.5402939	StringLiteralExpr StringLiteralExpr MarkerAnnotationExpr	-0.2130643
-1.1162549	SimpleName FieldDeclaration MarkerAnnotationExpr	-0.2130643
-0.9231355	SimpleName WildcardType MarkerAnnotationExpr	-0.2383017
-0.05211653	ClassOrInterfaceType MarkerAnnotationExpr Name	-0.23793954
-0.012885519	MethodDeclaration MarkerAnnotationExpr Name	-0.5115504
-0.04709412	Name MarkerAnnotationExpr Name	-0.2130643
-0.04709412	Parameter MarkerAnnotationExpr Name	-0.2130643
-0.05211653	StringLiteralExpr MarkerAnnotationExpr Name	-0.23793954
-0.04709412	FieldDeclaration MarkerAnnotationExpr Name	-0.2130643
-0.04709412	WildcardType MarkerAnnotationExpr Name	-0.2130643
-0.7961318	MethodCallExpr ThisExpr Name	-0.23793954
-1.4216728	SimpleName ThisExpr Name	-0.2130643
-1.0782114	FieldAccessExpr ThisExpr Name	-0.2130643
-1.140511	SynchronizedStmt ThisExpr Name	-0.2130643
-0.0748503	VariableDeclarationExpr SingleMemberAnnotationExpr Name	-0.23793954
-0.0748503	MethodDeclaration SingleMemberAnnotationExpr Name	-0.22948849
-0.06746125	Name SingleMemberAnnotationExpr Name	-0.2130643
-0.06746125	Modifier SingleMemberAnnotationExpr Name	-0.2130643
-0.06746125	FieldDeclaration SingleMemberAnnotationExpr Name	-0.2130643
-0.44833228	ExpressionStmt VariableDeclarationExpr Modifier	-0.7154229
-0.81608367	ForEachStmt VariableDeclarationExpr Modifier	-0.36324042
-0.9204821	MarkerAnnotationExpr Name Modifier	-0.23185353
-0.52638423	Name Modifier Modifier	-0.2130643
-0.6510988	Modifier Modifier Modifier	-0.2130643
-0.60624444	FieldDeclaration Modifier Modifier	-0.2383017
-0.9412254	SimpleName Parameter Modifier	-0.23284921
-1.1737963	CatchClause Parameter Modifier	-0.2130643
-0.8114982	Name StringLiteralExpr Modifier	-0.2130643
-0.35494152	SimpleName FieldDeclaration Modifier	-0.2383017
-0.3667211	IntegerLiteralExpr FieldDeclaration Modifier	-0.2130643
-0.18531443	StringLiteralExpr FieldDeclaration Modifier	-0.2130643
-0.18531443	BooleanLiteralExpr FieldDeclaration Modifier	-0.2130643
-0.18531443	LongLiteralExpr FieldDeclaration Modifier	-0.2130643
-2.1134176	SimpleName SimpleName Parameter	-0.23549485
-0.79188377	Modifier SimpleName Parameter	-0.23043293
-1.8582494	PrimitiveType SimpleName Parameter	-0.2130643
-1.3946037	UnknownType SimpleName Parameter	-0.2130643
-0.4723411	ReturnStmt LambdaExpr Parameter	-0.23793954
-0.3169485	SimpleName LambdaExpr Parameter	-0.7611804
-0.40043128	IntegerLiteralExpr LambdaExpr Parameter	-0.23793954
-0.24053146	NullLiteralExpr LambdaExpr Parameter	-0.2130643
-0.45359224	ThisExpr LambdaExpr Parameter	-0.2130643
-0.039982628	ReturnStmt CatchClause Parameter	-0.23793954
-0.011000525	SimpleName CatchClause Parameter	-0.6711862
-0.039982628	IntegerLiteralExpr CatchClause Parameter	-0.23793954
-0.0361786	StringLiteralExpr CatchClause Parameter	-0.2130643
-0.039982628	BooleanLiteralExpr CatchClause Parameter	-0.23793954
-0.037806682	BreakStmt CatchClause Parameter	-0.2383017
-0.0361786	NullLiteralExpr CatchClause Parameter	-0.2130643
-0.0361786	ThisExpr CatchClause Parameter	-0.2130643
-0.0361786	ContinueStmt CatchClause Parameter	-0.2130643
-2.7454183	<s> ReturnStmt StringLiteralExpr	-0.8025731
-1.6916131	SimpleName ReturnStmt StringLiteralExpr	-0.22194585
-1.1977315	StringLiteralExpr ReturnStmt StringLiteralExpr	-0.22532383
-1.17587	BooleanLiteralExpr ReturnStmt StringLiteralExpr	-0.2130643
-1.3585799	NullLiteralExpr ReturnStmt StringLiteralExpr	-0.2130643
-1.3840077	ReturnStmt MethodCallExpr StringLiteralExpr	-0.23793954
-1.5102377	BinaryExpr MethodCallExpr StringLiteralExpr	-0.2130643
-1.3904951	UnaryExpr MethodCallExpr StringLiteralExpr	-0.2130643
-1.1211689	IfStmt MethodCallExpr StringLiteralExpr	-0.36324042
-1.4561787	MethodCallExpr SimpleName StringLiteralExpr	-0.24375373
-1.589661	SimpleName SimpleName StringLiteralExpr	-0.33911481
-1.7196546	ClassOrInterfaceType SimpleName StringLiteralExpr	-0.2130643
-1.8042716	IntegerLiteralExpr SimpleName StringLiteralExpr	-0.2130643
-1.2019578	ObjectCreationExpr SimpleName StringLiteralExpr	-0.2471732
-1.4249895	StringLiteralExpr SimpleName StringLiteralExpr	-0.23021482
-1.3771276	BinaryExpr SimpleName StringLiteralExpr	-0.22857639
-1.6263771	BooleanLiteralExpr SimpleName StringLiteralExpr	-0.22948849
-1.4258239	AssignExpr SimpleName StringLiteralExpr	-0.2130643
-1.0476314	ArrayInitializerExpr SimpleName StringLiteralExpr	-0.2130643
-1.5951948	NullLiteralExpr SimpleName StringLiteralExpr	-0.2130643
-1.3294812	ClassExpr SimpleName StringLiteralExpr	-0.22710378
-1.4958941	ThisExpr SimpleName StringLiteralExpr	-0.2130643
-0.9830816	CharLiteralExpr SimpleName StringLiteralExpr	-0.2130643
-1.467495	ReturnStmt IntegerLiteralExpr StringLiteralExpr	-0.2130643
-1.8889064	SimpleName IntegerLiteralExpr StringLiteralExpr	-0.22131486
-1.6859998	IntegerLiteralExpr IntegerLiteralExpr StringLiteralExpr	-0.2130643
-1.4855199	UnaryExpr IntegerLiteralExpr StringLiteralExpr	-0.2130643
