\data\
ngram 1=7512

\1-grams:
-6.31798	<unk>
0	<s>
-1.7076924	</s>
-2.8478303	assertTrue
-0.8946025	(
-3.1035247	Thread
-1.042192	.
-3.6393752	currentThread
-0.8946025	)
-3.7991624	getName
-4.154699	startsWith
-6.060758	"RxCachedThreadScheduler"
-1.1127319	;
-1.9849387	return
-5.57659	"Value_"
-2.631093	+
-2.626187	t
-5.57659	"_Thread_"
-2.9688823	System
-3.0176158	out
-3.064936	println
-5.403754	"t:
-2.9276824	"
-3.5332644	calls
-2.6940453	[
-2.3458135	0
-2.6940453	]
-2.831683	++
-6.1111116	"Wait
-4.585437	before
-5.0097537	GC"
-3.416102	sleep
-3.354648	1000
-6.060758	"GC"
-4.312899	gc
-4.86438	MemoryMXBean
-4.3553967	memoryMXBean
-1.7277269	=
-4.7100444	ManagementFactory
-4.7100444	getMemoryMXBean
-3.3168645	long
-4.295886	initial
-4.4169645	getHeapMemoryUsage
-4.4169645	getUsed
-4.424377	printf
-6.060758	"Starting:
-4.5540977	%.3f
-4.564295	MB%n"
-1.4780681	,
-3.6698563	/
-3.9787302	1024.0
-2.7100554	int
-3.045135	n
-3.1439152	100
-3.345201	*
-2.2627616	if
-5.6982975	periodic
-2.5678248	final
-3.4088283	CountDownLatch
-3.7956328	cdl
-1.8372535	new
-2.9147742	Runnable
-3.9258223	action
-2.1828775	@
-2.2035546	Override
-2.2212663	public
-2.5086913	void
-2.879907	run
-3.2985778	countDown
-2.8252378	for
-2.5034578	i
-1.6140418	<
-3.5906951	%
-5.2804527	50000
-2.6771302	==
-3.0401685	->
-4.3683443	still
-6.1111116	scheduling:
-3.1020985	w
-4.931012	schedulePeriodically
-1.919747	1
-2.7322628	TimeUnit
-4.1162715	DAYS
-6.060758	"Waiting
-4.229012	the
-3.8872619	first
-6.1111116	round
-2.5130708	to
-6.060758	finish..."
-3.5126286	await
-3.04576	else
-3.8829424	schedule
-2.9173253	Functions
-4.955706	EMPTY_RUNNABLE
-4.0546594	after
-6.060758	"Peak:
-2.880334	dispose
-4.388519	second
-6.060758	"JDK
-3.3932426	6
-6.060758	purge
-2.918723	is
-6.1111116	N
-5.4816303	log
-6.060758	because
-3.427246	it
-6.060758	removes
-5.184528	and
-6.060758	shifts
-5.0097537	one
-5.1434937	by
-5.184528	one"
-4.295886	Math
-5.4816303	sleepStep
-3.6859386	while
-1.6275078	>
-5.229847	>>
-6.060758	Waiting
-6.060758	purge:
-5.6982975	%.2f
-2.6143332	s
-6.060758	remaining%n"
-6.060758	1000d
-4.424377	finish
-6.1111116	"After:
-3.907249	<=
-2.7629416	5
-3.4417853	break
-6.1111116	-=
-6.060758	"Second
-4.431918	2000
-3.4009655	fail
-2.5116975	String
-4.8854747	format
-6.060758	"Tasks
-6.060758	retained:
-6.060758	%.3f"
-4.119965	1024
-6.060758	1024d
-3.4325461	getAndIncrement
-3.347074	r
-3.2935705	c
-3.7784028	decrementAndGet
-2.5797412	get
-2.9234154	!=
-3.577733	start
-2.7853546	throw
-4.0742416	IllegalStateException
-4.607661	sync
-2.808082	try
-2.9471707	catch
-3.4682558	InterruptedException
-2.7046053	ex
-4.1428094	isInterrupted
-3.1165752	set
-2.701764	true
-4.631084	nextCount
-6.060758	firstStepStart
-6.060758	firstStepEnd
-3.582011	latch
-6.060758	secondStepStart
-3.3741822	inner
-6.060758	firstAction
-6.060758	secondStepEnd
-6.060758	thirdStepStart
-6.060758	secondAction
-6.060758	thirdStepEnd
-2.2178144	Flowable
-3.667233	fromIterable
-3.0383205	Arrays
-3.0939877	asList
-6.060758	"a-"
-4.931012	id
-6.060758	"b-"
-3.5479183	subscribeOn
-5.57659	getScheduler
-3.3741822	map
-2.7013395	Function
-2.6309726	apply
-6.1111116	"names=>"
-4.9818897	invocation
-6.1111116	getMock
-3.318619	finally
-4.2242703	30
-3.114739	MILLISECONDS
-3.0856829	10
-4.6432867	40
-4.6192145	300
-6.060758	third
-6.060758	fourth
-4.5540977	400
-3.3047774	incrementAndGet
-2.6842794	this
-4.0742416	state
-3.9258223	Scheduler
-4.5248685	Worker
-4.21958	createWorker
-4.844262	AsyncSubscription
-3.5323048	as
-2.5140808	subscriber
-2.726229	onSubscribe
-4.6820984	setResource
-4.5540977	42
-2.5007753	onComplete
-2.2351134	onNext
-5.4816303	"Value:
-2.436743	v
-6.060758	lastValue
-3.268842	BooleanSubscription
-3.0238135	count
-4.771989	"v:
-3.4175713	unsafeCreate
-3.2499254	Publisher
-2.486225	subscribe
-3.1330774	Subscriber
-2.8619313	?
-2.9816403	super
-6.1111116	"value_after_map-"
-2.991737	scheduler
-4.931012	concurrentCounter
-6.060758	"ConcurrentObserverValidator.onNext:
-3.8702362	args
-2.4887319	onError
-3.342716	RuntimeException
-6.060758	"we
-4.330606	should
-3.8640199	not
-3.8938227	have
-6.060758	concurrent
-6.060758	execution
-3.6970007	of
-6.060758	onNext"
-3.9234567	50
-2.513346	e
-4.2103486	sd
-6.1111116	decoratedCalled
-4.1053767	actual
-4.3428245	scheduleDirect
-4.3014836	disposable
-5.0097537	schedulePeriodicallyDirect
-4.171075	10000
-3.251931	$EMPTY$
-3.9118185	merge
-3.4657815	filter
-3.6556199	Predicate
-1.8230573	Integer
-3.1273808	boolean
-2.5098732	test
-2.6630454	throws
-2.5873992	Throwable
-2.3638384	2
-3.5247035	observeOn
-4.0389895	sch
-2.9978533	false
-3.3822486	hide
-3.548913	delay
-3.0364804	SECONDS
-4.330606	now
-5.57659	calledOp
-3.8303814	ExceptionHelper
-4.29036	wrapOrThrow
-3.4982135	counter
-6.1111116	"counter:
-3.6418352	bs
-6.060758	aSubscriber
-3.0836313	!
-3.7141411	isCancelled
-6.060758	"Runnable"
-2.4146976	TestException
-2.8401682	d
-3.4456937	advanceTimeBy
-3.9951112	EmptyDisposable
-3.7156005	INSTANCE
-3.1042395	Schedulers
-3.4371412	single
-2.8259912	Disposable
-3.4464798	unit
-5.2804527	SchedulerRunnableIntrospection
-5.57659	outerWrapper
-5.403754	innerWrapper
-5.57659	getWrappedRunnable
-3.9452255	assertSame
-5.1434937	runnable
-3.1730926	isDisposed
-5.403754	statefulMap
-3.868154	"a"
-2.5850117	null
-3.8599243	put
-3.9578078	"b"
-6.1111116	nonThreadSafeCounter
-6.060758	"nonThreadSafeCounter"
-6.060758	NUM
-5.6982975	"RxComputationThreadPool"
-4.844262	assertNotEquals
-5.6982975	currentThreadName
-5.184528	setUncaughtExceptionHandler
-4.388519	thread
-4.4169645	throwable
-6.1111116	repeatCount
-6.1111116	OutOfMemoryError
-4.9818897	delayTime
-5.184528	convert
-6.060758	drift
-4.9818897	NANOSECONDS
-2.7720015	times
-3.0698652	add
-4.3187213	currentTimeMillis
-2.7954264	assertEquals
-5.403754	workers
-6.1111116	doWorkOnNewTrampoline
-5.0097537	"A"
-5.403754	workDone
-4.844262	"B"
-6.060758	worker2
-4.035922	interval
-5.57659	MICROSECONDS
-3.0126626	Long
-6.060758	ount1
-6.1111116	trampolineWorker
-3.3203807	take
-5.6982975	msg
-4.2058053	key
-6.060758	".1"
-5.6982975	worker3
-4.8250356	trampoline
-6.1111116	createPrintAction
-6.060758	".B.1"
-6.060758	".B.2"
-4.381689	message
-2.472647	just
-4.506421	blockingFirst
-4.1837754	blockingLast
-4.631084	blockingIterable
-3.5703468	iterator
-3.3815708	next
-3.8172536	blockingSubscribe
-4.3428245	blockingSingle
-4.431918	blockingForEach
-3.8081138	emptyConsumer
-4.7399135	blockingLatest
-3.6518166	hasNext
-4.931012	blockingNext
-4.544134	toFuture
-2.3609865	Observable
-2.9701939	Single
-3.955262	blockingGet
-2.8252378	Maybe
-3.160289	Completable
-3.4302669	complete
-4.9818897	blockingAwait
-6.060758	countGenerated
-4.955706	aLong
-5.6982975	"---
-4.7100444	completed"
-6.060758	onError"
-6.060758	countReceived
-3.027395	cancel
-6.060758	"==>
-6.060758	Received
-5.57659	"Run:
-5.1060047	unsubscribeLatch
-3.6530807	1L
-4.258604	100000
-6.1111116	Total
-6.1111116	Memory:
-5.1434937	Runtime
-5.1434937	getRuntime
-6.1111116	totalMemory
-6.1111116	Free:
-6.1111116	freeMemory
-6.1111116	1000000L
-3.6859386	Subscription
-6.1111116	completionLatch
-3.1672637	request
-6.060758	"Completed"
-4.330606	completed
-5.6982975	"Error"
-6.1111116	"Thread:
-3.5995567	"The
-6.060758	released
-6.060758	we
-5.57659	are
-6.060758	async."
-2.8548236	error
-2.8546221	upstream
-3.7458675	toObservable
-3.5469258	toFlowable
-4.0709157	BackpressureStrategy
-4.6820984	MISSING
-3.7921317	"Forced
-3.9187639	failure"
-2.828259	empty
-2.7327187	never
-5.4816303	diff
-5.4816303	abs
-4.7889614	stop
-3.213937	-
-6.060758	diffUnit
-2.5233705	source
-6.060758	maxDiff
-5.403754	SafeSubscriberTestException
-6.060758	"failure
-4.564295	from
-5.229847	unsubscribe"
-5.57659	"onNextFail"
-5.57659	"onErrorFail"
-6.1111116	"onCompleteFail"
-6.060758	crashDispose
-6.060758	"cancel()"
-6.060758	crashRequest
-6.060758	"request()"
-6.1111116	crashOnError
-6.1111116	"onError("
-4.7889614	")"
-6.1111116	crashOnComplete
-6.1111116	"onComplete()"
-2.9255438	List
-4.7889614	cel
-2.48459	TestHelper
-4.3683443	compositeList
-3.396035	assertError
-3.4625044	index
-4.1236897	clazz
-3.1384625	values
-3.1435235	value
-4.655843	unsub
-5.403754	t0
-4.3749657	interrupt
-3.968143	getMessage
-3.3682292	&&
-3.7553747	contains
-5.57659	"Forced"
-3.6381505	ts1
-2.7136786	o
-2.7129517	3
-3.8228314	IllegalArgumentException
-2.9033632	RxJavaPlugins
-4.324623	Future
-2.9696689	f
-3.3239255	:
-6.1111116	futures
-3.8419585	20
-4.0546594	err
-5.2804527	"Failed
-4.755655	waiting
-4.4801407	on
-6.1111116	future."
-3.7200081	printStackTrace
-3.9164364	events
-4.931012	TestConcurrencySubscriberEvent
-4.5540977	+=
-5.57659	waitTime
-4.844262	finished
-5.184528	"Received
-3.9923377	but
-5.403754	we're
-4.955706	already
-5.403754	finished."
-5.1060047	expectedEndingEvent
-5.57659	ending
-4.0878043	event
-3.4868438	expected
-4.655843	"running
-5.0395284	TestSingleThreadedObservable
-4.361822	thread"
-5.2804527	"TestSingleThreadedObservable
-4.5248685	onNext:
-3.617841	NullPointerException
-4.330606	npe
-4.844262	"TestMultiThreadedObservable
-4.196859	subscribed
-4.8854747	..."
-4.7399135	TestMultiThreadedObservable
-3.3002598	j
-5.184528	fj
-4.806624	threadPool
-5.0395284	execute
-4.3683443	threadsRunning
-4.4553604	concurrentThreads
-4.4553604	maxThreads
-4.4717226	maxConcurrentThreads
-3.5693018	compareAndSet
-4.3683443	shutdown
-5.1060047	awaitTermination
-5.57659	"Threadpool
-4.806624	did
-4.3683443	terminate
-4.196859	in
-5.57659	time."
-4.9818897	"starting
-4.9818897	"done
-4.8854747	starting
-5.403754	captureMaxThreads
-5.0395284	terminalEvent
-6.1111116	">>>>>>>>>>>>>>>>>>>>
-5.57659	received:
-5.1060047	onNextCount
-3.7800953	serial
-4.4634643	so
-6.1111116	ssRef
-3.3203807	q
-3.7553747	offer
-4.1795006	--
-3.718534	poll
-3.8640199	to1
-3.9118185	disposed
-4.9818897	checkSubscriptionOnce
-2.806277	errors
-4.771989	"onSubscribe
-4.1837754	called
-5.2804527	proper
-5.2804527	order"
-5.0714955	lastThread
-5.57659	establishedFusionMode
-3.3610623	QueueFuseable
-3.7474375	ASYNC
-3.6505563	qs
-4.4395924	"onNext
-4.119965	received
-2.7350056	a
-4.1236897	value"
-2.8353267	downstream
-3.4175713	SubscriptionHelper
-4.907647	deferredRequest
-5.184528	missedRequested
-6.1111116	initialFusionMode
-4.1162715	mode
-3.070196	m
-4.381689	AssertionError
-5.229847	"\nexpected:
-5.57659	fusionModeToString
-5.229847	"\ngot:
-5.2804527	";
-6.1111116	Fusion
-5.4816303	different"
-5.6982975	"Upstream
-6.1111116	fuseable"
-3.2185667	size
-2.9900835	T
-2.8955503	Objects
-3.9258223	equals
-5.6982975	"Value
-4.084374	at
-5.4816303	position
-5.229847	equal
-5.0714955	valueAndClass
-5.229847	Expected
-6.060758	them
-4.1428094	be
-3.9234567	U
-4.1018047	assertSubscribed
-3.5275385	assertValues
-5.6982975	errorPredicate
-3.5539212	assertNotComplete
-4.3954577	assertErrorMessage
-4.9818897	switch
-4.5248685	case
-3.9258223	NONE
-6.060758	"NONE"
-3.8723283	SYNC
-6.060758	"SYNC"
-6.060758	"ASYNC"
-4.907647	default
-6.060758	"Unknown("
-6.060758	getArgument
-3.416102	MAX_VALUE
-3.1176805	list
-5.229847	isInstance
-4.7100444	got
-4.844262	initCause
-3.5641143	instanceof
-5.2804527	UndeliverableException
-5.4816303	"Outer
-4.243556	exception
-4.1126094	getCause
-5.403754	"Inner
-6.060758	"Type
-6.1111116	"Message
-3.7411907	CompositeException
-4.574737	ce
-4.844262	getExceptions
-3.5724444	toString
-4.844262	":
-5.57659	CompositeException"
-2.405725	ts
-3.2641642	r1
-2.9434493	b
-3.7886586	d1
-2.4231882	observer
-3.9164364	d2
-3.671174	subscribers
-3.4946833	length
-4.05148	bs1
-4.1236897	bs2
-2.5227137	class
-5.0097537	classes
-4.607661	Class
-3.447267	p
-4.04519	QueueDisposable
-3.6344967	SuppressWarnings
-3.6698563	"unchecked"
-2.3829837	Object
-3.7553747	qd
-4.171075	requestFusion
-3.8228314	ANY
-3.421267	isEmpty
-3.492929	clear
-3.866082	QueueSubscription
-3.4938052	trackPluginErrors
-5.57659	bad
-4.012134	once
-3.6074615	protected
-3.604056	subscribeActual
-3.179001	Observer
-5.2804527	goodValue
-4.381689	"error"
-5.2804527	badValue
-4.6820984	"second"
-3.4066696	mapper
-3.3527422	ObservableSource
-4.0982623	os
-3.469913	TestObserverEx
-3.3768544	awaitDone
-3.1726737	assertNoErrors
-3.4348376	assertComplete
-3.3053455	TestSubscriberEx
-3.604056	SingleSource
-3.5237627	MaybeSource
-3.7991624	CompletableSource
-3.5163083	assertUndeliverable
-3.413907	reset
-4.4974833	v1
-4.3954577	v2
-2.6886537	Exception
-6.1111116	StripBoundarySubscriber
-4.506421	subscription
-4.771989	fs
-4.175267	&
-5.4816303	~
-4.312899	BOUNDARY
-3.8099265	UnsupportedOperationException
-3.8498518	"Should
-5.2804527	called"
-6.060758	StripBoundaryObserver
-5.6982975	TestConsumerExConverters
-3.461689	cancelled
-4.544134	fusionMode
-4.196859	testSubscriber
-5.2804527	initialRequest
-4.564295	FlowableConverter
-5.57659	tse
-3.9979024	setInitialFusionMode
-3.7156005	subscribeWith
-4.515547	Set
-5.2804527	expectedSet
-4.3366723	HashSet
-6.1111116	failWith
-6.1111116	"Item
-6.1111116	set:
-6.1111116	BaseTestConsumer
-5.6982975	bean
-6.060758	maxLoop
-5.6982975	usage
-6.060758	expectedMemoryUsage
-6.060758	oneSleep
-6.060758	ForwardingConditionalSubscriber
-4.6820984	a1
-5.4816303	b1
-3.3353455	onSuccess
-5.1434937	"Hello"
-4.431918	"fail"
-6.060758	"SubscribeOn
-5.403754	Thread:
-5.4816303	"ObserveOn
-5.403754	World!"
-3.4052367	computation
-4.8854747	5000
-5.2804527	"success"
-5.0714955	SerialDisposable
-4.04519	interrupted
-3.9760592	replace
-4.1350603	fromRunnable
-4.279515	unsubscribed
-4.312899	"hello"
-3.9354155	integer
-3.82659	atomicInteger
-4.279515	sum
-5.2804527	atomicLong
-3.5181599	result
-2.9544568	t1
-3.5190887	t2
-4.806624	numberOfSubscribeCalls
-6.1111116	soRef
-5.4816303	SafeObserverTestException
-3.591793	Assert
-3.577733	requested
-5.0714955	normal
-4.5964065	completable
-6.060758	onSubscribeCalled
-3.8439186	lazySet
-5.57659	disposedFirst
-4.5343947	onErrorComplete
-3.1490405	done
-4.248514	CompletableObserver
-3.9354155	name
-6.060758	550
-6.1111116	getUncaughtExceptionHandler
-5.4816303	uncaughtException
-3.4009655	Action
-3.199891	Consumer
-3.1236243	accept
-5.6982975	toSingleDefault
-5.403754	disposableRef
-6.1111116	hasRun
-5.403754	"foo"
-6.1111116	doneAfter
-3.636929	co
-5.2804527	depth
-6.060758	MAX_STACK_DEPTH
-5.57659	getStackTrace
-6.060758	StackOverflowError
-5.6982975	ThreadDeath
-4.0742416	task
-5.0097537	setFirst
-4.08097	f1
-6.1111116	setRest
-3.965536	timer
-6.1111116	sched
-4.564295	defer
-3.4410079	Supplier
-6.1111116	0l
-6.1111116	workerActions
-5.2804527	actions
-3.8829424	concat
-3.9427521	worker
-6.1111116	tSched
-4.695847	sa
-4.907647	setFuture
-4.6432867	ft
-3.579867	call
-3.9095278	"Second"
-3.8380651	"First"
-5.57659	syncb
-4.668772	list1
-3.4325461	ArrayList
-5.3377423	SchedulerMultiWorkerSupport
-5.57659	mws
-5.57659	createWorkers
-4.4169645	max
-6.1111116	WorkerCallback
-5.57659	onWorker
-4.229012	composite
-6.1111116	threads1
-4.4096766	list2
-6.1111116	threads2
-6.060758	SecurityException
-4.907647	mayInterruptIfRunning
-4.3553967	"Inner"
-4.077593	s1
-4.06434	s2
-2.9351306	assertFalse
-6.060758	spc
-4.243556	requests
-5.57659	tester
-5.0097537	"Done"
-4.2103486	99
-5.6982975	b2
-3.5928936	IOException
-4.192454	128
-5.57659	fastPathEmitMax
-5.4816303	fastPathOrderedEmitMax
-5.3377423	ready
-3.965536	hasValue
-4.86438	bf
-4.931012	lift
-5.1060047	FlowableOperator
-5.4816303	SubscriberResourceWrapper
-5.3377423	atomicSubscription
-3.9707656	addAndGet
-4.9818897	deferredSetOnce
-4.86438	ac
-5.403754	replaceResource
-4.8250356	ds
-3.6051881	cs
-4.631084	cs2
-4.755655	concatMapCompletable
-3.5209522	justFunction
-2.921063	pp
-3.8099265	||
-5.1434937	concatMapCompletableDelayError
-4.806624	concatMapSingleDelayError
-4.806624	"outer"
-3.9734044	SingleObserver
-3.8322897	obs
-3.9868433	ss
-4.6432867	concatMapSingle
-4.931012	flatMapPublisher
-4.6432867	andThen
-4.8250356	switchMapSingle
-4.4169645	ms1
-4.5540977	ms2
-3.5641143	ms
-4.806624	"inner"
-5.0097537	moRef
-3.0711892	ps
-4.3553967	ex2
-5.1060047	switchMapSingleDelayError
-5.229847	css
-4.8854747	switchMapCompletable
-5.57659	ex0
-5.2804527	"main"
-5.403754	switchMapCompletableDelayError
-4.907647	concatMapMaybeDelayError
-4.0709157	MaybeObserver
-4.564295	concatMapMaybe
-4.7247224	switchMapMaybe
-2.993951	PublishSubject
-2.671151	create
-3.0046258	TestObserver
-2.8053775	assertResult
-3.0184958	assertFailure
-3.8081138	MaybeSubject
-3.3099165	hasObservers
-3.4600627	assertEmpty
-4.3954577	checkUndeliverableUponCancel
-4.7399135	ObservableConverter
-5.1060047	switchMapMaybeDelayError
-4.8854747	checkUtilityClass
-5.3377423	ScalarXMapZHelper
-2.971246	range
-2.9361012	4
-3.6914344	8
-2.8801203	TestSubscriber
-3.3883984	0L
-4.1837754	requestMore
-4.150699	checkDoubleOnSubscribeFlowable
-2.8068178	PublishProcessor
-3.276752	hasSubscribers
-3.4791431	extends
-3.7973938	assertValue
-3.5766702	testConsumer
-3.9603686	assertFailureAndMessage
-3.588508	AtomicReference
-4.29036	RACE_LONG_LOOPS
-3.318619	r2
-3.5703468	race
-5.0714955	flatMapObservable
-3.5962124	checkDisposed
-4.1126094	::
-4.361822	32
-3.6430702	assertValueCount
-3.8518476	SingleSubject
-4.0742416	MissingBackpressureException
-5.57659	ConcatMapSingleSubscriber
-4.755655	operator
-4.0878043	16
-4.2103486	ErrorMode
-4.607661	IMMEDIATE
-3.33963	queue
-3.8247066	UnicastProcessor
-3.7054863	up
-4.1428094	emit
-5.2804527	rejectFlowableFusion
-4.3553967	compose
-4.8854747	flowableStripBoundary
-4.0063853	CompletableSubject
-5.2804527	512
-5.1060047	assertValueAt
-4.2849035	checkDoubleOnSubscribeObservable
-3.7667363	concatWith
-5.6982975	ConcatMapMaybeMainObserver
-3.7259555	fromArray
-3.577733	identity
-3.8872619	UnicastSubject
-3.9027274	us
-5.2804527	rejectObservableFusion
-5.184528	observableStripBoundary
-3.9329972	Void
-5.403754	checkDoubleOnSubscribeFlowableToCompletable
-5.6982975	"Mapper"
-4.6820984	"Disposer"
-4.0676155	using
-4.248514	justSupplier
-5.57659	mapperThrows
-5.403754	disposerThrows
-4.695847	disposer
-5.4816303	"Mapper-run"
-3.622535	RACE_DEFAULT_LOOPS
-5.3377423	"Disposable
-5.0097537	set!"
-4.0389895	StringBuilder
-4.131237	sb
-4.21958	doOnDispose
-3.1760368	append
-4.806624	"Dispose"
-4.8854747	"Resource"
-5.57659	"ResourceDispose"
-5.57659	"DisposeResource"
-3.9787302	fromCallable
-3.8894377	Callable
-4.5964065	flattenAsObservable
-3.521887	Iterable
-3.8538527	Collections
-4.248514	emptyList
-4.0268483	assertFuseable
-3.7903917	assertFusionMode
-4.4096766	CrashingIterable
-4.9818897	"iterator()"
-4.844262	"hasNext()"
-5.0395284	"next()"
-5.6982975	checkDoubleOnSubscribeSingleToObservable
-4.7889614	singleton
-3.7835004	array
-4.035922	fill
-3.7214873	500
-4.188093	"2"
-4.188093	"1"
-3.6492996	assertNoValues
-3.6518166	returned
-4.86438	MaybeSource"
-4.806624	"something
-4.806624	went
-4.806624	terribly
-4.806624	wrong!"
-4.931012	"test"
-5.2804527	checkDoubleOnSubscribeSingleToMaybe
-5.184528	concatArrayEagerDelayError
-4.233806	fromPublisher
-5.184528	IndexOutOfBoundsException
-4.2149396	NoSuchElementException
-5.229847	"Subscription
-4.7100444	doAfterTerminate
-5.3377423	afterTerminate
-5.57659	assertAfterTerminateCalledOnce
-3.7411907	alwaysTrue
-4.431918	singleOrError
-4.931012	checkDoubleOnSubscribeSingle
-4.544134	onTerminateDetach
-4.7100444	WeakReference
-4.488725	wr
-3.8558671	200
-3.6418352	assertNull
-5.0097537	33
-4.631084	concatDelayError
-3.3768544	TestScheduler
-3.868154	advanceTimeTo
-5.1434937	triggerActions
-4.2637377	delaySubscription
-3.6406033	io
-4.1162715	newThread
-4.4801407	doOnError
-4.755655	onErrorResumeWith
-3.8135746	""
-6.1111116	checkDoubleOnSubscribeCompletableToSingle
-5.1060047	checkDoubleOnSubscribeFlowableToSingle
-5.1060047	checkDoubleOnSubscribeObservableToSingle
-4.668772	switchOnNext
-4.447405	11
-4.806624	13
-4.7399135	15
-4.955706	switchOnNextDelayError
-4.771989	ss1
-4.844262	ss2
-4.447405	cached
-4.1350603	cache
-5.6982975	doubleDisposer
-4.544134	mergeArray
-4.931012	mergeArrayDelayError
-4.192454	flatMapMaybe
-4.544134	timeInterval
-4.3187213	Timed
-5.57659	1000L
-4.258604	doOnCancel
-4.585437	unsubscribeOn
-4.2103486	doFinally
-6.1111116	SingleDoFinallyTest
-3.5429785	mock
-4.188093	onDispose
-4.585437	doOnLifecycle
-2.4428625	verify
-2.9989748	any
-4.0328765	withErrorTracking
-4.7247224	doThrow
-4.1389174	when
-4.544134	concatEager
-4.8854747	concatEagerDelayError
-4.233806	doOnComplete
-5.0097537	SingleOnSubscribe
-5.0097537	SingleEmitter
-4.295886	setDisposable
-4.955706	setCancellable
-4.844262	Cancellable
-4.1837754	thrown"
-3.662033	Boolean
-4.7399135	response
-4.86438	tryOnError
-4.1350603	emitter
-5.6982975	SingleCreate
-4.258604	Emitter
-4.388519	getSimpleName
-4.3490653	materialize
-3.711237	Notification
-4.607661	createOnNext
-4.907647	createOnError
-4.2849035	dematerialize
-4.8250356	createOnComplete
-4.7100444	"rawtypes"
-5.57659	"Value-"
-6.1111116	"Value-1"
-4.388519	fromSupplier
-4.171075	supplier
-3.1277585	AtomicInteger
-4.077593	func
-4.515547	thenReturn
-6.1111116	fromSupplierSingle
-5.184528	verifyNoInteractions
-4.506421	cdl1
-4.631084	cdl2
-3.593997	timeout
-4.585437	funcLatch
-4.585437	observerLatch
-5.184528	thenAnswer
-5.0395284	Answer
-4.9818897	answer
-5.0395284	InvocationOnMock
-4.8854747	"should_not_be_delivered"
-4.931012	fromSupplierObservable
-3.4877079	mockObserver
-4.3553967	outer
-3.4536178	verifyNoMoreInteractions
-4.806624	checkedException
-4.607661	"test
-4.488725	exception"
-4.229012	mockSingleObserver
-4.3071537	doOnSubscribe
-4.806624	doOnSuccess
-4.564295	"Outer"
-5.0714955	doOnEvent
-4.1126094	BiConsumer
-4.695847	"Main"
-4.01796	EMPTY_ACTION
-4.3683443	startWith
-3.7069168	subject
-5.0395284	subj
-4.3071537	fallback
-4.4169645	TimeoutException
-4.8250356	timeoutMessage
-4.248514	NonNull
-3.4386837	pp1
-3.4496377	pp2
-4.907647	ambWith
-5.57659	singles
-4.447405	amb
-4.361822	ambArray
-4.312899	Subject
-3.9049823	ReplaySubject
-3.9027274	ps1
-3.9258223	ps2
-3.4576347	sources
-4.844262	31
-3.6914344	AtomicBoolean
-4.274192	assertNotNull
-5.0714955	"Interrupted!"
-6.060758	SingleOperator
-4.931012	ScheduledExecutorService
-4.330606	exec
-4.7399135	Executors
-5.2804527	newSingleThreadScheduledExecutor
-4.806624	3000
-4.29036	getClass
-6.060758	SingleDoAfterSuccessTest
-4.931012	doAfterSuccess
-4.9818897	afterSuccess
-4.8854747	fromMaybe
-4.4717226	wrap
-4.955706	Number
-6.1111116	1d
-4.8250356	cast
-6.1111116	SingleTransformer
-4.907647	assertNotSame
-4.8250356	onErrorReturnItem
-4.3749657	repeat
-5.4816303	flag
-4.9818897	repeatUntil
-4.607661	BooleanSupplier
-4.655843	getAsBoolean
-4.035922	retry
-4.607661	BiPredicate
-4.8854747	ignoreElement
-4.131237	sequenceEqual
-4.585437	timestamp
-4.806624	ofType
-6.060758	checkDisposedSingleToMaybe
-3.800938	singleElement
-4.8854747	onErrorReturn
-6.1111116	"Resume"
-3.921104	concatMap
-2.9471707	null"
-4.488725	"No
-4.931012	subscribers?!"
-5.6982975	"Still
-3.6530807	consumer
-4.5540977	safeSubscribe
-3.4052367	InOrder
-4.3683443	order
-2.682515	inOrder
-5.229847	compositeException
-4.7247224	concatArrayDelayError
-4.695847	callable
-6.1111116	fromCallableSingle
-4.931012	fromCallableObservable
-3.8599243	zip
-3.530392	BiFunction
-5.2804527	"12"
-4.655843	Function3
-5.184528	"123"
-5.1434937	Function4
-5.57659	"1234"
-5.2804527	Function5
-5.57659	"12345"
-5.403754	Function6
-5.57659	"123456"
-3.7097921	7
-5.403754	Function7
-3.8518476	g
-5.57659	"1234567"
-5.403754	Function8
-4.029852	h
-5.57659	"12345678"
-3.8247066	9
-5.403754	Function9
-5.57659	"123456789"
-4.188093	flatMapCompletable
-4.844262	assertNotTerminated
-3.461689	flatMap
-5.6982975	checkDoubleOnSubscribeSingleToFlowable
-4.1236897	success
-4.5540977	concatArray
-4.771989	concatArrayEager
-4.424377	firstElement
-3.9502146	takeUntil
-4.0578623	ignoreElements
-4.7247224	CancellationException
-3.708352	main
-3.2799568	other
-4.1795006	"Main
-4.05148	no
-3.9734044	observers?"
-4.192454	"Other
-3.7700377	has
-3.6357112	source1
-3.6430702	source2
-4.1795006	mergeDelayError
-5.0097537	function
-4.4974833	value."
-4.955706	SingleInternalHelper
-5.6982975	NoSuchElementSupplier
-4.3954577	valueOf
-5.57659	"INSTANCE"
-5.6982975	ToFlowable
-6.060758	iterableToFlowable
-4.4801407	singletonList
-3.636929	Iterator
-4.4717226	iter
-6.1111116	"Iterator
-4.907647	reports
-4.6192145	an
-6.060758	additional
-5.57659	element"
-4.3187213	was
-5.403754	empty"
-4.3954577	flattenAsFlowable
-4.4169645	FlowableSubscriber
-3.968143	2L
-4.3683443	5L
-3.820964	remove
-4.3014836	assertBadRequestReported
-4.4801407	"One"
-4.771989	"Two"
-4.806624	addString
-4.4801407	pp0
-6.1111116	addString3
-4.4169645	zipArray
-4.05148	zipper
-5.0395284	CrashingMappedIterable
-4.7889614	atomicBoolean
-5.0395284	doOnTerminate
-4.5964065	":"
-5.1060047	stringCombine
-6.1111116	"1:2"
-4.607661	fromFuture
-5.229847	checkDoubleOnSubscribeCompletable
-6.1111116	CompletableDoFinallyTest
-5.403754	"bla"
-5.6982975	checkDisposedCompletable
-6.060758	checkDoubleOnSubscribeCompletableToObservable
-4.154699	fromAction
-4.631084	thrown
-6.1111116	RuntimeException"
-4.955706	"Wrong
-6.1111116	cause:
-4.668772	onErrorResumeNext
-5.1060047	action1
-5.1060047	action2
-5.6982975	MergeCompletableObserver
-4.1467366	CompositeDisposable
-4.86438	repeatWhen
-4.4974833	takeWhile
-4.1428094	MINUTES
-4.6192145	thrown!"
-6.060758	NPA(IAE)"
-3.9095278	assertTerminated
-3.8518476	cd
-5.6982975	TimeOutObserver
-5.1060047	CompletableOnSubscribe
-5.1060047	CompletableEmitter
-5.6982975	CompletableCreate
-6.1111116	IllegalArgumentExceptio"
-5.57659	"prefetch
-4.4096766	required
-4.806624	-99"
-4.0947485	k
-6.1111116	c0
-5.57659	"Interrupted!
-5.0395284	interrupted!"
-4.8250356	ExecutionException
-5.6982975	Amb
-4.931012	fromSingle
-6.060758	checkDoubleOnSubscribeCompletableToFlowable
-6.1111116	"error1"
-6.060758	"error2"
-5.57659	completableRunCount
-4.7247224	90
-4.844262	setErrorHandler
-5.184528	fromObservable
-3.955262	to2
-5.57659	to3
-6.1111116	to4
-5.0395284	assertCompositeExceptions
-5.6982975	checkDoubleOnSubscribeCompletableToMaybe
-6.060758	CompletableOperator
-5.6982975	"maxConcurrency
-4.388519	ex1
-6.1111116	CompletableMergeArrayDelayError
-5.6982975	TryTerminateAndReportDisposable
-4.2103486	AtomicThrowable
-6.1111116	CompletableMergeArray
-5.6982975	InnerCompletableObserver
-4.6820984	cs1
-3.9502146	ref
-4.955706	ObservableScalarXMap
-5.0395284	ScalarDisposable
-4.931012	tryScalarXMapSubscribe
-5.184528	CallablePublisher
-6.1111116	EmptyCallablePublisher
-5.2804527	OneCallablePublisher
-5.0714955	scalarXMap
-4.324623	scan
-4.243556	anyString
-4.4801407	anyInt
-4.4096766	DefaultObserver
-4.655843	101
-3.921104	collect
-4.029852	takeLast
-4.931012	checkBadSourceObservable
-5.6982975	err2
-5.0395284	CopyOnWriteArrayList
-5.403754	errorConsumer
-4.755655	factory
-5.57659	firstObservable
-3.2735705	"one"
-3.403808	"two"
-5.57659	secondObservable
-3.46496	"three"
-3.8342063	"four"
-4.931012	deferred
-5.3377423	firstObserver
-5.3377423	secondObserver
-5.0395284	thenThrow
-4.3014836	elementAt
-3.9234567	intValue
-4.9818897	elementAtOrError
-5.57659	checkDoubleOnSubscribeObservableToMaybe
-4.3683443	innerScheduler
-3.7141411	publishNext
-5.1060047	900
-4.3553967	publishCompleted
-4.4717226	sampled
-4.3187213	debounce
-5.2804527	800
-4.2535295	"c"
-4.844262	"d"
-4.844262	"e"
-5.0097537	600
-5.2804527	"f"
-5.0395284	700
-5.57659	"g"
-5.57659	"h"
-4.931012	publishError
-6.1111116	701
-4.7100444	debouncer
-4.9818897	debounceSel
-6.1111116	ObservableDebounceTimed
-5.0395284	DebounceEmitter
-4.1018047	BehaviorSubject
-4.243556	createDefault
-5.57659	DebounceTimedObserver
-3.6320777	sub
-4.8854747	de
-4.447405	input
-4.907647	failed"
-3.984122	TestObservable
-4.585437	testException
-3.9868433	join
-4.7399135	"TestObservable
-5.184528	finished"
-5.2804527	"abc"
-5.4816303	"Object
-5.229847	retained!"
-4.955706	parentSubscription
-5.2804527	observable1
-5.184528	createObservable
-5.57659	"11"
-6.1111116	"111"
-6.1111116	"1111"
-5.2804527	observable2
-5.184528	"22"
-5.2804527	"222"
-5.2804527	"2222"
-5.403754	observable3
-4.6820984	"3"
-6.1111116	"33"
-6.1111116	"333"
-6.1111116	"3333"
-5.403754	expectedException
-5.403754	"fake
-4.0546594	AtomicLong
-5.403754	incrementer
-3.9027274	o1
-3.9095278	o2
-3.677823	doOnNext
-4.01796	source3
-4.4395924	"Source
-5.0097537	doesn't
-4.655843	subscribers!"
-4.012134	stringObserver
-5.57659	getAllStackTraces
-5.403754	keySet
-5.57659	"RxNewThread"
-6.1111116	"NewThread
-6.1111116	leak!"
-5.1060047	TestSynchronousObservable
-4.7399135	observableOfObservables
-5.2804527	listOfObservables
-4.424377	"***
-5.184528	unsubscribed"
-5.1060047	"Done
-5.403754	looping
-5.403754	unsubscribe:
-5.229847	only
-5.1060047	6"
-6.1111116	"unsubscribed:
-5.1060047	TestASynchronousObservable
-6.1111116	"testSynchronizationOfMultipleSequencesLoop
-6.1111116	synchronizationOfMultipleSequences
-5.2804527	endLatch
-5.2804527	totalCounter
-4.8854747	"failed"
-5.6982975	"TestASynchronousObservable"
-5.2804527	onNextBeingSent
-4.806624	TestErrorObservable
-4.3071537	"six"
-4.01796	"five"
-4.7247224	o3
-4.7399135	"seven"
-4.7399135	"eight"
-5.1434937	o4
-4.7399135	"nine"
-5.1060047	valuesToReturn
-4.9818897	"throwing
-4.8854747	scheduler1
-4.931012	os1
-5.57659	createObservableOf5IntervalsOf1SecondIncrementsWithSubscriptionHook
-4.8854747	scheduler2
-4.931012	os2
-4.2637377	3L
-4.5964065	4L
-4.150699	child
-4.233806	onNextEvents
-5.57659	30000
-4.574737	generated1
-5.2804527	createInfiniteObservable
-5.1060047	generated2
-4.931012	testObserver
-6.1111116	"TestObserver
-4.2058053	=>
-3.3133767	bufferSize
-4.955706	"Generated
-5.0714955	1:
-5.2804527	2:
-3.8702362	>=
-5.57659	flush
-6.1111116	"---"
-6.1111116	backpressureUpstream2
-6.1111116	"done1
-6.1111116	testBackpressureBothUpstreamAndDownstreamWithRegularObservables
-6.1111116	"done2
-5.1060047	mergeNAsyncStreamsOfN
-4.4717226	1000000
-6.1111116	200000
-5.57659	outerSize
-5.2804527	innerSize
-5.184528	mergeNSyncStreamsOfN
-4.631084	generated
-4.771989	assertValueSequence
-5.2804527	runMerge
-5.57659	toScalar
-5.57659	toHiddenScalar
-4.755655	req
-4.907647	64
-5.3377423	256
-4.515547	remaining
-5.2804527	"test_value"
-5.1060047	"Test
-5.2804527	ObserverResourceWrapper
-5.1434937	orw
-5.6982975	doubleOnSubscribe
-5.0714955	"Premature
-4.771989	subscription"
-4.655843	withTag
-4.6820984	ObservableOnSubscribe
-4.515547	ObservableEmitter
-4.2058053	ConnectableObservable
-3.8619673	publish
-4.2149396	connection
-3.776717	connect
-5.0395284	"subscriptions
-4.907647	receive
-4.9818897	values"
-4.8854747	fast
-5.2804527	"^^^^^^^^^^^^^
-5.57659	FAST"
-4.844262	slow
-5.57659	SLOW"
-4.0328765	emitted
-4.585437	xs
-4.7247224	skipWhile
-5.2804527	xsp
-5.2804527	sourceEmission
-4.488725	sourceUnsubscribed
-5.1060047	share
-5.2804527	child1Unsubscribed
-5.184528	child2Unsubscribed
-5.184528	connection2
-5.3377423	ObservablePublish
-3.636929	current
-5.403754	connection1
-5.57659	connection3
-5.403754	checkPublishDisposed
-4.8854747	PublishConnection
-4.21958	conn
-5.6982975	tos
-5.57659	HasUpstreamObservableSource
-4.154699	autoConnect
-4.00925	assertValuesOnly
-4.274192	serialize
-5.4816303	ObservableCreate
-5.403754	CreateEmitter
-5.1060047	raceOther
-6.060758	ObservableDoAfterNextTest
-4.5964065	doAfterNext
-4.7247224	afterNext
-4.931012	to0
-4.077593	mergeWith
-5.2804527	513
-5.2804527	observerRef
-5.1060047	"main
-4.4974833	observers!"
-4.233806	"other
-4.7889614	observers"
-4.06434	predicate
-4.607661	alwaysFalse
-4.1236897	observable
-3.7274554	Mockito
-4.29036	|
-4.7247224	fromCompletable
-5.4816303	HasUpstreamCompletableSource
-4.119965	num
-4.655843	upstreamCount
-5.1434937	"boo"
-4.196859	testScheduler
-4.771989	TIME_UNIT
-5.0395284	setComputationSchedulerHandler
-3.9452255	time
-4.077593	skip
-4.7399135	subCount
-4.9818897	upperLatch
-4.9818897	lowerLatch
-4.9818897	onNextLatch
-4.9818897	upperCount
-4.9818897	lowerCount
-5.2804527	longs
-4.5248685	subscriptions
-5.229847	"There
-5.2804527	exactly
-5.229847	%d
-5.2804527	un-subscription
-5.57659	upper
-5.2804527	stream"
-5.57659	lower
-4.1837754	refCount
-5.57659	disposeCalled
-4.8250356	firstOrError
-3.5419972	R
-6.1111116	rightValues
-5.403754	rightValue
-5.57659	leftValue
-5.57659	MockitoAnnotations
-5.57659	openMocks
-4.585437	groupJoin
-5.0395284	add2
-5.1434937	17
-5.0097537	18
-5.184528	34
-5.57659	36
-5.403754	65
-5.403754	66
-5.57659	68
-5.1060047	Person
-5.403754	"Joe"
-6.1111116	"Mike"
-5.57659	"Charlie"
-4.7399135	PersonFruit
-5.57659	"Strawberry"
-5.57659	"Apple"
-5.57659	"Peach"
-5.0395284	PPF
-5.184528	just2
-4.931012	ppf
-5.57659	fruits
-5.1060047	person
-5.403754	personId
-5.403754	fruit
-4.844262	duration1
-4.5248685	left
-4.4717226	right
-3.7886586	l
-4.084374	exc
-4.806624	es
-5.2804527	JoinSupport
-5.0395284	js
-5.184528	LeftRightObserver
-5.3377423	innerValue
-4.931012	LeftRightEndObserver
-5.403754	innerClose
-4.1669226	lists
-4.8250356	observables
-3.947713	toList
-4.7399135	windowed
-3.4868438	window
-4.192454	windows
-5.2804527	toLists
-5.2804527	"zero"
-5.403754	500000
-4.955706	arg
-4.771989	random
-5.57659	"Hot
-5.57659	done."
-5.1060047	indicator
-5.57659	999999999
-5.57659	hotStream
-4.844262	startWithItem
-4.931012	22
-4.7399135	"Subject
-4.3954577	"-"
-5.57659	"1-2-3"
-5.57659	addToList
-4.1467366	e1
-4.631084	e2
-4.86438	Burst
-4.243556	items
-5.1060047	supplierListCreator
-5.2804527	biConsumerThrows
-3.947713	item
-4.9818897	added
-5.2804527	throwOnFirstOnly
-5.57659	collectInto
-5.6982975	ClassCastException
-5.4816303	MapNotificationObserver
-5.2804527	mn
-4.2149396	boundary
-4.127447	wo
-4.1837754	mo
-4.7889614	"source
-4.9818897	disposed"
-6.1111116	"boundary
-4.607661	refMain
-3.551911	replay
-3.7126865	observer1
-4.274192	60
-4.544134	dbl
-4.2242703	selector
-4.8854747	effectCounter
-5.2804527	"Sideeffect
-5.1434937	#"
-5.57659	"-
-5.57659	-%n"
-4.4096766	sourceNext
-4.544134	sourceCompleted
-4.806624	spiedSubscriberBeforeConnect
-4.806624	spiedSubscriberAfterConnect
-4.9818897	verifyObserverMock
-4.6820984	mockScheduler
-4.544134	mockObserverBeforeConnect
-4.544134	mockObserverAfterConnect
-4.9818897	sourceError
-4.9818897	mockFunc
-4.8854747	illegalArgumentException
-5.2804527	verifyObserver
-5.2804527	numItemsExpected
-4.6820984	notNull
-5.2804527	numSubscriptions
-5.3377423	spy
-5.57659	InprocessWorker
-5.1060047	mockDisposable
-4.424377	BoundedReplayBuffer
-3.5200195	buf
-4.7100444	private
-4.8250356	static
-4.86438	serialVersionUID
-6.1111116	5182053207244406872L
-5.3377423	truncate
-4.655843	addLast
-4.1162715	Node
-5.2804527	removeSome
-5.2804527	removeFirst
-4.6820984	SizeAndTimeBoundReplayBuffer
-4.771989	hasCompleted
-4.931012	hasError
-4.806624	SizeBoundReplayBuffer
-4.931012	"published
-4.7100444	being
-4.931012	executed"
-4.6820984	unsubscribe
-4.233806	output
-4.907647	firehose
-4.7247224	ObservableSource"
-4.574737	ObservableReplay
-4.931012	multicastSelector
-5.2804527	connectableFactory
-5.6982975	ConnectableObservable"
-3.5190887	buffer
-4.585437	trimHead
-4.1389174	byte
-4.233806	"Bounded
-4.233806	Replay
-4.233806	Leak
-4.233806	check:
-4.931012	Wait
-5.3377423	MemoryUsage
-5.1060047	memHeap
-4.931012	Starting:
-4.806624	GC
-4.631084	2"
-4.931012	After:
-4.931012	Memory
-4.931012	leak
-4.931012	detected:
-4.4717226	outerObserver
-3.866082	innerObserver
-5.2804527	70
-5.2804527	350
-4.771989	150
-4.196859	250
-5.2804527	125
-5.57659	175
-5.57659	225
-5.2804527	130
-5.2804527	"1-one"
-5.2804527	"1-two"
-5.403754	"1-three"
-5.4816303	25
-5.2804527	"2-one"
-5.2804527	"2-two"
-5.2804527	"2-three"
-5.2804527	isUnsubscribed
-6.1111116	"Switch
-6.1111116	propagate
-6.1111116	'unsubscribe'"
-5.57659	oneItem
-3.981418	src
-4.192454	switchMap
-6.1111116	">
-6.1111116	testIssue2654:
-5.0395284	switchMapDelayError
-4.844262	failure
-5.57659	1"
-5.4816303	3"
-6.1111116	flatten
-5.3377423	obs1
-5.403754	obs2
-3.9095278	ImmediateThinScheduler
-4.2849035	ref1
-4.5343947	ref2
-6.1111116	10_000
-4.8250356	SerializedObserver
-5.0395284	concat2Strings
-4.9818897	zipped
-4.9818897	"a-1"
-4.9818897	"b-2"
-5.1434937	24
-5.57659	ObservableOperator
-5.3377423	blockingMostRecent
-5.0714955	initialValue
-6.1111116	mostRecent
-4.3553967	"default"
-5.403754	observableCount
-5.184528	maxConcurrent
-4.506421	subscriptionCount
-5.2804527	SubscriptionCheckObservable
-5.403754	scos
-5.184528	sco
-5.403754	failed
-4.4801407	sourceList
-5.4816303	IoScheduler
-5.0395284	ios
-6.1111116	simpleAsync
-4.695847	c1
-6.1111116	"Worker
-5.6982975	leak:
-6.1111116	simpleOneLessAsync
-5.2804527	toMillis
-4.1795006	observer2
-5.57659	ok
-5.403754	"expected
-5.184528	failure!"
-5.57659	blocker
-4.806624	cons
-5.403754	ObservableBlockingSubscribe
-5.2804527	BlockingFirstObserver
-4.655843	run2
-5.4816303	"x"
-6.1111116	"XX"
-5.57659	toUpperCase
-4.506421	distinct
-5.2804527	TO_UPPER_WITH_EXCEPTION
-5.1060047	"C"
-5.2804527	"E"
-3.7229717	Collection
-5.0097537	nullWarning
-4.7100444	collectionSupplier
-5.0714955	Collection."
-4.01796	push
-4.9818897	110
-5.2804527	160
-4.9818897	210
-5.2804527	openings
-5.184528	closer
-5.57659	opening
-5.2804527	observeWindow
-4.771989	stringObservable
-4.655843	open
-4.361822	close
-3.968143	end
-5.1060047	"Start
-5.57659	"End
-5.403754	mainDisposed
-5.403754	openDisposed
-5.2804527	closeDisposed
-5.57659	observableDisposed
-6.1111116	"that's
-6.1111116	everything!"
-6.1111116	INDEX_LESS_THAN_THREE
-5.1060047	LESS_THAN_FIVE
-5.2804527	ys
-4.3187213	toArray
-4.0947485	assertArrayEquals
-5.2804527	oi
-5.2804527	concatBase
-4.2386537	x
-5.57659	"testRepeatRetarget
-5.2804527	"times
-5.57659	"Leak"
-4.907647	completions
-5.0714955	ignore
-4.388519	handler
-4.7399135	signaller
-6.1111116	refCountAsyncActual
-4.806624	subscribeCount
-4.755655	receivedCount
-6.060758	260
-5.57659	"onNext:
-6.1111116	Count:
-5.57659	-------->
-5.2804527	unsubscribeCount
-4.806624	"*******************************
-5.2804527	Subscribe
-4.771989	received"
-5.1060047	Unsubscribe
-5.2804527	subscribeLatch
-5.57659	synchronousInterval
-5.57659	"send
-5.57659	"DONE
-5.57659	sending
-5.2804527	...
-5.403754	waiting"
-5.403754	"Errors:
-5.1060047	"timed
-6.1111116	connectUnsubscribeRaceCondition
-5.0714955	subUnsubCount
-5.57659	SUBSCRIBE
-5.1060047	unsubscriptionCount
-5.403754	refCounted
-4.771989	longValue
-5.229847	6L
-5.2804527	7L
-4.86438	list3
-6.1111116	DisposingObserver
-5.184528	combined
-4.154699	combineLatest
-5.184528	intervalSubscribed
-5.57659	"Subscribing
-5.403754	"Some
-5.184528	"Observer
-5.0395284	onError:
-5.57659	1300
-5.2804527	awaitGC
-5.1060047	GC_SLEEP_TIME
-5.2804527	"%,3d
-5.2804527	%,3d%n"
-5.57659	ExceptionData
-5.57659	"subscribeActual"
-5.2804527	"dispose"
-5.6982975	"connect"
-6.1111116	BadObservableSubscribe
-5.0097537	bo
-6.1111116	BadObservableDispose
-6.1111116	BadObservableConnect
-6.1111116	BadObservableSubscribe2
-6.1111116	BadObservableConnect2
-6.060758	"to1
-6.060758	"to2
-5.57659	"Round:
-5.6982975	BadObservableDoubleOnX
-4.4717226	ProtocolViolationException
-5.403754	ObservableRefCount
-5.0097537	RefConnection
-4.2058053	rc
-4.6192145	subscriberCount
-5.0395284	connected
-6.1111116	TestConnectableObservable
-5.6982975	tco
-6.060758	"observer1
-6.060758	"observer2
-3.4894412	rs
-4.564295	shared
-5.184528	"5"
-5.184528	"7"
-4.931012	"4"
-5.184528	"6"
-4.931012	odds
-4.931012	even
-4.955706	"failed
-5.2804527	threads"
-6.1111116	"testNestedAsyncConcat
-6.1111116	nestedAsyncConcat
-5.184528	allowThird
-3.3559234	parent
-5.2804527	parentHasStarted
-5.184528	parentHasFinished
-4.931012	"Emit
-5.403754	o1"
-5.403754	o2"
-5.403754	o3"
-5.3377423	Observable"
-6.1111116	"Thread1
-5.184528	waitForThreadDone
-6.1111116	"Thread2
-6.1111116	"Parent
-6.1111116	didn't
-6.1111116	within
-6.1111116	limit"
-4.931012	callOnce
-4.771989	okToContinue
-5.1060047	concatF
-4.2535295	w1
-4.243556	w2
-6.1111116	47
-5.403754	okToContinueW1
-5.403754	okToContinueW2
-4.931012	seed
-5.57659	threadHasStarted
-4.424377	inOrder1
-4.330606	inOrder2
-4.907647	ExecutorService
-4.3683443	executor
-4.9818897	newFixedThreadPool
-5.2804527	"testIssue2890NoStackoverflow
-5.403754	awaitTerminationTimeout
-5.57659	100_000
-5.184528	"Completed
-5.1060047	"/"
-5.1060047	timed
-5.57659	milliseconds."
-5.2804527	durationSeconds
-5.0395284	startTime
-5.57659	"concatMapRangeAsyncLoop
-5.184528	2500
-5.184528	999
-3.9868433	concatMapDelayError
-4.7889614	concatMapIterable
-5.2804527	retryTwice
-5.57659	retryOnTestException
-5.2804527	ioe
-4.607661	te
-5.2804527	ObservableRetryTest
-5.2804527	SlowObservable
-5.57659	"testUnsubscribeAfterError"
-5.403754	retry5
-5.2804527	AsyncObserver
-3.690054	async
-5.2804527	threads,
-5.2804527	then
-5.184528	efforts
-5.3377423	"Only
-4.035922	active
-5.2804527	maxActive
-5.57659	"testTimeoutWithRetry"
-5.403754	80
-5.6982975	"You
-6.1111116	shall
-6.1111116	pass"
-5.1060047	throwException
-5.1060047	isFirst
-5.2804527	"map
-3.8960316	getAndSet
-5.2804527	"retryable
-4.6192145	error"
-5.0714955	forEach
-5.2804527	190
-6.1111116	95
-6.1111116	195
-5.1060047	98
-5.0395284	102
-5.57659	201
-3.9923377	wip
-6.060758	ObservableWindowWithSizeTest
-5.57659	done!"
-5.2804527	"inner
-5.403754	done:
-4.5964065	pv
-6.1111116	"timespan
-4.7247224	intervalRange
-4.515547	21
-4.506421	doOnNextDone
-4.506421	secondWindowProcessing
-4.1795006	flatMapSingle
-4.9818897	assertValueSet
-4.7399135	NumberFormatException
-4.771989	ScalarSupplier
-6.060758	checkDoubleOnSubscribeFlowableToObservable
-4.7399135	BUFFER
-5.0395284	DROP
-4.955706	LATEST
-4.4801407	ERROR
-4.2849035	last
-4.574737	lastElement
-4.7399135	mockMaybeObserver
-4.806624	lastOrError
-4.7247224	retryWhen
-4.424377	objectObserver
-4.119965	singleObserver
-4.381689	"bb"
-4.585437	"ccc"
-4.506421	"dddd"
-3.6633272	Map
-4.1389174	mapped
-4.5964065	toMap
-4.4395924	lengthFunc
-4.119965	HashMap
-5.2804527	duplicate
-4.9818897	"aa"
-5.2804527	"bbbb"
-5.2804527	"cccccc"
-5.2804527	"dddddddd"
-4.9818897	lengthFuncErr
-4.4634643	Failure"
-4.9818897	duplicateErr
-4.631084	mapFactory
-4.771989	LinkedHashMap
-5.2804527	3296811238780863394L
-4.9818897	removeEldestEntry
-4.86438	Entry
-4.9818897	eldest
-5.403754	aAction0
-5.57659	checkActionCalled
-6.1111116	"expected"
-5.0097537	iterable
-5.403754	completableComplete
-5.6982975	completableError
-6.060758	completableThrows
-5.57659	uc
-6.1111116	EmptyDisposingObservable
-5.57659	"I
-5.57659	don't
-5.57659	work."
-4.655843	"first
-6.1111116	w1"
-6.1111116	w2"
-4.4553604	w3
-5.1060047	combineLatestW
-5.403754	getConcat3StringsCombineLatestFunction
-5.184528	"1a"
-5.184528	"2a"
-5.184528	"3a"
-5.184528	"2b"
-5.403754	"3b"
-5.57659	"3c"
-5.57659	"3d"
-5.403754	"1a2a3a"
-5.57659	"1a2b3a"
-6.1111116	"1a2b3b"
-6.1111116	"1a2b3c"
-6.1111116	"1a2b3d"
-5.403754	"1b"
-5.57659	"1c"
-5.57659	"1d"
-6.1111116	"1d2b3a"
-6.1111116	"2c"
-6.1111116	"2d"
-6.1111116	"1b2b3a"
-6.1111116	"1b2c3a"
-6.1111116	"1b2d3a"
-6.1111116	"1b2d3b"
-4.844262	combineLatestFunction
-5.6982975	getConcatStringIntegerCombineLatestFunction
-5.6982975	"two2"
-5.4816303	"two3"
-5.6982975	"two4"
-5.57659	getConcatStringIntegerIntArrayCombineLatestFunction
-6.1111116	"two2[4,
-5.403754	5,
-5.403754	6]"
-5.57659	"one2[4,
-6.1111116	"one2[7,
-6.1111116	8]"
-4.7399135	a2
-4.7399135	a3
-4.585437	getStringValue
-5.1060047	iArray
-5.1060047	or
-5.403754	0x10
-5.403754	0x12
-5.403754	0x20
-5.403754	0x22
-5.57659	0x30
-6.1111116	0x1
-6.1111116	0x2
-6.1111116	"test1ToNSources:
-5.57659	sources"
-6.1111116	"test1ToNSourcesScheduled:
-4.7399135	s3
-4.2637377	t3
-4.806624	s4
-4.330606	t4
-4.8854747	s5
-4.381689	t5
-4.9818897	s6
-4.6820984	t6
-5.1060047	s7
-4.806624	t7
-5.2804527	s8
-4.9818897	t8
-5.57659	s9
-5.2804527	t9
-5.1060047	SIZE
-4.424377	doOnEach
-5.2804527	out"
-4.806624	combineLatestArray
-4.931012	"[1,
-5.1060047	2]"
-5.0395284	combineLatestArrayDelayError
-4.7100444	combineLatestDelayError
-5.2804527	errorList
-6.1111116	emptyObservable
-6.1111116	errorObservable
-4.771989	integerNotification
-5.57659	"emptyObservable:
-5.1060047	doFinally"
-5.57659	"errorObservable:
-5.184528	objects
-5.2804527	"combineLatestDelayError:
-4.9818897	"ps1
-4.9818897	"ps2
-6.1111116	"xx"
-4.607661	distinctUntilChanged
-5.57659	compareToIgnoreCase
-5.1060047	Mutable
-5.57659	unsubscribeAction
-4.755655	isA
-4.806624	reduced
-4.1018047	reduce
-4.7100444	i1
-4.7100444	i2
-4.955706	"some
-4.755655	skipUntil
-5.57659	905
-4.955706	throttleFirst
-5.403754	501
-5.0097537	1001
-5.57659	1501
-4.907647	subscribedObserver
-5.0714955	sideEffectObserver
-4.907647	base
-5.57659	errs
-4.844262	expectedCount
-5.403754	TRUE
-5.2804527	FALSE
-5.403754	booleans
-4.8250356	exceptions
-6.1111116	Builder
-4.361822	future
-4.295886	"unit
-6.1111116	synthetic
-6.1111116	cancellation"
-4.196859	isDone
-5.57659	futureObservable
-5.2804527	waitToFinish
-5.1060047	BusyObserver
-4.607661	busyobserver
-6.1111116	multiThreadedWithNPE
-5.57659	"maxConcurrentThreads:
-6.1111116	multiThreadedWithNPEinMiddle
-5.403754	lessThan9
-6.1111116	count:
-6.1111116	numStringsToSend
-6.1111116	"aString"
-5.57659	waitOnThese
-5.57659	"Error
-6.1111116	CompletionThread"
-5.57659	TestConcurrencyobserverEvent
-6.1111116	"mocked
-5.4816303	"Expecting
-6.1111116	either
-5.0395284	onComplete"
-5.403754	">>>
-5.403754	Busyobserver
-5.57659	BlockingObservableNext
-5.0395284	fireOnNextInNewThread
-6.1111116	"Calling
-6.1111116	next()
-6.1111116	without
-6.1111116	hasNext()
-6.1111116	wait
-6.1111116	fire"
-5.1060047	"At
-5.1060047	NoSuchElementException"
-5.57659	fireOnErrorInNewThread
-4.8854747	"Expected
-5.184528	TestException"
-5.403754	assertErrorAfterObservableFail
-6.1111116	"hasNext
-5.0395284	"next
-5.2804527	COUNT
-5.184528	timeHasPassed
-5.184528	running
-6.1111116	"a
-6.1111116	8000
-5.57659	"c
-5.2804527	sequence"
-5.403754	that
-6.1111116	["
-6.1111116	"]
-6.1111116	higher
-4.7247224	than
-6.1111116	"a:
-6.1111116	b:
-6.1111116	c:
-5.2804527	pow
-5.3377423	terminal
-5.403754	NextIterator
-6.1111116	"th
-5.57659	iteration
-6.1111116	next"
-5.229847	NextObserver
-5.1060047	setWaiting
-5.403754	takeNext
-4.00925	getValue
-5.1434937	isOnComplete
-5.2804527	scheduled
-5.2804527	doneLatch
-6.1111116	SlowInner
-5.2804527	actualInner
-5.229847	common
-5.403754	delayUnit
-5.0097537	compareTo
-5.57659	performTestUsing
-4.330606	Resource
-4.077593	resource
-4.655843	getTextFromWeb
-5.0714955	"Hello
-5.2804527	world!"
-4.6820984	resourceFactory
-4.655843	observableFactory
-5.1060047	res
-4.755655	split
-5.1060047	DisposeAction
-5.57659	disposeEagerly
-5.403754	"world!"
-5.57659	performTestUsingWithSubscribingTwice
-5.403754	"Nothing"
-5.57659	performTestUsingWithResourceFactoryError
-5.57659	disposeSubscription
-6.1111116	performTestUsingWithObservableFactoryError
-6.1111116	it"
-5.2804527	createResourceFactory
-5.1060047	completion
-5.57659	createOnCompletedAction
-5.2804527	createUnsubAction
-5.0395284	"disposed"
-4.6820984	"completed"
-5.57659	createOnErrorAction
-5.57659	"unsub"
-5.184528	"hello
-5.403754	world"
-4.8250356	sourceSupplier
-4.607661	timeoutFunc
-5.57659	firstTimeoutFunc
-5.1060047	observerReceivedTwo
-5.1060047	timeoutEmittedOne
-5.2804527	observerCompleted
-5.1060047	enteredTimeoutOne
-4.8854747	latchTimeout
-5.57659	doAnswer
-6.1111116	"CoundDownLatch
-6.1111116	timeout"
-5.0395284	timeoutAndFallback
-6.060758	checkDoubleOnSubscribeObservableToCompletable
-4.6820984	zipr
-4.3553967	toFunction
-5.57659	getConcatStringIntegerIntArrayZipr
-4.8854747	ws
-5.403754	java
-6.1111116	util
-5.2804527	zipW
-5.57659	getConcat3StringsZipr
-4.6820984	zipr2
-5.2804527	"world"
-5.2804527	"helloworld"
-5.403754	"again"
-6.1111116	again"
-5.57659	"hi"
-6.1111116	"hello1"
-5.403754	r3
-6.1111116	zipr3
-6.1111116	"hello2[5,
-6.1111116	6,
-6.1111116	7]"
-5.57659	"oneA"
-6.1111116	"twoB"
-6.1111116	"threeC"
-6.1111116	"D"
-6.1111116	"fourD"
-5.57659	"helloagain"
-6.1111116	getConcatStringIntegerZipr
-6.1111116	"one2"
-6.1111116	getDivideZipr
-4.6820984	oA
-4.544134	oB
-5.57659	getConcat2Strings
-5.4816303	"a1"
-5.4816303	"b1"
-5.57659	"a1-b1"
-5.57659	"b2"
-5.57659	"a2"
-5.57659	"a2-b2"
-5.57659	"a3"
-5.57659	"a4"
-5.57659	"a5"
-5.57659	"b3"
-5.57659	"b4"
-5.57659	"b5"
-6.1111116	"a3-b3"
-6.1111116	"a4-b4"
-6.1111116	"a5-b5"
-5.57659	"b6"
-5.57659	"b7"
-5.57659	"b8"
-5.57659	"b9"
-4.8854747	"forced
-5.403754	OBSERVABLE_OF_5_INTEGERS
-4.3954577	zipWith
-5.403754	"1-1"
-5.403754	"2-2"
-5.403754	"5-5"
-5.403754	ASYNC_OBSERVABLE_OF_INFINITE_INTEGERS
-5.6982975	infiniteObservable
-6.1111116	"didn't
-4.4025087	notification
-5.0395284	isOnError
-6.1111116	"OnError"
-4.755655	isOnNext
-6.1111116	"OnNext"
-5.1060047	"OnComplete"
-5.1060047	"null"
-5.2804527	kind
-5.0395284	"_"
-6.1111116	"OnNext_1-OnNext_a"
-6.1111116	"OnNext_2-OnNext_b"
-6.1111116	"OnNext_3-OnNext_c"
-6.1111116	"OnComplete_null-OnComplete_null"
-4.8854747	invoked
-4.8250356	argument
-4.931012	been
-5.1060047	passed"
-4.844262	generatedA
-4.844262	generatedB
-5.57659	A:
-5.57659	B:
-5.57659	numEmitted
-4.955706	yield
-5.403754	"------->
-5.1060047	infinite
-5.403754	"Starting
-4.7889614	thread:
-5.403754	"Ending
-5.57659	zip1
-5.2804527	1026
-5.57659	zip2
-5.57659	9000
-5.6982975	"929"
-4.86438	arr
-4.844262	1,
-5.2804527	1]"
-4.4634643	substring
-5.57659	"RxSi"
-5.57659	"RxCo"
-5.57659	observableList
-4.806624	verifyResult
-4.9818897	verifyError
-5.184528	onSubscribed
-5.184528	countBefore
-5.184528	countAfter
-5.2804527	sref
-6.1111116	TestObservableFunc
-5.57659	INFINITE_OBSERVABLE
-5.57659	"Emit:
-5.57659	"Receive:
-4.607661	op
-4.806624	"count
-5.403754	8L
-5.403754	9L
-5.57659	IntervalObserver
-4.7100444	sSource
-4.7100444	sOther
-4.7100444	sendOnNext
-5.2804527	sendOnCompleted
-5.57659	sendOnError
-4.668772	until
-5.3377423	"Until
-4.585437	underlyingSubject
-5.0395284	withTimeout
-4.931012	TIMEOUT
-5.184528	exit
-5.184528	timeoutSetuped
-5.57659	observableWithTimeout
-5.4816303	isTerminated
-4.4096766	"cc"
-4.4717226	"dd"
-4.5540977	toMultimap
-5.2804527	"cccc"
-4.585437	"eee"
-4.9818897	"fff"
-5.2804527	2084477070717362859L
-4.7100444	collectionFactory
-4.668772	mapSupplier
-4.3749657	skipLast
-4.2637377	GroupedObservable
-4.8854747	grouped
-3.9895818	groupBy
-5.57659	sourceStrings
-5.57659	errorSource
-4.806624	groupCounter
-4.381689	eventCounter
-5.2804527	"Event
-5.403754	key:
-4.1236897	getKey
-5.184528	value:
-5.229847	ConcurrentHashMap
-4.5343947	K
-4.4634643	V
-4.9818897	ConcurrentLinkedQueue
-4.585437	subscribeCounter
-5.0395284	groupCount
-3.9578078	Event
-5.57659	Subscribing
-5.57659	EventStream
-5.57659	***"
-5.184528	"Event-"
-4.755655	eventGroupedObservable
-6.1111116	"GroupedObservable
-5.2804527	Key:
-5.2804527	"Source:
-4.7100444	Message:
-5.1060047	outputMessage
-4.631084	sentEventCounter
-5.57659	doTestUnsubscribeOnNestedTakeAndAsyncInfiniteStream
-5.184528	SYNC_INFINITE_OBSERVABLE_OF_EVENT
-5.57659	39
-6.1111116	ASYNC_INFINITE_OBSERVABLE_OF_EVENT
-4.7399135	"testUnsubscribe
-4.806624	Source:
-6.1111116	likely
-6.1111116	correctly"
-4.806624	"=>
-6.1111116	58
-4.9818897	numToTake
-6.1111116	37
-4.1467366	group
-6.1111116	completion"
-5.1060047	eventStream
-4.488725	results
-4.7100444	groups:
-4.931012	"last
-4.931012	group:
-5.184528	"Results:
-6.1111116	"----------------------------------------------------------------------------------------------"
-5.403754	"subscribeOn
-5.57659	"outer
-5.184528	"Received:
-5.57659	"notification
-6.1111116	source:
-6.1111116	message:
-5.403754	numGroups
-3.9282007	stream
-5.229847	IS_EVEN
-5.229847	4000
-5.403754	IS_EVEN2
-4.931012	even."
-4.931012	odd."
-6.1111116	foo"
-6.1111116	FoO
-6.1111116	"baR
-6.1111116	"foO
-6.1111116	Baz
-6.1111116	qux
-6.1111116	bar"
-6.1111116	BAR
-6.1111116	"FOO
-6.1111116	"baz
-6.1111116	bAZ
-6.1111116	fOo
-5.57659	keysel
-4.5964065	trim
-5.1060047	toLowerCase
-5.57659	valuesel
-5.57659	"----------->
-5.57659	NEXT:
-6.1111116	"ts
-6.1111116	.get
-5.403754	"foo-0"
-5.57659	"foo-1"
-5.57659	"bar-0"
-5.57659	"baz-0"
-6.1111116	"qux-0"
-6.1111116	"bar-1"
-6.1111116	"baz-1"
-5.2804527	FLATTEN_INTEGER
-5.1060047	"////////////////////
-5.403754	COMPLETED-A"
-5.403754	COMPLETED-B"
-5.57659	"NEXT:
-6.1111116	"uninitialized"
-5.4816303	groupedObservable
-6.1111116	"Oops"
-5.2804527	inner1
-5.2804527	inner2
-6.1111116	"Round
-4.3187213	groups
-4.9818897	receivedException
-5.57659	"injected
-4.8854747	resume
-4.771989	"twoResume"
-4.771989	"threeResume"
-5.2804527	"exception
-5.2804527	function"
-5.1060047	"BadMapper:"
-5.2804527	numbers
-5.2804527	NITERS
-5.2804527	iters
-5.2804527	innerLatch
-5.403754	integerObservable
-6.1111116	integers
-6.1111116	wait,
-6.1111116	"Incomplete!
-6.1111116	Went
-6.1111116	through
-4.4717226	getCount
-6.1111116	iterations"
-4.7399135	forEachWhile
-5.184528	OnErrorNotImplementedException
-4.2849035	with
-5.184528	parentThreadName
-4.8854747	completedLatch
-4.806624	threadName
-5.2804527	ThreadName:
-5.1060047	correctThreadName
-5.57659	"RxNewThreadScheduler"
-5.57659	Correct
-4.7100444	_multiple
-5.1060047	name:
-5.0714955	"Rx"
-5.57659	randomIntFrom0to100
-5.2804527	nextLatch
-5.184528	completeTime
-4.844262	"onComplete"
-5.1060047	nanoTime
-5.2804527	"it
-5.2804527	shouldn't
-5.403754	afterSubscribeTime
-5.6982975	"After
-5.57659	subscribe:
-4.844262	"onComplete
-6.1111116	nanos
-5.1060047	^=
-4.607661	<<
-5.3377423	35
-5.4816303	ObserveOnObserver
-4.3954577	oo
-4.274192	SimpleQueue
-5.1060047	Nullable
-4.806624	DisposeTrackingScheduler
-5.0714955	disposedCount
-6.060758	TestObserverFusedCanceling
-4.7399135	buffered
-5.0395284	anyList
-5.57659	97
-5.57659	LongTimeAction
-5.403754	61
-5.4816303	DisposableObserver
-5.1060047	createArrayList
-4.544134	openIndicator
-4.564295	closeIndicator
-5.6982975	BufferExactUnboundedObserver
-4.6432867	enter
-5.3377423	BufferSkipBoundedObserver
-5.6982975	BufferExactBoundedObserver
-4.907647	producerIndex
-5.57659	BufferExactObserver
-4.585437	notifications
-5.229847	-1"
-4.4717226	MIN_VALUE
-5.403754	"Overflow!
-5.403754	bigger
-5.403754	Long.MAX_VALUE"
-5.2804527	sumErr
-5.3377423	reduceWith
-4.655843	delayed
-5.184528	500L
-5.403754	1499L
-4.4717226	anyLong
-5.403754	1500L
-5.57659	2400L
-5.403754	2500L
-5.57659	3400L
-5.403754	3500L
-6.1111116	5999L
-6.1111116	6000L
-6.1111116	6999L
-6.1111116	7000L
-6.1111116	7999L
-6.1111116	8000L
-5.57659	"error!"
-6.1111116	1999L
-5.57659	2000L
-6.1111116	5000L
-6.1111116	2499L
-5.184528	delays
-4.544134	delayFunc
-5.0395284	subFunc
-5.2804527	sdelay
-5.403754	delayer
-4.7100444	subjects
-5.184528	itemDelay
-4.695847	ps3
-4.9818897	resFunc
-4.3428245	flatMapIterable
-5.1060047	just0
-5.57659	funcThrow
-5.57659	funcThrow0
-5.229847	"Too
-5.229847	many
-5.57659	subscriptions!
-5.57659	unsubscriptions!
-5.0097537	composer
-5.229847	41
-5.229847	51
-6.1111116	71
-6.1111116	81
-6.1111116	91
-5.184528	containsAll
-6.1111116	1010
-6.1111116	1011
-6.1111116	2020
-6.1111116	2021
-6.1111116	3030
-6.1111116	3031
-6.1111116	4040
-6.1111116	4041
-6.1111116	5050
-6.1111116	5051
-6.1111116	6060
-6.1111116	6061
-6.1111116	7070
-6.1111116	7071
-6.1111116	8080
-6.1111116	8081
-6.1111116	9090
-6.1111116	9091
-6.1111116	10100
-6.1111116	10101
-6.1111116	"-->
-6.1111116	testFlatMapSelectorMaxConcurrent:
-6.1111116	"testFlatMapTransformsMaxConcurrentNormalLoop
-6.1111116	flatMapTransformsMaxConcurrentNormal
-6.1111116	"flatMapRangeAsyncLoop
-4.9818897	Random
-5.0097537	rnd
-5.57659	nextBoolean
-6.1111116	missing"
-6.1111116	"flatMapTwoNestedSync
-5.57659	Iterable"
-5.4816303	fusedSource
-5.3377423	ObservableFlatMap
-5.6982975	MergeObserver
-4.955706	merger
-4.506421	drainLoop
-4.695847	12
-4.931012	14
-4.8854747	23
-5.57659	ps4
-4.4096766	subscribers?"
-5.3377423	"Has
-4.695847	throttleLatest
-4.8250356	onCancel
-5.57659	TimerObserver
-5.6982975	tm
-5.57659	newSlowProcessor
-4.3428245	onStart
-5.1060047	producer
-5.2804527	getAndDecrement
-5.403754	attempts
-4.4717226	Tuple
-5.403754	"Retry
-5.1060047	#
-4.6820984	numRetries
-4.4395924	origin
-4.806624	FuncWithErrors
-4.755655	"beginningEveryTime"
-4.7889614	"onSuccessOnly"
-5.2804527	inc
-5.403754	attempt
-6.1111116	output"
-6.1111116	"Subscribe
-5.6982975	once"
-4.7889614	numFailures
-5.1060047	record
-5.4816303	failure:
-4.564295	subsCount
-5.403754	streamWithRetry
-6.1111116	context
-5.2804527	nr
-5.57659	emitDelay
-5.57659	nextBeforeFailure
-5.57659	"expected-failed"
-6.1111116	interrupted"
-5.0097537	target
-5.2804527	NUM_LOOPS
-5.2804527	NUM_RETRIES
-5.2804527	ncpu
-5.3377423	availableProcessors
-6.1111116	"testRetryWithBackpressureParallelLoop
-5.2804527	timeouts
-5.0714955	data
-5.2804527	nexts
-5.57659	!!!
-6.1111116	"Data
-5.57659	content
-6.1111116	mismatch:
-6.1111116	allSequenceFrequency
-6.1111116	its
-5.403754	entrySet
-4.544134	",
-6.1111116	"={"
-6.1111116	sequenceFrequency
-5.0714955	"}"
-4.607661	prev
-4.844262	cnt
-4.3366723	curr
-5.0097537	NUM_MSG
-5.57659	1034
-5.57659	"msg:
-5.57659	lang
-5.57659	"msg:"
-5.1434937	retryUntil
-4.3490653	withLatestFrom
-4.9818897	COMBINER
-6.1111116	COMBINER_ERROR
-5.403754	"="
-4.844262	"[2,
-4.8854747	a,
-4.8854747	A,
-4.7399135	=]"
-5.229847	"[3,
-5.2804527	b,
-5.2804527	B,
-5.57659	"ps3
-4.7100444	val
-3.9923377	combiner
-6.1111116	1250
-5.0395284	TimesteppingScheduler
-5.57659	stepEnabled
-5.184528	BlockingObservableIterator
-4.631084	cb
-4.7399135	BrokenBarrierException
-4.9818897	capturedException
-5.403754	"failure"
-5.403754	"resume"
-5.1434937	defaultIfEmpty
-4.3014836	concatMapEager
-4.544134	concatMapEagerDelayError
-5.229847	toJust
-6.1111116	toRange
-4.755655	Method
-4.955706	getMethod
-6.060758	"concatArrayEager"
-4.771989	invoke
-5.57659	"bufferSize
-5.403754	lst
-5.403754	nextInt
-4.424377	generate
-4.8854747	ObservableInternalHelper
-5.6982975	MapToInt
-4.8854747	TestAsyncErrorObservable
-5.57659	TestLocalObserver
-4.695847	getError
-5.229847	"subscription
-5.2804527	complete"
-5.57659	CaptureObserver
-6.1111116	test"
-5.2804527	path"
-6.1111116	"interrupted"
-5.403754	errorThrown
-5.57659	TestASynchronous1sDelayedObservable
-6.1111116	parentObservable
-5.57659	parent"
-6.060758	"testErrorInParentObservableDelayed
-5.2804527	UIEventLoopScheduler
-4.8854747	uiEventLoop
-5.2804527	ThreadSubscription
-4.806624	subscribeThread
-4.86438	unsubscribeThread
-5.184528	getThread
-5.57659	"unsubscribeThread:
-5.57659	"subscribeThread.get():
-6.1111116	"UI
-6.1111116	"unsubscribe
-6.1111116	invoked:
-6.1111116	eventLoop
-4.3749657	wm
-5.2804527	IS_D
-5.1434937	ObservableCache
-5.403754	connected!"
-5.403754	isConnected
-5.57659	"Subscribers
-5.57659	cachedEventCount
-5.57659	ObservableDoFinallyTest
-5.1060047	"finally"
-5.0097537	"onNext"
-5.184528	"onError"
-4.931012	dst
-4.3366723	rangeLong
-5.0714955	IllegalArgumentException"
-5.57659	5495454L
-5.6982975	checkFusedIsEmptyClear
-4.631084	switchIfEmpty
-5.403754	withProducer
-5.3377423	42L
-4.631084	"RxSingleScheduler"
-5.403754	890
-5.403754	120
-4.931012	exp"
-4.931012	"RxSingleScheduler-"
-3.7040606	flowable
-3.600677	processor
-4.330606	print
-5.6982975	"concatArray"
-5.6982975	"startWithArray"
-4.564295	ts0
-4.431918	sample
-6.1111116	400L
-6.1111116	800L
-6.1111116	1200L
-6.1111116	1600L
-6.1111116	3000L
-4.243556	sampler
-5.57659	throttleLast
-4.3749657	all
-5.2804527	allOdd
-5.2804527	"Boo!"
-5.0395284	"one-"
-5.1060047	"two-"
-5.403754	"three-"
-5.184528	"one-1"
-5.2804527	"two-2"
-6.1111116	"three-3"
-4.86438	"Not
-5.1060047	supported
-5.1060047	yet."
-6.1111116	"Omg
-6.1111116	I'm
-6.1111116	calculating
-6.1111116	hard:
-5.4816303	"*"
-5.57659	SquareStr
-5.403754	squareStr
-6.1111116	printer
-4.7399135	sr
-6.060758	stringObserver2
-4.931012	m1
-4.7399135	getMap
-4.931012	m2
-4.931012	"firstName"
-5.403754	"OneFirst"
-5.403754	"TwoFirst"
-5.57659	ids
-5.2804527	subObservable
-5.1060047	m3
-5.403754	"Three"
-5.1060047	m4
-5.403754	"Four"
-5.57659	"ThreeFirst"
-5.57659	"FourFirst"
-5.57659	arg0
-5.2804527	"any
-5.1060047	prefix
-6.1111116	"lastName"
-6.1111116	"Last"
-5.6982975	950
-5.6982975	1050
-4.6820984	toSortedList
-4.844262	Comparator
-4.806624	compare
-4.955706	sorted
-5.2804527	anyEven
-5.57659	FlowableMapNotification
-5.4816303	MapNotificationSubscriber
-4.424377	objectSubscriber
-3.4946833	mockSubscriber
-3.7054863	subscriber1
-4.0982623	subscriber2
-4.5964065	doOnRequest
-4.695847	LongConsumer
-4.3014836	tsBp
-5.6982975	reqCount
-4.655843	rebatchRequests
-4.6192145	pp3
-6.1111116	withBackpressureOneByOne
-6.1111116	withBackpressureAllAtOnce
-4.1837754	DefaultSubscriber
-6.1111116	5495454
-4.9818897	conditional
-6.1111116	FlowableDebounceTimed
-4.607661	checkBadSourceFlowable
-3.9951112	BehaviorProcessor
-6.060758	org
-6.060758	reactivestreams
-5.57659	DebounceTimedSubscriber
-4.585437	TestFlowable
-5.0395284	"TestFlowable
-5.6982975	backpressure
-4.9818897	errorOccurred
-6.1111116	THROW_NON_FATAL
-5.184528	types
-5.4816303	forName
-6.1111116	"io.reactivex.rxjava3.functions.Function"
-6.060758	"combineLatest"
-4.655843	params
-5.1060047	ArgsToString
-6.1111116	'1'
-5.403754	params0
-5.3377423	clone
-5.4816303	InvocationTargetException
-6.1111116	"source"
-4.5343947	"combiner
-6.1111116	emptyFlowable
-6.1111116	errorFlowable
-5.57659	"emptyFlowable:
-5.57659	"errorFlowable:
-6.1111116	"pp1
-6.1111116	"pp2
-3.776717	parallel
-3.8558671	sequential
-4.3014836	FlowableProcessor
-5.6982975	BlockingFlowableNext
-5.2804527	NextSubscriber
-5.403754	SimpleScalarSubscription
-5.403754	flowableOfFlowables
-5.3377423	Flowable"
-5.403754	awaitTerminationTimeoutMillis
-4.108978	f2
-6.060758	InfiniteIterator
-4.506421	FlowableOnSubscribe
-4.388519	FlowableEmitter
-4.4395924	maybe
-5.4816303	checkDoubleOnSubscribeFlowableToMaybe
-5.57659	TestNotificationSubscriber
-3.947713	elements
-3.742744	ts2
-4.077593	ConnectableFlowable
-5.4816303	itemCount
-5.0395284	*=
-5.4816303	concurrency
-6.060758	"itemCount="
-6.060758	concurrency="
-4.077593	GroupedFlowable
-4.755655	eventGroupedFlowable
-6.1111116	"GroupedFlowable
-6.1111116	"testgroupByBackpressure2
-5.4816303	groupedFlowable
-5.0395284	evictingMapFactory
-5.0714955	notify
-6.1111116	tick
-6.1111116	createEvictingMapFactorySynchronousOnly
-6.1111116	addCompletedKey
-5.6982975	Cache
-5.4816303	cacheOut
-6.060758	createEvictingMapFactoryGuava
-5.57659	numValues
-6.060758	mod5
-6.060758	0.9
-6.060758	invalidateAll
-6.1111116	TestTicker
-5.57659	testTicker
-5.403754	CacheBuilder
-5.403754	newBuilder
-6.1111116	expireAfterAccess
-5.403754	removalListener
-5.57659	RemovalListener
-5.57659	onRemoval
-5.57659	RemovalNotification
-6.1111116	ticker
-5.403754	build
-5.403754	asMap
-5.1434937	canceled"
-5.2804527	"Group
-6.1111116	awaitCount
-5.229847	toNanos
-6.1111116	containsKey
-6.060758	containsValue
-4.6820984	maxSize
-6.060758	evictedListener
-5.184528	entry
-5.6982975	maximumSize
-6.1111116	SingleThreadEvictingHashMap
-5.4816303	object
-5.57659	2048
-4.488725	runOn
-4.9818897	tss
-4.955706	FlowableTransformer
-5.57659	operation
-6.1111116	issue6974Run
-5.1060047	500_000
-6.1111116	iterations
-5.3377423	sizeCap
-6.060758	notifyOnExplicitRevoke
-4.844262	gf
-6.060758	flatMapConcurrency
-5.57659	itemEvictConsumer
-6.060758	maxCapacity
-6.1111116	RemovalCause
-6.1111116	EXPLICIT
-6.060758	notifyOnExplicit
-4.907647	groupByBufferSize
-5.0097537	notifyOnExplicitEviction
-4.806624	flatMapMaxConcurrency
-6.1111116	issue6974RunPart2
-6.060758	issue6974RunPart2NoEvict
-5.57659	"Cancelling
-5.57659	upstream"
-5.1434937	1_000_000
-6.060758	expireAfterWrite
-6.060758	ttl
-6.060758	com
-6.060758	google
-6.1111116	ttlCapGuava
-6.1111116	Duration
-6.1111116	ofMillis
-4.8854747	FlowableInternalHelper
-5.229847	checkEnum
-6.1111116	RequestMax
-6.1111116	"PublishProcessor
-5.57659	Subscribers?!"
-4.5248685	emptySet
-5.1060047	empty!"
-6.1111116	non-empty!"
-5.6982975	600L
-6.1111116	"Share:
-5.184528	FlattenIterableSubscriber
-4.955706	"first"
-5.1060047	cmp
-6.1111116	TestFlowableFunc
-4.86438	onBackpressureDrop
-5.403754	FlowableOnBackpressureError
-5.0395284	subscribed?"
-5.57659	"Subscribed?"
-4.312899	ConditionalSubscriber
-4.361822	tryOnNext
-4.9818897	"Processor
-5.3377423	FlowableEventStream
-5.1060047	getEventStream
-5.2804527	"HTTP-ClusterB"
-4.6820984	accum
-5.184528	perInstanceEvent
-5.184528	"instance"
-5.0395284	instanceId
-5.57659	throwingBiFunction
-5.403754	n1
-5.6982975	n2
-5.403754	SUM
-5.229847	scanWith
-6.060758	throwingSupplier
-4.7399135	onBackpressureReduce
-5.4816303	TEST_INT_REDUCER
-5.6982975	168
-6.060758	67
-5.403754	nextDouble
-5.403754	0.001
-5.6982975	"testAsynchronousDrop
-5.6982975	"All
-5.6982975	received?"
-6.1111116	totalValues
-4.955706	previous
-5.57659	sequence
-5.57659	must
-5.6982975	increasing
-5.6982975	[current
-5.3377423	value="
-5.0714955	"]"
-5.57659	createDelayedSubscriber
-5.57659	assertValuesDropped
-6.1111116	assertIncreasingSequence
-6.1111116	sum:
-6.1111116	5000050000L
-4.4395924	reducer
-5.6982975	TEST_OBJECT_REDUCER
-6.1111116	performTestUsingWithFlowableFactoryError
-4.6820984	Publisher"
-5.403754	"Cancel"
-6.060758	"ResourceCancel"
-6.060758	"CancelResource"
-4.0035396	stringSubscriber
-6.060758	stringSubscriber2
-5.2804527	subFlowable
-5.2804527	flowable1
-5.2804527	flowable2
-6.1111116	MySubscriber
-5.6982975	"n
-5.229847	10L
-4.8854747	l1
-4.9818897	l2
-4.127447	MulticastProcessor
-3.7490134	mp
-4.4974833	MulticastSubscription
-4.806624	errorAll
-5.6982975	completeAll
-3.5787988	drain
-5.6982975	OutputCanceller
-6.1111116	1000001
-5.229847	FlowableBlockingSubscribe
-5.0395284	strategy
-5.3377423	emitterMap
-5.3377423	FlowableCreate
-6.1111116	MissingEmitter
-6.1111116	ErrorAsyncEmitter
-6.1111116	DropAsyncEmitter
-6.1111116	LatestAsyncEmitter
-6.1111116	BufferAsyncEmitter
-5.403754	delayUntil
-5.6982975	DisposableSubscriber
-6.1111116	DisposableCompletableObserver
-6.1111116	anyBoolean
-4.607661	FutureTask
-5.3377423	justCallable
-5.57659	pp4
-5.2804527	FlowableFlatMap
-4.931012	InnerSubscriber
-4.3187213	EmptySubscription
-6.060758	ScalarEmptyCancel
-5.0714955	FlowableCache
-6.060758	other"
-5.4816303	withError
-5.2804527	cex
-6.060758	PublishAsyncEmitter
-4.4169645	sourceNoCancel
-6.060758	PublishAsyncEmitterNoCancel
-6.1111116	"create:
-6.1111116	could
-4.7100444	due
-4.771989	lack
-4.86438	requests"
-5.1434937	ResourceSubscriber
-5.57659	"TestSubscriber
-3.3795433	cf
-5.1060047	mockSubscription
-4.8854747	spiedWorker
-5.57659	workerSpy
-5.6982975	9081211580719235896L
-5.57659	90L
-4.8854747	ts21
-4.8854747	ts22
-4.7247224	ts3
-5.184528	ts11
-5.4816303	HasUpstreamPublisher
-4.5343947	FlowableReplay
-4.86438	ReplayBuffer
-3.8458872	CANCELLED
-6.060758	"Unsubscribed!"
-5.403754	stringFlowable
-5.57659	flowableDisposed
-3.9141214	NotificationLite
-4.6192145	isComplete
-6.060758	"NotificationLite.Error[io.reactivex.rxjava3.exceptions.TestException]"
-4.6192145	isError
-5.57659	isDisposable
-5.57659	isSubscription
-6.1111116	"NotificationLite.Complete"
-6.060758	"NotificationLite.Disposable[RunnableDisposable(disposed=false,
-6.060758	EmptyRunnable)]"
-6.060758	getDisposable
-6.060758	"NotificationLite.Subscription[BooleanSubscription(cancelled=false)]"
-6.060758	getSubscription
-3.9427521	BackpressureHelper
-5.3377423	firstSubscriber
-5.3377423	secondSubscriber
-5.403754	neverNever
-5.403754	swap
-5.57659	fromSubscription
-5.57659	cancelCalled
-5.2804527	droppedCount
-5.57659	incrementOnDrop
-6.1111116	createTestSubscriber
-6.1111116	send500ValuesAndComplete
-4.4096766	onBackpressureBuffer
-5.3377423	DROP_OLDEST
-6.060758	497
-6.060758	498
-5.57659	499
-6.1111116	DROP_LATEST
-5.0714955	BackpressureOverflowStrategy
-6.060758	FlowableDoAfterNextTest
-5.6982975	"Source"
-5.6982975	"Reducer"
-5.1434937	y
-5.403754	blockingOp
-6.060758	"y"
-5.0395284	EMPTY_LONG_CONSUMER
-5.6982975	infiniteFlowable
-4.955706	createInfiniteFlowable
-6.060758	"zip"
-4.4974833	"zipper
-5.57659	error1
-5.57659	error2
-6.1111116	ThrowingQueueSubscription
-5.57659	flowableList
-4.9818897	FlowableScalarXMap
-5.0714955	ScalarSubscription
-5.57659	scalar
-5.57659	IntervalSubscriber
-5.184528	LeftRightSubscriber
-4.931012	LeftRightEndSubscriber
-5.184528	fromSupplierFlowable
-6.060758	"mode:
-5.0395284	TestSynchronousFlowable
-5.1060047	listOfFlowables
-5.1060047	TestASynchronousFlowable
-5.6982975	"TestASynchronousFlowable"
-4.806624	TestErrorFlowable
-5.0097537	f3
-5.1434937	f4
-5.57659	createFlowableOf5IntervalsOf1SecondIncrementsWithSubscriptionHook
-4.86438	setSubscription
-6.1111116	"testSubscriber
-6.1111116	testBackpressureBothUpstreamAndDownstreamWithRegularFlowables
-5.2804527	messages
-5.0395284	number
-5.403754	">>>>>>>>
-4.7889614	A
-5.403754	requested["
-5.403754	"]:
-6.1111116	pauseForMs
-5.1434937	B
-6.060758	printCount
-6.060758	"DEBUG
-6.1111116	"count="
-5.6982975	0"
-5.4816303	MergeSubscriber
-5.6982975	45
-6.1111116	55
-6.060758	"c1"
-6.060758	"c2"
-6.060758	"c3"
-6.060758	"c4"
-6.060758	"c5"
-6.060758	"c6"
-6.060758	"c7"
-6.060758	"c8"
-6.060758	"c9"
-6.060758	"c10"
-6.060758	assertNever
-5.184528	createFlowable
-4.86438	SerializedSubscriber
-5.57659	backpressureCallback
-6.1111116	THROWS_NON_FATAL
-5.0395284	onBackpressureLatest
-5.6982975	Counter
-5.0395284	min
-6.1111116	MAX
-5.184528	BlockingFlowableIterator
-6.1111116	CancelledSubscriber
-3.7903917	ReplayProcessor
-5.2804527	"Subscriber
-6.1111116	BadFlowableSubscribe
-6.1111116	BadFlowableDispose
-6.1111116	BadFlowableConnect
-6.1111116	BadFlowableSubscribe2
-6.1111116	BadFlowableConnect2
-4.8250356	bp
-5.6982975	BadFlowableDoubleOnX
-5.403754	FlowableRefCount
-6.1111116	TestConnectableFlowable
-5.6982975	tcf
-6.060758	"subscriber1
-6.060758	"subscriber2
-3.7650948	rp
-5.403754	flowable3
-5.4816303	requested1
-5.4816303	requested2
-5.6982975	"1-requested:
-5.6982975	"2-requested:
-5.57659	FlowableRange
-5.1434937	createTestSupplier
-5.1434937	createTestReducer
-6.060758	orElseThrow
-6.060758	list"
-5.2804527	"Didn't
-5.57659	startCount
-4.9818897	"Could
-5.6982975	FlowablePublishMulticast
-6.1111116	"pp
-5.229847	parentUpstreamCancelled
-5.6982975	"Unnecessary
-5.6982975	.cancel()
-5.6982975	FlowablePublishMulticast"
-5.184528	fromCallableFlowable
-5.403754	FlowablePublish
-4.7100444	InnerSubscription
-4.9818897	transformer
-6.1111116	"Subscribed"
-5.57659	evenNumbers
-5.57659	oddNumbers
-5.403754	getNextOdd
-5.6982975	19
-4.931012	TimeoutConsumer
-5.6982975	10000000
-6.060758	"First
-6.060758	schedule:
-6.060758	reschedule:
-5.6982975	didn't"
-5.3377423	"Got
-5.6982975	requested"
-5.57659	SubscribeOnSubscriber
-5.229847	NullPointerException"
-5.2804527	"onAfterTerminate
-4.5343947	"value"
-5.57659	finallyAction
-5.2804527	TestAsyncErrorFlowable
-5.57659	TestASynchronous1sDelayedFlowable
-6.1111116	parentFlowable
-6.060758	"testErrorInParentFlowableDelayed
-6.060758	FlowableWindowWithSizeTest
-5.57659	tsInner
-5.4816303	cancel1
-6.060758	"intervalRange
-6.060758	cancelled!"
-6.060758	EmptyDisposingFlowable
-5.2804527	FlowableRetryTest
-5.2804527	SlowFlowable
-5.2804527	AsyncSubscriber
-5.6982975	BufferExactUnboundedSubscriber
-5.403754	BufferSkipBoundedSubscriber
-5.6982975	BufferExactBoundedSubscriber
-4.907647	subscribedSubscriber
-5.0714955	sideEffectSubscriber
-5.4816303	FlowableDoOnEach
-5.403754	"Third"
-5.57659	FlowableDoFinallyTest
-5.57659	"cancel"
-6.1111116	"Generated:
-5.57659	numForBatches
-6.060758	MissingBackpressureException"
-6.060758	102400
-5.184528	synchronizedList
-6.060758	128L
-6.060758	16L
-5.2804527	12L
-6.060758	20L
-5.6982975	15L
-6.060758	IAE"
-4.9818897	BaseObserveOnSubscriber
-4.2103486	sourceMode
-5.0714955	trySchedule
-6.060758	TrackingWorker
-6.1111116	TestSubscriberFusedCanceling
-5.3377423	path
-5.6982975	volatile
-6.1111116	getAndAdd
-5.0395284	do
-5.6982975	sf
-4.8250356	toMaybe
-4.668772	checkDoubleOnSubscribeMaybe
-5.57659	compl
-5.0714955	MaybeCallbackObserver
-4.695847	ON_ERROR_MISSING
-4.9818897	hasCustomOnError
-4.7889614	toSingle
-5.184528	HasUpstreamMaybeSource
-5.3377423	checkDoubleOnSubscribeMaybeToSingle
-5.403754	"Other"
-6.060758	HasUpstreamSingleSource
-6.060758	MaybeDoAfterSuccessTest
-5.2804527	MaybeCache
-5.4816303	dout
-6.060758	checkDoubleOnSubscribeMaybeToCompletable
-5.6982975	checkDoubleOnSubscribeMaybeToFlowable
-6.1111116	"Secondary"
-5.6982975	checkDoubleOnSubscribeMaybeToObservable
-5.184528	MergeMaybeObserver
-5.6982975	drop
-5.57659	MaybeDoFinallyTest
-5.6982975	checkDisposedMaybe
-5.0097537	SingleSource"
-4.8250356	MaybeOnSubscribe
-4.8250356	MaybeEmitter
-6.1111116	MaybeIsEmpty
-6.060758	checkDisposedMaybeToSingle
-5.6982975	MaybeCreate
-4.755655	subscribeAutoDispose
-5.3377423	LambdaConsumerIntrospection
-5.1060047	inners
-5.403754	InnerQueuedObserver
-4.274192	fo
-5.184528	FutureObserver
-5.57659	BasicFuseableObserver
-5.57659	beforeDownstream
-6.060758	assertNotSubscribed
-4.806624	BlockingMultiObserver
-5.0714955	bmo
-5.403754	ConsumerSingleObserver
-5.3377423	QueueDrainObserver
-4.447405	SpscArrayQueue
-5.57659	fastPathEmit
-5.403754	fastPathOrderedEmit
-6.1111116	createUnordered
-5.6982975	createOrdered
-5.403754	CallbackCompletableObserver
-5.0395284	TakeFirst
-4.844262	TakeLast
-5.4816303	assertNoOffer
-5.1060047	Queue
-4.7399135	ArrayDeque
-5.403754	BlockingObserver
-3.9895818	TERMINATED
-5.57659	DisposableLambdaObserver
-5.57659	EmptyCompletableObserver
-5.3377423	FutureMultiObserver
-4.806624	LambdaObserver
-5.6982975	observers?!"
-6.060758	already?!"
-6.1111116	errors?!"
-5.57659	observerErrors
-5.2804527	DeferredScalarDisposable
-5.6982975	tryDispose
-6.1111116	crashOnIterator
-6.060758	CrashingIterator
-5.57659	crashOnHasNext
-5.57659	crashOnNext
-5.403754	VolatileSizeArrayList
-4.7889614	addAll
-5.403754	removeAll
-6.1111116	retainAll
-4.0947485	indexOf
-5.4816303	lastIndexOf
-6.060758	ListIterator
-6.1111116	lit
-5.6982975	listIterator
-6.1111116	subList
-4.9818897	hashCode
-4.7399135	EndConsumerHelper
-4.4717226	sub1
-4.5964065	sub2
-5.0395284	composeMessage
-6.060758	EndDefaultSubscriber
-6.060758	"io.reactivex.rxjava3.internal.util.EndConsumerHelperTest$EndDefaultSubscriber"
-6.060758	ResourceObserver
-6.060758	DisposableSingleObserver
-6.060758	ResourceSingleObserver
-6.060758	DisposableMaybeObserver
-6.060758	ResourceMaybeObserver
-6.060758	ResourceCompletableObserver
-3.600677	validate
-3.1768818	DisposableHelper
-3.6791651	DISPOSED
-4.8250356	BufferedReader
-5.1434937	FileReader
-4.0578623	line
-5.1060047	readLine
-4.2849035	File
-6.1111116	basepath
-6.060758	"observable/"
-5.0714955	listFiles
-4.8854747	endsWith
-4.86438	".java"
-4.0389895	continue
-6.1111116	basepackage
-6.060758	"observable."
-5.6982975	cn
-4.544134	"Observable"
-4.4974833	"Flowable"
-6.060758	"/flowable/"
-6.060758	exists
-5.57659	clazz2
-6.060758	"flowable."
-5.57659	methods2
-5.184528	getMethods
-4.2849035	"java.lang.RuntimeException:
-4.931012	missing
-4.7247224	("
-4.8854747	".java:"
-4.3187213	lines
-5.2804527	readAllLines
-5.184528	"public
-5.6982975	"("
-6.060758	"src/test/java/io/reactivex/internal/operators/"
-6.060758	"io.reactivex.internal.operators."
-5.184528	Value
-5.184528	OpenHashSet
-4.233806	HalfSerializer
-5.0395284	CLASSES
-5.3377423	clazzName
-4.9818897	packageName
-5.4816303	getPackage
-4.7889614	findSource
-5.2804527	Files
-5.3377423	toPath
-5.229847	"/**"
-4.6432867	found
-5.3377423	line2
-5.57659	"public"
-6.060758	"()
-6.060758	{"
-5.4816303	"*
-6.060758	@throws"
-6.060758	%s.%s.method(%s.java:%s)%n%n"
-5.403754	Pow2
-5.4816303	isPowerOfTwo
-5.229847	HashMapSupplier
-4.86438	ArrayListSupplier
-6.1111116	LinkedArrayList
-6.060758	2,
-6.060758	3]"
-4.4395924	AppendOnlyLinkedArrayList
-5.4816303	NonThrowingPredicate
-4.4974833	QueueDrainHelper
-5.1434937	ArgumentNameAndType
-6.1111116	classMethods
-5.6982975	computeIfAbsent
-5.0097537	method
-6.060758	getDeclaredMethods
-5.2804527	getDeclaringClass
-6.1111116	getParameterCount
-6.1111116	overloads
-5.6982975	overload
-6.1111116	Parameter
-5.4816303	param
-5.6982975	getParameters
-4.8854747	typeName
-4.585437	type
-6.1111116	getType
-6.1111116	isArray
-6.1111116	componentType
-5.229847	getComponentType
-6.1111116	BASE_TYPE_SET
-6.1111116	"BaseType"
-6.060758	"[]"
-4.29036	"bufferSize"
-4.668772	"prefetch"
-5.0395284	"capacityHint"
-6.060758	"bufferSize|prefetch|capacityHint"
-6.060758	"subscriber"
-6.060758	"observer"
-6.060758	"subscriber|observer"
-6.1111116	"onNext|onSuccess"
-5.4816303	"onSuccess"
-5.4816303	firstName
-6.1111116	firstClassMethods
-5.4816303	secondName
-6.1111116	secondClassMethods
-5.4816303	methodOverloadsFirst
-5.6982975	methodOverloadsSecond
-5.3377423	overloadFirst
-5.4816303	overloadSecond
-5.6982975	match
-6.060758	"Argument
-6.060758	naming
-6.060758	mismatch
-6.1111116	Strings
-6.1111116	padEnd
-4.955706	'
-4.8854747	Pattern
-5.184528	compile
-6.060758	"\\s*\\*\\s*\\<img\\s+width\\=('|\")(\\d+)('|\")\\s+height\\=('|\")(\\d+)('|\")\\s+src\\=('|\")(.+?)('|\").*"
-5.6982975	dimensions
-5.403754	simpleName
-6.060758	"----"
-5.2804527	"Unable
-6.060758	locate
-6.1111116	Matcher
-5.0395284	matcher
-5.403754	matches
-6.1111116	width
-5.0395284	parseInt
-5.6982975	height
-5.4816303	url
-5.229847	imageDim
-6.060758	SLEEP_PER_IMAGE_MILLIS
-6.060758	BufferedImage
-5.57659	bimg
-6.060758	ImageIO
-6.1111116	read
-6.1111116	URL
-6.060758	"not
-6.1111116	found"
-6.060758	getWidth
-6.060758	getHeight
-6.060758	"%s
-6.060758	%s%n"
-6.1111116	%s.%s.method(%s.java:%d)%n"
-5.6982975	expectedHeight
-6.060758	1.0
-5.3377423	%d%n"
-6.060758	"!["
-6.060758	"](https://raw.github.com/wiki/ReactiveX/RxJava/images/opmatrix-"
-6.060758	".png)"
-5.6982975	operatorSet
-5.6982975	operatorMap
-6.060758	isSynthetic
-5.57659	sortedOperators
-5.6982975	sort
-6.060758	naturalOrder
-5.57659	PrintWriter
-6.060758	newBufferedWriter
-6.060758	Paths
-6.060758	"docs"
-6.060758	"Operator-Matrix.md"
-6.1111116	StandardOpenOption
-6.060758	CREATE
-6.060758	TRUNCATE_EXISTING
-5.6982975	"Operator
-5.57659	|"
-5.4816303	header
-6.060758	"-----|"
-6.060758	"---|"
-5.57659	notesMap
-5.4816303	notesList
-5.4816303	tbdList
-5.57659	counters
-5.2804527	operatorName
-5.57659	"<a
-6.060758	name='"
-6.060758	"'></a>`"
-6.060758	"`|"
-6.060758	PRESENT
-5.403754	notes
-6.060758	findNotes
-6.060758	ABSENT
-6.060758	<sup
-6.060758	title='"
-6.060758	"`"
-5.6982975	"["
-5.6982975	replaceAll
-6.060758	"\\(#.+\\)"
-6.060758	"'>(["
-6.060758	"](#notes-"
-6.060758	"))</sup>"
-6.060758	TBD
-5.0097537	"."
-6.060758	"()"
-6.060758	"|"
-6.060758	name='total'></a>**"
-6.060758	operators**
-6.060758	**"
-6.060758	"**
-5.6982975	"####
-6.060758	Notes"
-6.060758	name='notes-"
-6.060758	"'></a><sup>"
-6.060758	"</sup>
-6.060758	"<br/>"
-6.1111116	Under
-6.1111116	development"
-6.060758	"*Currently,
-6.060758	intended
-5.6982975	operators
-6.060758	implemented.*"
-6.060758	".
-5.6982975	classNotes
-6.060758	NOTES_MAP
-5.57659	"empty"
-4.931012	"Completable"
-6.1111116	"Use
-6.060758	[`complete()`](#complete)."
-4.755655	"Single"
-6.060758	"Never
-6.060758	empty."
-4.755655	BlockingHelper
-5.57659	awaitForComplete
-5.403754	acceptFull
-5.2804527	postComplete
-5.6982975	postCompleteRequest
-5.0395284	QueueDrain
-3.9951112	produced
-4.907647	leave
-5.229847	drainMaxLoop
-4.544134	checkTerminated
-5.1060047	ObservableQueueDrain
-5.2804527	COMPLETED_MASK
-4.806624	addThrowable
-5.4816303	throwIfThrowable
-5.184528	InternalError
-5.0714955	MergerBiFunction
-4.506421	tryTerminateAndReport
-3.9095278	tryTerminateConsumer
-5.6982975	wrapToEmitter
-4.035922	tryAddThrowableOrReport
-6.060758	CrashingMapperIterator
-4.907647	addCap
-4.931012	multiplyCap
-5.2804527	"More
-5.4816303	requested:
-5.6982975	producedCancel
-5.0714955	addCancel
-3.907249	ObjectHelper
-3.9282007	verifyPositive
-5.57659	"param"
-5.4816303	HashSetSupplier
-6.1111116	"values"
-5.57659	setAccessible
-6.1111116	"valueOf"
-5.57659	Enum
-5.4816303	NaturalComparator
-5.3377423	predicateReverseFor
-6.1111116	"IdentityFunction"
-6.1111116	"EmptyAction"
-6.1111116	"EmptyRunnable"
-6.1111116	"EmptyConsumer"
-6.1111116	EMPTY_CONSUMER
-5.3377423	ERROR_CONSUMER
-4.771989	fromCompletionStage
-4.196859	CompletableFuture
-5.1060047	completedFuture
-4.631084	completeExceptionally
-3.7817945	Stream
-4.931012	blockingStream
-4.6192145	Collectors
-4.3187213	limit
-5.2804527	fromOptional
-4.0947485	Optional
-4.3490653	flatMapStream
-4.5964065	IntStream
-4.5964065	boxed
-5.403754	43
-5.57659	44
-5.403754	52
-5.403754	53
-5.57659	54
-4.695847	onClose
-6.1111116	"rebatch:
-4.9818897	concatMapStream
-4.4634643	flattenStreamAsFlowable
-4.86438	rangeClosed
-5.2804527	qsr
-4.0947485	mapOptional
-5.1434937	ParallelFlowableTest
-5.1434937	checkSubscriberCount
-5.229847	"Parallelism:
-3.9378474	ParallelFailureHandling
-4.9818897	ArithmeticException
-4.9818897	STOP
-4.6820984	RETRY
-4.4974833	SKIP
-4.8854747	ParallelInvalid
-5.1434937	checkInvalidParallelSubscribers
-5.1060047	checkDoubleOnSubscribeParallel
-4.8250356	toCompletionStage
-4.0709157	toCompletableFuture
-4.5343947	isCompletedExceptionally
-4.931012	firstOrErrorStage
-4.931012	singleOrErrorStage
-4.931012	lastOrErrorStage
-4.8854747	Collector
-4.3553967	accumulator
-4.8854747	BinaryOperator
-4.5248685	finisher
-4.8854747	Characteristics
-4.8854747	characteristics
-4.5540977	flattenStreamAsObservable
-4.9818897	qdr
-4.931012	firstStage
-4.931012	singleStage
-4.931012	lastStage
-6.060758	toSet
-6.060758	1_000
-6.1111116	summingLong
-4.3683443	fromStream
-6.1111116	requestOneByOneBase
-5.57659	newCachedThreadPool
-5.184528	submit
-6.1111116	requestRaceBase
-4.931012	MODULO
-5.184528	ArrayCompositeDisposable
-4.844262	acd
-4.931012	d3
-5.229847	d4
-5.6982975	d5
-5.6982975	d6
-5.1434937	CancellableDisposable
-6.060758	"NEVER"
-6.060758	"DISPOSED"
-3.8117466	u
-5.4816303	trySet
-4.631084	ListCompositeDisposable
-4.5964065	lcd
-4.4096766	delete
-5.0097537	CancellableQueueFuseable
-5.57659	AbstractEmptyQueueFuseable
-4.585437	iterate
-4.8250356	element
-4.574737	createWithSize
-3.8938227	setOnce
-5.229847	RefCountSubscriber
-5.4816303	rcs
-6.060758	"RefCountProcessor
-6.060758	terminated"
-4.0268483	hasComplete
-4.012134	hasThrowable
-4.012134	getThrowable
-4.2637377	arraycopy
-4.8250356	createWithTime
-6.1111116	RefCountProcessor
-6.060758	useInfinite
-6.060758	InfiniteRange
-6.060758	FiniteRange
-6.060758	FiniteRangeIterator
-6.060758	InfiniteRangeIterator
-4.4096766	AsyncProcessor
-5.4816303	startWithArray
-4.9818897	li
-5.2804527	"alpha"
-5.2804527	"beta"
-5.2804527	startWithIterable
-5.403754	ObservableEventStream
-4.9818897	caughtError
-5.184528	"error:
-3.9527311	just1
-4.7399135	generator
-4.8854747	argCount
-4.9818897	argNull
-5.57659	"just"
-6.1111116	"Unexpected
-3.750595	Movie
-3.9527311	HorrorMovie
-4.1628094	Media
-5.403754	sortFunction
-6.1111116	TVSeason
-6.1111116	Album
-4.9818897	ActionMovie
-5.2804527	movies
-5.2804527	ObservableTransformer
-4.564295	movie
-5.2804527	movie2
-6.1111116	deltaTransformer
-5.2804527	listOfLists
-5.403754	newList
-5.2804527	oldList
-5.0395284	delta
-6.1111116	LinkedHashSet
-5.6982975	"unused"
-6.1111116	old
-6.1111116	movieList
-6.1111116	calculateDelta
-4.806624	horrorMovies
-5.57659	reduceResult
-4.9818897	reduceResult2
-6.1111116	libraryFunctionActingOnMovieObservables
-5.6982975	SafeObserver
-5.57659	setOnObservableSubscribe
-5.3377423	RxJavaPlugins.onSubscribe
-5.3377423	hook
-6.1111116	Observer.
-5.229847	Please
-6.1111116	change
-5.3377423	provided
-6.1111116	RxJavaPlugins.setOnObservableSubscribe
-5.3377423	invalid
-5.3377423	returns.
-5.3377423	Further
-5.3377423	reading:
-5.3377423	https://github.com/ReactiveX/RxJava/wiki/Plugins"
-6.060758	BadObservable
-5.3377423	Should
-6.1111116	NPE(IAE)"
-5.57659	chained
-5.229847	"It
-5.2804527	NumberFormatException"
-5.2804527	connectable
-5.184528	"last"
-5.57659	cacheWithInitialCapacity
-5.403754	LinkedList
-6.1111116	mockCompletableObserver
-6.1111116	"oops"
-4.771989	horrorMovie1
-4.931012	media
-4.806624	horrorMovie2
-5.403754	media1
-5.403754	media2
-4.6820984	horrors
-5.57659	metaHorrors
-6.1111116	"an
-6.1111116	exception,
-5.403754	assertNotFuseable
-4.8854747	CoolRating
-4.7399135	ratings
-4.9818897	Result
-4.771989	combine
-5.1060047	Rating
-5.1060047	ExtendedResult
-5.57659	extendedAction
-5.2804527	"Result:
-6.1111116	EventConsumer
-5.403754	numInstances
-5.2804527	"count200"
-5.2804527	randomIntFrom0to
-6.1111116	"count4xx"
-6.1111116	"count5xx"
-6.1111116	"instance_"
-6.1111116	randomEvent
-5.57659	throttleWithTimeout
-6.1111116	1800
-5.57659	"HTTP-ClusterA"
-5.403754	"****
-5.1060047	ge
-4.0483236	synchronized
-5.57659	"received:
-4.806624	happen!"
-4.3749657	ParallelFlowable
-4.5248685	parallelism
-4.931012	pf
-5.6982975	StripBoundary
-5.3377423	between
-5.57659	processing
-6.1111116	putIfAbsent
-4.931012	naturalComparator
-3.9141214	prefetch
-6.060758	"parallelismAndPrefetchAsync
-6.1111116	"parallelism
-5.6982975	doAfterTerminated
-6.1111116	ParallelFlowableConverter
-6.060758	ParallelTransformer
-5.2804527	consumers
-5.6982975	ListAddBiConsumer
-4.7247224	subs
-4.907647	sequentialDelayError
-6.1111116	flow
-6.060758	checkDoubleOnSubscribeParallelToFlowable
-6.1111116	ParallelSortedJoin
-6.060758	"RunnableDisposable(disposed=false,
-6.1111116	"RunnableDisposable(disposed=true,
-6.060758	"ActionDisposable(disposed=false,
-6.1111116	"ActionDisposable(disposed=true,
-5.4816303	cause
-6.060758	IOException"
-5.184528	AutoCloseable
-6.1111116	fromAutoCloseable
-6.060758	"AutoCloseableDisposable(disposed=false,
-6.1111116	"AutoCloseableDisposable(disposed=true,
-6.060758	toAutoCloseable
-4.6432867	threads
-6.1111116	too"
-5.57659	cd1
-6.1111116	cd2
-5.57659	throw"
-5.6982975	RuntimeException(IOException)"
-5.4816303	E
-6.1111116	CompositeDisposableTest
-6.1111116	throwSneaky
-5.6982975	FutureDisposable
-4.424377	serialDisposable
-4.488725	underlying
-5.403754	another
-5.403754	firstSet
-4.7889614	SequentialDisposable
-4.544134	update
-5.4816303	CylonDetectorObservable
-6.060758	RobotConversionFunc
-6.1111116	FlowableFilter
-5.6982975	FlowableMap
-6.1111116	boop
-5.1434937	cylon
-5.403754	Jail
-6.1111116	throwOutTheAirlock
-5.4816303	"Cylon
-5.403754	'"
-5.4816303	"'
-5.57659	destroyed"
-6.1111116	'anonymous'
-5.1060047	st
-6.1111116	"Complete"
-6.1111116	crewOfBattlestarGalactica
-6.060758	"William
-6.1111116	Adama"
-6.060758	"Laura
-6.060758	Roslin"
-6.060758	"Lee
-5.6982975	Cylon
-6.060758	ConvertToCylonDetector
-6.060758	beep
-6.060758	DESTROY
-6.060758	ConvertToObservable
-6.060758	Detector
-6.060758	finished.
-6.060758	Report:\n"
-5.0395284	"\n"
-5.4816303	isFinished
-6.060758	item:
-5.57659	flowables
-5.57659	nullNotification
-5.57659	integerNotification2
-5.57659	onErrorNotification
-5.57659	onErrorNotification2
-6.060758	"unsubscribed
-6.060758	after:
-5.4816303	2.1
-4.844262	incrementingIntegers
-6.060758	"testObserveOn
-4.907647	Received:
-4.907647	Emitted:
-6.060758	0.2
-6.060758	"testObserveOnWithSlowConsumer
-5.4816303	4.1
-4.7889614	c2
-5.184528	merged
-6.060758	"Expected:
-5.4816303	got:
-6.060758	"testMergeSync
-6.060758	"testMergeAsync
-6.060758	"testMergeAsyncThenObserveOnLoop
-6.1111116	"testMergeAsyncThenObserveOn
-6.060758	"testFlatMapSync
-6.060758	"testZipSync
-6.060758	"testZipAsync
-5.6982975	"testSubscribeOnScheduling
-6.060758	see
-5.4816303	same
-6.060758	batch
-6.060758	seen:
-6.060758	"-------------------------------------------------------------------------------------------"
-6.1111116	11000
-6.060758	"testTakeFilterSkipChain
-6.060758	Expected:
-5.184528	totalReceived
-5.184528	batches
-4.806624	total
-6.060758	"testUserSubscriberUsingRequestSync
-5.6982975	Request
-6.1111116	Batches:
-6.060758	"testUserSubscriberUsingRequestAsync
-6.060758	"testFirehoseFailsAsExpected
-5.6982975	vc
-6.060758	"10
-6.060758	firehoseFailsAsExpected
-5.57659	1.1
-5.4816303	SLOW_PASS_THRU
-5.1060047	lastEvent
-5.6982975	"testOnBackpressureDrop
-5.57659	Last
-5.57659	emitCount
-5.1434937	dropCount
-5.403754	passCount
-6.060758	testName
-6.060758	getMethodName
-6.060758	Passed:
-6.1111116	Dropped:
-6.060758	"testOnBackpressureBuffer
-5.403754	threadsSeen
-6.1111116	FirehoseNoBackpressure
-6.1111116	sink
-6.060758	BurstSubscription
-5.229847	valueSupplier
-4.3187213	toSerialized
-5.403754	ns
-5.4816303	innerR
-5.1060047	ForEachWhileSubscriber
-5.57659	SafeSubscriber
-5.3377423	setOnFlowableSubscribe
-6.1111116	FlowableSubscriber.
-5.184528	check
-6.1111116	RxJavaPlugins.setOnFlowableSubscribe
-6.060758	BadFlowable
-4.86438	getParentFile
-4.9818897	getAbsolutePath
-4.9818897	'\\'
-4.955706	'/'
-6.1111116	"internal/operators/"
-4.585437	baseClassName
-6.060758	directoryOf
-5.3377423	files
-4.755655	className
-6.060758	"io.reactivex.rxjava3.internal.operators."
-5.403754	getModifiers
-5.2804527	Modifier
-6.1111116	FINAL
-6.060758	ABSTRACT
-6.060758	final\r\n"
-6.060758	":14)\r\n\r\n"
-4.8250356	"Maybe"
-5.0097537	RxMethod
-5.4816303	JavadocForAnnotations
-5.4816303	readFile
-5.4816303	baseIndex
-6.1111116	abstract
-6.060758	file:
-5.3377423	javadocStart
-5.1060047	javadocEnd
-5.4816303	"*/"
-4.0268483	javadoc
-4.431918	javadocLine
-4.4025087	lineNumber
-5.403754	backpressureDoc
-6.060758	"<dt><b>Backpressure:</b></dt>"
-5.6982975	backpressureDocLine
-5.2804527	nextDD
-5.57659	"</dd>"
-6.060758	backpressureDocumentation
-5.403754	schedulerDoc
-6.060758	"<dt><b>Scheduler:</b></dt>"
-6.060758	schedulerDocLine
-6.060758	schedulerDocumentation
-5.2804527	staticMethodDef
-5.2804527	instanceMethodDef
-5.4816303	javadocStartNext
-5.229847	definitionStart
-5.6982975	methodDefEnd
-5.57659	"{"
-4.150699	signature
-6.060758	methodLine
-5.4816303	backpressureSpec
-6.060758	"@BackpressureSupport("
-6.1111116	backpressureSpecEnd
-6.1111116	backpressureKind
-5.4816303	schhedulerSpec
-6.060758	"@SchedulerSupport("
-6.1111116	schedulerSpecEnd
-6.060758	schedulerKind
-4.574737	dirs
-5.2804527	isDirectory
-3.561031	idx
-6.060758	"/io/reactivex/"
-4.431918	processFile
-5.4816303	Observer"
-6.1111116	Observer'\r\n
-4.955706	io.reactivex."
-4.955706	fileName
-4.5964065	")\r\n"
-5.403754	"A
-6.1111116	'A
-6.1111116	Observable'\r\n
-5.57659	Subscriber"
-6.1111116	Subscriber'\r\n
-5.403754	"An
-5.403754	'An
-6.1111116	Publisher'\r\n
-6.1111116	Flowable'\r\n
-5.6982975	Single"
-6.1111116	Single'\r\n
-5.6982975	Maybe"
-6.1111116	Maybe'\r\n
-6.1111116	Completable"
-6.1111116	Completable'\r\n
-6.060758	cancel"
-6.060758	cancel'\r\n
-6.1111116	isSubscribeMethod
-6.060758	"subscribe"
-5.229847	getParameterTypes
-5.4816303	DisposableContainer
-6.1111116	isConnectMethod
-5.1434937	isAnnotationPresent
-6.060758	CheckReturnValue
-5.57659	@CheckReturnValue:
-4.7399135	"\r\n"
-6.060758	isPrivate
-6.060758	"Private
-5.57659	getReturnType
-5.184528	TYPE
-6.060758	"Void
-5.57659	"Missing
-5.6982975	"------------------------"
-5.6982975	"parallelism"
-5.57659	SchedulerSupport
-6.060758	@SchedulerSupport:
-6.1111116	ann
-6.060758	getAnnotation
-6.1111116	CUSTOM
-5.403754	paramclazz
-5.2804527	isAssignableFrom
-6.1111116	"Marked
-6.060758	parameter:
-6.060758	"timestamp"
-6.060758	"timeInterval"
-6.060758	specific
-5.57659	parameter
-5.4816303	found:
-5.57659	BackpressureSupport
-5.57659	@BackpressureSupport
-5.1434937	annotation
-6.060758	(being
-6.060758	"):
-6.060758	(having
-6.060758	return):
-6.060758	(has
-6.060758	param):
-6.060758	annotation:
-4.86438	checkCheckReturnValueSupport
-4.4395924	AsyncSubject
-5.2804527	checkSchedulerSupport
-5.2804527	checkBackpressureSupport
-6.060758	NoAnonymousInnerClassesTest
-6.060758	getResource
-6.060758	toURI
-6.1111116	"\\"
-5.229847	"Found
-6.060758	"/test"
-6.060758	"Anonymous
-6.060758	found:"
-5.57659	dir
-6.1111116	".class"
-6.060758	"$"
-6.060758	"Perf"
-6.1111116	"Test"
-5.4816303	baseName
-6.1111116	parts
-6.060758	"\\$"
-5.6982975	Character
-6.1111116	isDigit
-5.0714955	charAt
-5.57659	'.'
-6.1111116	FileInputStream
-5.57659	fin
-6.060758	available
-6.060758	"ISO-8859-1"
-6.060758	"$SwitchMap$"
-6.1111116	filesInTheSameDir
-6.1111116	fsame
-5.229847	fsameName
-6.060758	'$'
-5.0714955	checkClass
-5.4816303	pidx
-6.1111116	"Non-interface
-6.1111116	CAN_RETURN
-5.6982975	Type
-5.4816303	gtype
-6.060758	getGenericParameterTypes
-5.57659	GenericArrayType
-6.1111116	getGenericComponentType
-5.4816303	ParameterizedType
-5.6982975	ptype
-5.6982975	parameterArgTypes
-6.060758	getActualTypeArguments
-5.403754	argType
-5.57659	lastArg
-6.1111116	getRawType
-6.060758	lambda
-5.3377423	insert
-6.060758	issues\r\n"
-6.060758	OperatorsUseInterfaces
-6.060758	"method1"
-6.060758	"method2"
-6.060758	"method3"
-6.060758	"method4"
-6.060758	"method5"
-6.060758	"method6"
-5.0395284	find
-5.57659	RxJava"
-6.060758	"}
-6.060758	(Throwable
-3.3688867	throwIfFatal
-6.060758	"Exceptions.throwIfFatal"
-6.060758	"ExceptionHelper.wrapOrThrow"
-6.1111116	failCall
-6.060758	"fail("
-6.060758	Exceptions.throwIfFatal\n
-6.060758	"\n
-4.668772	".method("
-5.6982975	")\n"
-6.060758	cases\n"
-5.0395284	fullClassName
-4.7100444	errorCount
-5.6982975	ValidatorStrings
-4.955706	validatorStr
-6.060758	VALIDATOR_STRINGS
-5.403754	strIdx
-5.1060047	code
-5.6982975	comma
-6.1111116	','
-5.2804527	paramName
-5.6982975	quote
-6.060758	'"'
-6.060758	"\"A
-5.4816303	Disposable"
-6.1111116	"\"The
-6.1111116	RxJavaPlugins"
-6.060758	"\""
-5.1060047	"L"
-6.060758	Wrong
-6.060758	validator
-6.060758	name\r\n
-4.844262	"\r\n
-5.184528	midx
-4.806624	linek
-5.6982975	"private"
-5.6982975	"protected"
-5.6982975	"static"
-5.57659	paramStr
-5.0714955	"{@code
-5.184528	linem
-6.1111116	@see"
-6.1111116	@since"
-6.060758	validation:
-6.060758	EXCEPTION_STRINGS
-6.060758	exception\r\n
-6.060758	"final"
-6.060758	TYPICAL_ARGUMENT_STRINGS
-5.3377423	linei
-5.57659	varPattern
-6.060758	","
-6.060758	".*\\@Nullable\\s.*"
-5.57659	".*"
-6.060758	typical
-6.060758	argument:
-6.060758	";"
-6.1111116	problems\r\n"
-6.1111116	setLength
-5.6982975	ParamIgnore
-5.6982975	ignores
-5.403754	ParamOverride
-5.6982975	overrides
-5.6982975	defaultInstances
-5.0097537	tag
-5.1060047	override
-5.4816303	ParamMode
-5.6982975	ignoreList
-5.184528	arguments
-6.060758	"CheckClass
-6.060758	ignore:
-5.4816303	overrideList
-5.3377423	baseObjects
-6.1111116	STATIC
-6.060758	"NULL"
-5.6982975	defaultInstancesList
-6.1111116	"\r\nNo
-6.060758	instances
-5.4816303	ii
-6.1111116	baseObject
-5.4816303	overrideEntry
-6.1111116	entryClass
-5.57659	callParams
-5.6982975	isPrimitive
-5.6982975	overrideParam
-5.229847	def
-6.060758	defaultPrimitive
-5.6982975	"\r\nMissing
-5.6982975	non-null
-6.1111116	defaultValues
-5.229847	entryValues
-6.060758	addCheckPrimitive
-5.403754	callParams2
-5.6982975	shouldSucceed
-6.060758	"is
-6.060758	"\r\nNPEs
-6.060758	indicate
-6.060758	which
-6.060758	failed:
-6.060758	"\r\nFailed
-6.1111116	(should
-6.060758	succeeded):
-6.060758	failed):
-6.060758	"\r\nUndeliverable
-6.060758	errors:"
-6.060758	"Parameter
-6.060758	validation
-6.060758	problems:
-6.1111116	"NeverFlowable"
-6.060758	"NeverSingle"
-6.060758	"NeverMaybe"
-6.060758	"NeverCompletable"
-5.403754	file
-4.931012	fn
-5.57659	"//"
-6.060758	"io.reactivex"
-6.1111116	"<code>"
-3.9305923	jdx
-6.1111116	"</code>"
-5.1434937	kdx
-5.6982975	'>'
-5.6982975	"at
-6.060758	".gt("
-6.1111116	countLine
-5.6982975	'<'
-6.060758	".lt("
-6.1111116	escape
-6.1111116	<code>
-6.1111116	blocks!
-5.3377423	'\n'
-4.324623	findPattern
-5.57659	following
-5.1434937	pattern
-6.060758	"\\}\\R"
-5.4816303	newLines
-5.57659	"\\R"
-6.060758	"[
-6.060758	]+@\n"
-5.403754	"src/main/java"
-5.4816303	"src/test/java"
-4.9818897	fname
-5.57659	emptyLines
-6.060758	"@"
-5.57659	"#L"
-5.6982975	instances"
-6.1111116	scanFor
-6.1111116	"@SchedulerSupport"
-6.1111116	"Scheduler:"
-6.060758	"@BackpressureSupport"
-6.060758	"Backpressure:"
-4.8854747	sourceCode
-5.57659	inDoc
-6.060758	section\r\n"
-5.403754	lc
-4.424377	io.reactivex.rxjava3.core."
-6.060758	"\r\n\r\n"
-5.4816303	ll
-6.1111116	specify"
-6.060758	"you
-5.4816303	lm
-5.403754	"This
-6.1111116	operator"
-6.060758	"this
-6.1111116	endDD
-5.57659	mname
-6.060758	"Scheduler"
-6.060758	"@SuppressWarnings({"
-6.060758	wrong
-6.060758	description
-6.060758	"'\r\n"
-6.060758	scanForBadMethod
-4.8854747	checkSource
-5.4816303	checkSchedulerBadMethod
-5.6982975	parentPackage
-6.060758	newBufferedReader
-5.6982975	lineCount
-6.060758	to("
-6.1111116	<"
-5.57659	ta
-5.4816303	parseTypeArguments
-5.6982975	"@NonNull"
-5.6982975	"@Nullable"
-6.060758	"\r\nat
-6.1111116	cases\r\n"
-4.5540977	offset
-6.060758	"<"
-5.57659	"T"
-6.060758	"<T>"
-6.060758	"U"
-5.6982975	"<T,
-6.060758	U>"
-6.060758	"Flowable<U>"
-6.060758	Flowable<U>>"
-6.060758	"Flowable<U,
-6.060758	V>"
-6.060758	Flowable<U,
-6.060758	V>>"
-5.3377423	process
-6.060758	"class"
-6.060758	static"
-6.1111116	final"
-6.1111116	"protected
-6.1111116	abstract"
-5.229847	methodArgStart
-5.6982975	isBoolean
-5.6982975	isInt
-5.6982975	isLong
-5.6982975	isVoid
-5.6982975	isElementType
-5.6982975	hasSafeVarargsAnnotation
-5.6982975	annotationFound
-5.403754	prevLine
-6.060758	"@SafeVarargs"
-5.4816303	Missing
-5.6982975	nullability
-5.6982975	methodArgEnd
-5.3377423	ln
-5.6982975	strippedArguments
-5.57659	skippingDepth
-5.6982975	char
-5.3377423	strippedArgumentsStr
-6.060758	"\\s*,\\s*"
-5.1060047	typeDef
-6.060758	CLASS_NAMES
-6.1111116	typeNameSpaced
-5.6982975	"@Nullable
-5.6982975	"@NonNull
-5.6982975	annotation\r\n
-6.060758	"final
-6.1111116	unnecessary
-6.060758	argument\r\n
-6.1111116	int"
-6.1111116	long"
-6.060758	"..."
-6.060758	@SafeVarargs
-6.060758	TYPES_REQUIRING_NONNULL_TYPEARG
-6.060758	"<?"
-5.57659	patternRegex
-6.060758	"\\<\\?
-5.6982975	(extends|super)
-6.1111116	COMMON_TYPE_ARG_NAMES
-6.1111116	"\\>.*"
-5.6982975	@NonNull
-6.060758	TYPES_FORBIDDEN_NONNULL_TYPEARG
-6.060758	"\\<@NonNull
-6.1111116	(\\?
-6.1111116	)?"
-6.060758	declaration
-6.060758	TYPES_REQUIRING_NONNULL_TYPEARG_ON_FUNC
-6.060758	".*Function[\\d]?\\<.*,
-6.060758	"Refresh
-6.1111116	re-run
-6.060758	tests!\n\n"
-5.3377423	lineNum
-6.1111116	methodNameStartIndex
-6.1111116	firstChar
-6.1111116	newLine
-6.060758	replacement
-5.6982975	classDefPassed
-6.060758	Maybe<"
-6.060758	"@since"
-6.060758	"2.0"
-6.060758	"2.0."
-6.060758	@since
-6.060758	2.0
-6.060758	io.reactivex.Maybe
-6.060758	(Maybe.java:"
-4.4169645	")\r\n\r\n"
-6.060758	TestHelper.findSourceDir()"
-6.1111116	line1
-6.060758	instances\n"
-5.184528	"io.reactivex.rxjava3.core"
-5.229847	"ParallelFlowable"
-5.6982975	"io.reactivex.rxjava3.parallel"
-6.060758	"CompositeDisposable"
-6.060758	"io.reactivex.rxjava3.disposables"
-5.6982975	"ConnectableFlowable"
-6.060758	"io.reactivex.rxjava3.flowables"
-6.1111116	"ConnectableObservable"
-6.060758	"io.reactivex.rxjava3.observables"
-6.060758	"Schedulers"
-6.060758	"io.reactivex.rxjava3.schedulers"
-5.1060047	docs
-5.57659	skipCode
-6.060758	stripTags
-6.060758	"@see"
-6.060758	"@throws"
-6.060758	"@param"
-5.403754	space
-6.060758	NAMES
-5.4816303	isHostType
-5.403754	isAlwaysCode
-6.060758	ALWAYS_CODE
-5.4816303	asLink
-5.4816303	"{@link
-6.1111116	asCode
-5.4816303	seenBefore
-5.229847	idxLink
-5.57659	jdxLink
-5.6982975	subsequent
-5.229847	mention
-5.3377423	code:
-5.3377423	"}\r\n
-5.4816303	idxCode
-6.1111116	host
-6.1111116	link:
-6.1111116	noCurly
-6.060758	removeCurlies
-5.6982975	ERROR_LIMIT
-6.060758	"+"
-6.060758	'{'
-6.060758	'}'
-5.4816303	clearTag
-6.060758	"</a>"
-6.060758	"<b>"
-6.060758	"</b>"
-6.060758	"<strong>"
-6.060758	"</strong>"
-6.060758	"<em>"
-6.060758	"</em>"
-6.060758	"<img
-6.060758	">"
-5.403754	builder
-6.060758	startTag
-6.1111116	endTag
-6.060758	blankRange
-6.060758	'\r'
-6.060758	setCharAt
-6.060758	checkMain
-6.060758	"TestSubscriber(Ex)?<.*>\\s+to"
-6.060758	"TestObserver(Ex)?<.*>\\s+ts"
-6.060758	"TestSubscriber(Ex)?\\s+to"
-6.060758	"TestObserver(Ex)?\\s+ts"
-6.060758	"PublishSubject<.*>\\s+pp"
-6.060758	"PublishProcessor<.*>\\s+ps"
-6.060758	"UnicastSubject<.*>\\s+up"
-6.060758	"UnicastProcessor<.*>\\s+us"
-6.060758	"BehaviorProcessor<.*>\\s+bs"
-6.060758	"BehaviorSubject<.*>\\s+bp"
-6.060758	"ConnectableFlowable<.*>\\s+co(0-9|\\b)"
-6.060758	"ConnectableObservable<.*>\\s+cf(0-9|\\b)"
-6.060758	"QueueDisposable\\.(NONE|SYNC|ASYNC|ANY|BOUNDARY)"
-6.060758	"QueueSubscription\\.(NONE|SYNC|ASYNC|ANY|BOUNDARY)"
-6.060758	"SingleSource<.*>\\s+ms"
-6.060758	"SingleSource<.*>\\s+cs"
-6.060758	"MaybeSource<.*>\\s+ss"
-6.060758	"MaybeSource<.*>\\s+cs"
-6.060758	"CompletableSource<.*>\\s+ss"
-6.060758	"CompletableSource<.*>\\s+ms"
