\data\
ngram 1=4614
ngram 2=50224

\1-grams:
-4.6093597	<unk>	0
0	<s>	-1.8134624
-1.7015693	</s>	0
-2.1126552	return	-1.575054
-2.8716967	schedulers	-2.3751445
-3.0243444	io	-1.2096695
-1.9946321	flowable	-2.0729249
-2.2173438	integer	-1.9147947
-3.1387835	f1	-0.9315796
-3.202792	just	-1.9326609
-2.1587257	1	-1.725586
-2.3881288	2	-1.4613763
-2.6383815	3	-1.3563219
-2.8347058	4	-1.3552264
-2.7443292	5	-1.3849233
-3.2462778	f2	-0.7475936
-3.1387835	6	-0.9034549
-3.1892133	7	-1.0748099
-3.1270406	8	-0.9341504
-3.368753	9	-1.1083671
-2.6945045	10	-1.1352391
-2.4874303	string	-1.3786371
-2.451747	f	-1.0699794
-3.5710237	merge	-0.9228511
-2.5626523	map	-1.6240437
-1.6891353	new	-1.6216625
-2.8347058	function	-1.9983435
-2.5205383	override	-3.5809681
-3.8889253	public	-2.5008783
-2.8061182	apply	-1.8405565
-2.1160307	t	-1.3450395
-2.4097953	asserttrue	-1.3007209
-2.559505	thread	-1.7942672
-4.158567	currentthread	-1.1725636
-3.5109682	getname	-0.9913291
-3.4837923	startswith	-0.77034605
-2.5501974	value	-1.1637083
-2.754036	subscribeon	-1.5513656
-3.5399587	blockingforeach	-1.3141518
-2.8061182	consumer	-1.5458683
-3.3300996	void	-2.2874212
-3.0830083	accept	-1.6154948
-2.53216	system	-2.7887216
-3.0430322	out	-2.1438699
-4.3053865	println	-1.0635518
-4.4548016	schedulertesthelper	-1.1634569
-3.6407373	getscheduler	-0.7775283
-2.9192555	worker	-1.0378735
-2.6023154	w	-1.3467654
-3.3894513	createworker	-0.9556832
-2.349722	try	-1.2998254
-4.4548016	cancelledretention	-1.3853058
-2.4468803	false	-1.2160436
-2.7443292	finally	-1.5820299
-2.5351148	dispose	-1.2717388
-2.403181	true	-1.3240931
-2.4717772	assertfalse	-1.3231082
-2.4795332	disposable	-1.61381
-2.7951903	isdisposed	-1.2129515
-2.35753	final	-1.7305149
-2.3536084	int	-1.3694059
-3.3300996	calls	-2.1080296
-2.1937492	0	-1.4232057
-2.6777158	runnable	-1.8487955
-2.5092196	r	-1.1488822
-2.6615522	run	-1.2995414
-3.8889253	ioscheduler	-0.2393228
-2.1791377	s	-1.2816753
-3.434065	shutdown	-0.8529019
-3.680296	scheduledirect	-1.0186305
-2.6695588	timeunit	-2.6976767
-3.9616446	seconds	-1.449145
-2.3902473	assertequals	-1.2986732
-3.072664	disposed	-0.99787956
-3.1892133	schedule	-1.2085037
-4.049039	scheduleperiodically	-0.89044213
-3.9616446	from	-1.3148366
-3.6044831	executor	-0.8951634
-3.9616446	wait	-0.80691314
-3.6044831	before	-0.5854579
-3.8889253	gc	-1.6508322
-3.7722013	sleep	-1.588343
-2.989221	1000	-1.1642321
-3.7238219	memorymxbean	-1.7366015
-4.158567	managementfactory	-1.862427
-4.4548016	getmemorymxbean	-1.2643328
-2.398827	long	-1.3175368
-3.6407373	initial	-0.9872496
-4.3053865	getheapmemoryusage	-1.6843323
-4.3053865	getused	-1.0805568
-4.347112	printf	-1.0090939
-4.049039	starting	-1.4992491
-3.9616446	3f	-1.1875341
-4.3053865	mb	-1.3288721
-2.541085	n	-1.174713
-3.4111855	1024	-1.319506
-2.6736183	100	-1.2587165
-2.0405333	if	-1.2908102
-4.347112	periodic	-0.16570368
-3.7722013	countdownlatch	-1.0627967
-3.1632667	cdl	-1.6926416
-3.0526867	action	-1.357886
-2.8847618	countdown	-1.2361124
-2.3271055	for	-1.5119512
-2.4256318	i	-1.4306566
-3.7238219	still	-1.2853315
-4.4548016	scheduling	-0.08313064
-4.4548016	days	-1.0820442
-3.6044831	waiting	-0.7081873
-2.8528075	the	-0.90571916
-2.9567268	first	-0.97895974
-4.049039	round	-0.82193136
-2.2483795	to	-1.7282695
-3.7238219	finish	-1.0105027
-2.8716967	await	-1.2113216
-2.403181	else	-1.05462
-2.4616466	functions	-1.7547634
-2.989221	empty	-1.1154892
-3.368753	after	-1.2033601
-4.4548016	peak	-0.4013908
-3.2168088	second	-0.7548073
-4.4548016	jdk	-0.4013908
-4.347112	purge	-0.4013908
-2.4325998	is	-1.6997412
-4.049039	log	-0.24533339
-4.4548016	because	-0.4013908
-2.8653085	it	-1.1253841
-4.4548016	removes	-0.4013908
-3.7722013	and	-0.41242394
-4.4548016	shifts	-0.4013908
-3.033588	one	-1.2859297
-4.049039	by	-0.5497868
-3.1632667	math	-1.4368376
-4.3053865	sleepstep	-0.24533339
-2.9051275	while	-1.0115377
-4.3053865	2f	-0.69430375
-3.7238219	remaining	-0.93742394
-4.4548016	1000d	-0.4013908
-2.9192555	break	-1.0824249
-3.5109682	2000	-0.5742469
-2.690246	fail	-1.0811082
-4.4548016	format	-0.87039506
-4.049039	tasks	-0.19249775
-4.3053865	retained	-0.9134802
-4.4548016	1024d	-0.4013908
-4.049039	executorservice	-0.99555683
-3.4582174	exec	-1.3239845
-3.8889253	executors	-1.2513311
-2.541085	scheduler	-1.4239639
-4.3053865	shutdownnow	-1.1687527
-2.7443292	queue	-1.3006535
-3.202792	offer	-0.93237996
-4.4548016	command	-0.86242694
-3.2312934	poll	-1.2079622
-2.201931	null	-1.3443685
-3.3489964	atomicinteger	-1.1924555
-2.9489694	task	-1.1804976
-3.1892133	getandincrement	-1.1355697
-4.347112	testexecutor	-1.1634569
-4.158567	custom	-0.9373418
-3.2778926	d1	-1.4353229
-3.4111855	d2	-1.266166
-3.7238219	d3	-0.6912448
-4.4548016	executeall	-1.1634569
-2.1726553	get	-1.4167731
-4.3053865	execute	-1.3284535
-3.202792	50	-0.9263736
-4.158567	milliseconds	-1.341459
-2.6383815	d	-1.354833
-2.367492	list	-1.6257002
-2.7031488	throwable	-1.7354623
-2.665537	errors	-1.6348772
-2.423334	testhelper	-2.0458646
-4.3053865	trackpluginerrors	-2.3116782
-3.033588	assertsame	-0.81830084
-3.311991	emptydisposable	-1.5168585
-3.0625606	instance	-0.9049634
-4.347112	assertundeliverable	-2.818275
-2.5092196	class	-1.6921996
-2.7348347	rxjavaplugins	-1.6677811
-3.8266537	reset	-1.5757451
-3.2312934	500	-1.2404305
-2.5532777	c	-1.0527567
-3.2946072	decrementandget	-1.3253617
-2.859013	start	-1.073543
-2.5722337	throw	-2.3455508
-4.158567	executorscheduler	-0.59302855
-4.3053865	rxthreadfactory	-0.7872115
-4.4548016	testcustompooltimed	-0.86242694
-4.158567	countdownrunnable	-1.0842757
-3.9616446	wrapper	-0.8795829
-4.3053865	getwrappedrunnable	-0.8936254
-4.347112	race	-1.8144021
-3.3894513	default	-1.7028095
-4.3053865	loops	-1.9192612
-4.049039	sequentialdisposable	-0.5670651
-3.2778926	sd	-0.79556197
-3.5710237	update	-0.3421419
-3.434065	atomicreference	-1.1492956
-4.3053865	runref	-0.40139082
-2.50092	set	-1.2849501
-3.368753	interrupted	-1.2809265
-3.5109682	sync	-1.0814722
-3.5710237	atomicboolean	-0.82197034
-3.8266537	isinterrupted	-1.6857629
-2.503669	catch	-2.3184183
-3.8266537	interruptedexception	-1.8325561
-2.720971	ex	-1.5853248
-3.1044667	20	-0.8533459
-4.347112	interruption	-1.1634569
-3.680296	did	-1.8082471
-3.1387835	not	-1.1985419
-4.3053865	propagate	-0.3402105
-4.4548016	happened	-1.2883956
-4.4548016	originalhandler	-0.21373715
-3.202792	handler	-0.75876665
-4.4548016	capturingobserver	-0.4013908
-2.4325998	object	-1.6845245
-2.2159197	observer	-1.6705635
-2.53216	error	-1.5113795
-3.1892133	should	-1.8633434
-3.9616446	be	-0.9324517
-4.347112	delivered	-0.40356976
-2.145229	subscribe	-1.6231042
-3.2778926	completed	-0.9862187
-3.2312934	timed	-1.3227673
-2.6615522	count	-1.3559406
-3.8889253	caught	-0.17992555
-3.5109682	printstacktrace	-1.0907705
-4.158567	have	-1.6758573
-3.1632667	received	-1.0724559
-4.4548016	anything	-0.4013908
-3.680296	an	-0.9557882
-3.434065	errorcount	-0.77823955
-2.3966663	a	-1.4322405
-2.8781803	next	-1.098384
-3.680296	nextcount	-0.84007347
-3.6407373	cause	-0.63127625
-3.1760464	equals	-0.7621164
-3.434065	getcause	-1.1722121
-4.4548016	our	-0.4013908
-4.347112	been	-0.7866333
-2.4493067	e	-1.4834383
-4.4548016	$EMPTY$	-3.32632
-2.6736183	inner	-1.0679476
-2.9121342	latch	-1.7577842
-4.049039	firststepstart	-0.24533339
-2.891445	mock	-1.6828074
-4.158567	firststepend	-0.24533339
-4.049039	secondstepstart	-0.24533339
-4.158567	secondstepend	-0.24533339
-4.049039	thirdstepstart	-0.24533339
-4.158567	thirdstepend	-0.24533339
-4.347112	firstaction	-0.16570368
-4.347112	secondaction	-0.16570368
-4.347112	thirdaction	-0.4013908
-2.634637	inorder	-2.222622
-2.50092	verify	-2.104367
-2.763965	times	-2.070328
-4.347112	ids	-0.38717717
-3.8889253	fromiterable	-1.4332113
-2.7348347	arrays	-2.5657232
-3.8889253	aslist	-1.311999
-2.4769325	m	-1.0730462
-2.739556	flatmap	-1.4442252
-3.8889253	id	-0.43221635
-2.5064354	b	-1.3727777
-3.9616446	names	-0.2624729
-3.8889253	strings	-0.3507122
-3.1892133	tolist	-1.3654128
-3.1270406	blockingget	-1.2530285
-2.6860292	size	-1.174299
-3.1760464	contains	-0.77280325
-3.9616446	doanswer	-1.2304038
-4.049039	answer	-0.8629788
-4.4548016	invocationonmock	-1.3226928
-4.347112	invocation	-1.3853058
-2.7898276	throws	-2.8102722
-4.4548016	getmock	-0.9873657
-3.3894513	when	-0.7419095
-3.434065	30	-0.8628541
-3.8889253	40	-1.1634569
-3.9616446	third	-0.43419957
-4.158567	fourth	-0.24533339
-3.6407373	300	-0.8017756
-3.680296	400	-1.162884
-2.9192555	incrementandget	-1.1709186
-2.2130857	this	-1.2099423
-3.1632667	state	-0.7446961
-3.2617977	obs	-1.0196819
-3.8266537	unsafecreate	-1.5034914
-2.891445	publisher	-1.3232169
-2.295247	subscriber	-1.7682844
-3.0152938	super	-1.6570175
-3.7722013	asyncsubscription	-0.82999444
-2.997739	as	-1.3271703
-2.6777158	onsubscribe	-1.6846
-3.680296	setresource	-0.96159244
-3.8266537	42	-0.47984767
-2.5064354	oncomplete	-1.4855123
-2.451747	onnext	-1.732226
-4.3053865	lastvalue	-0.21373715
-2.4692223	v	-1.5262076
-3.1760464	booleansubscription	-1.2775514
-3.9616446	3000	-0.9130066
-4.049039	we	-0.42513624
-2.8528075	expected	-1.3276631
-4.049039	messages	-0.74949586
-3.8266537	due	-1.862427
-3.7722013	concurrency	-0.6703146
-3.7238219	fromarray	-0.9946113
-3.3300996	two	-1.3039743
-3.3489964	three	-1.1298668
-3.4111855	four	-1.0338454
-3.7722013	five	-1.1846473
-3.9616446	six	-1.0091596
-3.9616446	seven	-1.4133344
-4.347112	eight	-1.1914856
-4.049039	nine	-0.7758073
-4.4548016	ten	-0.4013908
-2.7255433	observeon	-1.6064115
-3.6044831	getmessage	-1.1440905
-3.9616446	concurrentcounter	-0.7948255
-3.3489964	args	-1.0250013
-2.492776	onerror	-1.9624848
-3.4111855	runtimeexception	-1.2595129
-4.4548016	concurrent	-0.4013908
-4.3053865	execution	-0.7912138
-3.434065	of	-1.2173252
-2.997739	instanceof	-1.0381057
-4.4548016	trampolinescheduler	-1.1634569
-3.2617977	replace	-0.83937675
-4.158567	decoratedcalled	-0.6178114
-4.347112	setschedulehandler	-0.289058
-3.093605	actual	-0.7653167
-3.0625606	exception	-1.6682515
-4.4548016	schedulecall	-0.4013908
-3.3894513	nullpointerexception	-1.2397287
-3.8889253	npe	-0.9229513
-4.3053865	waitforbody	-0.40139082
-4.3053865	waitforprint	-0.40139082
-4.3053865	onschedule	-1.0922438
-3.3300996	assertnotequals	-0.62632656
-2.8781803	tostring	-1.1185677
-3.680296	assertionerror	-1.2503362
-4.347112	scheduleprint	-0.4013908
-3.9616446	newthread	-0.80392325
-3.9616446	newthreadworker	-0.57340467
-3.5109682	compositedisposable	-0.8451684
-3.115607	cd	-1.5895202
-4.049039	scheduleactual	-0.6178114
-3.434065	sch	-0.9738995
-2.6272438	publishprocessor	-2.2181125
-2.6736183	pp	-1.5900698
-3.1044667	create	-1.4716768
-2.6421583	testsubscriber	-1.50598
-2.3162243	ts	-1.8962153
-3.0064278	publish	-0.82712245
-2.8781803	filter	-1.9644346
-3.311991	predicate	-1.5014721
-2.634637	boolean	-1.3498341
-2.295247	test	-1.7806307
-3.0830083	hide	-1.2774507
-3.6044831	11	-0.59914845
-3.3894513	awaitdone	-1.9672387
-3.1892133	assertresult	-1.7389512
-2.8781803	delay	-1.2750874
-3.2617977	intvalue	-1.5220063
-3.0243444	time	-1.0009096
-3.7238219	5000	-0.94797087
-3.0430322	unit	-1.1470602
-2.8406563	t1	-1.4938267
-3.5109682	hashcode	-0.3507122
-3.6407373	31	-0.40604243
-3.2312934	t2	-1.1836543
-3.6407373	t3	-1.1113235
-3.6407373	t4	-1.0508428
-3.680296	t5	-0.9760965
-4.347112	minutes	-0.9671143
-4.347112	tryoutschedulers	-0.16570368
-4.4548016	testshutdown	-0.08313064
-4.3053865	giving	-0.13076918
-3.6044831	threads	-0.7854972
-4.4548016	spin	-0.4013908
-3.0152938	up	-1.0972762
-4.3053865	rxthreads	-0.40139082
-4.3053865	hashset	-0.9662112
-4.4548016	getallstacktraces	-1.2304038
-4.347112	keyset	-0.8730839
-4.347112	rx	-0.85096586
-2.6383815	add	-1.0923439
-3.6044831	stop	-0.86966455
-3.311991	stringbuilder	-0.8263079
-4.4548016	isalive	-0.4013908
-2.7119684	append	-1.1419351
-3.6044831	failed	-0.6830416
-4.4548016	stacktraceelement	-0.40139082
-4.347112	ste	-0.4013908
-4.158567	getstacktrace	-0.13076918
-2.8653085	length	-1.1496099
-4.347112	print	-0.54435694
-4.4548016	restarting	-0.08313064
-4.347112	were	-0.96730506
-4.4548016	alive	-0.4013908
-4.3053865	countaction	-0.57340467
-3.4582174	w1	-1.0914581
-4.3053865	computation	-1.0010096
-3.3894513	w2	-0.7994851
-3.5109682	w3	-1.065965
-4.3053865	w4	-0.40139082
-2.427942	single	-1.4890839
-3.680296	was	-0.98226124
-4.4548016	every	-0.4013908
-4.4548016	teststartidempotence	-0.13076918
-3.8889253	some	-0.9889693
-4.3053865	rxthreadsbefore	-0.40139082
-4.4548016	trying	-0.4013908
-3.8889253	again	-0.4983157
-4.049039	rxthreadsafter	-0.4013908
-4.158567	removeall	-0.19249775
-2.9121342	assert	-2.2300494
-4.4548016	appeared	-0.4013908
-3.0430322	isempty	-1.0763056
-3.9616446	calledop	-0.8915776
-3.1270406	testscheduler	-1.3627709
-3.5710237	now	-1.0802157
-3.202792	exceptionhelper	-1.4730598
-4.3053865	wraporthrow	-1.3792048
-2.9264956	never	-1.5980728
-4.158567	anylong	-1.2597941
-3.434065	mockito	-1.2913061
-3.680296	advancetimeby	-1.2933538
-4.4548016	999l	-0.08313064
-3.072664	1l	-0.94307274
-4.347112	1000l	-0.4635707
-4.347112	1999l	-0.9873657
-4.347112	3000l	-0.4635707
-3.6044831	5l	-0.5952581
-4.347112	5000l	-0.08313064
-4.347112	7000l	-0.21373715
-4.4548016	11l	-0.08313064
-2.97267	subscription	-1.15724
-3.0526867	counter	-1.7372481
-4.3053865	poller	-0.21373715
-4.347112	asubscriber	-0.16570368
-3.0430322	bs	-1.0172577
-3.0625606	iscancelled	-1.0931048
-3.093605	sub	-1.1567104
-4.3053865	advancetimeto	-0.6213925
-3.680296	12	-0.72110873
-3.7722013	timedrunnable	-0.2536052
-4.347112	testworker	-0.4013908
-4.4548016	hours	-0.13076918
-3.2462778	200	-1.220597
-4.4548016	witherrortracking	-2.5496585
-3.0430322	testexception	-1.5306789
-3.7722013	thrown	-1.843265
-3.2617977	r1	-1.8565656
-3.3894513	r2	-1.6202743
-3.4582174	250	-0.9884421
-4.4548016	checkutilityclass	-0.37742707
-3.2168088	nonnull	-1.0643317
-3.1508527	assertnotnull	-0.60379
-4.347112	computationholder	-0.4013908
-4.347112	ioholder	-0.4013908
-4.347112	newthreadholder	-0.4013908
-4.049039	singleholder	-0.13076918
-4.049039	customscheduler	-0.8677227
-4.3053865	outerwrapper	-0.86242694
-4.3053865	innerwrapper	-0.49605379
-3.5109682	num	-1.0304935
-3.680296	hashmap	-1.1438713
-3.6407373	private	-0.91286165
-4.158567	statefulmap	-0.7229693
-3.9616446	nonthreadsafecounter	-0.18428454
-3.434065	put	-1.0146246
-4.347112	currentthreadname	-0.22454779
-3.7722013	computationscheduler	-0.64487803
-3.9616446	threadfactory	-1.0385182
-4.347112	seterrorhandler	-0.83773583
-3.2168088	h	-0.94023854
-2.0918655	observable	-1.9477344
-4.4548016	outofmemoryerror	-0.16570368
-3.6407373	interval	-0.87379587
-4.158567	repeatcount	-0.3331352
-4.347112	nanoseconds	-0.48708174
-3.7722013	delaytime	-0.57031715
-4.3053865	convert	-0.20907255
-4.049039	drift	-1.0221279
-4.347112	customdriftscheduler	-0.08313064
-3.7238219	arraylist	-0.9570899
-4.4548016	currenttimemillis	-0.8958826
-3.7238219	150	-0.37279004
-4.158567	tonanos	-0.47723612
-4.4548016	clockdrifttolerance	-0.08313064
-4.4548016	runs	-0.08313064
-3.680296	diff	-0.19712867
-4.158567	too	-0.8744346
-4.4548016	few	-0.4013908
-4.4548016	invocations	-0.4013908
-3.5399587	range	-2.0158498
-4.158567	trampoline	-0.7676422
-3.8889253	workdone	-0.30976158
-3.7722013	workers	-0.5121159
-4.158567	worker2	-0.24533339
-4.049039	trampolineworker	-0.7872115
-3.8889253	mocksubscriber	-1.2673734
-4.4548016	microseconds	-0.24533339
-4.4548016	ount1	-0.08313064
-2.609293	take	-1.5182469
-3.0243444	assertnoerrors	-1.6897342
-3.9616446	msg	-0.5253628
-3.2946072	key	-0.6374595
-4.3053865	worker3	-0.4635707
-4.4548016	createprintaction	-0.9873657
-3.368753	message	-0.7479899
-3.5109682	blockingfirst	-0.6866685
-3.3300996	assertfailure	-2.5528915
-3.2778926	blockinglast	-1.1522138
-3.6407373	blockingiterable	-0.8540944
-2.8406563	iterator	-1.3156563
-3.368753	blockingsubscribe	-1.5097351
-3.5109682	blockingsingle	-0.9874786
-3.8889253	emptyconsumer	-0.9859441
-3.9616446	blockinglatest	-1.1625407
-3.4837923	hasnext	-1.1264814
-4.049039	blockingnext	-0.9864494
-3.6407373	tofuture	-0.7706149
-2.4821496	maybe	-1.6276667
-2.5626523	completable	-1.3857467
-2.97267	complete	-1.0383601
-3.311991	dooncomplete	-1.6926985
-3.8889253	blockingawait	-1.3299229
-4.347112	setonbeforeblocking	-0.16570368
-3.9616446	booleansupplier	-1.2198714
-4.049039	getasboolean	-1.3352818
-4.347112	countreceived	-0.16570368
-4.049039	countgenerated	-0.13076918
-4.347112	along	-0.82578206
-4.4548016	defaultsubscriber	-1.1914747
-2.7589722	cancel	-1.2163571
-4.4548016	thinks	-0.4013908
-3.5710237	finished	-0.87816393
-2.8847618	timeout	-1.1893003
-3.9616446	unsubscribelatch	-1.2092144
-3.8266537	total	-0.61193466
-4.3053865	memory	-1.4460036
-3.8889253	runtime	-1.5894257
-4.4548016	getruntime	-1.1123044
-4.4548016	totalmemory	-0.9873657
-4.4548016	free	-0.9873657
-4.4548016	freememory	-0.9873657
-4.3053865	completionlatch	-0.6178114
-2.9121342	request	-1.3481364
-3.8889253	resourcesubscriber	-0.8368397
-3.5710237	on	-0.97693396
-3.5109682	unsubscribe	-0.46892637
-3.8889253	completion	-0.38544115
-4.347112	released	-0.08313064
-4.158567	are	-0.24533339
-3.1760464	async	-1.1788365
-2.891445	notification	-1.5563123
-4.347112	createonerror	-0.6455451
-2.989221	assertnull	-1.1266978
-3.434065	getvalue	-1.148328
-3.8266537	geterror	-0.4944624
-4.347112	createoncomplete	-0.6920943
-4.049039	isoncomplete	-0.3873477
-3.8889253	n1	-0.3891794
-4.347112	createonnext	-0.9812887
-4.049039	n2	-0.39186352
-4.3053865	n3	-0.40139082
-4.347112	1337	-0.4013908
-3.5399587	valueof	-0.7915522
-4.4548016	onnextnotification	-0.4013908
-4.3053865	onerrornotification	-0.13076918
-4.3053865	reactivex	-1.7553697
-4.4548016	rxjava3	-1.5238302
-3.311991	exceptions	-1.7535568
-4.3053865	caughtthrowable	-0.40139082
-4.347112	retrycount	-0.4013908
-3.5399587	base	-0.27588812
-4.4548016	evaluate	-0.4013908
-3.3300996	err	-0.9327294
-4.049039	description	-0.19249775
-4.4548016	getdisplayname	-0.4013908
-4.4548016	backoff	-0.4013908
-4.4548016	failures	-0.4013908
-4.4548016	statement	-0.4013908
-4.4548016	retrystatement	-0.4013908
-4.3053865	disposetask	-0.24533339
-4.3053865	periodicdirecttask	-0.4013908
-4.158567	cb	-1.9103506
-3.4111855	in	-0.94689864
-4.4548016	overslept	-0.08313064
-4.4548016	beforecancelsleep	-1.561397
-3.5109682	assertempty	-1.4158802
-3.2778926	flatmapsingle	-1.5263247
-3.2778926	flatmapmaybe	-1.5351882
-2.7589722	testobserver	-1.4693816
-3.4111855	flatmapcompletable	-1.233604
-2.739556	toflowable	-1.2519435
-2.9264956	toobservable	-1.1348814
-4.347112	tosingledefault	-1.0385182
-3.680296	flatmappublisher	-1.3114202
-3.8889253	flatmapobservable	-1.406495
-3.6044831	tosingle	-0.6568882
-2.941348	supplier	-1.345006
-3.9616446	tomaybe	-0.9980226
-4.347112	flowableconverter	-1.1951673
-3.5710237	forced	-2.1973612
-3.7722013	failure	-0.97342026
-4.347112	observableconverter	-1.1568652
-4.347112	singleconverter	-0.21373715
-4.347112	maybeconverter	-0.6178114
-4.4548016	completableconverter	-0.69430375
-4.049039	convertertest	-0.7912138
-3.1508527	parallel	-1.0532732
-4.347112	compositeconverter	-0.4013908
-4.158567	converter	-0.4273607
-3.4111855	assertvalue	-1.3566155
-3.2312934	assertcomplete	-1.5032601
-3.202792	parallelflowable	-0.69607043
-2.8173285	upstream	-1.6092194
-3.1760464	sequential	-1.5203125
-3.3489964	backpressurestrategy	-1.2800286
-3.680296	missing	-0.67699355
-3.4582174	compose	-1.3974324
-4.158567	flowabletransformer	-0.7643569
-4.4548016	singletransformer	-0.16570368
-4.4548016	maybetransformer	-0.16570368
-4.4548016	transformertest	-0.9873657
-3.033588	observablesource	-1.2837492
-3.2617977	singlesource	-1.3684129
-3.202792	maybesource	-1.4757586
-2.6163845	values	-1.3372159
-2.9264956	buffer	-1.0336645
-4.3053865	backpressurekind	-0.4013908
-4.3053865	full	-0.9373418
-4.049039	use	-0.7373078
-4.347112	nanotime	-0.50323415
-4.4548016	getboolean	-0.4013908
-4.347112	isinrange	-0.86242694
-4.347112	computenow	-1.0842757
-4.4548016	abs	-0.7912138
-4.4548016	diffunit	-0.4013908
-2.2130857	source	-1.556051
-4.4548016	maxdiff	-0.4013908
-3.7238219	000	-0.9665205
-4.4548016	000l	-0.87039506
-4.4548016	computeclockdrift	-0.4013908
-4.4548016	180	-0.4013908
-4.4548016	240	-0.4013908
-4.158567	random	-0.9056936
-3.5109682	testobservable	-0.9782656
-3.9616446	st	-0.6627589
-3.7722013	safesubscriber	-0.87909365
-4.3053865	sendonnext	-1.0958555
-4.3053865	sendonerror	-0.92937374
-4.049039	bad	-0.30019754
-3.2617977	any	-1.7281961
-4.3053865	sendoncompleted	-0.31169793
-4.4548016	synchronizetest	-0.08313064
-3.8889253	that	-0.18428454
-4.4548016	does	-0.08313064
-4.347112	nothing	-0.9873657
-4.4548016	expects	-1.3853058
-4.347112	onnextfail	-0.7525188
-3.6407373	safeobserver	-0.5988872
-3.9616446	passed	-0.82056487
-4.4548016	oncompleted	-0.08313064
-4.347112	oncompletefail	-0.08313064
-4.347112	onerrorfail	-0.6063908
-2.592055	downstream	-1.6527598
-3.2946072	so	-1.3183136
-2.8173285	testsubscriberex	-1.3363328
-3.2168088	compositeexception	-1.2630792
-3.2778926	asserterror	-1.8654069
-4.4548016	crashdispose	-0.08313064
-4.4548016	crashrequest	-0.4013908
-4.4548016	crashonsubscribe	-0.08313064
-4.347112	crashonnext	-0.69699264
-4.4548016	crashonerror	-0.08313064
-4.4548016	crashoncomplete	-0.08313064
-3.033588	clazz	-0.71450496
-4.347112	isinstance	-0.62099254
-4.158567	different	-0.5620593
-4.049039	cel	-1.0985161
-4.3053865	compositelist	-1.3390899
-2.7443292	index	-0.80995256
-4.3053865	crashdummy	-1.7005762
-4.4548016	tosafe	-1.8766674
-3.6044831	ce	-1.3337111
-4.4548016	assertinnererror	-0.9873657
-3.4582174	java	-1.1065927
-4.4548016	lang	-1.5408893
-3.9616446	onstart	-1.1018549
-3.8889253	ro	-0.88514435
-3.4837923	tc	-1.4886423
-4.158567	endconsumerhelper	-1.0239992
-4.347112	composemessage	-0.9980226
-3.434065	getclass	-0.9235805
-4.3053865	protected	-2.0330582
-3.1270406	collections	-1.3818538
-4.049039	emptylist	-0.70094067
-3.4111855	requestmore	-1.2140145
-3.2778926	events	-1.4808872
-2.823044	done	-1.3123116
-4.347112	requestearly	-0.08313064
-3.8266537	oi	-1.091268
-3.2946072	assertvalues	-1.6616684
-3.434065	assertvaluecount	-1.341197
-4.3053865	assertthrows	-1.1538624
-2.6736183	p	-1.0569757
-4.4548016	oops	-0.16570368
-3.8266537	unsub	-1.1836604
-3.311991	dooncancel	-1.3723406
-2.891445	0l	-0.8755883
-3.6044831	ts0	-0.9279617
-3.3894513	emptysubscription	-1.6420884
-3.033588	ts1	-1.085065
-3.1044667	ts2	-1.0754079
-3.9616446	present	-1.3393677
-3.2617977	but	-1.3759087
-3.311991	no	-1.3433589
-4.347112	assertion	-1.6405783
-3.7722013	multiple	-0.928947
-3.7238219	completions	-0.888918
-3.311991	assertnotcomplete	-1.3757124
-4.4548016	reported	-1.3853058
-3.8266537	doesn	-1.8477037
-3.3894513	composite	-1.1203556
-4.347112	alwaystrue	-1.451988
-4.347112	alwaysfalse	-0.7735988
-4.3053865	t0	-1.3395482
-3.8889253	interrupt	-0.7495108
-3.9616446	allowed	-0.9964841
-4.3053865	report	-1.1094308
-4.158567	there	-1.275208
-3.8889253	terminal	-0.43856418
-3.2312934	event	-1.0584133
-3.4582174	assertnovalues	-1.1703538
-4.347112	hassubscription	-0.3402105
-3.6044831	exc	-1.1922336
-4.347112	assertvaluesequence	-1.4716655
-4.3053865	singletonlist	-0.676125
-3.7238219	assertsubscribed	-1.2577609
-3.5710237	ioexception	-1.082047
-4.347112	emptysubscriber	-0.08313064
-3.8266537	valueandclass	-0.7110635
-3.6407373	bs1	-1.6936557
-3.6044831	flowablesubscriber	-0.7988207
-2.3654814	o	-1.3278629
-3.434065	at	-1.3353448
-4.4548016	position	-0.4635707
-4.347112	pass	-0.685572
-3.9616446	more	-1.1674228
-3.8266537	than	-0.85354537
-4.3053865	assertvalueat	-1.1830057
-3.5399587	withtag	-0.4351346
-4.347112	testing	-1.2883956
-3.7722013	with	-1.4431868
-3.1270406	item	-0.86723053
-4.158567	awaitcount	-0.7912138
-3.680296	assertvaluesonly	-1.2660171
-4.347112	testsubscriberimpl	-0.4013908
-4.4548016	istimeout	-0.4013908
-3.7238219	serializedsubscriber	-0.9639265
-4.347112	aw	-1.1123044
-4.4548016	waittofinish	-0.74367297
-3.6044831	busysubscriber	-1.0047125
-4.049039	onnextcount	-0.9545263
-3.8889253	maxconcurrentthreads	-1.7277284
-4.158567	terminalevent	-0.74367297
-3.4111855	tp	-1.5894257
-4.4548016	newfixedthreadpool	-0.7666389
-3.680296	tw	-0.47199982
-3.033588	future	-0.74194896
-3.9616446	submit	-0.9733229
-4.4548016	onnextthread	-0.9863477
-3.9616446	f3	-0.9781411
-3.8889253	f4	-0.77365315
-4.347112	f5	-1.0842757
-4.3053865	f6	-1.3395482
-4.347112	f7	-1.1634569
-4.4548016	7500	-0.9873657
-4.347112	f8	-0.6063908
-4.347112	f10	-0.3331352
-4.347112	completionthread	-1.464487
-4.347112	f11	-0.08313064
-4.347112	f12	-0.08313064
-4.347112	f13	-0.08313064
-4.347112	f14	-0.08313064
-4.347112	f15	-0.08313064
-4.347112	f16	-0.08313064
-4.347112	f17	-0.08313064
-4.347112	f18	-0.08313064
-4.3053865	waitonthreads	-1.1634569
-3.033588	suppresswarnings	-2.3506925
-4.4548016	unused	-0.13076918
-4.347112	numnextevents	-0.4635707
-4.4548016	assertevents	-0.9873657
-4.3053865	awaittermination	-0.74367297
-4.3053865	tp1	-0.08313064
-4.3053865	tp2	-0.08313064
-4.158567	firstonnext	-0.3331352
-3.6407373	running	-0.63867706
-3.8889253	lastthread	-0.6869378
-4.049039	p1	-0.27030525
-4.158567	p2	-0.27030525
-4.3053865	as1	-0.08313064
-4.3053865	as2	-0.08313064
-3.680296	infinite	-0.76011026
-3.3300996	close	-0.4826915
-4.3053865	each	-0.45412394
-2.8061182	other	-1.2704355
-4.4548016	unless	-0.08313064
-4.4548016	starvation	-0.08313064
-4.4548016	futures	-0.08313064
-3.2168088	produced	-1.1322153
-4.4548016	numstringstosend	-0.9873657
-4.4548016	getid	-0.08313064
-4.347112	waitonthese	-0.9873657
-4.4548016	mocked	-0.9873657
-4.347112	expecting	-0.45412394
-4.4548016	either	-0.9873657
-4.158567	or	-0.9288009
-4.347112	waittime	-0.08313064
-4.158567	re	-0.6503011
-3.9616446	already	-1.2524948
-4.158567	expectedendingevent	-0.9873657
-4.3053865	ending	-1.0842757
-3.3489964	subscribed	-0.9335659
-3.4837923	join	-1.2843465
-2.7951903	j	-1.0927722
-4.347112	fj	-1.0842757
-3.9616446	threadpool	-1.2304038
-3.9616446	threadsrunning	-1.7406933
-4.3053865	concurrentthreads	-1.1354716
-4.3053865	maxthreads	-1.862427
-3.0526867	compareandset	-1.2613964
-3.5399587	terminate	-0.76119834
-4.4548016	capturemaxthreads	-1.1634569
-4.4548016	greater	-0.08313064
-3.2617977	serial	-1.3979063
-4.049039	sobs	-0.9873657
-4.347112	nullwarning	-0.9231473
-3.6407373	called	-1.3852558
-4.158567	ssref	-0.69699264
-3.9616446	spscarrayqueue	-0.88450825
-2.823044	q	-1.2541678
-3.2462778	16	-1.0574598
-3.7238219	spsclinkedarrayqueue	-0.8922521
-4.158567	mpsclinkedqueue	-0.3891794
-4.3053865	peek	-0.437621
-4.049039	r3	-0.21373715
-3.8889253	atomicreferencearray	-0.7268121
-4.049039	ara	-0.3402105
-4.3053865	producerbuffer	-0.13076918
-4.3053865	uncaughtexception	-0.58850944
-4.347112	getannotation	-0.4013908
-2.9567268	testobserverex	-1.2535467
-3.6044831	assertterminated	-1.2058611
-4.158567	assertnever	-0.3402105
-2.730164	publishsubject	-2.3653855
-4.4548016	mockobserver	-1.2581077
-3.680296	element	-0.7055625
-3.8889253	check	-1.1538831
-3.9616446	didn	-1.8166695
-4.347112	happen	-0.57617325
-4.4548016	kinds	-0.4013908
-3.1044667	to1	-0.9386058
-4.347112	assertnotsubscribed	-0.4418397
-4.049039	asserterrormessage	-0.85330427
-4.347112	emptyobserver	-0.08313064
-4.3053865	assertnotfuseable	-0.43004522
-3.8889253	assertfuseable	-1.729332
-3.8266537	assertfusionmode	-2.8019462
-3.3894513	queuefuseable	-2.533291
-3.8889253	setinitialfusionmode	-2.309585
-4.158567	scalardisposable	-0.62099254
-3.7722013	none	-0.9989156
-3.8266537	assertnotterminated	-0.70124483
-4.158567	fusionmodetostring	-0.34948647
-4.347112	unknown	-0.16570368
-4.347112	fewer	-1.1634569
-3.2168088	unicastsubject	-1.5497407
-3.202792	us	-1.0418082
-4.4548016	well	-0.24533339
-4.347112	invalid	-0.86242694
-4.158567	nexpected	-0.2618208
-3.7722013	ngot	-0.35839233
-4.4548016	timesteppingworker	-0.4013908
-4.347112	stepenabled	-0.13076918
-3.2312934	subscriptionhelper	-2.1111093
-3.0064278	cancelled	-1.1043364
-3.5109682	subscriptions	-1.1279238
-4.3053865	initialfusionmode	-0.08313064
-3.4111855	queuesubscription	-1.3556578
-3.1632667	qs	-1.2853583
-3.7238219	requestfusion	-1.4379258
-4.3053865	mr	-0.40139082
-4.049039	missedrequested	-0.7912138
-3.1632667	getandset	-1.2748368
-4.4548016	proper	-1.2883956
-3.8889253	order	-1.2141645
-4.4548016	deferredrequest	-0.9373418
-3.368753	found	-0.62866056
-3.368753	mode	-0.9945005
-4.3053865	fusion	-0.38438943
-4.347112	fuseable	-0.58850944
-2.8347058	objects	-2.2350802
-4.158567	equal	-0.86242694
-4.4548016	them	-0.4013908
-2.8173285	u	-0.8082211
-4.347112	valuepredicate	-0.16570368
-3.9616446	matches	-0.21373715
-4.347112	which	-0.4013908
-3.7722013	getcount	-0.76268715
-3.4111855	terminated	-0.86588293
-4.3053865	errormessage	-0.40139082
-4.347112	differs	-0.40139082
-4.347112	errorpredicate	-0.4013908
-3.8889253	switch	-0.4137406
-3.5710237	case	-0.5933071
-4.049039	scalarsubscription	-0.7333399
-3.1387835	unicastprocessor	-1.5077914
-3.9616446	testconsumer	-1.4272418
-4.4548016	getargument	-0.08313064
-3.5109682	max	-1.4451021
-3.2946072	maybeobserver	-1.0711414
-3.0430322	singleobserver	-1.223198
-3.3489964	completableobserver	-0.9529092
-4.4548016	constructor	-0.4013908
-4.3053865	setaccessible	-1.2304038
-4.347112	newinstance	-0.9373418
-4.158567	instances	-0.57340467
-4.3053865	ae	-0.40139082
-3.9616446	initcause	-0.71406746
-4.4548016	synchronizedlist	-1.4266984
-3.9616446	got	-0.93030846
-3.368753	outer	-0.7526013
-3.2617977	type	-0.33992934
-3.7722013	getexceptions	-1.041688
-4.4548016	getenumconstants	-0.4013908
-3.2946072	method	-0.99689347
-4.347112	m0	-0.4013908
-4.347112	getdeclaredmethod	-0.40139082
-4.049039	invoke	-0.8775212
-3.2946072	99	-0.74599147
-4.347112	required	-1.7513503
-4.347112	unchecked	-1.0786647
-3.5109682	subs	-0.77112955
-3.5109682	parallelism	-0.69121784
-4.158567	noopconsumer	-1.8166695
-4.347112	enumclass	-0.08313064
-4.3053865	getmethod	-0.5769949
-4.347112	enum	-0.08313064
-3.0152938	name	-0.88387054
-3.2462778	s1	-0.8845575
-3.3894513	s2	-0.90045285
-4.4548016	upfront	-0.7912138
-3.072664	onsuccess	-1.2459309
-4.158567	reports	-0.8453464
-3.8889253	subscribeactual	-1.9438775
-4.347112	transform	-1.1167831
-3.4582174	completablesource	-1.1762735
-3.7238219	bs2	-1.6501236
-2.97267	subscribers	-1.1196711
-4.4548016	rail	-0.9873657
-4.4548016	maybetoflowable	-0.3891794
-3.8266537	composer	-1.0287584
-3.3894513	singleelement	-0.8616858
-3.1892133	hassubscribers	-1.6444288
-4.4548016	propagated	-0.08313064
-3.2778926	ignoreelements	-0.93108696
-4.4548016	singletoflowable	-0.4013908
-3.5399587	singleorerror	-0.50851107
-3.680296	classes	-0.6489652
-3.5109682	queuedisposable	-1.1329424
-3.093605	qd	-1.2045221
-3.1044667	clear	-1.1461551
-4.4548016	rejected	-0.08313064
-3.5399587	once	-1.1703439
-4.347112	goodvalue	-0.9873657
-4.347112	badvalue	-0.3331352
-3.0625606	mapper	-1.4880489
-3.2617977	os	-0.6278642
-3.8266537	tss	-0.7351031
-3.6044831	v1	-0.5716046
-3.5399587	v2	-0.67985195
-3.2946072	fs	-0.7745557
-3.2462778	boundary	-0.8397392
-3.7238219	fusionmode	-0.75805753
-4.158567	initialrequest	-0.39186352
-4.049039	tse	-0.5627998
-2.941348	subscribewith	-1.9603977
-4.049039	toe	-0.9873657
-4.158567	expectedset	-0.3331352
-4.347112	failwith	-0.08313064
-4.4548016	basetestconsumer	-0.08313064
-4.347112	findsource	-0.69456315
-3.680296	baseclassname	-0.8395851
-4.4548016	core	-1.7470336
-3.8889253	url	-0.21373715
-4.4548016	getresource	-0.4013908
-3.7238219	getsimplename	-0.59118927
-3.7238219	path	-0.34595498
-3.311991	file	-0.9216725
-4.4548016	touri	-0.4013908
-3.9616446	parentpackage	-0.40139082
-3.0526867	idx	-1.0808532
-4.158567	lastindexof	-0.2677515
-3.4837923	substring	-0.64861524
-3.2312934	src	-1.0916092
-3.1892133	main	-1.2385534
-4.347112	exists	-0.4013908
-4.347112	unable	-1.3395482
-4.4548016	locate	-0.4013908
-4.3053865	rxjava	-0.74545634
-2.823044	sources	-1.2121342
-4.4548016	canread	-0.4013908
-3.8266537	can	-1.3165962
-4.158567	read	-0.57340467
-3.6407373	serialdisposable	-0.7739545
-2.8982325	result	-1.3994327
-4.4548016	fromsubscription	-0.16570368
-4.4548016	unsupported	-0.08313064
-4.4548016	transformation	-0.08313064
-3.1892133	output	-0.63359064
-4.4548016	undeliverable	-0.08313064
-4.3053865	bean	-0.16570368
-4.4548016	maxloop	-0.4013908
-4.3053865	usage	-0.40139082
-4.4548016	expectedmemoryusage	-0.4013908
-4.4548016	onesleep	-0.4013908
-3.0152938	cf	-1.5549077
-3.8889253	wrong	-0.9303335
-3.8266537	resume	-0.7031793
-3.1044667	disposablehelper	-2.2292087
-3.0152938	lazyset	-0.98980486
-3.0830083	cache	-0.6750925
-2.754036	ps	-1.4913764
-3.1508527	to2	-0.9161098
-3.5399587	hello	-0.872236
-4.3053865	world	-0.5747298
-4.4548016	ab	-0.86242694
-3.8266537	zip	-0.98009765
-3.5399587	bifunction	-1.4683948
-3.8889253	a1	-1.139394
-3.9616446	b1	-0.2757271
-3.5710237	zipwith	-0.9920387
-3.434065	mergewith	-1.5500926
-3.7238219	success	-1.1880065
-3.7722013	timeoutexception	-0.981563
-3.5109682	unsubscribed	-1.3707881
-3.9616446	fromrunnable	-1.4583097
-3.7722013	doonevent	-1.3475163
-3.7722013	biconsumer	-1.1498858
-4.158567	executionexception	-0.81575316
-3.2462778	iterable	-1.5089841
-3.2312934	extends	-1.3440098
-3.8266537	singleinternalhelper	-0.58374906
-4.4548016	iterabletoflowable	-0.4013908
-3.2312934	remove	-0.8232241
-4.3053865	singles	-0.38717717
-3.6044831	sum	-1.0734339
-4.158567	fromobservable	-0.86429846
-4.049039	sequence	-0.81830657
-3.6044831	atomiclong	-0.76080674
-3.2778926	timer	-0.8108337
-4.049039	iae	-0.5442538
-3.0430322	hasobservers	-1.5046072
-3.7238219	amb	-0.9707537
-3.5710237	just1	-0.8453509
-3.9616446	ambarray	-0.8045375
-3.6044831	concat	-0.9336925
-4.347112	maxargs	-0.08313064
-4.347112	rawtypes	-0.9194926
-3.5710237	argcount	-0.70635754
-4.049039	argnull	-1.2506071
-3.3894513	params	-0.5902412
-4.347112	fill	-1.2027137
-4.4548016	unexpected	-1.2304038
-4.049039	defer	-1.13128
-4.3053865	nullsupplier	-0.08313064
-3.9616446	fromcallable	-1.3247614
-3.434065	callable	-1.391444
-3.3300996	call	-1.4341692
-3.7722013	futuretask	-1.463821
-3.8889253	fromfuture	-0.95915794
-3.8266537	using	-1.3063365
-4.347112	fniclass	-0.08313064
-4.4548016	forname	-0.45412394
-4.4548016	proxy	-0.08313064
-4.4548016	newproxyinstance	-0.08313064
-4.4548016	getclassloader	-0.08313064
-4.4548016	invocationhandler	-0.08313064
-4.049039	m1	-1.0699674
-3.6044831	zipper	-1.254688
-4.049039	ziparray	-1.0412261
-3.7722013	lift	-1.6863357
-4.4548016	singleoperator	-0.4013908
-3.8889253	onerrorreturn	-1.406495
-3.680296	onerrorresumenext	-1.4522525
-3.7722013	repeatwhen	-0.964173
-3.7722013	retrywhen	-1.1325774
-3.1632667	retry	-0.95051193
-4.049039	retryuntil	-1.186938
-3.680296	serializedobserver	-0.8984071
-3.680296	busyobserver	-1.1363047
-4.4548016	defaultobserver	-1.0657254
-4.158567	disposableobserver	-0.8677227
-4.158567	soref	-0.69699264
-4.049039	regex	-0.48759717
-4.158567	differ	-0.92937374
-4.4548016	counts	-0.08313064
-3.680296	rmo	-1.0697877
-4.3053865	testsingle	-0.38717717
-3.680296	rco	-0.80425847
-4.3053865	testmaybe	-0.38717717
-4.3053865	testresourceobserver	-0.74593127
-3.680296	rso	-0.90227234
-4.3053865	testcompletable	-0.87039506
-3.9616446	fromaction	-1.3151976
-3.8889253	concatarray	-0.48438686
-3.2462778	normal	-2.1487336
-4.347112	assertsubscriptions	-1.3960296
-4.347112	singleton	-0.86633414
-3.434065	repeat	-0.73724437
-2.97267	requested	-1.3717511
-3.0152938	cs	-1.3461238
-3.4111855	doonrequest	-1.22964
-4.4548016	longconsumer	-1.9167846
-3.7722013	4l	-0.57868385
-3.8889253	wrap	-0.82242167
-3.0243444	returned	-1.746088
-3.8266537	frompublisher	-0.88190997
-4.158567	fromsingle	-0.646985
-4.049039	mergearray	-0.5205728
-4.049039	mergearraydelayerror	-0.36874944
-3.9616446	mergedelayerror	-1.2061871
-4.158567	onsubscribecalled	-0.21373715
-4.4548016	onxxx	-0.4013908
-4.4548016	methods	-0.4013908
-4.049039	disposedfirst	-1.1123044
-3.4837923	onerrorcomplete	-1.0491854
-3.311991	concatwith	-1.4132272
-3.3894513	doondispose	-1.3376002
-3.368753	doonerror	-1.5196053
-3.3894513	doonsubscribe	-1.276484
-3.8889253	doonterminate	-1.3226928
-4.4548016	dot	-0.4013908
-4.4548016	completableoperator	-0.08313064
-4.4548016	rxcomputation	-1.0842757
-4.4548016	550	-0.08313064
-4.049039	repeatuntil	-1.5314337
-4.347112	bipredicate	-1.3782761
-3.5109682	unsubscribeon	-1.0964024
-3.0152938	pp1	-1.6092819
-3.1270406	pp2	-1.4908774
-3.680296	c1	-0.72329116
-3.8266537	c2	-1.1679922
-2.8716967	subject	-1.2238833
-3.2168088	has	-1.4377435
-3.7722013	ambwith	-0.79228175
-3.9616446	startwith	-1.4486433
-3.5710237	andthen	-0.7676713
-3.7238219	foo	-0.48184943
-4.347112	exactly	-1.0385182
-3.6407373	ondispose	-1.1135511
-4.158567	listex	-0.50922644
-3.8889253	stringsubject	-1.2146095
-3.8889253	disposableref	-1.2304038
-4.049039	hasrun	-0.3331352
-4.3053865	oncreate	-0.40139082
-4.049039	spy	-1.3395482
-4.049039	doneafter	-0.3331352
-3.6407373	doafterterminate	-0.84966505
-4.4548016	closure	-0.4013908
-4.4548016	eq	-0.4013908
-3.0526867	co	-1.3055861
-3.680296	foreachwhile	-1.0218642
-3.2617977	128	-0.8206544
-4.4548016	stack	-0.9873657
-4.049039	depth	-0.3093195
-4.049039	800	-0.4418397
-4.4548016	stackoverflowerror	-0.08313064
-4.347112	threaddeath	-0.21373715
-4.3053865	throwiffatal	-1.847418
-4.347112	fatal	-0.69699264
-4.347112	linkageerror	-0.08313064
-4.347112	internalerror	-0.5647846
-4.049039	throwables	-0.6178114
-3.7722013	ex1	-1.0977966
-3.9616446	ex2	-0.9912394
-4.049039	ex3	-0.21373715
-4.158567	rootcause	-0.6178114
-3.5710237	e1	-1.0782098
-3.9616446	e2	-0.5083108
-4.347112	e3	-0.4013908
-4.347112	stacktrace	-0.8895394
-4.4548016	getrootcause	-0.9953338
-3.7722013	cex	-1.1335566
-4.158567	exs	-0.21373715
-4.3053865	baos	-0.40139082
-4.3053865	printstream	-0.4013908
-4.4548016	circular	-0.4013908
-4.4548016	reference	-0.4013908
-4.049039	root	-0.2677515
-4.158567	static	-0.8438727
-4.4548016	serialversionuid	-1.6283437
-3.1892133	synchronized	-1.2474174
-4.4548016	occurred	-0.08313064
-4.347112	stringwriter	-0.4013908
-3.9616446	sw	-0.3891794
-4.158567	printwriter	-0.40139082
-4.347112	pw	-0.4013908
-4.4548016	badexception	-0.4013908
-4.347112	ex4	-0.24533339
-3.8889253	overview	-0.8853675
-4.347112	exceptionoverview	-0.16570368
-4.4548016	example	-0.4013908
-4.158567	split	-0.8351717
-4.3053865	ex0	-0.31692815
-4.4548016	expanded	-0.4013908
-4.347112	composite1	-0.4013908
-4.347112	composite2	-0.4013908
-4.158567	delayedrunnable	-0.16570368
-4.158567	dl	-0.08313064
-4.4548016	singlescheduler	-0.40139082
-4.4548016	scheduledworker	-0.4013908
-4.3053865	tf	-0.40139082
-4.4548016	isdaemon	-0.4013908
-4.4548016	getpriority	-0.4013908
-4.049039	instantperiodictask	-0.68541944
-4.4548016	excepted	-0.4013908
-4.049039	setfirst	-0.29711443
-4.4548016	setrest	-0.08313064
-4.158567	runner	-0.9953338
-3.9616446	scheduled	-0.4257821
-4.347112	release	-0.21373715
-3.8266537	firstorerror	-0.68688756
-3.7238219	ignoreelement	-1.2304038
-4.347112	booleanrunnable	-0.4013908
-3.7238219	tsched	-0.82519025
-4.158567	schedulerwhen	-0.63173133
-3.8889253	sched	-0.5093281
-4.049039	tsub	-1.3395482
-4.4548016	asyncwork	-0.08313064
-4.4548016	throttlescheduler	-0.08313064
-4.4548016	syncwork	-0.08313064
-4.347112	workeractions	-0.4635707
-4.347112	actions	-0.68541944
-4.3053865	comp	-0.40139082
-4.347112	limited	-0.4013908
-4.158567	scheduledaction	-0.38717717
-3.2462778	sa	-0.9319422
-4.347112	callactual	-0.69430375
-4.3053865	actualworker	-0.38717717
-4.3053865	actioncompletable	-0.2677515
-4.347112	oncompletedaction	-0.21373715
-4.347112	queueworker	-0.4013908
-4.158567	qw	-0.38717717
-4.049039	threadworker	-0.7290659
-3.8889253	expire	-0.6297466
-4.3053865	cachedworkerpool	-0.9873657
-4.4548016	evictexpiredworkers	-0.9873657
-4.4548016	ioexpirytest	-0.16570368
-4.347112	setexpirationtime	-0.4013908
-4.347112	sleepingrunnable	-0.75857824
-3.7722013	scheduledrunnable	-0.8592131
-3.6044831	ft	-0.6056853
-4.158567	setfuture	-1.2643328
-4.3053865	syncb	-0.8677227
-4.049039	r0	-0.2677515
-4.347112	mws	-1.0842757
-4.158567	createworkers	-0.82193136
-4.4548016	workercallback	-1.1634569
-4.347112	onworker	-0.58850944
-4.049039	threads1	-0.57340467
-4.4548016	synchronizedset	-0.08313064
-4.049039	threads2	-0.57340467
-4.347112	parallel1	-0.4013908
-3.4837923	list1	-0.82695985
-4.347112	parallel2	-0.4013908
-3.3300996	list2	-0.84447503
-4.158567	cap	-0.74949586
-4.3053865	schedulerpoolfactory	-1.0464863
-4.4548016	getbooleanproperty	-0.58850944
-3.7722013	identity	-1.0569842
-4.4548016	securityexception	-0.4013908
-4.158567	abstractdirecttask	-1.1386334
-4.3053865	testdirecttask	-0.40139082
-4.347112	disposeoncancel	-0.16570368
-3.8266537	doc	-1.1779838
-3.5710237	isdone	-0.90191185
-3.8889253	fcs	-0.20812383
-3.8266537	nullable	-0.85849535
-4.4548016	assertnooffer	-0.31692815
-4.158567	bfs	-1.0221279
-4.347112	beforedownstream	-0.9373418
-4.158567	lambdasubscriber	-0.77473265
-3.2168088	observers	-1.2849358
-4.3053865	requestmax	-0.69430375
-4.3053865	hascustomonerror	-1.4266984
-4.158567	spc	-0.21373715
-4.3053865	support	-0.19249775
-4.347112	innernext	-0.13076918
-3.7722013	innererror	-0.6005218
-4.158567	innercomplete	-0.91615254
-2.997739	drain	-1.9091778
-3.2462778	requests	-0.9387446
-3.8266537	3l	-0.68245405
-4.347112	strictsubscriber	-0.4013908
-4.4548016	tester	-0.4013908
-4.3053865	subscriberwrapper	-0.9873657
-4.049039	b2	-0.384324
-4.3053865	subscribeautodispose	-1.6640593
-2.8653085	processor	-1.3067355
-4.347112	inners	-1.0842757
-4.3053865	boundedsubscriber	-1.0874454
-4.3053865	boundedconsumer	-0.4635707
-4.3053865	queuedrainsubscriber	-1.5894257
-4.3053865	fastpathemitmax	-0.69699264
-4.4548016	createunordered	-0.53051746
-4.4548016	createordered	-0.9873657
-4.158567	enter	-1.0498445
-4.4548016	createorderedreject	-0.4013908
-4.347112	futuresubscriber	-0.39068717
-4.158567	timeoutmessage	-0.7268121
-3.9616446	tryonnext	-1.0459114
-3.311991	ds	-0.8240598
-4.4548016	setupdownstream	-1.1982191
-3.7722013	deferred	-0.76693165
-4.4548016	subscribeto	-0.08313064
-4.4548016	downstreamrequest	-0.4013908
-3.8889253	ready	-0.72733974
-4.4548016	availableprocessors	-0.21373715
-3.7238219	hasvalue	-1.453627
-4.4548016	doubleonsubscribe	-0.87039506
-4.4548016	checkenum	-0.32945096
-3.9616446	emptycomponent	-0.7912138
-4.158567	blockingsubscriber	-0.2677515
-3.8889253	arraydeque	-0.5635527
-4.158567	bq	-0.38717717
-3.4582174	bf	-0.68773854
-4.158567	flowableoperator	-0.6879393
-4.4548016	observerimpl	-0.08313064
-4.3053865	sc	-0.21373715
-4.4548016	emptyqs	-0.4013908
-4.4548016	emptyintqs	-0.4013908
-4.158567	validate	-1.8849434
-3.8889253	atomicsubscription	-0.82954746
-3.5109682	addandget	-1.4419835
-4.4548016	deferredsetonce	-0.62099254
-3.093605	ref	-1.5947838
-4.3053865	setonce	-0.9743853
-4.3053865	subscriptionarbiter	-1.5102445
-3.9616446	setsubscription	-1.0214821
-4.347112	isunbounded	-0.13076918
-3.680296	unbounded	-0.33564577
-4.4548016	missedsubscription	-0.08313064
-3.8889253	drainloop	-0.8263224
-4.347112	missedproduced	-0.16570368
-4.049039	bs3	-0.4635707
-4.3053865	replaceresource	-0.71790254
-3.434065	ac	-0.6503011
-3.8889253	fused	-0.8240655
-3.4111855	consumed	-0.759513
-4.347112	trycancel	-0.40139082
-3.3894513	concatmapcompletable	-1.2437601
-4.347112	justfunction	-1.4868382
-3.5109682	32	-1.0636898
-3.4582174	completablesubject	-1.4287696
-3.8266537	cs2	-0.77729744
-4.4548016	checkdisposed	-1.6873285
-3.4837923	emit	-0.8796397
-4.347112	rejectflowablefusion	-0.24533339
-3.368753	concatmapsingle	-1.0834426
-3.2312934	singlesubject	-1.6942666
-2.9051275	ms	-1.1999491
-3.1387835	ss	-1.0908386
-3.3894513	operator	-0.6458011
-3.5399587	errormode	-1.1497655
-4.4548016	immediate	-0.5854461
-3.2617977	maybesubject	-1.7120614
-3.6044831	switchmapsingle	-1.6863357
-3.6044831	ms1	-0.84590304
-3.7722013	ms2	-1.0442959
-4.158567	moref	-1.2506071
-3.680296	switchmapcompletable	-1.6524775
-4.049039	css	-0.74367297
-3.3489964	concatmapmaybe	-1.1424205
-4.3053865	512	-0.43004522
-3.5710237	switchmapmaybe	-1.7177441
-4.4548016	scalarxmapzhelper	-0.4013908
-3.8889253	disposer	-1.1008507
-4.4548016	justsupplier	-0.9588519
-4.347112	mapperthrows	-0.08313064
-4.3053865	disposerthrows	-0.38717717
-3.6044831	sb	-1.4874587
-3.2617977	resource	-0.8457563
-4.4548016	resourcedispose	-0.9873657
-3.9616446	disposeresource	-1.1634569
-4.158567	flattenasobservable	-1.9763703
-4.4548016	crashingiterable	-1.862427
-3.2312934	array	-0.9943539
-4.347112	something	-1.765517
-4.347112	went	-1.1003928
-4.4548016	terribly	-1.765517
-4.4548016	afterterminate	-0.27514324
-3.4111855	onterminatedetach	-1.5516372
-4.3053865	weakreference	-1.2603669
-4.049039	wr	-1.7832457
-4.158567	33	-0.5735289
-3.9616446	concatdelayerror	-0.93367356
-4.3053865	triggeractions	-0.2574178
-3.4582174	delaysubscription	-0.76563305
-3.5399587	onerrorresumewith	-0.7032355
-3.9616446	switchonnext	-1.1309642
-4.3053865	13	-0.50922644
-3.7238219	15	-0.47268894
-3.7722013	ss1	-0.6856307
-3.9616446	ss2	-0.45158285
-3.4582174	cached	-0.8255304
-4.347112	doubledisposer	-0.40139082
-3.5710237	timeinterval	-0.6200197
-3.2946072	dofinally	-0.96897066
-4.4548016	singledofinallytest	-0.08313064
-3.6407373	doonlifecycle	-1.3017596
-4.4548016	dothrow	-1.8477037
-4.049039	concateager	-1.1336365
-4.4548016	singleonsubscribe	-1.2603669
-4.4548016	singleemitter	-1.2603669
-4.049039	setdisposable	-1.7774162
-4.158567	setcancellable	-0.91586834
-4.3053865	cancellable	-1.4266984
-4.158567	response	-1.5314337
-4.158567	tryonerror	-1.0922438
-3.072664	emitter	-0.9945912
-4.4548016	singlecreate	-0.08313064
-3.3894513	materialize	-0.8204044
-3.4582174	dematerialize	-1.2465863
-4.049039	fromsupplier	-1.586552
-3.5710237	func	-1.1412578
-3.9616446	thenreturn	-0.94275516
-4.347112	fromsuppliersingle	-0.4013908
-4.3053865	verifynointeractions	-0.43004522
-4.049039	cdl1	-1.5894257
-4.3053865	cdl2	-1.6405783
-4.158567	funclatch	-1.5102445
-4.158567	observerlatch	-1.5102445
-4.347112	thenanswer	-1.3853058
-4.3053865	checkedexception	-0.8618541
-4.4548016	mocksingleobserver	-1.3438888
-3.8266537	doonsuccess	-1.464487
-3.9616446	subj	-0.384324
-3.5399587	fallback	-0.8801135
-3.3300996	replaysubject	-1.4246728
-3.1508527	ps1	-1.0746568
-3.2168088	ps2	-1.2252702
-3.9616446	doaftersuccess	-0.94069195
-4.4548016	aftersuccess	-1.1123044
-4.158567	frommaybe	-1.3853058
-3.5399587	number	-0.54632
-4.3053865	1d	-0.69699264
-3.8889253	cast	-0.4294686
-4.049039	assertnotsame	-0.97466874
-3.7722013	onerrorreturnitem	-1.275208
-4.3053865	flag	-0.13076918
-3.9616446	sequenceequal	-1.1366668
-3.6044831	timestamp	-0.7169186
-3.8889253	oftype	-0.72329116
-3.1044667	concatmap	-1.7533532
-3.6044831	safesubscribe	-1.2459186
-4.347112	fromcallablesingle	-0.4013908
-4.347112	function3	-1.6157546
-4.3053865	123	-0.6063908
-4.4548016	function4	-0.7268121
-4.4548016	1234	-0.9873657
-4.4548016	function5	-1.2883956
-4.4548016	function6	-1.1634569
-4.4548016	function7	-1.1634569
-3.2168088	g	-1.1415293
-4.4548016	function8	-1.1634569
-4.4548016	function9	-1.1634569
-3.9616446	concatarrayeager	-0.6407137
-3.5710237	firstelement	-0.92053765
-3.1632667	takeuntil	-1.086149
-3.2617977	source1	-1.5124917
-3.434065	source2	-1.2691276
-3.8266537	iter	-0.87097967
-4.4548016	additional	-0.4013908
-3.7238219	flattenasflowable	-1.8766674
-3.4582174	2l	-0.8513117
-4.049039	addstring	-1.464487
-3.6044831	pp0	-0.91828114
-4.347112	addstring3	-0.08313064
-4.049039	stringcombine	-1.464487
-4.3053865	bla	-0.86242694
-4.3053865	action1	-0.9873657
-4.3053865	action2	-0.86639273
-3.5710237	takewhile	-1.7744718
-4.4548016	npa	-0.4013908
-4.3053865	timeoutobserver	-0.4013908
-4.4548016	completableemitter	-1.1714251
-4.4548016	completablecreate	-0.08313064
-3.1387835	prefetch	-0.94053406
-3.0152938	k	-0.61293787
-4.347112	c0	-0.4013908
-4.158567	error1	-0.69699264
-4.3053865	error2	-0.13076918
-4.158567	completableruncount	-0.21373715
-4.049039	90	-1.001951
-4.158567	to3	-0.21373715
-4.347112	to4	-0.4013908
-3.3489964	maxconcurrency	-1.2414663
-3.8266537	atomicthrowable	-1.4501184
-3.8889253	cs1	-0.93922305
-4.049039	observablescalarxmap	-0.74593127
-4.4548016	callablepublisher	-0.27030525
-4.4548016	onecallablepublisher	-0.9873657
-4.347112	scalarxmap	-1.1982191
-3.3300996	scan	-0.9999139
-4.347112	anystring	-1.3750366
-4.158567	anyint	-1.0971757
-3.8266537	101	-0.61483836
-3.311991	collect	-1.4673345
-3.1760464	takelast	-1.1752968
-4.347112	err2	-0.40139082
-4.4548016	copyonwritearraylist	-0.58197147
-4.347112	errorconsumer	-0.38717717
-3.7722013	factory	-0.50937176
-4.347112	firstobservable	-0.21373715
-4.347112	secondobservable	-0.08313064
-4.3053865	firstobserver	-0.7639394
-4.3053865	secondobserver	-0.7639394
-4.3053865	thenthrow	-0.384324
-3.7238219	elementat	-1.3701093
-4.049039	elementatorerror	-0.74593127
-3.8266537	innerscheduler	-1.9038197
-3.3894513	publishnext	-1.9623944
-4.3053865	900	-0.6232626
-3.6044831	publishcompleted	-1.3226928
-4.158567	sampled	-1.4992491
-3.5399587	debounce	-0.9750603
-4.158567	600	-0.96330273
-4.3053865	700	-1.0543125
-4.158567	publisherror	-0.63966197
-4.4548016	701	-0.08313064
-3.8266537	debouncer	-0.41428727
-4.347112	debouncesel	-1.2883956
-3.9616446	debounceemitter	-0.7525188
-3.2946072	behaviorsubject	-1.4815736
-4.347112	createdefault	-0.93093204
-3.7238219	de	-0.32361192
-3.434065	input	-0.8734058
-4.3053865	abc	-0.08313064
-3.9616446	parentsubscription	-0.7700019
-4.3053865	observable1	-0.81657016
-4.158567	createobservable	-1.0922438
-4.4548016	111	-0.08313064
-4.347112	observable2	-0.5094807
-4.049039	22	-0.7525188
-4.347112	222	-0.9873657
-4.347112	observable3	-0.86242694
-4.4548016	333	-0.08313064
-4.3053865	expectedexception	-0.16570368
-4.4548016	fake	-1.1634569
-4.3053865	incrementer	-0.4635707
-3.1270406	o1	-0.8172389
-3.1892133	o2	-0.81851614
-2.9121342	doonnext	-1.5542389
-4.049039	source3	-1.1334105
-3.9616446	stringobserver	-1.5641049
-4.4548016	rxnewthread	-0.9873657
-3.9616446	leak	-1.1746036
-4.049039	listofobservables	-0.3331352
-4.4548016	looping	-1.1634569
-4.049039	only	-0.6297466
-4.3053865	endlatch	-0.3331352
-4.158567	totalcounter	-0.3331352
-3.9616446	onnextbeingsent	-0.9873657
-4.4548016	testerrorobservable	-1.1634569
-3.7238219	o3	-0.6543085
-4.049039	o4	-0.83260643
-4.4548016	valuestoreturn	-1.464487
-4.347112	throwing	-1.5894257
-3.8266537	scheduler1	-0.9937284
-4.158567	os1	-1.1634569
-3.9616446	scheduler2	-0.9937284
-4.158567	os2	-0.8730839
-3.2946072	child	-1.0227702
-3.3894513	onnextevents	-1.1964872
-3.9616446	generated1	-1.3960296
-4.158567	generated2	-0.9873657
-2.8653085	buffersize	-1.3234111
-3.8266537	generated	-1.12521
-4.347112	flush	-0.08313064
-4.4548016	done1	-0.08313064
-4.4548016	done2	-0.08313064
-4.4548016	outersize	-0.9873657
-4.4548016	innersize	-0.3331352
-4.347112	mergensyncstreamsofn	-0.43004522
-4.347112	runmerge	-0.9873657
-4.4548016	toscalar	-0.21373715
-4.4548016	tohiddenscalar	-0.21373715
-3.8889253	req	-0.58541197
-4.347112	64	-0.73691535
-4.158567	256	-0.19249775
-3.8266537	orw	-0.31692815
-4.4548016	premature	-1.4992491
-4.049039	observableemitter	-1.4633117
-3.3489964	connection	-0.67237896
-3.368753	connect	-0.90222216
-4.3053865	receive	-0.9012808
-3.9616446	fast	-0.83714765
-3.8266537	slow	-0.7838478
-3.1387835	emitted	-0.81320304
-3.7722013	xs	-0.7563775
-3.7722013	skipwhile	-1.001951
-4.049039	xsp	-0.08313064
-4.158567	sourceemission	-0.3331352
-3.7238219	sourceunsubscribed	-0.937493
-3.7238219	share	-0.19249775
-4.158567	child1unsubscribed	-0.3331352
-4.158567	child2unsubscribed	-0.43004522
-4.158567	connection2	-0.27030525
-4.049039	observablepublish	-0.3891794
-2.9192555	current	-0.98817277
-4.3053865	connection1	-0.08313064
-4.347112	connection3	-0.08313064
-4.347112	checkpublishdisposed	-0.08313064
-3.7722013	publishconnection	-0.84058297
-3.2946072	conn	-0.5908131
-4.3053865	tos	-0.40139082
-3.6044831	autoconnect	-0.83584493
-4.158567	serialize	-1.0702615
-4.347112	observablecreate	-0.7912138
-4.3053865	createemitter	-0.69699264
-4.4548016	raceother	-0.38850075
-3.680296	doafternext	-1.5045449
-4.4548016	afternext	-1.3705825
-4.3053865	to0	-1.1634569
-4.347112	513	-0.58850944
-4.3053865	observerref	-0.3331352
-4.3053865	fromcompletable	-1.0064794
-4.158567	upstreamcount	-1.4396634
-4.049039	boo	-0.88854784
-3.115607	skip	-0.87897176
-4.049039	subcount	-0.7525188
-4.158567	upperlatch	-1.1123044
-4.158567	lowerlatch	-1.1123044
-4.049039	onnextlatch	-1.1123044
-4.158567	uppercount	-1.1123044
-4.158567	lowercount	-1.1123044
-4.049039	longs	-0.3331352
-4.347112	un	-1.2883956
-4.347112	upper	-1.1634569
-3.0064278	stream	-1.3036182
-4.4548016	lower	-0.9873657
-3.5399587	refcount	-0.5813607
-4.158567	disposecalled	-0.21373715
-4.4548016	rightvalues	-0.08313064
-4.347112	rightvalue	-0.4635707
-4.4548016	leftvalue	-0.9873657
-4.4548016	mockitoannotations	-0.9873657
-4.4548016	openmocks	-0.9873657
-4.049039	groupjoin	-1.2883956
-4.3053865	add2	-1.5314337
-4.347112	17	-0.65041864
-3.9616446	18	-0.79390264
-4.347112	34	-1.0842757
-4.4548016	36	-0.9873657
-4.4548016	65	-1.1634569
-4.4548016	66	-1.1634569
-4.4548016	68	-0.9873657
-3.9616446	person	-0.38566625
-4.347112	joe	-0.08313064
-4.4548016	mike	-0.08313064
-4.347112	charlie	-0.21373715
-3.8889253	personfruit	-0.5527457
-4.347112	strawberry	-0.08313064
-4.347112	apple	-0.08313064
-4.347112	peach	-0.21373715
-3.6407373	ppf	-0.7758073
-3.8889253	just2	-0.18428454
-4.4548016	fruits	-0.9873657
-4.4548016	personid	-0.4635707
-4.4548016	fruit	-0.4635707
-4.3053865	duration1	-0.49832913
-3.680296	left	-0.7632334
-3.5710237	right	-0.9357039
-3.5710237	l	-1.2797987
-4.049039	es	-0.9926615
-4.347112	joinsupport	-0.9873657
-3.9616446	js	-0.685681
-4.158567	leftrightobserver	-0.34595498
-4.347112	innervalue	-0.45412394
-3.9616446	leftrightendobserver	-0.94797087
-4.347112	innerclose	-0.4635707
-3.368753	lists	-1.1542324
-3.6407373	observables	-0.6939147
-4.049039	windowed	-1.2304038
-2.997739	window	-1.1749609
-3.434065	windows	-0.9997504
-4.4548016	tolists	-1.2883956
-4.049039	zero	-0.3402105
-4.158567	arg	-0.82056487
-4.4548016	hot	-0.9873657
-4.347112	indicator	-0.4635707
-4.4548016	hotstream	-0.9873657
-3.9616446	startwithitem	-0.77649575
-4.4548016	addtolist	-0.9873657
-4.158567	burst	-0.92861
-3.2617977	items	-0.6768133
-4.4548016	supplierlistcreator	-1.1634569
-4.4548016	biconsumerthrows	-0.9873657
-4.158567	added	-1.0176604
-4.347112	throwonfirstonly	-0.81657016
-4.4548016	collectinto	-0.9873657
-4.347112	classcastexception	-0.86242694
-4.158567	mn	-0.9873657
-3.9616446	wo	-1.491761
-3.6044831	mo	-1.1367381
-4.049039	refmain	-1.4879681
-2.97267	replay	-1.2920885
-3.3894513	observer1	-1.2435411
-3.5710237	60	-0.9386556
-4.158567	dbl	-1.0283
-3.5710237	selector	-1.0682813
-4.049039	effectcounter	-1.0842757
-4.4548016	sideeffect	-1.2883956
-3.8889253	sourcenext	-1.464487
-4.158567	sourcecompleted	-1.1836604
-4.049039	verifyobservermock	-1.2883956
-3.8889253	mockscheduler	-1.0453577
-4.158567	sourceerror	-0.9873657
-4.3053865	mockfunc	-1.1123044
-4.3053865	verifyobserver	-0.9873657
-4.4548016	numitemsexpected	-1.2883956
-4.158567	notnull	-0.8895394
-4.4548016	numsubscriptions	-0.9873657
-4.4548016	inprocessworker	-0.9873657
-4.347112	mockdisposable	-1.464487
-4.158567	boundedreplaybuffer	-2.1487336
-3.1044667	buf	-1.3453722
-4.3053865	truncate	-0.5121159
-4.3053865	addlast	-1.6157546
-3.1632667	node	-0.7930017
-4.4548016	removesome	-1.2883956
-4.3053865	removefirst	-0.81657016
-4.4548016	hascompleted	-0.7993628
-4.4548016	haserror	-1.1634569
-4.4548016	published	-1.6405783
-4.3053865	being	-1.033173
-4.4548016	executed	-1.3395482
-3.9616446	firehose	-0.7110635
-4.049039	observablereplay	-1.3054823
-4.347112	multicastselector	-0.6853177
-4.049039	connectablefactory	-0.3331352
-3.9616446	trimhead	-1.2915654
-3.6044831	byte	-1.1362017
-3.8889253	bounded	-1.7689375
-4.4548016	memoryusage	-0.9373418
-4.347112	memheap	-1.1634569
-4.4548016	detected	-1.6405783
-3.9616446	outerobserver	-0.53211683
-3.4111855	innerobserver	-0.8599822
-4.3053865	70	-0.58850944
-4.347112	350	-0.58850944
-4.4548016	125	-1.2883956
-4.4548016	175	-0.9873657
-4.4548016	225	-0.9873657
-4.3053865	130	-0.9873657
-4.3053865	25	-0.13076918
-4.3053865	isunsubscribed	-0.3331352
-4.347112	oneitem	-0.21373715
-3.2778926	switchmap	-1.4297082
-4.4548016	testissue2654	-0.4013908
-3.7238219	switchmapdelayerror	-0.9011549
-4.347112	flatten	-0.91884136
-3.9616446	obs1	-0.45412394
-4.049039	obs2	-0.38717717
-3.680296	ref1	-1.8112744
-3.6044831	ref2	-1.561397
-4.3053865	concat2strings	-0.685681
-4.049039	zipped	-0.74367297
-4.347112	24	-0.65041864
-4.4548016	observableoperator	-0.21373715
-4.3053865	blockingmostrecent	-0.1166167
-3.7722013	initialvalue	-0.15290205
-4.4548016	mostrecent	-0.08313064
-4.158567	observablecount	-0.1166167
-4.158567	maxconcurrent	-0.27030525
-3.6407373	subscriptioncount	-1.0660886
-4.3053865	scos	-0.08313064
-4.049039	sco	-0.083130606
-3.8889253	sourcelist	-1.3939059
-3.8266537	ios	-0.20812383
-4.4548016	simpleasync	-0.08313064
-4.4548016	simpleonelessasync	-0.08313064
-4.347112	tomillis	-0.81657016
-3.4582174	observer2	-0.87374777
-4.347112	ok	-0.21373715
-4.347112	blocker	-0.08313064
-4.3053865	cons	-0.8638298
-4.158567	run2	-1.2178146
-3.4111855	x	-0.8458756
-4.4548016	xx	-0.9873657
-4.4548016	touppercase	-0.9873657
-3.6044831	distinct	-0.8392856
-3.4582174	collection	-1.3106146
-3.8889253	collectionsupplier	-1.0721923
-3.6044831	push	-2.0784461
-4.347112	110	-1.3226928
-4.4548016	160	-1.2883956
-4.4548016	210	-1.5894257
-4.3053865	openings	-0.3331352
-4.3053865	closer	-0.27030525
-4.4548016	opening	-0.9873657
-4.4548016	observewindow	-1.2883956
-4.049039	stringobservable	-0.9545263
-3.5109682	open	-0.37486112
-3.2312934	end	-0.7666068
-4.158567	maindisposed	-0.08313064
-4.158567	opendisposed	-0.4635707
-4.158567	closedisposed	-0.08313064
-4.3053865	observabledisposed	-0.21373715
-4.4548016	everything	-0.08313064
-4.347112	less	-1.5314337
-4.347112	ys	-0.3331352
-3.4837923	toarray	-1.0788876
-3.6044831	assertarrayequals	-1.8766674
-4.3053865	concatbase	-0.3331352
-4.4548016	testrepeatretarget	-0.9873657
-3.9616446	ignore	-0.49208304
-4.3053865	signaller	-0.6063908
-4.4548016	refcountasyncactual	-0.08313064
-3.8266537	subscribecount	-1.2883956
-3.9616446	receivedcount	-1.3395482
-4.4548016	260	-0.4013908
-4.3053865	unsubscribecount	-0.3331352
-4.3053865	subscribelatch	-0.3331352
-4.347112	synchronousinterval	-0.21373715
-4.347112	send	-0.4635707
-4.4548016	sending	-0.9873657
-4.158567	subunsubcount	-0.6534963
-3.9616446	unsubscriptioncount	-0.685572
-4.3053865	refcounted	-0.69699264
-3.9616446	longvalue	-0.56875235
-4.347112	6l	-0.5632684
-4.347112	7l	-0.58850944
-3.5710237	list3	-0.5077884
-4.4548016	disposingobserver	-0.08313064
-3.8889253	combined	-0.43004522
-3.9616446	combinelatest	-0.99513894
-4.158567	intervalsubscribed	-0.6063908
-4.4548016	subscribing	-1.2883956
-4.347112	1300	-0.08313064
-4.4548016	awaitgc	-1.2883956
-4.3053865	3d	-1.2092144
-4.4548016	exceptiondata	-0.9873657
-3.7722013	bo	-0.782482
-4.347112	badobservabledispose	-0.4013908
-4.347112	badobservableconnect	-0.4013908
-4.3053865	observablerefcount	-0.4635707
-4.049039	refconnection	-0.90515715
-3.4837923	rc	-0.89021766
-3.680296	subscribercount	-0.6464758
-4.158567	connected	-0.73889107
-4.347112	tco	-0.40139082
-2.9264956	rs	-1.4401586
-3.8266537	shared	-0.8425123
-4.049039	odds	-0.46357065
-4.049039	even	-0.9967088
-4.4548016	nestedasyncconcat	-0.08313064
-4.3053865	allowthird	-0.43004522
-2.8716967	parent	-0.8345839
-4.158567	parenthasstarted	-0.3331352
-4.3053865	parenthasfinished	-0.43004522
-4.4548016	thread1	-0.08313064
-4.049039	waitforthreaddone	-0.43004522
-4.4548016	thread2	-0.08313064
-4.4548016	within	-0.08313064
-3.434065	limit	-0.54511553
-4.049039	callonce	-1.1634569
-3.8889253	oktocontinue	-0.8455273
-4.347112	concatf	-0.61873424
-4.4548016	47	-0.08313064
-4.3053865	oktocontinuew1	-0.08313064
-4.3053865	oktocontinuew2	-0.08313064
-3.8266537	seed	-0.27854
-4.347112	threadhasstarted	-0.08313064
-3.5399587	inorder1	-1.4561265
-3.5109682	inorder2	-1.550031
-4.347112	durationseconds	-0.9873657
-4.3053865	starttime	-0.53051746
-4.4548016	2500	-1.3853058
-4.3053865	999	-0.27030525
-3.368753	concatmapdelayerror	-1.8877329
-3.6407373	concatmapiterable	-1.4822156
-4.4548016	retrytwice	-1.2883956
-4.4548016	retryontestexception	-0.9873657
-4.347112	ioe	-0.3331352
-4.3053865	te	-0.82056487
-4.3053865	observableretrytest	-0.9873657
-4.3053865	slowobservable	-0.9873657
-4.4548016	retry5	-0.08313064
-4.3053865	asyncobserver	-0.9873657
-4.4548016	then	-1.2883956
-4.3053865	efforts	-0.68541944
-3.311991	active	-1.1376309
-4.3053865	maxactive	-0.58850944
-4.4548016	testtimeoutwithretry	-0.08313064
-4.347112	80	-0.4635707
-4.347112	you	-0.08313064
-4.4548016	shall	-0.08313064
-4.049039	throwexception	-0.23296024
-4.347112	isfirst	-1.1634569
-4.4548016	retryable	-1.2883956
-4.3053865	foreach	-1.1982191
-4.4548016	190	-1.2883956
-4.4548016	95	-0.08313064
-4.4548016	195	-0.08313064
-4.3053865	98	-1.1634569
-4.347112	102	-1.2304038
-4.4548016	201	-0.9873657
-3.4837923	wip	-1.2798275
-3.8889253	pv	-0.98067015
-3.6044831	timespan	-1.3430799
-4.158567	intervalrange	-0.78379756
-3.7722013	21	-0.75805753
-4.3053865	doonnextdone	-1.5894257
-4.4548016	assertvalueset	-1.2883956
-4.158567	scalarsupplier	-0.9071722
-3.8266537	drop	-0.6142758
-3.434065	latest	-0.74026537
-3.2778926	last	-0.819325
-3.7238219	lastelement	-0.7943834
-4.4548016	mockmaybeobserver	-1.3553425
-3.8889253	lastorerror	-0.685572
-4.3053865	objectobserver	-1.302981
-4.158567	bb	-1.7143644
-4.347112	ccc	-0.90742075
-3.9616446	mapped	-2.1334937
-4.158567	tomap	-1.28057
-4.3053865	lengthfunc	-1.0188453
-4.4548016	duplicate	-0.3331352
-4.347112	aa	-1.2883956
-4.3053865	lengthfuncerr	-0.58850944
-4.347112	duplicateerr	-0.58850944
-3.8889253	mapfactory	-1.103331
-4.4548016	linkedhashmap	-1.0213641
-4.4548016	removeeldestentry	-1.5894257
-3.7722013	entry	-0.80506516
-4.4548016	eldest	-1.5894257
-4.3053865	aaction0	-0.16570368
-4.4548016	checkactioncalled	-0.08313064
-4.4548016	completablecomplete	-0.38717717
-4.347112	completableerror	-0.24533339
-4.4548016	completablethrows	-0.4013908
-4.158567	uc	-0.4013908
-4.4548016	don	-0.9873657
-4.347112	work	-0.38438943
-4.347112	combinelatestw	-0.9873657
-4.4548016	1a	-1.0842757
-4.4548016	2a	-0.68541944
-4.4548016	3a	-1.0842757
-4.4548016	2b	-0.68541944
-4.4548016	3b	-0.4635707
-4.4548016	3c	-0.9873657
-4.4548016	1a2a3a	-0.4635707
-4.4548016	1a2b3a	-0.9873657
-4.4548016	1a2b3b	-0.08313064
-4.4548016	1a2b3c	-0.08313064
-4.4548016	1a2b3d	-0.08313064
-4.4548016	1b	-0.4635707
-4.4548016	1c	-0.9873657
-4.4548016	1d2b3a	-0.08313064
-4.4548016	2c	-0.08313064
-4.4548016	2d	-0.08313064
-4.4548016	1b2b3a	-0.08313064
-4.4548016	1b2c3a	-0.08313064
-4.4548016	1b2d3a	-0.08313064
-4.4548016	1b2d3b	-0.08313064
-4.347112	two2	-0.13076918
-4.347112	two3	-0.7912138
-4.347112	two4	-0.16570368
-4.4548016	one2	-0.3331352
-4.049039	a2	-1.1634569
-4.049039	a3	-0.96203285
-4.3053865	getstringvalue	-1.5102445
-4.347112	iarray	-1.1634569
-4.4548016	0x10	-0.08313064
-4.4548016	0x12	-0.4635707
-4.4548016	0x20	-0.08313064
-4.4548016	0x22	-0.4635707
-4.4548016	0x30	-0.9873657
-4.4548016	0x1	-0.08313064
-4.4548016	0x2	-0.08313064
-4.4548016	test1tonsources	-0.08313064
-4.347112	s3	-0.986711
-4.347112	s4	-0.9197642
-4.347112	s5	-0.84058297
-4.347112	s6	-0.74367297
-4.3053865	t6	-0.9041227
-4.347112	s7	-0.61873424
-4.3053865	t7	-0.779184
-4.347112	s8	-0.08313064
-4.3053865	t8	-0.49718735
-4.347112	s9	-0.21373715
-4.3053865	t9	-0.39186352
-3.4111855	dooneach	-0.80691314
-4.3053865	combinelatestarray	-1.464487
-4.4548016	errorlist	-0.81657016
-4.3053865	emptyobservable	-0.16570368
-4.3053865	errorobservable	-0.16570368
-3.7238219	integernotification	-0.8472833
-3.5710237	distinctuntilchanged	-0.9677973
-4.4548016	comparetoignorecase	-0.9873657
-3.8266537	mutable	-0.4313689
-4.3053865	unsubscribeaction	-0.08313064
-4.4548016	isa	-1.3395482
-4.347112	reduced	-1.2883956
-3.2312934	reduce	-1.1510499
-4.347112	i1	-1.561397
-4.347112	i2	-0.72017264
-3.8266537	skipuntil	-0.6589266
-4.347112	905	-0.9873657
-3.8266537	throttlefirst	-0.4686449
-4.4548016	501	-1.1634569
-4.158567	1001	-1.0895715
-4.4548016	1501	-0.9873657
-4.3053865	subscribedobserver	-1.065965
-4.3053865	sideeffectobserver	-0.6557546
-4.347112	errs	-0.08313064
-4.158567	expectedcount	-0.68550265
-4.4548016	booleans	-1.1634569
-3.9616446	builder	-0.21373715
-4.4548016	synthetic	-0.08313064
-4.347112	cancellation	-0.16570368
-4.347112	futureobservable	-0.21373715
-4.4548016	multithreadedwithnpe	-0.08313064
-4.3053865	lessthan9	-0.08313064
-4.4548016	astring	-0.08313064
-4.4548016	calling	-0.08313064
-4.4548016	without	-0.08313064
-4.4548016	fire	-0.08313064
-4.3053865	timehaspassed	-0.43004522
-4.4548016	8000	-0.08313064
-4.4548016	higher	-0.08313064
-4.4548016	pow	-0.58850944
-4.158567	nextiterator	-0.7912138
-4.4548016	th	-0.08313064
-4.347112	iteration	-0.08313064
-4.347112	nextobserver	-0.38717717
-4.3053865	setwaiting	-0.91884136
-4.347112	takenext	-0.13076918
-4.3053865	donelatch	-0.3331352
-4.4548016	slowinner	-0.08313064
-4.347112	actualinner	-0.3331352
-4.049039	common	-0.28071553
-4.3053865	delayunit	-0.08313064
-4.347112	compareto	-0.8615107
-4.4548016	performtestusing	-0.08313064
-4.3053865	gettextfromweb	-1.0710319
-4.3053865	resourcefactory	-1.4133344
-4.158567	observablefactory	-1.1378697
-4.347112	res	-1.1634569
-4.4548016	disposeaction	-0.9873657
-4.4548016	disposeeagerly	-0.08313064
-4.4548016	disposesubscription	-0.9873657
-4.4548016	createunsubaction	-1.2883956
-4.4548016	createonerroraction	-0.9873657
-4.158567	sourcesupplier	-1.0842757
-4.049039	timeoutfunc	-0.92286354
-4.347112	firsttimeoutfunc	-0.08313064
-4.158567	observerreceivedtwo	-0.685572
-4.3053865	timeoutemittedone	-0.685572
-4.158567	observercompleted	-0.3331352
-4.158567	enteredtimeoutone	-0.685572
-4.3053865	latchtimeout	-0.7310752
-4.4548016	counddownlatch	-0.08313064
-4.158567	timeoutandfallback	-0.384324
-3.8889253	zipr	-0.6107376
-4.4548016	tofunction	-1.3828945
-3.680296	ws	-0.33369562
-4.347112	util	-0.16570368
-4.347112	zipw	-0.3331352
-4.4548016	zipr2	-1.8904557
-4.4548016	helloworld	-0.44717136
-4.4548016	hi	-0.9873657
-4.4548016	hello1	-0.08313064
-4.4548016	zipr3	-0.08313064
-4.4548016	hello2	-0.08313064
-4.4548016	onea	-0.08313064
-4.4548016	twob	-0.08313064
-4.4548016	threec	-0.08313064
-4.4548016	fourd	-0.08313064
-4.4548016	helloagain	-0.9873657
-4.4548016	getdividezipr	-0.4013908
-3.8266537	oa	-0.63416517
-3.5399587	ob	-0.9464086
-4.4548016	getconcat2strings	-0.08313064
-4.4548016	a4	-0.4635707
-4.4548016	a5	-0.4635707
-4.347112	b3	-0.4635707
-4.347112	b4	-0.4635707
-4.347112	b5	-0.4635707
-4.4548016	b6	-0.9873657
-4.4548016	b7	-0.9873657
-4.4548016	b8	-0.9873657
-4.4548016	b9	-0.9873657
-4.3053865	integers	-0.63173133
-4.3053865	infiniteobservable	-0.16570368
-4.049039	isonerror	-0.31737724
-3.8266537	isonnext	-0.6413176
-4.347112	kind	-0.9873657
-4.158567	invoked	-0.4752093
-3.680296	argument	-0.7267478
-4.049039	generateda	-0.5806187
-4.049039	generatedb	-0.5806187
-4.4548016	numemitted	-0.9873657
-4.4548016	yield	-1.1123044
-4.347112	zip1	-0.08313064
-4.347112	1026	-0.44717136
-4.347112	zip2	-0.21373715
-4.347112	9000	-0.08313064
-4.347112	929	-0.86242694
-3.8889253	arr	-0.9346695
-4.4548016	rxsi	-0.9873657
-4.4548016	rxco	-0.9873657
-4.158567	observablelist	-0.08313064
-4.049039	verifyresult	-1.2883956
-4.158567	verifyerror	-1.1123044
-4.049039	onsubscribed	-0.6063908
-3.9616446	countbefore	-0.6063908
-3.9616446	countafter	-0.6063908
-4.3053865	sref	-0.3331352
-4.347112	testobservablefunc	-0.4013908
-3.5399587	op	-0.9677973
-4.4548016	8l	-1.1634569
-4.4548016	9l	-1.1634569
-4.3053865	intervalobserver	-0.21373715
-4.158567	ssource	-1.2603669
-4.158567	sother	-1.0842757
-3.8266537	until	-0.8981238
-4.158567	underlyingsubject	-1.2145102
-4.049039	withtimeout	-0.8315475
-4.3053865	exit	-0.43004522
-4.3053865	timeoutsetuped	-0.43004522
-4.3053865	isterminated	-0.21373715
-3.8889253	cc	-1.414463
-4.158567	dd	-0.8052646
-4.158567	tomultimap	-1.2915654
-4.049039	eee	-1.3853058
-4.4548016	fff	-1.2883956
-3.8266537	collectionfactory	-0.50710016
-3.8266537	mapsupplier	-0.6722508
-3.4582174	skiplast	-1.1578462
-3.4837923	groupedobservable	-1.1130896
-4.158567	grouped	-0.68541944
-3.115607	groupby	-1.3072244
-4.347112	sourcestrings	-0.21373715
-4.347112	errorsource	-0.08313064
-3.8266537	groupcounter	-1.2883956
-3.680296	eventcounter	-1.7143644
-3.6044831	getkey	-0.90594286
-4.347112	concurrenthashmap	-0.23100613
-3.7722013	subscribecounter	-1.2883956
-3.9616446	groupcount	-0.35653228
-4.158567	eventstream	-0.5471999
-4.347112	outputmessage	-1.1634569
-3.8889253	senteventcounter	-0.98685646
-4.4548016	39	-0.9873657
-4.347112	testunsubscribe	-0.8772032
-4.4548016	likely	-0.08313064
-4.4548016	correctly	-0.08313064
-4.4548016	58	-0.08313064
-4.158567	numtotake	-0.9873657
-4.4548016	37	-0.08313064
-3.4837923	group	-0.7502428
-3.8889253	results	-1.464487
-3.3489964	groups	-0.7056056
-4.347112	numgroups	-0.4635707
-4.3053865	4000	-0.4983239
-4.4548016	even2	-1.1634569
-4.4548016	odd	-1.0424839
-4.049039	bar	-0.4635707
-4.158567	baz	-0.23296024
-4.347112	qux	-0.08313064
-4.347112	keysel	-0.08313064
-3.6044831	trim	-0.66995686
-4.049039	tolowercase	-0.2677515
-4.347112	valuesel	-0.08313064
-4.4548016	uninitialized	-0.08313064
-4.3053865	inner1	-0.3331352
-4.3053865	inner2	-0.14354256
-4.158567	receivedexception	-1.1123044
-4.4548016	injected	-0.9873657
-4.3053865	tworesume	-1.4992491
-4.347112	threeresume	-1.1013091
-4.4548016	badmapper	-1.464487
-4.3053865	numbers	-0.08313064
-4.158567	niters	-0.08313064
-4.158567	iters	-0.08313064
-4.3053865	innerlatch	-0.3331352
-4.347112	integerobservable	-0.4635707
-4.4548016	incomplete	-0.08313064
-4.4548016	through	-0.08313064
-4.3053865	iterations	-0.21373715
-4.3053865	parentthreadname	-0.6063908
-3.8266537	completedlatch	-1.0842757
-3.9616446	threadname	-0.7758073
-4.3053865	correctthreadname	-0.4635707
-4.4548016	rxnewthreadscheduler	-0.9873657
-4.4548016	correct	-0.9873657
-4.4548016	randomintfrom0to100	-0.9873657
-4.3053865	nextlatch	-0.3331352
-4.158567	completetime	-0.6063908
-4.4548016	shouldn	-1.2883956
-4.347112	aftersubscribetime	-0.4635707
-4.4548016	nanos	-0.08313064
-4.3053865	35	-0.45412394
-4.347112	observeonobserver	-0.9873657
-3.7238219	oo	-0.76184297
-3.4837923	simplequeue	-1.3572769
-4.347112	disposedcount	-1.2061871
-3.9616446	buffered	-1.5314337
-4.4548016	anylist	-0.8315475
-4.4548016	97	-0.9873657
-4.347112	longtimeaction	-0.08313064
-4.3053865	61	-0.08313064
-4.347112	createarraylist	-0.42513624
-3.8266537	openindicator	-1.1836604
-3.8889253	closeindicator	-1.0080966
-3.7722013	producerindex	-0.21023397
-4.3053865	bufferexactobserver	-0.21373715
-4.049039	notifications	-0.81035817
-3.7722013	min	-0.98040456
-4.3053865	overflow	-0.58850944
-4.4548016	bigger	-1.1634569
-4.347112	sumerr	-0.81657016
-4.3053865	reducewith	-0.75857824
-3.6407373	delayed	-0.71378
-4.3053865	500l	-1.3853058
-4.4548016	1499l	-1.1634569
-4.4548016	1500l	-1.1634569
-4.4548016	2400l	-0.9873657
-4.4548016	2500l	-1.1634569
-4.4548016	3400l	-0.9873657
-4.4548016	3500l	-1.1634569
-4.4548016	5999l	-0.08313064
-4.4548016	6000l	-0.08313064
-4.4548016	6999l	-0.08313064
-4.4548016	7999l	-0.08313064
-4.4548016	8000l	-0.08313064
-4.4548016	2000l	-0.9873657
-4.4548016	2499l	-0.08313064
-4.158567	delays	-0.43004522
-4.158567	delayfunc	-1.2498435
-4.347112	subfunc	-1.2304038
-4.3053865	sdelay	-0.14354256
-4.347112	delayer	-0.08313064
-4.158567	subjects	-0.71564424
-4.158567	itemdelay	-0.27030525
-3.7238219	ps3	-0.754779
-4.347112	resfunc	-1.2883956
-3.3300996	flatmapiterable	-1.5188446
-4.049039	just0	-0.9980226
-4.347112	functhrow	-0.08313064
-4.4548016	functhrow0	-0.9873657
-4.4548016	many	-0.8677227
-4.4548016	unsubscriptions	-0.9873657
-4.3053865	41	-0.5632684
-4.3053865	51	-0.5632684
-4.4548016	71	-0.08313064
-4.4548016	81	-0.08313064
-4.4548016	91	-0.08313064
-4.3053865	containsall	-0.2393228
-4.4548016	1010	-0.08313064
-4.4548016	1011	-0.08313064
-4.4548016	2020	-0.08313064
-4.4548016	2021	-0.08313064
-4.4548016	3030	-0.08313064
-4.4548016	3031	-0.08313064
-4.4548016	4040	-0.08313064
-4.4548016	4041	-0.08313064
-4.4548016	5050	-0.08313064
-4.4548016	5051	-0.08313064
-4.4548016	6060	-0.08313064
-4.4548016	6061	-0.08313064
-4.4548016	7070	-0.08313064
-4.4548016	7071	-0.08313064
-4.4548016	8080	-0.08313064
-4.4548016	8081	-0.08313064
-4.4548016	9090	-0.08313064
-4.4548016	9091	-0.08313064
-4.347112	rnd	-1.0842757
-4.4548016	nextboolean	-0.9873657
-4.4548016	flatmaptwonestedsync	-0.08313064
-4.158567	fusedsource	-0.24533339
-4.347112	observableflatmap	-0.45412394
-4.347112	mergeobserver	-0.40139082
-3.8889253	merger	-0.84557146
-3.9616446	14	-0.3860029
-4.3053865	23	-0.84058297
-4.158567	ps4	-0.21373715
-3.7722013	throttlelatest	-1.5756375
-3.7238219	oncancel	-0.6698117
-4.3053865	timerobserver	-0.4013908
-4.3053865	tm	-0.40139082
-4.4548016	newslowprocessor	-0.9873657
-3.7722013	producer	-0.15290205
-4.347112	getanddecrement	-1.2883956
-4.347112	attempts	-0.4635707
-3.8266537	tuple	-0.9545263
-3.9616446	numretries	-0.6126411
-3.680296	origin	-1.2298309
-4.4548016	funcwitherrors	-0.8618541
-4.4548016	beginningeverytime	-0.81575316
-4.4548016	onsuccessonly	-1.3114202
-4.3053865	inc	-0.3331352
-4.3053865	attempt	-0.45412394
-4.158567	numfailures	-0.5792527
-4.158567	record	-0.34948647
-3.6044831	subscount	-1.406495
-4.3053865	streamwithretry	-0.4635707
-4.4548016	context	-0.08313064
-4.347112	nr	-0.9873657
-4.4548016	emitdelay	-0.9873657
-4.4548016	nextbeforefailure	-0.9873657
-3.8266537	target	-0.20369604
-4.158567	retries	-0.4624109
-4.3053865	ncpu	-0.08313064
-4.3053865	timeouts	-0.3331352
-3.8266537	data	-0.9068317
-4.347112	nexts	-0.9873657
-4.3053865	content	-0.21373715
-4.347112	mismatch	-0.16570368
-4.4548016	allsequencefrequency	-0.08313064
-4.4548016	its	-0.08313064
-4.049039	entryset	-0.2677515
-4.4548016	sequencefrequency	-0.08313064
-3.680296	prev	-0.66314304
-3.7722013	cnt	-0.38499534
-3.3489964	curr	-0.39911568
-4.4548016	1034	-0.9873657
-3.6407373	withlatestfrom	-0.926203
-3.4111855	combiner	-1.073777
-3.7238219	val	-0.34389716
-4.4548016	1250	-0.08313064
-4.158567	capturedexception	-1.1123044
-3.9616446	defaultifempty	-0.28071553
-3.311991	concatmapeager	-1.0300375
-4.4548016	tojust	-0.4418397
-4.4548016	torange	-0.08313064
-4.3053865	lst	-0.08313064
-4.4548016	nextint	-1.1634569
-3.8889253	generate	-0.84678745
-4.347112	maptoint	-0.40139082
-4.347112	testlocalobserver	-0.08313064
-4.3053865	captureobserver	-0.08313064
-4.3053865	errorthrown	-0.16570368
-4.347112	parentobservable	-0.4013908
-4.347112	uieventloopscheduler	-0.9873657
-3.9616446	uieventloop	-0.7826728
-4.347112	threadsubscription	-0.9873657
-3.8889253	subscribethread	-1.3553425
-3.8889253	unsubscribethread	-0.94040936
-4.347112	getthread	-0.27030525
-4.4548016	ui	-0.08313064
-4.4548016	eventloop	-0.08313064
-4.158567	wm	-1.3553827
-3.9616446	observablecache	-0.3873477
-4.4548016	isconnected	-0.57340467
-4.4548016	cachedeventcount	-0.4013908
-4.158567	dst	-1.1634569
-4.347112	rangelong	-1.239272
-3.7238219	switchifempty	-0.98685646
-4.347112	withproducer	-0.16570368
-4.4548016	42l	-0.3891794
-4.158567	rxsinglescheduler	-1.645874
-4.4548016	890	-1.1634569
-4.4548016	120	-1.1634569
-4.4548016	exp	-1.6405783
-4.158567	startwitharray	-0.289058
-3.680296	sample	-1.062934
-4.4548016	400l	-0.08313064
-4.4548016	800l	-0.08313064
-4.4548016	1200l	-0.08313064
-4.4548016	1600l	-0.08313064
-3.6044831	sampler	-0.9681186
-4.347112	throttlelast	-0.08313064
-3.5399587	all	-1.2189366
-4.347112	allodd	-0.08313064
-4.4548016	supported	-1.2061871
-4.4548016	yet	-1.1634569
-4.4548016	omg	-0.08313064
-4.4548016	calculating	-0.08313064
-4.4548016	hard	-0.08313064
-4.049039	squarestr	-0.13076918
-4.4548016	printer	-0.08313064
-3.680296	sr	-0.3380931
-4.4548016	stringobserver2	-0.4013908
-4.158567	getmap	-1.2304038
-4.3053865	m2	-0.6464758
-4.049039	firstname	-0.63603866
-4.4548016	onefirst	-1.1634569
-4.4548016	twofirst	-1.1634569
-4.158567	subobservable	-0.3331352
-4.347112	m3	-1.1634569
-4.347112	m4	-0.87039506
-4.4548016	threefirst	-0.9873657
-4.4548016	fourfirst	-0.9873657
-4.347112	arg0	-0.9873657
-3.8266537	prefix	-0.24533339
-4.4548016	lastname	-0.08313064
-4.4548016	950	-0.86242694
-4.4548016	1050	-0.86242694
-3.7238219	tosortedlist	-0.62150776
-3.4837923	comparator	-0.8092104
-4.158567	compare	-0.6557467
-3.8889253	sorted	-0.71605223
-4.347112	anyeven	-0.08313064
-4.3053865	objectsubscriber	-1.302981
-3.5710237	subscriber1	-1.3824043
-3.680296	subscriber2	-1.0929574
-3.7722013	tsbp	-1.2361842
-4.347112	reqcount	-0.40139082
-3.4582174	rebatchrequests	-0.7756698
-3.7238219	pp3	-0.6992262
-4.347112	conditional	-0.54863507
-3.2778926	behaviorprocessor	-1.587568
-4.4548016	org	-0.4013908
-4.4548016	reactivestreams	-0.4013908
-3.8266537	testflowable	-0.6126765
-4.049039	backpressure	-0.4013908
-4.158567	erroroccurred	-1.1123044
-4.049039	non	-0.4257821
-3.8889253	types	-0.13858514
-3.7238219	argstostring	-1.464487
-4.3053865	params0	-0.08313064
-4.049039	clone	-0.19249775
-4.3053865	emptyflowable	-0.16570368
-4.3053865	errorflowable	-0.16570368
-3.6407373	flowableprocessor	-1.3131235
-4.3053865	blockingflowablenext	-0.16570368
-4.158567	nextsubscriber	-0.3928069
-4.158567	flowableofflowables	-0.38717717
-4.4548016	infiniteiterator	-0.4013908
-4.4548016	flowableonsubscribe	-1.472455
-3.9616446	flowableemitter	-1.4171519
-3.434065	elements	-0.7071705
-3.2946072	connectableflowable	-0.9951408
-4.158567	itemcount	-0.2677515
-3.3894513	groupedflowable	-1.287587
-4.049039	eventgroupedflowable	-0.5632684
-3.9616446	evictingmapfactory	-0.5253624
-4.158567	notify	-0.83260643
-4.347112	tick	-0.4013908
-4.4548016	addcompletedkey	-0.08313064
-4.158567	cacheout	-0.24533339
-4.158567	numvalues	-0.4013908
-4.4548016	mod5	-0.4013908
-4.4548016	invalidateall	-0.4013908
-4.049039	testticker	-0.2677515
-4.3053865	cachebuilder	-1.1634569
-4.4548016	newbuilder	-0.38717717
-4.4548016	expireafteraccess	-0.08313064
-4.049039	removallistener	-0.34595498
-4.4548016	onremoval	-0.9873657
-4.4548016	removalnotification	-0.08313064
-4.4548016	ticker	-0.08313064
-4.4548016	build	-0.4635707
-4.347112	asmap	-0.69699264
-4.3053865	canceled	-0.53765
-4.4548016	containskey	-0.4013908
-4.4548016	containsvalue	-0.4013908
-3.6407373	maxsize	-0.354039
-4.4548016	evictedlistener	-0.4013908
-4.4548016	maximumsize	-0.16570368
-4.3053865	2048	-0.21373715
-3.680296	runon	-1.4822156
-4.3053865	operation	-0.21373715
-4.347112	issue6974run	-0.08313064
-4.3053865	sizecap	-0.7639394
-4.347112	gf	-0.8260412
-4.4548016	flatmapconcurrency	-0.4013908
-4.347112	itemevictconsumer	-0.08313064
-4.4548016	maxcapacity	-0.4013908
-4.347112	removalcause	-0.08313064
-4.4548016	explicit	-0.4013908
-4.4548016	notifyonexplicit	-0.4013908
-4.3053865	groupbybuffersize	-0.82056487
-4.4548016	cancelling	-0.9873657
-4.4548016	expireafterwrite	-0.4013908
-4.4548016	ttl	-0.4013908
-4.347112	com	-0.6178114
-4.4548016	google	-0.4013908
-4.4548016	ttlcapguava	-0.08313064
-4.4548016	duration	-0.08313064
-4.4548016	ofmillis	-0.08313064
-4.347112	emptyset	-1.3490936
-4.4548016	600l	-0.86242694
-4.347112	cmp	-1.1634569
-4.347112	testflowablefunc	-0.4013908
-3.680296	onbackpressuredrop	-0.5793836
-4.158567	flowableeventstream	-0.9373418
-4.158567	geteventstream	-1.464487
-4.4548016	http	-1.1634569
-4.4548016	clusterb	-1.2883956
-3.9616446	accum	-1.1914856
-4.347112	perinstanceevent	-0.6063908
-4.3053865	instanceid	-0.53051746
-4.347112	throwingbifunction	-0.9873657
-4.049039	scanwith	-0.4418397
-4.4548016	throwingsupplier	-0.4013908
-3.8889253	onbackpressurereduce	-0.7267478
-3.4837923	reducer	-1.193568
-4.4548016	168	-0.16570368
-4.4548016	67	-0.4013908
-4.4548016	nextdouble	-1.1634569
-4.4548016	001	-1.1634569
-4.4548016	testasynchronousdrop	-0.86242694
-4.4548016	totalvalues	-0.08313064
-3.9616446	previous	-0.91995436
-4.4548016	must	-0.86242694
-4.4548016	increasing	-0.86242694
-4.4548016	assertvaluesdropped	-0.9873657
-4.4548016	resourcecancel	-0.4013908
-4.4548016	cancelresource	-0.4013908
-3.9616446	stringsubscriber	-1.572705
-4.4548016	stringsubscriber2	-0.4013908
-4.158567	subflowable	-0.3331352
-4.3053865	flowable1	-0.81657016
-4.347112	flowable2	-0.5094807
-4.347112	mysubscriber	-0.4013908
-4.347112	10l	-0.4418397
-3.8266537	l1	-0.5093281
-3.8889253	l2	-0.3331352
-3.7238219	multicastprocessor	-1.6054407
-3.1387835	mp	-1.187802
-4.158567	errorall	-1.2936914
-4.347112	completeall	-0.16570368
-4.347112	outputcanceller	-0.40139082
-3.8266537	strategy	-0.13858514
-4.158567	emittermap	-0.7639394
-3.8889253	flowablecreate	-0.4013908
-4.347112	missingemitter	-0.4013908
-4.347112	errorasyncemitter	-0.4013908
-4.347112	dropasyncemitter	-0.4013908
-4.347112	latestasyncemitter	-0.4013908
-4.347112	bufferasyncemitter	-0.4013908
-4.3053865	delayuntil	-0.08313064
-4.4548016	disposablesubscriber	-0.16570368
-4.4548016	anyboolean	-0.08313064
-4.4548016	justcallable	-0.9373418
-4.158567	pp4	-0.21373715
-4.158567	flowableflatmap	-0.44717136
-3.7238219	innersubscriber	-0.3880591
-4.4548016	scalaremptycancel	-0.4013908
-3.9616446	flowablecache	-0.5995467
-4.158567	witherror	-1.0842757
-4.4548016	publishasyncemitter	-0.4013908
-3.8889253	sourcenocancel	-1.4603574
-4.3053865	could	-1.6640593
-4.4548016	lack	-1.8002791
-4.3053865	mocksubscription	-0.9873657
-4.158567	spiedworker	-0.6441099
-4.4548016	workerspy	-0.9873657
-4.4548016	90l	-0.9873657
-3.9616446	ts21	-0.9873657
-3.9616446	ts22	-0.9873657
-3.7238219	ts3	-0.8540664
-4.049039	ts11	-0.083130606
-4.347112	hasupstreampublisher	-0.6178114
-4.049039	flowablereplay	-1.3459109
-3.7722013	replaybuffer	-1.406495
-4.158567	stringflowable	-0.4635707
-4.3053865	flowabledisposed	-0.21373715
-3.2168088	notificationlite	-1.3370123
-4.4548016	iscomplete	-0.85206395
-4.4548016	iserror	-1.033173
-4.4548016	isdisposable	-0.9873657
-4.4548016	issubscription	-0.9873657
-4.158567	runnabledisposable	-0.87039506
-4.3053865	emptyrunnable	-0.40139082
-4.4548016	getdisposable	-0.4013908
-4.4548016	getsubscription	-0.4013908
-3.311991	backpressurehelper	-1.6203758
-4.3053865	firstsubscriber	-0.7639394
-4.3053865	secondsubscriber	-0.7639394
-4.3053865	nevernever	-0.08313064
-4.3053865	swap	-0.08313064
-4.158567	cancelcalled	-0.21373715
-4.158567	droppedcount	-0.3331352
-4.347112	incrementondrop	-0.08313064
-4.4548016	createtestsubscriber	-0.08313064
-3.4582174	onbackpressurebuffer	-0.64300185
-4.4548016	oldest	-0.19249775
-4.4548016	497	-0.4013908
-4.4548016	498	-0.4013908
-4.347112	499	-0.69430375
-4.3053865	y	-0.86639273
-4.4548016	blockingop	-1.1634569
-4.3053865	infiniteflowable	-0.16570368
-4.158567	flowablelist	-0.08313064
-4.049039	flowablescalarxmap	-0.99133146
-4.049039	scalar	-0.16570368
-4.3053865	intervalsubscriber	-0.21373715
-4.158567	leftrightsubscriber	-0.34595498
-4.049039	fromsupplierflowable	-0.9134802
-3.9616446	listofflowables	-0.9873657
-4.4548016	testerrorflowable	-1.1634569
-4.4548016	pauseforms	-0.08313064
-4.4548016	printcount	-0.4013908
-4.4548016	debug	-0.4013908
-4.347112	mergesubscriber	-0.13076918
-4.347112	45	-0.16570368
-4.347112	55	-0.4013908
-4.4548016	c3	-0.4013908
-4.4548016	c4	-0.4013908
-4.4548016	c5	-0.4013908
-4.4548016	c6	-0.4013908
-4.4548016	c7	-0.4013908
-4.4548016	c8	-0.4013908
-4.4548016	c9	-0.4013908
-4.4548016	c10	-0.4013908
-4.158567	createflowable	-1.0922438
-4.158567	backpressurecallback	-0.21373715
-3.8266537	onbackpressurelatest	-0.80985844
-4.4548016	cancelledsubscriber	-0.08313064
-3.3894513	replayprocessor	-1.6717385
-4.347112	badflowablesubscribe	-0.4013908
-4.347112	badflowabledispose	-0.4013908
-4.347112	badflowableconnect	-0.4013908
-4.347112	badflowableconnect2	-0.4013908
-3.8889253	bp	-0.72948235
-4.4548016	badflowabledoubleonx	-0.86242694
-4.3053865	flowablerefcount	-0.7912138
-4.347112	tcf	-0.40139082
-3.1632667	rp	-1.2924987
-4.347112	flowable3	-0.86242694
-4.3053865	requested1	-0.6178114
-4.3053865	requested2	-0.6178114
-4.4548016	flowablerange	-0.69430375
-4.4548016	createtestsupplier	-0.7268121
-4.3053865	createtestreducer	-0.83260643
-4.4548016	orelsethrow	-0.4013908
-4.158567	startcount	-0.21373715
-4.347112	unnecessary	-0.24533339
-4.049039	fromcallableflowable	-0.9134802
-4.158567	flowablepublish	-0.16570368
-3.7238219	innersubscription	-1.0922438
-4.347112	transformer	-1.1982191
-4.347112	evennumbers	-0.08313064
-4.347112	oddnumbers	-0.08313064
-4.347112	getnextodd	-0.4635707
-4.4548016	19	-0.16570368
-4.158567	timeoutconsumer	-1.0424839
-4.4548016	reschedule	-0.4013908
-3.6407373	onafterterminate	-1.0748482
-4.158567	finallyaction	-0.21373715
-4.347112	parentflowable	-0.4013908
-4.3053865	tsinner	-0.4013908
-4.049039	cancel1	-0.13076918
-4.3053865	flowableretrytest	-0.9873657
-4.3053865	slowflowable	-0.81657016
-4.3053865	asyncsubscriber	-0.9873657
-4.3053865	subscribedsubscriber	-1.065965
-4.3053865	sideeffectsubscriber	-0.6557546
-4.4548016	flowabledooneach	-0.7912138
-4.3053865	numforbatches	-0.21373715
-4.4548016	128l	-0.4013908
-4.4548016	16l	-0.4013908
-4.347112	12l	-0.9953338
-4.4548016	20l	-0.4013908
-4.347112	15l	-0.16570368
-3.8266537	sourcemode	-1.5086906
-4.158567	tryschedule	-1.0274235
-4.4548016	trackingworker	-0.4013908
-4.347112	volatile	-0.86242694
-4.4548016	getandadd	-0.08313064
-4.158567	do	-0.44717136
-4.3053865	sf	-0.40139082
-4.158567	compl	-0.9873657
-4.3053865	maybecache	-0.9373418
-4.049039	dout	-0.7912138
-4.347112	secondary	-0.4013908
-4.049039	mergemaybeobserver	-0.9134802
-4.4548016	maybedofinallytest	-0.9873657
-4.4548016	checkdisposedmaybe	-0.86242694
-4.4548016	maybeonsubscribe	-1.4460036
-4.4548016	maybeemitter	-1.4460036
-4.347112	maybeisempty	-0.4013908
-4.4548016	maybecreate	-0.08313064
-4.158567	innerqueuedobserver	-0.69699264
-3.434065	fo	-1.2591648
-4.347112	futureobserver	-0.34595498
-3.8266537	bmo	-0.5497868
-4.3053865	queuedrainobserver	-1.2304038
-4.158567	fastpathemit	-0.21373715
-3.9616446	fastpathorderedemit	-0.16570368
-4.158567	takefirst	-1.0596082
-4.049039	blockingobserver	-0.2677515
-4.347112	futuremultiobserver	-0.21373715
-4.3053865	lambdaobserver	-0.8240655
-4.158567	observererrors	-0.21373715
-4.347112	trydispose	-0.40139082
-4.4548016	crashoniterator	-0.08313064
-4.4548016	crashingiterator	-0.4013908
-4.3053865	crashonhasnext	-0.08313064
-3.8266537	addall	-0.61534727
-4.4548016	retainall	-0.4013908
-3.6044831	indexof	-0.44951195
-4.347112	listiterator	-0.4013908
-4.347112	lit	-0.4013908
-4.4548016	sublist	-0.4013908
-4.158567	sub1	-1.4023391
-4.158567	sub2	-1.2774003
-4.347112	enddefaultsubscriber	-0.4013908
-4.158567	internal	-0.9373418
-4.4548016	resourceobserver	-0.4013908
-3.8889253	bufferedreader	-1.4460036
-4.4548016	filereader	-1.1256684
-3.033588	line	-1.0364903
-4.4548016	readline	-1.1634569
-4.4548016	basepath	-0.4013908
-4.049039	listfiles	-0.9091967
-3.7238219	endswith	-0.55014414
-3.0526867	continue	-0.72935975
-4.4548016	basepackage	-0.4013908
-4.347112	cn	-0.40139082
-4.3053865	clazz2	-0.4013908
-4.158567	methods2	-0.21373715
-4.3053865	getmethods	-0.91884136
-3.2778926	lines	-1.0844988
-4.347112	readalllines	-0.82193136
-4.049039	operators	-0.49625728
-3.9616446	openhashset	-0.69915575
-3.4111855	halfserializer	-1.668025
-3.9616446	clazzname	-0.28450394
-3.9616446	packagename	-0.41452423
-4.4548016	getpackage	-1.0842757
-3.8266537	files	-0.5758465
-4.347112	topath	-0.7639394
-4.347112	line2	-0.1166167
-4.3053865	pow2	-0.87039506
-4.4548016	ispoweroftwo	-0.4013908
-4.3053865	hashmapsupplier	-0.7912138
-3.7238219	arraylistsupplier	-1.1687527
-4.347112	linkedarraylist	-0.4013908
-4.4548016	nonthrowingpredicate	-1.0842757
-3.434065	queuedrainhelper	-0.93742394
-4.347112	argumentnameandtype	-0.32346538
-4.347112	classmethods	-0.4013908
-4.3053865	computeifabsent	-0.16570368
-4.4548016	getdeclaredmethods	-0.4013908
-4.347112	getdeclaringclass	-1.2883956
-4.347112	getparametercount	-0.4013908
-4.347112	overloads	-0.4013908
-4.3053865	overload	-0.40139082
-3.9616446	parameter	-0.21373715
-3.8889253	param	-0.3507122
-4.347112	getparameters	-0.40139082
-3.6407373	typename	-0.3093195
-4.4548016	gettype	-0.08313064
-4.4548016	isarray	-0.4013908
-4.347112	componenttype	-0.4013908
-4.347112	getcomponenttype	-0.5632684
-4.4548016	basetype	-0.08313064
-3.2946072	capacityhint	-0.52472377
-4.347112	firstclassmethods	-0.4013908
-4.158567	secondname	-0.24533339
-4.4548016	secondclassmethods	-0.4013908
-4.158567	methodoverloadsfirst	-0.6178114
-4.158567	overloadfirst	-0.3891794
-4.158567	overloadsecond	-0.24533339
-4.3053865	match	-0.40139082
-4.4548016	naming	-0.4013908
-4.4548016	padend	-0.4013908
-3.5710237	pattern	-0.73327655
-4.4548016	compile	-0.6090259
-4.347112	img	-0.4013908
-4.3053865	width	-0.40139082
-4.158567	height	-0.4013908
-4.3053865	dimensions	-0.40139082
-4.158567	simplename	-0.16570368
-3.8889253	matcher	-0.5563076
-4.4548016	parseint	-0.8315475
-3.8889253	imagedim	-0.16570368
-4.4548016	per	-0.4013908
-4.4548016	image	-0.4013908
-4.4548016	millis	-0.4013908
-4.4548016	bufferedimage	-0.4013908
-4.158567	bimg	-0.4013908
-4.4548016	imageio	-0.4013908
-4.4548016	getwidth	-0.4013908
-4.4548016	getheight	-0.4013908
-4.3053865	expectedheight	-0.40139082
-4.347112	https	-0.69430375
-4.4548016	raw	-0.4013908
-4.347112	github	-0.9873657
-4.347112	wiki	-0.69430375
-4.4548016	images	-0.4013908
-4.4548016	opmatrix	-0.4013908
-4.4548016	png	-0.4013908
-4.3053865	operatorset	-0.40139082
-4.3053865	operatormap	-0.40139082
-4.4548016	issynthetic	-0.4013908
-4.158567	sortedoperators	-0.4013908
-4.347112	sort	-0.40139082
-4.4548016	naturalorder	-0.4013908
-4.4548016	newbufferedwriter	-0.4013908
-4.4548016	paths	-0.4013908
-3.7238219	docs	-0.5067502
-4.4548016	matrix	-0.4013908
-3.7722013	md	-1.0195906
-4.347112	standardopenoption	-0.4013908
-4.4548016	existing	-0.4013908
-4.158567	header	-0.4013908
-4.3053865	notesmap	-0.4013908
-4.049039	noteslist	-0.4013908
-4.049039	tbdlist	-0.4013908
-4.158567	counters	-0.21373715
-3.9616446	operatorname	-0.44717136
-3.7722013	notes	-0.49625728
-4.4548016	findnotes	-0.4013908
-4.4548016	absent	-0.4013908
-4.347112	sup	-0.21373715
-4.4548016	title	-0.4013908
-4.347112	replaceall	-0.40139082
-4.4548016	tbd	-0.4013908
-4.4548016	br	-0.4013908
-4.4548016	under	-0.08313064
-4.4548016	development	-0.08313064
-4.4548016	currently	-0.4013908
-4.4548016	intended	-0.4013908
-4.4548016	implemented	-0.4013908
-4.3053865	classnotes	-0.40139082
-3.8266537	blockinghelper	-1.275208
-4.4548016	awaitforcomplete	-0.08313064
-4.4548016	acceptfull	-0.38717717
-4.4548016	postcomplete	-0.9953338
-4.4548016	postcompleterequest	-0.16570368
-4.347112	queuedrain	-1.5314337
-4.3053865	leave	-0.88514435
-4.4548016	drainmaxloop	-1.0385182
-3.9616446	checkterminated	-0.9194602
-4.347112	observablequeuedrain	-1.464487
-3.6044831	mask	-0.5002003
-4.4548016	addthrowable	-1.472455
-4.4548016	throwifthrowable	-0.7912138
-4.347112	mergerbifunction	-0.90515715
-4.3053865	tryterminateconsumer	-1.3891978
-4.4548016	wraptoemitter	-0.86242694
-4.347112	addcap	-0.38642105
-4.4548016	multiplycap	-0.41304523
-4.4548016	producedcancel	-0.16570368
-4.4548016	addcancel	-1.1982191
-3.5109682	objecthelper	-2.189942
-4.4548016	verifypositive	-1.1697524
-4.3053865	hashsetsupplier	-0.24533339
-4.158567	naturalcomparator	-0.34913164
-4.4548016	predicatereversefor	-0.08313064
-4.347112	identityfunction	-0.4013908
-4.347112	emptyaction	-0.4013908
-4.049039	fromcompletionstage	-1.3231578
-4.158567	completablefuture	-1.4774076
-4.347112	completedfuture	-0.9926615
-3.8889253	blockingstream	-0.43979883
-4.4548016	collectors	-1.1772277
-4.3053865	fromoptional	-1.2883956
-3.5710237	optional	-1.5698979
-3.434065	flatmapstream	-1.9167846
-4.3053865	intstream	-1.6753403
-3.9616446	boxed	-0.77365315
-4.4548016	43	-0.4635707
-4.4548016	44	-0.9873657
-4.4548016	52	-1.1634569
-4.4548016	53	-0.4635707
-4.4548016	54	-0.9873657
-3.8889253	onclose	-1.0977525
-4.4548016	rebatch	-0.08313064
-4.4548016	concatmapstream	-1.5894257
-4.4548016	rangeclosed	-1.707525
-4.158567	qsr	-0.3331352
-3.4837923	mapoptional	-1.5750645
-4.4548016	parallelflowabletest	-1.4266984
-4.4548016	checksubscribercount	-1.1336365
-4.347112	arithmeticexception	-1.5894257
-4.4548016	parallelinvalid	-0.5729018
-3.9616446	tocompletionstage	-1.275208
-3.9616446	tocompletablefuture	-1.9044827
-4.049039	firstorerrorstage	-1.6405783
-4.049039	singleorerrorstage	-1.6405783
-3.9616446	lastorerrorstage	-1.6405783
-3.5109682	collector	-1.1808672
-3.4837923	accumulator	-0.931288
-4.4548016	binaryoperator	-1.6863357
-3.9616446	finisher	-1.2029655
-4.347112	characteristics	-1.6863357
-4.158567	qdr	-1.1123044
-4.049039	firststage	-0.94069195
-4.049039	singlestage	-0.94069195
-3.9616446	laststage	-0.94069195
-4.4548016	toset	-0.4013908
-4.4548016	summinglong	-0.08313064
-4.347112	fromstream	-1.9038197
-4.4548016	requestonebyonebase	-0.4013908
-4.4548016	newcachedthreadpool	-0.69430375
-4.4548016	requestracebase	-0.4013908
-4.4548016	modulo	-1.1634569
-3.680296	acd	-0.8240655
-4.158567	d4	-0.65015763
-4.3053865	d5	-0.40139082
-4.3053865	d6	-0.40139082
-4.4548016	tryset	-0.38438943
-3.6044831	lcd	-1.0732803
-3.7722013	delete	-0.88138556
-4.3053865	iterate	-1.9873657
-4.347112	createwithsize	-0.7686903
-4.049039	refcountsubscriber	-0.38428771
-4.049039	rcs	-0.4013908
-4.4548016	refcountprocessor	-0.40139082
-3.7722013	hascomplete	-1.645562
-3.7722013	hasthrowable	-1.7185607
-3.8266537	getthrowable	-1.3304088
-4.4548016	arraycopy	-1.6863357
-4.347112	createwithtime	-1.4460036
-4.4548016	useinfinite	-0.4013908
-4.4548016	infiniterange	-0.4013908
-4.4548016	finiterange	-0.4013908
-4.4548016	finiterangeiterator	-0.4013908
-3.6407373	asyncprocessor	-1.2663293
-4.049039	li	-1.1123044
-4.347112	alpha	-0.9873657
-4.347112	beta	-0.9873657
-4.3053865	startwithiterable	-0.3331352
-4.3053865	caughterror	-1.1123044
-3.7238219	generator	-0.79595315
-3.2778926	movie	-0.93576854
-3.5399587	horrormovie	-0.9976816
-3.680296	media	-0.8359812
-4.347112	sortfunction	-0.16570368
-4.4548016	tvseason	-0.08313064
-4.4548016	album	-0.4013908
-4.4548016	actionmovie	-0.5121159
-4.158567	movies	-0.08313064
-4.347112	movie2	-1.2883956
-4.4548016	deltatransformer	-0.08313064
-4.158567	listoflists	-0.58850944
-4.3053865	newlist	-0.08313064
-4.158567	oldlist	-0.08313064
-3.8889253	delta	-0.08313064
-4.4548016	linkedhashset	-0.08313064
-4.4548016	old	-0.08313064
-4.4548016	movielist	-0.08313064
-4.4548016	calculatedelta	-0.08313064
-4.158567	horrormovies	-0.8618541
-4.4548016	reduceresult	-0.9873657
-4.347112	reduceresult2	-1.2883956
-4.4548016	hook	-0.86242694
-4.049039	please	-0.19249775
-4.4548016	change	-0.4013908
-4.4548016	provided	-0.86242694
-4.347112	returns	-0.69430375
-4.4548016	further	-0.86242694
-4.4548016	reading	-0.86242694
-4.3053865	plugins	-1.0861472
-4.4548016	badobservable	-0.4013908
-4.3053865	chained	-0.08313064
-4.158567	connectable	-0.44717136
-4.347112	linkedlist	-0.08313064
-4.158567	horrormovie1	-0.7580533
-4.158567	horrormovie2	-0.72329116
-4.3053865	media1	-0.16570368
-4.3053865	media2	-0.08313064
-4.158567	horrors	-1.4133344
-4.347112	metahorrors	-0.21373715
-4.158567	coolrating	-0.68541944
-4.347112	ratings	-0.8772032
-4.158567	combine	-1.1272788
-4.4548016	rating	-1.1634569
-4.347112	extendedresult	-0.9873657
-4.4548016	extendedaction	-0.08313064
-4.4548016	eventconsumer	-0.4013908
-4.3053865	numinstances	-0.16570368
-4.347112	count200	-0.3331352
-4.158567	randomintfrom0to	-0.08313064
-4.4548016	count4xx	-0.08313064
-4.4548016	count5xx	-0.08313064
-4.4548016	randomevent	-0.08313064
-4.347112	throttlewithtimeout	-0.08313064
-4.4548016	1800	-0.08313064
-4.4548016	clustera	-0.9873657
-4.3053865	ge	-0.685572
-4.049039	pf	-0.26138648
-4.4548016	stripboundary	-0.16570368
-3.8889253	between	-0.19249775
-4.158567	processing	-0.21373715
-4.4548016	putifabsent	-0.08313064
-4.347112	doafterterminated	-0.86242694
-4.4548016	paralleltransformer	-0.4013908
-3.9616446	consumers	-0.21373715
-4.347112	listaddbiconsumer	-0.16570368
-3.8889253	sequentialdelayerror	-0.8303895
-4.347112	flow	-0.4013908
-4.4548016	parallelsortedjoin	-0.4013908
-4.3053865	actiondisposable	-0.7912138
-3.8266537	autocloseable	-0.5497868
-4.4548016	fromautocloseable	-0.08313064
-4.4548016	toautocloseable	-0.4013908
-4.3053865	cd1	-0.21373715
-4.347112	cd2	-0.4013908
-4.4548016	throwsneaky	-0.4013908
-4.347112	futuredisposable	-0.40139082
-3.8266537	underlying	-0.636136
-4.158567	another	-0.08313064
-4.158567	firstset	-0.08313064
-4.4548016	robotconversionfunc	-0.4013908
-4.4548016	flowablefilter	-0.4013908
-4.4548016	flowablemap	-0.40139082
-4.347112	boop	-0.08313064
-3.7722013	cylon	-0.14696737
-4.3053865	jail	-0.08313064
-4.4548016	throwouttheairlock	-0.08313064
-4.4548016	destroyed	-0.08313064
-4.347112	anonymous	-0.16570368
-4.4548016	william	-0.4013908
-4.347112	adama	-0.4013908
-4.4548016	laura	-0.4013908
-4.4548016	roslin	-0.4013908
-4.4548016	lee	-0.4013908
-4.4548016	beep	-0.4013908
-4.4548016	destroy	-0.4013908
-4.4548016	converttoobservable	-0.4013908
-4.4548016	detector	-0.4013908
-4.158567	isfinished	-0.6178114
-4.158567	flowables	-0.13076918
-4.3053865	nullnotification	-0.21373715
-4.347112	integernotification2	-0.08313064
-4.347112	onerrornotification2	-0.08313064
-3.8266537	incrementingintegers	-0.8260412
-4.4548016	testobserveon	-0.4013908
-4.049039	merged	-0.34595498
-4.4548016	testmergesync	-0.4013908
-4.4548016	testmergeasync	-0.4013908
-4.4548016	testflatmapsync	-0.4013908
-4.4548016	testzipsync	-0.4013908
-4.4548016	testzipasync	-0.4013908
-4.3053865	see	-0.58547413
-4.4548016	same	-0.7912138
-4.4548016	batch	-0.4013908
-4.4548016	seen	-0.4013908
-4.158567	totalreceived	-0.6063908
-4.049039	batches	-0.4635707
-4.3053865	vc	-0.40139082
-4.4548016	thru	-1.0842757
-4.3053865	lastevent	-0.86639273
-4.158567	emitcount	-0.21373715
-3.8889253	dropcount	-0.64778346
-3.9616446	passcount	-0.38717717
-4.4548016	testname	-0.4013908
-4.4548016	getmethodname	-0.4013908
-4.347112	dropped	-0.08313064
-4.347112	threadsseen	-0.86242694
-4.4548016	sink	-0.4013908
-4.4548016	burstsubscription	-0.4013908
-4.3053865	valuesupplier	-0.21373715
-4.049039	toserialized	-0.9604185
-4.347112	ns	-0.86242694
-4.158567	innerr	-0.6178114
-4.4548016	badflowable	-0.4013908
-4.3053865	getparentfile	-0.7580627
-4.158567	getabsolutepath	-1.1229614
-4.4548016	directoryof	-0.4013908
-4.158567	classname	-1.1305195
-4.347112	getmodifiers	-0.87039506
-4.158567	modifier	-0.14354256
-4.3053865	abstract	-0.24533339
-4.3053865	rxmethod	-1.0895715
-4.3053865	readfile	-0.6178114
-4.049039	baseindex	-0.4013908
-3.9616446	javadocstart	-0.28450394
-3.680296	javadocend	-0.62099254
-4.347112	javadoc	-1.2944111
-4.4548016	javadocline	-1.8481187
-4.049039	linenumber	-1.3917207
-3.9616446	backpressuredoc	-0.40139082
-4.347112	dt	-0.08313064
-4.4548016	backpressuredocline	-0.40139082
-4.049039	nextdd	-0.08313064
-3.9616446	schedulerdoc	-0.40139082
-4.4548016	schedulerdocline	-0.4013908
-3.9616446	staticmethoddef	-0.2975065
-3.9616446	instancemethoddef	-0.2975065
-4.049039	javadocstartnext	-0.4013908
-3.7722013	definitionstart	-0.5082006
-4.3053865	methoddefend	-0.40139082
-4.3053865	signature	-1.9247527
-4.4548016	methodline	-0.4013908
-4.049039	backpressurespec	-0.24533339
-4.049039	backpressuresupport	-0.7912138
-4.347112	backpressurespecend	-0.4013908
-4.049039	schhedulerspec	-0.24533339
-3.8889253	schedulersupport	-0.21373715
-4.347112	schedulerspecend	-0.4013908
-4.4548016	schedulerkind	-0.4013908
-3.7722013	dirs	-1.3960296
-4.347112	isdirectory	-0.9953338
-4.347112	processfile	-0.095169336
-4.4548016	filename	-1.6157546
-4.347112	issubscribemethod	-0.4013908
-4.4548016	getparametertypes	-0.39186352
-4.347112	disposablecontainer	-0.4013908
-4.347112	isconnectmethod	-0.4013908
-4.158567	isannotationpresent	-0.7373078
-4.3053865	checkreturnvalue	-0.7912138
-4.4548016	isprivate	-0.4013908
-4.4548016	getreturntype	-0.4013908
-4.347112	ann	-0.4013908
-4.347112	paramclazz	-0.38717717
-4.347112	isassignablefrom	-0.52360696
-4.4548016	marked	-0.08313064
-4.4548016	specific	-0.4013908
