\data\
ngram 1=67
ngram 2=575
ngram 3=2088
ngram 4=5258
ngram 5=10484
ngram 6=18214

\1-grams:
-2.6273887	<unk>	0
0	<s>	-3.2472308
-1.5594726	</s>	0
-1.5877641	ReturnStmt	-0.5208169
-1.3642355	MethodCallExpr	-0.76643366
-1.2846353	NameExpr	-1.2849476
-1.3820691	SimpleName	-0.6538305
-1.4200959	ExpressionStmt	-0.8049345
-2.173524	VariableDeclarationExpr	-0.3531202
-2.0733838	VariableDeclarator	-0.40988636
-1.4617748	ClassOrInterfaceType	-0.8334403
-1.618028	IntegerLiteralExpr	-0.52246314
-1.618028	ObjectCreationExpr	-0.9539544
-1.7239956	MethodDeclaration	-0.70702225
-1.9235932	MarkerAnnotationExpr	-0.6529244
-2.3039005	Name	-0.29398605
-1.9920622	Modifier	-0.2868269
-2.3039005	Parameter	-0.29942593
-1.6505599	StringLiteralExpr	-0.36819345
-1.4842169	BinaryExpr	-0.69607925
-2.4910758	VoidType	-0.29251415
-1.4404355	FieldAccessExpr	-0.6731278
-1.5877641	TryStmt	-0.5877612
-1.6857275	BooleanLiteralExpr	-0.41805425
-2.173524	AssignExpr	-0.3671397
-1.7239956	EnclosedExpr	-0.43510544
-1.864463	CastExpr	-0.5623736
-1.864463	ArrayType	-0.5859776
-1.9920622	PrimitiveType	-0.29373208
-2.3039005	ArrayInitializerExpr	-0.29677686
-1.6857275	UnaryExpr	-0.55388385
-1.7239956	ArrayAccessExpr	-0.6167312
-2.173524	DoubleLiteralExpr	-0.29220396
-1.4617748	IfStmt	-0.92968196
-1.618028	ForStmt	-0.65744203
-1.7239956	WhileStmt	-0.5477984
-1.8124273	BreakStmt	-0.4348092
-1.6505599	NullLiteralExpr	-0.4193246
-2.173524	ClassExpr	-0.3837369
-1.7239956	ThrowStmt	-0.6617418
-1.9920622	LambdaExpr	-0.41365314
-2.4910758	UnknownType	-0.29251415
-1.8124273	CatchClause	-0.76206887
-2.4910758	$EMPTY$	-0.29251415
-1.6857275	ThisExpr	-0.34463528
-1.9920622	FieldDeclaration	-0.3837369
-2.3874815	WildcardType	-0.29595628
-1.864463	InstanceOfExpr	-0.4961689
-2.3039005	MethodReferenceExpr	-0.2868269
-2.4910758	TypeExpr	-0.29251415
-1.6505599	ForEachStmt	-0.9217697
-1.7659645	LongLiteralExpr	-0.32211563
-2.4910758	SuperExpr	-0.29251415
-2.0733838	SingleMemberAnnotationExpr	-0.50679636
-2.0733838	SwitchStmt	-0.50679636
-2.0733838	SwitchEntry	-0.32987976
-2.173524	ArrayCreationExpr	-0.35189438
-2.3039005	ArrayCreationLevel	-0.29215625
-2.3039005	CharLiteralExpr	-0.29381925
-1.9920622	ConditionalExpr	-0.39516497
-2.3039005	EmptyStmt	-0.29942593
-2.3039005	DoStmt	-0.2868269
-1.9920622	ContinueStmt	-0.4217158
-1.9920622	SynchronizedStmt	-0.40988633
-2.3874815	LabeledStmt	-0.30292347
-2.4910758	LocalClassDeclarationStmt	-0.29251415
-2.4910758	ClassOrInterfaceDeclaration	-0.29251415

\2-grams:
-1.5737554	ReturnStmt </s>	0
-1.3822677	SimpleName </s>	0
-1.2047801	IntegerLiteralExpr </s>	0
-1.3096231	Name </s>	0
-1.2607843	StringLiteralExpr </s>	0
-1.4271406	VoidType </s>	0
-1.0855271	BooleanLiteralExpr </s>	0
-0.9574307	DoubleLiteralExpr </s>	0
-1.0972124	BreakStmt </s>	0
-1.0953512	NullLiteralExpr </s>	0
-1.3843703	LambdaExpr </s>	0
-0.29743168	$EMPTY$ </s>	0
-1.0969718	ThisExpr </s>	0
-1.1935563	LongLiteralExpr </s>	0
-1.3095754	CharLiteralExpr </s>	0
-0.74176836	EmptyStmt </s>	0
-0.68520314	<s> ReturnStmt	-2.310515
-1.9403296	ReturnStmt ReturnStmt	-0.25478965
-1.7362069	SimpleName ReturnStmt	-0.30640548
-1.44079	IntegerLiteralExpr ReturnStmt	-0.28334603
-1.5359583	StringLiteralExpr ReturnStmt	-0.25945663
-1.4375623	VoidType ReturnStmt	-0.25478965
-1.23973	TryStmt ReturnStmt	-0.37062255
-1.5866193	BooleanLiteralExpr ReturnStmt	-0.27047557
-1.0964005	PrimitiveType ReturnStmt	-0.26652718
-1.2947022	BreakStmt ReturnStmt	-0.25478965
-1.3854835	NullLiteralExpr ReturnStmt	-0.26815262
-1.3980873	ThisExpr ReturnStmt	-0.26454875
-1.268317	WildcardType ReturnStmt	-0.25478965
-1.4784689	LongLiteralExpr ReturnStmt	-0.25478965
-0.8782026	SwitchEntry ReturnStmt	-0.25478965
-1.0383322	ReturnStmt MethodCallExpr	-0.53487015
-0.7909254	MethodCallExpr MethodCallExpr	-0.6517461
-1.2956352	SimpleName MethodCallExpr	-0.55568004
-0.6279726	ExpressionStmt MethodCallExpr	-0.77336144
-1.1336212	IntegerLiteralExpr MethodCallExpr	-0.46115318
-1.3092754	StringLiteralExpr MethodCallExpr	-0.25733444
-0.94639367	BinaryExpr MethodCallExpr	-0.50622046
-0.9579671	FieldAccessExpr MethodCallExpr	-0.35203603
-1.3599399	BooleanLiteralExpr MethodCallExpr	-0.34485245
-1.1711892	EnclosedExpr MethodCallExpr	-0.26951182
-1.262382	PrimitiveType MethodCallExpr	-0.25478965
-1.028882	ArrayInitializerExpr MethodCallExpr	-0.27453223
-0.7299712	UnaryExpr MethodCallExpr	-0.43346417
-0.81197727	ArrayAccessExpr MethodCallExpr	-0.24930327
-0.6977366	IfStmt MethodCallExpr	-0.6409293
-1.2043791	WhileStmt MethodCallExpr	-0.28475058
-1.134143	NullLiteralExpr MethodCallExpr	-0.30496496
-0.7439565	ThrowStmt MethodCallExpr	-0.4217751
-1.5352275	ThisExpr MethodCallExpr	-0.25478965
-1.2026664	WildcardType MethodCallExpr	-0.25478965
-0.64015645	InstanceOfExpr MethodCallExpr	-0.3561175
-1.3818095	LongLiteralExpr MethodCallExpr	-0.26951182
-1.0029726	ArrayCreationLevel MethodCallExpr	-0.28475058
-1.2442554	CharLiteralExpr MethodCallExpr	-0.25478965
-1.1435281	ConditionalExpr MethodCallExpr	-0.25478965
-1.1449857	ReturnStmt NameExpr	-0.7228051
-0.61381376	MethodCallExpr NameExpr	-1.1665026
-1.2793894	SimpleName NameExpr	-0.97268254
-1.8569155	ExpressionStmt NameExpr	-0.25478965
-1.296832	IntegerLiteralExpr NameExpr	-0.6136606
-1.2118784	Name NameExpr	-0.25478965
-1.2774935	StringLiteralExpr NameExpr	-0.37062255
-0.78281045	BinaryExpr NameExpr	-0.99901146
-0.3663398	FieldAccessExpr NameExpr	-1.0695926
-1.3281013	BooleanLiteralExpr NameExpr	-0.37062255
-0.36700523	AssignExpr NameExpr	-0.37062255
-1.4368807	EnclosedExpr NameExpr	-0.25478965
-1.0298464	PrimitiveType NameExpr	-0.28475058
-1.0089663	ArrayInitializerExpr NameExpr	-0.28475058
-0.52759737	UnaryExpr NameExpr	-0.8477438
-0.24561767	ArrayAccessExpr NameExpr	-0.80995524
-1.0294137	DoubleLiteralExpr NameExpr	-0.28475058
-0.7538099	IfStmt NameExpr	-0.9446538
-1.0478915	NullLiteralExpr NameExpr	-0.6136606
-0.5864694	ThrowStmt NameExpr	-0.67165256
-1.2858053	ThisExpr NameExpr	-0.24568383
-1.1732228	WildcardType NameExpr	-0.25478965
-0.44760144	InstanceOfExpr NameExpr	-0.6136606
-1.340508	LongLiteralExpr NameExpr	-0.28475058
-0.15190506	SwitchStmt NameExpr	-0.46753258
-0.6422349	SwitchEntry NameExpr	-0.37062255
-1.192481	ArrayCreationLevel NameExpr	-0.25478965
-1.2118068	CharLiteralExpr NameExpr	-0.25478965
-0.74164605	ConditionalExpr NameExpr	-0.24568383
-0.69759893	SynchronizedStmt NameExpr	-0.24568383
-0.88094866	MethodCallExpr SimpleName	-0.42381072
-0.022154618	NameExpr SimpleName	-0.62977475
-1.410325	SimpleName SimpleName	-0.45494014
-0.17732108	ClassOrInterfaceType SimpleName	-0.457434
-1.2206002	IntegerLiteralExpr SimpleName	-0.39847016
-1.0323447	Name SimpleName	-0.2716563
-0.84857386	Modifier SimpleName	-0.25021288
-1.3159207	StringLiteralExpr SimpleName	-0.26281294
-1.351706	VoidType SimpleName	-0.25478965
-1.0583003	BooleanLiteralExpr SimpleName	-0.41082132
-0.9306153	PrimitiveType SimpleName	-0.26454875
-1.2688663	DoubleLiteralExpr SimpleName	-0.25478965
-1.5339093	BreakStmt SimpleName	-0.25478965
-1.3267584	NullLiteralExpr SimpleName	-0.30763996
-1.3312694	LambdaExpr SimpleName	-0.25478965
-0.29136312	UnknownType SimpleName	-0.25478965
-1.3273028	ThisExpr SimpleName	-0.26313785
-0.9801195	WildcardType SimpleName	-0.2716563
-1.3024884	LongLiteralExpr SimpleName	-0.27765077
-0.29136312	SuperExpr SimpleName	-0.25478965
-1.0323069	CharLiteralExpr SimpleName	-0.25478965
-0.8406974	ContinueStmt SimpleName	-0.26089144
-0.28164005	LabeledStmt SimpleName	-0.26951182
-0.29136312	ClassOrInterfaceDeclaration SimpleName	-0.25478965
-0.20550667	<s> ExpressionStmt	-3.3802376
-1.2225432	ReturnStmt ExpressionStmt	-0.5476159
-1.358671	SimpleName ExpressionStmt	-0.5805562
-1.1835034	IntegerLiteralExpr ExpressionStmt	-0.56880516
-1.2650154	Name ExpressionStmt	-0.25478965
-1.1437259	StringLiteralExpr ExpressionStmt	-0.3748348
-1.3693721	VoidType ExpressionStmt	-0.25478965
-0.5701534	TryStmt ExpressionStmt	-0.7296517
-1.0649487	BooleanLiteralExpr ExpressionStmt	-0.5253395
-1.2839916	PrimitiveType ExpressionStmt	-0.25478965
-1.0637268	DoubleLiteralExpr ExpressionStmt	-0.28475058
-0.61180955	ForStmt ExpressionStmt	-0.6323239
-0.77084875	BreakStmt ExpressionStmt	-0.46753258
-0.9589942	NullLiteralExpr ExpressionStmt	-0.5476159
-0.6385041	LambdaExpr ExpressionStmt	-0.30392644
-1.0720776	ThisExpr ExpressionStmt	-0.30627853
-1.046519	LongLiteralExpr ExpressionStmt	-0.34485245
-0.993621	SwitchEntry ExpressionStmt	-0.27453223
-0.9121323	CharLiteralExpr ExpressionStmt	-0.26595664
-0.72939724	EmptyStmt ExpressionStmt	-0.25478965
-0.84721696	DoStmt ExpressionStmt	-0.25478965
-0.60509676	ContinueStmt ExpressionStmt	-0.35203603
-0.6855693	ExpressionStmt VariableDeclarationExpr	-0.8935013
-1.2787082	TryStmt VariableDeclarationExpr	-0.37062255
-0.54126984	ForStmt VariableDeclarationExpr	-0.8825059
-0.05499184	ForEachStmt VariableDeclarationExpr	-0.65714747
-0.5098	VariableDeclarationExpr VariableDeclarator	-0.24697304
-1.4056209	Name VariableDeclarator	-0.25478965
-0.90431684	Modifier VariableDeclarator	-0.25986853
-2.011269	StringLiteralExpr VariableDeclarator	-0.25478965
-0.8302326	FieldDeclaration VariableDeclarator	-0.24794243
-1.5855602	SimpleName ClassOrInterfaceType	-0.67165256
-0.5223158	VariableDeclarator ClassOrInterfaceType	-0.40701947
-0.7857904	ClassOrInterfaceType ClassOrInterfaceType	-0.4217751
-1.8693041	IntegerLiteralExpr ClassOrInterfaceType	-0.25478965
-0.04931655	ObjectCreationExpr ClassOrInterfaceType	-0.6979815
-1.2793815	Name ClassOrInterfaceType	-0.25478965
-1.2314972	Modifier ClassOrInterfaceType	-0.25478965
-0.88966453	Parameter ClassOrInterfaceType	-0.27453223
-1.6794715	StringLiteralExpr ClassOrInterfaceType	-0.25478965
-1.3877876	VoidType ClassOrInterfaceType	-0.25478965
-1.7297101	BooleanLiteralExpr ClassOrInterfaceType	-0.25478965
-0.42904484	CastExpr ClassOrInterfaceType	-0.51616395
-0.26287913	ArrayType ClassOrInterfaceType	-0.67165256
-1.2990196	PrimitiveType ClassOrInterfaceType	-0.25478965
-1.71147	NullLiteralExpr ClassOrInterfaceType	-0.25478965
-0.29847127	ClassExpr ClassOrInterfaceType	-0.3400727
-1.4521039	ThisExpr ClassOrInterfaceType	-0.28475058
-1.2342523	WildcardType ClassOrInterfaceType	-0.25478965
-0.58061016	TypeExpr ClassOrInterfaceType	-0.25478965
-0.4384017	ArrayCreationExpr ClassOrInterfaceType	-0.37062255
-1.4794645	ReturnStmt IntegerLiteralExpr	-0.2561662
-1.4557314	SimpleName IntegerLiteralExpr	-0.44819748
-1.8071	ExpressionStmt IntegerLiteralExpr	-0.26314113
-1.168957	IntegerLiteralExpr IntegerLiteralExpr	-0.4111362
-1.2727435	StringLiteralExpr IntegerLiteralExpr	-0.2696112
-1.2270492	BinaryExpr IntegerLiteralExpr	-0.41201526
-1.4482405	VoidType IntegerLiteralExpr	-0.25478965
-1.4394743	BooleanLiteralExpr IntegerLiteralExpr	-0.28910258
-1.0762037	ArrayInitializerExpr IntegerLiteralExpr	-0.26951182
-1.3396823	UnaryExpr IntegerLiteralExpr	-0.27298126
-1.3925271	NullLiteralExpr IntegerLiteralExpr	-0.25816894
-1.6880866	ThisExpr IntegerLiteralExpr	-0.25478965
-1.4894321	LongLiteralExpr IntegerLiteralExpr	-0.25478965
-1.0479093	ArrayCreationLevel IntegerLiteralExpr	-0.26008564
-1.317029	ReturnStmt ObjectCreationExpr	-0.6136606
-1.5442387	MethodCallExpr ObjectCreationExpr	-0.37062255
-1.492478	SimpleName ObjectCreationExpr	-0.80995524
-1.4878218	ExpressionStmt ObjectCreationExpr	-0.37062255
-1.5329942	IntegerLiteralExpr ObjectCreationExpr	-0.46753258
-1.5472172	StringLiteralExpr ObjectCreationExpr	-0.24568383
-1.4482405	VoidType ObjectCreationExpr	-0.25478965
-1.6911753	BooleanLiteralExpr ObjectCreationExpr	-0.28475058
-1.5791869	EnclosedExpr ObjectCreationExpr	-0.25478965
-1.3262937	ArrayInitializerExpr ObjectCreationExpr	-0.25478965
-1.5578158	NullLiteralExpr ObjectCreationExpr	-0.24568383
-0.48148936	ThrowStmt ObjectCreationExpr	-0.76856256
-1.5144079	ThisExpr ObjectCreationExpr	-0.28475058
-1.6637778	LongLiteralExpr ObjectCreationExpr	-0.25478965
-2.027985	ReturnStmt MethodDeclaration	-0.25478965
-1.7065524	SimpleName MethodDeclaration	-0.46753258
-1.5568527	IntegerLiteralExpr MethodDeclaration	-0.46753258
-1.6852521	StringLiteralExpr MethodDeclaration	-0.28475058
-1.4819465	VoidType MethodDeclaration	-0.25478965
-1.735898	BooleanLiteralExpr MethodDeclaration	-0.28475058
-1.3739339	PrimitiveType MethodDeclaration	-0.25478965
-1.6975505	NullLiteralExpr MethodDeclaration	-0.28475058
-1.2976335	WildcardType MethodDeclaration	-0.25478965
-1.5240872	LongLiteralExpr MethodDeclaration	-0.28475058
-1.0402045	EmptyStmt MethodDeclaration	-0.25478965
-1.4245884	ClassOrInterfaceType MarkerAnnotationExpr	-0.28475058
-0.13741714	MethodDeclaration MarkerAnnotationExpr	-0.80995524
-1.386514	Name MarkerAnnotationExpr	-0.25478965
-1.2186806	Parameter MarkerAnnotationExpr	-0.25478965
-1.7529616	StringLiteralExpr MarkerAnnotationExpr	-0.28475058
-1.2681061	FieldDeclaration MarkerAnnotationExpr	-0.25478965
-1.3290732	WildcardType MarkerAnnotationExpr	-0.25478965
-0.10861042	MarkerAnnotationExpr Name	-0.25501385
-1.2996743	ThisExpr Name	-0.2585932
-0.16100694	SingleMemberAnnotationExpr Name	-0.4240337
-0.8858547	VariableDeclarationExpr Modifier	-0.27453223
-1.3959624	Name Modifier	-0.25478965
-0.9011976	Modifier Modifier	-0.25478965
-0.9329085	Parameter Modifier	-0.27453223
-1.9792731	StringLiteralExpr Modifier	-0.25478965
-0.45773438	FieldDeclaration Modifier	-0.3126306
-2.0945423	SimpleName Parameter	-0.2721314
-0.6632812	LambdaExpr Parameter	-0.46753258
-0.08201959	CatchClause Parameter	-0.6458824
-1.4863863	ReturnStmt StringLiteralExpr	-0.27956408
-1.5487906	MethodCallExpr StringLiteralExpr	-0.37062255
-1.5832344	SimpleName StringLiteralExpr	-0.379891
-1.6502014	IntegerLiteralExpr StringLiteralExpr	-0.26713845
-1.3337718	Name StringLiteralExpr	-0.25478965
-1.2788489	StringLiteralExpr StringLiteralExpr	-0.28486723
-1.5385666	BinaryExpr StringLiteralExpr	-0.28297678
-1.8543646	BooleanLiteralExpr StringLiteralExpr	-0.25478965
-0.9416117	ArrayInitializerExpr StringLiteralExpr	-0.24930327
-1.3557391	DoubleLiteralExpr StringLiteralExpr	-0.25478965
-1.8298274	NullLiteralExpr StringLiteralExpr	-0.25478965
-1.5006794	LongLiteralExpr StringLiteralExpr	-0.28475058
-1.2898633	SwitchEntry StringLiteralExpr	-0.25478965
-1.2340971	ReturnStmt BinaryExpr	-0.35735506
-1.5463291	SimpleName BinaryExpr	-0.4857789
-1.9623936	ExpressionStmt BinaryExpr	-0.25478965
-1.4959301	IntegerLiteralExpr BinaryExpr	-0.25836852
-1.5750926	StringLiteralExpr BinaryExpr	-0.26951182
-0.95453405	BinaryExpr BinaryExpr	-0.49878502
-1.3972965	VoidType BinaryExpr	-0.25478965
-1.7454728	BooleanLiteralExpr BinaryExpr	-0.25478965
-0.6851872	EnclosedExpr BinaryExpr	-0.43423715
-0.9470727	DoubleLiteralExpr BinaryExpr	-0.24568383
-0.6484774	IfStmt BinaryExpr	-0.7720655
-1.3634917	ForStmt BinaryExpr	-0.28475058
-0.4185511	WhileStmt BinaryExpr	-0.47349116
-1.5957942	NullLiteralExpr BinaryExpr	-0.25478965
-1.6118985	ThisExpr BinaryExpr	-0.25478965
-1.5878772	LongLiteralExpr BinaryExpr	-0.25478965
-0.8935822	ArrayCreationLevel BinaryExpr	-0.27453223
-1.286693	CharLiteralExpr BinaryExpr	-0.25478965
-0.40252125	ConditionalExpr BinaryExpr	-0.3488322
-1.9788637	SimpleName VoidType	-0.29450837
-1.3531816	ReturnStmt FieldAccessExpr	-0.42630416
-0.9972092	MethodCallExpr FieldAccessExpr	-0.4554222
-1.4943643	SimpleName FieldAccessExpr	-0.43996388
-1.2823647	IntegerLiteralExpr FieldAccessExpr	-0.60012496
-1.473922	StringLiteralExpr FieldAccessExpr	-0.24794243
-0.9925217	BinaryExpr FieldAccessExpr	-0.474567
-1.3784823	VoidType FieldAccessExpr	-0.25478965
-1.0657116	FieldAccessExpr FieldAccessExpr	-0.40701947
-1.5244764	BooleanLiteralExpr FieldAccessExpr	-0.24568383
-1.0120745	AssignExpr FieldAccessExpr	-0.25478965
-1.5111371	EnclosedExpr FieldAccessExpr	-0.25478965
-1.2730997	ArrayInitializerExpr FieldAccessExpr	-0.25478965
-0.9863336	UnaryExpr FieldAccessExpr	-0.3954313
-1.1684753	ArrayAccessExpr FieldAccessExpr	-0.28475058
-1.7701151	IfStmt FieldAccessExpr	-0.28475058
-1.573688	NullLiteralExpr FieldAccessExpr	-0.28475058
-1.5848094	ThisExpr FieldAccessExpr	-0.25478965
-1.2277488	WildcardType FieldAccessExpr	-0.25478965
-1.3247048	LongLiteralExpr FieldAccessExpr	-0.24568383
-0.9971173	SwitchEntry FieldAccessExpr	-0.28475058
-1.2501864	ArrayCreationLevel FieldAccessExpr	-0.25478965
-1.8723933	<s> TryStmt	-1.5769992
-1.7295402	ReturnStmt TryStmt	-0.24794243
-1.6737144	SimpleName TryStmt	-0.35706213
-1.525324	IntegerLiteralExpr TryStmt	-0.30067113
-1.7646344	StringLiteralExpr TryStmt	-0.25478965
-1.4375623	VoidType TryStmt	-0.25478965
-1.003285	TryStmt TryStmt	-0.4240337
-1.4316112	BooleanLiteralExpr TryStmt	-0.25986853
-1.3385962	DoubleLiteralExpr TryStmt	-0.25478965
-1.7462186	ForStmt TryStmt	-0.25478965
-1.2947022	BreakStmt TryStmt	-0.24568383
-1.5475483	NullLiteralExpr TryStmt	-0.25913936
-1.5033833	ThisExpr TryStmt	-0.28475058
-1.6474993	LongLiteralExpr TryStmt	-0.25478965
-1.4488091	ContinueStmt TryStmt	-0.25478965
-1.2623152	ReturnStmt BooleanLiteralExpr	-0.34900063
-1.5897021	SimpleName BooleanLiteralExpr	-0.31672627
-1.822553	ExpressionStmt BooleanLiteralExpr	-0.26652718
-1.5487534	IntegerLiteralExpr BooleanLiteralExpr	-0.25498185
-1.5706506	StringLiteralExpr BooleanLiteralExpr	-0.25478965
-1.470418	VoidType BooleanLiteralExpr	-0.25478965
-1.4556413	BooleanLiteralExpr BooleanLiteralExpr	-0.25816894
-1.3427706	ArrayInitializerExpr BooleanLiteralExpr	-0.25478965
-1.1078418	WhileStmt BooleanLiteralExpr	-0.24930327
-1.6834488	NullLiteralExpr BooleanLiteralExpr	-0.25478965
-1.7227453	ThisExpr BooleanLiteralExpr	-0.25478965
-1.6982882	LongLiteralExpr BooleanLiteralExpr	-0.25478965
-2.3623688	SimpleName AssignExpr	-0.28475058
-0.71107423	ExpressionStmt AssignExpr	-0.9042252
-2.287734	IntegerLiteralExpr AssignExpr	-0.25478965
-1.6997089	EnclosedExpr AssignExpr	-0.25478965
-1.3217834	MethodCallExpr EnclosedExpr	-0.4909805
-1.8547404	SimpleName EnclosedExpr	-0.29922253
-1.916942	IntegerLiteralExpr EnclosedExpr	-0.26951182
-1.6852521	StringLiteralExpr EnclosedExpr	-0.28475058
-1.106597	BinaryExpr EnclosedExpr	-0.4339211
-1.4340065	FieldAccessExpr EnclosedExpr	-0.24568383
-1.6119667	EnclosedExpr EnclosedExpr	-0.25478965
-1.3739339	PrimitiveType EnclosedExpr	-0.25478965
-1.1468378	UnaryExpr EnclosedExpr	-0.24568383
-0.8785103	MethodReferenceExpr EnclosedExpr	-0.25478965
-1.7166294	LongLiteralExpr EnclosedExpr	-0.25478965
-1.4256512	ReturnStmt CastExpr	-0.4217751
-1.670867	SimpleName CastExpr	-0.54671377
-2.1019993	ExpressionStmt CastExpr	-0.25478965
-1.8743438	IntegerLiteralExpr CastExpr	-0.26951182
-1.4296333	BinaryExpr CastExpr	-0.3126306
-0.70022166	EnclosedExpr CastExpr	-0.5489724
-1.3808444	ThrowStmt CastExpr	-0.28475058
-1.3499618	ArrayCreationLevel CastExpr	-0.25478965
-2.1467617	SimpleName ArrayType	-0.26089144
-0.9010064	VariableDeclarator ArrayType	-0.26089144
-1.3772666	Name ArrayType	-0.25478965
-1.3196641	Modifier ArrayType	-0.25478965
-1.212454	Parameter ArrayType	-0.25478965
-1.1505854	CastExpr ArrayType	-0.27453223
-0.98436123	ClassExpr ArrayType	-0.25478965
-0.59857166	TypeExpr ArrayType	-0.25478965
-2.0361412	SimpleName PrimitiveType	-0.3126306
-0.6828126	VariableDeclarator PrimitiveType	-0.37062255
-1.2249979	Parameter PrimitiveType	-0.25478965
-0.52430385	CastExpr PrimitiveType	-0.43121728
-0.6855853	ArrayType PrimitiveType	-0.25086376
-0.67627126	ArrayCreationExpr PrimitiveType	-0.24568383
-2.2837608	SimpleName ArrayInitializerExpr	-0.26314113
-1.4256074	Name ArrayInitializerExpr	-0.25478965
-0.9447498	ArrayCreationLevel ArrayInitializerExpr	-0.26785114
-1.4934202	ReturnStmt UnaryExpr	-0.31104362
-1.640531	SimpleName UnaryExpr	-0.42722288
-0.8993033	ExpressionStmt UnaryExpr	-0.60599494
-1.8112308	IntegerLiteralExpr UnaryExpr	-0.26757565
-1.6698544	StringLiteralExpr UnaryExpr	-0.26951182
-1.1637677	BinaryExpr UnaryExpr	-0.52094376
-1.3621012	EnclosedExpr UnaryExpr	-0.28475058
-0.762974	IfStmt UnaryExpr	-0.67165256
-0.6420434	WhileStmt UnaryExpr	-0.46501142
-1.8497123	NullLiteralExpr UnaryExpr	-0.25478965
-1.7227453	ThisExpr UnaryExpr	-0.25478965
-1.6982882	LongLiteralExpr UnaryExpr	-0.25478965
-1.8780303	ReturnStmt ArrayAccessExpr	-0.28475058
-1.3217834	MethodCallExpr ArrayAccessExpr	-0.4909805
-1.6479187	SimpleName ArrayAccessExpr	-0.48105624
-1.916942	IntegerLiteralExpr ArrayAccessExpr	-0.27453223
-1.6852521	StringLiteralExpr ArrayAccessExpr	-0.28475058
-1.3166345	BinaryExpr ArrayAccessExpr	-0.4909805
-1.4340065	FieldAccessExpr ArrayAccessExpr	-0.24568383
-1.8977107	BooleanLiteralExpr ArrayAccessExpr	-0.25478965
-1.0467708	AssignExpr ArrayAccessExpr	-0.25478965
-1.3537444	UnaryExpr ArrayAccessExpr	-0.24568383
-1.1624417	InstanceOfExpr ArrayAccessExpr	-0.28475058
-2.2526855	SimpleName DoubleLiteralExpr	-0.26785114
-2.287734	IntegerLiteralExpr DoubleLiteralExpr	-0.25478965
-2.2040377	BinaryExpr DoubleLiteralExpr	-0.25478965
-1.4425505	DoubleLiteralExpr DoubleLiteralExpr	-0.25478965
-1.1259141	<s> IfStmt	-2.4246607
-1.3583465	ReturnStmt IfStmt	-0.39503175
-1.4279221	SimpleName IfStmt	-0.58449805
-1.5844841	IntegerLiteralExpr IfStmt	-0.29812175
-1.3435681	StringLiteralExpr IfStmt	-0.3097457
-1.3877876	VoidType IfStmt	-0.25478965
-0.8441789	TryStmt IfStmt	-0.41118777
-1.2037102	BooleanLiteralExpr IfStmt	-0.33288386
-1.2990196	PrimitiveType IfStmt	-0.25478965
-1.2984848	DoubleLiteralExpr IfStmt	-0.25478965
-0.7729241	ForStmt IfStmt	-0.44326764
-0.70600545	BreakStmt IfStmt	-0.50185835
-1.4995643	NullLiteralExpr IfStmt	-0.26965097
-1.3570088	LambdaExpr IfStmt	-0.25478965
-1.1970433	ThisExpr IfStmt	-0.28034177
-1.33237	LongLiteralExpr IfStmt	-0.27453223
-1.0491751	CharLiteralExpr IfStmt	-0.25478965
-1.0043069	EmptyStmt IfStmt	-0.25478965
-0.42171255	DoStmt IfStmt	-0.26951182
-0.84869856	ContinueStmt IfStmt	-0.3257671
-1.7085811	<s> ForStmt	-2.064496
-1.7419287	ReturnStmt ForStmt	-0.28034177
-1.5768616	SimpleName ForStmt	-0.49878502
-1.6401821	IntegerLiteralExpr ForStmt	-0.30250508
-1.7838714	StringLiteralExpr ForStmt	-0.25478965
-1.4482405	VoidType ForStmt	-0.25478965
-1.1081071	TryStmt ForStmt	-0.3954313
-1.5978992	BooleanLiteralExpr ForStmt	-0.27453223
-1.3831214	ForStmt ForStmt	-0.25986853
-1.640975	BreakStmt ForStmt	-0.25478965
-1.8108132	NullLiteralExpr ForStmt	-0.25478965
-1.398726	LambdaExpr ForStmt	-0.25478965
-1.6880866	ThisExpr ForStmt	-0.25478965
-1.4894321	LongLiteralExpr ForStmt	-0.25478965
-3.410143	<s> WhileStmt	-0.581476
-2.027985	ReturnStmt WhileStmt	-0.25478965
-1.8547404	SimpleName WhileStmt	-0.290319
-2.054969	IntegerLiteralExpr WhileStmt	-0.25478965
-1.4819465	VoidType WhileStmt	-0.25478965
-1.2535026	TryStmt WhileStmt	-0.24794243
-1.8977107	BooleanLiteralExpr WhileStmt	-0.25478965
-1.7849605	ForStmt WhileStmt	-0.25478965
-1.6975505	NullLiteralExpr WhileStmt	-0.27453223
-1.7166294	LongLiteralExpr WhileStmt	-0.25478965
-1.3506148	CharLiteralExpr WhileStmt	-0.25478965
-2.0794857	ReturnStmt BreakStmt	-0.25478965
-1.9846705	SimpleName BreakStmt	-0.27524927
-2.109767	IntegerLiteralExpr BreakStmt	-0.25478965
-1.7177887	StringLiteralExpr BreakStmt	-0.25478965
-1.7684958	BooleanLiteralExpr BreakStmt	-0.25478965
-1.4640095	BreakStmt BreakStmt	-0.27453223
-1.9154934	NullLiteralExpr BreakStmt	-0.25478965
-1.755813	LongLiteralExpr BreakStmt	-0.25478965
-1.499939	ContinueStmt BreakStmt	-0.25478965
-1.3217791	ReturnStmt NullLiteralExpr	-0.3532232
-1.6898232	SimpleName NullLiteralExpr	-0.3172257
-1.8147578	ExpressionStmt NullLiteralExpr	-0.25478965
-1.4534901	IntegerLiteralExpr NullLiteralExpr	-0.3054821
-1.3337718	Name NullLiteralExpr	-0.25478965
-1.6549841	StringLiteralExpr NullLiteralExpr	-0.27453223
-1.837285	BinaryExpr NullLiteralExpr	-0.27453223
-1.4591877	VoidType NullLiteralExpr	-0.25478965
-1.7055771	BooleanLiteralExpr NullLiteralExpr	-0.25478965
-1.0807728	ArrayInitializerExpr NullLiteralExpr	-0.25478965
-1.568332	NullLiteralExpr NullLiteralExpr	-0.25913936
-1.7050704	ThisExpr NullLiteralExpr	-0.25478965
-1.6806903	LongLiteralExpr NullLiteralExpr	-0.25478965
-1.807366	MethodCallExpr ClassExpr	-0.24568383
-1.5938839	SimpleName ClassExpr	-0.76856256
-2.287734	IntegerLiteralExpr ClassExpr	-0.25478965
-2.0458112	StringLiteralExpr ClassExpr	-0.25478965
-1.5369235	<s> ThrowStmt	-2.2893353
-1.7743564	SimpleName ThrowStmt	-0.35726577
-1.8261702	IntegerLiteralExpr ThrowStmt	-0.24930327
-1.6852521	StringLiteralExpr ThrowStmt	-0.26951182
-1.4819465	VoidType ThrowStmt	-0.25478965
-1.8213565	TryStmt ThrowStmt	-0.25478965
-1.6336114	BooleanLiteralExpr ThrowStmt	-0.24794243
-1.3739339	PrimitiveType ThrowStmt	-0.25478965
-1.6975505	NullLiteralExpr ThrowStmt	-0.27859074
-1.4211904	LambdaExpr ThrowStmt	-0.25478965
-1.7166294	LongLiteralExpr ThrowStmt	-0.25478965
-1.9738189	ReturnStmt LambdaExpr	-0.28475058
-1.6868683	SimpleName LambdaExpr	-0.3992598
-2.2076137	IntegerLiteralExpr LambdaExpr	-0.25478965
-1.9930478	NullLiteralExpr LambdaExpr	-0.25478965
-1.4614236	LambdaExpr LambdaExpr	-0.25478965
-1.614413	ThisExpr LambdaExpr	-0.25478965
-0.9460982	Parameter UnknownType	-0.28475058
-1.9138521	ReturnStmt CatchClause	-0.28475058
-1.794766	SimpleName CatchClause	-0.5467138
-1.9561223	IntegerLiteralExpr CatchClause	-0.28475058
-1.8953854	StringLiteralExpr CatchClause	-0.25478965
-1.7684958	BooleanLiteralExpr CatchClause	-0.28475058
-1.3288304	BreakStmt CatchClause	-0.24568383
-1.7272068	NullLiteralExpr CatchClause	-0.28475058
-1.7805452	ThisExpr CatchClause	-0.25478965
-1.2314131	ContinueStmt CatchClause	-0.28475058
-1.526314	<s> $EMPTY$	-2.7237692
-1.7678192	ReturnStmt ThisExpr	-0.24794243
-1.4206207	MethodCallExpr ThisExpr	-0.25986853
-1.7645001	SimpleName ThisExpr	-0.30637974
-2.0299623	IntegerLiteralExpr ThisExpr	-0.25478965
-2.0432372	BinaryExpr ThisExpr	-0.25478965
-0.89248276	FieldAccessExpr ThisExpr	-0.5489724
-1.8754971	BooleanLiteralExpr ThisExpr	-0.25478965
-1.8497123	NullLiteralExpr ThisExpr	-0.25478965
-1.424501	ThisExpr ThisExpr	-0.25782987
-1.1589532	InstanceOfExpr ThisExpr	-0.28475058
-1.6982882	LongLiteralExpr ThisExpr	-0.25478965
-0.3580795	SynchronizedStmt ThisExpr	-0.4240337
-2.0361412	SimpleName FieldDeclaration	-0.24794243
-2.2076137	IntegerLiteralExpr FieldDeclaration	-0.25478965
-1.9792731	StringLiteralExpr FieldDeclaration	-0.25478965
-1.5446813	VoidType FieldDeclaration	-0.25478965
-2.029888	BooleanLiteralExpr FieldDeclaration	-0.25478965
-1.8221377	LongLiteralExpr FieldDeclaration	-0.25478965
-2.6379726	SimpleName WildcardType	-0.25478965
-1.367397	WildcardType WildcardType	-0.25478965
-1.9329356	ReturnStmt InstanceOfExpr	-0.28475058
-1.8923064	SimpleName InstanceOfExpr	-0.35203603
-2.1019993	ExpressionStmt InstanceOfExpr	-0.25478965
-2.1399977	IntegerLiteralExpr InstanceOfExpr	-0.25478965
-1.921588	StringLiteralExpr InstanceOfExpr	-0.25478965
-1.7648526	BinaryExpr InstanceOfExpr	-0.27453223
-1.2474346	EnclosedExpr InstanceOfExpr	-0.24930327
-0.9646302	IfStmt InstanceOfExpr	-0.5281273
-2.043413	ReturnStmt MethodReferenceExpr	-0.28475058
-1.8624703	SimpleName MethodReferenceExpr	-0.4909805
-2.3341184	IntegerLiteralExpr MethodReferenceExpr	-0.25478965
-0.44066727	MethodReferenceExpr TypeExpr	-0.24794243
-2.7339587	<s> ForEachStmt	-1.5244374
-1.8449394	ReturnStmt ForEachStmt	-0.28475058
-1.8313882	SimpleName ForEachStmt	-0.46753258
-1.6502014	IntegerLiteralExpr ForEachStmt	-0.37062255
-1.8040004	StringLiteralExpr ForEachStmt	-0.25478965
-1.4591877	VoidType ForEachStmt	-0.25478965
-1.5734781	TryStmt ForEachStmt	-0.28475058
-1.6094801	BooleanLiteralExpr ForEachStmt	-0.24568383
-1.6532898	BreakStmt ForEachStmt	-0.25478965
-1.8298274	NullLiteralExpr ForEachStmt	-0.25478965
-1.7050704	ThisExpr ForEachStmt	-0.25478965
-1.5006794	LongLiteralExpr ForEachStmt	-0.28475058
-1.3337309	CharLiteralExpr ForEachStmt	-0.25478965
-1.6282252	ReturnStmt LongLiteralExpr	-0.26652718
-1.715165	SimpleName LongLiteralExpr	-0.300469
-2.0815043	IntegerLiteralExpr LongLiteralExpr	-0.25478965
-1.8698401	BinaryExpr LongLiteralExpr	-0.28475058
-1.4937894	VoidType LongLiteralExpr	-0.25478965
-1.921122	BooleanLiteralExpr LongLiteralExpr	-0.25478965
-1.495766	UnaryExpr LongLiteralExpr	-0.26314113
-1.8924414	NullLiteralExpr LongLiteralExpr	-0.25478965
-1.7604116	ThisExpr LongLiteralExpr	-0.25478965
-1.536282	LongLiteralExpr LongLiteralExpr	-0.28193986
-1.4560955	MethodCallExpr SuperExpr	-0.46753258
-0.88843787	VariableDeclarationExpr SingleMemberAnnotationExpr	-0.28475058
-1.1028363	MethodDeclaration SingleMemberAnnotationExpr	-0.28475058
-1.4056209	Name SingleMemberAnnotationExpr	-0.25478965
-1.3448172	Modifier SingleMemberAnnotationExpr	-0.25478965
-1.279838	FieldDeclaration SingleMemberAnnotationExpr	-0.25478965
-4.279942	<s> SwitchStmt	-0.24568383
-2.3253832	SimpleName SwitchStmt	-0.28475058
-2.2458289	IntegerLiteralExpr SwitchStmt	-0.25478965
-2.0619416	BooleanLiteralExpr SwitchStmt	-0.25478965
-1.8719543	ThisExpr SwitchStmt	-0.25478965
-2.3253832	SimpleName SwitchEntry	-0.26652718
-2.011269	StringLiteralExpr SwitchEntry	-0.25478965
-1.8420995	BooleanLiteralExpr SwitchEntry	-0.26951182
-1.4975878	BreakStmt SwitchEntry	-0.28475058
-1.5377091	ContinueStmt SwitchEntry	-0.25478965
-1.8902813	ReturnStmt ArrayCreationExpr	-0.26089144
-1.6452348	SimpleName ArrayCreationExpr	-0.5089252
-2.0730443	IntegerLiteralExpr ArrayCreationExpr	-0.27453223
-2.0536995	NullLiteralExpr ArrayCreationExpr	-0.25478965
-2.603008	SimpleName ArrayCreationLevel	-0.25478965
-1.4534712	PrimitiveType ArrayCreationLevel	-0.25478965
-1.0644495	WildcardType ArrayCreationLevel	-0.25478965
-2.2837608	SimpleName CharLiteralExpr	-0.26951176
-2.3341184	IntegerLiteralExpr CharLiteralExpr	-0.25478965
-1.4255962	CharLiteralExpr CharLiteralExpr	-0.25478965
-1.9738189	ReturnStmt ConditionalExpr	-0.27453223
-2.0361412	SimpleName ConditionalExpr	-0.25512603
-2.1330183	ExpressionStmt ConditionalExpr	-0.25478965
-1.6727802	EnclosedExpr ConditionalExpr	-0.25478965
-2.130696	IfStmt ConditionalExpr	-0.25478965
-1.8472362	ThisExpr ConditionalExpr	-0.25478965
-2.4027996	SimpleName EmptyStmt	-0.25478965
-2.3341184	IntegerLiteralExpr EmptyStmt	-0.25478965
-2.08334	StringLiteralExpr EmptyStmt	-0.25478965
-2.0945423	SimpleName DoStmt	-0.37062255
-2.3341184	IntegerLiteralExpr DoStmt	-0.25478965
-2.134159	BooleanLiteralExpr DoStmt	-0.25478965
-2.1703856	ReturnStmt ContinueStmt	-0.25478965
-2.291302	SimpleName ContinueStmt	-0.26785114
-2.2076137	IntegerLiteralExpr ContinueStmt	-0.25478965
-1.9792731	StringLiteralExpr ContinueStmt	-0.25478965
-2.029888	BooleanLiteralExpr ContinueStmt	-0.25478965
-1.9930478	NullLiteralExpr ContinueStmt	-0.25478965
-2.917105	<s> SynchronizedStmt	-1.0473162
-1.9738189	ReturnStmt SynchronizedStmt	-0.28475058
-1.9192865	SimpleName SynchronizedStmt	-0.37062255
-2.0224407	IntegerLiteralExpr SynchronizedStmt	-0.28475058
-1.5446813	VoidType SynchronizedStmt	-0.25478965
-1.8224965	BooleanLiteralExpr SynchronizedStmt	-0.28475058
-2.3001742	SimpleName LabeledStmt	-0.24568383
-2.3593113	IntegerLiteralExpr LabeledStmt	-0.25478965
-2.6760006	SimpleName LocalClassDeclarationStmt	-0.25478965
-0.3082601	LocalClassDeclarationStmt ClassOrInterfaceDeclaration	-0.25478965

\3-grams:
-1.528938	SimpleName ReturnStmt </s>	0
-1.455549	IntegerLiteralExpr ReturnStmt </s>	0
-1.4613639	NullLiteralExpr ReturnStmt </s>	0
-1.0531449	ThisExpr ReturnStmt </s>	0
-1.3701209	MethodCallExpr SimpleName </s>	0
-1.2513896	NameExpr SimpleName </s>	0
-1.2761481	SimpleName SimpleName </s>	0
-1.3169744	ClassOrInterfaceType SimpleName </s>	0
-1.161406	IntegerLiteralExpr SimpleName </s>	0
-1.401073	StringLiteralExpr SimpleName </s>	0
-0.9514428	VoidType SimpleName </s>	0
-1.0996864	BooleanLiteralExpr SimpleName </s>	0
-0.8868556	NullLiteralExpr SimpleName </s>	0
-0.7669872	LambdaExpr SimpleName </s>	0
-1.2214873	UnknownType SimpleName </s>	0
-1.1997695	ThisExpr SimpleName </s>	0
-1.0183326	LongLiteralExpr SimpleName </s>	0
-1.0130694	SuperExpr SimpleName </s>	0
-1.0525492	ReturnStmt IntegerLiteralExpr </s>	0
-1.2327766	SimpleName IntegerLiteralExpr </s>	0
-1.0112147	ExpressionStmt IntegerLiteralExpr </s>	0
-0.9325384	IntegerLiteralExpr IntegerLiteralExpr </s>	0
-0.990363	StringLiteralExpr IntegerLiteralExpr </s>	0
-1.0168628	BooleanLiteralExpr IntegerLiteralExpr </s>	0
-1.1531887	UnaryExpr IntegerLiteralExpr </s>	0
-1.0769992	NullLiteralExpr IntegerLiteralExpr </s>	0
-0.73837984	LongLiteralExpr IntegerLiteralExpr </s>	0
-1.1270561	ArrayCreationLevel IntegerLiteralExpr </s>	0
-1.0835228	ThisExpr Name </s>	0
-0.78546494	ReturnStmt StringLiteralExpr </s>	0
-1.1871403	SimpleName StringLiteralExpr </s>	0
-0.95938224	IntegerLiteralExpr StringLiteralExpr </s>	0
-1.1743169	StringLiteralExpr StringLiteralExpr </s>	0
-0.29296067	LongLiteralExpr StringLiteralExpr </s>	0
-1.1403774	SimpleName VoidType </s>	0
-0.8156501	ReturnStmt BooleanLiteralExpr </s>	0
-1.1402224	SimpleName BooleanLiteralExpr </s>	0
-0.8754212	ExpressionStmt BooleanLiteralExpr </s>	0
-1.1114993	IntegerLiteralExpr BooleanLiteralExpr </s>	0
-0.96225774	StringLiteralExpr BooleanLiteralExpr </s>	0
-0.5725322	VoidType BooleanLiteralExpr </s>	0
-1.1550354	BooleanLiteralExpr BooleanLiteralExpr </s>	0
-0.7130551	NullLiteralExpr BooleanLiteralExpr </s>	0
-0.96320504	SimpleName DoubleLiteralExpr </s>	0
-0.54781735	IntegerLiteralExpr DoubleLiteralExpr </s>	0
-0.8235894	DoubleLiteralExpr DoubleLiteralExpr </s>	0
-0.9942548	SimpleName BreakStmt </s>	0
-0.8754039	IntegerLiteralExpr BreakStmt </s>	0
-0.80849445	StringLiteralExpr BreakStmt </s>	0
-0.96711266	BooleanLiteralExpr BreakStmt </s>	0
-0.6971636	ReturnStmt NullLiteralExpr </s>	0
-1.0667057	SimpleName NullLiteralExpr </s>	0
-0.75745696	IntegerLiteralExpr NullLiteralExpr </s>	0
-0.9331507	StringLiteralExpr NullLiteralExpr </s>	0
-0.8079611	BooleanLiteralExpr NullLiteralExpr </s>	0
-0.7153527	ThisExpr NullLiteralExpr </s>	0
-0.31115294	LongLiteralExpr NullLiteralExpr </s>	0
-1.4249009	SimpleName LambdaExpr </s>	0
-0.00040696273	<s> $EMPTY$ </s>	0
-0.43270767	ReturnStmt ThisExpr </s>	0
-0.97154033	SimpleName ThisExpr </s>	0
-0.7157279	BooleanLiteralExpr ThisExpr </s>	0
-0.5744645	NullLiteralExpr ThisExpr </s>	0
-0.85276407	ThisExpr ThisExpr </s>	0
-0.643921	ReturnStmt LongLiteralExpr </s>	0
-1.1227211	SimpleName LongLiteralExpr </s>	0
-0.31926286	VoidType LongLiteralExpr </s>	0
-0.9175917	LongLiteralExpr LongLiteralExpr </s>	0
-1.1982976	SimpleName CharLiteralExpr </s>	0
-0.6042582	SimpleName EmptyStmt </s>	0
-0.26390472	IntegerLiteralExpr EmptyStmt </s>	0
-1.9475406	SimpleName ReturnStmt ReturnStmt	-0.21999675
-1.4693463	MethodCallExpr SimpleName ReturnStmt	-0.25832376
-1.3959851	NameExpr SimpleName ReturnStmt	-0.37785769
-1.8774163	SimpleName SimpleName ReturnStmt	-0.24754591
-1.5622958	ClassOrInterfaceType SimpleName ReturnStmt	-0.26977035
-1.3261039	UnknownType SimpleName ReturnStmt	-0.21999675
-1.6218807	ThisExpr SimpleName ReturnStmt	-0.21999675
-1.2206336	ReturnStmt IntegerLiteralExpr ReturnStmt	-0.26917377
-1.66174	SimpleName IntegerLiteralExpr ReturnStmt	-0.25451502
-1.5496426	IntegerLiteralExpr IntegerLiteralExpr ReturnStmt	-0.25215515
-1.1251519	ArrayInitializerExpr IntegerLiteralExpr ReturnStmt	-0.21999675
-1.2493196	UnaryExpr IntegerLiteralExpr ReturnStmt	-0.21999675
-1.2199688	ArrayCreationLevel IntegerLiteralExpr ReturnStmt	-0.21999675
-1.038412	ReturnStmt StringLiteralExpr ReturnStmt	-0.24388957
-1.4603076	SimpleName StringLiteralExpr ReturnStmt	-0.24056341
-1.4833333	StringLiteralExpr StringLiteralExpr ReturnStmt	-0.21999675
-1.5397964	SimpleName VoidType ReturnStmt	-0.21999675
-1.7696891	<s> TryStmt ReturnStmt	-0.6601241
-1.3331108	SimpleName TryStmt ReturnStmt	-0.21999675
-0.8447218	StringLiteralExpr TryStmt ReturnStmt	-0.21999675
-1.0217785	NullLiteralExpr TryStmt ReturnStmt	-0.21999675
-1.1327956	ReturnStmt BooleanLiteralExpr ReturnStmt	-0.2563477
-1.508516	SimpleName BooleanLiteralExpr ReturnStmt	-0.2378808
-1.4094598	BooleanLiteralExpr BooleanLiteralExpr ReturnStmt	-0.21999675
-0.6925031	SimpleName PrimitiveType ReturnStmt	-0.2312865
-0.9651534	ArrayType PrimitiveType ReturnStmt	-0.21999675
-1.3270502	SimpleName BreakStmt ReturnStmt	-0.21999675
-0.93188053	IntegerLiteralExpr BreakStmt ReturnStmt	-0.21999675
-0.85644364	StringLiteralExpr BreakStmt ReturnStmt	-0.21999675
-1.257717	ReturnStmt NullLiteralExpr ReturnStmt	-0.23900469
-1.2787638	SimpleName NullLiteralExpr ReturnStmt	-0.23554614
-1.3327389	IntegerLiteralExpr NullLiteralExpr ReturnStmt	-0.21999675
-1.0184175	StringLiteralExpr NullLiteralExpr ReturnStmt	-0.21999675
-0.874358	ReturnStmt ThisExpr ReturnStmt	-0.21999675
-1.4047563	SimpleName ThisExpr ReturnStmt	-0.23900469
-1.1773945	ThisExpr ThisExpr ReturnStmt	-0.21999675
-1.1286203	SimpleName WildcardType ReturnStmt	-0.21999675
-0.9716152	ReturnStmt LongLiteralExpr ReturnStmt	-0.21999675
-1.601876	SimpleName LongLiteralExpr ReturnStmt	-0.21999675
-0.7947301	SimpleName SwitchEntry ReturnStmt	-0.21999675
-0.52939075	StringLiteralExpr SwitchEntry ReturnStmt	-0.21999675
-0.73963106	BooleanLiteralExpr SwitchEntry ReturnStmt	-0.21999675
-0.29789984	<s> ReturnStmt MethodCallExpr	-2.4601636
-1.0017658	SimpleName ReturnStmt MethodCallExpr	-0.3330535
-0.8040513	IntegerLiteralExpr ReturnStmt MethodCallExpr	-0.31000876
-0.92594564	StringLiteralExpr ReturnStmt MethodCallExpr	-0.22843643
-0.21251844	TryStmt ReturnStmt MethodCallExpr	-0.3590941
-0.9759693	BooleanLiteralExpr ReturnStmt MethodCallExpr	-0.26917377
-0.83641696	PrimitiveType ReturnStmt MethodCallExpr	-0.25215515
-1.031077	NullLiteralExpr ReturnStmt MethodCallExpr	-0.26917377
-0.9074252	ThisExpr ReturnStmt MethodCallExpr	-0.21999675
-0.30561838	WildcardType ReturnStmt MethodCallExpr	-0.21999675
-0.8548531	LongLiteralExpr ReturnStmt MethodCallExpr	-0.21999675
-0.7014505	SwitchEntry ReturnStmt MethodCallExpr	-0.21999675
-0.6721662	ReturnStmt MethodCallExpr MethodCallExpr	-0.37845647
-0.6376086	MethodCallExpr MethodCallExpr MethodCallExpr	-0.5062581
-0.7856498	SimpleName MethodCallExpr MethodCallExpr	-0.473112
-0.81985974	ExpressionStmt MethodCallExpr MethodCallExpr	-0.60407656
-0.92927545	IntegerLiteralExpr MethodCallExpr MethodCallExpr	-0.23969102
-0.7231135	StringLiteralExpr MethodCallExpr MethodCallExpr	-0.23969102
-1.0216223	BinaryExpr MethodCallExpr MethodCallExpr	-0.243062
-0.77435046	FieldAccessExpr MethodCallExpr MethodCallExpr	-0.25215515
-0.70341086	EnclosedExpr MethodCallExpr MethodCallExpr	-0.21999675
-0.50595397	PrimitiveType MethodCallExpr MethodCallExpr	-0.21999675
-0.63087535	ArrayInitializerExpr MethodCallExpr MethodCallExpr	-0.21999675
-0.75831336	UnaryExpr MethodCallExpr MethodCallExpr	-0.30761766
-0.7449245	ArrayAccessExpr MethodCallExpr MethodCallExpr	-0.21999675
-0.89142776	IfStmt MethodCallExpr MethodCallExpr	-0.39395386
-0.86752784	NullLiteralExpr MethodCallExpr MethodCallExpr	-0.21999675
-0.66697156	InstanceOfExpr MethodCallExpr MethodCallExpr	-0.22843643
-0.70341086	LongLiteralExpr MethodCallExpr MethodCallExpr	-0.21999675
-1.1506634	MethodCallExpr SimpleName MethodCallExpr	-0.40759742
-1.3210374	NameExpr SimpleName MethodCallExpr	-0.46752512
-1.2933099	SimpleName SimpleName MethodCallExpr	-0.3635246
-1.4128281	ClassOrInterfaceType SimpleName MethodCallExpr	-0.37884656
-1.1389613	IntegerLiteralExpr SimpleName MethodCallExpr	-0.36501154
-1.0434114	Name SimpleName MethodCallExpr	-0.21999675
-1.1107438	StringLiteralExpr SimpleName MethodCallExpr	-0.243062
-0.9321054	VoidType SimpleName MethodCallExpr	-0.21999675
-0.9153995	BooleanLiteralExpr SimpleName MethodCallExpr	-0.60213214
-1.2248212	PrimitiveType SimpleName MethodCallExpr	-0.24741273
-1.1503944	NullLiteralExpr SimpleName MethodCallExpr	-0.26917377
-0.75424457	LambdaExpr SimpleName MethodCallExpr	-0.21999675
-1.2390006	ThisExpr SimpleName MethodCallExpr	-0.26917377
-1.018707	WildcardType SimpleName MethodCallExpr	-0.23900469
-1.2157183	LongLiteralExpr SimpleName MethodCallExpr	-0.21999675
-0.75424457	CharLiteralExpr SimpleName MethodCallExpr	-0.21999675
-0.24357395	<s> ExpressionStmt MethodCallExpr	-2.9070945
-0.5504441	ReturnStmt ExpressionStmt MethodCallExpr	-0.3662451
-0.50460315	SimpleName ExpressionStmt MethodCallExpr	-0.5516434
-0.33854774	IntegerLiteralExpr ExpressionStmt MethodCallExpr	-0.46785247
-0.45234454	Name ExpressionStmt MethodCallExpr	-0.21999675
-0.7010211	StringLiteralExpr ExpressionStmt MethodCallExpr	-0.23588105
-0.6162807	VoidType ExpressionStmt MethodCallExpr	-0.21999675
-0.38038403	TryStmt ExpressionStmt MethodCallExpr	-0.5500332
-0.45717427	BooleanLiteralExpr ExpressionStmt MethodCallExpr	-0.4368385
-0.45234454	PrimitiveType ExpressionStmt MethodCallExpr	-0.21999675
-0.44044188	DoubleLiteralExpr ExpressionStmt MethodCallExpr	-0.25215515
-1.0913862	ForStmt ExpressionStmt MethodCallExpr	-0.21999675
-0.7098195	BreakStmt ExpressionStmt MethodCallExpr	-0.30059677
-0.36496866	NullLiteralExpr ExpressionStmt MethodCallExpr	-0.46890742
-0.46018428	LambdaExpr ExpressionStmt MethodCallExpr	-0.2538189
-0.43007573	ThisExpr ExpressionStmt MethodCallExpr	-0.32700706
-0.360444	LongLiteralExpr ExpressionStmt MethodCallExpr	-0.30890357
-0.35088938	SwitchEntry ExpressionStmt MethodCallExpr	-0.21999675
-0.5380808	CharLiteralExpr ExpressionStmt MethodCallExpr	-0.24388957
-0.45234454	DoStmt ExpressionStmt MethodCallExpr	-0.21999675
-0.6970391	ContinueStmt ExpressionStmt MethodCallExpr	-0.25215515
-1.2273061	ReturnStmt IntegerLiteralExpr MethodCallExpr	-0.21999675
-1.2043451	SimpleName IntegerLiteralExpr MethodCallExpr	-0.3990802
-0.98500764	ExpressionStmt IntegerLiteralExpr MethodCallExpr	-0.21999675
-1.2055631	IntegerLiteralExpr IntegerLiteralExpr MethodCallExpr	-0.31000876
-1.1474138	StringLiteralExpr IntegerLiteralExpr MethodCallExpr	-0.21999675
-0.87667835	BinaryExpr IntegerLiteralExpr MethodCallExpr	-0.3590941
-1.1715355	BooleanLiteralExpr IntegerLiteralExpr MethodCallExpr	-0.21999675
-1.0222633	ArrayInitializerExpr IntegerLiteralExpr MethodCallExpr	-0.21999675
-1.2496434	UnaryExpr IntegerLiteralExpr MethodCallExpr	-0.21999675
-1.0463152	NullLiteralExpr IntegerLiteralExpr MethodCallExpr	-0.21999675
-1.092913	ArrayCreationLevel IntegerLiteralExpr MethodCallExpr	-0.21999675
-1.2776	SimpleName StringLiteralExpr MethodCallExpr	-0.33549583
-1.1971831	IntegerLiteralExpr StringLiteralExpr MethodCallExpr	-0.21999675
-1.1942811	StringLiteralExpr StringLiteralExpr MethodCallExpr	-0.24388957
-0.9508618	BinaryExpr StringLiteralExpr MethodCallExpr	-0.25718448
-0.9309942	ReturnStmt BinaryExpr MethodCallExpr	-0.2858303
-0.91048115	SimpleName BinaryExpr MethodCallExpr	-0.3536329
-0.9245102	IntegerLiteralExpr BinaryExpr MethodCallExpr	-0.25215515
-0.76501894	StringLiteralExpr BinaryExpr MethodCallExpr	-0.21999675
-0.7910216	BinaryExpr BinaryExpr MethodCallExpr	-0.4260409
-0.8088678	EnclosedExpr BinaryExpr MethodCallExpr	-0.4560041
-0.73206854	IfStmt BinaryExpr MethodCallExpr	-0.67604446
-0.79558754	WhileStmt BinaryExpr MethodCallExpr	-0.36800075
-0.81904495	NullLiteralExpr BinaryExpr MethodCallExpr	-0.21999675
-0.5454032	ThisExpr BinaryExpr MethodCallExpr	-0.21999675
-0.8725754	ArrayCreationLevel BinaryExpr MethodCallExpr	-0.21999675
-0.8833158	ConditionalExpr BinaryExpr MethodCallExpr	-0.26917377
-1.0429053	ReturnStmt FieldAccessExpr MethodCallExpr	-0.21999675
-1.0333546	MethodCallExpr FieldAccessExpr MethodCallExpr	-0.25215515
-1.0550684	SimpleName FieldAccessExpr MethodCallExpr	-0.25215515
-1.1136357	IntegerLiteralExpr FieldAccessExpr MethodCallExpr	-0.21999675
-0.9924926	BinaryExpr FieldAccessExpr MethodCallExpr	-0.23415539
-0.29662627	EnclosedExpr FieldAccessExpr MethodCallExpr	-0.21999675
-1.5011194	ReturnStmt BooleanLiteralExpr MethodCallExpr	-0.21999675
-1.4584954	SimpleName BooleanLiteralExpr MethodCallExpr	-0.26917377
-1.2520263	IntegerLiteralExpr BooleanLiteralExpr MethodCallExpr	-0.21999675
-1.3120251	BooleanLiteralExpr BooleanLiteralExpr MethodCallExpr	-0.21999675
-0.9161785	SimpleName EnclosedExpr MethodCallExpr	-0.21999675
-0.83207494	IntegerLiteralExpr EnclosedExpr MethodCallExpr	-0.21999675
-1.2642937	BinaryExpr EnclosedExpr MethodCallExpr	-0.21999675
-0.9982698	CastExpr PrimitiveType MethodCallExpr	-0.26917377
-0.94137824	SimpleName ArrayInitializerExpr MethodCallExpr	-0.21999675
-0.8030939	ArrayCreationLevel ArrayInitializerExpr MethodCallExpr	-0.25215515
-0.74854445	ReturnStmt UnaryExpr MethodCallExpr	-0.26917377
-0.94557893	SimpleName UnaryExpr MethodCallExpr	-0.26917377
-0.62348324	IntegerLiteralExpr UnaryExpr MethodCallExpr	-0.25215515
-0.6755617	StringLiteralExpr UnaryExpr MethodCallExpr	-0.21999675
-0.46530873	BinaryExpr UnaryExpr MethodCallExpr	-0.3274822
-0.44199252	IfStmt UnaryExpr MethodCallExpr	-0.5018273
-0.22123778	WhileStmt UnaryExpr MethodCallExpr	-0.5351854
-0.48746973	NullLiteralExpr UnaryExpr MethodCallExpr	-0.21999675
-0.9462214	MethodCallExpr ArrayAccessExpr MethodCallExpr	-0.21999675
-0.79876775	SimpleName ArrayAccessExpr MethodCallExpr	-0.23057218
-0.6384967	IntegerLiteralExpr ArrayAccessExpr MethodCallExpr	-0.21999675
-0.9462214	BinaryExpr ArrayAccessExpr MethodCallExpr	-0.21999675
-0.51684594	<s> IfStmt MethodCallExpr	-1.8998241
-0.6310782	ReturnStmt IfStmt MethodCallExpr	-0.23415539
-0.8498705	SimpleName IfStmt MethodCallExpr	-0.293873
-0.67991877	IntegerLiteralExpr IfStmt MethodCallExpr	-0.26917377
-0.45171252	StringLiteralExpr IfStmt MethodCallExpr	-0.23523672
-0.6982836	VoidType IfStmt MethodCallExpr	-0.21999675
-0.83554494	TryStmt IfStmt MethodCallExpr	-0.23057218
-0.71468085	BooleanLiteralExpr IfStmt MethodCallExpr	-0.24782582
-0.44555467	ForStmt IfStmt MethodCallExpr	-0.49739683
-0.7196102	BreakStmt IfStmt MethodCallExpr	-0.3274822
-0.69041497	NullLiteralExpr IfStmt MethodCallExpr	-0.2588828
-0.6151491	ThisExpr IfStmt MethodCallExpr	-0.26917377
-0.7433672	LongLiteralExpr IfStmt MethodCallExpr	-0.21999675
-0.585874	CharLiteralExpr IfStmt MethodCallExpr	-0.21999675
-0.25541174	EmptyStmt IfStmt MethodCallExpr	-0.21999675
-0.45806658	DoStmt IfStmt MethodCallExpr	-0.25215515
-0.543519	ContinueStmt IfStmt MethodCallExpr	-0.22843643
-0.8538046	SimpleName WhileStmt MethodCallExpr	-0.23415539
-0.83655024	IntegerLiteralExpr WhileStmt MethodCallExpr	-0.21999675
-1.3042867	ReturnStmt NullLiteralExpr MethodCallExpr	-0.21999675
-1.2685258	SimpleName NullLiteralExpr MethodCallExpr	-0.23057218
-0.5804548	ExpressionStmt NullLiteralExpr MethodCallExpr	-0.21999675
-1.2044913	IntegerLiteralExpr NullLiteralExpr MethodCallExpr	-0.21999675
-0.7282385	BinaryExpr NullLiteralExpr MethodCallExpr	-0.21999675
-0.8873831	ArrayInitializerExpr NullLiteralExpr MethodCallExpr	-0.21999675
-2.844495	<s> ThrowStmt MethodCallExpr	-0.21999675
-0.7650021	SimpleName ThrowStmt MethodCallExpr	-0.24782582
-0.72049415	IntegerLiteralExpr ThrowStmt MethodCallExpr	-0.21999675
-0.6821393	StringLiteralExpr ThrowStmt MethodCallExpr	-0.21999675
-0.26430887	TryStmt ThrowStmt MethodCallExpr	-0.21999675
-0.54166204	NullLiteralExpr ThrowStmt MethodCallExpr	-0.25215515
-1.4681425	SimpleName ThisExpr MethodCallExpr	-0.26917377
-1.1009457	SimpleName WildcardType MethodCallExpr	-0.21999675
-0.4796126	SimpleName InstanceOfExpr MethodCallExpr	-0.30110213
-0.4568271	StringLiteralExpr InstanceOfExpr MethodCallExpr	-0.21999675
-0.5692029	BinaryExpr InstanceOfExpr MethodCallExpr	-0.21999675
-0.4109327	EnclosedExpr InstanceOfExpr MethodCallExpr	-0.26917377
-0.81167793	IfStmt InstanceOfExpr MethodCallExpr	-0.21999675
-1.1930962	SimpleName LongLiteralExpr MethodCallExpr	-0.243062
-1.065235	UnaryExpr LongLiteralExpr MethodCallExpr	-0.21999675
-0.8887071	SimpleName ArrayCreationLevel MethodCallExpr	-0.21999675
-0.8416277	PrimitiveType ArrayCreationLevel MethodCallExpr	-0.21999675
-1.1699146	SimpleName CharLiteralExpr MethodCallExpr	-0.21999675
-0.79544663	SimpleName ConditionalExpr MethodCallExpr	-0.26917377
-1.0036409	<s> ReturnStmt NameExpr	-2.5487247
-1.1908933	SimpleName ReturnStmt NameExpr	-0.3590941
-1.0804162	IntegerLiteralExpr ReturnStmt NameExpr	-0.26917377
-1.045628	StringLiteralExpr ReturnStmt NameExpr	-0.26917377
-0.31546184	VoidType ReturnStmt NameExpr	-0.21999675
-1.022299	BooleanLiteralExpr ReturnStmt NameExpr	-0.26917377
-0.86982834	PrimitiveType ReturnStmt NameExpr	-0.26917377
-0.7263658	BreakStmt ReturnStmt NameExpr	-0.21999675
-1.0843747	NullLiteralExpr ReturnStmt NameExpr	-0.26917377
-0.44187564	ReturnStmt MethodCallExpr NameExpr	-0.7984268
-0.489464	MethodCallExpr MethodCallExpr NameExpr	-0.9611541
-0.49681222	SimpleName MethodCallExpr NameExpr	-0.9331254
-0.5967951	ExpressionStmt MethodCallExpr NameExpr	-1.0792534
-0.27833894	IntegerLiteralExpr MethodCallExpr NameExpr	-0.7984268
-0.630335	StringLiteralExpr MethodCallExpr NameExpr	-0.23415539
-0.36563295	BinaryExpr MethodCallExpr NameExpr	-0.8362154
-0.35873076	FieldAccessExpr MethodCallExpr NameExpr	-0.4560041
-0.24472722	BooleanLiteralExpr MethodCallExpr NameExpr	-0.3590941
-0.43030897	EnclosedExpr MethodCallExpr NameExpr	-0.26917377
-0.44703504	PrimitiveType MethodCallExpr NameExpr	-0.21999675
-0.34686685	ArrayInitializerExpr MethodCallExpr NameExpr	-0.26917377
-0.3930903	UnaryExpr MethodCallExpr NameExpr	-0.6601241
-0.4020017	ArrayAccessExpr MethodCallExpr NameExpr	-0.23415539
-0.41899204	IfStmt MethodCallExpr NameExpr	-0.987483
-0.21666016	WhileStmt MethodCallExpr NameExpr	-0.26917377
-0.3897863	NullLiteralExpr MethodCallExpr NameExpr	-0.3590941
-0.33878535	ThrowStmt MethodCallExpr NameExpr	-0.4560041
-0.23720351	ThisExpr MethodCallExpr NameExpr	-0.21999675
-0.23720351	WildcardType MethodCallExpr NameExpr	-0.21999675
-0.32476705	InstanceOfExpr MethodCallExpr NameExpr	-0.4560041
-0.43030897	LongLiteralExpr MethodCallExpr NameExpr	-0.26917377
-0.21666016	ArrayCreationLevel MethodCallExpr NameExpr	-0.26917377
-0.23720351	CharLiteralExpr MethodCallExpr NameExpr	-0.21999675
-0.23720351	ConditionalExpr MethodCallExpr NameExpr	-0.21999675
-0.94924396	MethodCallExpr SimpleName NameExpr	-0.8709774
-1.206638	NameExpr SimpleName NameExpr	-0.9611541
-1.2453701	SimpleName SimpleName NameExpr	-0.71127665
-1.3401364	ClassOrInterfaceType SimpleName NameExpr	-0.5351854
-1.2132993	IntegerLiteralExpr SimpleName NameExpr	-0.4560041
-0.7811585	Name SimpleName NameExpr	-0.26917377
-1.104879	StringLiteralExpr SimpleName NameExpr	-0.23415539
-0.9281373	VoidType SimpleName NameExpr	-0.21999675
-1.3435857	BooleanLiteralExpr SimpleName NameExpr	-0.23415539
-1.3627687	PrimitiveType SimpleName NameExpr	-0.21999675
-1.1445986	NullLiteralExpr SimpleName NameExpr	-0.26917377
-0.75160587	LambdaExpr SimpleName NameExpr	-0.21999675
-1.1600388	ThisExpr SimpleName NameExpr	-0.23415539
-1.0140514	WildcardType SimpleName NameExpr	-0.26917377
-0.99261266	LongLiteralExpr SimpleName NameExpr	-0.26917377
-0.98631805	SuperExpr SimpleName NameExpr	-0.21999675
-1.8691907	SimpleName ExpressionStmt NameExpr	-0.21999675
-1.3327087	ReturnStmt IntegerLiteralExpr NameExpr	-0.21999675
-1.3241025	SimpleName IntegerLiteralExpr NameExpr	-0.5351854
-1.4128442	IntegerLiteralExpr IntegerLiteralExpr NameExpr	-0.23415539
-1.018467	StringLiteralExpr IntegerLiteralExpr NameExpr	-0.26917377
-0.7711528	BinaryExpr IntegerLiteralExpr NameExpr	-0.4560041
-1.1943674	UnaryExpr IntegerLiteralExpr NameExpr	-0.26917377
-0.9323933	ThisExpr IntegerLiteralExpr NameExpr	-0.21999675
-1.0490224	ThisExpr Name NameExpr	-0.21999675
-1.351437	SimpleName StringLiteralExpr NameExpr	-0.3590941
-0.9638317	IntegerLiteralExpr StringLiteralExpr NameExpr	-0.26917377
-1.1813444	StringLiteralExpr StringLiteralExpr NameExpr	-0.26917377
-0.9433966	BinaryExpr StringLiteralExpr NameExpr	-0.23415539
-0.77118695	ReturnStmt BinaryExpr NameExpr	-0.4560041
-0.6994036	SimpleName BinaryExpr NameExpr	-0.71127665
-0.6204251	ExpressionStmt BinaryExpr NameExpr	-0.21999675
-0.77677274	IntegerLiteralExpr BinaryExpr NameExpr	-0.23415539
-0.6998255	StringLiteralExpr BinaryExpr NameExpr	-0.21999675
-0.62303853	BinaryExpr BinaryExpr NameExpr	-0.7984268
-0.5035967	BooleanLiteralExpr BinaryExpr NameExpr	-0.21999675
-0.6802502	EnclosedExpr BinaryExpr NameExpr	-0.5351854
-0.6353163	IfStmt BinaryExpr NameExpr	-1.0123066
-0.48672366	ForStmt BinaryExpr NameExpr	-0.26917377
-0.59932923	WhileStmt BinaryExpr NameExpr	-0.60213214
-0.7435908	NullLiteralExpr BinaryExpr NameExpr	-0.21999675
-0.5035967	ThisExpr BinaryExpr NameExpr	-0.21999675
-0.5035967	LongLiteralExpr BinaryExpr NameExpr	-0.21999675
-0.60566825	ArrayCreationLevel BinaryExpr NameExpr	-0.26917377
-0.27121386	CharLiteralExpr BinaryExpr NameExpr	-0.21999675
-0.45776188	ConditionalExpr BinaryExpr NameExpr	-0.4560041
-0.19480915	ReturnStmt FieldAccessExpr NameExpr	-0.5351854
-0.26915163	MethodCallExpr FieldAccessExpr NameExpr	-0.7984268
-0.24335493	SimpleName FieldAccessExpr NameExpr	-0.7570341
-0.09280512	IntegerLiteralExpr FieldAccessExpr NameExpr	-0.6601241
-0.24634501	StringLiteralExpr FieldAccessExpr NameExpr	-0.23415539
-0.21534793	BinaryExpr FieldAccessExpr NameExpr	-0.7984268
-0.16552418	VoidType FieldAccessExpr NameExpr	-0.21999675
-0.19423348	FieldAccessExpr FieldAccessExpr NameExpr	-0.4560041
-0.16981451	BooleanLiteralExpr FieldAccessExpr NameExpr	-0.23415539
-0.3361357	AssignExpr FieldAccessExpr NameExpr	-0.21999675
-0.16552418	ArrayInitializerExpr FieldAccessExpr NameExpr	-0.21999675
-0.19114919	UnaryExpr FieldAccessExpr NameExpr	-0.4560041
-0.15229617	ArrayAccessExpr FieldAccessExpr NameExpr	-0.26917377
-0.15229617	IfStmt FieldAccessExpr NameExpr	-0.26917377
-0.15229617	NullLiteralExpr FieldAccessExpr NameExpr	-0.26917377
-0.16552418	ThisExpr FieldAccessExpr NameExpr	-0.21999675
-0.16552418	WildcardType FieldAccessExpr NameExpr	-0.21999675
-0.16981451	LongLiteralExpr FieldAccessExpr NameExpr	-0.23415539
-0.15229617	SwitchEntry FieldAccessExpr NameExpr	-0.26917377
-0.16552418	ArrayCreationLevel FieldAccessExpr NameExpr	-0.21999675
-1.385403	SimpleName BooleanLiteralExpr NameExpr	-0.23415539
-1.0480219	StringLiteralExpr BooleanLiteralExpr NameExpr	-0.21999675
-1.0090724	BooleanLiteralExpr BooleanLiteralExpr NameExpr	-0.23415539
-0.3279441	ThisExpr BooleanLiteralExpr NameExpr	-0.21999675
-0.15250707	SimpleName AssignExpr NameExpr	-0.26917377
-0.36995113	ExpressionStmt AssignExpr NameExpr	-0.987483
-0.16575715	IntegerLiteralExpr AssignExpr NameExpr	-0.21999675
-0.16575715	EnclosedExpr AssignExpr NameExpr	-0.21999675
-1.3659948	BinaryExpr EnclosedExpr NameExpr	-0.21999675
-0.40605038	CastExpr PrimitiveType NameExpr	-0.5351854
-0.93629605	ArrayType PrimitiveType NameExpr	-0.21999675
-0.93238246	SimpleName ArrayInitializerExpr NameExpr	-0.21999675
-0.99063075	ArrayCreationLevel ArrayInitializerExpr NameExpr	-0.21999675
-0.45132107	ReturnStmt UnaryExpr NameExpr	-0.3590941
-0.51393545	SimpleName UnaryExpr NameExpr	-0.5351854
-0.14446373	ExpressionStmt UnaryExpr NameExpr	-0.8362154
-0.5262777	IntegerLiteralExpr UnaryExpr NameExpr	-0.26917377
-0.39794135	StringLiteralExpr UnaryExpr NameExpr	-0.26917377
-0.35408664	BinaryExpr UnaryExpr NameExpr	-0.60213214
-0.1972615	EnclosedExpr UnaryExpr NameExpr	-0.26917377
-0.3806888	IfStmt UnaryExpr NameExpr	-0.8709774
-0.6537606	WhileStmt UnaryExpr NameExpr	-0.26917377
-0.4123314	NullLiteralExpr UnaryExpr NameExpr	-0.21999675
-0.21547155	ThisExpr UnaryExpr NameExpr	-0.21999675
-0.5044679	LongLiteralExpr UnaryExpr NameExpr	-0.21999675
-0.110265516	ReturnStmt ArrayAccessExpr NameExpr	-0.26917377
-0.098469004	MethodCallExpr ArrayAccessExpr NameExpr	-0.5351854
-0.14732637	SimpleName ArrayAccessExpr NameExpr	-0.6601241
-0.20586608	IntegerLiteralExpr ArrayAccessExpr NameExpr	-0.26917377
-0.110265516	StringLiteralExpr ArrayAccessExpr NameExpr	-0.26917377
-0.098469004	BinaryExpr ArrayAccessExpr NameExpr	-0.5351854
-0.12224442	FieldAccessExpr ArrayAccessExpr NameExpr	-0.23415539
-0.119324856	BooleanLiteralExpr ArrayAccessExpr NameExpr	-0.21999675
-0.26934326	AssignExpr ArrayAccessExpr NameExpr	-0.21999675
-0.12224442	UnaryExpr ArrayAccessExpr NameExpr	-0.23415539
-0.110265516	InstanceOfExpr ArrayAccessExpr NameExpr	-0.26917377
-1.0010897	SimpleName DoubleLiteralExpr NameExpr	-0.21999675
-0.304692	BinaryExpr DoubleLiteralExpr NameExpr	-0.21999675
-0.7069055	<s> IfStmt NameExpr	-2.405394
-0.8693321	ReturnStmt IfStmt NameExpr	-0.26917377
-0.79048824	SimpleName IfStmt NameExpr	-0.5351854
-0.77242213	IntegerLiteralExpr IfStmt NameExpr	-0.26917377
-0.86741936	StringLiteralExpr IfStmt NameExpr	-0.21999675
-0.7286124	VoidType IfStmt NameExpr	-0.21999675
-1.0373901	TryStmt IfStmt NameExpr	-0.21999675
-0.8071842	BooleanLiteralExpr IfStmt NameExpr	-0.26917377
-0.5870354	ForStmt IfStmt NameExpr	-0.5351854
-1.0960315	BreakStmt IfStmt NameExpr	-0.21999675
-0.7191449	NullLiteralExpr IfStmt NameExpr	-0.26917377
-0.8073175	ThisExpr IfStmt NameExpr	-0.21999675
-0.5951954	LongLiteralExpr IfStmt NameExpr	-0.26917377
-0.6867061	DoStmt IfStmt NameExpr	-0.21999675
-0.91994035	ContinueStmt IfStmt NameExpr	-0.21999675
-1.2458129	ReturnStmt NullLiteralExpr NameExpr	-0.21999675
-1.1195176	SimpleName NullLiteralExpr NameExpr	-0.3590941
-1.1522413	IntegerLiteralExpr NullLiteralExpr NameExpr	-0.21999675
-0.4339187	BinaryExpr NullLiteralExpr NameExpr	-0.26917377
-0.79380345	BooleanLiteralExpr NullLiteralExpr NameExpr	-0.21999675
-0.94800806	NullLiteralExpr NullLiteralExpr NameExpr	-0.21999675
-0.7038782	ThisExpr NullLiteralExpr NameExpr	-0.21999675
-1.4606465	<s> ThrowStmt NameExpr	-1.2483958
-0.6852639	SimpleName ThrowStmt NameExpr	-0.23415539
-0.6294441	IntegerLiteralExpr ThrowStmt NameExpr	-0.21999675
-0.6015768	StringLiteralExpr ThrowStmt NameExpr	-0.21999675
-0.43647292	VoidType ThrowStmt NameExpr	-0.21999675
-0.58943784	BooleanLiteralExpr ThrowStmt NameExpr	-0.21999675
-0.43647292	PrimitiveType ThrowStmt NameExpr	-0.21999675
-0.64742255	NullLiteralExpr ThrowStmt NameExpr	-0.21999675
-1.0322516	SimpleName ThisExpr NameExpr	-0.4560041
-0.3254812	BinaryExpr ThisExpr NameExpr	-0.21999675
-1.1367809	ThisExpr ThisExpr NameExpr	-0.21999675
-1.0877429	SimpleName WildcardType NameExpr	-0.21999675
-0.17645736	ReturnStmt InstanceOfExpr NameExpr	-0.26917377
-0.41090608	SimpleName InstanceOfExpr NameExpr	-0.3590941
-0.19229107	ExpressionStmt InstanceOfExpr NameExpr	-0.21999675
-0.37639523	StringLiteralExpr InstanceOfExpr NameExpr	-0.21999675
-0.29224807	BinaryExpr InstanceOfExpr NameExpr	-0.26917377
-0.53802353	EnclosedExpr InstanceOfExpr NameExpr	-0.21999675
-0.18123132	IfStmt InstanceOfExpr NameExpr	-0.7570341
-1.1792711	SimpleName LongLiteralExpr NameExpr	-0.3590941
-0.95354307	LongLiteralExpr LongLiteralExpr NameExpr	-0.26917377
-0.07968589	<s> SwitchStmt NameExpr	-0.23415539
-0.07222596	SimpleName SwitchStmt NameExpr	-0.26917377
-0.07787488	IntegerLiteralExpr SwitchStmt NameExpr	-0.21999675
-0.07787488	BooleanLiteralExpr SwitchStmt NameExpr	-0.21999675
-0.07787488	ThisExpr SwitchStmt NameExpr	-0.21999675
-0.50067204	SimpleName SwitchEntry NameExpr	-0.26917377
-0.44011253	BooleanLiteralExpr SwitchEntry NameExpr	-0.26917377
-0.44519717	BreakStmt SwitchEntry NameExpr	-0.26917377
-0.2436801	ContinueStmt SwitchEntry NameExpr	-0.21999675
-0.959888	SimpleName ArrayCreationLevel NameExpr	-0.21999675
-1.1549127	SimpleName CharLiteralExpr NameExpr	-0.21999675
-0.6121023	ReturnStmt ConditionalExpr NameExpr	-0.21999675
-0.58043784	SimpleName ConditionalExpr NameExpr	-0.23415539
-0.2638821	ThisExpr ConditionalExpr NameExpr	-0.21999675
-0.8030947	<s> SynchronizedStmt NameExpr	-0.60213214
-0.3032254	SimpleName SynchronizedStmt NameExpr	-0.4560041
-0.25538406	VoidType SynchronizedStmt NameExpr	-0.21999675
-0.76285684	ReturnStmt MethodCallExpr SimpleName	-0.31392547
-0.9570761	MethodCallExpr MethodCallExpr SimpleName	-0.3481329
-0.75881845	SimpleName MethodCallExpr SimpleName	-0.34809792
-0.746501	ExpressionStmt MethodCallExpr SimpleName	-0.5305824
-0.9697711	IntegerLiteralExpr MethodCallExpr SimpleName	-0.23900469
-0.7633807	StringLiteralExpr MethodCallExpr SimpleName	-0.23969102
-0.72320116	BinaryExpr MethodCallExpr SimpleName	-0.3475498
-0.8290881	BooleanLiteralExpr MethodCallExpr SimpleName	-0.21999675
-0.7870429	UnaryExpr MethodCallExpr SimpleName	-0.23242572
-0.60356396	IfStmt MethodCallExpr SimpleName	-0.48995024
-0.6436078	NullLiteralExpr MethodCallExpr SimpleName	-0.24388957
-0.5157991	ThrowStmt MethodCallExpr SimpleName	-0.31181085
-0.9696104	InstanceOfExpr MethodCallExpr SimpleName	-0.21999675
-0.74070203	LongLiteralExpr MethodCallExpr SimpleName	-0.21999675
-0.0041084755	ReturnStmt NameExpr SimpleName	-0.37642497
-0.0014745838	MethodCallExpr NameExpr SimpleName	-0.88362694
-0.0023062362	SimpleName NameExpr SimpleName	-0.48594588
-0.012182066	ExpressionStmt NameExpr SimpleName	-0.21999675
-0.005289496	IntegerLiteralExpr NameExpr SimpleName	-0.27737552
-0.012182066	Name NameExpr SimpleName	-0.21999675
-0.009299349	StringLiteralExpr NameExpr SimpleName	-0.26953408
-0.002170205	BinaryExpr NameExpr SimpleName	-0.6005955
-0.0018440394	FieldAccessExpr NameExpr SimpleName	-1.0580641
-0.009299349	BooleanLiteralExpr NameExpr SimpleName	-0.23117514
-0.009299349	AssignExpr NameExpr SimpleName	-0.23153725
-0.012182066	EnclosedExpr NameExpr SimpleName	-0.21999675
-0.011359284	PrimitiveType NameExpr SimpleName	-0.2278159
-0.011359284	ArrayInitializerExpr NameExpr SimpleName	-0.23348846
-0.003077694	UnaryExpr NameExpr SimpleName	-0.3431514
-0.0033585853	ArrayAccessExpr NameExpr SimpleName	-0.53961587
-0.011359284	DoubleLiteralExpr NameExpr SimpleName	-0.21999675
-0.0024604024	IfStmt NameExpr SimpleName	-0.5149067
-0.005289496	NullLiteralExpr NameExpr SimpleName	-0.25310084
-0.004624785	ThrowStmt NameExpr SimpleName	-0.33819002
-0.0124439495	ThisExpr NameExpr SimpleName	-0.23045382
-0.012182066	WildcardType NameExpr SimpleName	-0.21999672
-0.005289496	InstanceOfExpr NameExpr SimpleName	-0.53160214
-0.011359284	LongLiteralExpr NameExpr SimpleName	-0.23577836
-0.007423502	SwitchStmt NameExpr SimpleName	-0.4560041
-0.009299349	SwitchEntry NameExpr SimpleName	-0.23210424
-0.012182066	ArrayCreationLevel NameExpr SimpleName	-0.21999675
-0.012182066	CharLiteralExpr NameExpr SimpleName	-0.21999675
-0.0124439495	ConditionalExpr NameExpr SimpleName	-0.243062
-0.0124439495	SynchronizedStmt NameExpr SimpleName	-0.24782582
-1.3022038	MethodCallExpr SimpleName SimpleName	-0.27507642
-1.2296613	NameExpr SimpleName SimpleName	-0.43867284
-1.3299861	SimpleName SimpleName SimpleName	-0.36691856
-0.954728	ClassOrInterfaceType SimpleName SimpleName	-0.43725127
-1.0347362	IntegerLiteralExpr SimpleName SimpleName	-0.2986686
-0.80079794	Name SimpleName SimpleName	-0.21999675
-1.1482728	StringLiteralExpr SimpleName SimpleName	-0.23900469
-0.957083	VoidType SimpleName SimpleName	-0.21999675
-1.0100453	BooleanLiteralExpr SimpleName SimpleName	-0.3108805
-0.89115286	NullLiteralExpr SimpleName SimpleName	-0.28797048
-1.2901689	ThisExpr SimpleName SimpleName	-0.22939672
-1.0245789	LongLiteralExpr SimpleName SimpleName	-0.26917377
-0.032169558	SimpleName ClassOrInterfaceType SimpleName	-0.31624782
-0.13591257	VariableDeclarator ClassOrInterfaceType SimpleName	-0.34505123
-0.13723713	ClassOrInterfaceType ClassOrInterfaceType SimpleName	-0.45194578
-0.08961022	IntegerLiteralExpr ClassOrInterfaceType SimpleName	-0.21999675
-0.067241795	ObjectCreationExpr ClassOrInterfaceType SimpleName	-0.4234653
-0.22793724	Name ClassOrInterfaceType SimpleName	-0.21999675
-0.08961022	Modifier ClassOrInterfaceType SimpleName	-0.21999675
-0.17140211	Parameter ClassOrInterfaceType SimpleName	-0.24388957
-0.08961022	StringLiteralExpr ClassOrInterfaceType SimpleName	-0.21999675
-0.08961022	VoidType ClassOrInterfaceType SimpleName	-0.21999675
-0.08961022	BooleanLiteralExpr ClassOrInterfaceType SimpleName	-0.21999675
-0.101823285	CastExpr ClassOrInterfaceType SimpleName	-0.32020193
-0.032169558	ArrayType ClassOrInterfaceType SimpleName	-0.27244714
-0.08961022	PrimitiveType ClassOrInterfaceType SimpleName	-0.21999675
-0.08961022	NullLiteralExpr ClassOrInterfaceType SimpleName	-0.21999675
-0.16335908	ClassExpr ClassOrInterfaceType SimpleName	-0.24467397
-0.083025895	ThisExpr ClassOrInterfaceType SimpleName	-0.21999675
-0.22793724	WildcardType ClassOrInterfaceType SimpleName	-0.21999675
-0.08961022	TypeExpr ClassOrInterfaceType SimpleName	-0.21999675
-0.06691402	ArrayCreationExpr ClassOrInterfaceType SimpleName	-0.3274822
-1.0586584	ReturnStmt IntegerLiteralExpr SimpleName	-0.23900469
-1.1064509	SimpleName IntegerLiteralExpr SimpleName	-0.39671797
-0.7689649	ExpressionStmt IntegerLiteralExpr SimpleName	-0.23900469
-0.9946781	IntegerLiteralExpr IntegerLiteralExpr SimpleName	-0.27230445
-0.99548995	StringLiteralExpr IntegerLiteralExpr SimpleName	-0.24388957
-0.9305816	BooleanLiteralExpr IntegerLiteralExpr SimpleName	-0.2336884
-1.1606096	UnaryExpr IntegerLiteralExpr SimpleName	-0.21999672
-1.0834348	NullLiteralExpr IntegerLiteralExpr SimpleName	-0.21999675
-1.1342523	ArrayCreationLevel IntegerLiteralExpr SimpleName	-0.21999675
-0.7969412	MarkerAnnotationExpr Name SimpleName	-0.21999675
-0.67123055	ThisExpr Name SimpleName	-0.21999675
-0.5218186	Name Modifier SimpleName	-0.21999675
-0.64442945	Modifier Modifier SimpleName	-0.21999675
-0.281792	StringLiteralExpr Modifier SimpleName	-0.21999675
-1.288287	ReturnStmt StringLiteralExpr SimpleName	-0.21999675
-0.22576629	MethodCallExpr StringLiteralExpr SimpleName	-0.23057218
-1.280164	SimpleName StringLiteralExpr SimpleName	-0.3055042
-1.1969153	StringLiteralExpr StringLiteralExpr SimpleName	-0.25215515
-1.2779778	SimpleName VoidType SimpleName	-0.24741273
-1.1861405	ReturnStmt BooleanLiteralExpr SimpleName	-0.22939672
-1.0493695	SimpleName BooleanLiteralExpr SimpleName	-0.25227496
-0.6203416	ExpressionStmt BooleanLiteralExpr SimpleName	-0.22939672
-0.8501974	IntegerLiteralExpr BooleanLiteralExpr SimpleName	-0.22939672
-0.9506485	StringLiteralExpr BooleanLiteralExpr SimpleName	-0.21999675
-0.5677623	VoidType BooleanLiteralExpr SimpleName	-0.21999675
-0.9927335	BooleanLiteralExpr BooleanLiteralExpr SimpleName	-0.21999675
-0.5677623	LongLiteralExpr BooleanLiteralExpr SimpleName	-0.21999675
-0.20481014	VariableDeclarator PrimitiveType SimpleName	-0.2544539
-0.29321516	Parameter PrimitiveType SimpleName	-0.21999675
-0.60031664	ArrayType PrimitiveType SimpleName	-0.23348846
-1.1058326	SimpleName DoubleLiteralExpr SimpleName	-0.21999675
-1.4474275	SimpleName BreakStmt SimpleName	-0.21999675
-1.2374241	ReturnStmt NullLiteralExpr SimpleName	-0.23724188
-1.255697	SimpleName NullLiteralExpr SimpleName	-0.24339285
-0.6053342	ExpressionStmt NullLiteralExpr SimpleName	-0.21999675
-1.3060173	IntegerLiteralExpr NullLiteralExpr SimpleName	-0.21999675
-1.400851	SimpleName LambdaExpr SimpleName	-0.21999675
-0.12709066	Parameter UnknownType SimpleName	-0.23900469
-0.6163768	MethodCallExpr ThisExpr SimpleName	-0.21999675
-1.3036793	SimpleName ThisExpr SimpleName	-0.24200425
-0.17049558	FieldAccessExpr ThisExpr SimpleName	-0.24069758
-0.9888309	SimpleName WildcardType SimpleName	-0.21999675
-0.5526315	WildcardType WildcardType SimpleName	-0.21999675
-1.3062414	SimpleName LongLiteralExpr SimpleName	-0.23588105
-0.32647973	BooleanLiteralExpr LongLiteralExpr SimpleName	-0.21999675
-0.9451092	LongLiteralExpr LongLiteralExpr SimpleName	-0.24741273
-0.07912162	MethodCallExpr SuperExpr SimpleName	-0.24339285
-1.0610061	SimpleName CharLiteralExpr SimpleName	-0.21999675
-0.7889148	CharLiteralExpr CharLiteralExpr SimpleName	-0.21999675
-0.73341167	SimpleName ContinueStmt SimpleName	-0.25215515
-0.5197404	IntegerLiteralExpr ContinueStmt SimpleName	-0.21999675
-0.6416754	StringLiteralExpr ContinueStmt SimpleName	-0.21999675
-0.7184686	BooleanLiteralExpr ContinueStmt SimpleName	-0.21999675
-0.13728017	SimpleName LabeledStmt SimpleName	-0.23415539
-0.13394298	IntegerLiteralExpr LabeledStmt SimpleName	-0.21999675
-0.1377657	LocalClassDeclarationStmt ClassOrInterfaceDeclaration SimpleName	-0.21999675
-0.32135096	ReturnStmt ReturnStmt ExpressionStmt	-0.21999675
-1.2317431	SimpleName ReturnStmt ExpressionStmt	-0.30110213
-1.1135261	IntegerLiteralExpr ReturnStmt ExpressionStmt	-0.24388957
-1.2493353	StringLiteralExpr ReturnStmt ExpressionStmt	-0.21999675
-1.052018	BooleanLiteralExpr ReturnStmt ExpressionStmt	-0.21999675
-1.1190383	NullLiteralExpr ReturnStmt ExpressionStmt	-0.24388957
-0.9724553	ThisExpr ReturnStmt ExpressionStmt	-0.21999675
-0.913347	LongLiteralExpr ReturnStmt ExpressionStmt	-0.21999675
-1.3613237	MethodCallExpr SimpleName ExpressionStmt	-0.37501448
-1.1106787	NameExpr SimpleName ExpressionStmt	-0.8362154
-1.269536	SimpleName SimpleName ExpressionStmt	-0.51670194
-1.2566887	ClassOrInterfaceType SimpleName ExpressionStmt	-0.4776768
-1.1556187	IntegerLiteralExpr SimpleName ExpressionStmt	-0.4102466
-1.2153901	StringLiteralExpr SimpleName ExpressionStmt	-0.26917377
-0.92499757	BooleanLiteralExpr SimpleName ExpressionStmt	-0.4102466
-1.4133524	PrimitiveType SimpleName ExpressionStmt	-0.21999675
-1.1715839	NullLiteralExpr SimpleName ExpressionStmt	-0.26917377
-1.2122718	UnknownType SimpleName ExpressionStmt	-0.21999675
-1.2680488	ThisExpr SimpleName ExpressionStmt	-0.21999675
-1.2422699	LongLiteralExpr SimpleName ExpressionStmt	-0.21999675
-1.0073434	SuperExpr SimpleName ExpressionStmt	-0.21999675
-0.66479635	ContinueStmt SimpleName ExpressionStmt	-0.24388957
-1.0441166	ReturnStmt IntegerLiteralExpr ExpressionStmt	-0.243062
-1.0959694	SimpleName IntegerLiteralExpr ExpressionStmt	-0.57913446
-0.9858365	IntegerLiteralExpr IntegerLiteralExpr ExpressionStmt	-0.48403284
-0.8934412	StringLiteralExpr IntegerLiteralExpr ExpressionStmt	-0.23415539
-1.1988013	BooleanLiteralExpr IntegerLiteralExpr ExpressionStmt	-0.21999675
-0.8083776	ArrayInitializerExpr IntegerLiteralExpr ExpressionStmt	-0.25215515
-1.1429816	UnaryExpr IntegerLiteralExpr ExpressionStmt	-0.25215515
-1.0681237	NullLiteralExpr IntegerLiteralExpr ExpressionStmt	-0.21999675
-0.90233994	ThisExpr IntegerLiteralExpr ExpressionStmt	-0.21999675
-0.9085241	ArrayCreationLevel IntegerLiteralExpr ExpressionStmt	-0.25215515
-0.82340205	ThisExpr Name ExpressionStmt	-0.25215515
-1.1949108	ReturnStmt StringLiteralExpr ExpressionStmt	-0.21999675
-1.0868653	SimpleName StringLiteralExpr ExpressionStmt	-0.51670194
-0.9245353	IntegerLiteralExpr StringLiteralExpr ExpressionStmt	-0.25215515
-1.050029	StringLiteralExpr StringLiteralExpr ExpressionStmt	-0.24944423
-0.8886697	ArrayInitializerExpr StringLiteralExpr ExpressionStmt	-0.21999675
-0.5819304	NullLiteralExpr StringLiteralExpr ExpressionStmt	-0.21999675
-1.0072826	SimpleName VoidType ExpressionStmt	-0.3590941
-0.056687333	<s> TryStmt ExpressionStmt	-1.7841686
-0.3223449	ReturnStmt TryStmt ExpressionStmt	-0.23057218
-0.43127984	SimpleName TryStmt ExpressionStmt	-0.37884656
-0.48680332	IntegerLiteralExpr TryStmt ExpressionStmt	-0.30761766
-0.584026	StringLiteralExpr TryStmt ExpressionStmt	-0.21999675
-0.584026	VoidType TryStmt ExpressionStmt	-0.21999675
-0.18661799	TryStmt TryStmt ExpressionStmt	-0.32700706
-0.43898886	BooleanLiteralExpr TryStmt ExpressionStmt	-0.243062
-0.2266015	DoubleLiteralExpr TryStmt ExpressionStmt	-0.21999675
-0.2266015	ForStmt TryStmt ExpressionStmt	-0.21999675
-0.23295112	BreakStmt TryStmt ExpressionStmt	-0.23415539
-0.477148	NullLiteralExpr TryStmt ExpressionStmt	-0.2588828
-0.20720951	ThisExpr TryStmt ExpressionStmt	-0.21999675
-0.2266015	LongLiteralExpr TryStmt ExpressionStmt	-0.21999675
-0.894024	ReturnStmt BooleanLiteralExpr ExpressionStmt	-0.2799129
-0.9311264	SimpleName BooleanLiteralExpr ExpressionStmt	-0.37884656
-0.86844516	ExpressionStmt BooleanLiteralExpr ExpressionStmt	-0.21999675
-1.0992367	IntegerLiteralExpr BooleanLiteralExpr ExpressionStmt	-0.21999675
-0.9958756	BooleanLiteralExpr BooleanLiteralExpr ExpressionStmt	-0.24388957
-0.56894994	ArrayInitializerExpr BooleanLiteralExpr ExpressionStmt	-0.21999675
-0.51183593	WhileStmt BooleanLiteralExpr ExpressionStmt	-0.25215515
-0.56894994	LongLiteralExpr BooleanLiteralExpr ExpressionStmt	-0.21999675
-0.72279435	SimpleName PrimitiveType ExpressionStmt	-0.3274822
-0.8139738	SimpleName DoubleLiteralExpr ExpressionStmt	-0.21999675
-0.8639391	DoubleLiteralExpr DoubleLiteralExpr ExpressionStmt	-0.21999675
-0.78384674	<s> ForStmt ExpressionStmt	-1.7482601
-0.57579005	ReturnStmt ForStmt ExpressionStmt	-0.26917377
-0.603167	SimpleName ForStmt ExpressionStmt	-0.3590941
-0.7666872	IntegerLiteralExpr ForStmt ExpressionStmt	-0.21999675
-0.7911548	TryStmt ForStmt ExpressionStmt	-0.21999675
-0.5372797	BooleanLiteralExpr ForStmt ExpressionStmt	-0.25215515
-0.5306542	ForStmt ForStmt ExpressionStmt	-0.26917377
-0.23673438	BreakStmt ForStmt ExpressionStmt	-0.21999675
-0.5468363	NullLiteralExpr ForStmt ExpressionStmt	-0.21999675
-0.44627473	ThisExpr ForStmt ExpressionStmt	-0.21999675
-0.44627473	LongLiteralExpr ForStmt ExpressionStmt	-0.21999675
-0.8272679	SimpleName BreakStmt ExpressionStmt	-0.24782582
-0.73747134	IntegerLiteralExpr BreakStmt ExpressionStmt	-0.21999675
-0.8022477	BooleanLiteralExpr BreakStmt ExpressionStmt	-0.21999675
-0.62338614	BreakStmt BreakStmt ExpressionStmt	-0.21999675
-0.50006473	NullLiteralExpr BreakStmt ExpressionStmt	-0.21999675
-0.50006473	LongLiteralExpr BreakStmt ExpressionStmt	-0.21999675
-0.26914197	ContinueStmt BreakStmt ExpressionStmt	-0.21999675
-0.7557166	ReturnStmt NullLiteralExpr ExpressionStmt	-0.24264885
-0.94190526	SimpleName NullLiteralExpr ExpressionStmt	-0.42391706
-0.7224898	IntegerLiteralExpr NullLiteralExpr ExpressionStmt	-0.243062
-0.29675072	Name NullLiteralExpr ExpressionStmt	-0.21999675
-0.6601337	StringLiteralExpr NullLiteralExpr ExpressionStmt	-0.25215515
-0.29675072	VoidType NullLiteralExpr ExpressionStmt	-0.21999675
-0.82422763	ArrayInitializerExpr NullLiteralExpr ExpressionStmt	-0.21999675
-0.60963666	NullLiteralExpr NullLiteralExpr ExpressionStmt	-0.24782582
-0.67971504	ThisExpr NullLiteralExpr ExpressionStmt	-0.21999675
-0.44396326	ReturnStmt LambdaExpr ExpressionStmt	-0.26917377
-0.6967797	SimpleName LambdaExpr ExpressionStmt	-0.24339285
-0.45622388	IntegerLiteralExpr LambdaExpr ExpressionStmt	-0.21999675
-0.24284849	LambdaExpr LambdaExpr ExpressionStmt	-0.21999675
-0.45622388	ThisExpr LambdaExpr ExpressionStmt	-0.21999675
-1.165663	SimpleName ThisExpr ExpressionStmt	-0.24264885
-0.5702068	IntegerLiteralExpr ThisExpr ExpressionStmt	-0.21999675
-0.5702068	NullLiteralExpr ThisExpr ExpressionStmt	-0.21999675
-0.7535111	ThisExpr ThisExpr ExpressionStmt	-0.23415539
-0.51344997	SynchronizedStmt ThisExpr ExpressionStmt	-0.3412487
-0.86201066	ReturnStmt LongLiteralExpr ExpressionStmt	-0.21999675
-0.96992564	SimpleName LongLiteralExpr ExpressionStmt	-0.36501154
-0.7295151	UnaryExpr LongLiteralExpr ExpressionStmt	-0.25215515
-0.30645388	NullLiteralExpr LongLiteralExpr ExpressionStmt	-0.21999675
-0.8716767	LongLiteralExpr LongLiteralExpr ExpressionStmt	-0.26917377
-0.7811608	BooleanLiteralExpr SwitchEntry ExpressionStmt	-0.21999675
-0.53294146	BreakStmt SwitchEntry ExpressionStmt	-0.25215515
-0.8357364	SimpleName CharLiteralExpr ExpressionStmt	-0.23900469
-0.2908016	IntegerLiteralExpr CharLiteralExpr ExpressionStmt	-0.21999675
-0.7470359	CharLiteralExpr CharLiteralExpr ExpressionStmt	-0.21999675
-0.5992025	SimpleName EmptyStmt ExpressionStmt	-0.21999675
-0.48728704	StringLiteralExpr EmptyStmt ExpressionStmt	-0.21999675
-0.52146256	IntegerLiteralExpr DoStmt ExpressionStmt	-0.21999675
-0.23515093	ReturnStmt ContinueStmt ExpressionStmt	-0.21999675
-0.61825186	SimpleName ContinueStmt ExpressionStmt	-0.2588828
-0.44371226	IntegerLiteralExpr ContinueStmt ExpressionStmt	-0.21999675
-0.5436086	StringLiteralExpr ContinueStmt ExpressionStmt	-0.21999675
-0.6037463	BooleanLiteralExpr ContinueStmt ExpressionStmt	-0.21999675
-0.44371226	NullLiteralExpr ContinueStmt ExpressionStmt	-0.21999675
-0.4097978	<s> ExpressionStmt VariableDeclarationExpr	-3.1454313
-0.5634233	ReturnStmt ExpressionStmt VariableDeclarationExpr	-0.3412487
-0.5837507	SimpleName ExpressionStmt VariableDeclarationExpr	-0.6601241
-0.5846126	IntegerLiteralExpr ExpressionStmt VariableDeclarationExpr	-0.38700616
-0.37935746	StringLiteralExpr ExpressionStmt VariableDeclarationExpr	-0.4560041
-0.64651245	VoidType ExpressionStmt VariableDeclarationExpr	-0.21999675
-0.63972604	TryStmt ExpressionStmt VariableDeclarationExpr	-0.50094956
-0.5411469	BooleanLiteralExpr ExpressionStmt VariableDeclarationExpr	-0.4102466
-0.45901522	DoubleLiteralExpr ExpressionStmt VariableDeclarationExpr	-0.25215515
-0.22553653	ForStmt ExpressionStmt VariableDeclarationExpr	-0.70769346
-0.5450073	BreakStmt ExpressionStmt VariableDeclarationExpr	-0.47361022
-0.49044746	NullLiteralExpr ExpressionStmt VariableDeclarationExpr	-0.46618742
-0.83318275	LambdaExpr ExpressionStmt VariableDeclarationExpr	-0.21999675
-0.6803487	ThisExpr ExpressionStmt VariableDeclarationExpr	-0.25215515
-0.86132634	LongLiteralExpr ExpressionStmt VariableDeclarationExpr	-0.21999675
-0.63444877	CharLiteralExpr ExpressionStmt VariableDeclarationExpr	-0.26917377
-0.47284234	EmptyStmt ExpressionStmt VariableDeclarationExpr	-0.21999675
-0.47284234	DoStmt ExpressionStmt VariableDeclarationExpr	-0.21999675
-0.65498334	ContinueStmt ExpressionStmt VariableDeclarationExpr	-0.23415539
-1.5002345	<s> TryStmt VariableDeclarationExpr	-0.9031621
-1.1615725	SimpleName TryStmt VariableDeclarationExpr	-0.26917377
-1.1984191	IntegerLiteralExpr TryStmt VariableDeclarationExpr	-0.21999675
-1.0278058	TryStmt TryStmt VariableDeclarationExpr	-0.21999675
-0.0875225	<s> ForStmt VariableDeclarationExpr	-2.442776
-0.54031205	ReturnStmt ForStmt VariableDeclarationExpr	-0.26917377
-0.46466205	SimpleName ForStmt VariableDeclarationExpr	-0.6601241
-0.39966083	IntegerLiteralExpr ForStmt VariableDeclarationExpr	-0.3590941
-0.21913542	StringLiteralExpr ForStmt VariableDeclarationExpr	-0.21999675
-0.21913542	VoidType ForStmt VariableDeclarationExpr	-0.21999675
-0.23168315	TryStmt ForStmt VariableDeclarationExpr	-0.4560041
-0.5042797	BooleanLiteralExpr ForStmt VariableDeclarationExpr	-0.26917377
-0.63442683	ForStmt ForStmt VariableDeclarationExpr	-0.21999675
-0.5116241	NullLiteralExpr ForStmt VariableDeclarationExpr	-0.21999675
-0.21913542	LambdaExpr ForStmt VariableDeclarationExpr	-0.21999675
-0.4181105	ThisExpr ForStmt VariableDeclarationExpr	-0.21999675
-0.4181105	LongLiteralExpr ForStmt VariableDeclarationExpr	-0.21999675
-0.0015467716	<s> ForEachStmt VariableDeclarationExpr	-1.211879
-0.02767621	ReturnStmt ForEachStmt VariableDeclarationExpr	-0.26917377
-0.017968558	SimpleName ForEachStmt VariableDeclarationExpr	-0.36800075
-0.022579318	IntegerLiteralExpr ForEachStmt VariableDeclarationExpr	-0.3274822
-0.029722078	StringLiteralExpr ForEachStmt VariableDeclarationExpr	-0.21999675
-0.029722078	VoidType ForEachStmt VariableDeclarationExpr	-0.21999675
-0.02767621	TryStmt ForEachStmt VariableDeclarationExpr	-0.26917377
-0.030374367	BooleanLiteralExpr ForEachStmt VariableDeclarationExpr	-0.23415539
-0.029722078	BreakStmt ForEachStmt VariableDeclarationExpr	-0.21999675
-0.029722078	NullLiteralExpr ForEachStmt VariableDeclarationExpr	-0.21999675
-0.029722078	ThisExpr ForEachStmt VariableDeclarationExpr	-0.21999675
-0.02767621	LongLiteralExpr ForEachStmt VariableDeclarationExpr	-0.26917377
-0.029722078	CharLiteralExpr ForEachStmt VariableDeclarationExpr	-0.21999675
-0.3497776	ExpressionStmt VariableDeclarationExpr VariableDeclarator	-0.9520107
-0.15136203	TryStmt VariableDeclarationExpr VariableDeclarator	-0.3590941
-0.041218754	ForStmt VariableDeclarationExpr VariableDeclarator	-0.8709774
-0.15761061	ForEachStmt VariableDeclarationExpr VariableDeclarator	-0.7249471
-1.2303923	MarkerAnnotationExpr Name VariableDeclarator	-0.21999675
-0.41246194	VariableDeclarationExpr Modifier VariableDeclarator	-0.2588828
-0.6630048	Modifier Modifier VariableDeclarator	-0.21999675
-0.41038656	FieldDeclaration Modifier VariableDeclarator	-0.24782582
-0.8142839	Name StringLiteralExpr VariableDeclarator	-0.21999675
-0.60987353	SimpleName FieldDeclaration VariableDeclarator	-0.23057218
-0.51693606	IntegerLiteralExpr FieldDeclaration VariableDeclarator	-0.21999675
-0.27897584	VoidType FieldDeclaration VariableDeclarator	-0.21999675
-1.8721032	MethodCallExpr SimpleName ClassOrInterfaceType	-0.21999675
-1.8510549	NameExpr SimpleName ClassOrInterfaceType	-0.3590941
-1.6737772	SimpleName SimpleName ClassOrInterfaceType	-0.3590941
-1.2083162	ClassOrInterfaceType SimpleName ClassOrInterfaceType	-0.7570341
-1.6555316	IntegerLiteralExpr SimpleName ClassOrInterfaceType	-0.26917377
-1.0527289	Modifier SimpleName ClassOrInterfaceType	-0.21999675
-1.3355277	PrimitiveType SimpleName ClassOrInterfaceType	-0.26917377
-1.3410877	WildcardType SimpleName ClassOrInterfaceType	-0.21999675
-0.4494493	VariableDeclarationExpr VariableDeclarator ClassOrInterfaceType	-0.24782582
-0.21403348	Name VariableDeclarator ClassOrInterfaceType	-0.21999675
-0.48754683	Modifier VariableDeclarator ClassOrInterfaceType	-0.25215515
-0.5016748	StringLiteralExpr VariableDeclarator ClassOrInterfaceType	-0.21999675
-0.5517885	FieldDeclaration VariableDeclarator ClassOrInterfaceType	-0.21999675
-0.6956181	VariableDeclarator ClassOrInterfaceType ClassOrInterfaceType	-0.26917377
-0.68609035	ClassOrInterfaceType ClassOrInterfaceType ClassOrInterfaceType	-0.26917377
-0.9622967	ObjectCreationExpr ClassOrInterfaceType ClassOrInterfaceType	-0.25215515
-0.6289805	Parameter ClassOrInterfaceType ClassOrInterfaceType	-0.21999675
-0.8047626	CastExpr ClassOrInterfaceType ClassOrInterfaceType	-0.26917377
-0.62867135	ClassExpr ClassOrInterfaceType ClassOrInterfaceType	-0.21999675
-1.9430337	SimpleName IntegerLiteralExpr ClassOrInterfaceType	-0.26917377
-0.01149857	ReturnStmt ObjectCreationExpr ClassOrInterfaceType	-0.5030983
-0.020326803	MethodCallExpr ObjectCreationExpr ClassOrInterfaceType	-0.3590941
-0.0072819632	SimpleName ObjectCreationExpr ClassOrInterfaceType	-0.60213214
-0.020326803	ExpressionStmt ObjectCreationExpr ClassOrInterfaceType	-0.3590941
-0.016184596	IntegerLiteralExpr ObjectCreationExpr ClassOrInterfaceType	-0.4560041
-0.027319463	StringLiteralExpr ObjectCreationExpr ClassOrInterfaceType	-0.23057218
-0.02673478	VoidType ObjectCreationExpr ClassOrInterfaceType	-0.21999675
-0.024900513	BooleanLiteralExpr ObjectCreationExpr ClassOrInterfaceType	-0.26917377
-0.02673478	EnclosedExpr ObjectCreationExpr ClassOrInterfaceType	-0.21999675
-0.02673478	ArrayInitializerExpr ObjectCreationExpr ClassOrInterfaceType	-0.21999675
-0.027319463	NullLiteralExpr ObjectCreationExpr ClassOrInterfaceType	-0.23415539
-0.0080169095	ThrowStmt ObjectCreationExpr ClassOrInterfaceType	-0.7570341
-0.024900513	ThisExpr ObjectCreationExpr ClassOrInterfaceType	-0.26917377
-0.02673478	LongLiteralExpr ObjectCreationExpr ClassOrInterfaceType	-0.21999675
-0.9611207	MarkerAnnotationExpr Name ClassOrInterfaceType	-0.25215515
-0.45371893	Parameter Modifier ClassOrInterfaceType	-0.26917377
-0.7522523	SimpleName Parameter ClassOrInterfaceType	-0.23057218
-0.11990118	CatchClause Parameter ClassOrInterfaceType	-0.71127665
-1.8836025	SimpleName StringLiteralExpr ClassOrInterfaceType	-0.21999675
-1.5071789	SimpleName VoidType ClassOrInterfaceType	-0.21999675
-1.8145621	SimpleName BooleanLiteralExpr ClassOrInterfaceType	-0.21999675
-0.20877638	ReturnStmt CastExpr ClassOrInterfaceType	-0.5351854
-0.34148753	SimpleName CastExpr ClassOrInterfaceType	-0.58275473
-0.18647276	ExpressionStmt CastExpr ClassOrInterfaceType	-0.21999675
-0.3559147	IntegerLiteralExpr CastExpr ClassOrInterfaceType	-0.26917377
-0.43600863	BinaryExpr CastExpr ClassOrInterfaceType	-0.23415539
-0.115086995	EnclosedExpr CastExpr ClassOrInterfaceType	-0.53160214
-0.17121786	ThrowStmt CastExpr ClassOrInterfaceType	-0.26917377
-0.25289142	SimpleName ArrayType ClassOrInterfaceType	-0.23415539
-0.25289142	VariableDeclarator ArrayType ClassOrInterfaceType	-0.23415539
-0.12641959	Name ArrayType ClassOrInterfaceType	-0.21999675
-0.12641959	Modifier ArrayType ClassOrInterfaceType	-0.21999675
-0.27939937	Parameter ArrayType ClassOrInterfaceType	-0.21999675
-0.21415174	CastExpr ArrayType ClassOrInterfaceType	-0.26917377
-0.12641959	ClassExpr ArrayType ClassOrInterfaceType	-0.21999675
-0.12641959	TypeExpr ArrayType ClassOrInterfaceType	-0.21999675
-1.0381273	ArrayType PrimitiveType ClassOrInterfaceType	-0.21999675
-1.590299	ReturnStmt NullLiteralExpr ClassOrInterfaceType	-0.21999675
-0.14405763	MethodCallExpr ClassExpr ClassOrInterfaceType	-0.23057218
-0.038431924	SimpleName ClassExpr ClassOrInterfaceType	-0.6699049
-0.14052758	IntegerLiteralExpr ClassExpr ClassOrInterfaceType	-0.21999675
-0.29960504	StringLiteralExpr ClassExpr ClassOrInterfaceType	-0.21999675
-1.0297407	MethodCallExpr ThisExpr ClassOrInterfaceType	-0.21999675
-0.3016983	InstanceOfExpr ThisExpr ClassOrInterfaceType	-0.26917377
-1.1145626	SimpleName WildcardType ClassOrInterfaceType	-0.21999675
-0.32565686	MethodReferenceExpr TypeExpr ClassOrInterfaceType	-0.23415539
-0.40647912	ReturnStmt ArrayCreationExpr ClassOrInterfaceType	-0.26917377
-0.16413847	SimpleName ArrayCreationExpr ClassOrInterfaceType	-0.6601241
-0.28880635	IntegerLiteralExpr ArrayCreationExpr ClassOrInterfaceType	-0.26917377
-0.18942788	NullLiteralExpr ArrayCreationExpr ClassOrInterfaceType	-0.21999675
-1.3511438	<s> ReturnStmt IntegerLiteralExpr	-2.2026384
-1.4843948	SimpleName ReturnStmt IntegerLiteralExpr	-0.23877616
-1.2002041	IntegerLiteralExpr ReturnStmt IntegerLiteralExpr	-0.24388957
-1.2053006	PrimitiveType ReturnStmt IntegerLiteralExpr	-0.21999675
-1.4195932	NullLiteralExpr ReturnStmt IntegerLiteralExpr	-0.21999675
-1.1366725	MethodCallExpr SimpleName IntegerLiteralExpr	-0.3232568
-1.3556811	NameExpr SimpleName IntegerLiteralExpr	-0.36262378
-1.2522193	SimpleName SimpleName IntegerLiteralExpr	-0.35752338
-1.4787601	ClassOrInterfaceType SimpleName IntegerLiteralExpr	-0.23431821
-1.3768446	IntegerLiteralExpr SimpleName IntegerLiteralExpr	-0.26693624
-1.2509518	StringLiteralExpr SimpleName IntegerLiteralExpr	-0.24388957
-0.9656108	VoidType SimpleName IntegerLiteralExpr	-0.21999675
-1.1135986	BooleanLiteralExpr SimpleName IntegerLiteralExpr	-0.28400028
-1.2915583	PrimitiveType SimpleName IntegerLiteralExpr	-0.21999672
-1.4159151	NullLiteralExpr SimpleName IntegerLiteralExpr	-0.21999675
-1.2246938	ThisExpr SimpleName IntegerLiteralExpr	-0.23900469
-1.0340399	LongLiteralExpr SimpleName IntegerLiteralExpr	-0.23900469
-1.8551563	SimpleName ExpressionStmt IntegerLiteralExpr	-0.21999675
-0.98328197	LambdaExpr ExpressionStmt IntegerLiteralExpr	-0.21999675
-1.2513016	ReturnStmt IntegerLiteralExpr IntegerLiteralExpr	-0.21999675
-1.1721774	SimpleName IntegerLiteralExpr IntegerLiteralExpr	-0.33407676
-0.98221046	IntegerLiteralExpr IntegerLiteralExpr IntegerLiteralExpr	-0.36049116
-1.1666642	StringLiteralExpr IntegerLiteralExpr IntegerLiteralExpr	-0.21999675
-0.6545825	BinaryExpr IntegerLiteralExpr IntegerLiteralExpr	-0.24353473
-1.0045877	BooleanLiteralExpr IntegerLiteralExpr IntegerLiteralExpr	-0.24741273
-0.8050377	ArrayInitializerExpr IntegerLiteralExpr IntegerLiteralExpr	-0.23900469
-1.1358535	UnaryExpr IntegerLiteralExpr IntegerLiteralExpr	-0.23348846
-0.74132866	NullLiteralExpr IntegerLiteralExpr IntegerLiteralExpr	-0.2588828
-0.89805496	ThisExpr IntegerLiteralExpr IntegerLiteralExpr	-0.21999675
-1.1102314	ArrayCreationLevel IntegerLiteralExpr IntegerLiteralExpr	-0.21999675
-1.2664664	ReturnStmt StringLiteralExpr IntegerLiteralExpr	-0.21999675
-1.3490822	SimpleName StringLiteralExpr IntegerLiteralExpr	-0.24758478
-1.1793627	StringLiteralExpr StringLiteralExpr IntegerLiteralExpr	-0.21999675
-1.2410618	BinaryExpr StringLiteralExpr IntegerLiteralExpr	-0.21999675
-0.92510015	ArrayInitializerExpr StringLiteralExpr IntegerLiteralExpr	-0.21999675
-1.1927449	ReturnStmt BinaryExpr IntegerLiteralExpr	-0.22843643
-1.0690794	SimpleName BinaryExpr IntegerLiteralExpr	-0.27334794
-0.7425246	ExpressionStmt BinaryExpr IntegerLiteralExpr	-0.21999675
-0.96279144	IntegerLiteralExpr BinaryExpr IntegerLiteralExpr	-0.24388957
-0.9799585	BinaryExpr BinaryExpr IntegerLiteralExpr	-0.243062
-0.99572307	EnclosedExpr BinaryExpr IntegerLiteralExpr	-0.23717983
-0.7171322	ArrayCreationLevel BinaryExpr IntegerLiteralExpr	-0.25215515
-1.5466244	SimpleName VoidType IntegerLiteralExpr	-0.21999675
-1.2981514	SimpleName BooleanLiteralExpr IntegerLiteralExpr	-0.2757732
-0.94773173	IntegerLiteralExpr BooleanLiteralExpr IntegerLiteralExpr	-0.25718448
-1.0776812	StringLiteralExpr BooleanLiteralExpr IntegerLiteralExpr	-0.21999675
-0.7742772	NullLiteralExpr BooleanLiteralExpr IntegerLiteralExpr	-0.21999675
-0.9618505	SimpleName ArrayInitializerExpr IntegerLiteralExpr	-0.21999675
-0.8177248	ArrayCreationLevel ArrayInitializerExpr IntegerLiteralExpr	-0.23577836
-1.2027485	ReturnStmt UnaryExpr IntegerLiteralExpr	-0.21999675
-0.6728816	SimpleName UnaryExpr IntegerLiteralExpr	-0.28457597
-0.6780632	IntegerLiteralExpr UnaryExpr IntegerLiteralExpr	-0.2336884
-1.4555858	ReturnStmt NullLiteralExpr IntegerLiteralExpr	-0.21999675
-1.4199235	SimpleName NullLiteralExpr IntegerLiteralExpr	-0.23900469
-0.8745755	BooleanLiteralExpr NullLiteralExpr IntegerLiteralExpr	-0.21999675
-0.953539	ArrayInitializerExpr NullLiteralExpr IntegerLiteralExpr	-0.21999675
-1.5264126	SimpleName ThisExpr IntegerLiteralExpr	-0.21999675
-1.6091377	SimpleName LongLiteralExpr IntegerLiteralExpr	-0.21999675
-0.30301356	BinaryExpr LongLiteralExpr IntegerLiteralExpr	-0.21999675
-0.907352	SimpleName ArrayCreationLevel IntegerLiteralExpr	-0.21999675
-0.85831976	PrimitiveType ArrayCreationLevel IntegerLiteralExpr	-0.21999675
-1.106568	<s> ReturnStmt ObjectCreationExpr	-2.446343
-1.3957088	SimpleName ReturnStmt ObjectCreationExpr	-0.23415539
-1.3350594	IntegerLiteralExpr ReturnStmt ObjectCreationExpr	-0.21999675
-1.3021111	StringLiteralExpr ReturnStmt ObjectCreationExpr	-0.21999675
-1.1567106	NullLiteralExpr ReturnStmt ObjectCreationExpr	-0.26917377
-0.99922603	ThisExpr ReturnStmt ObjectCreationExpr	-0.21999675
-0.75759524	SwitchEntry ReturnStmt ObjectCreationExpr	-0.21999675
-1.163934	MethodCallExpr MethodCallExpr ObjectCreationExpr	-0.4560041
-1.4894552	SimpleName MethodCallExpr ObjectCreationExpr	-0.23415539
-1.2005767	ExpressionStmt MethodCallExpr ObjectCreationExpr	-0.60213214
-1.7966435	IfStmt MethodCallExpr ObjectCreationExpr	-0.21999675
-1.509388	MethodCallExpr SimpleName ObjectCreationExpr	-0.3590941
-1.4818999	NameExpr SimpleName ObjectCreationExpr	-0.71127665
-1.4071414	SimpleName SimpleName ObjectCreationExpr	-0.60213214
-1.7104547	ClassOrInterfaceType SimpleName ObjectCreationExpr	-0.23415539
-1.1854448	IntegerLiteralExpr SimpleName ObjectCreationExpr	-0.5351854
-1.2631263	StringLiteralExpr SimpleName ObjectCreationExpr	-0.26917377
-1.4269023	BooleanLiteralExpr SimpleName ObjectCreationExpr	-0.23415539
-1.4320422	NullLiteralExpr SimpleName ObjectCreationExpr	-0.21999675
-1.5027399	ThisExpr SimpleName ObjectCreationExpr	-0.21999675
-1.3105557	WildcardType SimpleName ObjectCreationExpr	-0.21999675
-1.291427	LongLiteralExpr SimpleName ObjectCreationExpr	-0.21999675
-4.1899414	<s> ExpressionStmt ObjectCreationExpr	-0.26917377
-1.7350397	SimpleName ExpressionStmt ObjectCreationExpr	-0.21999675
-1.4533794	TryStmt ExpressionStmt ObjectCreationExpr	-0.26917377
-1.2179892	LambdaExpr ExpressionStmt ObjectCreationExpr	-0.21999675
-1.4591421	ReturnStmt IntegerLiteralExpr ObjectCreationExpr	-0.21999675
-1.5822048	SimpleName IntegerLiteralExpr ObjectCreationExpr	-0.3590941
-1.5931698	IntegerLiteralExpr IntegerLiteralExpr ObjectCreationExpr	-0.26917377
-1.1473002	ArrayInitializerExpr IntegerLiteralExpr ObjectCreationExpr	-0.21999675
-1.4854176	UnaryExpr IntegerLiteralExpr ObjectCreationExpr	-0.21999675
-1.6724998	SimpleName StringLiteralExpr ObjectCreationExpr	-0.26917377
-1.2813394	IntegerLiteralExpr StringLiteralExpr ObjectCreationExpr	-0.21999675
-1.4884733	StringLiteralExpr StringLiteralExpr ObjectCreationExpr	-0.21999675
-1.3930844	SimpleName VoidType ObjectCreationExpr	-0.26917377
-1.4545554	ReturnStmt BooleanLiteralExpr ObjectCreationExpr	-0.26917377
-1.7915565	SimpleName BooleanLiteralExpr ObjectCreationExpr	-0.21999675
-1.2710071	SimpleName EnclosedExpr ObjectCreationExpr	-0.21999675
-1.1262501	ArrayCreationLevel ArrayInitializerExpr ObjectCreationExpr	-0.21999675
-1.5324875	ReturnStmt NullLiteralExpr ObjectCreationExpr	-0.21999675
-1.4968902	SimpleName NullLiteralExpr ObjectCreationExpr	-0.23415539
-1.4000422	IntegerLiteralExpr NullLiteralExpr ObjectCreationExpr	-0.21999675
-0.016708102	<s> ThrowStmt ObjectCreationExpr	-2.6849174
-0.34502968	SimpleName ThrowStmt ObjectCreationExpr	-0.5351854
-0.35154787	IntegerLiteralExpr ThrowStmt ObjectCreationExpr	-0.23415539
-0.37895945	StringLiteralExpr ThrowStmt ObjectCreationExpr	-0.26917377
-0.39206368	VoidType ThrowStmt ObjectCreationExpr	-0.21999675
-0.29201782	BooleanLiteralExpr ThrowStmt ObjectCreationExpr	-0.23415539
-0.39206368	PrimitiveType ThrowStmt ObjectCreationExpr	-0.21999675
-0.43638986	NullLiteralExpr ThrowStmt ObjectCreationExpr	-0.26917377
-0.20248158	LambdaExpr ThrowStmt ObjectCreationExpr	-0.21999675
-0.20248158	LongLiteralExpr ThrowStmt ObjectCreationExpr	-0.21999675
-1.6167976	SimpleName ThisExpr ObjectCreationExpr	-0.21999675
-1.2126968	ThisExpr ThisExpr ObjectCreationExpr	-0.21999675
-1.7159717	SimpleName LongLiteralExpr ObjectCreationExpr	-0.21999675
-1.5847362	IntegerLiteralExpr ReturnStmt MethodDeclaration	-0.21999675
-1.6370822	NameExpr SimpleName MethodDeclaration	-0.53160214
-1.8627633	SimpleName SimpleName MethodDeclaration	-0.23057218
-1.5551821	ClassOrInterfaceType SimpleName MethodDeclaration	-0.39395386
-1.5937618	PrimitiveType SimpleName MethodDeclaration	-0.21999675
-1.319515	UnknownType SimpleName MethodDeclaration	-0.21999675
-1.071082	SuperExpr SimpleName MethodDeclaration	-0.21999675
-0.34222025	ClassOrInterfaceDeclaration SimpleName MethodDeclaration	-0.21999675
-1.2560512	ReturnStmt IntegerLiteralExpr MethodDeclaration	-0.26917377
-1.4054979	SimpleName IntegerLiteralExpr MethodDeclaration	-0.5351854
-1.1049113	ExpressionStmt IntegerLiteralExpr MethodDeclaration	-0.21999675
-1.7621602	IntegerLiteralExpr IntegerLiteralExpr MethodDeclaration	-0.21999675
-1.496659	UnaryExpr IntegerLiteralExpr MethodDeclaration	-0.21999675
-1.0600488	ReturnStmt StringLiteralExpr MethodDeclaration	-0.23415539
-1.6713306	SimpleName StringLiteralExpr MethodDeclaration	-0.23415539
-1.3290646	SimpleName VoidType MethodDeclaration	-0.23057218
-1.1531571	ReturnStmt BooleanLiteralExpr MethodDeclaration	-0.3590941
-1.5626473	SimpleName BooleanLiteralExpr MethodDeclaration	-0.23415539
-1.0598395	ArrayType PrimitiveType MethodDeclaration	-0.21999675
-1.58558	ReturnStmt NullLiteralExpr MethodDeclaration	-0.21999675
-1.7957209	SimpleName NullLiteralExpr MethodDeclaration	-0.21999675
-1.1402035	SimpleName WildcardType MethodDeclaration	-0.21999675
-1.4798455	SimpleName LongLiteralExpr MethodDeclaration	-0.26917377
-1.0984015	UnaryExpr LongLiteralExpr MethodDeclaration	-0.21999675
-0.70192915	SimpleName EmptyStmt MethodDeclaration	-0.21999675
-0.6146867	Name ClassOrInterfaceType MarkerAnnotationExpr	-0.21999675
-0.6146867	WildcardType ClassOrInterfaceType MarkerAnnotationExpr	-0.21999675
-0.0710197	ReturnStmt MethodDeclaration MarkerAnnotationExpr	-0.21999675
-0.10904569	SimpleName MethodDeclaration MarkerAnnotationExpr	-0.60213214
-0.04212118	IntegerLiteralExpr MethodDeclaration MarkerAnnotationExpr	-0.4560041
-0.06590655	StringLiteralExpr MethodDeclaration MarkerAnnotationExpr	-0.26917377
-0.20257406	VoidType MethodDeclaration MarkerAnnotationExpr	-0.21999675
-0.06590655	BooleanLiteralExpr MethodDeclaration MarkerAnnotationExpr	-0.26917377
-0.0710197	PrimitiveType MethodDeclaration MarkerAnnotationExpr	-0.21999675
-0.06590655	NullLiteralExpr MethodDeclaration MarkerAnnotationExpr	-0.26917377
-0.0710197	WildcardType MethodDeclaration MarkerAnnotationExpr	-0.21999675
-0.06590655	LongLiteralExpr MethodDeclaration MarkerAnnotationExpr	-0.26917377
-0.0710197	EmptyStmt MethodDeclaration MarkerAnnotationExpr	-0.21999675
-1.2231989	MarkerAnnotationExpr Name MarkerAnnotationExpr	-0.21999675
-0.9490435	SimpleName Parameter MarkerAnnotationExpr	-0.26917377
-0.80198866	Name StringLiteralExpr MarkerAnnotationExpr	-0.21999675
-1.5699431	StringLiteralExpr StringLiteralExpr MarkerAnnotationExpr	-0.21999675
-1.0657346	SimpleName FieldDeclaration MarkerAnnotationExpr	-0.21999675
-1.1521041	SimpleName WildcardType MarkerAnnotationExpr	-0.21999675
-0.052987214	ClassOrInterfaceType MarkerAnnotationExpr Name	-0.26917377
-0.015145827	MethodDeclaration MarkerAnnotationExpr Name	-0.5162792
-0.05703106	Name MarkerAnnotationExpr Name	-0.21999675
-0.05703106	Parameter MarkerAnnotationExpr Name	-0.21999675
-0.052987214	StringLiteralExpr MarkerAnnotationExpr Name	-0.26917377
-0.05703106	FieldDeclaration MarkerAnnotationExpr Name	-0.21999675
-0.05703106	WildcardType MarkerAnnotationExpr Name	-0.21999675
-0.7261381	MethodCallExpr ThisExpr Name	-0.26917377
-1.352619	SimpleName ThisExpr Name	-0.23577836
-1.1570928	FieldAccessExpr ThisExpr Name	-0.21999675
-1.252758	SynchronizedStmt ThisExpr Name	-0.21999675
-0.076135375	VariableDeclarationExpr SingleMemberAnnotationExpr Name	-0.26917377
-0.076135375	MethodDeclaration SingleMemberAnnotationExpr Name	-0.25215515
-0.08212	Name SingleMemberAnnotationExpr Name	-0.21999675
-0.08212	Modifier SingleMemberAnnotationExpr Name	-0.21999675
-0.08212	FieldDeclaration SingleMemberAnnotationExpr Name	-0.21999675
-0.45714515	ExpressionStmt VariableDeclarationExpr Modifier	-0.71127665
-0.80630726	ForEachStmt VariableDeclarationExpr Modifier	-0.3590941
-0.8848975	MarkerAnnotationExpr Name Modifier	-0.23057218
-0.5350063	Name Modifier Modifier	-0.21999675
-0.6620071	Modifier Modifier Modifier	-0.21999675
-0.6085722	FieldDeclaration Modifier Modifier	-0.23415539
-0.8461301	SimpleName Parameter Modifier	-0.26917377
-1.1502204	CatchClause Parameter Modifier	-0.21999675
-0.81311214	Name StringLiteralExpr Modifier	-0.21999675
-0.44496495	SimpleName FieldDeclaration Modifier	-0.26917377
-0.3811492	IntegerLiteralExpr FieldDeclaration Modifier	-0.21999675
-0.19539653	StringLiteralExpr FieldDeclaration Modifier	-0.21999675
-0.19539653	BooleanLiteralExpr FieldDeclaration Modifier	-0.21999675
-0.19539653	LongLiteralExpr FieldDeclaration Modifier	-0.21999675
-2.2875464	SimpleName SimpleName Parameter	-0.21999675
-0.65650845	Modifier SimpleName Parameter	-0.23717983
-1.7174115	PrimitiveType SimpleName Parameter	-0.21999675
-1.3823786	UnknownType SimpleName Parameter	-0.21999675
-0.45202547	ReturnStmt LambdaExpr Parameter	-0.26917377
-0.41295862	SimpleName LambdaExpr Parameter	-0.6601241
-0.4651177	IntegerLiteralExpr LambdaExpr Parameter	-0.21999675
-0.24826826	NullLiteralExpr LambdaExpr Parameter	-0.21999675
-0.4651177	ThisExpr LambdaExpr Parameter	-0.21999675
-0.040641	ReturnStmt CatchClause Parameter	-0.26917377
-0.021760758	SimpleName CatchClause Parameter	-0.47361022
-0.040641	IntegerLiteralExpr CatchClause Parameter	-0.26917377
-0.04369458	StringLiteralExpr CatchClause Parameter	-0.21999675
-0.040641	BooleanLiteralExpr CatchClause Parameter	-0.26917377
-0.044669673	BreakStmt CatchClause Parameter	-0.23415539
-0.040641	NullLiteralExpr CatchClause Parameter	-0.26917377
-0.04369458	ThisExpr CatchClause Parameter	-0.21999675
-0.040641	ContinueStmt CatchClause Parameter	-0.26917377
-2.6111703	<s> ReturnStmt StringLiteralExpr	-0.9611541
-1.4878383	SimpleName ReturnStmt StringLiteralExpr	-0.24353473
-1.1638336	StringLiteralExpr ReturnStmt StringLiteralExpr	-0.24388957
-1.1302948	BooleanLiteralExpr ReturnStmt StringLiteralExpr	-0.21999675
-1.4228319	NullLiteralExpr ReturnStmt StringLiteralExpr	-0.21999675
-1.4167538	ReturnStmt MethodCallExpr StringLiteralExpr	-0.26917377
-1.6177195	BinaryExpr MethodCallExpr StringLiteralExpr	-0.21999675
-1.4866707	UnaryExpr MethodCallExpr StringLiteralExpr	-0.21999675
-1.2571614	IfStmt MethodCallExpr StringLiteralExpr	-0.3590941
-1.4334857	MethodCallExpr SimpleName StringLiteralExpr	-0.24907137
-1.6758728	NameExpr SimpleName StringLiteralExpr	-0.29122576
-1.4979867	SimpleName SimpleName StringLiteralExpr	-0.2996195
-1.8172368	ClassOrInterfaceType SimpleName StringLiteralExpr	-0.23981503
-1.8001685	IntegerLiteralExpr SimpleName StringLiteralExpr	-0.21999675
-1.2903317	StringLiteralExpr SimpleName StringLiteralExpr	-0.2588828
-1.5431174	BooleanLiteralExpr SimpleName StringLiteralExpr	-0.21999675
-1.3535941	ThisExpr SimpleName StringLiteralExpr	-0.21999675
-0.789247	CharLiteralExpr SimpleName StringLiteralExpr	-0.21999675
