\data\
ngram 1=151
ngram 2=3181
ngram 3=17696

\1-grams:
-3.2550159	<unk>	0
0	<s>	-2.61395
-2.6746604	</s>	0
-1.5594242	aload_0	-1.025773
-1.8059604	invokespecial	-0.82211185
-1.9745697	return	-0.7106361
-2.5616357	getfield	-0.3926791
-2.1860006	anewarray	-0.46563908
-2.0755928	astore_1	-0.59394777
-1.6408604	aload_1	-1.0060673
-1.8718483	sipush	-0.48156726
-1.4994123	invokestatic	-1.0255717
-2.1655385	astore_2	-0.6204686
-2.1459973	astore_3	-0.59426904
-1.7051004	invokevirtual	-0.9423891
-2.10937	astore	-0.62215585
-1.6290787	aload_2	-0.8950393
-1.5745354	iconst_1	-0.7725236
-1.6349297	new	-1.3783028
-2.364948	dup	-0.353221
-1.6717937	aload_3	-0.81067413
-2.10937	areturn	-0.6144832
-1.7973137	putfield	-0.7138053
-1.6064329	aload	-0.89716303
-2.4720342	checkcast	-0.40107238
-3.0666769	pop	-0.26880723
-1.7263838	iconst_2	-0.6019777
-1.6782538	ldc	-0.68652534
-2.6144814	idiv	-0.33173013
-1.6529707	iconst_0	-0.721167
-2.230066	aastore	-0.51897085
-2.2791128	i2l	-0.48548543
-2.230066	istore_2	-0.4615739
-1.8059604	iload_2	-0.54232866
-1.832984	iload_1	-0.5326613
-2.1459973	if_icmpge	-0.60245943
-1.7263838	goto	-0.80345523
-2.10937	ireturn	-0.4253304
-1.6654283	ldc2_w	-0.61019456
-2.8278618	dup_x1	-0.35391372
-2.2074747	iadd	-0.43734503
-1.6408604	getstatic	-0.72625697
-1.823788	invokeinterface	-0.73200446
-1.9258969	iinc	-0.56270844
-2.4720342	lreturn	-0.4658031
-1.8147827	iload_3	-0.51774335
-2.3058827	lstore	-0.45085466
-2.059641	istore	-0.53908676
-1.6982316	iload	-0.64454615
-3.128133	dconst_0	-0.29710367
-1.832984	lload	-0.5893397
-2.5145283	lsub	-0.34930193
-2.7445405	l2d	-0.5000417
-3.0603557	ddiv	-0.29710367
-3.128133	dstore	-0.29710367
-3.128133	dload	-0.29710367
-2.2538974	if_icmpne	-0.48337027
-1.7723609	aconst_null	-0.6544111
-2.7445405	astore_0	-0.32774356
-1.7411752	bipush	-0.5267641
-2.2538974	istore_1	-0.4774385
-1.7805202	lconst_0	-0.5903636
-2.334412	lcmp	-0.7215409
-2.2538974	ifeq	-0.59976876
-2.3058827	if_icmpgt	-0.43110463
-1.9495517	try	-0.7440268
-2.1272976	endtry	-0.61125326
-2.5145283	athrow	-0.40216357
-2.0150256	lload_2	-0.50286174
-2.2538974	istore_3	-0.45969462
-2.334412	putstatic	-0.4956235
-2.4333298	irem	-0.4300708
-1.842379	iconst_3	-0.59677804
-1.9375632	iconst_4	-0.5385575
-1.9145356	iconst_5	-0.5292939
-2.4720342	arraylength	-0.35662585
-2.3058827	ifne	-0.55732584
-2.334412	aaload	-0.41799945
-2.5145283	instanceof	-0.5454497
-2.2538974	lload_0	-0.34585038
-1.9495517	lload_1	-0.5683658
-1.9145356	ldc_w	-0.58313286
-2.1272976	iload_0	-0.3257722
-2.7445405	iaload	-0.3184895
-3.0603557	tableswitch	-0.29710367
-2.5616357	ifge	-0.3255662
-1.832984	lconst_1	-0.64242256
-2.4333298	ladd	-0.31668788
-2.4333298	ifle	-0.34062895
-2.334412	isub	-0.34658954
-2.364948	ifnull	-0.49302435
-1.9618806	lload_3	-0.45299837
-2.5145283	ifnonnull	-0.41399655
-3.0666769	pop2	-0.31127352
-3.0666769	ishl	-0.29710367
-2.5616357	if_acmpne	-0.32380837
-2.1272976	invokedynamic	-0.57666343
-2.5145283	lstore_3	-0.4048412
-2.9310567	iflt	-0.29494917
-2.5616357	lstore_1	-0.4206509
-3.0666769	dup2_x1	-0.3203202
-2.6144814	lmul	-0.30470544
-2.9310567	monitorenter	-0.36935842
-2.9310567	monitorexit	-0.36935842
-2.364948	if_icmple	-0.3749112
-2.8278618	ifgt	-0.29479575
-2.6144814	if_acmpeq	-0.3054643
-2.5145283	iand	-0.38716924
-2.2791128	if_icmpeq	-0.41778407
-3.0603557	ishr	-0.31692657
-2.6746604	ineg	-0.3410097
-2.7445405	dup2	-0.2847537
-2.5145283	if_icmplt	-0.30130732
-2.230066	iconst_m1	-0.42826498
-2.5145283	lstore_2	-0.36425087
-2.9310567	lneg	-0.36935842
-3.0666769	lookupswitch	-0.29710367
-3.0603557	ior	-0.29710367
-3.0666769	lrem	-0.26473296
-2.5145283	l2i	-0.33687952
-2.4333298	newarray	-0.3141376
-3.128133	laload	-0.29710367
-3.128133	lastore	-0.29710367
-2.4333298	iastore	-0.33461696
-3.128133	istore_0	-0.29710367
-3.128133	land	-0.29710367
-3.0666769	lor	-0.31439865
-3.128133	lushr	-0.29710367
-3.0603557	ldiv	-0.29710367
-3.128133	fload_2	-0.29710367
-3.128133	i2f	-0.29710367
-3.0603557	fmul	-0.33241105
-3.128133	f2i	-0.29710367
-2.5145283	imul	-0.3599011
-3.128133	iushr	-0.29710367
-3.128133	ixor	-0.29710367
-3.0666769	lstore_0	-0.24441966
-3.0666769	lxor	-0.3251162
-2.7445405	i2d	-0.30066052
-2.9310567	dmul	-0.28208998
-3.0603557	d2i	-0.29710367
-3.0603557	lshl	-0.33241105
-3.0603557	bastore	-0.29710367
-3.128133	baload	-0.29710367
-3.0603557	dup_x2	-0.29710367
-3.128133	dcmpl	-0.29710367
-3.0666769	dcmpg	-0.24441966
-2.9310567	dconst_1	-0.31439865
-3.0603557	dadd	-0.29710367
-3.0603557	d2l	-0.33241105
-3.128133	caload	-0.29710367

\2-grams:
-1.3907408	return </s>	0
-1.1642413	areturn </s>	0
-2.4492815	ldc </s>	0
-1.3779453	goto </s>	0
-0.7569722	ireturn </s>	0
-0.4229743	lreturn </s>	0
-1.53809	athrow </s>	0
-0.35857624	<s> aload_0	-2.5215123
-1.427158	aload_0 aload_0	-1.6106411
-1.2823689	invokespecial aload_0	-2.3194287
-1.2449338	return aload_0	-1.9107261
-1.5970318	getfield aload_0	-2.1653454
-1.0740303	astore_1 aload_0	-1.4691269
-1.4105799	aload_1 aload_0	-1.8378031
-1.5653414	invokestatic aload_0	-1.7641582
-1.0832406	astore_2 aload_0	-1.5023966
-1.0587177	astore_3 aload_0	-1.3480672
-1.5010566	invokevirtual aload_0	-2.0729926
-1.2337563	astore aload_0	-1.3344804
-1.4174302	aload_2 aload_0	-1.5077734
-1.6493344	iconst_1 aload_0	-1.1495607
-1.7270639	dup aload_0	-2.5462768
-1.3911643	aload_3 aload_0	-1.7338893
-1.1969204	areturn aload_0	-1.8896105
-0.8186028	putfield aload_0	-2.199181
-1.5529552	aload aload_0	-1.5106637
-1.4109789	checkcast aload_0	-1.3258538
-1.5248386	pop aload_0	-1.6323099
-2.0437903	iconst_2 aload_0	-1.2604609
-1.619469	ldc aload_0	-1.2513175
-1.6607414	iconst_0 aload_0	-1.8197689
-1.4546208	aastore aload_0	-0.620954
-1.4862792	i2l aload_0	-0.68389046
-1.1497811	istore_2 aload_0	-0.96430945
-1.8483528	iload_2 aload_0	-0.6582175
-1.8517998	iload_1 aload_0	-0.49846023
-1.0740967	if_icmpge aload_0	-1.4424614
-1.0488245	goto aload_0	-1.494142
-1.2905142	ireturn aload_0	-1.3553274
-1.9139318	ldc2_w aload_0	-1.1702843
-1.8074389	iadd aload_0	-0.5334621
-1.4737486	getstatic aload_0	-1.7161093
-1.2794443	invokeinterface aload_0	-2.0339916
-1.4327095	iinc aload_0	-0.85743845
-1.4954402	lreturn aload_0	-0.43020222
-1.515822	iload_3 aload_0	-1.1073159
-1.0125871	lstore aload_0	-0.93291855
-1.1963499	istore aload_0	-1.3368019
-1.8902864	iload aload_0	-0.93632966
-1.4738123	lload aload_0	-1.049324
-1.5833331	lsub aload_0	-0.09515922
-0.8333962	if_icmpne aload_0	-1.4934275
-1.6016008	aconst_null aload_0	-0.47363666
-0.5726113	astore_0 aload_0	-0.35542518
-1.9803715	bipush aload_0	-0.09515922
-1.0222334	istore_1 aload_0	-1.5205147
-1.465439	lconst_0 aload_0	-1.2604609
-1.0792656	ifeq aload_0	-1.7652098
-1.1517237	if_icmpgt aload_0	-0.39422095
-0.8235095	try aload_0	-1.8209049
-0.8472217	endtry aload_0	-1.1716375
-1.189127	athrow aload_0	-1.660068
-1.2889842	lload_2 aload_0	-0.8599818
-0.90835524	istore_3 aload_0	-0.8703072
-1.8533564	iconst_3 aload_0	-0.8344921
-1.8931102	iconst_4 aload_0	-0.6584009
-1.6714642	arraylength aload_0	-0.43020222
-1.027636	ifne aload_0	-1.5711771
-1.556752	aaload aload_0	-0.9507763
-1.2909039	lload_1 aload_0	-1.0563409
-1.2280835	ifge aload_0	-0.51981485
-1.6971289	lconst_1 aload_0	-1.9371545
-1.4429637	ladd aload_0	-0.6004089
-0.94954365	ifle aload_0	-0.53315043
-1.6302956	isub aload_0	-0.43020222
-0.95810026	ifnull aload_0	-1.3390135
-1.2847292	lload_3 aload_0	-1.1355221
-1.1377383	ifnonnull aload_0	-0.9515036
-1.2069707	pop2 aload_0	-0.9896959
-0.98085916	if_acmpne aload_0	-0.8644359
-0.96301305	invokedynamic aload_0	-1.4683911
-0.6993445	lstore_3 aload_0	-0.9663802
-0.9997346	iflt aload_0	-0.6652629
-0.8137124	lstore_1 aload_0	-0.854547
-0.91600466	if_icmple aload_0	-0.6352979
-1.0438482	ifgt aload_0	-0.52301353
-1.2235737	if_acmpeq aload_0	-1.0355583
-0.76167643	if_icmpeq aload_0	-0.9482278
-0.9454014	if_icmplt aload_0	-0.5020864
-0.7917751	lstore_2 aload_0	-1.0335298
-0.9468967	lookupswitch aload_0	-0.43020222
-1.4532386	l2i aload_0	-0.43020222
-0.7469828	lushr aload_0	-0.43020222
-0.58228886	i2f aload_0	-0.43020222
-1.5290378	imul aload_0	-0.80882925
-1.4709334	aload_0 invokespecial	-2.3462224
-1.6941429	invokespecial invokespecial	-0.8768085
-1.9095802	return invokespecial	-1.208756
-1.7914869	getfield invokespecial	-1.7077695
-1.6673939	aload_1 invokespecial	-2.097068
-1.3181305	sipush invokespecial	-0.8535959
-1.7459536	invokestatic invokespecial	-1.0431054
-2.0071108	invokevirtual invokespecial	-1.1259598
-1.6567588	aload_2 invokespecial	-1.7828767
-1.4031277	iconst_1 invokespecial	-1.6186337
-1.8712596	dup invokespecial	-2.4561317
-1.6405998	aload_3 invokespecial	-1.4907255
-2.0656095	areturn invokespecial	-0.50283
-2.160432	putfield invokespecial	-0.5171207
-1.6890113	aload invokespecial	-1.5703121
-1.8358741	checkcast invokespecial	-0.6050743
-1.5716317	iconst_2 invokespecial	-1.0285113
-1.4083594	ldc invokespecial	-1.8431547
-1.3134181	iconst_0 invokespecial	-1.380779
-1.1937523	aastore invokespecial	-1.7959132
-1.9905748	i2l invokespecial	-0.43020222
-1.4556333	iload_2 invokespecial	-1.0711557
-1.5363829	iload_1 invokespecial	-0.90892994
-1.9751196	ireturn invokespecial	-0.7553109
-1.5189998	ldc2_w invokespecial	-1.1052485
-1.7545756	iadd invokespecial	-0.26121584
-1.2777262	getstatic invokespecial	-1.0403697
-2.2944603	invokeinterface invokespecial	-0.43020222
-1.3733624	iload_3 invokespecial	-1.0453861
-1.4415625	iload invokespecial	-1.0549124
-1.9210175	lload invokespecial	-0.20890987
-1.0128176	aconst_null invokespecial	-1.2466726
-1.5404772	bipush invokespecial	-0.98535264
-1.358205	lconst_0 invokespecial	-1.2883532
-1.9818265	athrow invokespecial	-0.32236898
-1.4600912	lload_2 invokespecial	-0.33082017
-1.7205734	iconst_3 invokespecial	-1.0792872
-1.8265486	iconst_4 invokespecial	-0.5864707
-1.8207803	iconst_5 invokespecial	-0.23114227
-1.900422	aaload invokespecial	-0.43020222
-1.7247659	lload_0 invokespecial	-0.4302022
-1.6352856	lload_1 invokespecial	-0.60588604
-1.9781142	ldc_w invokespecial	-0.8344921
-1.1112127	iload_0 invokespecial	-0.6980502
-1.7603619	lconst_1 invokespecial	-0.7926708
-1.4557939	ladd invokespecial	-0.20890987
-1.1607646	ineg invokespecial	-0.43020222
-1.5269803	l2i invokespecial	-0.43020222
-1.3667942	newarray invokespecial	-0.6584009
-1.8254215	imul invokespecial	-0.60216594
-2.1489604	<s> return	-2.2842276
-1.3436335	invokespecial return	-2.1032515
-1.3454568	return return	-1.48108
-2.025559	astore_1 return	-1.0977336
-1.5117483	invokestatic return	-2.3136063
-2.0035408	astore_2 return	-0.7028979
-2.2264302	astore_3 return	-0.9409475
-1.5901482	invokevirtual return	-2.2074008
-2.1285546	astore return	-0.7833396
-1.5856415	areturn return	-0.8992525
-0.87283933	putfield return	-2.2395804
-1.6835409	pop return	-2.4095743
-2.2257338	ldc return	-0.09515922
-1.523356	aastore return	-0.8913851
-1.2456045	goto return	-1.7839661
-2.0604484	ireturn return	-1.0624405
-1.3245443	invokeinterface return	-2.1387367
-2.0210876	if_icmpne return	-0.5334621
-1.5634141	ifeq return	-1.6562954
-1.2287223	endtry return	-1.4754702
-1.236791	athrow return	-1.7431422
-0.5387599	putstatic return	-2.3281825
-1.5518858	ifne return	-0.9915835
-1.3643737	ifge return	-1.1704129
-1.7021645	ifle return	-0.7553109
-1.7383962	ifnull return	-0.48917162
-1.4283788	ifnonnull return	-0.38519177
-1.2692091	pop2 return	-0.6399308
-1.7259952	if_acmpne return	-0.90273964
-1.1467133	invokedynamic return	-0.9409475
-1.3896794	ifgt return	-0.43020222
-1.6393567	if_acmpeq return	-0.43020222
-1.336774	iastore return	-1.221622
-0.7682687	bastore return	-0.58719987
-1.020781	aload_0 getfield	-2.533954
-1.9608148	getfield getfield	-1.5812082
-1.3869779	aload_1 getfield	-1.0431758
-1.3981997	aload_2 getfield	-0.9558858
-1.3514321	dup getfield	-2.0987194
-1.3690368	aload_3 getfield	-0.9238398
-1.3831357	aload getfield	-1.3522145
-1.5382864	checkcast getfield	-1.0817132
-1.7384168	aaload getfield	-0.29123303
-2.3219635	getfield anewarray	-1.1844928
-1.82213	sipush anewarray	-0.53427106
-1.2017473	iconst_1 anewarray	-2.8230312
-0.76517665	iconst_2 anewarray	-2.495689
-2.2919657	ldc anewarray	-1.4217099
-1.468496	idiv anewarray	-0.43020222
-1.2614018	iconst_0 anewarray	-2.4579778
-1.7484648	iload_2 anewarray	-1.0563409
-1.7657818	iload_1 anewarray	-0.99419296
-1.8456955	iadd anewarray	-0.89751124
-1.8604914	iload_3 anewarray	-0.86925423
-2.5362248	iload anewarray	-0.43020222
-1.0241494	bipush anewarray	-2.078563
-0.68295705	iconst_3 anewarray	-2.3500514
-0.70139337	iconst_4 anewarray	-2.4940915
-0.7417189	iconst_5 anewarray	-2.8473294
-2.08958	ldc_w anewarray	-0.43020222
-1.8658423	iload_0 anewarray	-1.0563409
-1.8556169	isub anewarray	-1.4542809
-1.5931047	l2i anewarray	-0.43020222
-1.9598969	imul anewarray	-0.5334621
-2.853483	aload_0 astore_1	-0.09515922
-1.2535806	invokespecial astore_1	-1.9949164
-1.6022105	return astore_1	-1.0886872
-2.0972915	getfield astore_1	-1.9648259
-1.0435889	anewarray astore_1	-1.1986206
-1.648953	invokestatic astore_1	-2.2232149
-1.7170578	invokevirtual astore_1	-1.5527922
-2.4980845	aload_2 astore_1	-0.09515925
-1.4701548	dup astore_1	-1.045474
-2.6412318	aload_3 astore_1	-0.09515922
-1.8453882	areturn astore_1	-0.91807544
-2.742371	aload astore_1	-0.09515922
-1.9310358	checkcast astore_1	-1.637264
-2.07525	ldc astore_1	-0.5417119
-1.674262	aastore astore_1	-0.84523356
-1.9886615	goto astore_1	-1.4063872
-1.8747379	ireturn astore_1	-0.5334621
-2.3143086	getstatic astore_1	-0.70161927
-1.9872875	invokeinterface astore_1	-1.1904672
-1.8230511	aconst_null astore_1	-0.72607887
-2.3819196	try astore_1	-0.86925423
-2.0667243	endtry astore_1	-0.43020222
-2.121297	athrow astore_1	-0.78596604
-2.008092	aaload astore_1	-0.30367926
-2.0640535	ldc_w astore_1	-0.6584009
-1.2712523	iastore astore_1	-1.4542809
-0.771106	bastore astore_1	-0.5589518
-1.4432658	<s> aload_1	-1.6008053
-1.3413862	aload_0 aload_1	-2.2892132
-1.4654202	invokespecial aload_1	-2.0671024
-1.298069	return aload_1	-1.415024
-1.6311195	getfield aload_1	-2.0845149
-1.7462574	anewarray aload_1	-1.1355221
-0.917709	astore_1 aload_1	-1.91152
-1.9716742	aload_1 aload_1	-1.1987027
-1.4665836	invokestatic aload_1	-1.9946234
-1.0597706	astore_2 aload_1	-1.7472869
-1.1361909	astore_3 aload_1	-1.4806235
-1.5671086	invokevirtual aload_1	-2.2004125
-1.2422117	astore aload_1	-1.2600317
-1.4435432	aload_2 aload_1	-1.4051931
-1.70524	iconst_1 aload_1	-1.6758239
-1.7784185	dup aload_1	-1.573468
-1.44462	aload_3 aload_1	-1.407095
-1.2903342	areturn aload_1	-1.6317304
-1.1274431	putfield aload_1	-1.0184484
-1.4570007	aload aload_1	-1.4041712
-1.5164016	checkcast aload_1	-1.1347846
-1.5634305	pop aload_1	-1.8169664
-1.9851565	iconst_2 aload_1	-0.6435586
-1.4976614	ldc aload_1	-1.7234744
-1.6274062	iconst_0 aload_1	-1.5075065
-1.4726486	aastore aload_1	-1.0344219
-1.2074418	i2l aload_1	-1.0213389
-1.3911561	istore_2 aload_1	-0.9150607
-1.6471406	iload_2 aload_1	-0.6584009
-1.0008539	if_icmpge aload_1	-1.2252791
-1.211469	goto aload_1	-1.2456683
-1.6802046	ireturn aload_1	-1.0822302
-1.3501955	ldc2_w aload_1	-1.4338957
-1.2666882	getstatic aload_1	-1.349341
-1.4269276	invokeinterface aload_1	-2.0045283
-1.7269828	iload_3 aload_1	-1.1106986
-1.3988321	lstore aload_1	-0.67202264
-1.3279182	istore aload_1	-0.76237684
-1.6314214	iload aload_1	-0.44808754
-1.3219523	if_icmpne aload_1	-0.47715318
-1.526826	aconst_null aload_1	-0.6148038
-1.1817695	astore_0 aload_1	-0.43020222
-1.6610252	bipush aload_1	-0.62626517
-1.1487063	lconst_0 aload_1	-1.3354058
-1.1878178	ifeq aload_1	-1.1800747
-1.4362439	if_icmpgt aload_1	-0.6584009
-0.9938959	try aload_1	-1.031279
-1.3106837	endtry aload_1	-1.1206725
-1.429616	athrow aload_1	-1.1811641
-1.8659164	lload_2 aload_1	-0.14456703
-1.2265245	istore_3 aload_1	-0.35040992
-1.7695174	iconst_4 aload_1	-0.58719987
-1.1572206	ifne aload_1	-0.9442475
-0.9749073	aaload aload_1	-0.88018036
-1.7019603	ldc_w aload_1	-0.6584009
-1.4741993	iload_0 aload_1	-0.14456703
-1.3097365	ifge aload_1	-0.23114227
-1.2584128	lconst_1 aload_1	-1.4696487
-1.6661792	ladd aload_1	-0.43020222
-1.0976462	ifle aload_1	-0.8730412
-0.96411747	ifnull aload_1	-1.0419431
-1.2478644	ifnonnull aload_1	-0.5407416
-1.2233838	pop2 aload_1	-0.28569138
-1.3305615	if_acmpne aload_1	-0.5816889
-1.1783714	invokedynamic aload_1	-0.8331442
-1.3260117	lstore_3 aload_1	-0.09515922
-1.2783377	if_icmple aload_1	-0.57921964
-1.3280233	ifgt aload_1	-1.3116133
-0.8898922	if_acmpeq aload_1	-0.65751296
-1.4678355	if_icmpeq aload_1	-0.60216594
-1.1702993	if_icmplt aload_1	-0.8344921
-1.2327987	lstore_2 aload_1	-0.23114227
-1.5281655	iastore aload_1	-1.3987635
-2.9926429	<s> sipush	-0.70161927
-2.7269385	aload_0 sipush	-0.62061226
-2.3636515	invokespecial sipush	-0.5589518
-2.3967557	return sipush	-0.43020222
-2.1211996	getfield sipush	-0.5334621
-1.9935713	astore_1 sipush	-0.60470927
-2.2020578	aload_1 sipush	-1.5878198
-1.4277858	sipush sipush	-0.67737645
-2.0897222	invokestatic sipush	-0.7057208
-2.2182508	astore_2 sipush	-0.60216594
-1.9825313	astore_3 sipush	-0.7553109
-2.0957508	invokevirtual sipush	-1.0217028
-2.2612998	astore sipush	-0.09515922
-2.263757	aload_2 sipush	-0.6584009
-1.6223817	iconst_1 sipush	-1.5129304
-1.698302	dup sipush	-1.7490997
-2.3330972	aload_3 sipush	-0.60216594
-1.9288287	areturn sipush	-0.8156792
-2.3567529	putfield sipush	-1.1355221
-2.4800804	aload sipush	-0.9594309
-1.9107846	checkcast sipush	-1.2024689
-1.8862376	pop sipush	-0.43020222
-2.259356	iconst_2 sipush	-0.8344921
-2.024829	ldc sipush	-1.3011359
-1.5675511	iconst_0 sipush	-1.0905263
-2.0222826	i2l sipush	-0.09515922
-1.7006629	istore_2 sipush	-0.09515922
-1.9947777	iload_2 sipush	-1.2993313
-2.0035963	iload_1 sipush	-2.1544976
-2.4611287	goto sipush	-0.09515922
-2.3308382	invokeinterface sipush	-0.29123303
-2.018109	iload_3 sipush	-1.1474214
-2.0147095	iload sipush	-1.0946252
-2.051669	bipush sipush	-1.0818305
-1.8421397	istore_1 sipush	-0.09515922
-1.9064974	istore_3 sipush	-0.09515922
-1.8009856	putstatic sipush	-0.43020222
-2.1766057	iconst_3 sipush	-0.6004089
-2.0606256	iconst_4 sipush	-0.6004089
-2.0541348	iconst_5 sipush	-0.50525594
-2.0025172	ldc_w sipush	-0.43020222
-1.854274	imul sipush	-0.8344921
-1.0488875	d2i sipush	-0.43020222
-0.92421037	<s> invokestatic	-1.9628847
-1.4087951	aload_0 invokestatic	-1.4825321
-1.2116088	invokespecial invokestatic	-1.9000155
-1.2835305	return invokestatic	-1.4829166
-1.4494116	getfield invokestatic	-1.7050686
-1.4858671	anewarray invokestatic	-0.79668045
-1.1379287	astore_1 invokestatic	-2.0123065
-1.294111	aload_1 invokestatic	-2.0427814
-0.691736	sipush invokestatic	-1.3923529
-1.336597	invokestatic invokestatic	-2.3612258
-1.216953	astore_2 invokestatic	-2.021453
-1.2540331	astore_3 invokestatic	-1.6846151
-1.4260857	invokevirtual invokestatic	-2.0929558
-1.3411182	astore invokestatic	-1.8296157
-1.2220503	aload_2 invokestatic	-1.6145096
-1.0275321	iconst_1 invokestatic	-2.6225173
-1.1517948	dup invokestatic	-0.79779583
-1.3079181	aload_3 invokestatic	-1.5418535
-1.3039258	areturn invokestatic	-1.767252
-1.5376413	putfield invokestatic	-0.708534
-1.2792561	aload invokestatic	-1.7052649
-1.3931901	checkcast invokestatic	-1.5824417
-1.4939595	pop invokestatic	-0.8639985
-0.81805503	iconst_2 invokestatic	-2.1738713
-0.83177435	ldc invokestatic	-2.1411889
-0.65669054	idiv invokestatic	-1.1554273
-1.0526644	iconst_0 invokestatic	-1.516573
-0.96053165	aastore invokestatic	-1.9423975
-0.8315729	i2l invokestatic	-1.6833489
-1.5318737	istore_2 invokestatic	-0.09515925
-1.1330997	iload_2 invokestatic	-0.9279282
-1.1791971	iload_1 invokestatic	-1.0228668
-1.5686022	if_icmpge invokestatic	-1.4779174
-1.9505934	goto invokestatic	-0.7022127
-1.6163853	ireturn invokestatic	-0.6881323
-0.78395283	ldc2_w invokestatic	-1.5492606
-0.7979284	iadd invokestatic	-1.6771203
-1.2084236	getstatic invokestatic	-1.3108051
-1.2901471	invokeinterface invokestatic	-1.6677479
-1.6501123	iinc invokestatic	-1.0977336
-1.2257969	lreturn invokestatic	-0.18093333
-0.98339695	iload_3 invokestatic	-0.87636864
-1.7424494	lstore invokestatic	-0.43020222
-1.8882735	istore invokestatic	-0.38286048
-1.1629562	iload invokestatic	-1.1338514
-1.0448133	lload invokestatic	-0.73623604
-1.1089615	lsub invokestatic	-0.24429873
-0.9390439	ddiv invokestatic	-1.5844371
-0.29120892	dload invokestatic	-0.43020222
-1.5825241	if_icmpne invokestatic	-0.5589518
-1.0498762	aconst_null invokestatic	-0.70620614
-0.84416413	bipush invokestatic	-2.0528078
-1.4392487	istore_1 invokestatic	-0.50779927
-0.8646842	lconst_0 invokestatic	-1.2096466
-1.6751857	ifeq invokestatic	-0.5442177
-1.6060145	if_icmpgt invokestatic	-0.43020222
-1.1482066	try invokestatic	-1.0421975
-1.1114212	endtry invokestatic	-2.3480427
-1.4931405	athrow invokestatic	-0.96367687
-1.1042233	lload_2 invokestatic	-0.5473908
-1.7274877	istore_3 invokestatic	-0.09515922
-1.4560324	putstatic invokestatic	-0.5334621
-0.66533744	irem invokestatic	-1.4274087
-0.7118865	iconst_3 invokestatic	-2.0604973
-0.7287466	iconst_4 invokestatic	-1.8227899
-0.68132466	iconst_5 invokestatic	-1.8227766
-1.6362844	arraylength invokestatic	-0.5334621
-1.3083366	ifne invokestatic	-0.9787662
-1.5329847	aaload invokestatic	-0.7294811
-0.6392485	instanceof invokestatic	-1.0409935
-1.0331957	lload_0 invokestatic	-0.18093328
-0.89734757	lload_1 invokestatic	-1.2222282
-0.5870297	ldc_w invokestatic	-1.41974
-1.4234772	iload_0 invokestatic	-0.23114227
-0.7970483	lconst_1 invokestatic	-1.3647685
-1.193683	ladd invokestatic	-0.6008706
-1.0585239	isub invokestatic	-0.7075855
-0.98032516	lload_3 invokestatic	-0.44048828
-1.5573709	ifnonnull invokestatic	-1.0105834
-1.5408106	if_acmpne invokestatic	-0.43020222
-1.1139883	invokedynamic invokestatic	-1.253444
-1.5205467	lstore_3 invokestatic	-0.7553109
-1.4741445	lstore_1 invokestatic	-0.6584009
-1.4766837	if_acmpeq invokestatic	-0.09515922
-1.2255313	iand invokestatic	-0.43020222
-1.661237	if_icmpeq invokestatic	-0.6584009
-1.0652814	ishr invokestatic	-0.43020222
-0.8292868	ineg invokestatic	-0.38931578
-0.54463637	iconst_m1 invokestatic	-0.8564575
-1.4411862	lstore_2 invokestatic	-0.9594309
-0.5788798	ior invokestatic	-0.60470927
-0.9344025	lrem invokestatic	-0.09515922
-0.78468907	l2i invokestatic	-0.75709385
-1.1916914	iastore invokestatic	-1.1170387
-1.0063297	ldiv invokestatic	-0.09515922
-1.1689042	imul invokestatic	-1.0311102
-0.83874524	i2d invokestatic	-0.30367926
-1.2105582	dmul invokestatic	-0.43020222
-0.29120892	baload invokestatic	-0.64610195
-0.5485513	dconst_1 invokestatic	-0.43020222
-0.2599663	d2l invokestatic	-0.38286048
-1.2229649	invokespecial astore_2	-1.8659828
-1.6075616	return astore_2	-1.1557708
-2.0805552	getfield astore_2	-1.4694487
-0.82062906	anewarray astore_2	-1.0695822
-2.0412958	aload_1 astore_2	-0.60470927
-1.5977482	invokestatic astore_2	-2.0294833
-1.6867741	invokevirtual astore_2	-1.7821696
-1.3341066	dup astore_2	-1.5755315
-1.9364601	aload_3 astore_2	-0.9272952
-1.754197	areturn astore_2	-1.0159371
-2.5517335	aload astore_2	-0.70370543
-1.514601	checkcast astore_2	-1.6042023
-2.2864966	ldc astore_2	-0.38286048
-1.9008394	aastore astore_2	-0.8653842
-1.811011	goto astore_2	-1.88418
-2.137635	ireturn astore_2	-1.2324321
-2.2813792	getstatic astore_2	-0.42959118
-1.9192884	invokeinterface astore_2	-1.4133793
-1.5821038	aconst_null astore_2	-0.5401531
-2.4126346	try astore_2	-0.90143895
-1.6519216	athrow astore_2	-0.6405474
-1.3535591	iastore astore_2	-0.60491556
-1.2072686	invokespecial astore_3	-1.7269778
-1.5174078	return astore_3	-1.1715988
-1.8953035	getfield astore_3	-1.3915564
-1.3080012	anewarray astore_3	-1.049324
-2.346305	aload_1 astore_3	-1.1881416
-1.7298524	invokestatic astore_3	-1.9071983
-1.7203205	invokevirtual astore_3	-1.7384222
-2.5205498	aload_2 astore_3	-0.90143895
-1.4773628	dup astore_3	-1.1844928
-1.599927	areturn astore_3	-0.9371509
-2.0524669	aload astore_3	-0.5340282
-1.5128314	checkcast astore_3	-1.2313235
-2.5353572	ldc astore_3	-0.6584009
-1.9641824	aastore astore_3	-1.1170387
-1.8933268	goto astore_3	-1.6351887
-2.335992	getstatic astore_3	-0.18093333
-1.7396755	invokeinterface astore_3	-0.9249199
-1.5809495	aconst_null astore_3	-0.5005399
-2.1562617	try astore_3	-1.0398091
-1.8580523	athrow astore_3	-0.60533464
-1.7697611	aaload astore_3	-0.5334621
-1.4105394	newarray astore_3	-0.43020222
-1.6504748	iastore astore_3	-0.6584009
-1.112117	aload_0 invokevirtual	-1.7434306
-1.3306724	invokespecial invokevirtual	-1.6534486
-1.3555989	return invokevirtual	-1.593873
-1.4561222	getfield invokevirtual	-2.0450363
-1.4801784	anewarray invokevirtual	-2.4812176
-2.0894308	astore_1 invokevirtual	-0.43020222
-1.1523647	aload_1 invokevirtual	-2.2242944
-0.96091175	sipush invokevirtual	-0.8324673
-1.3693199	invokestatic invokevirtual	-2.3174183
-1.3808737	invokevirtual invokevirtual	-2.1602397
-1.0328794	aload_2 invokevirtual	-2.0008452
-1.2708402	iconst_1 invokevirtual	-1.6350266
-2.139075	new invokevirtual	-0.43020222
-1.0310898	aload_3 invokevirtual	-1.739395
-1.2968554	areturn invokevirtual	-1.9736304
-2.250793	putfield invokevirtual	-0.9594309
-1.0523167	aload invokevirtual	-1.7423649
-1.2099268	checkcast invokevirtual	-1.5816342
-1.1479695	iconst_2 invokevirtual	-1.065825
-1.2196753	ldc invokevirtual	-1.9136724
-1.3556255	iconst_0 invokevirtual	-1.0428958
-1.0888038	aastore invokevirtual	-2.444223
-0.99040896	i2l invokevirtual	-0.75593454
-1.2184726	iload_2 invokevirtual	-0.87312
-1.2361377	iload_1 invokevirtual	-0.96166486
-1.4117268	ireturn invokevirtual	-1.2571499
-1.2480901	ldc2_w invokevirtual	-1.4875991
-1.1804934	iadd invokevirtual	-0.6131782
-0.94048995	getstatic invokevirtual	-1.9023881
-1.6873713	invokeinterface invokevirtual	-1.0921203
-1.3122553	iload_3 invokevirtual	-0.65437114
-1.3677024	iload invokevirtual	-1.2684304
-1.357429	lload invokevirtual	-0.7329873
-1.3498075	lsub invokevirtual	-0.58561045
-0.9624094	ddiv invokevirtual	-1.029559
-1.0928249	aconst_null invokevirtual	-1.0604773
-1.1209853	bipush invokevirtual	-0.90291274
-1.1947079	lconst_0 invokevirtual	-1.0048978
-1.7707192	athrow invokevirtual	-1.2027189
-1.4442979	lload_2 invokevirtual	-0.6474672
-1.1008682	iconst_3 invokevirtual	-0.97738343
-1.0644784	iconst_4 invokevirtual	-0.7604166
-1.1117581	iconst_5 invokevirtual	-0.458217
-1.4869764	arraylength invokevirtual	-0.8441782
-1.1887785	aaload invokevirtual	-0.50638956
-1.4639181	lload_0 invokevirtual	-0.62061226
-1.1316518	lload_1 invokevirtual	-1.1647478
-1.0612158	ldc_w invokevirtual	-0.95232993
-1.7021192	iload_0 invokevirtual	-0.43020222
-1.0373627	iaload invokevirtual	-0.18093333
-1.1772611	lconst_1 invokevirtual	-1.3772149
-1.4911951	ladd invokevirtual	-0.60385984
-1.4861274	isub invokevirtual	-1.0785611
-1.6848092	lload_3 invokevirtual	-0.23114227
-1.1322451	invokedynamic invokevirtual	-0.80440426
-1.1882391	lmul invokevirtual	-0.43020222
-0.5296078	ineg invokevirtual	-1.4861902
-1.1972725	iconst_m1 invokevirtual	-0.75240785
-0.23566377	lneg invokevirtual	-0.8331038
-1.5003198	l2i invokevirtual	-0.09515922
-0.99228483	newarray invokevirtual	-0.7874578
-1.0337367	ldiv invokevirtual	-0.9594309
-1.2036802	imul invokevirtual	-0.62589854
-1.1774817	invokespecial astore	-1.7378769
-1.5156614	return astore	-1.801287
-1.5874348	getfield astore	-1.3443794
-1.0446234	anewarray astore	-1.3349226
-2.6985753	aload_1 astore	-0.5334621
-1.6501017	invokestatic astore	-1.8114883
-1.6232921	invokevirtual astore	-1.6240363
-2.0167582	aload_2 astore	-0.5589518
-1.1362772	dup astore	-1.0026493
-2.0117412	aload_3 astore	-1.0563409
-1.6663842	areturn astore	-0.89759064
-1.7455907	aload astore	-0.8351582
-1.3571515	checkcast astore	-1.4608078
-2.5164938	ldc astore	-0.09515922
-1.8910823	aastore astore	-0.9943216
-1.9928645	goto astore	-1.629623
-1.817694	ireturn astore	-0.5683529
-1.7534772	getstatic astore	-1.0191255
-1.4606677	invokeinterface astore	-1.4350088
-1.140492	aconst_null astore	-0.6213509
-2.3939462	try astore	-1.8554136
-1.8503206	athrow astore	-0.30430463
-1.2205147	aaload astore	-1.3187617
-1.0959389	newarray astore	-0.43020222
-0.7719201	bastore astore	-0.09515922
-2.9324267	<s> aload_2	-0.7074942
-1.4174556	aload_0 aload_2	-2.0225353
-2.0717955	invokespecial aload_2	-1.1056958
-1.6001124	return aload_2	-0.8880274
-1.8223826	getfield aload_2	-1.6807132
-2.040966	astore_1 aload_2	-0.6584009
-1.4022573	aload_1 aload_2	-1.9049898
-1.5715361	invokestatic aload_2	-1.8731594
-1.0314828	astore_2 aload_2	-1.7850031
-1.0322196	astore_3 aload_2	-1.5351703
-1.5786519	invokevirtual aload_2	-1.9845157
-1.2410748	astore aload_2	-1.3795921
-2.172045	aload_2 aload_2	-0.5867345
-2.0784585	iconst_1 aload_2	-1.3696404
-1.7712102	dup aload_2	-1.1774249
-1.3979728	aload_3 aload_2	-1.6364536
-1.4839664	areturn aload_2	-1.0313163
-1.1953074	putfield aload_2	-0.92384005
-1.5855099	aload aload_2	-1.1083658
-1.5128552	checkcast aload_2	-0.98988986
-1.5580825	pop aload_2	-1.7051141
-2.0958812	iconst_2 aload_2	-1.7723442
-1.4579421	ldc aload_2	-1.4886205
-1.6252114	iconst_0 aload_2	-1.8384602
-1.8011192	aastore aload_2	-0.38931578
-1.5044346	i2l aload_2	-0.72534764
-1.390982	iload_1 aload_2	-0.39103156
-1.2343765	if_icmpge aload_2	-1.4974011
-1.3713208	goto aload_2	-0.8359701
-1.7210137	ireturn aload_2	-0.8779583
-1.3486975	ldc2_w aload_2	-1.2513527
-1.8511858	iadd aload_2	-0.09515922
-1.5262573	getstatic aload_2	-0.9058831
-1.5966413	invokeinterface aload_2	-1.6407636
-1.8933989	iinc aload_2	-0.09515922
-1.860533	iload_3 aload_2	-1.3785602
-1.5808429	lstore aload_2	-0.43020222
-1.261112	istore aload_2	-0.6912371
-1.6857525	iload aload_2	-0.5005399
-1.3200735	if_icmpne aload_2	-0.7404982
-1.5247952	aconst_null aload_2	-0.41927898
-1.8900654	bipush aload_2	-0.9594309
-1.7511895	istore_1 aload_2	-0.43020222
-1.4031645	lconst_0 aload_2	-0.92565507
-1.3205059	ifeq aload_2	-1.235779
-1.3697366	if_icmpgt aload_2	-0.23324107
-0.99341077	try aload_2	-1.105126
-1.2061216	endtry aload_2	-1.0537257
-1.7340343	athrow aload_2	-0.7173791
-1.54782	istore_3 aload_2	-0.6916999
-1.8866436	iconst_3 aload_2	-1.1336448
-1.9352422	iconst_4 aload_2	-1.2024689
-1.9280546	iconst_5 aload_2	-1.1702843
-1.2064337	ifne aload_2	-1.0751107
-1.6338488	aaload aload_2	-0.70955336
-1.0508287	lload_0 aload_2	-0.93140215
-1.9006935	ldc_w aload_2	-0.9594309
-0.86736417	tableswitch aload_2	-0.09515922
-1.540671	ifge aload_2	-0.43020222
-1.3073784	lconst_1 aload_2	-1.1843708
-1.3651417	ifle aload_2	-0.6584009
-1.0913142	ifnull aload_2	-1.020631
-1.8347559	lload_3 aload_2	-0.43020222
-1.3740606	ifnonnull aload_2	-0.46502158
-1.2211591	pop2 aload_2	-0.5683529
-0.86736417	ishl aload_2	-0.09515922
-1.3887019	if_acmpne aload_2	-0.38286048
-1.5992566	invokedynamic aload_2	-1.2456186
-1.040597	lstore_3 aload_2	-0.30465242
-1.0797433	iflt aload_2	-0.4302022
-1.302504	if_acmpeq aload_2	-0.5442177
-1.1336555	if_icmpeq aload_2	-0.44537348
-1.4778136	if_icmplt aload_2	-0.43020222
-0.8688475	lor aload_2	-0.43020222
-1.5560614	imul aload_2	-0.8344921
-1.0016875	<s> iconst_1	-2.0764487
-1.4141042	aload_0 iconst_1	-1.7270278
-1.6599367	invokespecial iconst_1	-1.5733677
-1.4318917	return iconst_1	-1.1011746
-1.5346004	getfield iconst_1	-1.9664212
-1.1456407	astore_1 iconst_1	-1.8284912
-1.3744427	aload_1 iconst_1	-1.9617083
-1.7102944	sipush iconst_1	-1.0563409
-1.5787646	invokestatic iconst_1	-1.6565447
-1.2256662	astore_2 iconst_1	-1.513718
-1.3196812	astore_3 iconst_1	-1.102321
-1.672312	invokevirtual iconst_1	-1.992932
-1.5138643	astore iconst_1	-1.5275011
-1.3663453	aload_2 iconst_1	-2.080932
-1.552866	iconst_1 iconst_1	-1.3774258
-1.540626	dup iconst_1	-2.2176754
-1.4877048	aload_3 iconst_1	-1.9768593
-1.387102	areturn iconst_1	-1.466532
-1.6829304	putfield iconst_1	-1.2097262
-1.5548131	aload iconst_1	-1.713182
-1.7221187	checkcast iconst_1	-2.2040172
-1.5322875	pop iconst_1	-1.2565578
-1.7804513	iconst_2 iconst_1	-1.3446333
-1.3542659	ldc iconst_1	-1.8231763
-1.3627592	idiv iconst_1	-0.09515922
-1.5290511	iconst_0 iconst_1	-2.6115894
-1.775732	aastore iconst_1	-0.18093333
-1.8595848	i2l iconst_1	-0.43020222
-1.2501189	istore_2 iconst_1	-0.4063416
-1.0382069	iload_2 iconst_1	-0.82588255
-1.056187	iload_1 iconst_1	-1.0318668
-0.93028575	if_icmpge iconst_1	-1.1700473
-1.531125	goto iconst_1	-0.6238899
-1.6516981	ireturn iconst_1	-1.6096169
-1.6096753	ldc2_w iconst_1	-0.80060124
-0.9551357	dup_x1 iconst_1	-2.3573709
-1.618409	iadd iconst_1	-1.3605841
-1.7417089	getstatic iconst_1	-0.8917465
-1.4947612	invokeinterface iconst_1	-1.1241862
-1.087504	iload_3 iconst_1	-1.2751129
-1.6145868	lstore iconst_1	-0.7553109
-1.4838436	istore iconst_1	-0.58719987
-1.2090597	iload iconst_1	-1.117679
-0.9134317	if_icmpne iconst_1	-1.3696847
-1.4399534	aconst_null iconst_1	-0.9409475
-1.170218	astore_0 iconst_1	-0.43020222
-1.4359698	bipush iconst_1	-1.0237641
-1.5190412	istore_1 iconst_1	-0.23114227
-1.6707706	lconst_0 iconst_1	-1.0977336
-1.221186	ifeq iconst_1	-1.5473638
-0.5517716	if_icmpgt iconst_1	-0.9663802
-1.5586586	try iconst_1	-1.1544977
-1.2535622	athrow iconst_1	-1.0849892
-1.3463876	istore_3 iconst_1	-0.29123303
-1.6983066	putstatic iconst_1	-1.4180686
-1.4751135	irem iconst_1	-0.8344921
-1.6612681	iconst_3 iconst_1	-1.3350945
-1.9024765	iconst_4 iconst_1	-1.5187389
-1.7361062	iconst_5 iconst_1	-0.50779927
-1.1386747	arraylength iconst_1	-1.0263777
-1.1062033	ifne iconst_1	-1.6075151
-1.775221	aaload iconst_1	-0.9594309
-1.3036621	ldc_w iconst_1	-1.3987635
-1.3973778	iload_0 iconst_1	-0.09515922
-1.0219183	iaload iconst_1	-2.1151464
-1.5867974	lconst_1 iconst_1	-0.70652217
-0.9512112	ifle iconst_1	-1.4108893
-1.3905767	isub iconst_1	-1.036073
-1.1664783	ifnull iconst_1	-1.2834072
-1.1399119	ifnonnull iconst_1	-2.0171392
-1.1175855	if_acmpne iconst_1	-1.7444441
-1.0765157	invokedynamic iconst_1	-1.5601631
-1.3322085	iflt iconst_1	-0.43020222
-1.2470261	lstore_1 iconst_1	-0.18093333
-0.7267522	if_icmple iconst_1	-1.6245426
-1.0461525	ifgt iconst_1	-0.5334621
-1.2269789	if_acmpeq iconst_1	-0.7808005
-1.2408544	iand iconst_1	-0.5334621
-1.1266156	if_icmpeq iconst_1	-1.1702843
-1.1583482	if_icmplt iconst_1	-0.6813472
-1.5020008	iconst_m1 iconst_1	-0.09515922
-1.4586262	l2i iconst_1	-0.09515922
-1.5033077	iastore iconst_1	-0.90143895
-1.4841776	imul iconst_1	-1.1355221
-0.5830794	dup_x2 iconst_1	-0.09515922
-0.7947314	<s> new	-3.635667
-1.4177922	aload_0 new	-3.0981283
-1.5231591	invokespecial new	-3.1525555
-1.4398689	return new	-2.6573138
-1.8260703	getfield new	-3.044007
-1.048197	astore_1 new	-3.1702843
-1.4710877	aload_1 new	-3.3235126
-1.736499	sipush new	-0.09515922
-1.5054939	invokestatic new	-3.4759662
-1.1544378	astore_2 new	-3.0628068
-1.1763573	astore_3 new	-2.826456
-1.6058353	invokevirtual new	-3.227482
-1.2778635	astore new	-3.0471237
-1.4842563	aload_2 new	-2.7895381
-1.7974486	iconst_1 new	-1.975419
-1.7747993	dup new	-2.5081272
-1.4949032	aload_3 new	-2.2604609
-1.2593173	areturn new	-3.0013168
-1.508734	putfield new	-1.5748549
-1.53852	aload new	-2.1245267
-1.6183054	checkcast new	-1.8344921
-1.5607482	pop new	-2.9273298
-1.9436686	iconst_2 new	-1.3350945
-1.4587494	ldc new	-0.8477473
-1.9808903	iconst_0 new	-2.0057309
-1.7566297	aastore new	-1.2024689
-1.7303364	i2l new	-0.5334621
-1.0093007	istore_2 new	-1.3987635
-1.926592	iload_2 new	-0.7553109
-2.0413296	iload_1 new	-0.09515922
-1.1768601	if_icmpge new	-2.37856
-1.2307458	goto new	-1.975419
-1.6777563	ireturn new	-2.146246
-1.95421	ldc2_w new	-1.6584009
-1.0415769	getstatic new	-2.678555
-1.7179304	invokeinterface new	-2.0105834
-1.8963324	iinc new	-0.6584009
-1.9013569	iload_3 new	-0.6584009
-1.637053	lstore new	-0.09515922
-1.1549647	istore new	-1.6126434
-2.0464294	iload new	-1.5614909
-1.1418127	if_icmpne new	-2.1132457
-1.947531	aconst_null new	-0.7553109
-1.6591693	bipush new	-2.056341
-0.76059175	istore_1 new	-1.7887347
-2.0415118	lconst_0 new	-0.9594309
-1.2718458	ifeq new	-2.173612
-1.4348645	if_icmpgt new	-0.09515922
-1.3162271	try new	-2.5722146
-1.428164	athrow new	-2.3744042
-0.9137592	istore_3 new	-1.3350945
-0.8132987	putstatic new	-1.9255726
-1.8428516	iconst_3 new	-1.0105834
-1.938659	iconst_4 new	-0.43020222
-1.7609836	iconst_5 new	-0.5334621
-1.2640244	ifne new	-1.8556814
-1.6360989	aaload new	-1.5187389
-0.867872	tableswitch new	-0.43020222
-1.0325485	ifge new	-1.8197689
-1.3036003	ifle new	-1.0563409
-1.1736171	ifnull new	-1.4542809
-1.1479759	ifnonnull new	-1.901439
-1.4705751	pop2 new	-0.5334621
-1.3902901	if_acmpne new	-0.7553109
-1.0812893	invokedynamic new	-2.2324321
-1.3488882	iflt new	-0.43020222
-1.3426294	if_icmple new	-0.7553109
-0.9830415	ifgt new	-1.0563409
-1.5351217	if_acmpeq new	-0.6584009
-1.0315293	if_icmpeq new	-1.2024689
-1.1692907	if_icmplt new	-1.6126434
-0.9555154	lookupswitch new	-0.43020222
-1.5260388	iastore new	-0.09515922
-0.29486084	istore_0 new	-0.6584009
-1.438479	aload_0 dup	-2.0065434
-2.4118676	getfield dup	-0.6493477
-0.9607448	anewarray dup	-3.8549225
-2.1140623	aload_1 dup	-0.5947261
-3.111772	invokestatic dup	-0.43020222
-2.6410072	invokevirtual dup	-0.26431328
-2.5757961	aload_2 dup	-0.09515925
-0.027322	new dup	-2.9024715
-2.5537667	aload_3 dup	-0.38286048
-2.6040678	aload dup	-0.47325647
-1.9957634	checkcast dup	-0.26431328
-0.9299817	aastore dup	-3.215392
-0.7805519	newarray dup	-2.223658
-0.7771747	iastore dup	-1.1170387
-2.8487556	<s> aload_3	-1.0226098
-1.6107484	aload_0 aload_3	-1.8976465
-2.089119	invokespecial aload_3	-0.47419178
-1.607586	return aload_3	-0.8600408
-1.7339166	getfield aload_3	-1.154517
-1.9153893	astore_1 aload_3	-0.30367926
-1.7042825	aload_1 aload_3	-1.3683714
-1.6840285	invokestatic aload_3	-1.5906205
-1.9502167	astore_2 aload_3	-0.5683529
-1.005131	astore_3 aload_3	-1.6588057
-1.63821	invokevirtual aload_3	-1.8572413
-1.1801219	astore aload_3	-1.5286317
-1.4266183	aload_2 aload_3	-1.6489956
-2.217268	iconst_1 aload_3	-1.1633844
-1.796981	dup aload_3	-0.93558913
-2.1052666	aload_3 aload_3	-1.1090099
-1.8635937	areturn aload_3	-0.38931578
-1.3815576	putfield aload_3	-0.7771223
-1.7405629	aload aload_3	-1.6213058
-1.6320285	checkcast aload_3	-1.2024689
-1.5770961	pop aload_3	-1.3677847
-2.1267533	iconst_2 aload_3	-1.8416708
-1.7722995	ldc aload_3	-0.7681031
-1.9960486	iconst_0 aload_3	-1.4525962
-1.8198166	aastore aload_3	-0.6584009
-1.2907255	i2l aload_3	-0.6830411
-1.6451735	istore_2 aload_3	-0.7553109
-1.6559184	iload_2 aload_3	-0.2719568
-1.9508775	iload_1 aload_3	-0.6584009
-1.128363	if_icmpge aload_3	-0.9262375
-1.4037877	goto aload_3	-1.017796
-1.8956933	ireturn aload_3	-0.14456703
-1.6334989	ldc2_w aload_3	-1.1456298
-1.8767043	iadd aload_3	-0.43020222
-1.6338012	getstatic aload_3	-0.9462825
-1.4807938	invokeinterface aload_3	-1.7819667
-1.4534383	iinc aload_3	-0.3918026
-1.4049305	lstore aload_3	-0.44537348
-1.4099343	istore aload_3	-0.7915069
-1.9412454	iload aload_3	-0.32236898
-1.8712388	lload aload_3	-0.7553109
-1.4567176	if_icmpne aload_3	-0.5417119
-1.963924	aconst_null aload_3	-0.43020222
-2.0658586	bipush aload_3	-0.43020222
-1.6996397	lconst_0 aload_3	-0.9269285
-1.3255591	ifeq aload_3	-0.850006
-1.443207	if_icmpgt aload_3	-0.49846023
-1.2736012	try aload_3	-0.6912371
-1.6536407	endtry aload_3	-1.3500717
-1.7550555	athrow aload_3	-0.427499
-2.063104	iconst_3 aload_3	-1.8487326
-1.3345042	ifne aload_3	-0.4393419
-1.8315526	aaload aload_3	-0.7553109
-1.1291616	lload_1 aload_3	-1.565155
-1.7110289	ldc_w aload_3	-0.5334621
-1.3157068	iaload aload_3	-0.43020222
-1.556644	ifge aload_3	-0.43020222
-1.7292598	lconst_1 aload_3	-0.77213657
-1.3111883	ifle aload_3	-0.46435326
-1.2794064	ifnull aload_3	-0.7515392
-1.569926	ifnonnull aload_3	-0.5934154
-1.2289956	pop2 aload_3	-0.43020222
-1.3375509	if_acmpne aload_3	-0.3056111
-1.3582635	iflt aload_3	-0.09515922
-1.5935332	if_icmple aload_3	-0.09515922
-1.3121012	if_acmpeq aload_3	-0.34238553
-1.2752254	if_icmpeq aload_3	-0.47325647
-0.9592622	lookupswitch aload_3	-0.43020222
-1.8731923	aload_0 areturn	-1.1838998
-1.2378253	invokespecial areturn	-1.6138351
-1.6565516	return areturn	-1.3515007
-1.8867021	getfield areturn	-1.5073063
-1.6109853	anewarray areturn	-0.68389046
-1.683332	aload_1 areturn	-1.4140457
-1.3887078	invokestatic areturn	-2.036127
-1.5451244	invokevirtual areturn	-2.0175445
-1.8899451	aload_2 areturn	-1.0572848
-2.0117412	aload_3 areturn	-0.57770085
-1.5972944	areturn areturn	-1.452104
-2.480933	putfield areturn	-0.09515922
-1.9226605	aload areturn	-0.8597629
-1.6115735	checkcast areturn	-1.3267211
-1.6409814	ldc areturn	-1.0229788
-2.195089	aastore areturn	-0.09515922
-2.1170146	ireturn areturn	-1.1355221
-1.6840488	getstatic areturn	-1.0796947
-1.649743	invokeinterface areturn	-1.0751472
-1.0206789	aconst_null areturn	-1.518472
-1.4941779	endtry areturn	-0.3581258
-1.9128501	athrow areturn	-1.0563409
-1.7636664	aaload areturn	-0.43020222
-1.9625322	invokedynamic areturn	-0.09515922
-1.4071435	newarray areturn	-0.7553109
-2.675252	aload_0 putfield	-0.43020222
-1.3161596	invokespecial putfield	-1.9893847
-1.9074271	return putfield	-1.2738248
-1.6865168	getfield putfield	-0.78453654
-1.2821921	anewarray putfield	-0.8062859
-2.513775	aload_1 putfield	-2.2480974
-1.9184327	invokestatic putfield	-1.3932905
-1.9416331	invokevirtual putfield	-1.4842792
-2.4229975	aload_2 putfield	-2.0244677
-2.046463	iconst_1 putfield	-1.8311983
-2.153595	aload_3 putfield	-1.5544746
-1.7929265	areturn putfield	-1.4052944
-2.2623184	aload putfield	-1.4951938
-1.6734445	checkcast putfield	-1.1590033
-2.0645761	iconst_2 putfield	-0.7553109
-2.325446	ldc putfield	-0.43020222
-1.9312825	iconst_0 putfield	-0.90042686
-2.0527844	aastore putfield	-0.43020222
-1.7322352	i2l putfield	-0.50525594
-2.1561577	iload_2 putfield	-1.7094492
-2.1566792	iload_1 putfield	-1.3500717
-1.7911094	ireturn putfield	-0.5334621
-2.22224	ldc2_w putfield	-0.6584009
-0.33227503	dup_x1 putfield	-0.98284864
-1.7517505	iadd putfield	-1.1290416
-2.3457859	getstatic putfield	-1.5792196
-2.2895036	invokeinterface putfield	-0.49846023
-1.9848478	iload_3 putfield	-1.7751193
-1.9020989	lstore putfield	-0.18093333
-2.1338935	iload putfield	-1.3316001
-1.9702731	lload putfield	-0.9131401
-1.1501008	lsub putfield	-0.27026528
-1.7772406	aconst_null putfield	-1.4534127
-1.9112424	lconst_0 putfield	-0.9165525
-1.9766707	athrow putfield	-0.30367926
-1.9414077	lload_2 putfield	-1.3697188
-1.2451739	irem putfield	-0.6584009
-2.1369627	iconst_3 putfield	-0.38286048
-1.7907344	arraylength putfield	-0.09515922
-2.075558	lload_1 putfield	-1.1170387
-1.9966681	lconst_1 putfield	-0.38286048
-1.4539171	ladd putfield	-0.8031065
-1.5093274	isub putfield	-0.9638938
-1.7136875	lload_3 putfield	-0.8637178
-0.4386639	dup2_x1 putfield	-0.25349993
-1.1053134	ishr putfield	-0.43020222
-1.5314415	lstore_2 putfield	-0.5334621
-1.0749751	newarray putfield	-0.43020222
-1.5777986	iastore putfield	-0.43020222
-0.59214085	fload_2 putfield	-0.43020222
-0.29799607	f2i putfield	-0.09515922
-2.9810443	<s> aload	-0.67032117
-1.6270753	aload_0 aload	-1.7586426
-2.2194502	invokespecial aload	-0.77466667
-1.5087645	return aload	-0.8649993
-1.4850632	getfield aload	-1.400267
-2.0259426	astore_1 aload	-0.09515922
-1.5871781	aload_1 aload	-1.4446298
-1.5817025	invokestatic aload	-1.5975847
-2.0574071	astore_2 aload	-0.43020222
-2.0205574	astore_3 aload	-0.60470927
-1.6455904	invokevirtual aload	-1.7485534
-1.0044248	astore aload	-1.8566363
-1.4032311	aload_2 aload	-1.4081064
-2.0675504	iconst_1 aload	-1.0184091
-1.7571425	dup aload	-1.1010112
-1.3174603	aload_3 aload	-1.5084598
-1.6582656	areturn aload	-0.748294
-1.3387322	putfield aload	-0.6896534
-1.2741039	aload aload	-1.7504541
-1.6071918	checkcast aload	-1.4982977
-1.5475799	pop aload	-1.5943075
-1.9657997	iconst_2 aload	-0.70955336
-1.4547278	ldc aload	-0.96111673
-1.8733145	iconst_0 aload	-1.8427352
-1.4653475	aastore aload	-0.8623544
-1.0795685	i2l aload	-1.4278976
-1.5539206	iload_2 aload	-0.56128305
-1.0364891	if_icmpge aload	-1.2343478
-1.2289238	goto aload	-1.0927608
-1.7103568	ireturn aload	-0.36933812
-1.6179352	ldc2_w aload	-0.85471004
-1.6310194	iadd aload	-0.8599818
-1.4422535	getstatic aload	-0.96704006
-1.628742	invokeinterface aload	-1.9196703
-1.2090883	iinc aload	-0.6641336
-1.6112256	iload_3 aload	-0.85743845
-1.0170895	lstore aload	-0.5780512
-1.1074727	istore aload	-1.0151838
-1.3857956	iload aload	-0.86906946
-1.1956961	lload aload	-0.46655038
-0.9524176	ddiv aload	-0.43020222
-1.6220051	if_icmpne aload	-0.3980748
-1.6126201	aconst_null aload	-0.5265012
-2.0167751	bipush aload	-1.9594308
-1.7410514	istore_1 aload	-0.09515922
-1.8377888	lconst_0 aload	-0.4498073
-1.1480582	ifeq aload	-1.1878498
-1.4280329	if_icmpgt aload	-0.5334621
-1.1240146	try aload	-0.7988364
-1.2039783	endtry aload	-1.586417
-1.7224638	athrow aload	-0.42108056
-1.197196	lload_2 aload	-0.92512226
-1.7870362	istore_3 aload	-0.09515922
-2.0212402	iconst_3 aload	-1.5334622
-1.9218378	iconst_4 aload	-1.8625208
-1.9145869	iconst_5 aload	-1.7553109
-1.2605637	ifne aload	-1.1326151
-1.6249634	aaload aload	-0.12191151
-1.8894933	ldc_w aload	-0.43020222
-1.0290856	ifge aload	-0.12191151
-1.4258217	lconst_1 aload	-0.7660773
-1.6482376	ladd aload	-0.8344921
-1.2973766	ifle aload	-0.68389046
-1.6545758	isub aload	-0.6584009
-1.2703189	ifnull aload	-1.1142735
-1.5973196	lload_3 aload	-0.88822985
-1.3691077	ifnonnull aload	-0.4185092
-1.2167438	pop2 aload	-0.4302022
-1.1227107	if_acmpne aload	-0.6021955
-1.9724587	invokedynamic aload	-0.6584009
-1.341227	iflt aload	-1.3962985
-1.2718283	if_icmple aload	-0.23114227
-1.3192692	ifgt aload	-0.18093333
-1.2338706	if_acmpeq aload	-0.18093333
-1.4587392	if_icmpeq aload	-0.26431328
-1.2300621	if_icmplt aload	-0.38286048
-1.1587194	lstore_2 aload	-0.48917162
-0.9524176	lookupswitch aload	-0.43020222
-1.2368108	dmul aload	-0.43020222
-2.2521217	aload_0 checkcast	-0.8340948
-1.8099309	getfield checkcast	-1.0615296
-1.6034831	aload_1 checkcast	-1.6082913
-1.9348071	invokestatic checkcast	-2.2799819
-1.5908779	invokevirtual checkcast	-1.9707072
-2.2366917	aload_2 checkcast	-1.0059528
-2.5102577	aload_3 checkcast	-0.32236898
-1.7985265	aload checkcast	-1.1497625
-1.2828739	invokeinterface checkcast	-2.0000224
-1.7063699	aconst_null checkcast	-0.99597025
-1.2328174	aaload checkcast	-0.9813962
-1.607544	invokestatic pop	-1.9582666
-1.5334698	invokevirtual pop	-2.5606873
-1.361293	invokeinterface pop	-1.8880153
-2.1477454	<s> iconst_2	-1.4001132
-1.805271	aload_0 iconst_2	-1.0667003
-2.2895806	invokespecial iconst_2	-1.5962529
-1.8885139	return iconst_2	-0.8079798
-1.8812851	getfield iconst_2	-1.5797621
-1.4979682	astore_1 iconst_2	-1.3201312
-1.6387815	aload_1 iconst_2	-1.9544395
-1.7723138	sipush iconst_2	-0.5334621
-1.6169312	invokestatic iconst_2	-1.9129363
-1.537299	astore_2 iconst_2	-1.3207126
-1.8788322	astore_3 iconst_2	-1.3463755
-1.7836666	invokevirtual iconst_2	-1.6975667
-1.8241466	astore iconst_2	-1.4713142
-1.755776	aload_2 iconst_2	-1.7019912
-1.5438838	iconst_1 iconst_2	-2.5507739
-1.5966367	dup iconst_2	-1.9815364
-1.7594762	aload_3 iconst_2	-1.3653511
-1.7747797	areturn iconst_2	-1.2536215
-1.8069575	putfield iconst_2	-1.0959095
-1.7482462	aload iconst_2	-1.3815045
-1.8002229	checkcast iconst_2	-1.8288505
-1.6468569	pop iconst_2	-1.5366644
-1.8352467	iconst_2 iconst_2	-1.3438258
-1.4702122	ldc iconst_2	-1.6611067
-1.4010592	idiv iconst_2	-0.09515922
-1.5944042	iconst_0 iconst_2	-2.0329201
-1.8675814	istore_2 iconst_2	-0.09515922
-1.5076377	iload_2 iconst_2	-0.80452883
-1.2744824	iload_1 iconst_2	-0.884743
-2.0545976	if_icmpge iconst_2	-0.09515922
-1.7634811	ireturn iconst_2	-0.6584009
-2.0408816	ldc2_w iconst_2	-0.68389046
-1.9078317	iadd iconst_2	-0.43020222
-2.1263816	getstatic iconst_2	-0.38931578
-2.3478172	invokeinterface iconst_2	-0.6584009
-1.7567121	iload_3 iconst_2	-1.1167092
-2.0357993	istore iconst_2	-0.09515922
-1.5494498	iload iconst_2	-0.68338066
-1.9132264	if_icmpne iconst_2	-1.0105834
-1.9801648	bipush iconst_2	-1.0626805
-1.5583291	istore_1 iconst_2	-0.5334621
-2.0991907	lconst_0 iconst_2	-0.6584009
-2.0421448	try iconst_2	-0.6584009
-1.9328312	athrow iconst_2	-0.29123303
-1.5103965	putstatic iconst_2	-0.38286048
-1.5147285	irem iconst_2	-0.6584009
-1.7027868	iconst_3 iconst_2	-1.1453543
-1.8008276	iconst_4 iconst_2	-0.90143895
-1.7948575	iconst_5 iconst_2	-0.5020864
-1.758569	arraylength iconst_2	-0.43020222
-2.0464544	ifne iconst_2	-0.09515922
-1.8608222	aaload iconst_2	-0.64610195
-1.9454721	ldc_w iconst_2	-0.09515922
-1.3124228	invokedynamic iconst_2	-1.3350945
-1.5425774	lstore_1 iconst_2	-0.09515922
-1.6119888	if_icmple iconst_2	-0.43020222
-1.7723689	if_icmpeq iconst_2	-0.09515922
-1.5063286	l2i iconst_2	-0.7967036
-1.5568042	iastore iconst_2	-0.09515922
-1.7872688	imul iconst_2	-0.9594309
-1.4717407	<s> ldc	-1.7684555
-1.5899788	aload_0 ldc	-1.901019
-1.7768118	invokespecial ldc	-1.9429325
-1.7912362	return ldc	-1.0028548
-1.5700846	getfield ldc	-1.9873968
-1.490373	astore_1 ldc	-1.5676297
-1.504828	aload_1 ldc	-1.8273187
-1.9253389	sipush ldc	-1.1702843
-1.80976	invokestatic ldc	-1.68566
-1.6228166	astore_2 ldc	-1.2401375
-1.4764355	astore_3 ldc	-1.373359
-1.522739	invokevirtual ldc	-2.0444193
-1.6967131	astore ldc	-0.9730527
-1.533914	aload_2 ldc	-1.6907948
-1.3933245	iconst_1 ldc	-2.1049013
-2.1359382	new ldc	-0.5334621
-1.8007907	dup ldc	-1.9642414
-1.4245813	aload_3 ldc	-1.6727679
-1.6767756	areturn ldc	-1.1910982
-2.058009	putfield ldc	-0.9594309
-1.4238605	aload ldc	-1.6891049
-1.7769014	checkcast ldc	-2.483332
-1.5798815	pop ldc	-1.3932604
-1.6230268	iconst_2 ldc	-1.7709255
-1.1413326	ldc ldc	-1.98714
-1.4713614	iconst_0 ldc	-2.3426476
-1.9838802	aastore ldc	-0.43020222
-1.9106148	iload_2 ldc	-1.2110944
-1.6697929	iload_1 ldc	-1.0285176
-2.0283396	if_icmpge ldc	-0.09515922
-1.5878986	goto ldc	-0.83159435
-1.8997447	ireturn ldc	-0.43020222
-2.0158534	ldc2_w ldc	-2.2353177
-1.0584929	getstatic ldc	-1.8566852
-1.6824713	invokeinterface ldc	-1.6863517
-1.5272746	lreturn ldc	-0.43020222
-1.8852737	iload_3 ldc	-1.4180686
-1.8468463	istore ldc	-0.60216594
-1.8456502	iload ldc	-0.97558147
-2.072704	lload ldc	-0.43020222
-1.7003247	if_icmpne ldc	-0.9445886
-1.1876626	astore_0 ldc	-0.43020222
-1.7773094	bipush ldc	-2.03335
-2.0693944	lconst_0 ldc	-1.2604609
-1.8964535	ifeq ldc	-0.9823772
-1.6718621	try ldc	-0.3918026
-1.9015521	athrow ldc	-0.50779927
-1.823324	istore_3 ldc	-0.09515922
-1.4350063	putstatic ldc	-0.23114227
-1.9084733	iconst_3 ldc	-1.6848599
-1.9633598	iconst_4 ldc	-1.746537
-1.9563113	iconst_5 ldc	-1.5334622
-1.8049464	ifne ldc	-1.6584009
-1.5981247	aaload ldc	-0.49846023
-1.4568094	lload_0 ldc	-0.6584009
-2.0104587	lload_1 ldc	-0.43020222
-1.9239999	ldc_w ldc	-0.09515922
-1.4858843	iload_0 ldc	-1.0171393
-0.87144375	tableswitch ldc	-0.43020222
-2.1099398	lconst_1 ldc	-0.43020222
-1.8618932	lload_3 ldc	-0.43020222
-1.2534884	ifnonnull ldc	-0.88884974
-1.4015733	if_acmpne ldc	-0.6352996
-1.8416173	invokedynamic ldc	-1.763911
-1.3515936	if_icmple ldc	-0.18093333
-1.5321456	iconst_m1 ldc	-0.43020222
-0.95988977	lookupswitch ldc	-0.43020222
-2.5072281	getfield idiv	-0.43020222
-2.8901815	invokevirtual idiv	-1.1985593
-1.9777395	iconst_2 idiv	-0.34507194
-2.7522793	iconst_0 idiv	-0.6584009
-2.4117944	iconst_3 idiv	-0.6584009
-2.258589	iconst_4 idiv	-0.09515922
-1.9322164	iload_0 idiv	-0.43020222
-1.9170718	isub idiv	-0.09515922
-1.5482183	<s> iconst_0	-1.6435524
-1.4952061	aload_0 iconst_0	-1.3461546
-1.7719193	invokespecial iconst_0	-1.335638
-1.4420702	return iconst_0	-1.298155
-1.7250221	getfield iconst_0	-1.6331701
-1.4095908	astore_1 iconst_0	-1.1609818
-1.3555686	aload_1 iconst_0	-1.6070046
-1.6111094	invokestatic iconst_0	-1.1430588
-1.4489998	astore_2 iconst_0	-1.1888964
-1.3953203	astore_3 iconst_0	-1.2725971
-1.7348013	invokevirtual iconst_0	-1.7473598
-1.3631097	astore iconst_0	-1.8160087
-1.5080956	aload_2 iconst_0	-1.3469839
-1.7521462	iconst_1 iconst_0	-1.1524308
-1.5710981	dup iconst_0	-2.3709419
-1.4000894	aload_3 iconst_0	-1.1431774
-1.5407718	areturn iconst_0	-1.0618083
-1.7887344	putfield iconst_0	-0.4473077
-1.4771577	aload iconst_0	-1.1741061
-1.7641163	checkcast iconst_0	-1.2414881
-1.6123966	pop iconst_0	-0.8349843
-1.9918054	iconst_2 iconst_0	-0.5334621
-1.4994326	ldc iconst_0	-2.6548579
-1.8083348	iconst_0 iconst_0	-1.6790737
-1.8117046	aastore iconst_0	-0.18093333
-1.0795132	istore_2 iconst_0	-2.047567
-1.7569528	iload_2 iconst_0	-0.5146492
-1.9031109	iload_1 iconst_0	-0.38814303
-1.7874608	if_icmpge iconst_0	-0.18093333
-1.5845867	goto iconst_0	-1.9409372
-1.1657953	ireturn iconst_0	-2.3091938
-1.9633495	ldc2_w iconst_0	-0.9594309
-2.24479	getstatic iconst_0	-0.43020222
-1.677626	invokeinterface iconst_0	-1.1920284
-1.5210283	lreturn iconst_0	-1.2024689
-2.0313473	iload_3 iconst_0	-0.09515922
-1.5882727	lstore iconst_0	-0.5334621
-1.1566594	istore iconst_0	-2.28679
-2.188923	iload iconst_0	-0.09515922
-1.8634701	lload iconst_0	-0.7553109
-1.2244853	if_icmpne iconst_0	-0.9594309
-1.7424418	aconst_null iconst_0	-0.7967036
-1.9028581	bipush iconst_0	-0.38931578
-1.0304475	istore_1 iconst_0	-0.9024716
-1.9037611	lconst_0 iconst_0	-0.09515922
-1.3794044	ifeq iconst_0	-1.0427685
-1.672062	if_icmpgt iconst_0	-0.43020222
-1.5713145	try iconst_0	-0.9020049
-1.4325345	athrow iconst_0	-0.8821894
-1.3613676	istore_3 iconst_0	-1.901439
-1.7299104	putstatic iconst_0	-1.5034989
-1.5641711	iconst_3 iconst_0	-1.3350945
-1.7219466	iconst_4 iconst_0	-0.6813472
-1.9419532	iconst_5 iconst_0	-0.43020222
-1.5046625	ifne iconst_0	-0.3581258
-1.661069	lload_0 iconst_0	-0.43020222
-1.1277119	ldc_w iconst_0	-1.5564084
-1.6768856	iload_0 iconst_0	-0.09515922
-2.0942035	lconst_1 iconst_0	-0.6584009
-1.6007104	ifnull iconst_0	-0.9943216
-1.6184508	ifnonnull iconst_0	-0.50525594
-1.4765265	pop2 iconst_0	-0.43020222
-1.6141795	if_acmpne iconst_0	-1.036073
-1.3834454	invokedynamic iconst_0	-0.75219786
-1.5775974	lstore_3 iconst_0	-0.6584009
-1.5231335	lstore_1 iconst_0	-0.43020222
-1.5421282	if_acmpeq iconst_0	-0.43020222
-1.530601	if_icmpeq iconst_0	-0.43020222
-1.4860915	if_icmplt iconst_0	-0.43020222
-0.5867877	lastore iconst_0	-0.43020222
-1.5324503	iastore iconst_0	-0.09515922
-2.7280223	aload_0 aastore	-1.9648259
-1.5982344	invokespecial aastore	-1.3674415
-2.3202662	return aastore	-0.38814303
-1.7822828	getfield aastore	-1.7610632
-2.1053958	aload_1 aastore	-1.782809
-1.5510322	invokestatic aastore	-2.8787143
-2.100051	invokevirtual aastore	-1.3179556
-1.8981178	aload_2 aastore	-1.7899956
-2.1751633	new aastore	-0.43020222
-2.1276388	aload_3 aastore	-1.5199906
-2.4851558	areturn aastore	-0.09515922
-1.8321594	aload aastore	-1.849976
-2.032253	checkcast aastore	-0.38286048
-1.7087797	ldc aastore	-2.3943381
-1.7622875	getstatic aastore	-1.8709013
-2.485466	invokeinterface aastore	-0.5334621
-1.4264226	aconst_null aastore	-1.3729143
-1.7822136	aaload aastore	-0.18093333
-1.0796636	ldc_w aastore	-1.7459662
-2.1151698	getfield i2l	-1.2175255
-2.4356418	invokestatic i2l	-0.50525594
-2.1039944	invokevirtual i2l	-2.0307534
-1.0801513	idiv i2l	-0.427499
-1.2884827	iload_2 i2l	-0.7308754
-1.233245	iload_1 i2l	-0.7497455
-1.304513	iadd i2l	-0.47948456
-1.7480943	invokeinterface i2l	-2.1310825
-1.3532597	iload_3 i2l	-0.70104533
-1.3162646	iload i2l	-0.77411216
-1.198865	arraylength i2l	-1.2324321
-1.5978496	iload_0 i2l	-0.18093333
-1.0715474	iaload i2l	-2.1834457
-1.009987	isub i2l	-0.49231085
-1.1348085	ishr i2l	-0.09515922
-1.2498813	imul i2l	-1.0991852
-1.0694085	d2i i2l	-0.6584009
-2.345809	getfield istore_2	-0.9272952
-1.8982663	sipush istore_2	-0.60216594
-2.6481109	invokestatic istore_2	-0.53427106
-2.2522051	invokevirtual istore_2	-0.898326
-1.610917	iconst_1 istore_2	-1.0352236
-2.5317068	putfield istore_2	-0.43020222
-2.214461	iconst_2 istore_2	-0.30465242
-2.575735	ldc istore_2	-0.34238553
-1.4414371	iconst_0 istore_2	-1.5273699
-1.8527443	iadd istore_2	-0.50779927
-2.4293501	invokeinterface istore_2	-1.073436
-1.7752428	bipush istore_2	-0.5960453
-2.1861577	iconst_4 istore_2	-0.09515922
-1.9126551	iconst_5 istore_2	-0.38286048
-1.9294	arraylength istore_2	-1.583541
-2.0984335	ldc_w istore_2	-0.09515922
-1.6205883	iand istore_2	-0.43020222
-1.3965245	imul istore_2	-0.50694984
-1.0677952	d2i istore_2	-0.5334621
-3.7517102	<s> iload_2	-0.14456703
-1.7801145	aload_0 iload_2	-0.986343
-1.9095802	return iload_2	-0.9620573
-1.9617616	getfield iload_2	-0.6099321
-1.7436649	aload_1 iload_2	-1.1125793
-1.9951421	sipush iload_2	-0.43020222
-2.2129872	invokestatic iload_2	-0.26014918
-1.9059511	astore_3 iload_2	-0.5457172
-2.1255076	invokevirtual iload_2	-1.0154393
-1.7251828	astore iload_2	-0.86438155
-1.9647961	iconst_1 iload_2	-0.4498073
-1.8712596	dup iload_2	-0.90594554
-2.1566126	aload_3 iload_2	-0.12986778
-2.0656095	areturn iload_2	-0.30367926
-1.8242148	putfield iload_2	-0.748294
-2.4064307	aload iload_2	-0.46577775
-1.8809295	checkcast iload_2	-0.60216594
-1.6807497	pop iload_2	-1.077376
-2.0685554	iconst_2 iload_2	-0.43020222
-1.9335029	iconst_0 iload_2	-0.5734112
-1.9905748	i2l iload_2	-0.43020222
-0.8597065	istore_2 iload_2	-1.2298542
-1.9685013	iload_2 iload_2	-0.9445886
-1.5363829	iload_1 iload_2	-0.6497329
-1.8921502	if_icmpge iload_2	-0.09515922
-2.0612807	goto iload_2	-0.60491556
-1.7406996	ireturn iload_2	-1.1819496
-2.2278643	ldc2_w iload_2	-0.6584009
-2.1621163	getstatic iload_2	-0.85743845
-2.2944603	invokeinterface iload_2	-0.60216594
-1.4729798	iinc iload_2	-0.26431328
-1.4945831	iload_3 iload_2	-1.0661076
-1.8424149	istore iload_2	-0.30367926
-2.1381269	iload iload_2	-1.1570016
-1.9516083	if_icmpne iload_2	-0.43020222
-1.7670933	ifeq iload_2	-0.903196
-1.7251077	if_icmpgt iload_2	-0.09515922
-1.7637603	athrow iload_2	-1.1702843
-1.5917825	istore_3 iload_2	-0.5683529
-2.0232582	iconst_5 iload_2	-0.09515922
-1.7944599	arraylength iload_2	-0.50525594
-2.0907445	ifne iload_2	-0.43020222
-1.4878594	lload_0 iload_2	-0.43020222
-1.7465342	iload_0 iload_2	-0.43020222
-2.1840198	lconst_1 iload_2	-0.90143895
-1.7427692	ladd iload_2	-0.43020222
-1.9258919	lload_3 iload_2	-0.43020222
-1.8792037	ifnonnull iload_2	-0.43020222
-1.8044116	if_icmpeq iload_2	-0.43020222
-1.5269803	l2i iload_2	-0.43020222
-2.4756374	<s> iload_1	-0.83902794
-1.6001065	aload_0 iload_1	-1.1457032
-2.4840724	invokespecial iload_1	-0.6584009
-2.371024	return iload_1	-0.18093333
-1.9772189	getfield iload_1	-0.9090415
-2.0087154	sipush iload_1	-0.09515922
-2.1241887	invokestatic iload_1	-0.8761427
-1.6511762	astore_2 iload_1	-0.24049887
-2.1563175	astore_3 iload_1	-0.43020222
-1.9782987	invokevirtual iload_1	-1.1260465
-2.025528	astore iload_1	-0.5334621
-1.8612299	aload_2 iload_1	-0.6838448
-1.838356	iconst_1 iload_1	-0.8134787
-1.8849753	dup iload_1	-0.93676287
-2.165793	aload_3 iload_1	-0.27026528
-2.122312	areturn iload_1	-0.70955336
-1.9519163	putfield iload_1	-0.23114227
-1.9460827	aload iload_1	-0.6260085
-2.0433054	checkcast iload_1	-0.4302022
-1.6914556	pop iload_1	-0.78604305
-2.2352269	iconst_2 iload_1	-0.09515922
-1.9402333	iconst_0 iload_1	-0.5328547
-1.8004882	i2l iload_1	-0.09515925
-1.6912942	istore_2 iload_1	-0.14456703
-1.6948544	iload_2 iload_1	-0.5442036
-2.0333357	iload_1 iload_1	-0.25826955
-1.900205	if_icmpge iload_1	-0.7954758
-1.7775989	goto iload_1	-0.39627782
-1.7492499	ireturn iload_1	-0.96629286
-2.2451882	ldc2_w iload_1	-0.09515922
-1.9637164	iadd iload_1	-0.09515922
-2.219659	getstatic iload_1	-0.09515922
-2.3096793	invokeinterface iload_1	-0.18093333
-1.9841042	iinc iload_1	-0.09515922
-2.0011601	iload_3 iload_1	-0.8344921
-1.8507291	istore iload_1	-0.4302022
-1.89136	iload iload_1	-0.7893007
-2.1784825	bipush iload_1	-0.43020222
-0.82184005	istore_1 iload_1	-1.8876518
-1.7731564	ifeq iload_1	-0.29123303
-1.8250144	athrow iload_1	-0.67737645
-1.6613189	istore_3 iload_1	-0.5589518
-1.1137191	iload_0 iload_1	-0.71610934
-2.198513	lconst_1 iload_1	-0.09515922
-1.6631656	ifle iload_1	-0.43020222
-1.9354702	ifnull iload_1	-0.8344921
-1.3927695	iflt iload_1	-0.09515922
-2.1258745	getfield if_icmpge	-0.25349993
-1.2575184	sipush if_icmpge	-1.5413972
-2.8343804	invokestatic if_icmpge	-0.09515922
-2.7817602	invokevirtual if_icmpge	-0.50525594
-2.2528083	iconst_1 if_icmpge	-0.6193845
-2.1321776	iconst_2 if_icmpge	-1.0977336
-2.0888262	ldc if_icmpge	-0.9908393
-2.080013	iload_2 if_icmpge	-1.1887257
-1.8960944	iload_1 if_icmpge	-0.7271342
-1.7706685	iadd if_icmpge	-0.4176226
-2.5440679	getstatic if_icmpge	-0.43020222
-2.4555638	invokeinterface if_icmpge	-0.82297134
-2.1144714	iload_3 if_icmpge	-1.3395175
-2.271528	iload if_icmpge	-1.3712293
-1.6631653	bipush if_icmpge	-1.17415
-1.5223085	iconst_3 if_icmpge	-0.7443233
-1.8355572	iconst_4 if_icmpge	-1.3011359
-1.8306049	iconst_5 if_icmpge	-0.60470927
-1.3413008	arraylength if_icmpge	-0.650022
-2.0809033	ldc_w if_icmpge	-0.09515922
-1.5107992	iload_0 if_icmpge	-0.85743845
-1.5688289	isub if_icmpge	-0.72607887
-1.2435689	imul if_icmpge	-0.9664371
-2.6236255	aload_0 goto	-0.5334621
-2.1098022	invokespecial goto	-0.18093333
-1.8028972	return goto	-0.8192272
-1.8812851	getfield goto	-0.7512039
-1.4195268	astore_1 goto	-0.41152072
-2.5104864	aload_1 goto	-0.30367926
-1.8156137	invokestatic goto	-1.5452126
-1.3930943	astore_2 goto	-0.5659622
-1.4837832	astore_3 goto	-0.16402481
-1.7634926	invokevirtual goto	-1.2294652
-1.3714607	astore goto	-0.8160619
-2.4949534	aload_2 goto	-0.18093333
-1.5438838	iconst_1 goto	-3.013469
-2.4102018	aload_3 goto	-0.7553109
-1.8834226	areturn goto	-0.8062859
-1.2015581	putfield goto	-0.9737502
-2.399255	aload goto	-0.09515922
-1.5998969	pop goto	-1.0063524
-2.1649518	iconst_2 goto	-0.43020222
-2.155948	ldc goto	-0.09515922
-1.4889021	aastore goto	-0.6771911
-1.2716175	istore_2 goto	-0.5854527
-2.0545976	if_icmpge goto	-0.09515922
-1.3515974	goto goto	-1.0557361
-1.4157147	ireturn goto	-1.5052559
-1.9986092	ldc2_w goto	-0.50525594
-2.167625	getstatic goto	-1.6126434
-1.4123287	invokeinterface goto	-1.42796
-0.57629156	iinc goto	-1.7954082
-1.2592645	lreturn goto	-0.6584009
-1.0961647	lstore goto	-1.0044023
-1.4181236	istore goto	-1.0584084
-1.654363	lsub goto	-0.09515922
-1.9132264	if_icmpne goto	-0.23114227
-1.1946404	astore_0 goto	-0.43020222
-1.4937999	istore_1 goto	-0.83159435
-1.3885416	ifeq goto	-0.98542595
-2.0421448	try goto	-0.6584009
-0.6596488	endtry goto	-2.4738126
-1.4489466	athrow goto	-0.4185092
-1.57366	istore_3 goto	-0.28355038
-1.4206696	ifne goto	-1.1778597
-1.9454721	ldc_w goto	-0.43020222
-1.7119732	iload_0 goto	-0.43020222
-0.87504494	tableswitch goto	-0.9594309
-1.3271961	ifge goto	-0.29597795
-1.6273818	ifle goto	-0.18093333
-1.8888992	ifnull goto	-0.43020222
-1.1584609	ifnonnull goto	-0.7623498
-1.1683958	pop2 goto	-0.84811395
-1.6445231	if_acmpne goto	-0.903196
-1.3410722	lstore_3 goto	-0.61478674
-1.2705352	lstore_1 goto	-0.60216594
-1.6119888	if_icmple goto	-0.43020222
-1.3476186	ifgt goto	-0.43020222
-1.2564452	if_acmpeq goto	-0.23114227
-1.7723689	if_icmpeq goto	-0.43020222
-0.9625818	if_icmplt goto	-0.23114227
-1.5137495	lstore_2 goto	-0.792161
-1.5568042	iastore goto	-0.43020222
-2.403011	invokespecial ireturn	-0.6581611
-2.111348	getfield ireturn	-2.0340645
-2.268999	invokestatic ireturn	-1.5949347
-2.1322231	invokevirtual ireturn	-1.2455542
-1.4886252	iconst_1 ireturn	-1.4996244
-2.268219	putfield ireturn	-0.6584009
-2.1821322	iconst_2 ireturn	-1.2024689
-1.3269756	iconst_0 ireturn	-1.6458126
-1.6371247	iload_2 ireturn	-1.1336448
-1.7565396	iload_1 ireturn	-0.4473077
-2.526479	getstatic ireturn	-0.5334621
-1.8460686	invokeinterface ireturn	-1.5871998
-2.0450187	iload_3 ireturn	-0.5589518
-2.4956272	iload ireturn	-0.43020222
-1.2338449	endtry ireturn	-0.7698846
-2.151213	iconst_4 ireturn	-0.43020222
-1.6339648	arraylength ireturn	-0.9594309
-1.2517165	instanceof ireturn	-0.5524378
-1.5778801	iload_0 ireturn	-0.09515922
-1.5642977	isub ireturn	-0.7134154
-0.8935135	ishl ireturn	-0.43020222
-0.9879934	iand ireturn	-1.2024689
-1.6118724	iconst_m1 ireturn	-0.09515922
-1.5833632	l2i ireturn	-0.43020222
-0.30156773	ixor ireturn	-0.43020222
-2.5318136	<s> ldc2_w	-0.89063907
-1.8328496	aload_0 ldc2_w	-1.1552455
-2.2191796	invokespecial ldc2_w	-0.651238
-2.1414683	return ldc2_w	-0.7808005
-1.8449942	getfield ldc2_w	-1.9290797
-1.7568052	anewarray ldc2_w	-0.38286048
-1.5816586	astore_1 ldc2_w	-0.9857598
-1.537217	aload_1 ldc2_w	-1.9447076
-1.5075599	invokestatic ldc2_w	-1.5664719
-1.5272697	astore_2 ldc2_w	-0.86751205
-1.568474	astore_3 ldc2_w	-1.089009
-1.6525389	invokevirtual ldc2_w	-1.746877
-1.6048232	astore ldc2_w	-1.0563409
-1.6120158	aload_2 ldc2_w	-1.5713792
-2.0953524	iconst_1 ldc2_w	-1.5034989
-1.7932045	dup ldc2_w	-1.6590707
-1.702796	aload_3 ldc2_w	-1.5387207
-1.9978775	areturn ldc2_w	-0.70955336
-2.223464	putfield ldc2_w	-1.0105834
-1.8179921	aload ldc2_w	-1.4922955
-1.7704618	checkcast ldc2_w	-1.7260789
-1.5743284	pop ldc2_w	-1.4085234
-2.1222064	iconst_2 ldc2_w	-1.5748549
-1.8525709	ldc ldc2_w	-0.70370543
-2.1593723	iconst_0 ldc2_w	-1.4346749
-1.9759878	aastore ldc2_w	-0.68389046
-1.7425013	i2l ldc2_w	-0.60216594
-1.8373628	istore_2 ldc2_w	-0.6584009
-2.065349	iload_2 ldc2_w	-0.09515922
-2.02112	if_icmpge ldc2_w	-0.09515922
-1.9086661	goto ldc2_w	-0.69776094
-1.8916794	ireturn ldc2_w	-0.09515922
-1.2445462	ldc2_w ldc2_w	-1.2640812
-1.6938123	getstatic ldc2_w	-0.8031164
-2.208779	invokeinterface ldc2_w	-0.6584009
-1.9988528	istore ldc2_w	-0.09515922
-1.0891976	lload ldc2_w	-1.1489465
-1.6302414	lsub ldc2_w	-1.1702843
-0.20771028	l2d ldc2_w	-1.8274752
-0.95863545	ddiv ldc2_w	-1.9594308
-1.6958479	if_icmpne ldc2_w	-0.38286048
-2.1171603	aconst_null ldc2_w	-0.09515922
-1.1856893	astore_0 ldc2_w	-0.43020222
-1.9465933	bipush ldc2_w	-1.2604609
-1.5787411	lconst_0 ldc2_w	-0.693163
-1.5215508	ifeq ldc2_w	-0.903196
-1.1594307	try ldc2_w	-1.646102
-1.927841	endtry ldc2_w	-0.43020222
-1.7078712	athrow ldc2_w	-0.5524378
-1.6844531	lload_2 ldc2_w	-1.5334622
-1.9029121	iconst_3 ldc2_w	-1.3573709
-1.9561579	iconst_4 ldc2_w	-1.3350945
-1.949073	iconst_5 ldc2_w	-1.0977336
-1.800144	ifne ldc2_w	-0.9857598
-1.8280288	aaload ldc2_w	-0.43020222
-1.1918225	lload_0 ldc2_w	-0.50525594
-1.1798332	lload_1 ldc2_w	-0.91973925
-1.3150343	ifge ldc2_w	-0.43020222
-1.3111823	lconst_1 ldc2_w	-1.3407717
-1.6785659	ladd ldc2_w	-0.09515922
-1.8593544	ifnull ldc2_w	-0.43020222
-1.0541909	lload_3 ldc2_w	-0.7215799
-1.8094099	ifnonnull ldc2_w	-0.43020222
-1.581681	lstore_3 ldc2_w	-0.29123303
-0.8875009	lmul ldc2_w	-0.5334621
-1.7454224	if_icmpeq ldc2_w	-0.09515922
-1.49675	lstore_2 ldc2_w	-0.43020222
-0.9289174	i2d ldc2_w	-1.1336448
-1.2492894	dmul ldc2_w	-0.60216594
-2.5641167	getfield dup_x1	-2.3573709
-3.143451	aload_1 dup_x1	-0.09515922
-2.5638719	iload_1 dup_x1	-0.09515922
-2.2183814	iadd dup_x1	-2.0153823
-1.9325798	isub dup_x1	-1.2024689
-2.3337226	getfield iadd	-0.43020222
-1.894717	sipush iadd	-0.748294
-2.8127553	invokestatic iadd	-1.5460764
-2.3144057	invokevirtual iadd	-1.5535424
-1.577403	iconst_1 iadd	-1.4757745
-1.8013921	iconst_2 iadd	-0.8491079
-1.4703705	idiv iadd	-0.18093333
-2.1566522	iload_2 iadd	-0.23114227
-2.169316	iload_1 iadd	-0.9594309
-2.422602	invokeinterface iadd	-0.77723145
-2.130964	iload_3 iadd	-0.23114227
-2.289235	iload iadd	-0.8761427
-1.6688089	bipush iadd	-1.271507
-1.5867481	irem iadd	-0.09515922
-2.0651479	iconst_3 iadd	-0.60216594
-1.9143484	iconst_4 iadd	-0.60216594
-1.8388802	iconst_5 iadd	-1.0171393
-0.8074185	ishr iadd	-0.86925423
-1.5955746	l2i iadd	-0.43020222
-1.3950417	imul iadd	-0.64610195
-2.1030867	<s> getstatic	-1.1917405
-1.5869861	aload_0 getstatic	-1.3668414
-1.8964732	invokespecial getstatic	-1.5582516
-1.4406015	return getstatic	-1.4495151
-1.8297898	getfield getstatic	-1.501699
-1.5763819	astore_1 getstatic	-0.52119637
-1.726834	aload_1 getstatic	-1.3322814
-1.6809304	invokestatic getstatic	-1.1798899
-1.7311658	astore_2 getstatic	-0.38862553
-1.8924217	astore_3 getstatic	-0.18093333
-1.7715229	invokevirtual getstatic	-1.4560381
-1.5996072	astore getstatic	-0.779527
-1.7841792	aload_2 getstatic	-1.4173241
-2.084017	iconst_1 getstatic	-1.6628637
-1.7784185	dup getstatic	-1.0300492
-1.7947173	aload_3 getstatic	-0.8776344
-1.4859927	areturn getstatic	-1.3394756
-2.0804536	putfield getstatic	-0.80882925
-1.8134646	aload getstatic	-1.3195823
-1.9102051	checkcast getstatic	-0.18093333
-1.5634305	pop getstatic	-1.3459582
-1.4285197	iconst_2 getstatic	-1.7887347
-2.106556	ldc getstatic	-0.7553109
-1.3807223	idiv getstatic	-0.43020222
-2.1446457	iconst_0 getstatic	-2.3550696
-1.758996	aastore getstatic	-1.0563409
-1.7327423	i2l getstatic	-1.1355221
-1.6348784	istore_2 getstatic	-0.9445886
-1.6471406	iload_2 getstatic	-0.39042673
-1.9333543	iload_1 getstatic	-0.09515922
-1.479688	if_icmpge getstatic	-0.3948761
-1.4318596	goto getstatic	-0.8173765
-1.7264417	ireturn getstatic	-0.73504305
-0.93525445	ldc2_w getstatic	-2.174777
-1.8583251	iadd getstatic	-0.09515922
-1.5279837	getstatic getstatic	-1.1622734
-1.9609541	invokeinterface getstatic	-0.9691169
-1.6995752	iinc getstatic	-0.43020222
-1.5179385	lreturn getstatic	-0.43020222
-1.9046719	iload_3 getstatic	-0.43020222
-1.6391542	lstore getstatic	-0.8156792
-1.6180279	istore getstatic	-0.4473077
-1.9279343	iload getstatic	-0.32236898
-1.9034771	lload getstatic	-0.60216594
-1.3985568	lsub getstatic	-0.90143895
-0.29499665	dstore getstatic	-0.43020222
-1.867919	if_icmpne getstatic	-1.2834072
-1.7391105	aconst_null getstatic	-0.60216594
-1.7629637	bipush getstatic	-0.7186526
-1.2339773	lconst_0 getstatic	-0.855165
-1.4418312	ifeq getstatic	-0.86826617
-1.4362439	if_icmpgt getstatic	-0.7553109
-1.9590057	try getstatic	-0.14456703
-1.9166654	endtry getstatic	-0.9594309
-1.7399373	athrow getstatic	-0.6943137
-1.8659164	lload_2 getstatic	-1.3116133
-1.60823	istore_3 getstatic	-0.7553109
-1.4924114	putstatic getstatic	-0.491131
-2.0435734	iconst_3 getstatic	-1.6361245
-1.9421028	iconst_4 getstatic	-1.3116133
-1.9349483	iconst_5 getstatic	-1.0977336
-1.4079019	ifne getstatic	-1.0952386
-1.3097365	ifge getstatic	-1.2024689
-0.8746211	lconst_1 getstatic	-1.7666578
-1.4712553	ladd getstatic	-0.43020222
-1.3680406	ifle getstatic	-0.18093333
-1.8468419	ifnull getstatic	-0.6584009
-1.6621293	lload_3 getstatic	-0.60216594
-1.5602593	ifnonnull getstatic	-0.903196
-1.7764837	invokedynamic getstatic	-0.5524378
-1.5735518	lstore_3 getstatic	-0.43020222
-1.1779213	lmul getstatic	-0.6584009
-1.5270748	if_icmpeq getstatic	-0.18093333
-1.5590539	aload_0 invokeinterface	-1.4581765
-1.4532717	invokespecial invokeinterface	-1.960698
-1.7489468	return invokeinterface	-0.93467975
-1.5408541	getfield invokeinterface	-1.8116909
-1.5691807	anewarray invokeinterface	-0.78596604
-1.3292862	aload_1 invokeinterface	-1.9144248
-2.0041437	sipush invokeinterface	-0.60216594
-1.4305496	invokestatic invokeinterface	-2.2655978
-1.863972	invokevirtual invokeinterface	-1.302837
-1.2024245	aload_2 invokeinterface	-1.7605735
-1.8979009	iconst_1 invokeinterface	-1.2993789
-1.232361	aload_3 invokeinterface	-1.5781674
-1.9149742	areturn invokeinterface	-1.2324321
-1.2367351	aload invokeinterface	-1.725859
-1.2732425	checkcast invokeinterface	-2.051288
-1.5741854	iconst_2 invokeinterface	-1.199356
-1.6689851	ldc invokeinterface	-2.1082232
-1.7110653	iconst_0 invokeinterface	-1.7150835
-1.504465	aastore invokeinterface	-1.1491439
-1.3085229	i2l invokeinterface	-1.2745836
-2.173326	iload_2 invokeinterface	-0.43020222
-1.8236711	iload_1 invokeinterface	-0.8190433
-1.9849129	ireturn invokeinterface	-0.6584009
-1.7567179	ldc2_w invokeinterface	-1.2056502
-1.9591528	iadd invokeinterface	-0.50525594
-1.550162	getstatic invokeinterface	-0.8051687
-1.7537316	invokeinterface invokeinterface	-0.7301582
-1.9970242	iload_3 invokeinterface	-0.18093333
-2.1467195	iload invokeinterface	-1.0436033
-1.9269179	lload invokeinterface	-0.32494307
-1.34459	aconst_null invokeinterface	-1.0184827
-2.0293894	bipush invokeinterface	-1.1073159
-2.155569	lconst_0 invokeinterface	-0.43020222
-1.9923258	athrow invokeinterface	-0.6584009
-1.4625728	lload_2 invokeinterface	-0.46916124
-1.4944668	iconst_3 invokeinterface	-1.16243
-1.4401574	iconst_4 invokeinterface	-0.70370543
-1.5702865	iconst_5 invokeinterface	-0.7553109
-0.98738956	aaload invokeinterface	-0.8765168
-1.6384828	lload_1 invokeinterface	-1.3573709
-1.749325	ldc_w invokeinterface	-0.7553109
-1.6336818	lconst_1 invokeinterface	-1.0877355
-1.7501144	ladd invokeinterface	-0.09515922
-1.5153264	isub invokeinterface	-0.6991048
-1.4601603	lload_3 invokeinterface	-0.60216594
-1.8342314	invokedynamic invokeinterface	-0.85743845
-1.5576131	iand invokeinterface	-0.18093333
-1.1625714	ineg invokeinterface	-0.09515922
-2.6137743	aload_0 iinc	-0.43020222
-2.3880794	invokespecial iinc	-0.09515922
-2.0573373	return iinc	-0.86938286
-2.7590218	aload_1 iinc	-0.43020222
-1.9912889	invokestatic iinc	-2.1844928
-2.0479496	astore_2 iinc	-0.09515922
-1.7448796	astore_3 iinc	-0.50779927
-1.8050245	invokevirtual iinc	-2.1584313
-2.2921066	astore iinc	-0.43020222
-2.1556742	putfield iinc	-0.6584009
-1.7252544	pop iinc	-1.962434
-1.4147899	aastore iinc	-1.4542809
-1.6469935	istore_2 iinc	-1.0977336
-2.2360141	iload_2 iinc	-0.43020222
-2.0741076	iload_1 iinc	-0.85743845
-2.1492786	if_icmpge iinc	-0.43020222
-1.4874842	goto iinc	-1.2664219
-1.8344016	ireturn iinc	-0.6584009
-2.426802	getstatic iinc	-0.43020222
-1.5649321	invokeinterface iinc	-1.8195106
-1.1482421	iinc iinc	-0.9594309
-1.9890248	iload_3 iinc	-0.728529
-1.7199441	lstore iinc	-0.32236898
-1.6794888	istore iinc	-1.1355221
-2.1924336	iload iinc	-0.7954758
-2.0026484	if_icmpne iinc	-0.48917162
-1.7918707	ifeq iinc	-0.28355038
-1.8031653	athrow iinc	-1.9857599
-1.8149989	putstatic iinc	-0.43020222
-1.8813052	ifne iinc	-0.5420042
-1.9709115	ifnull iinc	-0.43020222
-1.929867	ifnonnull iinc	-0.43020222
-1.6504432	lstore_3 iinc	-0.50779927
-1.4084404	iflt iinc	-0.09515922
-1.6672009	if_icmple iinc	-0.09515922
-1.3829374	ifgt iinc	-0.6584009
-1.5933409	if_icmpeq iinc	-0.43020222
-0.59565616	lastore iinc	-0.43020222
-2.456936	getfield lreturn	-0.7553109
-2.8954208	invokestatic lreturn	-0.6584009
-2.3443537	invokevirtual lreturn	-0.7660516
-1.9807081	ldc2_w lreturn	-0.58719987
-2.6678424	getstatic lreturn	-0.43020222
-2.786695	invokeinterface lreturn	-0.43020222
-2.0536296	lload lreturn	-0.14456703
-2.0439246	lconst_0 lreturn	-1.0416176
-1.8755741	lload_0 lreturn	-0.43020222
-2.1419232	lconst_1 lreturn	-1.0818305
-2.1226025	lload_3 lreturn	-0.09515922
-4.2350554	<s> iload_3	-0.43020222
-1.6935341	aload_0 iload_3	-1.2629713
-2.4717124	invokespecial iload_3	-0.43020222
-1.9117442	return iload_3	-1.182842
-2.0794318	getfield iload_3	-0.4781524
-1.6680204	aload_1 iload_3	-1.0918069
-2.4115322	invokestatic iload_3	-0.29597795
-2.127594	invokevirtual iload_3	-1.049324
-1.8487414	astore iload_3	-0.53272456
-1.6575482	aload_2 iload_3	-0.9651817
-2.4517667	iconst_1 iload_3	-0.09515922
-1.8757836	dup iload_3	-1.0171393
-2.2546525	areturn iload_3	-0.90143895
-1.8259789	putfield iload_3	-0.80966854
-1.8892326	aload iload_3	-0.7230348
-1.6333408	pop iload_3	-1.2673229
-2.3375015	ldc iload_3	-0.5334621
-2.24158	iconst_0 iload_3	-1.6126434
-1.9949652	i2l iload_3	-0.09515922
-1.456753	iload_2 iload_3	-0.6665091
-2.0247724	iload_1 iload_3	-0.09515922
-1.5051161	if_icmpge iload_3	-0.3581258
-1.7098734	goto iload_3	-1.0624405
-1.7974952	ireturn iload_3	-0.18093333
-1.7002282	iadd iload_3	-0.38931578
-1.8880038	getstatic iload_3	-0.7724532
-2.2994742	invokeinterface iload_3	-0.43020222
-1.4740916	iinc iload_3	-0.48917162
-1.6652455	iload_3 iload_3	-0.7704245
-1.8998733	istore iload_3	-0.43020222
-1.7992884	iload iload_3	-1.3966367
-1.7428385	if_icmpne iload_3	-0.903196
-2.1664066	bipush iload_3	-0.09515922
-1.9480627	ifeq iload_3	-0.62339896
-1.4707346	if_icmpgt iload_3	-0.60216594
-2.2678306	try iload_3	-0.90143895
-1.8178444	athrow iload_3	-0.6584009
-0.870102	istore_3 iload_3	-1.1750252
-1.7982178	arraylength iload_3	-0.5334621
-2.0954323	ifne iload_3	-0.09515922
-1.7280451	lload_0 iload_3	-0.43020222
-2.0844269	lload_1 iload_3	-0.43020222
-2.1887972	lconst_1 iload_3	-0.09515922
-1.7469847	isub iload_3	-0.43020222
-1.6771473	if_acmpne iload_3	-0.8344921
-1.8077499	if_icmpeq iload_3	-0.43020222
-1.2543356	l2i iload_3	-0.43020222
-0.59267986	fload_2 iload_3	-0.43020222
-1.8294277	imul iload_3	-0.43020222
-2.741712	invokespecial lstore	-0.09515922
-1.926825	getfield lstore	-1.2295291
-2.291073	invokestatic lstore	-0.47028202
-1.9921635	invokevirtual lstore	-1.1054896
-1.8227067	ldc2_w lstore	-0.5420042
-2.7154474	invokeinterface lstore	-0.43020222
-2.0341885	lload lstore	-0.14456703
-0.9157419	lsub lstore	-0.5790118
-1.2213087	lconst_0 lstore	-0.8336662
-1.1402054	ladd lstore	-0.921363
-1.240314	lmul lstore	-0.43020222
-1.1904469	dup2 lstore	-0.30367926
-0.30281094	laload lstore	-0.09515922
-0.8983922	land lstore	-0.18093333
-0.5689187	lor lstore	-0.43020222
-1.0702175	ldiv lstore	-0.43020222
-1.7531476	getfield istore	-1.1379881
-1.588589	sipush istore	-0.48522496
-2.599422	invokestatic istore	-0.475316
-1.943274	invokevirtual istore	-1.1172678
-1.4383585	iconst_1 istore	-0.97187394
-1.9836313	dup istore	-0.43020222
-2.4576116	putfield istore	-0.9594309
-2.1668277	iconst_2 istore	-0.09515922
-2.4896517	ldc istore	-0.43020222
-1.1650214	iconst_0 istore	-1.5859327
-2.0570855	iload_2 istore	-0.6584009
-2.3142047	iload_1 istore	-0.43020222
-1.0747024	iadd istore	-1.1495547
-1.8407749	invokeinterface istore	-0.8964555
-1.5860467	iload istore	-0.79164505
-1.753997	bipush istore	-0.7347791
-1.571357	irem istore	-0.43020222
-2.1287687	iconst_5 istore	-0.09515922
-1.6262765	arraylength istore	-1.5281391
-1.0631247	iaload istore	-0.748294
-1.4865587	isub istore	-0.6652629
-0.89189935	ishl istore	-0.09515922
-1.3003064	iand istore	-0.38931578
-0.8346208	iconst_m1 istore	-1.3345597
-1.5761979	l2i istore	-0.43020222
-1.6025388	imul istore	-0.70955336
-1.0606079	d2i istore	-0.43020222
-0.3011541	caload istore	-0.43020222
-3.7262242	<s> iload	-0.7553109
-1.7107172	aload_0 iload	-1.2179366
-2.2365544	invokespecial iload	-0.60470927
-1.7961955	return iload	-1.50886
-1.8647803	getfield iload	-1.0740883
-1.7613677	aload_1 iload	-0.66287065
-2.184513	invokestatic iload	-0.5253612
-2.1173706	astore_2 iload	-0.43020222
-1.9537929	invokevirtual iload	-1.2740827
-1.6114326	astore iload	-0.28694808
-1.6783888	aload_2 iload	-1.2357137
-2.1099505	iconst_1 iload	-0.7512039
-1.8124243	dup iload	-0.6291635
-1.3824724	aload_3 iload	-1.0940826
-2.1733341	areturn iload	-0.43020222
-1.71049	putfield iload	-0.35542518
-1.3459991	aload iload	-1.1016629
-1.7867434	checkcast iload	-0.8802496
-1.588347	pop iload	-1.1543124
-1.9664537	ldc iload	-1.0331885
-2.0064564	iconst_0 iload	-1.1017425
-1.9959944	aastore iload	-0.43020222
-1.933359	i2l iload	-0.09515922
-2.0887294	iload_2 iload	-0.43020222
-1.9654238	iload_1 iload	-0.18093333
-1.4890499	if_icmpge iload	-0.44806695
-1.4059689	goto iload	-1.0267272
-1.7517443	ireturn iload	-0.09515922
-1.9854538	ldc2_w iload	-0.4498073
-1.3576645	iadd iload	-0.46153194
-2.1527925	getstatic iload	-0.43020222
-1.9822863	invokeinterface iload	-0.5442177
-0.9044786	iinc iload	-0.59313923
-1.4768298	iload_3 iload	-0.7923399
-1.6585371	lstore iload	-0.26431328
-0.9118056	istore iload	-1.5613598
-1.1799505	iload iload	-1.1671064
-1.3566294	lload iload	-0.4185092
-1.8987757	if_icmpne iload	-0.6584009
-1.784664	bipush iload	-0.71610934
-1.3851967	ifeq iload	-1.1020074
-1.4488591	if_icmpgt iload	-0.5683529
-1.5603734	athrow iload	-0.7512039
-1.6371028	lload_2 iload	-0.38286048
-2.0793865	iconst_3 iload	-0.5334621
-1.9674003	iconst_5 iload	-0.43020222
-1.7450038	arraylength iload	-0.43020222
-1.862721	ifne iload	-0.7072749
-1.3217489	ifge iload	-0.14456703
-1.4302309	ladd iload	-0.5334621
-1.3813299	ifle iload	-0.6352996
-1.2223262	isub iload	-0.93140215
-1.6717231	ifnull iload	-0.43020222
-1.3075604	lload_3 iload	-0.6435586
-1.2335378	pop2 iload	-0.50525594
-1.3432244	if_acmpne iload	-1.1866746
-1.0889907	iflt iload	-0.53272456
-1.3554928	if_icmple iload	-0.43020222
-1.55893	if_acmpeq iload	-0.43020222
-1.4818475	if_icmpeq iload	-0.09515922
-1.5009687	if_icmplt iload	-0.60216594
-1.7728992	imul iload	-0.09515922
-0.9318274	i2d iload	-0.09515922
-0.8742646	dconst_1 iload	-0.43020222
-2.1459968	lstore dconst_0	-0.43020222
-1.7824471	aload_0 lload	-0.9431226
-2.4840724	invokespecial lload	-0.43020222
-1.7504405	return lload	-0.7897099
-1.9772189	getfield lload	-0.9380931
-2.1935656	aload_1 lload	-0.36601025
-2.6309185	invokestatic lload	-0.09515922
-2.1317968	invokevirtual lload	-0.87982094
-2.025528	astore lload	-0.50525594
-2.4418173	aload_2 lload	-0.18093333
-2.4650133	iconst_1 lload	-0.5683529
-1.8849753	dup lload	-0.09515922
-1.9664643	aload_3 lload	-0.34692228
-1.9519163	putfield lload	-0.5683529
-1.843773	aload lload	-0.44661045
-1.6397083	pop lload	-0.8261132
-2.2352269	iconst_2 lload	-0.43020222
-2.3873377	iconst_0 lload	-1.4346749
-2.0038815	i2l lload	-0.09515922
-1.6048474	goto lload	-1.0133556
-2.1314094	invokeinterface lload	-1.5878198
-1.7511696	iinc lload	-0.09515922
-1.5599295	lreturn lload	-0.09515922
-2.1540792	iload_3 lload	-0.43020222
-0.9195291	lstore lload	-0.9976191
-1.8507291	istore lload	-0.26431328
-2.322196	iload lload	-0.09515922
-0.29854363	dconst_0 lload	-0.43020222
-1.098798	lload lload	-1.2763594
-1.4402564	lsub lload	-0.43020222
-1.9770354	lconst_0 lload	-0.6584009
-1.9541948	ifeq lload	-0.6734434
-1.0638977	lload_2 lload	-0.26280677
-1.9123387	ifne lload	-0.18093333
-1.4935769	lload_0 lload	-0.18093333
-2.0934806	lload_1 lload	-0.43020222
-1.6084225	ifge lload	-0.09515922
-1.7538341	ladd lload	-1.2604609
-1.6631656	ifle lload	-0.60216594
-1.7082405	ifnull lload	-0.14456703
-1.1366079	lload_3 lload	-0.4765011
-1.6833515	if_acmpne lload	-0.43020222
-1.6293342	lstore_3 lload	-0.09515922
-1.3927695	iflt lload	-0.43020222
-1.36814	ifgt lload	-0.43020222
-1.5874655	iastore lload	-0.43020222
-0.88181335	land lload	-0.43020222
-1.2780737	dmul lload	-0.43020222
-2.2343888	getfield lsub	-0.576521
-3.1840706	invokestatic lsub	-0.09515922
-2.2141156	i2l lsub	-0.43020222
-1.675654	lload lsub	-0.5005399
-2.131045	lload_2 lsub	-0.43020222
-1.7041814	lload_1 lsub	-0.76849735
-1.5759835	lconst_1 lsub	-0.68544847
-1.8299774	lload_3 lsub	-0.60216594
-1.247435	lmul lsub	-0.43020222
-1.0751032	ldiv lsub	-0.9594309
-3.2267215	invokevirtual l2d	-1.1355221
-1.6823676	lload l2d	-1.7227399
-1.8365874	lsub l2d	-0.43020222
-2.0302544	lload_1 l2d	-0.09515922
-2.1557353	lload_3 l2d	-0.43020222
-1.0783911	ldiv l2d	-0.5334621
-2.006994	ldc2_w ddiv	-1.7394428
-1.3011916	i2d ddiv	-0.43020222
-3.3601289	invokestatic dstore	-0.43020222
-2.839003	iconst_0 dload	-0.43020222
-2.1644702	getfield if_icmpne	-0.89031875
-1.9018449	sipush if_icmpne	-0.6004089
-2.989675	invokevirtual if_icmpne	-0.38931578
-1.6857504	iconst_1 if_icmpne	-1.4348998
-1.5432088	iconst_2 if_icmpne	-1.4228904
-2.1064157	ldc if_icmpne	-0.4765011
-2.3975203	iload_2 if_icmpne	-0.43020222
-2.118484	iload_1 if_icmpne	-0.55640846
-2.689928	invokeinterface if_icmpne	-0.43020222
-2.3720453	iload_3 if_icmpne	-0.43020222
-1.7810495	iload if_icmpne	-0.8589492
-1.777669	bipush if_icmpne	-0.81964993
-2.0732512	iconst_3 if_icmpne	-0.988873
-1.9208843	iconst_4 if_icmpne	-0.6548617
-2.186761	iconst_5 if_icmpne	-0.43020222
-1.1979166	arraylength if_icmpne	-0.69776094
-1.8802838	iload_0 if_icmpne	-0.43020222
-1.6267087	iconst_m1 if_icmpne	-0.43020222
-2.6727643	<s> aconst_null	-1.0296872
-1.5194163	aload_0 aconst_null	-1.6937137
-2.125988	invokespecial aconst_null	-1.9386694
-1.6229303	return aconst_null	-0.84578204
-1.9419723	getfield aconst_null	-1.0460038
-1.7988113	anewarray aconst_null	-0.09515922
-1.9057838	astore_1 aconst_null	-0.62626517
-1.6208438	aload_1 aconst_null	-1.4201998
-1.9715576	invokestatic aconst_null	-1.0334048
-2.1625035	astore_2 aconst_null	-0.43020222
-1.8948996	astore_3 aconst_null	-0.9857598
-2.036273	invokevirtual aconst_null	-0.62498796
-1.7183143	astore aconst_null	-0.4473077
-1.8047552	aload_2 aconst_null	-0.83488244
-2.4203172	iconst_1 aconst_null	-1.9594308
-1.8536208	dup aconst_null	-1.335638
-1.6369239	aload_3 aconst_null	-0.5416112
-1.4129276	areturn aconst_null	-1.8786715
-2.145422	putfield aconst_null	-0.43020222
-1.7185236	aload aconst_null	-0.56945443
-1.8212606	checkcast aconst_null	-0.38286048
-1.8280758	pop aconst_null	-1.1355221
-2.0528524	iconst_2 aconst_null	-0.80882925
-2.033622	iconst_0 aconst_null	-1.3765211
-2.1396425	iload_2 aconst_null	-0.5334621
-2.1397793	iload_1 aconst_null	-0.09515922
-2.0784416	if_icmpge aconst_null	-0.43020222
-1.7686864	goto aconst_null	-0.83375454
-1.7817034	ireturn aconst_null	-1.2254152
-2.019121	ldc2_w aconst_null	-1.0171393
-1.8782083	getstatic aconst_null	-0.8761427
-2.1080744	invokeinterface aconst_null	-0.7704245
-1.9287499	iload_3 aconst_null	-0.4787704
-1.6811396	lstore aconst_null	-0.09515922
-1.6503097	istore aconst_null	-0.5806351
-2.1214356	iload aconst_null	-0.30367926
-1.340219	if_icmpne aconst_null	-1.3116133
-1.6447827	aconst_null aconst_null	-0.20890987
-1.9027512	lconst_0 aconst_null	-0.5683529
-1.6352683	ifeq aconst_null	-0.47325647
-2.003793	try aconst_null	-0.5683529
-1.8004211	athrow aconst_null	-0.8062859
-2.1229823	iconst_3 aconst_null	-0.90143895
-2.0065525	iconst_5 aconst_null	-0.09515922
-1.6542246	ifne aconst_null	-0.336229
-2.0625854	lload_1 aconst_null	-0.09515922
-1.7323781	iload_0 aconst_null	-0.09515922
-1.5904683	ifge aconst_null	-0.09515922
-2.1654184	lconst_1 aconst_null	-0.18093333
-1.7301525	isub aconst_null	-0.09515922
-1.2659296	ifnonnull aconst_null	-1.1336448
-1.6620136	if_acmpne aconst_null	-0.43020222
-1.8196555	invokedynamic aconst_null	-1.0977336
-1.2524	lstore_2 aconst_null	-0.5334621
-2.5889459	invokespecial astore_0	-0.4302022
-3.0175476	invokestatic astore_0	-0.50525594
-3.2267215	invokevirtual astore_0	-0.09515922
-2.4425526	getstatic astore_0	-0.09515922
-2.87197	invokeinterface astore_0	-0.09515922
-2.4885798	aconst_null astore_0	-0.43020222
-2.5146625	<s> bipush	-1.2343155
-2.1556225	aload_0 bipush	-0.41659015
-2.2583654	invokespecial bipush	-1.1812797
-2.1444545	return bipush	-0.8062859
-1.9230456	getfield bipush	-1.4644144
-1.5001628	astore_1 bipush	-0.9020049
-1.7963517	aload_1 bipush	-1.4713445
-1.960893	sipush bipush	-0.6584009
-1.8173008	invokestatic bipush	-1.301168
-1.7584285	astore_2 bipush	-0.71490717
-1.9351437	astore_3 bipush	-0.5334621
-1.7274166	invokevirtual bipush	-1.3860854
-1.9890832	astore bipush	-1.1532509
-1.8475543	aload_2 bipush	-1.5749961
-1.4658021	iconst_1 bipush	-1.6284503
-1.6551843	dup bipush	-2.0597472
-1.8149204	aload_3 bipush	-0.96950155
-2.035794	areturn bipush	-0.6590669
-2.1309135	putfield bipush	-0.18093333
-1.9295912	aload bipush	-1.0453454
-1.8071228	checkcast bipush	-1.9727948
-1.6057892	pop bipush	-1.3945576
-1.8399441	iconst_2 bipush	-1.7993277
-1.7175773	ldc bipush	-1.5232811
-1.6442305	iconst_0 bipush	-1.564407
-1.6665263	istore_2 bipush	-0.90143895
-1.3914752	iload_2 bipush	-0.9523716
-1.4628255	iload_1 bipush	-1.198588
-1.8713738	if_icmpge bipush	-0.60216594
-2.3767712	goto bipush	-0.43020222
-2.0053394	ldc2_w bipush	-0.85743845
-1.732473	iadd bipush	-0.18093333
-2.3077083	getstatic bipush	-0.8344921
-2.3592398	invokeinterface bipush	-0.43020222
-1.761472	iload_3 bipush	-0.9569776
-2.0444546	istore bipush	-0.43020222
-1.3427714	iload bipush	-1.247609
-1.9206362	if_icmpne bipush	-0.6584009
-2.1630936	aconst_null bipush	-0.43020222
-1.4124146	bipush bipush	-1.8999019
-1.7971293	istore_1 bipush	-0.8344921
-2.2286105	try bipush	-0.6584009
-1.942198	athrow bipush	-0.7553109
-1.8526794	istore_3 bipush	-0.43020222
-1.5132307	putstatic bipush	-0.7553109
-2.1050155	iconst_3 bipush	-2.0775301
-1.9973334	iconst_4 bipush	-2.0294688
-1.9904656	iconst_5 bipush	-2.348597
-1.7655138	arraylength bipush	-0.6584009
-1.6993868	lload_0 bipush	-0.09515922
-2.0458698	lload_1 bipush	-0.09515922
-1.9518073	ldc_w bipush	-0.09515922
-2.1475813	lconst_1 bipush	-0.90143895
-1.8484396	ifnonnull bipush	-1.0563409
-1.8648435	invokedynamic bipush	-0.09515922
-1.244292	l2i bipush	-0.18093333
-0.8772481	lor bipush	-0.43020222
-1.5362538	imul bipush	-1.0105834
-2.358241	getfield istore_1	-0.99419296
-1.9018449	sipush istore_1	-0.5524378
-2.4932761	invokevirtual istore_1	-1.3248686
-2.140632	iconst_1 istore_1	-1.2170637
-2.4511929	iconst_2 istore_1	-0.64610195
-2.5864449	ldc istore_1	-0.748294
-1.4741445	idiv istore_1	-0.43020222
-1.6394917	iconst_0 istore_1	-2.0641017
-1.7856299	iadd istore_1	-0.60216594
-2.689928	invokeinterface istore_1	-0.50525594
-2.5693755	iload istore_1	-0.6584009
-2.406777	bipush istore_1	-0.568872
-2.3306885	iconst_3 istore_1	-0.75083727
-2.1922653	iconst_4 istore_1	-0.6584009
-1.9345353	arraylength istore_1	-0.18093333
-1.6229316	iand istore_1	-0.43020222
-1.2488228	imul istore_1	-0.6435586
-1.068601	d2i istore_1	-1.0563409
-2.664362	<s> lconst_0	-0.79445654
-1.977559	aload_0 lconst_0	-0.79798865
-2.2774172	invokespecial lconst_0	-0.23114227
-1.81488	return lconst_0	-0.5802511
-1.9117695	getfield lconst_0	-0.728529
-1.9085921	astore_1 lconst_0	-0.82298887
-1.8690825	aload_1 lconst_0	-1.1017425
-1.7809403	invokestatic lconst_0	-0.95629454
-1.9450014	astore_2 lconst_0	-0.6309382
-1.9503722	astore_3 lconst_0	-0.18093333
-1.6964275	invokevirtual lconst_0	-1.3639529
-2.005271	astore lconst_0	-1.0105834
-2.0404327	aload_2 lconst_0	-0.7495638
-2.314793	iconst_1 lconst_0	-0.60470927
-1.8579637	dup lconst_0	-1.5028182
-2.2898612	aload_3 lconst_0	-0.50525594
-2.1024284	putfield lconst_0	-0.50525594
-2.4307365	aload lconst_0	-0.23114227
-1.8248681	checkcast lconst_0	-1.0066158
-1.8330528	pop lconst_0	-1.3056747
-2.2013748	iconst_2 lconst_0	-0.9594309
-1.9960513	ldc lconst_0	-1.1170387
-2.3509285	iconst_0 lconst_0	-1.9136734
-1.9776638	i2l lconst_0	-0.09515922
-2.1453397	iload_1 lconst_0	-0.09515922
-2.082546	if_icmpge lconst_0	-0.09515922
-1.9374305	goto lconst_0	-0.5305643
-1.784816	ireturn lconst_0	-1.0105834
-2.211205	ldc2_w lconst_0	-0.6584009
-1.9370276	iadd lconst_0	-0.43020222
-2.0098674	invokeinterface lconst_0	-0.47977054
-1.2652454	lreturn lconst_0	-1.2024689
-1.6834658	lstore lconst_0	-1.4713142
-2.066879	istore lconst_0	-0.09515922
-1.2102783	lload lconst_0	-1.5077993
-2.1856945	aconst_null lconst_0	-1.0563409
-2.1432178	bipush lconst_0	-0.43020222
-1.8116205	istore_1 lconst_0	-0.43020222
-2.154072	ifeq lconst_0	-0.43020222
-2.249961	try lconst_0	-0.09515922
-0.85742664	lload_2 lconst_0	-1.7190987
-1.8698882	istore_3 lconst_0	-0.09515922
-2.1275926	iconst_3 lconst_0	-1.3116133
-2.0174232	iconst_4 lconst_0	-0.9594309
-1.8941723	ifne lconst_0	-0.09515922
-1.4177411	lload_0 lconst_0	-0.748294
-1.1888554	lload_1 lconst_0	-1.225459
-1.9905386	lconst_1 lconst_0	-0.38286048
-1.6949985	ifnull lconst_0	-0.43020222
-1.6498635	lload_3 lconst_0	-1.0563409
-0.57309484	lrem lconst_0	-1.3350945
-0.87867635	land lconst_0	-0.7553109
-0.7606597	lushr lconst_0	-0.43020222
-2.7532084	invokespecial lcmp	-0.43020222
-1.9315209	getfield lcmp	-1.236718
-2.508088	invokevirtual lcmp	-0.90143895
-1.82901	i2l lcmp	-0.60385984
-1.4440253	ldc2_w lcmp	-1.605344
-1.2809016	lload lcmp	-1.4044164
-1.8004023	lsub lcmp	-0.50525594
-1.1783355	lconst_0 lcmp	-1.7977881
-1.5057082	lload_2 lcmp	-0.5626878
-1.8574641	lload_0 lcmp	-0.43020222
-1.4351561	lload_1 lcmp	-0.9904268
-2.0538988	lconst_1 lcmp	-0.9664371
-1.6021848	ladd lcmp	-0.43020222
-1.7402906	lload_3 lcmp	-0.3980748
-1.2414927	lmul lcmp	-0.09515922
-2.7195942	invokespecial ifeq	-0.09515922
-1.6845875	getfield ifeq	-1.725466
-2.0520408	invokestatic ifeq	-1.5671245
-1.6734903	invokevirtual ifeq	-1.7135607
-1.1796743	iload_2 ifeq	-1.0469187
-1.1995039	iload_1 ifeq	-0.93521297
-2.3647137	getstatic ifeq	-1.3345597
-1.8586774	invokeinterface ifeq	-1.2620021
-1.817025	iinc ifeq	-0.43020222
-1.1536446	iload_3 ifeq	-0.8465519
-1.2665775	iload ifeq	-1.3670968
-0.8662068	lcmp ifeq	-1.2650424
-1.275652	irem ifeq	-0.5589518
-1.347941	arraylength ifeq	-0.98435694
-0.57885873	instanceof ifeq	-1.3177267
-1.5213795	iload_0 ifeq	-0.14456703
-0.9918221	iand ifeq	-0.84035367
-1.6648366	iastore ifeq	-0.09515922
-1.6100732	sipush if_icmpgt	-0.5611469
-2.9007368	invokestatic if_icmpgt	-0.43020222
-2.8533754	invokevirtual if_icmpgt	-0.85743845
-2.4810154	iconst_1 if_icmpgt	-0.38814303
-2.4709306	iconst_2 if_icmpgt	-0.09515922
-2.6086905	ldc if_icmpgt	-0.43020222
-2.417538	iload_2 if_icmpgt	-0.09515922
-2.129135	iload_1 if_icmpgt	-0.44980732
-1.863537	iadd if_icmpgt	-0.50525594
-2.5093265	invokeinterface if_icmpgt	-0.43020222
-2.392021	iload_3 if_icmpgt	-0.09515922
-2.5929706	iload if_icmpgt	-0.43020222
-2.1327786	bipush if_icmpgt	-0.427499
-2.345743	iconst_3 if_icmpgt	-0.8344921
-1.9226712	iconst_5 if_icmpgt	-0.38286048
-1.6321715	imul if_icmpgt	-0.8062859
-1.884144	<s> try	-1.4595028
-1.8828908	invokespecial try	-1.1129203
-1.5473076	return try	-1.3057177
-1.6278248	astore_1 try	-1.5740371
-2.1434562	invokestatic try	-0.9709285
-1.2534922	astore_2 try	-1.2912778
-1.6131513	astore_3 try	-0.81663865
-1.9625734	invokevirtual try	-1.3200182
-1.3438925	astore try	-0.9643382
-1.7285993	areturn try	-0.61992353
-1.542357	putfield try	-1.2553785
-1.6765027	pop try	-0.78406906
-2.1291215	aastore try	-0.09515922
-1.7175606	istore_2 try	-0.5334621
-1.6595885	if_icmpge try	-0.83515817
-1.5267888	goto try	-1.6863283
-1.5843811	ireturn try	-0.84899455
-1.7219763	invokeinterface try	-1.1643784
-1.9642212	lstore try	-0.18093333
-1.683278	istore try	-0.64186907
-2.01177	if_icmpne try	-0.43020222
-1.8648555	istore_1 try	-0.7553109
-1.3494399	ifeq try	-0.98489046
-1.4906278	if_icmpgt try	-0.7553109
-1.8667154	athrow try	-0.3918026
-1.6858923	istore_3 try	-0.5334621
-1.2912672	ifne try	-1.1416129
-1.6382275	ifge try	-0.5334621
-1.1992228	ifnull try	-0.952268
-1.6374781	ifnonnull try	-0.30367926
-1.6552768	lstore_3 try	-0.43020222
-0.23838174	monitorenter try	-1.2460289
-1.6725864	if_icmple try	-0.09515922
-1.3862953	ifgt try	-1.2604609
-1.3588957	if_acmpeq try	-0.90573925
-1.5626307	lstore_2 try	-0.9594309
-1.6459085	astore_1 endtry	-0.8866404
-1.8470317	invokestatic endtry	-2.0821693
-1.6862577	astore_2 endtry	-2.0763822
-1.6306089	astore_3 endtry	-1.4542809
-2.0504	invokevirtual endtry	-1.6307853
-1.6682744	astore endtry	-1.8355249
-2.6562402	iconst_1 endtry	-0.43020222
-2.4841015	aload_3 endtry	-0.5334621
-1.7683778	putfield endtry	-0.7994902
-2.77204	aload endtry	-0.8344921
-2.0039935	checkcast endtry	-0.09515922
-1.7205517	pop endtry	-1.3056592
-2.3726351	iconst_0 endtry	-0.6584009
-2.0152445	istore_2 endtry	-1.5614909
-2.3424716	iload_2 endtry	-0.43020222
-1.8082414	goto endtry	-1.1857722
-1.5781409	invokeinterface endtry	-1.627757
-1.9203842	istore endtry	-1.4594984
-1.9067947	istore_1 endtry	-0.5334621
-1.8226861	ifeq endtry	-0.14456703
-1.40196	athrow endtry	-0.72879857
-1.9859078	istore_3 endtry	-0.9594309
-1.997574	ifnonnull endtry	-0.43020222
-0.23959525	monitorexit endtry	-1.8344921
-3.0469055	aload_0 athrow	-0.43020222
-1.6451262	invokespecial athrow	-1.7299796
-2.4730616	getfield athrow	-0.74950236
-2.5305812	aload_1 athrow	-0.76304173
-2.2458642	invokestatic athrow	-0.893041
-2.8666196	invokevirtual athrow	-0.59843457
-1.9725552	aload_2 athrow	-1.5193623
-1.958918	aload_3 athrow	-1.4972295
-2.1649182	aload athrow	-1.3521144
-2.3534226	checkcast athrow	-0.50525594
-3.7888796	<s> lload_2	-0.7553109
-1.8297794	aload_0 lload_2	-1.2859281
-2.1943061	invokespecial lload_2	-0.09515925
-2.310332	return lload_2	-1.1819496
-2.0704741	getfield lload_2	-0.6021955
-2.0852757	aload_1 lload_2	-0.99177045
-2.893826	invokestatic lload_2	-0.43020222
-2.5382323	invokevirtual lload_2	-0.693163
-2.141902	astore lload_2	-0.6584009
-1.9664857	dup lload_2	-0.5751127
-2.3779168	areturn lload_2	-0.09515922
-1.9914596	putfield lload_2	-0.12986778
-1.8635333	aload lload_2	-0.71490717
-2.151597	checkcast lload_2	-0.43020222
-1.9600661	pop lload_2	-0.5334621
-2.2901175	iload_1 lload_2	-0.9594309
-2.2986522	goto lload_2	-0.4302022
-2.3545644	invokeinterface lload_2	-0.90594554
-1.7380761	lstore lload_2	-0.43020222
-2.1821735	istore lload_2	-0.09515922
-2.2560863	lload lload_2	-0.7553109
-2.2505167	lconst_0 lload_2	-0.09515922
-2.2777588	ifeq lload_2	-0.09515922
-2.065024	try lload_2	-0.8344921
-2.0935962	athrow lload_2	-0.6584009
-1.77142	lload_2 lload_2	-1.0105834
-2.1898258	ifne lload_2	-0.43020222
-1.2298274	lload_0 lload_2	-0.2806809
-1.5648208	pop2 lload_2	-0.43020222
-0.8131177	lstore_2 lload_2	-1.1359124
-1.0582384	ldiv lload_2	-0.43020222
-2.358241	getfield istore_3	-0.5701665
-1.8311963	sipush istore_3	-0.09515922
-2.8807213	invokestatic istore_3	-0.43020222
-2.1978076	invokevirtual istore_3	-0.5642343
-1.611859	iconst_1 istore_3	-0.8244977
-2.220091	iconst_2 istore_3	-0.09515922
-2.5864449	ldc istore_3	-0.09515922
-1.3069705	iconst_0 istore_3	-1.4868742
-2.1813078	iload_1 istore_3	-0.09515922
-1.5607742	iadd istore_3	-0.12986778
-1.8586774	invokeinterface istore_3	-1.1510059
-2.1843176	bipush istore_3	-0.7553109
-1.652452	arraylength istore_3	-1.4611745
-1.8690466	isub istore_3	-0.43020222
-0.89730334	ishl istore_3	-0.60216594
-0.60112035	ior istore_3	-0.09515922
-1.9765165	imul istore_3	-0.09515922
-1.068601	d2i istore_3	-0.43020222
-2.9805717	aload_0 putstatic	-1.4542809
-1.6406083	invokespecial putstatic	-1.1291188
-2.1333914	return putstatic	-0.30367926
-1.9319582	anewarray putstatic	-1.4877046
-1.9586427	invokestatic putstatic	-0.8170615
-2.864643	invokevirtual putstatic	-0.18093333
-2.762184	iconst_1 putstatic	-0.43020222
-2.015824	areturn putstatic	-1.0144453
-2.6601205	iconst_0 putstatic	-0.43020222
-1.6983432	aastore putstatic	-1.1462777
-1.9234858	ireturn putstatic	-0.4498073
-2.62255	getstatic putstatic	-0.60216594
-2.2168972	athrow putstatic	-0.38286048
-1.8952222	iload_0 putstatic	-0.43020222
-1.9937975	imul putstatic	-0.43020222
-2.4413877	getfield irem	-0.60216594
-1.8499173	sipush irem	-1.2024689
-2.2554965	iconst_2 irem	-1.6712381
-2.6569228	ldc irem	-0.09515922
-2.1641846	iadd irem	-0.6584009
-2.43496	iload_3 irem	-0.43020222
-1.9371115	bipush irem	-1.0414582
-2.0256038	iconst_3 irem	-0.7553109
-2.2308328	iconst_4 irem	-0.43020222
-2.225679	iconst_5 irem	-0.30367926
-1.6108134	iload_0 irem	-0.6584009
-1.89722	isub irem	-0.43020222
-2.276693	<s> iconst_3	-1.472855
-1.8933687	aload_0 iconst_3	-1.0033582
-2.3496282	invokespecial iconst_3	-1.5264453
-2.1913872	return iconst_3	-0.748294
-1.9824959	getfield iconst_3	-1.1590033
-1.9287766	astore_1 iconst_3	-0.7103623
-1.8761106	aload_1 iconst_3	-1.4966551
-1.8275633	invokestatic iconst_3	-1.7064065
-1.6526439	astore_2 iconst_3	-1.295272
-1.7296984	astore_3 iconst_3	-1.4877046
-1.9485017	invokevirtual iconst_3	-1.374816
-1.7321618	astore iconst_3	-1.0563409
-1.8624948	aload_2 iconst_3	-1.6014416
-1.7859995	iconst_1 iconst_3	-1.8186241
-1.6314758	dup iconst_3	-1.8619035
-1.7768058	aload_3 iconst_3	-1.3350945
-2.0813217	areturn iconst_3	-0.6584009
-2.3391151	putfield iconst_3	-0.09515922
-2.0097387	aload iconst_3	-1.4133223
-1.6864173	checkcast iconst_3	-1.8172657
-1.6950837	pop iconst_3	-1.5187389
-1.654215	iconst_2 iconst_3	-2.4147518
-2.0159938	ldc iconst_3	-1.8083893
-1.9425001	iconst_0 iconst_3	-1.4564574
-2.1851606	iload_2 iconst_3	-0.6584009
-2.0376813	iload_1 iconst_3	-0.18093333
-2.2867517	goto iconst_3	-0.43020222
-2.095731	ldc2_w iconst_3	-0.60470927
-1.9683285	iadd iconst_3	-0.6584009
-2.3751853	getstatic iconst_3	-0.09515922
-2.4349096	invokeinterface iconst_3	-0.6584009
-2.1600294	iload_3 iconst_3	-1.0563409
-1.8051772	iload iconst_3	-0.82739484
-1.9679642	if_icmpne iconst_3	-0.7553109
-1.9926822	bipush iconst_3	-1.1532509
-2.0818806	try iconst_3	-0.6584009
-2.003085	athrow iconst_3	-0.09515922
-1.5306361	putstatic iconst_3	-0.7967036
-1.7278972	iconst_3 iconst_3	-1.2862983
-1.8372792	iconst_4 iconst_3	-1.0414582
-2.0406325	iconst_5 iconst_3	-0.6004089
-1.8096902	arraylength iconst_3	-0.43020222
-1.9173315	aaload iconst_3	-0.6584009
-1.9918905	ldc_w iconst_3	-0.43020222
-2.2034535	lconst_1 iconst_3	-0.5334621
-1.6431048	invokedynamic iconst_3	-0.80882925
-2.794738	<s> iconst_4	-1.0017078
-2.1961153	aload_0 iconst_4	-0.90143895
-2.5517728	invokespecial iconst_4	-0.6584009
