\data\
ngram 1=67
ngram 2=573
ngram 3=2092
ngram 4=5304
ngram 5=10617

\1-grams:
-2.6258755	<unk>	0
0	<s>	-3.2267447
-1.5579593	</s>	0
-1.5862509	ReturnStmt	-0.5006121
-1.3627223	MethodCallExpr	-0.7415827
-1.2979176	NameExpr	-1.2497382
-1.3805559	SimpleName	-0.63287896
-1.4185827	ExpressionStmt	-0.7832395
-2.1720107	VariableDeclarationExpr	-0.32805312
-2.0718706	VariableDeclarator	-0.38940015
-1.4827037	ClassOrInterfaceType	-0.7951762
-1.6165148	IntegerLiteralExpr	-0.5102615
-1.6165148	ObjectCreationExpr	-0.9334682
-1.7224823	MethodDeclaration	-0.683347
-1.92208	MarkerAnnotationExpr	-0.63243824
-2.3023872	Name	-0.29893163
-1.9905491	Modifier	-0.27382103
-2.3023872	Parameter	-0.28371924
-1.6490467	StringLiteralExpr	-0.3513912
-1.4827037	BinaryExpr	-0.6763045
-2.4895625	VoidType	-0.30317461
-1.4389223	FieldAccessExpr	-0.6526416
-1.5862509	TryStmt	-0.5678525
-1.6842142	BooleanLiteralExpr	-0.40420198
-2.1720107	AssignExpr	-0.35871643
-1.7224823	EnclosedExpr	-0.42797917
-1.8629498	CastExpr	-0.53990376
-1.8629498	ArrayType	-0.56549144
-1.9905491	PrimitiveType	-0.287407
-2.3023872	ArrayInitializerExpr	-0.27817622
-1.6842142	UnaryExpr	-0.5326079
-1.7224823	ArrayAccessExpr	-0.5942614
-2.1720107	DoubleLiteralExpr	-0.27966696
-1.4602616	IfStmt	-0.9099669
-1.6165148	ForStmt	-0.64045185
-1.7224823	WhileStmt	-0.5470619
-1.810914	BreakStmt	-0.41663375
-1.6490467	NullLiteralExpr	-0.4243246
-2.1720107	ClassExpr	-0.37073103
-1.7224823	ThrowStmt	-0.639816
-1.9905491	LambdaExpr	-0.40832552
-2.4895625	UnknownType	-0.30317464
-1.810914	CatchClause	-0.7415827
-2.4895625	$EMPTY$	-0.30317464
-1.6842142	ThisExpr	-0.33143127
-1.9905491	FieldDeclaration	-0.37073103
-2.3859682	WildcardType	-0.293338
-1.8629498	InstanceOfExpr	-0.47249362
-2.3023872	MethodReferenceExpr	-0.27382103
-2.4895625	TypeExpr	-0.30317464
-1.6490467	ForEachStmt	-0.9012835
-1.7644513	LongLiteralExpr	-0.31543952
-2.4895625	SuperExpr	-0.30317464
-2.0718706	SingleMemberAnnotationExpr	-0.48631015
-2.0718706	SwitchStmt	-0.48631015
-2.0718706	SwitchEntry	-0.3092132
-2.1720107	ArrayCreationExpr	-0.3314082
-2.3023872	ArrayCreationLevel	-0.2761607
-2.3023872	CharLiteralExpr	-0.28630242
-1.9905491	ConditionalExpr	-0.37892953
-2.3023872	EmptyStmt	-0.28371924
-2.3023872	DoStmt	-0.27382103
-1.9905491	ContinueStmt	-0.40651628
-1.9905491	SynchronizedStmt	-0.38940015
-2.3859682	LabeledStmt	-0.2743089
-2.4895625	LocalClassDeclarationStmt	-0.30317464
-2.4895625	ClassOrInterfaceDeclaration	-0.30317464

\2-grams:
-1.5760247	ReturnStmt </s>	0
-1.3831823	SimpleName </s>	0
-1.2134141	IntegerLiteralExpr </s>	0
-1.3028296	Name </s>	0
-1.2642101	StringLiteralExpr </s>	0
-1.4237201	VoidType </s>	0
-1.0794773	BooleanLiteralExpr </s>	0
-0.9757248	DoubleLiteralExpr </s>	0
-1.1064264	BreakStmt </s>	0
-1.1198581	NullLiteralExpr </s>	0
-1.3745724	LambdaExpr </s>	0
-0.28715602	$EMPTY$ </s>	0
-1.1026795	ThisExpr </s>	0
-1.2096049	LongLiteralExpr </s>	0
-1.2992662	CharLiteralExpr </s>	0
-0.7683045	EmptyStmt </s>	0
-0.68465084	<s> ReturnStmt	-2.3157108
-1.922082	ReturnStmt ReturnStmt	-0.26196077
-1.7357183	SimpleName ReturnStmt	-0.31356364
-1.4500109	IntegerLiteralExpr ReturnStmt	-0.2839899
-1.5429227	StringLiteralExpr ReturnStmt	-0.26196384
-1.4338412	VoidType ReturnStmt	-0.26196077
-1.2490989	TryStmt ReturnStmt	-0.3759103
-1.5888807	BooleanLiteralExpr ReturnStmt	-0.2649254
-1.1202593	PrimitiveType ReturnStmt	-0.26531833
-1.3095737	BreakStmt ReturnStmt	-0.26196077
-1.4129602	NullLiteralExpr ReturnStmt	-0.2657782
-1.4098835	ThisExpr ReturnStmt	-0.26475692
-1.2591088	WildcardType ReturnStmt	-0.26196077
-1.4995794	LongLiteralExpr ReturnStmt	-0.26196077
-0.8970852	SwitchEntry ReturnStmt	-0.26196077
-1.0378445	ReturnStmt MethodCallExpr	-0.53373086
-0.78754723	MethodCallExpr MethodCallExpr	-0.65536106
-1.2950776	SimpleName MethodCallExpr	-0.56110966
-0.62393475	ExpressionStmt MethodCallExpr	-0.78339565
-1.14076	IntegerLiteralExpr MethodCallExpr	-0.4638651
-1.310536	StringLiteralExpr MethodCallExpr	-0.25685868
-0.947603	BinaryExpr MethodCallExpr	-0.51197094
-0.96285135	FieldAccessExpr MethodCallExpr	-0.35265878
-1.3564013	BooleanLiteralExpr MethodCallExpr	-0.35060292
-1.1747882	EnclosedExpr MethodCallExpr	-0.2661618
-1.2527585	PrimitiveType MethodCallExpr	-0.26196077
-1.0469314	ArrayInitializerExpr MethodCallExpr	-0.2675712
-0.733205	UnaryExpr MethodCallExpr	-0.43889377
-0.82290053	ArrayAccessExpr MethodCallExpr	-0.25369292
-0.69924873	IfStmt MethodCallExpr	-0.6466063
-1.2448423	WhileStmt MethodCallExpr	-0.27040386
-1.0872736	NullLiteralExpr MethodCallExpr	-0.361669
-0.7497009	ThrowStmt MethodCallExpr	-0.42706287
-1.5217906	ThisExpr MethodCallExpr	-0.26196077
-1.1941669	WildcardType MethodCallExpr	-0.26196077
-0.6475692	InstanceOfExpr MethodCallExpr	-0.361669
-1.3969136	LongLiteralExpr MethodCallExpr	-0.2661618
-1.0222342	ArrayCreationLevel MethodCallExpr	-0.27040386
-1.2341247	CharLiteralExpr MethodCallExpr	-0.26196077
-1.1310198	ConditionalExpr MethodCallExpr	-0.26196077
-1.1468929	ReturnStmt NameExpr	-0.72809285
-0.6105268	MethodCallExpr NameExpr	-1.1717904
-1.2813683	SimpleName NameExpr	-0.9779703
-1.8453566	ExpressionStmt NameExpr	-0.26196077
-1.2548863	IntegerLiteralExpr NameExpr	-0.6769403
-1.2133055	Name NameExpr	-0.26196077
-1.283782	StringLiteralExpr NameExpr	-0.3759103
-0.78437877	BinaryExpr NameExpr	-1.0042993
-0.36788154	FieldAccessExpr NameExpr	-1.0748804
-1.3300592	BooleanLiteralExpr NameExpr	-0.3759103
-0.380122	AssignExpr NameExpr	-0.3759103
-1.0534585	PrimitiveType NameExpr	-0.27040386
-1.0294856	ArrayInitializerExpr NameExpr	-0.27040386
-0.53018457	UnaryExpr NameExpr	-0.8530316
-0.24880545	ArrayAccessExpr NameExpr	-0.815243
-1.0511696	DoubleLiteralExpr NameExpr	-0.27040386
-0.7559355	IfStmt NameExpr	-0.9499416
-1.0735409	NullLiteralExpr NameExpr	-0.61894834
-0.5909577	ThrowStmt NameExpr	-0.6769403
-1.298385	ThisExpr NameExpr	-0.2509716
-1.1706855	WildcardType NameExpr	-0.26196077
-0.4528649	InstanceOfExpr NameExpr	-0.61894834
-1.361799	LongLiteralExpr NameExpr	-0.27040386
-0.1611003	SwitchStmt NameExpr	-0.47282034
-0.6535257	SwitchEntry NameExpr	-0.3759103
-1.1849885	ArrayCreationLevel NameExpr	-0.26196077
-1.2080389	CharLiteralExpr NameExpr	-0.26196077
-0.7617773	ConditionalExpr NameExpr	-0.2509716
-0.7176675	SynchronizedStmt NameExpr	-0.2509716
-0.87784934	MethodCallExpr SimpleName	-0.43058568
-0.024074616	NameExpr SimpleName	-0.6311527
-1.4091117	SimpleName SimpleName	-0.45268768
-0.18712682	ClassOrInterfaceType SimpleName	-0.45987564
-1.2276833	IntegerLiteralExpr SimpleName	-0.40615177
-1.0564394	Name SimpleName	-0.26676527
-0.86588156	Modifier SimpleName	-0.2564314
-1.3174902	StringLiteralExpr SimpleName	-0.26134828
-1.3502654	VoidType SimpleName	-0.26196077
-1.0516788	BooleanLiteralExpr SimpleName	-0.40587306
-0.94809437	PrimitiveType SimpleName	-0.26475698
-1.2567731	DoubleLiteralExpr SimpleName	-0.26196077
-1.518444	BreakStmt SimpleName	-0.26196077
-1.2460513	NullLiteralExpr SimpleName	-0.2998878
-1.3218107	LambdaExpr SimpleName	-0.26196077
-0.2813511	UnknownType SimpleName	-0.26196077
-1.3350065	ThisExpr SimpleName	-0.26196602
-1.0033404	WildcardType SimpleName	-0.26676527
-1.3182122	LongLiteralExpr SimpleName	-0.26918763
-0.2813511	SuperExpr SimpleName	-0.26196077
-1.0533977	CharLiteralExpr SimpleName	-0.26196077
-0.8508693	ContinueStmt SimpleName	-0.25864044
-0.30944252	LabeledStmt SimpleName	-0.2661618
-0.2813511	ClassOrInterfaceDeclaration SimpleName	-0.26196077
-0.20629166	<s> ExpressionStmt	-3.3820941
-1.2223821	ReturnStmt ExpressionStmt	-0.55308807
-1.3583171	SimpleName ExpressionStmt	-0.5961858
-1.1505809	IntegerLiteralExpr ExpressionStmt	-0.6322693
-1.2592096	Name ExpressionStmt	-0.26196077
-1.1451702	StringLiteralExpr ExpressionStmt	-0.37258378
-1.3674974	VoidType ExpressionStmt	-0.26196077
-0.5718836	TryStmt ExpressionStmt	-0.7315619
-1.0584633	BooleanLiteralExpr ExpressionStmt	-0.53081167
-1.2742772	PrimitiveType ExpressionStmt	-0.26196077
-1.0837082	DoubleLiteralExpr ExpressionStmt	-0.27040386
-0.6145104	ForStmt ExpressionStmt	-0.63787544
-0.7747104	BreakStmt ExpressionStmt	-0.47282034
-0.98207235	NullLiteralExpr ExpressionStmt	-0.55308807
-0.64702505	LambdaExpr ExpressionStmt	-0.3110351
-1.0766219	ThisExpr ExpressionStmt	-0.30690128
-0.9682011	LongLiteralExpr ExpressionStmt	-0.3919956
-1.0143013	SwitchEntry ExpressionStmt	-0.2675712
-0.93011034	CharLiteralExpr ExpressionStmt	-0.26196802
-0.7546424	EmptyStmt ExpressionStmt	-0.26196077
-0.83588386	DoStmt ExpressionStmt	-0.26196077
-0.6110722	ContinueStmt ExpressionStmt	-0.35265878
-0.6822016	ExpressionStmt VariableDeclarationExpr	-0.89878905
-1.2910837	TryStmt VariableDeclarationExpr	-0.3759103
-0.54402024	ForStmt VariableDeclarationExpr	-0.88779366
-0.057831306	ForEachStmt VariableDeclarationExpr	-0.662699
-0.52286416	VariableDeclarationExpr VariableDeclarator	-0.25252452
-1.3963345	Name VariableDeclarator	-0.26196077
-0.92617077	Modifier VariableDeclarator	-0.2591921
-1.997651	StringLiteralExpr VariableDeclarator	-0.26196077
-0.85253465	FieldDeclaration VariableDeclarator	-0.25369292
-1.5908674	SimpleName ClassOrInterfaceType	-0.6769403
-0.53149027	VariableDeclarator ClassOrInterfaceType	-0.40476847
-0.77712774	ClassOrInterfaceType ClassOrInterfaceType	-0.47282034
-1.8753834	IntegerLiteralExpr ClassOrInterfaceType	-0.26196077
-0.05193914	ObjectCreationExpr ClassOrInterfaceType	-0.70326924
-1.2804722	Name ClassOrInterfaceType	-0.26196077
-1.22629	Modifier ClassOrInterfaceType	-0.26196077
-0.9165586	Parameter ClassOrInterfaceType	-0.2675712
-1.6791672	StringLiteralExpr ClassOrInterfaceType	-0.26196077
-1.3946997	VoidType ClassOrInterfaceType	-0.26196077
-0.434891	CastExpr ClassOrInterfaceType	-0.513913
-0.26789975	ArrayType ClassOrInterfaceType	-0.6769403
-1.2969182	PrimitiveType ClassOrInterfaceType	-0.26196077
-1.732482	NullLiteralExpr ClassOrInterfaceType	-0.26196077
-0.3118834	ClassExpr ClassOrInterfaceType	-0.3378217
-1.4723065	ThisExpr ClassOrInterfaceType	-0.27040386
-1.2319561	WildcardType ClassOrInterfaceType	-0.26196077
-0.572507	TypeExpr ClassOrInterfaceType	-0.26196077
-0.45141372	ArrayCreationExpr ClassOrInterfaceType	-0.3759103
-1.4819978	ReturnStmt IntegerLiteralExpr	-0.2591897
-1.4569252	SimpleName IntegerLiteralExpr	-0.45972133
-1.8200861	ExpressionStmt IntegerLiteralExpr	-0.2640562
-1.1779104	IntegerLiteralExpr IntegerLiteralExpr	-0.41700184
-1.2767923	StringLiteralExpr IntegerLiteralExpr	-0.26436055
-1.2307875	BinaryExpr IntegerLiteralExpr	-0.417303
-1.4442039	VoidType IntegerLiteralExpr	-0.26196077
-1.438352	BooleanLiteralExpr IntegerLiteralExpr	-0.28777313
-1.0988698	ArrayInitializerExpr IntegerLiteralExpr	-0.2661618
-1.3558286	UnaryExpr IntegerLiteralExpr	-0.26734546
-1.299483	NullLiteralExpr IntegerLiteralExpr	-0.29812354
-1.6751912	ThisExpr IntegerLiteralExpr	-0.26196077
-1.5113183	LongLiteralExpr IntegerLiteralExpr	-0.26196077
-1.0713742	ArrayCreationLevel IntegerLiteralExpr	-0.26348373
-1.3187703	ReturnStmt ObjectCreationExpr	-0.61894834
-1.5481246	MethodCallExpr ObjectCreationExpr	-0.3759103
-1.4935601	SimpleName ObjectCreationExpr	-0.815243
-1.693109	ExpressionStmt ObjectCreationExpr	-0.2509716
-1.5428429	IntegerLiteralExpr ObjectCreationExpr	-0.47282034
-1.554866	StringLiteralExpr ObjectCreationExpr	-0.2509716
-1.4442039	VoidType ObjectCreationExpr	-0.26196077
-1.6951504	BooleanLiteralExpr ObjectCreationExpr	-0.27040386
-1.5585254	EnclosedExpr ObjectCreationExpr	-0.26196077
-1.3130572	ArrayInitializerExpr ObjectCreationExpr	-0.26196077
-1.5885792	NullLiteralExpr ObjectCreationExpr	-0.2509716
-0.4849254	ThrowStmt ObjectCreationExpr	-0.7738503
-1.5281671	ThisExpr ObjectCreationExpr	-0.27040386
-1.6585542	LongLiteralExpr ObjectCreationExpr	-0.26196077
-2.0105176	ReturnStmt MethodDeclaration	-0.26196077
-1.7082646	SimpleName MethodDeclaration	-0.47282034
-1.568071	IntegerLiteralExpr MethodDeclaration	-0.47282034
-1.6958854	StringLiteralExpr MethodDeclaration	-0.27040386
-1.4768631	VoidType MethodDeclaration	-0.26196077
-1.7420236	BooleanLiteralExpr MethodDeclaration	-0.27040386
-1.3637891	PrimitiveType MethodDeclaration	-0.26196077
-1.7315876	NullLiteralExpr MethodDeclaration	-0.27040386
-1.2880731	WildcardType MethodDeclaration	-0.26196077
-1.548568	LongLiteralExpr MethodDeclaration	-0.27040386
-1.0287147	EmptyStmt MethodDeclaration	-0.26196077
-1.436469	ClassOrInterfaceType MarkerAnnotationExpr	-0.27040386
-0.14079352	MethodDeclaration MarkerAnnotationExpr	-0.815243
-1.3777674	Name MarkerAnnotationExpr	-0.26196077
-1.2072225	Parameter MarkerAnnotationExpr	-0.26196077
-1.7686753	StringLiteralExpr MarkerAnnotationExpr	-0.27040386
-1.2569464	FieldDeclaration MarkerAnnotationExpr	-0.26196077
-1.3191079	WildcardType MarkerAnnotationExpr	-0.26196077
-0.11460969	MarkerAnnotationExpr Name	-0.25780958
-1.3119406	ThisExpr Name	-0.2598826
-0.17052127	SingleMemberAnnotationExpr Name	-0.42978418
-0.9141059	VariableDeclarationExpr Modifier	-0.2675712
-1.3869517	Name Modifier	-0.26196077
-0.9227801	Modifier Modifier	-0.26196077
-0.9610708	Parameter Modifier	-0.2675712
-1.9653196	StringLiteralExpr Modifier	-0.26196077
-0.46702284	FieldDeclaration Modifier	-0.31791836
-2.1050947	SimpleName Parameter	-0.26476178
-0.6727212	LambdaExpr Parameter	-0.47282034
-0.0864004	CatchClause Parameter	-0.6516329
-1.4893205	ReturnStmt StringLiteralExpr	-0.28310567
-1.5530066	MethodCallExpr StringLiteralExpr	-0.3759103
-1.5843748	SimpleName StringLiteralExpr	-0.38121355
-1.6610687	IntegerLiteralExpr StringLiteralExpr	-0.26336142
-1.3264008	Name StringLiteralExpr	-0.26196077
-1.2832227	StringLiteralExpr StringLiteralExpr	-0.28109023
-1.5465295	BinaryExpr StringLiteralExpr	-0.2860044
-1.836961	BooleanLiteralExpr StringLiteralExpr	-0.26196077
-0.9603685	ArrayInitializerExpr StringLiteralExpr	-0.25533393
-1.3440806	DoubleLiteralExpr StringLiteralExpr	-0.26196077
-1.8364462	NullLiteralExpr StringLiteralExpr	-0.26196077
-1.5233834	LongLiteralExpr StringLiteralExpr	-0.27040386
-1.2767026	SwitchEntry StringLiteralExpr	-0.26196077
-1.2345322	ReturnStmt BinaryExpr	-0.35716173
-1.5454978	SimpleName BinaryExpr	-0.4985838
-1.9430029	ExpressionStmt BinaryExpr	-0.26196077
-1.5038024	IntegerLiteralExpr BinaryExpr	-0.28424326
-1.5790706	StringLiteralExpr BinaryExpr	-0.2661618
-0.95618045	BinaryExpr BinaryExpr	-0.51293665
-1.3946997	VoidType BinaryExpr	-0.26196077
-1.7285204	BooleanLiteralExpr BinaryExpr	-0.26196077
-0.6754983	EnclosedExpr BinaryExpr	-0.43777007
-0.9645762	DoubleLiteralExpr BinaryExpr	-0.2509716
-0.64994633	IfStmt BinaryExpr	-0.77589095
-1.3794837	ForStmt BinaryExpr	-0.27040386
-0.44344968	WhileStmt BinaryExpr	-0.4788941
-1.6232702	NullLiteralExpr BinaryExpr	-0.26196077
-1.5987095	ThisExpr BinaryExpr	-0.26196077
-1.5821766	LongLiteralExpr BinaryExpr	-0.26196077
-0.91125554	ArrayCreationLevel BinaryExpr	-0.2675712
-1.2764494	CharLiteralExpr BinaryExpr	-0.26196077
-0.4111689	ConditionalExpr BinaryExpr	-0.30503482
-1.988468	SimpleName VoidType	-0.30839851
-1.3532273	ReturnStmt FieldAccessExpr	-0.43252265
-1.0403539	MethodCallExpr FieldAccessExpr	-0.42057252
-1.4932892	SimpleName FieldAccessExpr	-0.44267583
-1.2899417	IntegerLiteralExpr FieldAccessExpr	-0.60587543
-1.4774355	StringLiteralExpr FieldAccessExpr	-0.25369292
-0.9941682	BinaryExpr FieldAccessExpr	-0.47691113
-1.3763769	VoidType FieldAccessExpr	-0.26196077
-1.0723746	FieldAccessExpr FieldAccessExpr	-0.3759103
-1.6021767	BooleanLiteralExpr FieldAccessExpr	-0.27040386
-1.0013956	AssignExpr FieldAccessExpr	-0.26196077
-1.4921987	EnclosedExpr FieldAccessExpr	-0.26196077
-1.2590648	ArrayInitializerExpr FieldAccessExpr	-0.26196077
-0.9926336	UnaryExpr FieldAccessExpr	-0.401462
-1.1914179	ArrayAccessExpr FieldAccessExpr	-0.27040386
-1.7869284	IfStmt FieldAccessExpr	-0.27040386
-1.5999415	NullLiteralExpr FieldAccessExpr	-0.27040386
-1.5715277	ThisExpr FieldAccessExpr	-0.26196077
-1.2189909	WildcardType FieldAccessExpr	-0.26196077
-1.3417207	LongLiteralExpr FieldAccessExpr	-0.2509716
-1.0181619	SwitchEntry FieldAccessExpr	-0.27040386
-1.2371522	ArrayCreationLevel FieldAccessExpr	-0.26196077
-1.8810956	<s> TryStmt	-1.5737624
-1.7334238	ReturnStmt TryStmt	-0.25369292
-1.6736199	SimpleName TryStmt	-0.35373795
-1.5347489	IntegerLiteralExpr TryStmt	-0.2997546
-1.7489746	StringLiteralExpr TryStmt	-0.26196077
-1.4338412	VoidType TryStmt	-0.26196077
-1.008696	TryStmt TryStmt	-0.42978418
-1.4302291	BooleanLiteralExpr TryStmt	-0.2591921
-1.3268449	DoubleLiteralExpr TryStmt	-0.26196077
-1.7329483	ForStmt TryStmt	-0.26196077
-1.3095737	BreakStmt TryStmt	-0.2509716
-1.5776545	NullLiteralExpr TryStmt	-0.25958657
-1.5164055	ThisExpr TryStmt	-0.27040386
-1.6421663	LongLiteralExpr TryStmt	-0.26196077
-1.4363605	ContinueStmt TryStmt	-0.26196077
-1.2642788	ReturnStmt BooleanLiteralExpr	-0.349719
-1.6419169	SimpleName BooleanLiteralExpr	-0.31442654
-1.8369086	ExpressionStmt BooleanLiteralExpr	-0.26531833
-1.5594977	IntegerLiteralExpr BooleanLiteralExpr	-0.26196802
-1.5797851	StringLiteralExpr BooleanLiteralExpr	-0.26196077
-1.4657016	VoidType BooleanLiteralExpr	-0.26196077
-1.4550683	BooleanLiteralExpr BooleanLiteralExpr	-0.260113
-1.3298023	ArrayInitializerExpr BooleanLiteralExpr	-0.26196077
-1.1485898	WhileStmt BooleanLiteralExpr	-0.25533393
-1.716476	NullLiteralExpr BooleanLiteralExpr	-0.26196077
-1.7100015	ThisExpr BooleanLiteralExpr	-0.26196077
-1.6933107	LongLiteralExpr BooleanLiteralExpr	-0.26196077
-2.375435	SimpleName AssignExpr	-0.27040386
-0.707814	ExpressionStmt AssignExpr	-0.90951294
-2.2807899	IntegerLiteralExpr AssignExpr	-0.26196077
-1.6752714	EnclosedExpr AssignExpr	-0.26196077
-1.3227713	MethodCallExpr EnclosedExpr	-0.49673098
-1.8561487	SimpleName EnclosedExpr	-0.30169013
-1.9302748	IntegerLiteralExpr EnclosedExpr	-0.2661618
-1.6958854	StringLiteralExpr EnclosedExpr	-0.27040386
-1.1097217	BinaryExpr EnclosedExpr	-0.4314252
-1.4520799	FieldAccessExpr EnclosedExpr	-0.2509716
-1.5903766	EnclosedExpr EnclosedExpr	-0.26196077
-1.3637891	PrimitiveType EnclosedExpr	-0.26196077
-1.1576154	UnaryExpr EnclosedExpr	-0.2509716
-0.8674162	MethodReferenceExpr EnclosedExpr	-0.26196077
-1.711791	LongLiteralExpr EnclosedExpr	-0.26196077
-1.4297688	ReturnStmt CastExpr	-0.42706287
-1.6740302	SimpleName CastExpr	-0.5520016
-2.0840647	ExpressionStmt CastExpr	-0.26196077
-1.8914496	IntegerLiteralExpr CastExpr	-0.2661618
-1.4368602	BinaryExpr CastExpr	-0.31791836
-0.6904958	EnclosedExpr CastExpr	-0.5547229
-1.4071243	ThrowStmt CastExpr	-0.27040386
-1.3380907	ArrayCreationLevel CastExpr	-0.26196077
-2.1513278	SimpleName ArrayType	-0.25864044
-0.9222254	VariableDeclarator ArrayType	-0.25864044
-1.3687732	Name ArrayType	-0.26196077
-1.3082967	Modifier ArrayType	-0.26196077
-1.2009133	Parameter ArrayType	-0.26196077
-1.1778908	CastExpr ArrayType	-0.2675712
-0.97333866	ClassExpr ArrayType	-0.26196077
-0.58829117	TypeExpr ArrayType	-0.26196077
-2.0423985	SimpleName PrimitiveType	-0.31791836
-0.69567883	VariableDeclarator PrimitiveType	-0.3759103
-1.2136247	Parameter PrimitiveType	-0.26196077
-0.53141165	CastExpr PrimitiveType	-0.43184
-0.6986842	ArrayType PrimitiveType	-0.257217
-0.6984801	ArrayCreationExpr PrimitiveType	-0.2509716
-2.2987962	SimpleName ArrayInitializerExpr	-0.2643564
-1.4157311	Name ArrayInitializerExpr	-0.26196077
-0.96702975	ArrayCreationLevel ArrayInitializerExpr	-0.2670069
-1.4967688	ReturnStmt UnaryExpr	-0.30503482
-1.6419169	SimpleName UnaryExpr	-0.42497188
-0.89674497	ExpressionStmt UnaryExpr	-0.61154646
-1.8240378	IntegerLiteralExpr UnaryExpr	-0.26196906
-1.6794463	StringLiteralExpr UnaryExpr	-0.2661618
-1.1672215	BinaryExpr UnaryExpr	-0.5266942
-1.3725313	EnclosedExpr UnaryExpr	-0.27040386
-0.7650683	IfStmt UnaryExpr	-0.6769403
-0.5825267	WhileStmt UnaryExpr	-0.513913
-1.8564783	NullLiteralExpr UnaryExpr	-0.26196077
-1.7100015	ThisExpr UnaryExpr	-0.26196077
-1.6933107	LongLiteralExpr UnaryExpr	-0.26196077
-1.88524	ReturnStmt ArrayAccessExpr	-0.27040386
-1.3227713	MethodCallExpr ArrayAccessExpr	-0.49673098
-1.6497253	SimpleName ArrayAccessExpr	-0.48660773
-1.9302748	IntegerLiteralExpr ArrayAccessExpr	-0.2675712
-1.6958854	StringLiteralExpr ArrayAccessExpr	-0.27040386
-1.3217142	BinaryExpr ArrayAccessExpr	-0.49673098
-1.4520799	FieldAccessExpr ArrayAccessExpr	-0.2509716
-1.8800937	BooleanLiteralExpr ArrayAccessExpr	-0.26196077
-1.0360303	AssignExpr ArrayAccessExpr	-0.26196077
-1.3712333	UnaryExpr ArrayAccessExpr	-0.2509716
-1.1876433	InstanceOfExpr ArrayAccessExpr	-0.27040386
-2.2650247	SimpleName DoubleLiteralExpr	-0.265693
-2.2807899	IntegerLiteralExpr DoubleLiteralExpr	-0.26196077
-2.190935	BinaryExpr DoubleLiteralExpr	-0.26196077
-1.431423	DoubleLiteralExpr DoubleLiteralExpr	-0.26196077
-1.1263064	<s> IfStmt	-2.429565
-1.3586593	ReturnStmt IfStmt	-0.39363986
-1.4276104	SimpleName IfStmt	-0.59000295
-1.5918143	IntegerLiteralExpr IfStmt	-0.29672986
-1.3464772	StringLiteralExpr IfStmt	-0.3110351
-1.3854417	VoidType IfStmt	-0.26196077
-0.8475754	TryStmt IfStmt	-0.41661733
-1.198585	BooleanLiteralExpr IfStmt	-0.33149195
-1.2892393	PrimitiveType IfStmt	-0.26196077
-1.2865301	DoubleLiteralExpr IfStmt	-0.26196077
-0.7769302	ForStmt IfStmt	-0.44881916
-0.7094613	BreakStmt IfStmt	-0.50733054
-1.5268083	NullLiteralExpr IfStmt	-0.2636421
-1.3473908	LambdaExpr IfStmt	-0.26196077
-1.2034893	ThisExpr IfStmt	-0.26918763
-1.3498484	LongLiteralExpr IfStmt	-0.2675712
-1.0715029	CharLiteralExpr IfStmt	-0.26196077
-0.9923597	EmptyStmt IfStmt	-0.26196077
-0.44309074	DoStmt IfStmt	-0.2661618
-0.85938644	ContinueStmt IfStmt	-0.3312393
-1.69775	<s> ForStmt	-2.0806327
-1.7465761	ReturnStmt ForStmt	-0.26918763
-1.5776488	SimpleName ForStmt	-0.5043365
-1.650473	IntegerLiteralExpr ForStmt	-0.3089597
-1.7683325	StringLiteralExpr ForStmt	-0.26196077
-1.4442039	VoidType ForStmt	-0.26196077
-1.1151354	TryStmt ForStmt	-0.401462
-1.6006342	BooleanLiteralExpr ForStmt	-0.2675712
-1.4007766	ForStmt ForStmt	-0.2591921
-1.6266978	BreakStmt ForStmt	-0.26196077
-1.8172973	NullLiteralExpr ForStmt	-0.26196077
-1.388829	LambdaExpr ForStmt	-0.26196077
-1.6751912	ThisExpr ForStmt	-0.26196077
-1.5113183	LongLiteralExpr ForStmt	-0.26196077
-3.4123034	<s> WhileStmt	-0.5867637
-2.0105176	ReturnStmt WhileStmt	-0.26196077
-1.8561487	SimpleName WhileStmt	-0.29222924
-2.045203	IntegerLiteralExpr WhileStmt	-0.26196077
-1.4768631	VoidType WhileStmt	-0.26196077
-1.2639008	TryStmt WhileStmt	-0.25369292
-1.8800937	BooleanLiteralExpr WhileStmt	-0.26196077
-1.7721816	ForStmt WhileStmt	-0.26196077
-1.7315876	NullLiteralExpr WhileStmt	-0.2675712
-1.711791	LongLiteralExpr WhileStmt	-0.26196077
-1.3401791	CharLiteralExpr WhileStmt	-0.26196077
-2.062556	ReturnStmt BreakStmt	-0.26196077
-1.987622	SimpleName BreakStmt	-0.27742317
-2.1005347	IntegerLiteralExpr BreakStmt	-0.26196077
-1.7307572	StringLiteralExpr BreakStmt	-0.26196077
-1.776342	BooleanLiteralExpr BreakStmt	-0.26196077
-1.485717	BreakStmt BreakStmt	-0.2675712
-1.9227982	NullLiteralExpr BreakStmt	-0.26196077
-1.7512923	LongLiteralExpr BreakStmt	-0.26196077
-1.4880261	ContinueStmt BreakStmt	-0.26196077
-1.3237855	ReturnStmt NullLiteralExpr	-0.35392472
-1.6905969	SimpleName NullLiteralExpr	-0.31710553
-1.8284159	ExpressionStmt NullLiteralExpr	-0.26196077
-1.4634105	IntegerLiteralExpr NullLiteralExpr	-0.30733106
-1.3264008	Name NullLiteralExpr	-0.26196077
-1.6636069	StringLiteralExpr NullLiteralExpr	-0.2675712
-1.8509938	BinaryExpr NullLiteralExpr	-0.2675712
-1.4548197	VoidType NullLiteralExpr	-0.26196077
-1.7102195	BooleanLiteralExpr NullLiteralExpr	-0.26475692
-1.1039145	ArrayInitializerExpr NullLiteralExpr	-0.26196077
-1.4279841	NullLiteralExpr NullLiteralExpr	-0.260113
-1.6922476	ThisExpr NullLiteralExpr	-0.26196077
-1.6755848	LongLiteralExpr NullLiteralExpr	-0.26196077
-1.8227347	MethodCallExpr ClassExpr	-0.2509716
-1.5984925	SimpleName ClassExpr	-0.7738503
-2.2807899	IntegerLiteralExpr ClassExpr	-0.26196077
-2.0325842	StringLiteralExpr ClassExpr	-0.26196077
-1.5364585	<s> ThrowStmt	-2.295579
-1.7759423	SimpleName ThrowStmt	-0.359176
-1.8399353	IntegerLiteralExpr ThrowStmt	-0.25533393
-1.6958854	StringLiteralExpr ThrowStmt	-0.2661618
-1.4768631	VoidType ThrowStmt	-0.26196077
-1.8070803	TryStmt ThrowStmt	-0.26196077
-1.6379335	BooleanLiteralExpr ThrowStmt	-0.25369292
-1.3637891	PrimitiveType ThrowStmt	-0.26196077
-1.7315876	NullLiteralExpr ThrowStmt	-0.26870206
-1.4111317	LambdaExpr ThrowStmt	-0.26196077
-1.711791	LongLiteralExpr ThrowStmt	-0.26196077
-1.9884739	ReturnStmt LambdaExpr	-0.27040386
-1.6346211	SimpleName LambdaExpr	-0.42276478
-2.043516	IntegerLiteralExpr LambdaExpr	-0.2675712
-2.001103	NullLiteralExpr LambdaExpr	-0.26196077
-1.4510539	LambdaExpr LambdaExpr	-0.26196077
-1.6358608	ThisExpr LambdaExpr	-0.26196077
-0.97573817	Parameter UnknownType	-0.27040386
-1.9236413	ReturnStmt CatchClause	-0.27040386
-1.7975435	SimpleName CatchClause	-0.5520016
-2.1005347	IntegerLiteralExpr CatchClause	-0.26196077
-1.8806626	StringLiteralExpr CatchClause	-0.26196077
-1.776342	BooleanLiteralExpr CatchClause	-0.27040386
-1.3466527	BreakStmt CatchClause	-0.2509716
-1.7634865	NullLiteralExpr CatchClause	-0.27040386
-1.7680831	ThisExpr CatchClause	-0.26196077
-1.2568593	ContinueStmt CatchClause	-0.27040386
-1.5253854	<s> $EMPTY$	-2.7300189
-1.7741395	ReturnStmt ThisExpr	-0.25369292
-1.4228073	MethodCallExpr ThisExpr	-0.2591921
-1.6993409	SimpleName ThisExpr	-0.3148349
-2.0199742	IntegerLiteralExpr ThisExpr	-0.26196077
-2.0275853	BinaryExpr ThisExpr	-0.26196077
-0.89753455	FieldAccessExpr ThisExpr	-0.5547229
-1.8579922	BooleanLiteralExpr ThisExpr	-0.26196077
-1.8564783	NullLiteralExpr ThisExpr	-0.26196077
-1.438015	ThisExpr ThisExpr	-0.26029742
-1.1837275	InstanceOfExpr ThisExpr	-0.27040386
-1.6933107	LongLiteralExpr ThisExpr	-0.26196077
-0.367068	SynchronizedStmt ThisExpr	-0.42978418
-2.0423985	SimpleName FieldDeclaration	-0.25369292
-2.1995218	IntegerLiteralExpr FieldDeclaration	-0.26196077
-1.9653196	StringLiteralExpr FieldDeclaration	-0.26196077
-1.5374277	VoidType FieldDeclaration	-0.26196077
-2.0114727	BooleanLiteralExpr FieldDeclaration	-0.26196077
-1.8182254	LongLiteralExpr FieldDeclaration	-0.26196077
-2.4433208	SimpleName WildcardType	-0.26348373
-1.3568974	WildcardType WildcardType	-0.26196077
-1.9441953	ReturnStmt InstanceOfExpr	-0.27040386
-1.8959378	SimpleName InstanceOfExpr	-0.35265878
-2.0840647	ExpressionStmt InstanceOfExpr	-0.26196077
-2.1310904	IntegerLiteralExpr InstanceOfExpr	-0.26196077
-1.9070895	StringLiteralExpr InstanceOfExpr	-0.26196077
-1.7806447	BinaryExpr InstanceOfExpr	-0.2675712
-1.2534225	EnclosedExpr InstanceOfExpr	-0.25533393
-0.968132	IfStmt InstanceOfExpr	-0.52875006
-2.0647125	ReturnStmt MethodReferenceExpr	-0.27040386
-1.8696547	SimpleName MethodReferenceExpr	-0.49673098
-2.3279443	IntegerLiteralExpr MethodReferenceExpr	-0.26196077
-0.46371818	MethodReferenceExpr TypeExpr	-0.25369292
-2.6129117	<s> ForEachStmt	-1.6489116
-1.84996	ReturnStmt ForEachStmt	-0.27040386
-1.8315136	SimpleName ForEachStmt	-0.47282034
-1.6610687	IntegerLiteralExpr ForEachStmt	-0.3759103
-1.7885935	StringLiteralExpr ForEachStmt	-0.26196077
-1.4548197	VoidType ForEachStmt	-0.26196077
-1.5920991	TryStmt ForEachStmt	-0.27040386
-1.6127149	BooleanLiteralExpr ForEachStmt	-0.2509716
-1.6391691	BreakStmt ForEachStmt	-0.26196077
-1.8364462	NullLiteralExpr ForEachStmt	-0.26196077
-1.6922476	ThisExpr ForEachStmt	-0.26196077
-1.5233834	LongLiteralExpr ForEachStmt	-0.27040386
-1.3233486	CharLiteralExpr ForEachStmt	-0.26196077
-1.6338027	ReturnStmt LongLiteralExpr	-0.26531833
-1.7173756	SimpleName LongLiteralExpr	-0.30965284
-1.9506832	IntegerLiteralExpr LongLiteralExpr	-0.26196077
-1.8863952	BinaryExpr LongLiteralExpr	-0.27040386
-1.4883192	VoidType LongLiteralExpr	-0.26196077
-1.9033808	BooleanLiteralExpr LongLiteralExpr	-0.26196077
-1.5177294	UnaryExpr LongLiteralExpr	-0.2643564
-1.8995479	NullLiteralExpr LongLiteralExpr	-0.26196077
-1.7478471	ThisExpr LongLiteralExpr	-0.26196077
-1.5617299	LongLiteralExpr LongLiteralExpr	-0.2696295
-1.4608011	MethodCallExpr SuperExpr	-0.47282034
-0.9170378	VariableDeclarationExpr SingleMemberAnnotationExpr	-0.27040386
-1.1319519	MethodDeclaration SingleMemberAnnotationExpr	-0.27040386
-1.3963345	Name SingleMemberAnnotationExpr	-0.26196077
-1.3336384	Modifier SingleMemberAnnotationExpr	-0.26196077
-1.2687707	FieldDeclaration SingleMemberAnnotationExpr	-0.26196077
-4.298855	<s> SwitchStmt	-0.2509716
-2.3354375	SimpleName SwitchStmt	-0.27040386
-2.2382576	IntegerLiteralExpr SwitchStmt	-0.26196077
-2.043294	BooleanLiteralExpr SwitchStmt	-0.26196077
-1.8600222	ThisExpr SwitchStmt	-0.26196077
-2.3354375	SimpleName SwitchEntry	-0.26531833
-1.997651	StringLiteralExpr SwitchEntry	-0.26196077
-1.8543719	BooleanLiteralExpr SwitchEntry	-0.2661618
-1.5228007	BreakStmt SwitchEntry	-0.27040386
-1.5262349	ContinueStmt SwitchEntry	-0.26196077
-1.9061404	ReturnStmt ArrayCreationExpr	-0.25864044
-1.6501137	SimpleName ArrayCreationExpr	-0.51421297
-2.098619	IntegerLiteralExpr ArrayCreationExpr	-0.2675712
-2.0624435	NullLiteralExpr ArrayCreationExpr	-0.26196077
-2.5883594	SimpleName ArrayCreationLevel	-0.26196077
-1.4428642	PrimitiveType ArrayCreationLevel	-0.26196077
-1.0937634	WildcardType ArrayCreationLevel	-0.26196077
-2.2987962	SimpleName CharLiteralExpr	-0.2661618
-2.3279443	IntegerLiteralExpr CharLiteralExpr	-0.26196077
-1.4148961	CharLiteralExpr CharLiteralExpr	-0.26196077
-1.9884739	ReturnStmt ConditionalExpr	-0.2675712
-2.0423985	SimpleName ConditionalExpr	-0.25574878
-2.1154766	ExpressionStmt ConditionalExpr	-0.26196077
-1.6492764	EnclosedExpr ConditionalExpr	-0.26196077
-2.1181748	IfStmt ConditionalExpr	-0.26196077
-1.8351494	ThisExpr ConditionalExpr	-0.26196077
-2.4194934	SimpleName EmptyStmt	-0.26196077
-2.3279443	IntegerLiteralExpr EmptyStmt	-0.26196077
-2.0705752	StringLiteralExpr EmptyStmt	-0.26196077
-2.1050947	SimpleName DoStmt	-0.3759103
-2.3279443	IntegerLiteralExpr DoStmt	-0.26196077
-2.1149201	BooleanLiteralExpr DoStmt	-0.26196077
-2.1545787	ReturnStmt ContinueStmt	-0.26196077
-2.298815	SimpleName ContinueStmt	-0.265693
-2.1995218	IntegerLiteralExpr ContinueStmt	-0.26196077
-1.9653196	StringLiteralExpr ContinueStmt	-0.26196077
-2.0114727	BooleanLiteralExpr ContinueStmt	-0.26196077
-2.001103	NullLiteralExpr ContinueStmt	-0.26196077
-2.91789	<s> SynchronizedStmt	-1.052604
-1.9884739	ReturnStmt SynchronizedStmt	-0.27040386
-1.9246452	SimpleName SynchronizedStmt	-0.3759103
-2.043516	IntegerLiteralExpr SynchronizedStmt	-0.27040386
-1.5374277	VoidType SynchronizedStmt	-0.26196077
-1.8335112	BooleanLiteralExpr SynchronizedStmt	-0.27040386
-2.3167207	SimpleName LabeledStmt	-0.2509716
-2.3535917	IntegerLiteralExpr LabeledStmt	-0.26196077
-2.662798	SimpleName LocalClassDeclarationStmt	-0.26196077
-0.2975051	LocalClassDeclarationStmt ClassOrInterfaceDeclaration	-0.26196077

\3-grams:
-1.5323322	SimpleName ReturnStmt </s>	0
-1.4513441	IntegerLiteralExpr ReturnStmt </s>	0
-1.4561497	NullLiteralExpr ReturnStmt </s>	0
-1.0461557	ThisExpr ReturnStmt </s>	0
-1.3734566	MethodCallExpr SimpleName </s>	0
-1.2499751	NameExpr SimpleName </s>	0
-1.2765436	SimpleName SimpleName </s>	0
-1.3167944	ClassOrInterfaceType SimpleName </s>	0
-1.1698425	IntegerLiteralExpr SimpleName </s>	0
-1.4039938	StringLiteralExpr SimpleName </s>	0
-0.9460542	VoidType SimpleName </s>	0
-1.209857	BooleanLiteralExpr SimpleName </s>	0
-0.91551715	NullLiteralExpr SimpleName </s>	0
-0.7604073	LambdaExpr SimpleName </s>	0
-1.1950783	UnknownType SimpleName </s>	0
-1.2038414	ThisExpr SimpleName </s>	0
-1.0531795	LongLiteralExpr SimpleName </s>	0
-1.0082066	SuperExpr SimpleName </s>	0
-1.0528297	ReturnStmt IntegerLiteralExpr </s>	0
-1.2448214	SimpleName IntegerLiteralExpr </s>	0
-1.0461273	ExpressionStmt IntegerLiteralExpr </s>	0
-0.95408106	IntegerLiteralExpr IntegerLiteralExpr </s>	0
-1.0022081	StringLiteralExpr IntegerLiteralExpr </s>	0
-1.0483232	BooleanLiteralExpr IntegerLiteralExpr </s>	0
-1.1540798	UnaryExpr IntegerLiteralExpr </s>	0
-1.1828654	NullLiteralExpr IntegerLiteralExpr </s>	0
-0.7341311	LongLiteralExpr IntegerLiteralExpr </s>	0
-1.1276901	ArrayCreationLevel IntegerLiteralExpr </s>	0
-1.0757846	ThisExpr Name </s>	0
-0.78347063	ReturnStmt StringLiteralExpr </s>	0
-1.190208	SimpleName StringLiteralExpr </s>	0
-0.97093236	IntegerLiteralExpr StringLiteralExpr </s>	0
-1.183309	StringLiteralExpr StringLiteralExpr </s>	0
-0.307446	LongLiteralExpr StringLiteralExpr </s>	0
-1.1476203	SimpleName VoidType </s>	0
-0.81278634	ReturnStmt BooleanLiteralExpr </s>	0
-1.1393596	SimpleName BooleanLiteralExpr </s>	0
-0.8671201	ExpressionStmt BooleanLiteralExpr </s>	0
-0.98510003	IntegerLiteralExpr BooleanLiteralExpr </s>	0
-0.9575715	StringLiteralExpr BooleanLiteralExpr </s>	0
-0.5653912	VoidType BooleanLiteralExpr </s>	0
-1.149262	BooleanLiteralExpr BooleanLiteralExpr </s>	0
-0.70655805	NullLiteralExpr BooleanLiteralExpr </s>	0
-0.96785486	SimpleName DoubleLiteralExpr </s>	0
-0.54619443	IntegerLiteralExpr DoubleLiteralExpr </s>	0
-0.8284538	DoubleLiteralExpr DoubleLiteralExpr </s>	0
-0.9949433	SimpleName BreakStmt </s>	0
-0.8748325	IntegerLiteralExpr BreakStmt </s>	0
-0.80673534	StringLiteralExpr BreakStmt </s>	0
-0.96850425	BooleanLiteralExpr BreakStmt </s>	0
-0.69979763	ReturnStmt NullLiteralExpr </s>	0
-1.0760071	SimpleName NullLiteralExpr </s>	0
-0.7977058	IntegerLiteralExpr NullLiteralExpr </s>	0
-0.93378973	StringLiteralExpr NullLiteralExpr </s>	0
-0.93279743	BooleanLiteralExpr NullLiteralExpr </s>	0
-0.71558976	ThisExpr NullLiteralExpr </s>	0
-0.30587998	LongLiteralExpr NullLiteralExpr </s>	0
-1.4372987	SimpleName LambdaExpr </s>	0
-0.00039136506	<s> $EMPTY$ </s>	0
-0.4280535	ReturnStmt ThisExpr </s>	0
-0.98058426	SimpleName ThisExpr </s>	0
-0.7118271	BooleanLiteralExpr ThisExpr </s>	0
-0.5691916	NullLiteralExpr ThisExpr </s>	0
-0.8663115	ThisExpr ThisExpr </s>	0
-0.65977526	ReturnStmt LongLiteralExpr </s>	0
-1.1357627	SimpleName LongLiteralExpr </s>	0
-0.31274125	VoidType LongLiteralExpr </s>	0
-0.93019015	LongLiteralExpr LongLiteralExpr </s>	0
-1.187456	SimpleName CharLiteralExpr </s>	0
-0.6121714	SimpleName EmptyStmt </s>	0
-0.26264587	IntegerLiteralExpr EmptyStmt </s>	0
-1.9402826	SimpleName ReturnStmt ReturnStmt	-0.22512385
-1.4712886	MethodCallExpr SimpleName ReturnStmt	-0.2545724
-1.3939501	NameExpr SimpleName ReturnStmt	-0.37435213
-1.8737308	SimpleName SimpleName ReturnStmt	-0.2419408
-1.5606723	ClassOrInterfaceType SimpleName ReturnStmt	-0.26570603
-1.2904803	UnknownType SimpleName ReturnStmt	-0.22512385
-1.6238109	ThisExpr SimpleName ReturnStmt	-0.22512385
-1.2354007	ReturnStmt IntegerLiteralExpr ReturnStmt	-0.25594932
-1.674741	SimpleName IntegerLiteralExpr ReturnStmt	-0.24590635
-1.5774622	IntegerLiteralExpr IntegerLiteralExpr ReturnStmt	-0.24542914
-1.1201011	ArrayInitializerExpr IntegerLiteralExpr ReturnStmt	-0.22512385
-1.2498902	UnaryExpr IntegerLiteralExpr ReturnStmt	-0.22512385
-1.218115	ArrayCreationLevel IntegerLiteralExpr ReturnStmt	-0.22512385
-1.0344098	ReturnStmt StringLiteralExpr ReturnStmt	-0.24026316
-1.4634244	SimpleName StringLiteralExpr ReturnStmt	-0.23635839
-1.4799912	StringLiteralExpr StringLiteralExpr ReturnStmt	-0.22512385
-1.5467218	SimpleName VoidType ReturnStmt	-0.22512385
-1.7610745	<s> TryStmt ReturnStmt	-0.6570077
-1.3323263	SimpleName TryStmt ReturnStmt	-0.22512385
-0.84145266	StringLiteralExpr TryStmt ReturnStmt	-0.22512385
-1.0190809	NullLiteralExpr TryStmt ReturnStmt	-0.22512385
-1.1299863	ReturnStmt BooleanLiteralExpr ReturnStmt	-0.24803542
-1.5117048	SimpleName BooleanLiteralExpr ReturnStmt	-0.2357649
-1.4053735	BooleanLiteralExpr BooleanLiteralExpr ReturnStmt	-0.22512385
-0.69477266	SimpleName PrimitiveType ReturnStmt	-0.22984946
-0.97210085	ArrayType PrimitiveType ReturnStmt	-0.22512385
-1.332825	SimpleName BreakStmt ReturnStmt	-0.22512385
-0.9303047	IntegerLiteralExpr BreakStmt ReturnStmt	-0.22512385
-0.8537042	StringLiteralExpr BreakStmt ReturnStmt	-0.22512385
-1.277728	ReturnStmt NullLiteralExpr ReturnStmt	-0.2371928
-1.2863883	SimpleName NullLiteralExpr ReturnStmt	-0.23456703
-1.3677402	IntegerLiteralExpr NullLiteralExpr ReturnStmt	-0.22512385
-1.0161189	StringLiteralExpr NullLiteralExpr ReturnStmt	-0.22512385
-0.86988556	ReturnStmt ThisExpr ReturnStmt	-0.22512385
-1.4272747	SimpleName ThisExpr ReturnStmt	-0.2371928
-1.1761075	ThisExpr ThisExpr ReturnStmt	-0.22512385
-1.1475465	SimpleName WildcardType ReturnStmt	-0.22512385
-0.96750194	ReturnStmt LongLiteralExpr ReturnStmt	-0.22512385
-1.621543	SimpleName LongLiteralExpr ReturnStmt	-0.22512385
-0.7975438	SimpleName SwitchEntry ReturnStmt	-0.22512385
-0.5289981	StringLiteralExpr SwitchEntry ReturnStmt	-0.22512385
-0.7401639	BooleanLiteralExpr SwitchEntry ReturnStmt	-0.22512385
-0.29749122	<s> ReturnStmt MethodCallExpr	-2.4559984
-1.0066384	SimpleName ReturnStmt MethodCallExpr	-0.32818848
-0.801391	IntegerLiteralExpr ReturnStmt MethodCallExpr	-0.3051212
-0.92283833	StringLiteralExpr ReturnStmt MethodCallExpr	-0.22866322
-0.209183	TryStmt ReturnStmt MethodCallExpr	-0.35597768
-0.98160887	BooleanLiteralExpr ReturnStmt MethodCallExpr	-0.25594932
-0.8463421	PrimitiveType ReturnStmt MethodCallExpr	-0.24542914
-1.036988	NullLiteralExpr ReturnStmt MethodCallExpr	-0.25594932
-0.90201944	ThisExpr ReturnStmt MethodCallExpr	-0.22512385
-0.29836655	WildcardType ReturnStmt MethodCallExpr	-0.22512385
-0.8516191	LongLiteralExpr ReturnStmt MethodCallExpr	-0.22512385
-0.696546	SwitchEntry ReturnStmt MethodCallExpr	-0.22512385
-0.66984874	ReturnStmt MethodCallExpr MethodCallExpr	-0.3751855
-0.63691276	MethodCallExpr MethodCallExpr MethodCallExpr	-0.5036682
-0.78518105	SimpleName MethodCallExpr MethodCallExpr	-0.46703196
-0.79389054	ExpressionStmt MethodCallExpr MethodCallExpr	-0.61267376
-0.9253527	IntegerLiteralExpr MethodCallExpr MethodCallExpr	-0.23628591
-0.7176755	StringLiteralExpr MethodCallExpr MethodCallExpr	-0.24255042
-1.0196358	BinaryExpr MethodCallExpr MethodCallExpr	-0.23817447
-0.78224576	FieldAccessExpr MethodCallExpr MethodCallExpr	-0.24542914
-0.69550765	EnclosedExpr MethodCallExpr MethodCallExpr	-0.22512385
-0.50073445	PrimitiveType MethodCallExpr MethodCallExpr	-0.22512385
-0.62149477	ArrayInitializerExpr MethodCallExpr MethodCallExpr	-0.22512385
-0.75645053	UnaryExpr MethodCallExpr MethodCallExpr	-0.30784446
-0.6899981	ArrayAccessExpr MethodCallExpr MethodCallExpr	-0.22512385
-0.8906053	IfStmt MethodCallExpr MethodCallExpr	-0.38696033
-0.91632354	NullLiteralExpr MethodCallExpr MethodCallExpr	-0.22512385
-0.6630851	InstanceOfExpr MethodCallExpr MethodCallExpr	-0.22866322
-0.69550765	LongLiteralExpr MethodCallExpr MethodCallExpr	-0.22512385
-1.1062744	MethodCallExpr SimpleName MethodCallExpr	-0.42237452
-1.3194475	NameExpr SimpleName MethodCallExpr	-0.46478897
-1.2928857	SimpleName SimpleName MethodCallExpr	-0.3595308
-1.4122117	ClassOrInterfaceType SimpleName MethodCallExpr	-0.37657183
-1.0799246	IntegerLiteralExpr SimpleName MethodCallExpr	-0.39548376
-1.035596	Name SimpleName MethodCallExpr	-0.22512385
-1.1161214	StringLiteralExpr SimpleName MethodCallExpr	-0.23817447
-0.9269504	VoidType SimpleName MethodCallExpr	-0.22512385
-0.90602213	BooleanLiteralExpr SimpleName MethodCallExpr	-0.5990157
-1.233211	PrimitiveType SimpleName MethodCallExpr	-0.24246965
-1.182347	NullLiteralExpr SimpleName MethodCallExpr	-0.25594932
-0.7478537	LambdaExpr SimpleName MethodCallExpr	-0.22512385
-1.2532152	ThisExpr SimpleName MethodCallExpr	-0.25594932
-1.0285605	WildcardType SimpleName MethodCallExpr	-0.2371928
-1.0292685	LongLiteralExpr SimpleName MethodCallExpr	-0.25594932
-0.7478537	CharLiteralExpr SimpleName MethodCallExpr	-0.22512385
-0.24286954	<s> ExpressionStmt MethodCallExpr	-2.903072
-0.5491952	ReturnStmt ExpressionStmt MethodCallExpr	-0.36465603
-0.51391613	SimpleName ExpressionStmt MethodCallExpr	-0.55713665
-0.35297492	IntegerLiteralExpr ExpressionStmt MethodCallExpr	-0.49375266
-0.44792157	Name ExpressionStmt MethodCallExpr	-0.22512385
-0.6944487	StringLiteralExpr ExpressionStmt MethodCallExpr	-0.23322673
-0.61389023	VoidType ExpressionStmt MethodCallExpr	-0.22512385
-0.37950864	TryStmt ExpressionStmt MethodCallExpr	-0.5463337
-0.4561134	BooleanLiteralExpr ExpressionStmt MethodCallExpr	-0.43456376
-0.44792157	PrimitiveType ExpressionStmt MethodCallExpr	-0.22512385
-0.4445693	DoubleLiteralExpr ExpressionStmt MethodCallExpr	-0.24026316
-1.0895425	ForStmt ExpressionStmt MethodCallExpr	-0.22512385
-0.7080413	BreakStmt ExpressionStmt MethodCallExpr	-0.29370296
-0.3641534	NullLiteralExpr ExpressionStmt MethodCallExpr	-0.46731836
-0.42762905	LambdaExpr ExpressionStmt MethodCallExpr	-0.24255042
-0.4263395	ThisExpr ExpressionStmt MethodCallExpr	-0.32001355
-0.31084234	LongLiteralExpr ExpressionStmt MethodCallExpr	-0.34864852
-0.35916367	SwitchEntry ExpressionStmt MethodCallExpr	-0.22512385
-0.5307093	CharLiteralExpr ExpressionStmt MethodCallExpr	-0.24026316
-0.44792157	DoStmt ExpressionStmt MethodCallExpr	-0.22512385
-0.70282865	ContinueStmt ExpressionStmt MethodCallExpr	-0.24542914
-1.2314537	ReturnStmt IntegerLiteralExpr MethodCallExpr	-0.22512385
-1.2162828	SimpleName IntegerLiteralExpr MethodCallExpr	-0.39655262
-1.0177808	ExpressionStmt IntegerLiteralExpr MethodCallExpr	-0.22512385
-1.2228515	IntegerLiteralExpr IntegerLiteralExpr MethodCallExpr	-0.3051212
-1.1445017	StringLiteralExpr IntegerLiteralExpr MethodCallExpr	-0.22512385
-0.87623966	BinaryExpr IntegerLiteralExpr MethodCallExpr	-0.35597768
-1.183178	BooleanLiteralExpr IntegerLiteralExpr MethodCallExpr	-0.22512385
-1.0186433	ArrayInitializerExpr IntegerLiteralExpr MethodCallExpr	-0.22512385
-1.2426648	UnaryExpr IntegerLiteralExpr MethodCallExpr	-0.22512385
-1.1472615	NullLiteralExpr IntegerLiteralExpr MethodCallExpr	-0.22512385
-1.0936677	ArrayCreationLevel IntegerLiteralExpr MethodCallExpr	-0.22512385
-1.2795372	SimpleName StringLiteralExpr MethodCallExpr	-0.33150208
-1.190983	IntegerLiteralExpr StringLiteralExpr MethodCallExpr	-0.22512385
-1.2028345	StringLiteralExpr StringLiteralExpr MethodCallExpr	-0.24026316
-0.9465265	BinaryExpr StringLiteralExpr MethodCallExpr	-0.2474861
-0.9291813	ReturnStmt BinaryExpr MethodCallExpr	-0.2815404
-0.9192425	SimpleName BinaryExpr MethodCallExpr	-0.3503619
-0.97888803	IntegerLiteralExpr BinaryExpr MethodCallExpr	-0.24542914
-0.75855076	StringLiteralExpr BinaryExpr MethodCallExpr	-0.22512385
-0.8000026	BinaryExpr BinaryExpr MethodCallExpr	-0.42292446
-0.8081442	EnclosedExpr BinaryExpr MethodCallExpr	-0.4528877
-0.73198104	IfStmt BinaryExpr MethodCallExpr	-0.6711917
-0.79507506	WhileStmt BinaryExpr MethodCallExpr	-0.36311316
-0.8172762	NullLiteralExpr BinaryExpr MethodCallExpr	-0.22512385
-0.5403229	ThisExpr BinaryExpr MethodCallExpr	-0.22512385
-0.8651272	ArrayCreationLevel BinaryExpr MethodCallExpr	-0.22512385
-0.8533746	ConditionalExpr BinaryExpr MethodCallExpr	-0.25594932
-1.0430487	ReturnStmt FieldAccessExpr MethodCallExpr	-0.22512385
-0.99476945	MethodCallExpr FieldAccessExpr MethodCallExpr	-0.24542914
-1.0672523	SimpleName FieldAccessExpr MethodCallExpr	-0.24542914
-1.1117057	IntegerLiteralExpr FieldAccessExpr MethodCallExpr	-0.22512385
-0.99069804	BinaryExpr FieldAccessExpr MethodCallExpr	-0.23103896
-0.29028356	EnclosedExpr FieldAccessExpr MethodCallExpr	-0.22512385
-1.4960066	ReturnStmt BooleanLiteralExpr MethodCallExpr	-0.22512385
-1.4658089	SimpleName BooleanLiteralExpr MethodCallExpr	-0.25594932
-1.2807766	IntegerLiteralExpr BooleanLiteralExpr MethodCallExpr	-0.22512385
-1.3067597	BooleanLiteralExpr BooleanLiteralExpr MethodCallExpr	-0.22512385
-0.9294099	SimpleName EnclosedExpr MethodCallExpr	-0.22512385
-0.8254689	IntegerLiteralExpr EnclosedExpr MethodCallExpr	-0.22512385
-1.2599715	BinaryExpr EnclosedExpr MethodCallExpr	-0.22512385
-1.0091399	CastExpr PrimitiveType MethodCallExpr	-0.24542914
-0.9448595	SimpleName ArrayInitializerExpr MethodCallExpr	-0.22512385
-0.8500755	ArrayCreationLevel ArrayInitializerExpr MethodCallExpr	-0.24542914
-0.7548866	ReturnStmt UnaryExpr MethodCallExpr	-0.25594932
-0.9523065	SimpleName UnaryExpr MethodCallExpr	-0.25594932
-0.63164496	IntegerLiteralExpr UnaryExpr MethodCallExpr	-0.24542914
-0.6708472	StringLiteralExpr UnaryExpr MethodCallExpr	-0.22512385
-0.46502268	BinaryExpr UnaryExpr MethodCallExpr	-0.3264626
-0.4421443	IfStmt UnaryExpr MethodCallExpr	-0.4978335
-0.18885545	WhileStmt UnaryExpr MethodCallExpr	-0.5990157
-0.4846738	NullLiteralExpr UnaryExpr MethodCallExpr	-0.22512385
-0.9484285	MethodCallExpr ArrayAccessExpr MethodCallExpr	-0.22512385
-0.7992529	SimpleName ArrayAccessExpr MethodCallExpr	-0.23103896
-0.63418823	IntegerLiteralExpr ArrayAccessExpr MethodCallExpr	-0.22512385
-0.9484285	BinaryExpr ArrayAccessExpr MethodCallExpr	-0.22512385
-0.51772845	<s> IfStmt MethodCallExpr	-1.8947445
-0.6285739	ReturnStmt IfStmt MethodCallExpr	-0.23103896
-0.8507305	SimpleName IfStmt MethodCallExpr	-0.2912187
-0.6764198	IntegerLiteralExpr IfStmt MethodCallExpr	-0.25594932
-0.4496786	StringLiteralExpr IfStmt MethodCallExpr	-0.23378056
-0.6991224	VoidType IfStmt MethodCallExpr	-0.22512385
-0.8359873	TryStmt IfStmt MethodCallExpr	-0.22955261
-0.7111819	BooleanLiteralExpr IfStmt MethodCallExpr	-0.24083231
-0.4458319	ForStmt IfStmt MethodCallExpr	-0.4942804
-0.71929604	BreakStmt IfStmt MethodCallExpr	-0.3264626
-0.69547963	NullLiteralExpr IfStmt MethodCallExpr	-0.2496067
-0.61986536	ThisExpr IfStmt MethodCallExpr	-0.25594932
-0.7365331	LongLiteralExpr IfStmt MethodCallExpr	-0.22512385
-0.58449066	CharLiteralExpr IfStmt MethodCallExpr	-0.22512385
-0.2500493	EmptyStmt IfStmt MethodCallExpr	-0.22512385
-0.46849048	DoStmt IfStmt MethodCallExpr	-0.24542914
-0.54320484	ContinueStmt IfStmt MethodCallExpr	-0.22866322
-0.8577224	SimpleName WhileStmt MethodCallExpr	-0.23103896
-0.8405383	IntegerLiteralExpr WhileStmt MethodCallExpr	-0.22512385
-1.2706058	ReturnStmt NullLiteralExpr MethodCallExpr	-0.22512385
-1.2349131	SimpleName NullLiteralExpr MethodCallExpr	-0.22955261
-0.5666871	ExpressionStmt NullLiteralExpr MethodCallExpr	-0.22512385
-1.0501496	IntegerLiteralExpr NullLiteralExpr MethodCallExpr	-0.25594932
-0.7096292	BinaryExpr NullLiteralExpr MethodCallExpr	-0.22512385
-0.86859274	ArrayInitializerExpr NullLiteralExpr MethodCallExpr	-0.22512385
-1.0210711	NullLiteralExpr NullLiteralExpr MethodCallExpr	-0.22512385
-2.8492115	<s> ThrowStmt MethodCallExpr	-0.22512385
-0.76477724	SimpleName ThrowStmt MethodCallExpr	-0.24083231
-0.7225414	IntegerLiteralExpr ThrowStmt MethodCallExpr	-0.22512385
-0.67851126	StringLiteralExpr ThrowStmt MethodCallExpr	-0.22512385
-0.2594122	TryStmt ThrowStmt MethodCallExpr	-0.22512385
-0.55092597	NullLiteralExpr ThrowStmt MethodCallExpr	-0.24542914
-1.4800954	SimpleName ThisExpr MethodCallExpr	-0.25594932
-1.1189713	SimpleName WildcardType MethodCallExpr	-0.22512385
-0.47935653	SimpleName InstanceOfExpr MethodCallExpr	-0.29798573
-0.45639455	StringLiteralExpr InstanceOfExpr MethodCallExpr	-0.22512385
-0.56454194	BinaryExpr InstanceOfExpr MethodCallExpr	-0.22512385
-0.41071746	EnclosedExpr InstanceOfExpr MethodCallExpr	-0.25594932
-0.81131124	IfStmt InstanceOfExpr MethodCallExpr	-0.22512385
-1.2037317	SimpleName LongLiteralExpr MethodCallExpr	-0.23817447
-1.0628902	UnaryExpr LongLiteralExpr MethodCallExpr	-0.22512385
-0.8946078	SimpleName ArrayCreationLevel MethodCallExpr	-0.22512385
-0.8459926	PrimitiveType ArrayCreationLevel MethodCallExpr	-0.22512385
-1.1589756	SimpleName CharLiteralExpr MethodCallExpr	-0.22512385
-0.80435187	SimpleName ConditionalExpr MethodCallExpr	-0.25594932
-1.002107	<s> ReturnStmt NameExpr	-2.547708
-1.1186348	SimpleName ReturnStmt NameExpr	-0.4528877
-1.0903486	IntegerLiteralExpr ReturnStmt NameExpr	-0.25594932
-1.0565397	StringLiteralExpr ReturnStmt NameExpr	-0.25594932
-0.30808613	VoidType ReturnStmt NameExpr	-0.22512385
-1.0302695	BooleanLiteralExpr ReturnStmt NameExpr	-0.25594932
-0.8814033	PrimitiveType ReturnStmt NameExpr	-0.25594932
-0.72127944	BreakStmt ReturnStmt NameExpr	-0.22512385
-1.092592	NullLiteralExpr ReturnStmt NameExpr	-0.25594932
-0.4402308	ReturnStmt MethodCallExpr NameExpr	-0.7953104
-0.48899767	MethodCallExpr MethodCallExpr NameExpr	-0.9580377
-0.496736	SimpleName MethodCallExpr NameExpr	-0.93000895
-0.6014761	ExpressionStmt MethodCallExpr NameExpr	-1.076137
-0.27743852	IntegerLiteralExpr MethodCallExpr NameExpr	-0.7953104
-0.62525356	StringLiteralExpr MethodCallExpr NameExpr	-0.23103896
-0.36534888	BinaryExpr MethodCallExpr NameExpr	-0.83309895
-0.35603333	FieldAccessExpr MethodCallExpr NameExpr	-0.4528877
-0.24206363	BooleanLiteralExpr MethodCallExpr NameExpr	-0.35597768
-0.43822104	EnclosedExpr MethodCallExpr NameExpr	-0.25594932
-0.44298255	PrimitiveType MethodCallExpr NameExpr	-0.22512385
-0.3551849	ArrayInitializerExpr MethodCallExpr NameExpr	-0.25594932
-0.39245772	UnaryExpr MethodCallExpr NameExpr	-0.6570077
-0.33171645	ArrayAccessExpr MethodCallExpr NameExpr	-0.23103896
-0.41883996	IfStmt MethodCallExpr NameExpr	-0.9843666
-0.2254751	WhileStmt MethodCallExpr NameExpr	-0.25594932
-0.32317948	NullLiteralExpr MethodCallExpr NameExpr	-0.4528877
-0.33701944	ThrowStmt MethodCallExpr NameExpr	-0.4528877
-0.23131718	ThisExpr MethodCallExpr NameExpr	-0.22512385
-0.23131718	WildcardType MethodCallExpr NameExpr	-0.22512385
-0.32317948	InstanceOfExpr MethodCallExpr NameExpr	-0.4528877
-0.43822104	LongLiteralExpr MethodCallExpr NameExpr	-0.25594932
-0.2254751	ArrayCreationLevel MethodCallExpr NameExpr	-0.25594932
-0.23131718	CharLiteralExpr MethodCallExpr NameExpr	-0.22512385
-0.23131718	ConditionalExpr MethodCallExpr NameExpr	-0.22512385
-0.9530486	MethodCallExpr SimpleName NameExpr	-0.86786103
-1.2055814	NameExpr SimpleName NameExpr	-0.9580377
-1.2459933	SimpleName SimpleName NameExpr	-0.7081602
-1.340653	ClassOrInterfaceType SimpleName NameExpr	-0.53206897
-1.1431253	IntegerLiteralExpr SimpleName NameExpr	-0.53206897
-0.793918	Name SimpleName NameExpr	-0.25594932
-1.1110972	StringLiteralExpr SimpleName NameExpr	-0.23103896
-0.9236982	VoidType SimpleName NameExpr	-0.22512385
-1.3338001	BooleanLiteralExpr SimpleName NameExpr	-0.23103896
-1.3611691	PrimitiveType SimpleName NameExpr	-0.22512385
-1.0784355	NullLiteralExpr SimpleName NameExpr	-0.23103896
-0.7456978	LambdaExpr SimpleName NameExpr	-0.22512385
-1.1641755	ThisExpr SimpleName NameExpr	-0.23103896
-1.0245	WildcardType SimpleName NameExpr	-0.25594932
-1.025224	LongLiteralExpr SimpleName NameExpr	-0.25594932
-0.9825109	SuperExpr SimpleName NameExpr	-0.22512385
-1.8708158	SimpleName ExpressionStmt NameExpr	-0.22512385
-1.3055128	ReturnStmt IntegerLiteralExpr NameExpr	-0.22512385
-1.3163756	SimpleName IntegerLiteralExpr NameExpr	-0.53206897
-1.2719394	IntegerLiteralExpr IntegerLiteralExpr NameExpr	-0.35597768
-1.0156457	StringLiteralExpr IntegerLiteralExpr NameExpr	-0.25594932
-0.7643875	BinaryExpr IntegerLiteralExpr NameExpr	-0.4528877
-1.2443335	BooleanLiteralExpr IntegerLiteralExpr NameExpr	-0.22512385
-1.1731343	UnaryExpr IntegerLiteralExpr NameExpr	-0.25594932
-0.9171914	ThisExpr IntegerLiteralExpr NameExpr	-0.22512385
-1.0445364	ThisExpr Name NameExpr	-0.22512385
-1.3553637	SimpleName StringLiteralExpr NameExpr	-0.35597768
-0.97627693	IntegerLiteralExpr StringLiteralExpr NameExpr	-0.25594932
-1.1917052	StringLiteralExpr StringLiteralExpr NameExpr	-0.25594932
-0.9403925	BinaryExpr StringLiteralExpr NameExpr	-0.23103896
-0.7702198	ReturnStmt BinaryExpr NameExpr	-0.4528877
-0.7086543	SimpleName BinaryExpr NameExpr	-0.7081602
-0.6182395	ExpressionStmt BinaryExpr NameExpr	-0.22512385
-0.8203863	IntegerLiteralExpr BinaryExpr NameExpr	-0.23103896
-0.694116	StringLiteralExpr BinaryExpr NameExpr	-0.22512385
-0.63243765	BinaryExpr BinaryExpr NameExpr	-0.7953104
-0.49983662	BooleanLiteralExpr BinaryExpr NameExpr	-0.22512385
-0.68024486	EnclosedExpr BinaryExpr NameExpr	-0.53206897
-0.6354781	IfStmt BinaryExpr NameExpr	-1.0091902
-0.4950093	ForStmt BinaryExpr NameExpr	-0.25594932
-0.5995345	WhileStmt BinaryExpr NameExpr	-0.5990157
-0.7436037	NullLiteralExpr BinaryExpr NameExpr	-0.22512385
-0.49983662	ThisExpr BinaryExpr NameExpr	-0.22512385
-0.49983662	LongLiteralExpr BinaryExpr NameExpr	-0.22512385
-0.61400974	ArrayCreationLevel BinaryExpr NameExpr	-0.25594932
-0.2653489	CharLiteralExpr BinaryExpr NameExpr	-0.22512385
-0.534608	ConditionalExpr BinaryExpr NameExpr	-0.35597768
-0.19519271	ReturnStmt FieldAccessExpr NameExpr	-0.53206897
-0.26696876	MethodCallExpr FieldAccessExpr NameExpr	-0.7539177
-0.24372892	SimpleName FieldAccessExpr NameExpr	-0.7539177
-0.09254044	IntegerLiteralExpr FieldAccessExpr NameExpr	-0.6570077
-0.24549751	StringLiteralExpr FieldAccessExpr NameExpr	-0.23103896
-0.21552898	BinaryExpr FieldAccessExpr NameExpr	-0.7953104
-0.16276354	VoidType FieldAccessExpr NameExpr	-0.22512385
-0.22549659	FieldAccessExpr FieldAccessExpr NameExpr	-0.4528877
-0.15897837	BooleanLiteralExpr FieldAccessExpr NameExpr	-0.25594932
-0.33632234	AssignExpr FieldAccessExpr NameExpr	-0.22512385
-0.16276354	ArrayInitializerExpr FieldAccessExpr NameExpr	-0.22512385
-0.19118018	UnaryExpr FieldAccessExpr NameExpr	-0.4528877
-0.15897837	ArrayAccessExpr FieldAccessExpr NameExpr	-0.25594932
-0.15897837	IfStmt FieldAccessExpr NameExpr	-0.25594932
-0.15897837	NullLiteralExpr FieldAccessExpr NameExpr	-0.25594932
-0.16276354	ThisExpr FieldAccessExpr NameExpr	-0.22512385
-0.16276354	WildcardType FieldAccessExpr NameExpr	-0.22512385
-0.16785344	LongLiteralExpr FieldAccessExpr NameExpr	-0.23103896
-0.15897837	SwitchEntry FieldAccessExpr NameExpr	-0.25594932
-0.16276354	ArrayCreationLevel FieldAccessExpr NameExpr	-0.22512385
-1.3876251	SimpleName BooleanLiteralExpr NameExpr	-0.23103896
-1.0443621	StringLiteralExpr BooleanLiteralExpr NameExpr	-0.22512385
-1.0050395	BooleanLiteralExpr BooleanLiteralExpr NameExpr	-0.23103896
-0.32010052	ThisExpr BooleanLiteralExpr NameExpr	-0.22512385
-0.16299991	SimpleName AssignExpr NameExpr	-0.25594932
-0.37170467	ExpressionStmt AssignExpr NameExpr	-0.9843666
-0.16690049	IntegerLiteralExpr AssignExpr NameExpr	-0.22512385
-0.16690049	EnclosedExpr AssignExpr NameExpr	-0.22512385
-0.40622628	CastExpr PrimitiveType NameExpr	-0.53206897
-0.944596	ArrayType PrimitiveType NameExpr	-0.22512385
-0.9372699	SimpleName ArrayInitializerExpr NameExpr	-0.22512385
-0.8440006	ArrayCreationLevel ArrayInitializerExpr NameExpr	-0.25594932
-0.44762734	ReturnStmt UnaryExpr NameExpr	-0.35597768
-0.5127297	SimpleName UnaryExpr NameExpr	-0.53206897
-0.14450991	ExpressionStmt UnaryExpr NameExpr	-0.83309895
-0.5319511	IntegerLiteralExpr UnaryExpr NameExpr	-0.25594932
-0.40719947	StringLiteralExpr UnaryExpr NameExpr	-0.25594932
-0.35440648	BinaryExpr UnaryExpr NameExpr	-0.5990157
-0.20638971	EnclosedExpr UnaryExpr NameExpr	-0.25594932
-0.38120183	IfStmt UnaryExpr NameExpr	-0.86786103
-0.7136841	WhileStmt UnaryExpr NameExpr	-0.25594932
-0.41133714	NullLiteralExpr UnaryExpr NameExpr	-0.22512385
-0.21160786	ThisExpr UnaryExpr NameExpr	-0.22512385
-0.5053445	LongLiteralExpr UnaryExpr NameExpr	-0.22512385
-0.11576392	ReturnStmt ArrayAccessExpr NameExpr	-0.25594932
-0.098899856	MethodCallExpr ArrayAccessExpr NameExpr	-0.53206897
-0.14855963	SimpleName ArrayAccessExpr NameExpr	-0.6570077
-0.21218298	IntegerLiteralExpr ArrayAccessExpr NameExpr	-0.25594932
-0.11576392	StringLiteralExpr ArrayAccessExpr NameExpr	-0.25594932
-0.098899856	BinaryExpr ArrayAccessExpr NameExpr	-0.53206897
-0.12187741	FieldAccessExpr ArrayAccessExpr NameExpr	-0.23103896
-0.118376054	BooleanLiteralExpr ArrayAccessExpr NameExpr	-0.22512385
-0.27168503	AssignExpr ArrayAccessExpr NameExpr	-0.22512385
-0.12187741	UnaryExpr ArrayAccessExpr NameExpr	-0.23103896
-0.11576392	InstanceOfExpr ArrayAccessExpr NameExpr	-0.25594932
-1.0064046	SimpleName DoubleLiteralExpr NameExpr	-0.22512385
-0.29967648	BinaryExpr DoubleLiteralExpr NameExpr	-0.22512385
-0.7065266	<s> IfStmt NameExpr	-2.4022777
-0.87726176	ReturnStmt IfStmt NameExpr	-0.25594932
-0.7911372	SimpleName IfStmt NameExpr	-0.53206897
-0.7803517	IntegerLiteralExpr IfStmt NameExpr	-0.25594932
-0.8663472	StringLiteralExpr IfStmt NameExpr	-0.22512385
-0.72920495	VoidType IfStmt NameExpr	-0.22512385
-1.0407166	TryStmt IfStmt NameExpr	-0.22512385
-0.8151138	BooleanLiteralExpr IfStmt NameExpr	-0.25594932
-0.5873304	ForStmt IfStmt NameExpr	-0.53206897
-1.0985123	BreakStmt IfStmt NameExpr	-0.22512385
-0.7251828	NullLiteralExpr IfStmt NameExpr	-0.25594932
-0.7983727	ThisExpr IfStmt NameExpr	-0.22512385
-0.60341644	LongLiteralExpr IfStmt NameExpr	-0.25594932
-0.68136734	DoStmt IfStmt NameExpr	-0.22512385
-0.92242104	ContinueStmt IfStmt NameExpr	-0.22512385
-1.2612866	ReturnStmt NullLiteralExpr NameExpr	-0.22512385
-1.1320978	SimpleName NullLiteralExpr NameExpr	-0.35597768
-1.1841435	IntegerLiteralExpr NullLiteralExpr NameExpr	-0.22512385
-0.45029783	BinaryExpr NullLiteralExpr NameExpr	-0.25594932
-0.9158621	BooleanLiteralExpr NullLiteralExpr NameExpr	-0.22512385
-1.014539	NullLiteralExpr NullLiteralExpr NameExpr	-0.22512385
-0.70517474	ThisExpr NullLiteralExpr NameExpr	-0.22512385
-1.4612348	<s> ThrowStmt NameExpr	-1.2452793
-0.685668	SimpleName ThrowStmt NameExpr	-0.23103896
-0.6325472	IntegerLiteralExpr ThrowStmt NameExpr	-0.22512385
-0.598271	StringLiteralExpr ThrowStmt NameExpr	-0.22512385
-0.43560022	VoidType ThrowStmt NameExpr	-0.22512385
-0.5913564	BooleanLiteralExpr ThrowStmt NameExpr	-0.22512385
-0.43560022	PrimitiveType ThrowStmt NameExpr	-0.22512385
-0.6406702	NullLiteralExpr ThrowStmt NameExpr	-0.22512385
-1.0423894	SimpleName ThisExpr NameExpr	-0.4528877
-0.3183473	BinaryExpr ThisExpr NameExpr	-0.22512385
-1.1371567	ThisExpr ThisExpr NameExpr	-0.22512385
-1.1080477	SimpleName WildcardType NameExpr	-0.22512385
-0.18536313	ReturnStmt InstanceOfExpr NameExpr	-0.25594932
-0.41098824	SimpleName InstanceOfExpr NameExpr	-0.35597768
-0.18992582	ExpressionStmt InstanceOfExpr NameExpr	-0.22512385
-0.377478	StringLiteralExpr InstanceOfExpr NameExpr	-0.22512385
-0.3016097	BinaryExpr InstanceOfExpr NameExpr	-0.25594932
-0.5430547	EnclosedExpr InstanceOfExpr NameExpr	-0.22512385
-0.18126358	IfStmt InstanceOfExpr NameExpr	-0.7539177
-1.1923908	SimpleName LongLiteralExpr NameExpr	-0.35597768
-0.9680582	LongLiteralExpr LongLiteralExpr NameExpr	-0.25594932
-0.082962744	<s> SwitchStmt NameExpr	-0.23103896
-0.07898079	SimpleName SwitchStmt NameExpr	-0.25594932
-0.08068455	IntegerLiteralExpr SwitchStmt NameExpr	-0.22512385
-0.08068455	BooleanLiteralExpr SwitchStmt NameExpr	-0.22512385
-0.08068455	ThisExpr SwitchStmt NameExpr	-0.22512385
-0.51437247	SimpleName SwitchEntry NameExpr	-0.25594932
-0.45339978	BooleanLiteralExpr SwitchEntry NameExpr	-0.25594932
-0.45484486	BreakStmt SwitchEntry NameExpr	-0.25594932
-0.24077266	ContinueStmt SwitchEntry NameExpr	-0.22512385
-0.9538149	SimpleName ArrayCreationLevel NameExpr	-0.22512385
-1.1468934	SimpleName CharLiteralExpr NameExpr	-0.22512385
-0.61182106	ReturnStmt ConditionalExpr NameExpr	-0.22512385
-0.5839622	SimpleName ConditionalExpr NameExpr	-0.23103896
-0.26152435	ThisExpr ConditionalExpr NameExpr	-0.22512385
-0.8044153	<s> SynchronizedStmt NameExpr	-0.5990157
-0.30521113	SimpleName SynchronizedStmt NameExpr	-0.4528877
-0.25357047	VoidType SynchronizedStmt NameExpr	-0.22512385
-0.76029634	ReturnStmt MethodCallExpr SimpleName	-0.30747297
-0.9556846	MethodCallExpr MethodCallExpr SimpleName	-0.34365574
-0.75833714	SimpleName MethodCallExpr SimpleName	-0.3480227
-0.7509686	ExpressionStmt MethodCallExpr SimpleName	-0.5319202
-0.96564865	IntegerLiteralExpr MethodCallExpr SimpleName	-0.24246965
-0.7579063	StringLiteralExpr MethodCallExpr SimpleName	-0.23628591
-0.72214293	BinaryExpr MethodCallExpr SimpleName	-0.34481362
-0.82483184	BooleanLiteralExpr MethodCallExpr SimpleName	-0.22512385
-0.78499573	UnaryExpr MethodCallExpr SimpleName	-0.2321937
-0.60310966	IfStmt MethodCallExpr SimpleName	-0.48566037
-0.6905552	NullLiteralExpr MethodCallExpr SimpleName	-0.24026316
-0.5129023	ThrowStmt MethodCallExpr SimpleName	-0.30308995
-0.96684206	InstanceOfExpr MethodCallExpr SimpleName	-0.22512385
-0.7328019	LongLiteralExpr MethodCallExpr SimpleName	-0.22512385
-0.0044023506	ReturnStmt NameExpr SimpleName	-0.3745427
-0.0015797134	MethodCallExpr NameExpr SimpleName	-0.87811196
-0.002470842	SimpleName NameExpr SimpleName	-0.482756
-0.013004784	ExpressionStmt NameExpr SimpleName	-0.22512385
-0.0049557956	IntegerLiteralExpr NameExpr SimpleName	-0.28619018
-0.013004784	Name NameExpr SimpleName	-0.22512385
-0.009968796	StringLiteralExpr NameExpr SimpleName	-0.2636512
-0.002325078	BinaryExpr NameExpr SimpleName	-0.58896035
-0.0019755475	FieldAccessExpr NameExpr SimpleName	-1.0549477
-0.009968796	BooleanLiteralExpr NameExpr SimpleName	-0.23108733
-0.009968796	AssignExpr NameExpr SimpleName	-0.23201081
-0.012750693	PrimitiveType NameExpr SimpleName	-0.23011187
-0.012750693	ArrayInitializerExpr NameExpr SimpleName	-0.23371015
-0.0032975723	UnaryExpr NameExpr SimpleName	-0.33726695
-0.0035985995	ArrayAccessExpr NameExpr SimpleName	-0.53562206
-0.012750693	DoubleLiteralExpr NameExpr SimpleName	-0.22512385
-0.002636057	IfStmt NameExpr SimpleName	-0.5128417
-0.0056684017	NullLiteralExpr NameExpr SimpleName	-0.2518532
-0.0049557956	ThrowStmt NameExpr SimpleName	-0.3380616
-0.013343235	ThisExpr NameExpr SimpleName	-0.23178734
-0.013004784	WildcardType NameExpr SimpleName	-0.22512385
-0.0056684017	InstanceOfExpr NameExpr SimpleName	-0.5305826
-0.012750693	LongLiteralExpr NameExpr SimpleName	-0.23515782
-0.007956636	SwitchStmt NameExpr SimpleName	-0.4528877
-0.009968796	SwitchEntry NameExpr SimpleName	-0.23018898
-0.013004784	ArrayCreationLevel NameExpr SimpleName	-0.22512385
-0.013004784	CharLiteralExpr NameExpr SimpleName	-0.22512385
-0.013343235	ConditionalExpr NameExpr SimpleName	-0.23817447
-0.013343235	SynchronizedStmt NameExpr SimpleName	-0.24083231
-1.3048689	MethodCallExpr SimpleName SimpleName	-0.26696876
-1.2278756	NameExpr SimpleName SimpleName	-0.4424845
-1.3295803	SimpleName SimpleName SimpleName	-0.36090514
-0.98000944	ClassOrInterfaceType SimpleName SimpleName	-0.42703575
-1.0433469	IntegerLiteralExpr SimpleName SimpleName	-0.31358206
-0.8138591	Name SimpleName SimpleName	-0.22512385
-1.154125	StringLiteralExpr SimpleName SimpleName	-0.2371928
-0.9511163	VoidType SimpleName SimpleName	-0.22512385
-1.0002021	BooleanLiteralExpr SimpleName SimpleName	-0.29309398
-0.9198373	NullLiteralExpr SimpleName SimpleName	-0.2811222
-1.3061363	ThisExpr SimpleName SimpleName	-0.23111637
-1.0595604	LongLiteralExpr SimpleName SimpleName	-0.24542914
-0.033227243	SimpleName ClassOrInterfaceType SimpleName	-0.31430554
-0.1368312	VariableDeclarator ClassOrInterfaceType SimpleName	-0.34019846
-0.18676782	ClassOrInterfaceType ClassOrInterfaceType SimpleName	-0.44495228
-0.09232309	IntegerLiteralExpr ClassOrInterfaceType SimpleName	-0.22512385
-0.06893795	ObjectCreationExpr ClassOrInterfaceType SimpleName	-0.41406068
-0.23505689	Name ClassOrInterfaceType SimpleName	-0.22512385
-0.09232309	Modifier ClassOrInterfaceType SimpleName	-0.22512385
-0.18047312	Parameter ClassOrInterfaceType SimpleName	-0.24026316
-0.09232309	StringLiteralExpr ClassOrInterfaceType SimpleName	-0.22512385
-0.09232309	VoidType ClassOrInterfaceType SimpleName	-0.22512385
-0.10248363	CastExpr ClassOrInterfaceType SimpleName	-0.31754762
-0.033227243	ArrayType ClassOrInterfaceType SimpleName	-0.27217266
-0.09232309	PrimitiveType ClassOrInterfaceType SimpleName	-0.22512385
-0.09232309	NullLiteralExpr ClassOrInterfaceType SimpleName	-0.22512385
-0.16450095	ClassExpr ClassOrInterfaceType SimpleName	-0.24037692
-0.09034699	ThisExpr ClassOrInterfaceType SimpleName	-0.22512385
-0.23505689	WildcardType ClassOrInterfaceType SimpleName	-0.22512385
-0.09232309	TypeExpr ClassOrInterfaceType SimpleName	-0.22512385
-0.069208845	ArrayCreationExpr ClassOrInterfaceType SimpleName	-0.3264626
-1.0582024	ReturnStmt IntegerLiteralExpr SimpleName	-0.2371928
-1.0805649	SimpleName IntegerLiteralExpr SimpleName	-0.40405
-0.8294541	ExpressionStmt IntegerLiteralExpr SimpleName	-0.24026316
-1.0154432	IntegerLiteralExpr IntegerLiteralExpr SimpleName	-0.25651506
-1.0069296	StringLiteralExpr IntegerLiteralExpr SimpleName	-0.2371928
-0.947638	BooleanLiteralExpr IntegerLiteralExpr SimpleName	-0.2321937
-1.1607468	UnaryExpr IntegerLiteralExpr SimpleName	-0.22512385
-0.9952442	NullLiteralExpr IntegerLiteralExpr SimpleName	-0.22512385
-1.1340176	ArrayCreationLevel IntegerLiteralExpr SimpleName	-0.22512385
-0.8007116	MarkerAnnotationExpr Name SimpleName	-0.22512385
-0.6718992	ThisExpr Name SimpleName	-0.22512385
-0.5214803	Name Modifier SimpleName	-0.22512385
-0.646895	Modifier Modifier SimpleName	-0.22512385
-0.27783117	StringLiteralExpr Modifier SimpleName	-0.22512385
-1.2862774	ReturnStmt StringLiteralExpr SimpleName	-0.22512385
-0.22225097	MethodCallExpr StringLiteralExpr SimpleName	-0.22955261
-1.2822157	SimpleName StringLiteralExpr SimpleName	-0.29905465
-1.2056619	StringLiteralExpr StringLiteralExpr SimpleName	-0.24863905
-1.1272708	SimpleName VoidType SimpleName	-0.24803542
-1.1888603	ReturnStmt BooleanLiteralExpr SimpleName	-0.23178734
-1.123671	SimpleName BooleanLiteralExpr SimpleName	-0.25590664
-0.63156056	ExpressionStmt BooleanLiteralExpr SimpleName	-0.23111637
-0.8831767	IntegerLiteralExpr BooleanLiteralExpr SimpleName	-0.23111637
-0.9458694	StringLiteralExpr BooleanLiteralExpr SimpleName	-0.22512385
-0.56060976	VoidType BooleanLiteralExpr SimpleName	-0.22512385
-0.9988177	BooleanLiteralExpr BooleanLiteralExpr SimpleName	-0.22512385
-0.56060976	LongLiteralExpr BooleanLiteralExpr SimpleName	-0.22512385
-0.2030026	VariableDeclarator PrimitiveType SimpleName	-0.25047457
-0.28854182	Parameter PrimitiveType SimpleName	-0.22512385
-0.6013044	ArrayType PrimitiveType SimpleName	-0.23371015
-1.0949893	SimpleName DoubleLiteralExpr SimpleName	-0.22512385
-1.4366565	SimpleName BreakStmt SimpleName	-0.22512385
-1.2162994	ReturnStmt NullLiteralExpr SimpleName	-0.23608162
-1.2186815	SimpleName NullLiteralExpr SimpleName	-0.23772798
-0.5892025	ExpressionStmt NullLiteralExpr SimpleName	-0.22512385
-1.285638	IntegerLiteralExpr NullLiteralExpr SimpleName	-0.22512385
-1.0888255	NullLiteralExpr NullLiteralExpr SimpleName	-0.22512385
-1.4134775	SimpleName LambdaExpr SimpleName	-0.22512385
-0.12832835	Parameter UnknownType SimpleName	-0.23806782
-0.6109859	MethodCallExpr ThisExpr SimpleName	-0.22512385
-1.1628518	SimpleName ThisExpr SimpleName	-0.23756066
-0.16910113	FieldAccessExpr ThisExpr SimpleName	-0.23825829
-1.0210292	SimpleName WildcardType SimpleName	-0.22512385
-0.551673	WildcardType WildcardType SimpleName	-0.22512385
-1.3192838	SimpleName LongLiteralExpr SimpleName	-0.2333267
-0.31945887	BooleanLiteralExpr LongLiteralExpr SimpleName	-0.22512385
-0.9582174	LongLiteralExpr LongLiteralExpr SimpleName	-0.2496067
-0.07599108	MethodCallExpr SuperExpr SimpleName	-0.23900875
-1.0672414	SimpleName CharLiteralExpr SimpleName	-0.22512385
-0.7915292	CharLiteralExpr CharLiteralExpr SimpleName	-0.22512385
-0.74604845	SimpleName ContinueStmt SimpleName	-0.24542914
-0.5177157	IntegerLiteralExpr ContinueStmt SimpleName	-0.22512385
-0.6418772	StringLiteralExpr ContinueStmt SimpleName	-0.22512385
-0.72043765	BooleanLiteralExpr ContinueStmt SimpleName	-0.22512385
-0.14625576	SimpleName LabeledStmt SimpleName	-0.23103896
-0.14193238	IntegerLiteralExpr LabeledStmt SimpleName	-0.22512385
-0.13126929	LocalClassDeclarationStmt ClassOrInterfaceDeclaration SimpleName	-0.22512385
-0.3136156	ReturnStmt ReturnStmt ExpressionStmt	-0.22512385
-1.2360471	SimpleName ReturnStmt ExpressionStmt	-0.29798573
-1.1231937	IntegerLiteralExpr ReturnStmt ExpressionStmt	-0.24026316
-1.2470143	StringLiteralExpr ReturnStmt ExpressionStmt	-0.22512385
-1.0600507	BooleanLiteralExpr ReturnStmt ExpressionStmt	-0.22512385
-1.1270858	NullLiteralExpr ReturnStmt ExpressionStmt	-0.24026316
-0.96632564	ThisExpr ReturnStmt ExpressionStmt	-0.22512385
-0.90878844	LongLiteralExpr ReturnStmt ExpressionStmt	-0.22512385
-1.3642696	MethodCallExpr SimpleName ExpressionStmt	-0.3701617
-1.1090958	NameExpr SimpleName ExpressionStmt	-0.8420538
-1.2291808	SimpleName SimpleName ExpressionStmt	-0.53206897
-1.2562333	ClassOrInterfaceType SimpleName ExpressionStmt	-0.47282404
-1.1637396	IntegerLiteralExpr SimpleName ExpressionStmt	-0.38509095
-1.2340504	StringLiteralExpr SimpleName ExpressionStmt	-0.25594932
-0.9155629	BooleanLiteralExpr SimpleName ExpressionStmt	-0.44495228
-1.4098612	PrimitiveType SimpleName ExpressionStmt	-0.22512385
-1.2057229	NullLiteralExpr SimpleName ExpressionStmt	-0.25594932
-1.1860932	UnknownType SimpleName ExpressionStmt	-0.22512385
-1.2834823	ThisExpr SimpleName ExpressionStmt	-0.22512385
-1.2523564	LongLiteralExpr SimpleName ExpressionStmt	-0.22512385
-1.0023425	SuperExpr SimpleName ExpressionStmt	-0.22512385
-0.67872494	ContinueStmt SimpleName ExpressionStmt	-0.24026316
-1.0278459	ReturnStmt IntegerLiteralExpr ExpressionStmt	-0.23817447
-1.0950298	SimpleName IntegerLiteralExpr ExpressionStmt	-0.5742817
-0.9400651	IntegerLiteralExpr IntegerLiteralExpr ExpressionStmt	-0.50724536
-0.8777263	StringLiteralExpr IntegerLiteralExpr ExpressionStmt	-0.23103896
-0.57651687	VoidType IntegerLiteralExpr ExpressionStmt	-0.22512385
-1.1887329	BooleanLiteralExpr IntegerLiteralExpr ExpressionStmt	-0.22512385
-0.8119945	ArrayInitializerExpr IntegerLiteralExpr ExpressionStmt	-0.24542914
-1.1233302	UnaryExpr IntegerLiteralExpr ExpressionStmt	-0.24542914
-0.9710629	NullLiteralExpr IntegerLiteralExpr ExpressionStmt	-0.25594932
-0.8885211	ThisExpr IntegerLiteralExpr ExpressionStmt	-0.22512385
-0.9107702	ArrayCreationLevel IntegerLiteralExpr ExpressionStmt	-0.24542914
-0.83526194	ThisExpr Name ExpressionStmt	-0.24542914
-1.1941966	ReturnStmt StringLiteralExpr ExpressionStmt	-0.22512385
-1.0894943	SimpleName StringLiteralExpr ExpressionStmt	-0.51358557
-0.9344919	IntegerLiteralExpr StringLiteralExpr ExpressionStmt	-0.24542914
-1.0450599	StringLiteralExpr StringLiteralExpr ExpressionStmt	-0.24255042
-0.8848841	ArrayInitializerExpr StringLiteralExpr ExpressionStmt	-0.22512385
-0.5757234	NullLiteralExpr StringLiteralExpr ExpressionStmt	-0.22512385
-1.0155991	SimpleName VoidType ExpressionStmt	-0.35597768
-0.05669409	<s> TryStmt ExpressionStmt	-1.7732692
-0.32001683	ReturnStmt TryStmt ExpressionStmt	-0.22955261
-0.42962217	SimpleName TryStmt ExpressionStmt	-0.37657183
-0.48485428	IntegerLiteralExpr TryStmt ExpressionStmt	-0.30784446
-0.5852924	StringLiteralExpr TryStmt ExpressionStmt	-0.22512385
-0.5852924	VoidType TryStmt ExpressionStmt	-0.22512385
-0.18548097	TryStmt TryStmt ExpressionStmt	-0.32001355
-0.4353309	BooleanLiteralExpr TryStmt ExpressionStmt	-0.23817447
-0.22218046	DoubleLiteralExpr TryStmt ExpressionStmt	-0.22512385
-0.22218046	ForStmt TryStmt ExpressionStmt	-0.22512385
-0.22967859	BreakStmt TryStmt ExpressionStmt	-0.23103896
-0.4742848	NullLiteralExpr TryStmt ExpressionStmt	-0.2496067
-0.21663105	ThisExpr TryStmt ExpressionStmt	-0.22512385
-0.22218046	LongLiteralExpr TryStmt ExpressionStmt	-0.22512385
-0.8903895	ReturnStmt BooleanLiteralExpr ExpressionStmt	-0.27679643
-0.93472385	SimpleName BooleanLiteralExpr ExpressionStmt	-0.40653506
-0.86001086	ExpressionStmt BooleanLiteralExpr ExpressionStmt	-0.22512385
-0.9757241	IntegerLiteralExpr BooleanLiteralExpr ExpressionStmt	-0.24026316
-1.0021048	BooleanLiteralExpr BooleanLiteralExpr ExpressionStmt	-0.24026316
-0.5618002	ArrayInitializerExpr BooleanLiteralExpr ExpressionStmt	-0.22512385
-0.5059837	WhileStmt BooleanLiteralExpr ExpressionStmt	-0.24542914
-0.5618002	LongLiteralExpr BooleanLiteralExpr ExpressionStmt	-0.22512385
-0.71883893	SimpleName PrimitiveType ExpressionStmt	-0.3264626
-0.8305527	SimpleName DoubleLiteralExpr ExpressionStmt	-0.22512385
-0.86741066	DoubleLiteralExpr DoubleLiteralExpr ExpressionStmt	-0.22512385
-0.79470515	<s> ForStmt ExpressionStmt	-1.7451438
-0.57983434	ReturnStmt ForStmt ExpressionStmt	-0.25594932
-0.60427314	SimpleName ForStmt ExpressionStmt	-0.35597768
-0.7705852	IntegerLiteralExpr ForStmt ExpressionStmt	-0.22512385
-0.7929207	TryStmt ForStmt ExpressionStmt	-0.22512385
-0.5441134	BooleanLiteralExpr ForStmt ExpressionStmt	-0.24542914
-0.54024535	ForStmt ForStmt ExpressionStmt	-0.25594932
-0.23222409	BreakStmt ForStmt ExpressionStmt	-0.22512385
-0.5468662	NullLiteralExpr ForStmt ExpressionStmt	-0.22512385
-0.44446003	ThisExpr ForStmt ExpressionStmt	-0.22512385
-0.44446003	LongLiteralExpr ForStmt ExpressionStmt	-0.22512385
-0.8281554	SimpleName BreakStmt ExpressionStmt	-0.24083231
-0.73876154	IntegerLiteralExpr BreakStmt ExpressionStmt	-0.22512385
-0.80518675	BooleanLiteralExpr BreakStmt ExpressionStmt	-0.22512385
-0.6167208	BreakStmt BreakStmt ExpressionStmt	-0.22512385
-0.4970677	NullLiteralExpr BreakStmt ExpressionStmt	-0.22512385
-0.4970677	LongLiteralExpr BreakStmt ExpressionStmt	-0.22512385
-0.2637331	ContinueStmt BreakStmt ExpressionStmt	-0.22512385
-0.76020217	ReturnStmt NullLiteralExpr ExpressionStmt	-0.23713388
-0.9512418	SimpleName NullLiteralExpr ExpressionStmt	-0.41692355
-0.7612249	IntegerLiteralExpr NullLiteralExpr ExpressionStmt	-0.23817447
-0.2924752	Name NullLiteralExpr ExpressionStmt	-0.22512385
-0.6761924	StringLiteralExpr NullLiteralExpr ExpressionStmt	-0.24542914
-0.2924752	VoidType NullLiteralExpr ExpressionStmt	-0.22512385
-0.8309165	ArrayInitializerExpr NullLiteralExpr ExpressionStmt	-0.22512385
-0.691307	NullLiteralExpr NullLiteralExpr ExpressionStmt	-0.24083231
-0.68195695	ThisExpr NullLiteralExpr ExpressionStmt	-0.22512385
-0.45262656	ReturnStmt LambdaExpr ExpressionStmt	-0.25594932
-0.72019255	SimpleName LambdaExpr ExpressionStmt	-0.24057925
-0.5642991	IntegerLiteralExpr LambdaExpr ExpressionStmt	-0.22512385
-0.23938973	LambdaExpr LambdaExpr ExpressionStmt	-0.22512385
-0.45620278	ThisExpr LambdaExpr ExpressionStmt	-0.22512385
-1.1743368	SimpleName ThisExpr ExpressionStmt	-0.23713388
-0.5649116	IntegerLiteralExpr ThisExpr ExpressionStmt	-0.22512385
-0.5649116	NullLiteralExpr ThisExpr ExpressionStmt	-0.22512385
-0.75029105	ThisExpr ThisExpr ExpressionStmt	-0.23103896
-0.51207685	SynchronizedStmt ThisExpr ExpressionStmt	-0.33933344
-0.8268253	ReturnStmt LongLiteralExpr ExpressionStmt	-0.22512385
-0.94247866	SimpleName LongLiteralExpr ExpressionStmt	-0.36072165
-0.54465294	IntegerLiteralExpr LongLiteralExpr ExpressionStmt	-0.22512385
-0.71906245	UnaryExpr LongLiteralExpr ExpressionStmt	-0.24542914
-0.29090223	NullLiteralExpr LongLiteralExpr ExpressionStmt	-0.22512385
-0.8474091	LongLiteralExpr LongLiteralExpr ExpressionStmt	-0.25594932
-0.78078634	BooleanLiteralExpr SwitchEntry ExpressionStmt	-0.22512385
-0.5472189	BreakStmt SwitchEntry ExpressionStmt	-0.24542914
-0.85113764	SimpleName CharLiteralExpr ExpressionStmt	-0.2371928
-0.28634745	IntegerLiteralExpr CharLiteralExpr ExpressionStmt	-0.22512385
-0.7508215	CharLiteralExpr CharLiteralExpr ExpressionStmt	-0.22512385
-0.6069035	SimpleName EmptyStmt ExpressionStmt	-0.22512385
-0.49117893	StringLiteralExpr EmptyStmt ExpressionStmt	-0.22512385
-0.5138596	IntegerLiteralExpr DoStmt ExpressionStmt	-0.22512385
-0.2314417	ReturnStmt ContinueStmt ExpressionStmt	-0.22512385
-0.6274489	SimpleName ContinueStmt ExpressionStmt	-0.2496067
-0.44318533	IntegerLiteralExpr ContinueStmt ExpressionStmt	-0.22512385
-0.5452531	StringLiteralExpr ContinueStmt ExpressionStmt	-0.22512385
-0.6069671	BooleanLiteralExpr ContinueStmt ExpressionStmt	-0.22512385
-0.44318533	NullLiteralExpr ContinueStmt ExpressionStmt	-0.22512385
-0.4101385	<s> ExpressionStmt VariableDeclarationExpr	-3.1411889
-0.56223553	ReturnStmt ExpressionStmt VariableDeclarationExpr	-0.33933344
-0.59309566	SimpleName ExpressionStmt VariableDeclarationExpr	-0.6570077
-0.50629944	IntegerLiteralExpr ExpressionStmt VariableDeclarationExpr	-0.4642722
-0.37653795	StringLiteralExpr ExpressionStmt VariableDeclarationExpr	-0.4528877
-0.6440624	VoidType ExpressionStmt VariableDeclarationExpr	-0.22512385
-0.6382998	TryStmt ExpressionStmt VariableDeclarationExpr	-0.4990343
-0.53995913	BooleanLiteralExpr ExpressionStmt VariableDeclarationExpr	-0.4528877
-0.46437123	DoubleLiteralExpr ExpressionStmt VariableDeclarationExpr	-0.24542914
-0.2248278	ForStmt ExpressionStmt VariableDeclarationExpr	-0.70667386
-0.5439105	BreakStmt ExpressionStmt VariableDeclarationExpr	-0.47259063
-0.4894432	NullLiteralExpr ExpressionStmt VariableDeclarationExpr	-0.4642722
-0.8184549	LambdaExpr ExpressionStmt VariableDeclarationExpr	-0.22512385
-0.68711704	ThisExpr ExpressionStmt VariableDeclarationExpr	-0.24542914
-0.9014564	LongLiteralExpr ExpressionStmt VariableDeclarationExpr	-0.22512385
-0.6390562	CharLiteralExpr ExpressionStmt VariableDeclarationExpr	-0.25594932
-0.46828163	EmptyStmt ExpressionStmt VariableDeclarationExpr	-0.22512385
-0.46828163	DoStmt ExpressionStmt VariableDeclarationExpr	-0.22512385
-0.6498268	ContinueStmt ExpressionStmt VariableDeclarationExpr	-0.23103896
-1.4916844	<s> TryStmt VariableDeclarationExpr	-0.90004575
-1.1752528	SimpleName TryStmt VariableDeclarationExpr	-0.25594932
-1.1979179	IntegerLiteralExpr TryStmt VariableDeclarationExpr	-0.22512385
-1.0245421	TryStmt TryStmt VariableDeclarationExpr	-0.22512385
-0.085142344	<s> ForStmt VariableDeclarationExpr	-2.4528878
-0.5433894	ReturnStmt ForStmt VariableDeclarationExpr	-0.25594932
-0.4658053	SimpleName ForStmt VariableDeclarationExpr	-0.6570077
-0.40043998	IntegerLiteralExpr ForStmt VariableDeclarationExpr	-0.35597768
-0.21520004	StringLiteralExpr ForStmt VariableDeclarationExpr	-0.22512385
-0.21520004	VoidType ForStmt VariableDeclarationExpr	-0.22512385
-0.23121692	TryStmt ForStmt VariableDeclarationExpr	-0.4528877
-0.5103167	BooleanLiteralExpr ForStmt VariableDeclarationExpr	-0.25594932
-0.6329975	ForStmt ForStmt VariableDeclarationExpr	-0.22512385
-0.51243776	NullLiteralExpr ForStmt VariableDeclarationExpr	-0.22512385
-0.21520004	LambdaExpr ForStmt VariableDeclarationExpr	-0.22512385
-0.41704068	ThisExpr ForStmt VariableDeclarationExpr	-0.22512385
-0.41704068	LongLiteralExpr ForStmt VariableDeclarationExpr	-0.22512385
-0.0012169201	<s> ForEachStmt VariableDeclarationExpr	-1.3279489
-0.030068489	ReturnStmt ForEachStmt VariableDeclarationExpr	-0.25594932
-0.01862198	SimpleName ForEachStmt VariableDeclarationExpr	-0.36311316
-0.023404969	IntegerLiteralExpr ForEachStmt VariableDeclarationExpr	-0.3264626
-0.030680126	StringLiteralExpr ForEachStmt VariableDeclarationExpr	-0.22512385
-0.030680126	VoidType ForEachStmt VariableDeclarationExpr	-0.22512385
-0.030068489	TryStmt ForEachStmt VariableDeclarationExpr	-0.25594932
-0.031495564	BooleanLiteralExpr ForEachStmt VariableDeclarationExpr	-0.23103896
-0.030680126	BreakStmt ForEachStmt VariableDeclarationExpr	-0.22512385
-0.030680126	NullLiteralExpr ForEachStmt VariableDeclarationExpr	-0.22512385
-0.030680126	ThisExpr ForEachStmt VariableDeclarationExpr	-0.22512385
-0.030068489	LongLiteralExpr ForEachStmt VariableDeclarationExpr	-0.25594932
-0.030680126	CharLiteralExpr ForEachStmt VariableDeclarationExpr	-0.22512385
-0.35086665	ExpressionStmt VariableDeclarationExpr VariableDeclarator	-0.94889426
-0.15154317	TryStmt VariableDeclarationExpr VariableDeclarator	-0.35597768
-0.041261967	ForStmt VariableDeclarationExpr VariableDeclarator	-0.86786103
-0.15868025	ForEachStmt VariableDeclarationExpr VariableDeclarator	-0.71795356
-1.2224343	MarkerAnnotationExpr Name VariableDeclarator	-0.22512385
-0.42830315	VariableDeclarationExpr Modifier VariableDeclarator	-0.2496067
-0.6659043	Modifier Modifier VariableDeclarator	-0.22512385
-0.41120365	FieldDeclaration Modifier VariableDeclarator	-0.24083231
-0.8055453	Name StringLiteralExpr VariableDeclarator	-0.22512385
-0.61458117	SimpleName FieldDeclaration VariableDeclarator	-0.22955261
-0.5181381	IntegerLiteralExpr FieldDeclaration VariableDeclarator	-0.22512385
-0.27592084	VoidType FieldDeclaration VariableDeclarator	-0.22512385
-1.8794122	MethodCallExpr SimpleName ClassOrInterfaceType	-0.22512385
-1.8508381	NameExpr SimpleName ClassOrInterfaceType	-0.35597768
-1.6741701	SimpleName SimpleName ClassOrInterfaceType	-0.35597768
-1.1659635	ClassOrInterfaceType SimpleName ClassOrInterfaceType	-0.7953104
-1.6756392	IntegerLiteralExpr SimpleName ClassOrInterfaceType	-0.25594932
-1.047195	Modifier SimpleName ClassOrInterfaceType	-0.22512385
-1.3483204	PrimitiveType SimpleName ClassOrInterfaceType	-0.25594932
-1.3350595	WildcardType SimpleName ClassOrInterfaceType	-0.22512385
-0.4527939	VariableDeclarationExpr VariableDeclarator ClassOrInterfaceType	-0.24083231
-0.21195048	Name VariableDeclarator ClassOrInterfaceType	-0.22512385
-0.49974227	Modifier VariableDeclarator ClassOrInterfaceType	-0.24542914
-0.50601864	StringLiteralExpr VariableDeclarator ClassOrInterfaceType	-0.22512385
-0.55717003	FieldDeclaration VariableDeclarator ClassOrInterfaceType	-0.22512385
-0.7028947	VariableDeclarator ClassOrInterfaceType ClassOrInterfaceType	-0.25594932
-0.54073507	ClassOrInterfaceType ClassOrInterfaceType ClassOrInterfaceType	-0.24083231
-0.95648646	ObjectCreationExpr ClassOrInterfaceType ClassOrInterfaceType	-0.24542914
-0.6176266	Parameter ClassOrInterfaceType ClassOrInterfaceType	-0.22512385
-0.8120392	CastExpr ClassOrInterfaceType ClassOrInterfaceType	-0.25594932
-0.63594794	ClassExpr ClassOrInterfaceType ClassOrInterfaceType	-0.24542914
-1.9648212	SimpleName IntegerLiteralExpr ClassOrInterfaceType	-0.25594932
-0.011934071	ReturnStmt ObjectCreationExpr ClassOrInterfaceType	-0.4961048
-0.021104911	MethodCallExpr ObjectCreationExpr ClassOrInterfaceType	-0.35597768
-0.007556395	SimpleName ObjectCreationExpr ClassOrInterfaceType	-0.5990157
-0.028374119	ExpressionStmt ObjectCreationExpr ClassOrInterfaceType	-0.23103896
-0.016801083	IntegerLiteralExpr ObjectCreationExpr ClassOrInterfaceType	-0.4528877
-0.028374119	StringLiteralExpr ObjectCreationExpr ClassOrInterfaceType	-0.22955261
-0.027642112	VoidType ObjectCreationExpr ClassOrInterfaceType	-0.22512385
-0.027092922	BooleanLiteralExpr ObjectCreationExpr ClassOrInterfaceType	-0.25594932
-0.027642112	EnclosedExpr ObjectCreationExpr ClassOrInterfaceType	-0.22512385
-0.027642112	ArrayInitializerExpr ObjectCreationExpr ClassOrInterfaceType	-0.22512385
-0.028374119	NullLiteralExpr ObjectCreationExpr ClassOrInterfaceType	-0.23103896
-0.008319301	ThrowStmt ObjectCreationExpr ClassOrInterfaceType	-0.7539177
-0.027092922	ThisExpr ObjectCreationExpr ClassOrInterfaceType	-0.25594932
-0.027642112	LongLiteralExpr ObjectCreationExpr ClassOrInterfaceType	-0.22512385
-0.97387874	MarkerAnnotationExpr Name ClassOrInterfaceType	-0.24542914
-0.4671805	Parameter Modifier ClassOrInterfaceType	-0.25594932
-0.7554814	SimpleName Parameter ClassOrInterfaceType	-0.22955261
-0.11992864	CatchClause Parameter ClassOrInterfaceType	-0.7081602
-1.7519932	SimpleName StringLiteralExpr ClassOrInterfaceType	-0.25594932
-1.5213648	SimpleName VoidType ClassOrInterfaceType	-0.22512385
-0.20967458	ReturnStmt CastExpr ClassOrInterfaceType	-0.53206897
-0.34294945	SimpleName CastExpr ClassOrInterfaceType	-0.58173513
-0.18448037	ExpressionStmt CastExpr ClassOrInterfaceType	-0.22512385
-0.36574766	IntegerLiteralExpr CastExpr ClassOrInterfaceType	-0.25594932
-0.4379596	BinaryExpr CastExpr ClassOrInterfaceType	-0.23103896
-0.115196966	EnclosedExpr CastExpr ClassOrInterfaceType	-0.5305826
-0.18007737	ThrowStmt CastExpr ClassOrInterfaceType	-0.25594932
-0.2511683	SimpleName ArrayType ClassOrInterfaceType	-0.23103896
-0.2511683	VariableDeclarator ArrayType ClassOrInterfaceType	-0.23103896
-0.12601112	Name ArrayType ClassOrInterfaceType	-0.22512385
-0.12601112	Modifier ArrayType ClassOrInterfaceType	-0.22512385
-0.28259328	Parameter ArrayType ClassOrInterfaceType	-0.22512385
-0.22155589	CastExpr ArrayType ClassOrInterfaceType	-0.25594932
-0.12601112	ClassExpr ArrayType ClassOrInterfaceType	-0.22512385
-0.12601112	TypeExpr ArrayType ClassOrInterfaceType	-0.22512385
-1.0332873	ArrayType PrimitiveType ClassOrInterfaceType	-0.22512385
-1.5914819	ReturnStmt NullLiteralExpr ClassOrInterfaceType	-0.22512385
-0.14719474	MethodCallExpr ClassExpr ClassOrInterfaceType	-0.22955261
-0.039167825	SimpleName ClassExpr ClassOrInterfaceType	-0.62104356
-0.14283873	IntegerLiteralExpr ClassExpr ClassOrInterfaceType	-0.22512385
-0.30693388	StringLiteralExpr ClassExpr ClassOrInterfaceType	-0.22512385
-1.0266604	MethodCallExpr ThisExpr ClassOrInterfaceType	-0.22512385
-0.31735757	InstanceOfExpr ThisExpr ClassOrInterfaceType	-0.25594932
-0.93470657	SimpleName WildcardType ClassOrInterfaceType	-0.24542914
-0.32021135	MethodReferenceExpr TypeExpr ClassOrInterfaceType	-0.23103896
-0.4198199	ReturnStmt ArrayCreationExpr ClassOrInterfaceType	-0.25594932
-0.16590625	SimpleName ArrayCreationExpr ClassOrInterfaceType	-0.6570077
-0.30105588	IntegerLiteralExpr ArrayCreationExpr ClassOrInterfaceType	-0.25594932
-0.18949199	NullLiteralExpr ArrayCreationExpr ClassOrInterfaceType	-0.22512385
-1.3516934	<s> ReturnStmt IntegerLiteralExpr	-2.1995218
-1.4885035	SimpleName ReturnStmt IntegerLiteralExpr	-0.23577225
-1.2126826	IntegerLiteralExpr ReturnStmt IntegerLiteralExpr	-0.24026316
-1.1993759	PrimitiveType ReturnStmt IntegerLiteralExpr	-0.22512385
-1.4149678	NullLiteralExpr ReturnStmt IntegerLiteralExpr	-0.22512385
-1.1400079	MethodCallExpr SimpleName IntegerLiteralExpr	-0.33252603
-1.3899748	NameExpr SimpleName IntegerLiteralExpr	-0.35902572
-1.2529237	SimpleName SimpleName IntegerLiteralExpr	-0.35847446
-1.4783742	ClassOrInterfaceType SimpleName IntegerLiteralExpr	-0.23220558
-1.38419	IntegerLiteralExpr SimpleName IntegerLiteralExpr	-0.26019803
-1.2719594	StringLiteralExpr SimpleName IntegerLiteralExpr	-0.24026316
-0.9598311	VoidType SimpleName IntegerLiteralExpr	-0.22512385
-1.1037526	BooleanLiteralExpr SimpleName IntegerLiteralExpr	-0.28633675
-1.3020843	PrimitiveType SimpleName IntegerLiteralExpr	-0.22512385
-1.2380158	NullLiteralExpr SimpleName IntegerLiteralExpr	-0.22512385
-1.2291133	ThisExpr SimpleName IntegerLiteralExpr	-0.2371928
-1.0705918	LongLiteralExpr SimpleName IntegerLiteralExpr	-0.2371928
-1.8638797	SimpleName ExpressionStmt IntegerLiteralExpr	-0.22512385
-0.9570831	LambdaExpr ExpressionStmt IntegerLiteralExpr	-0.22512385
-1.2563074	ReturnStmt IntegerLiteralExpr IntegerLiteralExpr	-0.22512385
-1.184235	SimpleName IntegerLiteralExpr IntegerLiteralExpr	-0.3371523
-1.0032321	IntegerLiteralExpr IntegerLiteralExpr IntegerLiteralExpr	-0.35274893
-1.1644938	StringLiteralExpr IntegerLiteralExpr IntegerLiteralExpr	-0.22512385
-0.6544048	BinaryExpr IntegerLiteralExpr IntegerLiteralExpr	-0.24407206
-1.035475	BooleanLiteralExpr IntegerLiteralExpr IntegerLiteralExpr	-0.24542917
-0.8186258	ArrayInitializerExpr IntegerLiteralExpr IntegerLiteralExpr	-0.2371928
-1.136984	UnaryExpr IntegerLiteralExpr IntegerLiteralExpr	-0.23371015
-0.6744267	NullLiteralExpr IntegerLiteralExpr IntegerLiteralExpr	-0.24246965
-0.89651954	ThisExpr IntegerLiteralExpr IntegerLiteralExpr	-0.22512385
-1.1114424	ArrayCreationLevel IntegerLiteralExpr IntegerLiteralExpr	-0.22512385
-1.266065	ReturnStmt StringLiteralExpr IntegerLiteralExpr	-0.22512385
-1.3519233	SimpleName StringLiteralExpr IntegerLiteralExpr	-0.23715656
-1.1887314	StringLiteralExpr StringLiteralExpr IntegerLiteralExpr	-0.22512385
-1.2398705	BinaryExpr StringLiteralExpr IntegerLiteralExpr	-0.22512385
-0.92098206	ArrayInitializerExpr StringLiteralExpr IntegerLiteralExpr	-0.22512385
-1.1900806	ReturnStmt BinaryExpr IntegerLiteralExpr	-0.22866322
-0.98594207	SimpleName BinaryExpr IntegerLiteralExpr	-0.3595308
-0.7372323	ExpressionStmt BinaryExpr IntegerLiteralExpr	-0.22512385
-0.8345054	IntegerLiteralExpr BinaryExpr IntegerLiteralExpr	-0.22866322
-0.91260356	BinaryExpr BinaryExpr IntegerLiteralExpr	-0.3051212
-0.9942254	EnclosedExpr BinaryExpr IntegerLiteralExpr	-0.23487486
-0.72994655	ArrayCreationLevel BinaryExpr IntegerLiteralExpr	-0.24542914
-1.5532993	SimpleName VoidType IntegerLiteralExpr	-0.22512385
-1.3023661	SimpleName BooleanLiteralExpr IntegerLiteralExpr	-0.2574917
-0.99040234	IntegerLiteralExpr BooleanLiteralExpr IntegerLiteralExpr	-0.2474861
-1.072408	StringLiteralExpr BooleanLiteralExpr IntegerLiteralExpr	-0.22512385
-0.7672161	NullLiteralExpr BooleanLiteralExpr IntegerLiteralExpr	-0.22512385
-0.9664417	SimpleName ArrayInitializerExpr IntegerLiteralExpr	-0.22512385
-0.86723346	ArrayCreationLevel ArrayInitializerExpr IntegerLiteralExpr	-0.23515782
-1.2005903	ReturnStmt UnaryExpr IntegerLiteralExpr	-0.22512385
-0.6720671	SimpleName UnaryExpr IntegerLiteralExpr	-0.28179246
-0.67322016	IntegerLiteralExpr UnaryExpr IntegerLiteralExpr	-0.23378056
-1.4019452	ReturnStmt NullLiteralExpr IntegerLiteralExpr	-0.22512385
-1.366651	SimpleName NullLiteralExpr IntegerLiteralExpr	-0.23515782
-1.3136632	IntegerLiteralExpr NullLiteralExpr IntegerLiteralExpr	-0.22512385
-0.7404926	BooleanLiteralExpr NullLiteralExpr IntegerLiteralExpr	-0.25594932
-0.9279789	ArrayInitializerExpr NullLiteralExpr IntegerLiteralExpr	-0.22512385
-1.5410448	SimpleName ThisExpr IntegerLiteralExpr	-0.22512385
-1.6291265	SimpleName LongLiteralExpr IntegerLiteralExpr	-0.22512385
-0.318761	BinaryExpr LongLiteralExpr IntegerLiteralExpr	-0.22512385
-0.9139791	SimpleName ArrayCreationLevel IntegerLiteralExpr	-0.22512385
-0.86327106	PrimitiveType ArrayCreationLevel IntegerLiteralExpr	-0.22512385
-1.1097984	<s> ReturnStmt ObjectCreationExpr	-2.440554
-1.4003792	SimpleName ReturnStmt ObjectCreationExpr	-0.23103896
-1.3322852	IntegerLiteralExpr ReturnStmt ObjectCreationExpr	-0.22512385
-1.300189	StringLiteralExpr ReturnStmt ObjectCreationExpr	-0.22512385
-1.1664574	NullLiteralExpr ReturnStmt ObjectCreationExpr	-0.25594932
-0.99319595	ThisExpr ReturnStmt ObjectCreationExpr	-0.22512385
-0.7514465	SwitchEntry ReturnStmt ObjectCreationExpr	-0.22512385
-1.162164	MethodCallExpr MethodCallExpr ObjectCreationExpr	-0.4528877
-1.4865103	SimpleName MethodCallExpr ObjectCreationExpr	-0.23103896
-1.2875005	ExpressionStmt MethodCallExpr ObjectCreationExpr	-0.53206897
-1.7952427	IfStmt MethodCallExpr ObjectCreationExpr	-0.22512385
-1.512243	MethodCallExpr SimpleName ObjectCreationExpr	-0.35597768
-1.4803436	NameExpr SimpleName ObjectCreationExpr	-0.7081602
-1.4072249	SimpleName SimpleName ObjectCreationExpr	-0.5990157
-1.7095494	ClassOrInterfaceType SimpleName ObjectCreationExpr	-0.23103896
-1.1939052	IntegerLiteralExpr SimpleName ObjectCreationExpr	-0.53206897
-1.2847166	StringLiteralExpr SimpleName ObjectCreationExpr	-0.25594932
-1.4153947	BooleanLiteralExpr SimpleName ObjectCreationExpr	-0.23103896
-1.4463273	NullLiteralExpr SimpleName ObjectCreationExpr	-0.22512385
-1.5046883	ThisExpr SimpleName ObjectCreationExpr	-0.22512385
-1.303491	WildcardType SimpleName ObjectCreationExpr	-0.22512385
-1.3043355	LongLiteralExpr SimpleName ObjectCreationExpr	-0.22512385
-4.2390265	<s> ExpressionStmt ObjectCreationExpr	-0.25594932
-1.824391	SimpleName ExpressionStmt ObjectCreationExpr	-0.22512385
-1.4968884	TryStmt ExpressionStmt ObjectCreationExpr	-0.25594932
-1.4603318	ReturnStmt IntegerLiteralExpr ObjectCreationExpr	-0.22512385
-1.5936342	SimpleName IntegerLiteralExpr ObjectCreationExpr	-0.35597768
-1.6226428	IntegerLiteralExpr IntegerLiteralExpr ObjectCreationExpr	-0.25594932
-1.1418207	ArrayInitializerExpr IntegerLiteralExpr ObjectCreationExpr	-0.22512385
-1.4736757	UnaryExpr IntegerLiteralExpr ObjectCreationExpr	-0.22512385
-1.6864487	SimpleName StringLiteralExpr ObjectCreationExpr	-0.25594932
-1.2761991	IntegerLiteralExpr StringLiteralExpr ObjectCreationExpr	-0.22512385
-1.4853592	StringLiteralExpr StringLiteralExpr ObjectCreationExpr	-0.22512385
-1.411804	SimpleName VoidType ObjectCreationExpr	-0.25594932
-1.4676187	ReturnStmt BooleanLiteralExpr ObjectCreationExpr	-0.25594932
-1.7939124	SimpleName BooleanLiteralExpr ObjectCreationExpr	-0.22512385
-1.2598516	SimpleName EnclosedExpr ObjectCreationExpr	-0.22512385
-1.145134	ArrayCreationLevel ArrayInitializerExpr ObjectCreationExpr	-0.22512385
-1.5400636	ReturnStmt NullLiteralExpr ObjectCreationExpr	-0.22512385
-1.5053419	SimpleName NullLiteralExpr ObjectCreationExpr	-0.23103896
-1.4371479	IntegerLiteralExpr NullLiteralExpr ObjectCreationExpr	-0.22512385
-0.016694196	<s> ThrowStmt ObjectCreationExpr	-2.6823134
-0.34531885	SimpleName ThrowStmt ObjectCreationExpr	-0.53206897
-0.35143447	IntegerLiteralExpr ThrowStmt ObjectCreationExpr	-0.23103896
-0.38815245	StringLiteralExpr ThrowStmt ObjectCreationExpr	-0.25594932
-0.39192897	VoidType ThrowStmt ObjectCreationExpr	-0.22512385
-0.2909537	BooleanLiteralExpr ThrowStmt ObjectCreationExpr	-0.23103896
-0.39192897	PrimitiveType ThrowStmt ObjectCreationExpr	-0.22512385
-0.44160855	NullLiteralExpr ThrowStmt ObjectCreationExpr	-0.25594932
-0.19925395	LambdaExpr ThrowStmt ObjectCreationExpr	-0.22512385
-0.19925395	LongLiteralExpr ThrowStmt ObjectCreationExpr	-0.22512385
-1.6305333	SimpleName ThisExpr ObjectCreationExpr	-0.22512385
-1.2106379	ThisExpr ThisExpr ObjectCreationExpr	-0.22512385
-1.7178947	SimpleName LongLiteralExpr ObjectCreationExpr	-0.22512385
-1.574401	IntegerLiteralExpr ReturnStmt MethodDeclaration	-0.22512385
-1.6351295	NameExpr SimpleName MethodDeclaration	-0.5305826
-1.8602117	SimpleName SimpleName MethodDeclaration	-0.22955261
-1.5541528	ClassOrInterfaceType SimpleName MethodDeclaration	-0.38696033
-1.589413	PrimitiveType SimpleName MethodDeclaration	-0.22512385
-1.284954	UnknownType SimpleName MethodDeclaration	-0.22512385
-1.0644991	SuperExpr SimpleName MethodDeclaration	-0.22512385
-0.3338151	ClassOrInterfaceDeclaration SimpleName MethodDeclaration	-0.22512385
-1.2715898	ReturnStmt IntegerLiteralExpr MethodDeclaration	-0.25594932
-1.4162171	SimpleName IntegerLiteralExpr MethodDeclaration	-0.53206897
-1.1466935	ExpressionStmt IntegerLiteralExpr MethodDeclaration	-0.22512385
-1.778835	IntegerLiteralExpr IntegerLiteralExpr MethodDeclaration	-0.22512385
-1.4851184	UnaryExpr IntegerLiteralExpr MethodDeclaration	-0.22512385
-1.0557579	ReturnStmt StringLiteralExpr MethodDeclaration	-0.23103896
-1.6745392	SimpleName StringLiteralExpr MethodDeclaration	-0.23103896
-1.3342122	SimpleName VoidType MethodDeclaration	-0.22955261
-1.150516	ReturnStmt BooleanLiteralExpr MethodDeclaration	-0.35597768
-1.5675237	SimpleName BooleanLiteralExpr MethodDeclaration	-0.23103896
-1.0523812	ArrayType PrimitiveType MethodDeclaration	-0.22512385
-1.5911956	ReturnStmt NullLiteralExpr MethodDeclaration	-0.22512385
-1.8122013	SimpleName NullLiteralExpr MethodDeclaration	-0.22512385
-1.1595247	SimpleName WildcardType MethodDeclaration	-0.22512385
-1.5082747	SimpleName LongLiteralExpr MethodDeclaration	-0.25594932
-1.0964262	UnaryExpr LongLiteralExpr MethodDeclaration	-0.22512385
-0.69425184	SimpleName EmptyStmt MethodDeclaration	-0.22512385
-0.6081968	Name ClassOrInterfaceType MarkerAnnotationExpr	-0.22512385
-0.6081968	WildcardType ClassOrInterfaceType MarkerAnnotationExpr	-0.22512385
-0.07133536	ReturnStmt MethodDeclaration MarkerAnnotationExpr	-0.22512385
-0.11063592	SimpleName MethodDeclaration MarkerAnnotationExpr	-0.5990157
-0.042495243	IntegerLiteralExpr MethodDeclaration MarkerAnnotationExpr	-0.4528877
-0.06984525	StringLiteralExpr MethodDeclaration MarkerAnnotationExpr	-0.25594932
-0.20616935	VoidType MethodDeclaration MarkerAnnotationExpr	-0.22512385
-0.06984525	BooleanLiteralExpr MethodDeclaration MarkerAnnotationExpr	-0.25594932
-0.07133536	PrimitiveType MethodDeclaration MarkerAnnotationExpr	-0.22512385
-0.06984525	NullLiteralExpr MethodDeclaration MarkerAnnotationExpr	-0.25594932
-0.07133536	WildcardType MethodDeclaration MarkerAnnotationExpr	-0.22512385
-0.06984525	LongLiteralExpr MethodDeclaration MarkerAnnotationExpr	-0.25594932
-0.07133536	EmptyStmt MethodDeclaration MarkerAnnotationExpr	-0.22512385
-1.2154702	MarkerAnnotationExpr Name MarkerAnnotationExpr	-0.22512385
-0.95477676	SimpleName Parameter MarkerAnnotationExpr	-0.25594932
-0.79507434	Name StringLiteralExpr MarkerAnnotationExpr	-0.22512385
-1.5680783	StringLiteralExpr StringLiteralExpr MarkerAnnotationExpr	-0.22512385
-1.0581194	SimpleName FieldDeclaration MarkerAnnotationExpr	-0.22512385
-1.1718426	SimpleName WildcardType MarkerAnnotationExpr	-0.22512385
-0.057718027	ClassOrInterfaceType MarkerAnnotationExpr Name	-0.25594932
-0.015694838	MethodDeclaration MarkerAnnotationExpr Name	-0.5119893
-0.058931544	Name MarkerAnnotationExpr Name	-0.22512385
-0.058931544	Parameter MarkerAnnotationExpr Name	-0.22512385
-0.057718027	StringLiteralExpr MarkerAnnotationExpr Name	-0.25594932
-0.058931544	FieldDeclaration MarkerAnnotationExpr Name	-0.22512385
-0.058931544	WildcardType MarkerAnnotationExpr Name	-0.22512385
-0.7415199	MethodCallExpr ThisExpr Name	-0.25594932
-1.3751439	SimpleName ThisExpr Name	-0.23515782
-1.1535981	FieldAccessExpr ThisExpr Name	-0.22512385
-1.2528257	SynchronizedStmt ThisExpr Name	-0.22512385
-0.08313942	VariableDeclarationExpr SingleMemberAnnotationExpr Name	-0.25594932
-0.08313942	MethodDeclaration SingleMemberAnnotationExpr Name	-0.24542914
-0.084941976	Name SingleMemberAnnotationExpr Name	-0.22512385
-0.084941976	Modifier SingleMemberAnnotationExpr Name	-0.22512385
-0.084941976	FieldDeclaration SingleMemberAnnotationExpr Name	-0.22512385
-0.45804167	ExpressionStmt VariableDeclarationExpr Modifier	-0.7081602
-0.8090943	ForEachStmt VariableDeclarationExpr Modifier	-0.35597768
-0.8781524	MarkerAnnotationExpr Name Modifier	-0.22955261
-0.53488594	Name Modifier Modifier	-0.22512385
-0.6648828	Modifier Modifier Modifier	-0.22512385
-0.60984576	FieldDeclaration Modifier Modifier	-0.23103896
-0.86424196	SimpleName Parameter Modifier	-0.25594932
-1.1568408	CatchClause Parameter Modifier	-0.22512385
-0.804367	Name StringLiteralExpr Modifier	-0.22512385
-0.44998515	SimpleName FieldDeclaration Modifier	-0.25594932
-0.38393188	IntegerLiteralExpr FieldDeclaration Modifier	-0.22512385
-0.19410537	StringLiteralExpr FieldDeclaration Modifier	-0.22512385
-0.19410537	BooleanLiteralExpr FieldDeclaration Modifier	-0.22512385
-0.19410537	LongLiteralExpr FieldDeclaration Modifier	-0.22512385
-2.289061	SimpleName SimpleName Parameter	-0.22512385
-0.6501254	Modifier SimpleName Parameter	-0.23487486
-1.7129809	PrimitiveType SimpleName Parameter	-0.22512385
-1.3422685	UnknownType SimpleName Parameter	-0.22512385
-0.4612682	ReturnStmt LambdaExpr Parameter	-0.25594932
-0.384216	SimpleName LambdaExpr Parameter	-0.7081602
-0.37292483	IntegerLiteralExpr LambdaExpr Parameter	-0.25594932
-0.24476214	NullLiteralExpr LambdaExpr Parameter	-0.22512385
-0.46508938	ThisExpr LambdaExpr Parameter	-0.22512385
-0.044212647	ReturnStmt CatchClause Parameter	-0.25594932
-0.02255587	SimpleName CatchClause Parameter	-0.47259063
-0.04512726	IntegerLiteralExpr CatchClause Parameter	-0.22512385
-0.04512726	StringLiteralExpr CatchClause Parameter	-0.22512385
-0.044212647	BooleanLiteralExpr CatchClause Parameter	-0.25594932
-0.046347644	BreakStmt CatchClause Parameter	-0.23103896
-0.044212647	NullLiteralExpr CatchClause Parameter	-0.25594932
-0.04512726	ThisExpr CatchClause Parameter	-0.22512385
-0.044212647	ContinueStmt CatchClause Parameter	-0.25594932
-2.6116302	<s> ReturnStmt StringLiteralExpr	-0.9580377
-1.4920989	SimpleName ReturnStmt StringLiteralExpr	-0.23936673
-1.1770718	StringLiteralExpr ReturnStmt StringLiteralExpr	-0.24026316
-1.1418518	BooleanLiteralExpr ReturnStmt StringLiteralExpr	-0.22512385
-1.4183555	NullLiteralExpr ReturnStmt StringLiteralExpr	-0.22512385
-1.4299675	ReturnStmt MethodCallExpr StringLiteralExpr	-0.25594932
-1.6156678	BinaryExpr MethodCallExpr StringLiteralExpr	-0.22512385
-1.4836632	UnaryExpr MethodCallExpr StringLiteralExpr	-0.22512385
-1.2548654	IfStmt MethodCallExpr StringLiteralExpr	-0.35597768
-1.436201	MethodCallExpr SimpleName StringLiteralExpr	-0.24799499
-1.6740435	NameExpr SimpleName StringLiteralExpr	-0.287023
-1.4978082	SimpleName SimpleName StringLiteralExpr	-0.29177994
-1.8257852	ClassOrInterfaceType SimpleName StringLiteralExpr	-0.23770301
-1.8065245	IntegerLiteralExpr SimpleName StringLiteralExpr	-0.22512385
-1.3133987	StringLiteralExpr SimpleName StringLiteralExpr	-0.2496067
-1.5466467	BooleanLiteralExpr SimpleName StringLiteralExpr	-0.24542914
-1.3733125	ThisExpr SimpleName StringLiteralExpr	-0.22512385
-0.7819288	CharLiteralExpr SimpleName StringLiteralExpr	-0.22512385
-1.5102135	ReturnStmt IntegerLiteralExpr StringLiteralExpr	-0.22512385
