\data\
ngram 1=67
ngram 2=568
ngram 3=2052
ngram 4=5188
ngram 5=10366

\1-grams:
-2.6220691	<unk>	0
0	<s>	-3.2994475
-1.5541531	</s>	0
-1.5824447	ReturnStmt	-0.5471059
-1.358916	MethodCallExpr	-0.8186505
-1.2793158	NameExpr	-1.3371644
-1.3767496	SimpleName	-0.69134057
-1.4147764	ExpressionStmt	-0.82565737
-2.1682045	VariableDeclarationExpr	-0.351881
-2.0680642	VariableDeclarator	-0.4621032
-1.4564552	ClassOrInterfaceType	-0.86176693
-1.6127086	IntegerLiteralExpr	-0.5450957
-1.6127086	ObjectCreationExpr	-1.0061712
-1.7186761	MethodDeclaration	-0.72139835
-1.9182737	MarkerAnnotationExpr	-0.70514125
-2.298581	Name	-0.29103535
-1.9867427	Modifier	-0.32642165
-2.298581	Parameter	-0.2743438
-1.7186761	StringLiteralExpr	-0.3747263
-1.5025626	BinaryExpr	-0.74746394
-2.4857562	VoidType	-0.29570118
-1.4564552	FieldAccessExpr	-0.7153604
-1.5824447	TryStmt	-0.6131868
-1.680408	BooleanLiteralExpr	-0.44123453
-2.1682045	AssignExpr	-0.3992825
-1.7186761	EnclosedExpr	-0.46276963
-1.8591435	CastExpr	-0.5607369
-1.9182737	ArrayType	-0.60040593
-1.9867427	PrimitiveType	-0.29485458
-2.298581	ArrayInitializerExpr	-0.28553128
-1.680408	UnaryExpr	-0.59644496
-1.7186761	ArrayAccessExpr	-0.6450578
-2.1682045	DoubleLiteralExpr	-0.30282086
-1.4564552	IfStmt	-0.96286494
-1.6127086	ForStmt	-0.70368695
-1.7186761	WhileStmt	-0.6037484
-1.8071078	BreakStmt	-0.4637974
-1.6452404	NullLiteralExpr	-0.4555822
-2.1682045	ClassExpr	-0.42333165
-1.7186761	ThrowStmt	-0.7307754
-1.9867427	LambdaExpr	-0.41284814
-2.4857562	UnknownType	-0.29570118
-1.8071078	CatchClause	-0.8142857
-2.4857562	$EMPTY$	-0.29570118
-1.680408	ThisExpr	-0.36583742
-1.9867427	FieldDeclaration	-0.42333165
-2.3821619	WildcardType	-0.28489122
-1.8591435	InstanceOfExpr	-0.510545
-2.298581	MethodReferenceExpr	-0.32642165
-2.4857562	TypeExpr	-0.29570118
-1.6452404	ForEachStmt	-0.97398657
-1.8071078	LongLiteralExpr	-0.34101424
-2.4857562	SuperExpr	-0.29570118
-2.0680642	SingleMemberAnnotationExpr	-0.5590132
-2.1682045	SwitchStmt	-0.4621032
-2.0680642	SwitchEntry	-0.34781772
-2.1682045	ArrayCreationExpr	-0.40411124
-2.298581	ArrayCreationLevel	-0.3039267
-2.298581	CharLiteralExpr	-0.29479417
-1.9867427	ConditionalExpr	-0.44013765
-2.298581	EmptyStmt	-0.27434376
-2.298581	DoStmt	-0.32642165
-1.9867427	ContinueStmt	-0.449569
-1.9867427	SynchronizedStmt	-0.4621032
-2.3821619	LabeledStmt	-0.26404643
-2.4857562	LocalClassDeclarationStmt	-0.29570118
-2.4857562	ClassOrInterfaceDeclaration	-0.29570118

\2-grams:
-1.551723	ReturnStmt </s>	0
-1.4091973	SimpleName </s>	0
-1.288125	IntegerLiteralExpr </s>	0
-1.3049028	Name </s>	0
-1.3348905	StringLiteralExpr </s>	0
-1.396628	VoidType </s>	0
-1.0732151	BooleanLiteralExpr </s>	0
-0.9140537	DoubleLiteralExpr </s>	0
-1.0622482	BreakStmt </s>	0
-1.1015053	NullLiteralExpr </s>	0
-1.3594068	LambdaExpr </s>	0
-0.29417282	$EMPTY$ </s>	0
-1.06603	ThisExpr </s>	0
-1.1490668	LongLiteralExpr </s>	0
-1.3059828	CharLiteralExpr </s>	0
-0.77807945	EmptyStmt </s>	0
-0.68826425	<s> ReturnStmt	-2.2841318
-1.9500284	ReturnStmt ReturnStmt	-0.2654429
-1.7314026	SimpleName ReturnStmt	-0.29174754
-1.4219534	IntegerLiteralExpr ReturnStmt	-0.2803981
-1.4901394	StringLiteralExpr ReturnStmt	-0.2582836
-1.4063832	VoidType ReturnStmt	-0.2654429
-1.3729633	TryStmt ReturnStmt	-0.22152361
-1.5580091	BooleanLiteralExpr ReturnStmt	-0.25862217
-1.1307358	PrimitiveType ReturnStmt	-0.26631516
-1.4462705	BreakStmt ReturnStmt	-0.2654429
-1.3819072	NullLiteralExpr ReturnStmt	-0.2664342
-1.353392	ThisExpr ReturnStmt	-0.26616964
-1.2618151	WildcardType ReturnStmt	-0.2654429
-1.4924924	LongLiteralExpr ReturnStmt	-0.2654429
-0.7986243	SwitchEntry ReturnStmt	-0.2654429
-1.0263813	ReturnStmt MethodCallExpr	-0.51706904
-0.7882347	MethodCallExpr MethodCallExpr	-0.6390379
-1.2941563	SimpleName MethodCallExpr	-0.5340513
-0.6245955	ExpressionStmt MethodCallExpr	-0.7586428
-1.1205523	IntegerLiteralExpr MethodCallExpr	-0.4431586
-1.2762506	StringLiteralExpr MethodCallExpr	-0.23519513
-0.92221683	BinaryExpr MethodCallExpr	-0.49037212
-0.93605113	FieldAccessExpr MethodCallExpr	-0.3295087
-1.3441045	BooleanLiteralExpr MethodCallExpr	-0.3290041
-1.1371218	EnclosedExpr MethodCallExpr	-0.26653343
-1.2587264	PrimitiveType MethodCallExpr	-0.2654429
-1.0567298	ArrayInitializerExpr MethodCallExpr	-0.26689753
-0.72125834	UnaryExpr MethodCallExpr	-0.41183537
-0.7851243	ArrayAccessExpr MethodCallExpr	-0.2385621
-0.6882038	IfStmt MethodCallExpr	-0.6144121
-1.2653285	WhileStmt MethodCallExpr	-0.2676267
-1.0720744	NullLiteralExpr MethodCallExpr	-0.3366768
-0.7146133	ThrowStmt MethodCallExpr	-0.39761484
-1.5387223	ThisExpr MethodCallExpr	-0.2654429
-1.1947644	WildcardType MethodCallExpr	-0.2654429
-0.6202578	InstanceOfExpr MethodCallExpr	-0.3366768
-1.5096234	LongLiteralExpr MethodCallExpr	-0.2654429
-1.0370611	ArrayCreationLevel MethodCallExpr	-0.2676267
-1.2405578	CharLiteralExpr MethodCallExpr	-0.2654429
-1.150254	ConditionalExpr MethodCallExpr	-0.2654429
-1.1335535	ReturnStmt NameExpr	-0.6986448
-0.6122933	MethodCallExpr NameExpr	-1.1423423
-1.2791016	SimpleName NameExpr	-0.9485223
-1.8644675	ExpressionStmt NameExpr	-0.2654429
-1.2325944	IntegerLiteralExpr NameExpr	-0.6474923
-1.2064403	Name NameExpr	-0.2654429
-1.2467983	StringLiteralExpr NameExpr	-0.3464623
-0.75989914	BinaryExpr NameExpr	-0.97485125
-0.3768696	FieldAccessExpr NameExpr	-1.0231559
-1.3145638	BooleanLiteralExpr NameExpr	-0.3464623
-0.33952728	AssignExpr NameExpr	-0.3464623
-1.4467661	EnclosedExpr NameExpr	-0.2654429
-1.0584942	PrimitiveType NameExpr	-0.2676267
-1.0347232	ArrayInitializerExpr NameExpr	-0.2676267
-0.5223981	UnaryExpr NameExpr	-0.8235836
-0.23824501	ArrayAccessExpr NameExpr	-0.785795
-1.0609086	DoubleLiteralExpr NameExpr	-0.2676267
-0.7439133	IfStmt NameExpr	-0.9204936
-1.1223636	NullLiteralExpr NameExpr	-0.5225536
-0.561362	ThrowStmt NameExpr	-0.6474923
-1.3847598	ThisExpr NameExpr	-0.2676267
-1.1647596	WildcardType NameExpr	-0.2654429
-0.43479246	InstanceOfExpr NameExpr	-0.5895004
-1.3544105	LongLiteralExpr NameExpr	-0.2676267
-0.17193599	SwitchStmt NameExpr	-0.3464623
-0.5821019	SwitchEntry NameExpr	-0.3464623
-1.1931844	ArrayCreationLevel NameExpr	-0.2654429
-1.2080624	CharLiteralExpr NameExpr	-0.2654429
-0.7010353	ConditionalExpr NameExpr	-0.22152361
-0.65638113	SynchronizedStmt NameExpr	-0.22152361
-0.8775407	MethodCallExpr SimpleName	-0.40764877
-0.019576592	NameExpr SimpleName	-0.59246147
-1.4091806	SimpleName SimpleName	-0.42733973
-0.17342943	ClassOrInterfaceType SimpleName	-0.43047678
-1.206897	IntegerLiteralExpr SimpleName	-0.3897146
-1.062641	Name SimpleName	-0.26668945
-0.8102659	Modifier SimpleName	-0.24292827
-1.2823886	StringLiteralExpr SimpleName	-0.2510841
-1.3255962	VoidType SimpleName	-0.2654429
-1.0477633	BooleanLiteralExpr SimpleName	-0.39203435
-0.8884541	PrimitiveType SimpleName	-0.26616964
-1.2689317	DoubleLiteralExpr SimpleName	-0.2654429
-1.5381935	BreakStmt SimpleName	-0.2654429
-1.2262121	NullLiteralExpr SimpleName	-0.24923469
-1.3084328	LambdaExpr SimpleName	-0.2654429
-0.28811988	UnknownType SimpleName	-0.2654429
-1.2911958	ThisExpr SimpleName	-0.25378817
-1.0100119	WildcardType SimpleName	-0.26668945
-1.2584743	LongLiteralExpr SimpleName	-0.26731405
-0.28811988	SuperExpr SimpleName	-0.2654429
-1.0635711	CharLiteralExpr SimpleName	-0.2654429
-0.8158803	ContinueStmt SimpleName	-0.23938192
-0.3201886	LabeledStmt SimpleName	-0.26653343
-0.28811988	ClassOrInterfaceDeclaration SimpleName	-0.2654429
-0.20387134	<s> ExpressionStmt	-3.3586338
-1.2087408	ReturnStmt ExpressionStmt	-0.5267509
-1.356627	SimpleName ExpressionStmt	-0.5803437
-1.1292694	IntegerLiteralExpr ExpressionStmt	-0.60593224
-1.2599473	Name ExpressionStmt	-0.2654429
-1.1133801	StringLiteralExpr ExpressionStmt	-0.3610665
-1.3422949	VoidType ExpressionStmt	-0.2654429
-0.5378786	TryStmt ExpressionStmt	-0.70667136
-1.0539879	BooleanLiteralExpr ExpressionStmt	-0.5044746
-1.2803636	PrimitiveType ExpressionStmt	-0.2654429
-1.0974475	DoubleLiteralExpr ExpressionStmt	-0.2676267
-0.6053619	ForStmt ExpressionStmt	-0.6128832
-0.7483307	BreakStmt ExpressionStmt	-0.44337234
-0.96839154	NullLiteralExpr ExpressionStmt	-0.5267509
-0.5914395	LambdaExpr ExpressionStmt	-0.29652947
-1.0436157	ThisExpr ExpressionStmt	-0.28375122
-0.92006505	LongLiteralExpr ExpressionStmt	-0.37039682
-0.9995538	SwitchEntry ExpressionStmt	-0.26689753
-0.8689772	CharLiteralExpr ExpressionStmt	-0.24949712
-0.7636879	EmptyStmt ExpressionStmt	-0.2654429
-0.84892553	DoStmt ExpressionStmt	-0.2654429
-0.5903859	ContinueStmt ExpressionStmt	-0.3295087
-0.6812994	ExpressionStmt VariableDeclarationExpr	-0.8693411
-1.6595323	TryStmt VariableDeclarationExpr	-0.2676267
-0.5348598	ForStmt VariableDeclarationExpr	-0.85834575
-0.048396382	ForEachStmt VariableDeclarationExpr	-0.6377068
-0.47981596	VariableDeclarationExpr VariableDeclarator	-0.22753236
-1.4017832	Name VariableDeclarator	-0.2654429
-0.8569497	Modifier VariableDeclarator	-0.24361826
-1.9954529	StringLiteralExpr VariableDeclarator	-0.2654429
-0.7819877	FieldDeclaration VariableDeclarator	-0.23209411
-1.5836382	SimpleName ClassOrInterfaceType	-0.6474923
-0.50347346	VariableDeclarator ClassOrInterfaceType	-0.38550997
-0.7700697	ClassOrInterfaceType ClassOrInterfaceType	-0.44337234
-1.8789915	IntegerLiteralExpr ClassOrInterfaceType	-0.2654429
-0.04341986	ObjectCreationExpr ClassOrInterfaceType	-0.6738213
-1.2744215	Name ClassOrInterfaceType	-0.2654429
-1.2392869	Modifier ClassOrInterfaceType	-0.2654429
-0.9214663	Parameter ClassOrInterfaceType	-0.26689753
-1.6726692	StringLiteralExpr ClassOrInterfaceType	-0.2654429
-1.3596615	VoidType ClassOrInterfaceType	-0.2654429
-1.7398088	BooleanLiteralExpr ClassOrInterfaceType	-0.2654429
-0.3861341	CastExpr ClassOrInterfaceType	-0.49465445
-0.28428122	ArrayType ClassOrInterfaceType	-0.5895004
-1.2954116	PrimitiveType ClassOrInterfaceType	-0.2654429
-1.7365595	NullLiteralExpr ClassOrInterfaceType	-0.2654429
-0.26991284	ClassExpr ClassOrInterfaceType	-0.31856316
-1.4730146	ThisExpr ClassOrInterfaceType	-0.2676267
-1.226997	WildcardType ClassOrInterfaceType	-0.2654429
-0.2911358	TypeExpr ClassOrInterfaceType	-0.2654429
-0.41112772	ArrayCreationExpr ClassOrInterfaceType	-0.3464623
-1.4588513	ReturnStmt IntegerLiteralExpr	-0.25303927
-1.4510648	SimpleName IntegerLiteralExpr	-0.4345222
-1.8427421	ExpressionStmt IntegerLiteralExpr	-0.26606572
-1.1534079	IntegerLiteralExpr IntegerLiteralExpr	-0.41372168
-1.2371573	StringLiteralExpr IntegerLiteralExpr	-0.25686923
-1.1970983	BinaryExpr IntegerLiteralExpr	-0.36765164
-1.4163624	VoidType IntegerLiteralExpr	-0.2654429
-1.4171712	BooleanLiteralExpr IntegerLiteralExpr	-0.27592504
-1.1094686	ArrayInitializerExpr IntegerLiteralExpr	-0.26653343
-1.3014202	UnaryExpr IntegerLiteralExpr	-0.2667855
-1.2738171	NullLiteralExpr IntegerLiteralExpr	-0.2919625
-1.6864595	ThisExpr IntegerLiteralExpr	-0.2654429
-1.6556401	LongLiteralExpr IntegerLiteralExpr	-0.2654429
-1.0851196	ArrayCreationLevel IntegerLiteralExpr	-0.26587877
-1.2997279	ReturnStmt ObjectCreationExpr	-0.5895004
-1.5243104	MethodCallExpr ObjectCreationExpr	-0.3464623
-1.4877276	SimpleName ObjectCreationExpr	-0.785795
-1.4626206	ExpressionStmt ObjectCreationExpr	-0.3464623
-1.5119072	IntegerLiteralExpr ObjectCreationExpr	-0.44337234
-1.6520487	StringLiteralExpr ObjectCreationExpr	-0.2676267
-1.4163624	VoidType ObjectCreationExpr	-0.2654429
-1.7196684	BooleanLiteralExpr ObjectCreationExpr	-0.2676267
-1.584336	EnclosedExpr ObjectCreationExpr	-0.2654429
-1.3195398	ArrayInitializerExpr ObjectCreationExpr	-0.2654429
-1.5445172	NullLiteralExpr ObjectCreationExpr	-0.22152361
-0.45677102	ThrowStmt ObjectCreationExpr	-0.74440235
-1.5360994	ThisExpr ObjectCreationExpr	-0.2676267
-1.6556401	LongLiteralExpr ObjectCreationExpr	-0.2654429
-2.035203	ReturnStmt MethodDeclaration	-0.2654429
-1.7663082	SimpleName MethodDeclaration	-0.39761484
-1.6442975	IntegerLiteralExpr MethodDeclaration	-0.3464623
-1.6978168	StringLiteralExpr MethodDeclaration	-0.2676267
-1.4477544	VoidType MethodDeclaration	-0.2654429
-1.7655602	BooleanLiteralExpr MethodDeclaration	-0.2676267
-1.3704369	PrimitiveType MethodDeclaration	-0.2654429
-1.7461014	NullLiteralExpr MethodDeclaration	-0.2676267
-1.2918302	WildcardType MethodDeclaration	-0.2654429
-1.5381601	LongLiteralExpr MethodDeclaration	-0.2676267
-1.0340153	EmptyStmt MethodDeclaration	-0.2654429
-1.4659851	ClassOrInterfaceType MarkerAnnotationExpr	-0.2676267
-0.129436	MethodDeclaration MarkerAnnotationExpr	-0.785795
-1.3824846	Name MarkerAnnotationExpr	-0.2654429
-1.2126286	Parameter MarkerAnnotationExpr	-0.2654429
-1.7674712	StringLiteralExpr MarkerAnnotationExpr	-0.2676267
-1.2681154	FieldDeclaration MarkerAnnotationExpr	-0.2654429
-1.3240749	WildcardType MarkerAnnotationExpr	-0.2654429
-0.094844826	MarkerAnnotationExpr Name	-0.24327315
-1.2546912	ThisExpr Name	-0.24897249
-0.1394592	SingleMemberAnnotationExpr Name	-0.40818536
-0.9263759	VariableDeclarationExpr Modifier	-0.26689753
-1.3920267	Name Modifier	-0.2654429
-0.8543635	Modifier Modifier	-0.2654429
-0.97176945	Parameter Modifier	-0.26689753
-1.9646446	StringLiteralExpr Modifier	-0.2654429
-0.43667904	FieldDeclaration Modifier	-0.2884704
-2.0690544	SimpleName Parameter	-0.25545663
-0.75302494	LambdaExpr Parameter	-0.3464623
-0.07190622	CatchClause Parameter	-0.6300341
-1.4779866	ReturnStmt StringLiteralExpr	-0.26686394
-1.5361165	MethodCallExpr StringLiteralExpr	-0.3464623
-1.5896715	SimpleName StringLiteralExpr	-0.35755762
-1.6442975	IntegerLiteralExpr StringLiteralExpr	-0.25510195
-1.3462837	Name StringLiteralExpr	-0.2654429
-1.2541978	StringLiteralExpr StringLiteralExpr	-0.27314126
-1.5087079	BinaryExpr StringLiteralExpr	-0.26695883
-1.9041909	BooleanLiteralExpr StringLiteralExpr	-0.2654429
-0.90100956	ArrayInitializerExpr StringLiteralExpr	-0.2385621
-1.3722361	DoubleLiteralExpr StringLiteralExpr	-0.2654429
-1.8930787	NullLiteralExpr StringLiteralExpr	-0.2654429
-1.2230048	ReturnStmt BinaryExpr	-0.3438965
-1.5492603	SimpleName BinaryExpr	-0.47621477
-1.9785506	ExpressionStmt BinaryExpr	-0.2654429
-1.5817665	IntegerLiteralExpr BinaryExpr	-0.27472135
-1.5976799	StringLiteralExpr BinaryExpr	-0.26653343
-0.9302951	BinaryExpr BinaryExpr	-0.4793443
-1.7713377	BooleanLiteralExpr BinaryExpr	-0.2654429
-0.6746148	EnclosedExpr BinaryExpr	-0.41426384
-0.9078508	DoubleLiteralExpr BinaryExpr	-0.22152361
-0.63956076	IfStmt BinaryExpr	-0.7443586
-1.33056	ForStmt BinaryExpr	-0.2676267
-0.43100783	WhileStmt BinaryExpr	-0.45138597
-1.6524748	NullLiteralExpr BinaryExpr	-0.2654429
-1.6267657	ThisExpr BinaryExpr	-0.2654429
-1.5967118	LongLiteralExpr BinaryExpr	-0.2654429
-0.8532202	ArrayCreationLevel BinaryExpr	-0.26689753
-1.2905685	CharLiteralExpr BinaryExpr	-0.2654429
-0.3834141	ConditionalExpr BinaryExpr	-0.3322442
-1.9571525	SimpleName VoidType	-0.29172173
-1.3424194	ReturnStmt FieldAccessExpr	-0.41901952
-0.9935122	MethodCallExpr FieldAccessExpr	-0.43434703
-1.5383728	SimpleName FieldAccessExpr	-0.3996929
-1.2715216	IntegerLiteralExpr FieldAccessExpr	-0.5842767
-1.4429328	StringLiteralExpr FieldAccessExpr	-0.23209411
-1.0631807	BinaryExpr FieldAccessExpr	-0.4085217
-1.0413744	FieldAccessExpr FieldAccessExpr	-0.3464623
-1.6402858	BooleanLiteralExpr FieldAccessExpr	-0.2676267
-1.016624	AssignExpr FieldAccessExpr	-0.2654429
-1.5275244	EnclosedExpr FieldAccessExpr	-0.2654429
-1.2725618	ArrayInitializerExpr FieldAccessExpr	-0.2654429
-0.9718993	UnaryExpr FieldAccessExpr	-0.38469017
-1.2110512	ArrayAccessExpr FieldAccessExpr	-0.2676267
-1.8099833	IfStmt FieldAccessExpr	-0.2676267
-1.6290543	NullLiteralExpr FieldAccessExpr	-0.2676267
-1.5997379	ThisExpr FieldAccessExpr	-0.2654429
-1.226997	WildcardType FieldAccessExpr	-0.2654429
-1.284531	LongLiteralExpr FieldAccessExpr	-0.22152361
-1.0064666	SwitchEntry FieldAccessExpr	-0.2676267
-1.2568868	ArrayCreationLevel FieldAccessExpr	-0.2654429
-1.8908287	<s> TryStmt	-1.6110868
-1.7015744	ReturnStmt TryStmt	-0.23209411
-1.6690557	SimpleName TryStmt	-0.3421894
-1.5048809	IntegerLiteralExpr TryStmt	-0.29403242
-1.756115	StringLiteralExpr TryStmt	-0.2654429
-1.4063832	VoidType TryStmt	-0.2654429
-0.9624359	TryStmt TryStmt	-0.40818536
-1.409997	BooleanLiteralExpr TryStmt	-0.24361826
-1.3377569	DoubleLiteralExpr TryStmt	-0.2654429
-1.7564615	ForStmt TryStmt	-0.2654429
-1.2469553	BreakStmt TryStmt	-0.22152361
-1.5352335	NullLiteralExpr TryStmt	-0.24666972
-1.5249282	ThisExpr TryStmt	-0.2676267
-1.6401416	LongLiteralExpr TryStmt	-0.2654429
-1.452468	ContinueStmt TryStmt	-0.2654429
-1.2453198	ReturnStmt BooleanLiteralExpr	-0.33456066
-1.5836631	SimpleName BooleanLiteralExpr	-0.30004543
-1.8589463	ExpressionStmt BooleanLiteralExpr	-0.26653343
-1.5263104	IntegerLiteralExpr BooleanLiteralExpr	-0.25041905
-1.5211406	StringLiteralExpr BooleanLiteralExpr	-0.2654429
-1.4370363	VoidType BooleanLiteralExpr	-0.2654429
-1.4318855	BooleanLiteralExpr BooleanLiteralExpr	-0.25077197
-1.3364006	ArrayInitializerExpr BooleanLiteralExpr	-0.2654429
-1.0844462	WhileStmt BooleanLiteralExpr	-0.2385621
-1.7314258	NullLiteralExpr BooleanLiteralExpr	-0.2654429
-1.7196949	ThisExpr BooleanLiteralExpr	-0.2654429
-1.688402	LongLiteralExpr BooleanLiteralExpr	-0.2654429
-2.398759	SimpleName AssignExpr	-0.2676267
-0.7065474	ExpressionStmt AssignExpr	-0.8800649
-2.2853394	IntegerLiteralExpr AssignExpr	-0.2654429
-1.6994988	EnclosedExpr AssignExpr	-0.2654429
-1.3089241	MethodCallExpr EnclosedExpr	-0.47513217
-1.845817	SimpleName EnclosedExpr	-0.29360965
-1.9414965	IntegerLiteralExpr EnclosedExpr	-0.26653343
-1.6978168	StringLiteralExpr EnclosedExpr	-0.2676267
-1.0776556	BinaryExpr EnclosedExpr	-0.42830825
-1.3835281	FieldAccessExpr EnclosedExpr	-0.22152361
-1.6157961	EnclosedExpr EnclosedExpr	-0.2654429
-1.3704369	PrimitiveType EnclosedExpr	-0.2654429
-1.1212226	UnaryExpr EnclosedExpr	-0.22152361
-0.87788093	MethodReferenceExpr EnclosedExpr	-0.2654429
-1.705759	LongLiteralExpr EnclosedExpr	-0.2654429
-1.4038346	ReturnStmt CastExpr	-0.39761484
-1.6618819	SimpleName CastExpr	-0.5225536
-2.103691	ExpressionStmt CastExpr	-0.2654429
-1.8356867	IntegerLiteralExpr CastExpr	-0.26653343
-1.3917241	BinaryExpr CastExpr	-0.2884704
-0.6872501	EnclosedExpr CastExpr	-0.5895004
-1.6512287	ThrowStmt CastExpr	-0.2654429
-1.3481767	ArrayCreationLevel CastExpr	-0.2654429
-2.148863	SimpleName ArrayType	-0.23938192
-0.856534	VariableDeclarator ArrayType	-0.23938192
-1.3824846	Name ArrayType	-0.2654429
-1.3293387	Modifier ArrayType	-0.2654429
-1.2126286	Parameter ArrayType	-0.2654429
-1.1649551	CastExpr ArrayType	-0.26689753
-0.9858179	ClassExpr ArrayType	-0.2654429
-2.017503	SimpleName PrimitiveType	-0.30490223
-0.6539008	VariableDeclarator PrimitiveType	-0.3464623
-1.2193129	Parameter PrimitiveType	-0.2654429
-0.5827134	CastExpr PrimitiveType	-0.3709014
-0.6184397	ArrayType PrimitiveType	-0.2460741
-0.62808454	ArrayCreationExpr PrimitiveType	-0.22152361
-2.2468305	SimpleName ArrayInitializerExpr	-0.26606572
-1.4219797	Name ArrayInitializerExpr	-0.2654429
-0.89587563	ArrayCreationLevel ArrayInitializerExpr	-0.26675183
-1.5837892	ReturnStmt UnaryExpr	-0.25306296
-1.6342046	SimpleName UnaryExpr	-0.38550997
-0.89259773	ExpressionStmt UnaryExpr	-0.5865543
-1.7797353	IntegerLiteralExpr UnaryExpr	-0.24726619
-1.6820188	StringLiteralExpr UnaryExpr	-0.26653343
-1.1342139	BinaryExpr UnaryExpr	-0.50509536
-1.4008679	EnclosedExpr UnaryExpr	-0.2676267
-0.7523068	IfStmt UnaryExpr	-0.6474923
-0.5641471	WhileStmt UnaryExpr	-0.49465445
-1.8726299	NullLiteralExpr UnaryExpr	-0.2654429
-1.7196949	ThisExpr UnaryExpr	-0.2654429
-1.688402	LongLiteralExpr UnaryExpr	-0.2654429
-1.9054842	ReturnStmt ArrayAccessExpr	-0.2676267
-1.3089241	MethodCallExpr ArrayAccessExpr	-0.47513217
-1.6409603	SimpleName ArrayAccessExpr	-0.46161553
-1.9414965	IntegerLiteralExpr ArrayAccessExpr	-0.26689753
-1.6978168	StringLiteralExpr ArrayAccessExpr	-0.2676267
-1.2835987	BinaryExpr ArrayAccessExpr	-0.40818536
-1.3835281	FieldAccessExpr ArrayAccessExpr	-0.22152361
-1.9041909	BooleanLiteralExpr ArrayAccessExpr	-0.2654429
-1.0461144	AssignExpr ArrayAccessExpr	-0.2654429
-1.3132075	UnaryExpr ArrayAccessExpr	-0.22152361
-1.20174	InstanceOfExpr ArrayAccessExpr	-0.2676267
-2.2201903	SimpleName DoubleLiteralExpr	-0.26641214
-2.2853394	IntegerLiteralExpr DoubleLiteralExpr	-0.2654429
-2.192973	BinaryExpr DoubleLiteralExpr	-0.2654429
-1.4400663	DoubleLiteralExpr DoubleLiteralExpr	-0.2654429
-1.1266598	<s> IfStmt	-2.3997328
-1.3424194	ReturnStmt IfStmt	-0.3763861
-1.4254528	SimpleName IfStmt	-0.56421876
-1.565438	IntegerLiteralExpr IfStmt	-0.2794761
-1.4429328	StringLiteralExpr IfStmt	-0.24897249
-1.3596615	VoidType IfStmt	-0.2654429
-0.8079234	TryStmt IfStmt	-0.38955897
-1.1900114	BooleanLiteralExpr IfStmt	-0.31423822
-1.2954116	PrimitiveType IfStmt	-0.2654429
-1.2981833	DoubleLiteralExpr IfStmt	-0.2654429
-0.76343787	ForStmt IfStmt	-0.423827
-0.68462956	BreakStmt IfStmt	-0.48099345
-1.4915773	NullLiteralExpr IfStmt	-0.25306296
-1.3331724	LambdaExpr IfStmt	-0.2654429
-1.164181	ThisExpr IfStmt	-0.26731405
-1.284531	LongLiteralExpr IfStmt	-0.26689753
-1.0819116	CharLiteralExpr IfStmt	-0.2654429
-0.9961468	EmptyStmt IfStmt	-0.2654429
-0.37528017	DoStmt IfStmt	-0.26653343
-0.8230481	ContinueStmt IfStmt	-0.30490223
-1.7114271	<s> ForStmt	-2.0373964
-1.712626	ReturnStmt ForStmt	-0.26731405
-1.5718901	SimpleName ForStmt	-0.4793443
-1.6163894	IntegerLiteralExpr ForStmt	-0.29960102
-1.7749164	StringLiteralExpr ForStmt	-0.2654429
-1.4163624	VoidType ForStmt	-0.2654429
-1.0635701	TryStmt ForStmt	-0.38469017
-1.568131	BooleanLiteralExpr ForStmt	-0.26689753
-1.34371	ForStmt ForStmt	-0.24361826
-1.6399909	BreakStmt ForStmt	-0.2654429
-1.8344122	NullLiteralExpr ForStmt	-0.2654429
-1.3731432	LambdaExpr ForStmt	-0.2654429
-1.6864595	ThisExpr ForStmt	-0.2654429
-1.5034671	LongLiteralExpr ForStmt	-0.2654429
-3.4048877	<s> WhileStmt	-0.5573157
-2.035203	ReturnStmt WhileStmt	-0.2654429
-1.845817	SimpleName WhileStmt	-0.2673387
-2.060643	IntegerLiteralExpr WhileStmt	-0.2654429
-1.4477544	VoidType WhileStmt	-0.2654429
-1.2015285	TryStmt WhileStmt	-0.23209411
-1.9041909	BooleanLiteralExpr WhileStmt	-0.2654429
-1.7924479	ForStmt WhileStmt	-0.2654429
-1.7461014	NullLiteralExpr WhileStmt	-0.26689753
-1.705759	LongLiteralExpr WhileStmt	-0.2654429
-1.3470968	CharLiteralExpr WhileStmt	-0.2654429
-2.0850027	ReturnStmt BreakStmt	-0.2654429
-1.9714266	SimpleName BreakStmt	-0.26039988
-2.113899	IntegerLiteralExpr BreakStmt	-0.2654429
-1.883498	StringLiteralExpr BreakStmt	-0.2654429
-1.7990915	BooleanLiteralExpr BreakStmt	-0.2654429
-1.4927309	BreakStmt BreakStmt	-0.26689753
-1.9371133	NullLiteralExpr BreakStmt	-0.2654429
-1.7427037	LongLiteralExpr BreakStmt	-0.2654429
-1.5012963	ContinueStmt BreakStmt	-0.2654429
-1.377182	ReturnStmt NullLiteralExpr	-0.32876
-1.6838313	SimpleName NullLiteralExpr	-0.29097778
-1.8507686	ExpressionStmt NullLiteralExpr	-0.2654429
-1.5190492	IntegerLiteralExpr NullLiteralExpr	-0.27450058
-1.3292553	Name NullLiteralExpr	-0.2654429
-1.6667752	StringLiteralExpr NullLiteralExpr	-0.26689753
-1.8652124	BinaryExpr NullLiteralExpr	-0.26689753
-1.4265764	VoidType NullLiteralExpr	-0.2654429
-1.7344334	BooleanLiteralExpr NullLiteralExpr	-0.26631516
-1.1145965	ArrayInitializerExpr NullLiteralExpr	-0.2654429
-1.3950089	NullLiteralExpr NullLiteralExpr	-0.25077197
-1.7027593	ThisExpr NullLiteralExpr	-0.2654429
-1.6717122	LongLiteralExpr NullLiteralExpr	-0.2654429
-1.7637587	MethodCallExpr ClassExpr	-0.22152361
-1.6342325	SimpleName ClassExpr	-0.6986448
-2.2853394	IntegerLiteralExpr ClassExpr	-0.2654429
-2.0286145	StringLiteralExpr ClassExpr	-0.2654429
-1.5388339	<s> ThrowStmt	-2.3249383
-1.7663082	SimpleName ThrowStmt	-0.33428547
-1.9414965	IntegerLiteralExpr ThrowStmt	-0.26653343
-1.6978168	StringLiteralExpr ThrowStmt	-0.26653343
-1.4477544	VoidType ThrowStmt	-0.2654429
-1.8060057	TryStmt ThrowStmt	-0.2654429
-1.5999941	BooleanLiteralExpr ThrowStmt	-0.23209411
-1.3704369	PrimitiveType ThrowStmt	-0.2654429
-1.7461014	NullLiteralExpr ThrowStmt	-0.2671891
-1.3945986	LambdaExpr ThrowStmt	-0.2654429
-1.705759	LongLiteralExpr ThrowStmt	-0.2654429
-2.1723826	ReturnStmt LambdaExpr	-0.2654429
-1.6210275	SimpleName LambdaExpr	-0.42276096
-2.049008	IntegerLiteralExpr LambdaExpr	-0.26689753
-2.0128691	NullLiteralExpr LambdaExpr	-0.2654429
-1.4328955	LambdaExpr LambdaExpr	-0.2654429
-1.8380789	ThisExpr LambdaExpr	-0.2654429
-0.98728096	Parameter UnknownType	-0.2676267
-1.9418681	ReturnStmt CatchClause	-0.2676267
-1.7848727	SimpleName CatchClause	-0.5225536
-1.9813668	IntegerLiteralExpr CatchClause	-0.2676267
-1.883498	StringLiteralExpr CatchClause	-0.2654429
-1.7990915	BooleanLiteralExpr CatchClause	-0.2676267
-1.2757329	BreakStmt CatchClause	-0.22152361
-1.7770298	NullLiteralExpr CatchClause	-0.2676267
-1.7748655	ThisExpr CatchClause	-0.2654429
-1.2717205	ContinueStmt CatchClause	-0.2676267
-1.5262318	<s> $EMPTY$	-2.6996088
-1.73561	ReturnStmt ThisExpr	-0.23209411
-1.4048713	MethodCallExpr ThisExpr	-0.24361826
-1.6914121	SimpleName ThisExpr	-0.28637698
-2.0362792	IntegerLiteralExpr ThisExpr	-0.2654429
-2.0490618	BinaryExpr ThisExpr	-0.2654429
-0.8705938	FieldAccessExpr ThisExpr	-0.5331241
-1.8825377	BooleanLiteralExpr ThisExpr	-0.2654429
-1.8726299	NullLiteralExpr ThisExpr	-0.2654429
-1.3762745	ThisExpr ThisExpr	-0.25077197
-1.1980009	InstanceOfExpr ThisExpr	-0.2676267
-1.688402	LongLiteralExpr ThisExpr	-0.2654429
-0.33755222	SynchronizedStmt ThisExpr	-0.40818536
-2.017503	SimpleName FieldDeclaration	-0.23209411
-2.2084775	IntegerLiteralExpr FieldDeclaration	-0.2654429
-1.9646446	StringLiteralExpr FieldDeclaration	-0.2654429
-1.5057127	VoidType FieldDeclaration	-0.2654429
-2.0323904	BooleanLiteralExpr FieldDeclaration	-0.2654429
-1.8047783	LongLiteralExpr FieldDeclaration	-0.2654429
-2.46156	SimpleName WildcardType	-0.2658392
-1.3634641	WildcardType WildcardType	-0.2654429
-1.9612709	ReturnStmt InstanceOfExpr	-0.2676267
-1.8798531	SimpleName InstanceOfExpr	-0.3295087
-2.103691	ExpressionStmt InstanceOfExpr	-0.2654429
-2.1431947	IntegerLiteralExpr InstanceOfExpr	-0.2654429
-1.9088987	StringLiteralExpr InstanceOfExpr	-0.2654429
-1.918487	BinaryExpr InstanceOfExpr	-0.2654429
-1.2033315	EnclosedExpr InstanceOfExpr	-0.2385621
-1.0035071	IfStmt InstanceOfExpr	-0.47563672
-2.0739055	ReturnStmt MethodReferenceExpr	-0.2676267
-1.8458624	SimpleName MethodReferenceExpr	-0.40818536
-2.3295577	IntegerLiteralExpr MethodReferenceExpr	-0.2654429
-0.39096153	MethodReferenceExpr TypeExpr	-0.22152361
-2.7176433	<s> ForEachStmt	-1.5152544
-1.8719143	ReturnStmt ForEachStmt	-0.2676267
-1.8245232	SimpleName ForEachStmt	-0.44337234
-1.6254942	IntegerLiteralExpr ForEachStmt	-0.3464623
-1.7945688	StringLiteralExpr ForEachStmt	-0.2654429
-1.4265764	VoidType ForEachStmt	-0.2654429
-1.5890161	TryStmt ForEachStmt	-0.2676267
-1.5784944	BooleanLiteralExpr ForEachStmt	-0.22152361
-1.6516169	BreakStmt ForEachStmt	-0.2654429
-1.8531008	NullLiteralExpr ForEachStmt	-0.2654429
-1.7027593	ThisExpr ForEachStmt	-0.2654429
-1.5147263	LongLiteralExpr ForEachStmt	-0.2676267
-1.3301814	CharLiteralExpr ForEachStmt	-0.2654429
-1.6094949	ReturnStmt LongLiteralExpr	-0.26631516
-1.7149822	SimpleName LongLiteralExpr	-0.286895
-1.9813668	IntegerLiteralExpr LongLiteralExpr	-0.2654429
-1.4700184	VoidType LongLiteralExpr	-0.2654429
-1.9510326	BooleanLiteralExpr LongLiteralExpr	-0.2654429
-1.5440402	UnaryExpr LongLiteralExpr	-0.26631516
-1.9371133	NullLiteralExpr LongLiteralExpr	-0.2654429
-1.7748655	ThisExpr LongLiteralExpr	-0.2654429
-1.5629307	LongLiteralExpr LongLiteralExpr	-0.2674277
-1.4354091	MethodCallExpr SuperExpr	-0.44337234
-0.9292558	VariableDeclarationExpr SingleMemberAnnotationExpr	-0.2676267
-1.1444246	MethodDeclaration SingleMemberAnnotationExpr	-0.2676267
-1.4017832	Name SingleMemberAnnotationExpr	-0.2654429
-1.3450134	Modifier SingleMemberAnnotationExpr	-0.2654429
-1.2789459	FieldDeclaration SingleMemberAnnotationExpr	-0.2654429
-4.244556	<s> SwitchStmt	-0.22152361
-2.398759	SimpleName SwitchStmt	-0.2676267
-2.0965571	BooleanLiteralExpr SwitchStmt	-0.2654429
-1.8859906	ThisExpr SwitchStmt	-0.2654429
-2.3614292	SimpleName SwitchEntry	-0.26653343
-1.9954529	StringLiteralExpr SwitchEntry	-0.2654429
-1.8750886	BooleanLiteralExpr SwitchEntry	-0.26653343
-1.5267179	BreakStmt SwitchEntry	-0.2676267
-1.5371925	ContinueStmt SwitchEntry	-0.2654429
-1.8420664	ReturnStmt ArrayCreationExpr	-0.23938192
-1.7573524	SimpleName ArrayCreationExpr	-0.39761484
-2.2853394	IntegerLiteralExpr ArrayCreationExpr	-0.2654429
-2.0718787	NullLiteralExpr ArrayCreationExpr	-0.2654429
-2.6128852	SimpleName ArrayCreationLevel	-0.2654429
-1.4501148	PrimitiveType ArrayCreationLevel	-0.2654429
-1.1049354	WildcardType ArrayCreationLevel	-0.2654429
-2.2468305	SimpleName CharLiteralExpr	-0.26653343
-2.3295577	IntegerLiteralExpr CharLiteralExpr	-0.2654429
-1.422234	CharLiteralExpr CharLiteralExpr	-0.2654429
-2.0028882	ReturnStmt ConditionalExpr	-0.26689753
-2.017503	SimpleName ConditionalExpr	-0.23259868
-2.133712	ExpressionStmt ConditionalExpr	-0.2654429
-1.6738936	EnclosedExpr ConditionalExpr	-0.2654429
-2.1276019	IfStmt ConditionalExpr	-0.2654429
-1.8380789	ThisExpr ConditionalExpr	-0.2654429
-2.4396017	SimpleName EmptyStmt	-0.2654429
-2.3295577	IntegerLiteralExpr EmptyStmt	-0.2654429
-2.0645194	StringLiteralExpr EmptyStmt	-0.2654429
-2.0690544	SimpleName DoStmt	-0.3464623
-2.3295577	IntegerLiteralExpr DoStmt	-0.2654429
-2.132586	BooleanLiteralExpr DoStmt	-0.2654429
-2.1723826	ReturnStmt ContinueStmt	-0.2654429
-2.3270555	SimpleName ContinueStmt	-0.26641214
-2.2084775	IntegerLiteralExpr ContinueStmt	-0.2654429
-1.9646446	StringLiteralExpr ContinueStmt	-0.2654429
-2.0323904	BooleanLiteralExpr ContinueStmt	-0.2654429
-2.0128691	NullLiteralExpr ContinueStmt	-0.2654429
-2.9152293	<s> SynchronizedStmt	-1.0231559
-2.0028882	ReturnStmt SynchronizedStmt	-0.2676267
-1.9041224	SimpleName SynchronizedStmt	-0.3464623
-2.049008	IntegerLiteralExpr SynchronizedStmt	-0.2676267
-1.5057127	VoidType SynchronizedStmt	-0.2654429
-1.8548067	BooleanLiteralExpr SynchronizedStmt	-0.2676267
-2.2607894	SimpleName LabeledStmt	-0.22152361
-2.3534784	IntegerLiteralExpr LabeledStmt	-0.2654429
-2.6819153	SimpleName LocalClassDeclarationStmt	-0.2654429
-0.30497283	LocalClassDeclarationStmt ClassOrInterfaceDeclaration	-0.2654429

\3-grams:
-1.529999	SimpleName ReturnStmt </s>	0
-1.4377623	IntegerLiteralExpr ReturnStmt </s>	0
-1.4438605	NullLiteralExpr ReturnStmt </s>	0
-1.038928	ThisExpr ReturnStmt </s>	0
-1.3845631	MethodCallExpr SimpleName </s>	0
-1.2394987	NameExpr SimpleName </s>	0
-1.3229256	SimpleName SimpleName </s>	0
-1.3739586	ClassOrInterfaceType SimpleName </s>	0
-1.1651227	IntegerLiteralExpr SimpleName </s>	0
-1.4111614	StringLiteralExpr SimpleName </s>	0
-0.9484111	VoidType SimpleName </s>	0
-1.0838482	BooleanLiteralExpr SimpleName </s>	0
-1.0137995	NullLiteralExpr SimpleName </s>	0
-1.2025564	UnknownType SimpleName </s>	0
-1.2361939	ThisExpr SimpleName </s>	0
-1.0615834	LongLiteralExpr SimpleName </s>	0
-1.0115764	SuperExpr SimpleName </s>	0
-1.0663013	ReturnStmt IntegerLiteralExpr </s>	0
-1.2670851	SimpleName IntegerLiteralExpr </s>	0
-1.0303873	ExpressionStmt IntegerLiteralExpr </s>	0
-0.9699149	IntegerLiteralExpr IntegerLiteralExpr </s>	0
-1.0258178	StringLiteralExpr IntegerLiteralExpr </s>	0
-1.0716563	BooleanLiteralExpr IntegerLiteralExpr </s>	0
-1.1989154	UnaryExpr IntegerLiteralExpr </s>	0
-1.1327946	ArrayCreationLevel IntegerLiteralExpr </s>	0
-1.0700889	ThisExpr Name </s>	0
-0.7893249	ReturnStmt StringLiteralExpr </s>	0
-1.214199	SimpleName StringLiteralExpr </s>	0
-0.98980474	IntegerLiteralExpr StringLiteralExpr </s>	0
-1.2007005	StringLiteralExpr StringLiteralExpr </s>	0
-1.1376065	SimpleName VoidType </s>	0
-0.8164986	ReturnStmt BooleanLiteralExpr </s>	0
-1.1399173	SimpleName BooleanLiteralExpr </s>	0
-0.79571414	ExpressionStmt BooleanLiteralExpr </s>	0
-0.99317133	IntegerLiteralExpr BooleanLiteralExpr </s>	0
-0.9539759	StringLiteralExpr BooleanLiteralExpr </s>	0
-0.56145453	VoidType BooleanLiteralExpr </s>	0
-1.1376817	BooleanLiteralExpr BooleanLiteralExpr </s>	0
-0.7027107	NullLiteralExpr BooleanLiteralExpr </s>	0
-0.9325199	SimpleName DoubleLiteralExpr </s>	0
-0.5304759	IntegerLiteralExpr DoubleLiteralExpr </s>	0
-0.80242544	DoubleLiteralExpr DoubleLiteralExpr </s>	0
-0.99116045	SimpleName BreakStmt </s>	0
-0.8586019	IntegerLiteralExpr BreakStmt </s>	0
-0.70015	StringLiteralExpr BreakStmt </s>	0
-0.94941956	BooleanLiteralExpr BreakStmt </s>	0
-0.7823137	ReturnStmt NullLiteralExpr </s>	0
-1.0611649	SimpleName NullLiteralExpr </s>	0
-0.9639148	IntegerLiteralExpr NullLiteralExpr </s>	0
-0.92433494	StringLiteralExpr NullLiteralExpr </s>	0
-0.8718164	BooleanLiteralExpr NullLiteralExpr </s>	0
-0.7090905	ThisExpr NullLiteralExpr </s>	0
-0.30080232	LongLiteralExpr NullLiteralExpr </s>	0
-1.4169194	SimpleName LambdaExpr </s>	0
-0.0004269659	<s> $EMPTY$ </s>	0
-0.45593366	ReturnStmt ThisExpr </s>	0
-0.9432575	SimpleName ThisExpr </s>	0
-0.70103866	BooleanLiteralExpr ThisExpr </s>	0
-0.5602461	NullLiteralExpr ThisExpr </s>	0
-0.8226233	ThisExpr ThisExpr </s>	0
-0.6527958	ReturnStmt LongLiteralExpr </s>	0
-1.1027648	SimpleName LongLiteralExpr </s>	0
-0.3046882	VoidType LongLiteralExpr </s>	0
-0.9137539	LongLiteralExpr LongLiteralExpr </s>	0
-1.1879663	SimpleName CharLiteralExpr </s>	0
-0.61457455	SimpleName EmptyStmt </s>	0
-0.2614035	IntegerLiteralExpr EmptyStmt </s>	0
-1.9385638	SimpleName ReturnStmt ReturnStmt	-0.2255479
-1.4780059	MethodCallExpr SimpleName ReturnStmt	-0.2466607
-1.3813021	NameExpr SimpleName ReturnStmt	-0.36565018
-1.8756856	SimpleName SimpleName ReturnStmt	-0.24002029
-1.5517335	ClassOrInterfaceType SimpleName ReturnStmt	-0.26309335
-1.2869638	UnknownType SimpleName ReturnStmt	-0.2255479
-1.6161029	ThisExpr SimpleName ReturnStmt	-0.2255479
-1.1874397	ReturnStmt IntegerLiteralExpr ReturnStmt	-0.25838178
-1.6572751	SimpleName IntegerLiteralExpr ReturnStmt	-0.24214147
-1.5597599	IntegerLiteralExpr IntegerLiteralExpr ReturnStmt	-0.24715908
-1.1098498	ArrayInitializerExpr IntegerLiteralExpr ReturnStmt	-0.2255479
-1.2528733	UnaryExpr IntegerLiteralExpr ReturnStmt	-0.2255479
-1.1788149	ArrayCreationLevel IntegerLiteralExpr ReturnStmt	-0.2255479
-1.034262	ReturnStmt StringLiteralExpr ReturnStmt	-0.24165463
-1.4492018	SimpleName StringLiteralExpr ReturnStmt	-0.22751293
-1.4400749	StringLiteralExpr StringLiteralExpr ReturnStmt	-0.2255479
-1.5096474	SimpleName VoidType ReturnStmt	-0.2255479
-1.9280009	<s> TryStmt ReturnStmt	-0.5159224
-1.3867416	SimpleName TryStmt ReturnStmt	-0.2255479
-1.0489655	NullLiteralExpr TryStmt ReturnStmt	-0.2255479
-1.1412853	ReturnStmt BooleanLiteralExpr ReturnStmt	-0.24993767
-1.5187624	SimpleName BooleanLiteralExpr ReturnStmt	-0.23284984
-1.3878793	BooleanLiteralExpr BooleanLiteralExpr ReturnStmt	-0.2255479
-0.65778404	SimpleName PrimitiveType ReturnStmt	-0.2170027
-0.9693058	ArrayType PrimitiveType ReturnStmt	-0.2255479
-1.3932422	SimpleName BreakStmt ReturnStmt	-0.2255479
-0.95513755	IntegerLiteralExpr BreakStmt ReturnStmt	-0.2255479
-1.2497189	ReturnStmt NullLiteralExpr ReturnStmt	-0.23838511
-1.2748843	SimpleName NullLiteralExpr ReturnStmt	-0.23310752
-1.3236259	IntegerLiteralExpr NullLiteralExpr ReturnStmt	-0.2255479
-1.0058318	StringLiteralExpr NullLiteralExpr ReturnStmt	-0.2255479
-0.85294735	ReturnStmt ThisExpr ReturnStmt	-0.2255479
-1.3673203	SimpleName ThisExpr ReturnStmt	-0.23838511
-1.1209577	ThisExpr ThisExpr ReturnStmt	-0.2255479
-1.1472458	SimpleName WildcardType ReturnStmt	-0.2255479
-0.9630261	ReturnStmt LongLiteralExpr ReturnStmt	-0.2255479
-1.594934	SimpleName LongLiteralExpr ReturnStmt	-0.2255479
-0.69811535	SimpleName SwitchEntry ReturnStmt	-0.2255479
-0.5017774	StringLiteralExpr SwitchEntry ReturnStmt	-0.2255479
-0.69811535	BooleanLiteralExpr SwitchEntry ReturnStmt	-0.2255479
-0.29577824	<s> ReturnStmt MethodCallExpr	-2.4415925
-0.99474585	SimpleName ReturnStmt MethodCallExpr	-0.29595527
-0.8123661	IntegerLiteralExpr ReturnStmt MethodCallExpr	-0.29767293
-0.9262383	StringLiteralExpr ReturnStmt MethodCallExpr	-0.21912327
-0.34098122	TryStmt ReturnStmt MethodCallExpr	-0.21489242
-0.9746932	BooleanLiteralExpr ReturnStmt MethodCallExpr	-0.25838178
-0.84474355	PrimitiveType ReturnStmt MethodCallExpr	-0.24715908
-1.032568	NullLiteralExpr ReturnStmt MethodCallExpr	-0.25838178
-0.89550257	ThisExpr ReturnStmt MethodCallExpr	-0.2255479
-0.29381618	WildcardType ReturnStmt MethodCallExpr	-0.2255479
-0.84608805	LongLiteralExpr ReturnStmt MethodCallExpr	-0.2255479
-0.69142354	SwitchEntry ReturnStmt MethodCallExpr	-0.2255479
-0.6737292	ReturnStmt MethodCallExpr MethodCallExpr	-0.36428186
-0.6620352	MethodCallExpr MethodCallExpr MethodCallExpr	-0.4585888
-0.7836561	SimpleName MethodCallExpr MethodCallExpr	-0.4562953
-0.7970882	ExpressionStmt MethodCallExpr MethodCallExpr	-0.63613015
-0.9363874	IntegerLiteralExpr MethodCallExpr MethodCallExpr	-0.2299826
-0.7282698	StringLiteralExpr MethodCallExpr MethodCallExpr	-0.23747669
-1.0269544	BinaryExpr MethodCallExpr MethodCallExpr	-0.23072614
-0.7740242	FieldAccessExpr MethodCallExpr MethodCallExpr	-0.24715908
-0.6936226	EnclosedExpr MethodCallExpr MethodCallExpr	-0.2255479
-0.49890614	PrimitiveType MethodCallExpr MethodCallExpr	-0.2255479
-0.6188623	ArrayInitializerExpr MethodCallExpr MethodCallExpr	-0.2255479
-0.76190835	UnaryExpr MethodCallExpr MethodCallExpr	-0.29830456
-0.73170996	ArrayAccessExpr MethodCallExpr MethodCallExpr	-0.2255479
-0.88324666	IfStmt MethodCallExpr MethodCallExpr	-0.37789726
-0.9002634	NullLiteralExpr MethodCallExpr MethodCallExpr	-0.2255479
-0.6815438	InstanceOfExpr MethodCallExpr MethodCallExpr	-0.21912327
-0.61832905	LongLiteralExpr MethodCallExpr MethodCallExpr	-0.2255479
-1.105709	MethodCallExpr SimpleName MethodCallExpr	-0.41314945
-1.3354394	NameExpr SimpleName MethodCallExpr	-0.42258596
-1.2843256	SimpleName SimpleName MethodCallExpr	-0.34767586
-1.3975544	ClassOrInterfaceType SimpleName MethodCallExpr	-0.36207432
-1.0670663	IntegerLiteralExpr SimpleName MethodCallExpr	-0.3850847
-1.0323689	Name SimpleName MethodCallExpr	-0.2255479
-1.1373385	StringLiteralExpr SimpleName MethodCallExpr	-0.23072614
-0.9243494	VoidType SimpleName MethodCallExpr	-0.2255479
-0.9662982	BooleanLiteralExpr SimpleName MethodCallExpr	-0.5159224
-1.2351518	PrimitiveType SimpleName MethodCallExpr	-0.2440051
-1.0649002	NullLiteralExpr SimpleName MethodCallExpr	-0.25838178
-0.591388	LambdaExpr SimpleName MethodCallExpr	-0.2255479
-1.2502801	ThisExpr SimpleName MethodCallExpr	-0.25838178
-1.0305532	WildcardType SimpleName MethodCallExpr	-0.23838511
-1.0307374	LongLiteralExpr SimpleName MethodCallExpr	-0.25838178
-0.74472225	CharLiteralExpr SimpleName MethodCallExpr	-0.2255479
-0.2538907	<s> ExpressionStmt MethodCallExpr	-2.8798246
-0.5520547	ReturnStmt ExpressionStmt MethodCallExpr	-0.351509
-0.5145182	SimpleName ExpressionStmt MethodCallExpr	-0.533377
-0.35448927	IntegerLiteralExpr ExpressionStmt MethodCallExpr	-0.46834344
-0.44676614	Name ExpressionStmt MethodCallExpr	-0.2255479
-0.69198185	StringLiteralExpr ExpressionStmt MethodCallExpr	-0.22313751
-0.6141446	VoidType ExpressionStmt MethodCallExpr	-0.2255479
-0.38060048	TryStmt ExpressionStmt MethodCallExpr	-0.5330357
-0.45854163	BooleanLiteralExpr ExpressionStmt MethodCallExpr	-0.42006627
-0.44676614	PrimitiveType ExpressionStmt MethodCallExpr	-0.2255479
-0.44589847	DoubleLiteralExpr ExpressionStmt MethodCallExpr	-0.24165463
-1.0717106	ForStmt ExpressionStmt MethodCallExpr	-0.2255479
-0.7089741	BreakStmt ExpressionStmt MethodCallExpr	-0.2886292
-0.36601877	NullLiteralExpr ExpressionStmt MethodCallExpr	-0.45417136
-0.46880144	LambdaExpr ExpressionStmt MethodCallExpr	-0.2299826
-0.4343992	ThisExpr ExpressionStmt MethodCallExpr	-0.31095046
-0.31618294	LongLiteralExpr ExpressionStmt MethodCallExpr	-0.330149
-0.3614444	SwitchEntry ExpressionStmt MethodCallExpr	-0.2255479
-0.54750437	CharLiteralExpr ExpressionStmt MethodCallExpr	-0.24165463
-0.44676614	DoStmt ExpressionStmt MethodCallExpr	-0.2255479
-0.69217974	ContinueStmt ExpressionStmt MethodCallExpr	-0.24715908
-1.1932573	ReturnStmt IntegerLiteralExpr MethodCallExpr	-0.2255479
-1.2007804	SimpleName IntegerLiteralExpr MethodCallExpr	-0.38814095
-0.97311735	ExpressionStmt IntegerLiteralExpr MethodCallExpr	-0.2255479
-1.2204756	IntegerLiteralExpr IntegerLiteralExpr MethodCallExpr	-0.29767293
-1.1272628	StringLiteralExpr IntegerLiteralExpr MethodCallExpr	-0.2255479
-0.8626738	BinaryExpr IntegerLiteralExpr MethodCallExpr	-0.33983114
-1.1629395	BooleanLiteralExpr IntegerLiteralExpr MethodCallExpr	-0.2255479
-1.007998	ArrayInitializerExpr IntegerLiteralExpr MethodCallExpr	-0.2255479
-1.232272	UnaryExpr IntegerLiteralExpr MethodCallExpr	-0.2255479
-1.1147038	NullLiteralExpr IntegerLiteralExpr MethodCallExpr	-0.2255479
-1.0614576	ArrayCreationLevel IntegerLiteralExpr MethodCallExpr	-0.2255479
-1.2652602	SimpleName StringLiteralExpr MethodCallExpr	-0.31964713
-1.17051	IntegerLiteralExpr StringLiteralExpr MethodCallExpr	-0.2255479
-1.1767946	StringLiteralExpr StringLiteralExpr MethodCallExpr	-0.24165463
-0.9644178	BinaryExpr StringLiteralExpr MethodCallExpr	-0.2433962
-0.9178908	ReturnStmt BinaryExpr MethodCallExpr	-0.27114135
-0.89473975	SimpleName BinaryExpr MethodCallExpr	-0.33945826
-0.9509143	IntegerLiteralExpr BinaryExpr MethodCallExpr	-0.24715908
-0.7469594	StringLiteralExpr BinaryExpr MethodCallExpr	-0.2255479
-0.8427219	BinaryExpr BinaryExpr MethodCallExpr	-0.43621665
-0.8058214	EnclosedExpr BinaryExpr MethodCallExpr	-0.43674117
-0.7244113	IfStmt BinaryExpr MethodCallExpr	-0.65821105
-0.7937839	WhileStmt BinaryExpr MethodCallExpr	-0.35566485
-0.8058328	NullLiteralExpr BinaryExpr MethodCallExpr	-0.2255479
-0.5322943	ThisExpr BinaryExpr MethodCallExpr	-0.2255479
-0.8510445	ArrayCreationLevel BinaryExpr MethodCallExpr	-0.2255479
-0.8783405	ConditionalExpr BinaryExpr MethodCallExpr	-0.25838178
-1.0224532	ReturnStmt FieldAccessExpr MethodCallExpr	-0.2255479
-1.0335641	MethodCallExpr FieldAccessExpr MethodCallExpr	-0.24715908
-1.0241884	SimpleName FieldAccessExpr MethodCallExpr	-0.24715908
-1.0915781	IntegerLiteralExpr FieldAccessExpr MethodCallExpr	-0.2255479
-0.9514734	BinaryExpr FieldAccessExpr MethodCallExpr	-0.21489242
-0.28384432	EnclosedExpr FieldAccessExpr MethodCallExpr	-0.2255479
-1.4773364	ReturnStmt BooleanLiteralExpr MethodCallExpr	-0.2255479
-1.452296	SimpleName BooleanLiteralExpr MethodCallExpr	-0.25838178
-1.2811844	IntegerLiteralExpr BooleanLiteralExpr MethodCallExpr	-0.2255479
-1.2939422	BooleanLiteralExpr BooleanLiteralExpr MethodCallExpr	-0.2255479
-0.91817766	SimpleName EnclosedExpr MethodCallExpr	-0.2255479
-0.8130355	IntegerLiteralExpr EnclosedExpr MethodCallExpr	-0.2255479
-1.2389224	BinaryExpr EnclosedExpr MethodCallExpr	-0.2255479
-0.97019684	CastExpr PrimitiveType MethodCallExpr	-0.25838178
-0.9473639	SimpleName ArrayInitializerExpr MethodCallExpr	-0.2255479
-0.8554696	ArrayCreationLevel ArrayInitializerExpr MethodCallExpr	-0.24715908
-0.70312405	ReturnStmt UnaryExpr MethodCallExpr	-0.25838178
-0.91358167	SimpleName UnaryExpr MethodCallExpr	-0.25838178
-0.62168854	IntegerLiteralExpr UnaryExpr MethodCallExpr	-0.24715908
-0.6631866	StringLiteralExpr UnaryExpr MethodCallExpr	-0.2255479
-0.46942773	BinaryExpr UnaryExpr MethodCallExpr	-0.31444186
-0.44190526	IfStmt UnaryExpr MethodCallExpr	-0.4657752
-0.19487062	WhileStmt UnaryExpr MethodCallExpr	-0.58286923
-0.4791744	NullLiteralExpr UnaryExpr MethodCallExpr	-0.2255479
-0.9199124	MethodCallExpr ArrayAccessExpr MethodCallExpr	-0.2255479
-0.8053594	SimpleName ArrayAccessExpr MethodCallExpr	-0.21753186
-0.61772066	IntegerLiteralExpr ArrayAccessExpr MethodCallExpr	-0.2255479
-0.8529656	BinaryExpr ArrayAccessExpr MethodCallExpr	-0.2255479
-0.5166836	<s> IfStmt MethodCallExpr	-1.882654
-0.6330963	ReturnStmt IfStmt MethodCallExpr	-0.21489242
-0.84657735	SimpleName IfStmt MethodCallExpr	-0.28112948
-0.6827444	IntegerLiteralExpr IfStmt MethodCallExpr	-0.25838178
-0.5761061	StringLiteralExpr IfStmt MethodCallExpr	-0.22094922
-0.64668113	VoidType IfStmt MethodCallExpr	-0.2255479
-0.833591	TryStmt IfStmt MethodCallExpr	-0.21753186
-0.7175064	BooleanLiteralExpr IfStmt MethodCallExpr	-0.23176919
-0.44488198	ForStmt IfStmt MethodCallExpr	-0.47813386
-0.7215192	BreakStmt IfStmt MethodCallExpr	-0.31444186
-0.6851093	NullLiteralExpr IfStmt MethodCallExpr	-0.2516134
-0.615788	ThisExpr IfStmt MethodCallExpr	-0.25838178
-0.72790575	LongLiteralExpr IfStmt MethodCallExpr	-0.2255479
-0.57889307	CharLiteralExpr IfStmt MethodCallExpr	-0.2255479
-0.24521832	EmptyStmt IfStmt MethodCallExpr	-0.2255479
-0.46724904	DoStmt IfStmt MethodCallExpr	-0.24715908
-0.5454279	ContinueStmt IfStmt MethodCallExpr	-0.21912327
-0.8886734	SimpleName WhileStmt MethodCallExpr	-0.21489242
-0.8422847	IntegerLiteralExpr WhileStmt MethodCallExpr	-0.2255479
-1.236374	ReturnStmt NullLiteralExpr MethodCallExpr	-0.2255479
-1.216685	SimpleName NullLiteralExpr MethodCallExpr	-0.21753186
-0.5612638	ExpressionStmt NullLiteralExpr MethodCallExpr	-0.2255479
-1.0171142	IntegerLiteralExpr NullLiteralExpr MethodCallExpr	-0.25838178
-0.7027832	BinaryExpr NullLiteralExpr MethodCallExpr	-0.2255479
-0.86191356	ArrayInitializerExpr NullLiteralExpr MethodCallExpr	-0.2255479
-1.0071734	NullLiteralExpr NullLiteralExpr MethodCallExpr	-0.2255479
-2.8431516	<s> ThrowStmt MethodCallExpr	-0.2255479
-0.757038	SimpleName ThrowStmt MethodCallExpr	-0.23176919
-0.66002697	IntegerLiteralExpr ThrowStmt MethodCallExpr	-0.2255479
-0.66002697	StringLiteralExpr ThrowStmt MethodCallExpr	-0.2255479
-0.25026157	TryStmt ThrowStmt MethodCallExpr	-0.2255479
-0.5401714	NullLiteralExpr ThrowStmt MethodCallExpr	-0.24715908
-1.456428	SimpleName ThisExpr MethodCallExpr	-0.25838178
-1.1180532	SimpleName WildcardType MethodCallExpr	-0.2255479
-0.47869533	SimpleName InstanceOfExpr MethodCallExpr	-0.28183922
-0.44519806	StringLiteralExpr InstanceOfExpr MethodCallExpr	-0.2255479
-0.44519806	BinaryExpr InstanceOfExpr MethodCallExpr	-0.2255479
-0.42234236	EnclosedExpr InstanceOfExpr MethodCallExpr	-0.25838178
-0.7804017	IfStmt InstanceOfExpr MethodCallExpr	-0.2255479
-1.4086293	SimpleName LongLiteralExpr MethodCallExpr	-0.2516134
-0.89946467	SimpleName ArrayCreationLevel MethodCallExpr	-0.2255479
-0.8498846	PrimitiveType ArrayCreationLevel MethodCallExpr	-0.2255479
-1.1597731	SimpleName CharLiteralExpr MethodCallExpr	-0.2255479
-0.8057067	SimpleName ConditionalExpr MethodCallExpr	-0.25838178
-0.99702096	<s> ReturnStmt NameExpr	-2.5329556
-1.107644	SimpleName ReturnStmt NameExpr	-0.43674117
-1.0842621	IntegerLiteralExpr ReturnStmt NameExpr	-0.25838178
-1.0377253	StringLiteralExpr ReturnStmt NameExpr	-0.25838178
-0.30346346	VoidType ReturnStmt NameExpr	-0.2255479
-1.023856	BooleanLiteralExpr ReturnStmt NameExpr	-0.25838178
-0.87999284	PrimitiveType ReturnStmt NameExpr	-0.25838178
-0.57096756	BreakStmt ReturnStmt NameExpr	-0.2255479
-1.0881377	NullLiteralExpr ReturnStmt NameExpr	-0.25838178
-0.44165412	ReturnStmt MethodCallExpr NameExpr	-0.77916384
-0.4756468	MethodCallExpr MethodCallExpr NameExpr	-0.94189113
-0.49427477	SimpleName MethodCallExpr NameExpr	-0.9138624
-0.603795	ExpressionStmt MethodCallExpr NameExpr	-1.0599904
-0.27897766	IntegerLiteralExpr MethodCallExpr NameExpr	-0.77916384
-0.6302703	StringLiteralExpr MethodCallExpr NameExpr	-0.21489242
-0.3659013	BinaryExpr MethodCallExpr NameExpr	-0.8169524
-0.36230507	FieldAccessExpr MethodCallExpr NameExpr	-0.43674117
-0.25633097	BooleanLiteralExpr MethodCallExpr NameExpr	-0.33983114
-0.44105753	EnclosedExpr MethodCallExpr NameExpr	-0.25838178
-0.44229275	PrimitiveType MethodCallExpr NameExpr	-0.2255479
-0.35777777	ArrayInitializerExpr MethodCallExpr NameExpr	-0.25838178
-0.39305115	UnaryExpr MethodCallExpr NameExpr	-0.64086115
-0.41941008	ArrayAccessExpr MethodCallExpr NameExpr	-0.21489242
-0.40922698	IfStmt MethodCallExpr NameExpr	-0.96822006
-0.22776973	WhileStmt MethodCallExpr NameExpr	-0.25838178
-0.3298711	NullLiteralExpr MethodCallExpr NameExpr	-0.43674117
-0.34375787	ThrowStmt MethodCallExpr NameExpr	-0.43674117
-0.22928199	ThisExpr MethodCallExpr NameExpr	-0.2255479
-0.22928199	WildcardType MethodCallExpr NameExpr	-0.2255479
-0.3298711	InstanceOfExpr MethodCallExpr NameExpr	-0.43674117
-0.5452327	LongLiteralExpr MethodCallExpr NameExpr	-0.2255479
-0.22776973	ArrayCreationLevel MethodCallExpr NameExpr	-0.25838178
-0.22928199	CharLiteralExpr MethodCallExpr NameExpr	-0.2255479
-0.22928199	ConditionalExpr MethodCallExpr NameExpr	-0.2255479
-0.9522709	MethodCallExpr SimpleName NameExpr	-0.8517145
-1.2140318	NameExpr SimpleName NameExpr	-0.9138624
-1.2369497	SimpleName SimpleName NameExpr	-0.6920137
-1.3904002	ClassOrInterfaceType SimpleName NameExpr	-0.43674117
-1.1312314	IntegerLiteralExpr SimpleName NameExpr	-0.5159224
-0.79616743	Name SimpleName NameExpr	-0.25838178
-1.1313909	StringLiteralExpr SimpleName NameExpr	-0.21489242
-0.92081594	VoidType SimpleName NameExpr	-0.2255479
-1.3344595	BooleanLiteralExpr SimpleName NameExpr	-0.21489242
-1.3591627	PrimitiveType SimpleName NameExpr	-0.2255479
-0.98071295	NullLiteralExpr SimpleName NameExpr	-0.21489242
-0.5897429	LambdaExpr SimpleName NameExpr	-0.2255479
-1.182837	ThisExpr SimpleName NameExpr	-0.21489242
-1.0260588	WildcardType SimpleName NameExpr	-0.25838178
-1.0262474	LongLiteralExpr SimpleName NameExpr	-0.25838178
-0.9798156	SuperExpr SimpleName NameExpr	-0.2255479
-1.8686329	SimpleName ExpressionStmt NameExpr	-0.2255479
-1.2639009	ReturnStmt IntegerLiteralExpr NameExpr	-0.2255479
-1.3019751	SimpleName IntegerLiteralExpr NameExpr	-0.5159224
-1.2712823	IntegerLiteralExpr IntegerLiteralExpr NameExpr	-0.33983114
-1.0082545	StringLiteralExpr IntegerLiteralExpr NameExpr	-0.25838178
-0.750994	BinaryExpr IntegerLiteralExpr NameExpr	-0.43674117
-1.2248269	BooleanLiteralExpr IntegerLiteralExpr NameExpr	-0.2255479
-1.1735718	UnaryExpr IntegerLiteralExpr NameExpr	-0.25838178
-0.9092952	ThisExpr IntegerLiteralExpr NameExpr	-0.2255479
-1.0352465	ThisExpr Name NameExpr	-0.2255479
-1.3352234	SimpleName StringLiteralExpr NameExpr	-0.33983114
-0.9659509	IntegerLiteralExpr StringLiteralExpr NameExpr	-0.25838178
-1.1640611	StringLiteralExpr StringLiteralExpr NameExpr	-0.25838178
-0.9564535	BinaryExpr StringLiteralExpr NameExpr	-0.21489242
-0.75530124	ReturnStmt BinaryExpr NameExpr	-0.43674117
-0.6818675	SimpleName BinaryExpr NameExpr	-0.6920137
-0.60771424	ExpressionStmt BinaryExpr NameExpr	-0.2255479
-0.80847985	IntegerLiteralExpr BinaryExpr NameExpr	-0.21489242
-0.6810584	StringLiteralExpr BinaryExpr NameExpr	-0.2255479
-0.61687183	BinaryExpr BinaryExpr NameExpr	-0.77916384
-0.25834808	BooleanLiteralExpr BinaryExpr NameExpr	-0.2255479
-0.674188	EnclosedExpr BinaryExpr NameExpr	-0.5159224
-0.6264251	IfStmt BinaryExpr NameExpr	-0.99304366
-0.48962748	ForStmt BinaryExpr NameExpr	-0.25838178
-0.5951321	WhileStmt BinaryExpr NameExpr	-0.58286923
-0.73097193	NullLiteralExpr BinaryExpr NameExpr	-0.2255479
-0.4908197	ThisExpr BinaryExpr NameExpr	-0.2255479
-0.4908197	LongLiteralExpr BinaryExpr NameExpr	-0.2255479
-0.6066738	ArrayCreationLevel BinaryExpr NameExpr	-0.25838178
-0.25834808	CharLiteralExpr BinaryExpr NameExpr	-0.2255479
-0.45912367	ConditionalExpr BinaryExpr NameExpr	-0.43674117
-0.20306958	ReturnStmt FieldAccessExpr NameExpr	-0.5159224
-0.2694393	MethodCallExpr FieldAccessExpr NameExpr	-0.77916384
-0.26268497	SimpleName FieldAccessExpr NameExpr	-0.6920137
-0.09794386	IntegerLiteralExpr FieldAccessExpr NameExpr	-0.64086115
-0.26302993	StringLiteralExpr FieldAccessExpr NameExpr	-0.21489242
-0.24884695	BinaryExpr FieldAccessExpr NameExpr	-0.6920137
-0.22994278	FieldAccessExpr FieldAccessExpr NameExpr	-0.43674117
-0.16319965	BooleanLiteralExpr FieldAccessExpr NameExpr	-0.25838178
-0.3405384	AssignExpr FieldAccessExpr NameExpr	-0.2255479
-0.1641994	ArrayInitializerExpr FieldAccessExpr NameExpr	-0.2255479
-0.20058547	UnaryExpr FieldAccessExpr NameExpr	-0.43674117
-0.16319965	ArrayAccessExpr FieldAccessExpr NameExpr	-0.25838178
-0.16319965	IfStmt FieldAccessExpr NameExpr	-0.25838178
-0.16319965	NullLiteralExpr FieldAccessExpr NameExpr	-0.25838178
-0.1641994	ThisExpr FieldAccessExpr NameExpr	-0.2255479
-0.1641994	WildcardType FieldAccessExpr NameExpr	-0.2255479
-0.18597205	LongLiteralExpr FieldAccessExpr NameExpr	-0.21489242
-0.16319965	SwitchEntry FieldAccessExpr NameExpr	-0.25838178
-0.1641994	ArrayCreationLevel FieldAccessExpr NameExpr	-0.2255479
-1.390322	SimpleName BooleanLiteralExpr NameExpr	-0.21489242
-1.037956	StringLiteralExpr BooleanLiteralExpr NameExpr	-0.2255479
-1.0278076	BooleanLiteralExpr BooleanLiteralExpr NameExpr	-0.21489242
-0.3155086	ThisExpr BooleanLiteralExpr NameExpr	-0.2255479
-0.15051287	SimpleName AssignExpr NameExpr	-0.25838178
-0.36551124	ExpressionStmt AssignExpr NameExpr	-0.96822006
-0.15142065	IntegerLiteralExpr AssignExpr NameExpr	-0.2255479
-0.15142065	EnclosedExpr AssignExpr NameExpr	-0.2255479
-1.3583294	BinaryExpr EnclosedExpr NameExpr	-0.2255479
-0.484137	CastExpr PrimitiveType NameExpr	-0.43674117
-0.9395917	ArrayType PrimitiveType NameExpr	-0.2255479
-0.9379567	SimpleName ArrayInitializerExpr NameExpr	-0.2255479
-0.8478527	ArrayCreationLevel ArrayInitializerExpr NameExpr	-0.25838178
-0.54126024	ReturnStmt UnaryExpr NameExpr	-0.21489242
-0.49004957	SimpleName UnaryExpr NameExpr	-0.5159224
-0.14555553	ExpressionStmt UnaryExpr NameExpr	-0.8169524
-0.52086896	IntegerLiteralExpr UnaryExpr NameExpr	-0.25838178
-0.40605718	StringLiteralExpr UnaryExpr NameExpr	-0.25838178
-0.3561109	BinaryExpr UnaryExpr NameExpr	-0.58286923
-0.20607194	EnclosedExpr UnaryExpr NameExpr	-0.25838178
-0.3792569	IfStmt UnaryExpr NameExpr	-0.8517145
-0.7025076	WhileStmt UnaryExpr NameExpr	-0.25838178
-0.40711188	NullLiteralExpr UnaryExpr NameExpr	-0.2255479
-0.20740336	ThisExpr UnaryExpr NameExpr	-0.2255479
-0.50110567	LongLiteralExpr UnaryExpr NameExpr	-0.2255479
-0.112379044	ReturnStmt ArrayAccessExpr NameExpr	-0.25838178
-0.10057271	MethodCallExpr ArrayAccessExpr NameExpr	-0.5159224
-0.14499927	SimpleName ArrayAccessExpr NameExpr	-0.64086115
-0.20817676	IntegerLiteralExpr ArrayAccessExpr NameExpr	-0.25838178
-0.112379044	StringLiteralExpr ArrayAccessExpr NameExpr	-0.25838178
-0.119856425	BinaryExpr ArrayAccessExpr NameExpr	-0.43674117
-0.12698634	FieldAccessExpr ArrayAccessExpr NameExpr	-0.21489242
-0.11302606	BooleanLiteralExpr ArrayAccessExpr NameExpr	-0.2255479
-0.2658361	AssignExpr ArrayAccessExpr NameExpr	-0.2255479
-0.12698634	UnaryExpr ArrayAccessExpr NameExpr	-0.21489242
-0.112379044	InstanceOfExpr ArrayAccessExpr NameExpr	-0.25838178
-1.0093306	SimpleName DoubleLiteralExpr NameExpr	-0.2255479
-0.29716334	BinaryExpr DoubleLiteralExpr NameExpr	-0.2255479
-0.7061134	<s> IfStmt NameExpr	-2.3861313
-0.86282885	ReturnStmt IfStmt NameExpr	-0.25838178
-0.78870296	SimpleName IfStmt NameExpr	-0.5159224
-0.76591885	IntegerLiteralExpr IfStmt NameExpr	-0.25838178
-0.79910976	StringLiteralExpr IfStmt NameExpr	-0.2255479
-0.67326576	VoidType IfStmt NameExpr	-0.2255479
-1.0105088	TryStmt IfStmt NameExpr	-0.2255479
-0.800681	BooleanLiteralExpr IfStmt NameExpr	-0.25838178
-0.58702093	ForStmt IfStmt NameExpr	-0.5159224
-1.070659	BreakStmt IfStmt NameExpr	-0.2255479
-0.71510977	NullLiteralExpr IfStmt NameExpr	-0.25838178
-0.78840697	ThisExpr IfStmt NameExpr	-0.2255479
-0.6005283	LongLiteralExpr IfStmt NameExpr	-0.25838178
-0.6737684	DoStmt IfStmt NameExpr	-0.2255479
-0.8945677	ContinueStmt IfStmt NameExpr	-0.2255479
-1.270173	ReturnStmt NullLiteralExpr NameExpr	-0.2255479
-1.1519904	SimpleName NullLiteralExpr NameExpr	-0.33983114
-1.183726	IntegerLiteralExpr NullLiteralExpr NameExpr	-0.2255479
-0.4590564	BinaryExpr NullLiteralExpr NameExpr	-0.25838178
-1.0307586	NullLiteralExpr NullLiteralExpr NameExpr	-0.2255479
-0.7135912	ThisExpr NullLiteralExpr NameExpr	-0.2255479
-1.4605341	<s> ThrowStmt NameExpr	-1.2291329
-0.6720721	SimpleName ThrowStmt NameExpr	-0.21489242
-0.5801183	IntegerLiteralExpr ThrowStmt NameExpr	-0.2255479
-0.5801183	StringLiteralExpr ThrowStmt NameExpr	-0.2255479
-0.4229051	VoidType ThrowStmt NameExpr	-0.2255479
-0.5603179	BooleanLiteralExpr ThrowStmt NameExpr	-0.2255479
-0.4229051	PrimitiveType ThrowStmt NameExpr	-0.2255479
-0.62003165	NullLiteralExpr ThrowStmt NameExpr	-0.2255479
-1.1603931	SimpleName ThisExpr NameExpr	-0.33983114
-0.31904823	BinaryExpr ThisExpr NameExpr	-0.2255479
-1.1041611	SimpleName WildcardType NameExpr	-0.2255479
-0.1814816	ReturnStmt InstanceOfExpr NameExpr	-0.25838178
-0.40678853	SimpleName InstanceOfExpr NameExpr	-0.33983114
-0.18261875	ExpressionStmt InstanceOfExpr NameExpr	-0.2255479
-0.3684854	StringLiteralExpr InstanceOfExpr NameExpr	-0.2255479
-0.3684854	BinaryExpr InstanceOfExpr NameExpr	-0.2255479
-0.5176813	EnclosedExpr InstanceOfExpr NameExpr	-0.2255479
-0.19579594	IfStmt InstanceOfExpr NameExpr	-0.6920137
-1.1862744	SimpleName LongLiteralExpr NameExpr	-0.33983114
-0.96847844	LongLiteralExpr LongLiteralExpr NameExpr	-0.25838178
-0.09490682	<s> SwitchStmt NameExpr	-0.21489242
-0.0843526	SimpleName SwitchStmt NameExpr	-0.25838178
-0.08482218	BooleanLiteralExpr SwitchStmt NameExpr	-0.2255479
-0.08482218	ThisExpr SwitchStmt NameExpr	-0.2255479
-0.42979455	SimpleName SwitchEntry NameExpr	-0.25838178
-0.42979455	BooleanLiteralExpr SwitchEntry NameExpr	-0.25838178
-0.43021098	BreakStmt SwitchEntry NameExpr	-0.25838178
-0.22231372	ContinueStmt SwitchEntry NameExpr	-0.2255479
-0.95467436	SimpleName ArrayCreationLevel NameExpr	-0.2255479
-1.1448666	SimpleName CharLiteralExpr NameExpr	-0.2255479
-0.58486354	ReturnStmt ConditionalExpr NameExpr	-0.2255479
-0.57456005	SimpleName ConditionalExpr NameExpr	-0.21489242
-0.24769968	ThisExpr ConditionalExpr NameExpr	-0.2255479
-0.8021081	<s> SynchronizedStmt NameExpr	-0.58286923
-0.3017438	SimpleName SynchronizedStmt NameExpr	-0.43674117
-0.23880467	VoidType SynchronizedStmt NameExpr	-0.2255479
-0.7656959	ReturnStmt MethodCallExpr SimpleName	-0.30388308
-0.94782615	MethodCallExpr MethodCallExpr SimpleName	-0.32998934
-0.75799114	SimpleName MethodCallExpr SimpleName	-0.32652727
-0.7550193	ExpressionStmt MethodCallExpr SimpleName	-0.51651573
-0.97937083	IntegerLiteralExpr MethodCallExpr SimpleName	-0.2440051
-0.77123725	StringLiteralExpr MethodCallExpr SimpleName	-0.2299826
-0.726664	BinaryExpr MethodCallExpr SimpleName	-0.33364487
-0.8135729	BooleanLiteralExpr MethodCallExpr SimpleName	-0.2255479
-0.79238594	UnaryExpr MethodCallExpr SimpleName	-0.22836472
-0.59529626	IfStmt MethodCallExpr SimpleName	-0.47526133
-0.7116453	NullLiteralExpr MethodCallExpr SimpleName	-0.24165463
-0.52671146	ThrowStmt MethodCallExpr SimpleName	-0.29719982
-0.9512665	InstanceOfExpr MethodCallExpr SimpleName	-0.2255479
-0.6490118	LongLiteralExpr MethodCallExpr SimpleName	-0.2255479
-0.003848226	ReturnStmt NameExpr SimpleName	-0.35525784
-0.0013814251	MethodCallExpr NameExpr SimpleName	-0.86634135
-0.0021604234	SimpleName NameExpr SimpleName	-0.4690943
-0.010514506	ExpressionStmt NameExpr SimpleName	-0.2255479
-0.0043316996	IntegerLiteralExpr NameExpr SimpleName	-0.2805783
-0.010514506	Name NameExpr SimpleName	-0.2255479
-0.008707013	StringLiteralExpr NameExpr SimpleName	-0.25955424
-0.0020330464	BinaryExpr NameExpr SimpleName	-0.5702119
-0.001818616	FieldAccessExpr NameExpr SimpleName	-1.0165248
-0.008707013	BooleanLiteralExpr NameExpr SimpleName	-0.22544242
-0.008707013	AssignExpr NameExpr SimpleName	-0.23028018
-0.010514506	EnclosedExpr NameExpr SimpleName	-0.2255479
-0.010461151	PrimitiveType NameExpr SimpleName	-0.23085068
-0.010461151	ArrayInitializerExpr NameExpr SimpleName	-0.2255479
-0.0028829942	UnaryExpr NameExpr SimpleName	-0.3316552
-0.0031460028	ArrayAccessExpr NameExpr SimpleName	-0.5237671
-0.010461151	DoubleLiteralExpr NameExpr SimpleName	-0.2255479
-0.002304831	IfStmt NameExpr SimpleName	-0.4987567
-0.0057852543	NullLiteralExpr NameExpr SimpleName	-0.25373122
-0.0043316996	ThrowStmt NameExpr SimpleName	-0.3083199
-0.010461151	ThisExpr NameExpr SimpleName	-0.2295189
-0.010514506	WildcardType NameExpr SimpleName	-0.2255479
-0.0049540414	InstanceOfExpr NameExpr SimpleName	-0.51856184
-0.010461151	LongLiteralExpr NameExpr SimpleName	-0.23621905
-0.008707013	SwitchStmt NameExpr SimpleName	-0.33983114
-0.008707013	SwitchEntry NameExpr SimpleName	-0.2163987
-0.010514506	ArrayCreationLevel NameExpr SimpleName	-0.2255479
-0.010514506	CharLiteralExpr NameExpr SimpleName	-0.2255479
-0.011648617	ConditionalExpr NameExpr SimpleName	-0.23072614
-0.011648617	SynchronizedStmt NameExpr SimpleName	-0.23176919
-1.3064322	MethodCallExpr SimpleName SimpleName	-0.26100072
-1.2394959	NameExpr SimpleName SimpleName	-0.42121127
-1.3744501	SimpleName SimpleName SimpleName	-0.33978683
-0.9388525	ClassOrInterfaceType SimpleName SimpleName	-0.41287926
-1.0297812	IntegerLiteralExpr SimpleName SimpleName	-0.30506474
-0.8166492	Name SimpleName SimpleName	-0.2255479
-1.1787565	StringLiteralExpr SimpleName SimpleName	-0.24165463
-0.948408	VoidType SimpleName SimpleName	-0.2255479
-0.9859982	BooleanLiteralExpr SimpleName SimpleName	-0.3041492
-1.0998472	NullLiteralExpr SimpleName SimpleName	-0.2440051
-1.3044404	ThisExpr SimpleName SimpleName	-0.2319191
-1.0615793	LongLiteralExpr SimpleName SimpleName	-0.25838178
-0.033451524	SimpleName ClassOrInterfaceType SimpleName	-0.30544582
-0.13486846	VariableDeclarator ClassOrInterfaceType SimpleName	-0.32721785
-0.17945601	ClassOrInterfaceType ClassOrInterfaceType SimpleName	-0.43588918
-0.085484736	IntegerLiteralExpr ClassOrInterfaceType SimpleName	-0.2255479
-0.06564367	ObjectCreationExpr ClassOrInterfaceType SimpleName	-0.4001199
-0.2271843	Name ClassOrInterfaceType SimpleName	-0.2255479
-0.085484736	Modifier ClassOrInterfaceType SimpleName	-0.2255479
-0.17425692	Parameter ClassOrInterfaceType SimpleName	-0.24165463
-0.085484736	StringLiteralExpr ClassOrInterfaceType SimpleName	-0.2255479
-0.085484736	VoidType ClassOrInterfaceType SimpleName	-0.2255479
-0.085484736	BooleanLiteralExpr ClassOrInterfaceType SimpleName	-0.2255479
-0.10107222	CastExpr ClassOrInterfaceType SimpleName	-0.3175592
-0.038447846	ArrayType ClassOrInterfaceType SimpleName	-0.265945
-0.085484736	PrimitiveType ClassOrInterfaceType SimpleName	-0.2255479
-0.085484736	NullLiteralExpr ClassOrInterfaceType SimpleName	-0.2255479
-0.16206178	ClassExpr ClassOrInterfaceType SimpleName	-0.23965947
-0.0850111	ThisExpr ClassOrInterfaceType SimpleName	-0.2255479
-0.2271843	WildcardType ClassOrInterfaceType SimpleName	-0.2255479
-0.085484736	TypeExpr ClassOrInterfaceType SimpleName	-0.2255479
-0.0696963	ArrayCreationExpr ClassOrInterfaceType SimpleName	-0.31444186
-1.1051817	ReturnStmt IntegerLiteralExpr SimpleName	-0.23263277
-1.0706476	SimpleName IntegerLiteralExpr SimpleName	-0.41317725
-0.78227955	ExpressionStmt IntegerLiteralExpr SimpleName	-0.24165463
-1.0124471	IntegerLiteralExpr IntegerLiteralExpr SimpleName	-0.26387638
-0.9995997	StringLiteralExpr IntegerLiteralExpr SimpleName	-0.23838511
-0.96732336	BooleanLiteralExpr IntegerLiteralExpr SimpleName	-0.22836472
-1.1612461	UnaryExpr IntegerLiteralExpr SimpleName	-0.2255479
-0.9650636	NullLiteralExpr IntegerLiteralExpr SimpleName	-0.2255479
-1.1001856	ArrayCreationLevel IntegerLiteralExpr SimpleName	-0.2255479
-0.82585734	MarkerAnnotationExpr Name SimpleName	-0.2255479
-0.70196015	ThisExpr Name SimpleName	-0.2255479
-0.504936	Name Modifier SimpleName	-0.2255479
-0.62628496	Modifier Modifier SimpleName	-0.2255479
-0.2665574	StringLiteralExpr Modifier SimpleName	-0.2255479
-1.2455459	ReturnStmt StringLiteralExpr SimpleName	-0.2255479
-0.24171858	MethodCallExpr StringLiteralExpr SimpleName	-0.21753186
-1.2678766	SimpleName StringLiteralExpr SimpleName	-0.27854228
-1.1793869	StringLiteralExpr StringLiteralExpr SimpleName	-0.2505814
-1.1164193	SimpleName VoidType SimpleName	-0.24993767
-1.1782855	ReturnStmt BooleanLiteralExpr SimpleName	-0.2319191
-1.0520203	SimpleName BooleanLiteralExpr SimpleName	-0.23934309
-0.5551617	ExpressionStmt BooleanLiteralExpr SimpleName	-0.23467845
-0.917797	IntegerLiteralExpr BooleanLiteralExpr SimpleName	-0.2319191
-0.9432983	StringLiteralExpr BooleanLiteralExpr SimpleName	-0.2255479
-0.55709815	VoidType BooleanLiteralExpr SimpleName	-0.2255479
-0.9939536	BooleanLiteralExpr BooleanLiteralExpr SimpleName	-0.2255479
-0.55709815	LongLiteralExpr BooleanLiteralExpr SimpleName	-0.2255479
-0.21617895	VariableDeclarator PrimitiveType SimpleName	-0.24555391
-0.2778059	Parameter PrimitiveType SimpleName	-0.2255479
-0.611547	ArrayType PrimitiveType SimpleName	-0.23467845
-1.0971127	SimpleName DoubleLiteralExpr SimpleName	-0.2255479
-1.4354894	SimpleName BreakStmt SimpleName	-0.2255479
-1.1893305	ReturnStmt NullLiteralExpr SimpleName	-0.23838511
-1.3208691	SimpleName NullLiteralExpr SimpleName	-0.2535365
-0.5835459	ExpressionStmt NullLiteralExpr SimpleName	-0.2255479
-1.244303	IntegerLiteralExpr NullLiteralExpr SimpleName	-0.2255479
-1.0749183	NullLiteralExpr NullLiteralExpr SimpleName	-0.2255479
-1.3941983	SimpleName LambdaExpr SimpleName	-0.2255479
-0.13185005	Parameter UnknownType SimpleName	-0.23538883
-0.6402365	MethodCallExpr ThisExpr SimpleName	-0.2255479
-1.1293218	SimpleName ThisExpr SimpleName	-0.23549716
-0.17729771	FieldAccessExpr ThisExpr SimpleName	-0.23951954
-1.0243038	SimpleName WildcardType SimpleName	-0.2255479
-0.55023694	WildcardType WildcardType SimpleName	-0.2255479
-1.2878813	SimpleName LongLiteralExpr SimpleName	-0.22751293
-0.3122644	BooleanLiteralExpr LongLiteralExpr SimpleName	-0.2255479
-0.94526106	LongLiteralExpr LongLiteralExpr SimpleName	-0.2516134
-0.08338798	MethodCallExpr SuperExpr SimpleName	-0.23506461
-1.0712414	SimpleName CharLiteralExpr SimpleName	-0.2255479
-0.79261965	CharLiteralExpr CharLiteralExpr SimpleName	-0.2255479
-0.73290724	SimpleName ContinueStmt SimpleName	-0.24715908
-0.5064373	IntegerLiteralExpr ContinueStmt SimpleName	-0.2255479
-0.62827134	StringLiteralExpr ContinueStmt SimpleName	-0.2255479
-0.7049847	BooleanLiteralExpr ContinueStmt SimpleName	-0.2255479
-0.16315773	SimpleName LabeledStmt SimpleName	-0.21489242
-0.14451626	IntegerLiteralExpr LabeledStmt SimpleName	-0.2255479
-0.13262737	LocalClassDeclarationStmt ClassOrInterfaceDeclaration SimpleName	-0.2255479
-0.30903974	ReturnStmt ReturnStmt ExpressionStmt	-0.2255479
-1.22608	SimpleName ReturnStmt ExpressionStmt	-0.28183922
-1.1178426	IntegerLiteralExpr ReturnStmt ExpressionStmt	-0.24165463
-1.2253143	StringLiteralExpr ReturnStmt ExpressionStmt	-0.2255479
-1.0544752	BooleanLiteralExpr ReturnStmt ExpressionStmt	-0.2255479
-1.1231846	NullLiteralExpr ReturnStmt ExpressionStmt	-0.24165463
-0.95971143	ThisExpr ReturnStmt ExpressionStmt	-0.2255479
-0.90301967	LongLiteralExpr ReturnStmt ExpressionStmt	-0.2255479
-1.364385	MethodCallExpr SimpleName ExpressionStmt	-0.35718107
-1.1138316	NameExpr SimpleName ExpressionStmt	-0.80780905
-1.2617295	SimpleName SimpleName ExpressionStmt	-0.49743903
-1.2412599	ClassOrInterfaceType SimpleName ExpressionStmt	-0.43636233
-1.1523263	IntegerLiteralExpr SimpleName ExpressionStmt	-0.37130067
-1.2309717	StringLiteralExpr SimpleName ExpressionStmt	-0.25838178
-0.8991371	BooleanLiteralExpr SimpleName ExpressionStmt	-0.39098367
-1.4080698	PrimitiveType SimpleName ExpressionStmt	-0.2255479
-1.272755	NullLiteralExpr SimpleName ExpressionStmt	-0.2255479
-1.1841083	UnknownType SimpleName ExpressionStmt	-0.2255479
-1.2806358	ThisExpr SimpleName ExpressionStmt	-0.2255479
-1.2484425	LongLiteralExpr SimpleName ExpressionStmt	-0.2255479
-0.99960274	SuperExpr SimpleName ExpressionStmt	-0.2255479
-0.6791043	ContinueStmt SimpleName ExpressionStmt	-0.24165463
-1.0063672	ReturnStmt IntegerLiteralExpr ExpressionStmt	-0.21912327
-1.0824988	SimpleName IntegerLiteralExpr ExpressionStmt	-0.5613011
-0.9357393	IntegerLiteralExpr IntegerLiteralExpr ExpressionStmt	-0.49109882
-0.8971554	StringLiteralExpr IntegerLiteralExpr ExpressionStmt	-0.21489242
-0.5703283	VoidType IntegerLiteralExpr ExpressionStmt	-0.2255479
-1.1680096	BooleanLiteralExpr IntegerLiteralExpr ExpressionStmt	-0.2255479
-0.80909795	ArrayInitializerExpr IntegerLiteralExpr ExpressionStmt	-0.24715908
-1.1217047	UnaryExpr IntegerLiteralExpr ExpressionStmt	-0.24715908
-0.940883	NullLiteralExpr IntegerLiteralExpr ExpressionStmt	-0.25838178
-0.88021946	ThisExpr IntegerLiteralExpr ExpressionStmt	-0.2255479
-0.87856144	ArrayCreationLevel IntegerLiteralExpr ExpressionStmt	-0.24715908
-0.835688	ThisExpr Name ExpressionStmt	-0.24715908
-1.1533847	ReturnStmt StringLiteralExpr ExpressionStmt	-0.2255479
-1.0742565	SimpleName StringLiteralExpr ExpressionStmt	-0.49743903
-0.92271125	IntegerLiteralExpr StringLiteralExpr ExpressionStmt	-0.24715908
-1.0409135	StringLiteralExpr StringLiteralExpr ExpressionStmt	-0.2392079
-0.8666856	ArrayInitializerExpr StringLiteralExpr ExpressionStmt	-0.2255479
-0.5679102	NullLiteralExpr StringLiteralExpr ExpressionStmt	-0.2255479
-1.0026798	SimpleName VoidType ExpressionStmt	-0.33983114
-0.039655812	<s> TryStmt ExpressionStmt	-1.7661747
-0.32836628	ReturnStmt TryStmt ExpressionStmt	-0.21753186
-0.4209486	SimpleName TryStmt ExpressionStmt	-0.36207432
-0.4594968	IntegerLiteralExpr TryStmt ExpressionStmt	-0.29830456
-0.50903594	StringLiteralExpr TryStmt ExpressionStmt	-0.2255479
-0.566058	VoidType TryStmt ExpressionStmt	-0.2255479
-0.18954432	TryStmt TryStmt ExpressionStmt	-0.31095046
-0.4375133	BooleanLiteralExpr TryStmt ExpressionStmt	-0.23072614
-0.2114179	DoubleLiteralExpr TryStmt ExpressionStmt	-0.2255479
-0.2114179	ForStmt TryStmt ExpressionStmt	-0.2255479
-0.24141355	BreakStmt TryStmt ExpressionStmt	-0.21489242
-0.47435194	NullLiteralExpr TryStmt ExpressionStmt	-0.2516134
-0.21005397	ThisExpr TryStmt ExpressionStmt	-0.2255479
-0.2114179	LongLiteralExpr TryStmt ExpressionStmt	-0.2255479
-0.89508814	ReturnStmt BooleanLiteralExpr ExpressionStmt	-0.26064992
-0.9375314	SimpleName BooleanLiteralExpr ExpressionStmt	-0.3920375
-0.79013276	ExpressionStmt BooleanLiteralExpr ExpressionStmt	-0.2255479
-0.98408157	IntegerLiteralExpr BooleanLiteralExpr ExpressionStmt	-0.24165463
-0.99702936	BooleanLiteralExpr BooleanLiteralExpr ExpressionStmt	-0.24165463
-0.5581832	ArrayInitializerExpr BooleanLiteralExpr ExpressionStmt	-0.2255479
-0.5365307	WhileStmt BooleanLiteralExpr ExpressionStmt	-0.24715908
-0.5581832	LongLiteralExpr BooleanLiteralExpr ExpressionStmt	-0.2255479
-0.67942446	SimpleName PrimitiveType ExpressionStmt	-0.31444186
-0.8371572	SimpleName DoubleLiteralExpr ExpressionStmt	-0.2255479
-0.87023693	DoubleLiteralExpr DoubleLiteralExpr ExpressionStmt	-0.2255479
-0.7809351	<s> ForStmt ExpressionStmt	-1.7289972
-0.57592976	ReturnStmt ForStmt ExpressionStmt	-0.25838178
-0.60166764	SimpleName ForStmt ExpressionStmt	-0.33983114
-0.7562835	IntegerLiteralExpr ForStmt ExpressionStmt	-0.2255479
-0.7756066	TryStmt ForStmt ExpressionStmt	-0.2255479
-0.5413046	BooleanLiteralExpr ForStmt ExpressionStmt	-0.24715908
-0.5302845	ForStmt ForStmt ExpressionStmt	-0.25838178
-0.22771503	BreakStmt ForStmt ExpressionStmt	-0.2255479
-0.5419955	NullLiteralExpr ForStmt ExpressionStmt	-0.2255479
-0.43973672	ThisExpr ForStmt ExpressionStmt	-0.2255479
-0.43973672	LongLiteralExpr ForStmt ExpressionStmt	-0.2255479
-0.81674737	SimpleName BreakStmt ExpressionStmt	-0.23176919
-0.7250598	IntegerLiteralExpr BreakStmt ExpressionStmt	-0.2255479
-0.7899295	BooleanLiteralExpr BreakStmt ExpressionStmt	-0.2255479
-0.6038202	BreakStmt BreakStmt ExpressionStmt	-0.2255479
-0.487409	NullLiteralExpr BreakStmt ExpressionStmt	-0.2255479
-0.487409	LongLiteralExpr BreakStmt ExpressionStmt	-0.2255479
-0.2563478	ContinueStmt BreakStmt ExpressionStmt	-0.2255479
-0.7486183	ReturnStmt NullLiteralExpr ExpressionStmt	-0.2253633
-0.9359766	SimpleName NullLiteralExpr ExpressionStmt	-0.4078605
-0.746397	IntegerLiteralExpr NullLiteralExpr ExpressionStmt	-0.23072614
-0.287628	Name NullLiteralExpr ExpressionStmt	-0.2255479
-0.6746621	StringLiteralExpr NullLiteralExpr ExpressionStmt	-0.24715908
-0.287628	VoidType NullLiteralExpr ExpressionStmt	-0.2255479
-0.82440865	ArrayInitializerExpr NullLiteralExpr ExpressionStmt	-0.2255479
-0.71319413	NullLiteralExpr NullLiteralExpr ExpressionStmt	-0.23176919
-0.67612684	ThisExpr NullLiteralExpr ExpressionStmt	-0.2255479
-0.43452454	ReturnStmt LambdaExpr ExpressionStmt	-0.2255479
-0.6957663	SimpleName LambdaExpr ExpressionStmt	-0.23506461
-0.53610325	IntegerLiteralExpr LambdaExpr ExpressionStmt	-0.2255479
-0.22450872	LambdaExpr LambdaExpr ExpressionStmt	-0.2255479
-0.22450872	ThisExpr LambdaExpr ExpressionStmt	-0.2255479
-1.1376781	SimpleName ThisExpr ExpressionStmt	-0.2253633
-0.5563681	IntegerLiteralExpr ThisExpr ExpressionStmt	-0.2255479
-0.5563681	NullLiteralExpr ThisExpr ExpressionStmt	-0.2255479
-0.7352904	ThisExpr ThisExpr ExpressionStmt	-0.21489242
-0.5201529	SynchronizedStmt ThisExpr ExpressionStmt	-0.32554317
-0.8053012	ReturnStmt LongLiteralExpr ExpressionStmt	-0.2255479
-0.90796345	SimpleName LongLiteralExpr ExpressionStmt	-0.3503226
-0.53181756	IntegerLiteralExpr LongLiteralExpr ExpressionStmt	-0.2255479
-0.60359836	UnaryExpr LongLiteralExpr ExpressionStmt	-0.24715908
-0.28188038	NullLiteralExpr LongLiteralExpr ExpressionStmt	-0.2255479
-0.828039	LongLiteralExpr LongLiteralExpr ExpressionStmt	-0.25838178
-0.7733613	BooleanLiteralExpr SwitchEntry ExpressionStmt	-0.2255479
-0.54658127	BreakStmt SwitchEntry ExpressionStmt	-0.24715908
-0.8242932	SimpleName CharLiteralExpr ExpressionStmt	-0.23838511
-0.2751642	IntegerLiteralExpr CharLiteralExpr ExpressionStmt	-0.2255479
-0.7265213	CharLiteralExpr CharLiteralExpr ExpressionStmt	-0.2255479
-0.60915875	SimpleName EmptyStmt ExpressionStmt	-0.2255479
-0.49192286	StringLiteralExpr EmptyStmt ExpressionStmt	-0.2255479
-0.5149895	IntegerLiteralExpr DoStmt ExpressionStmt	-0.2255479
-0.22426288	ReturnStmt ContinueStmt ExpressionStmt	-0.2255479
-0.61746466	SimpleName ContinueStmt ExpressionStmt	-0.24165463
-0.43412584	IntegerLiteralExpr ContinueStmt ExpressionStmt	-0.2255479
-0.5349071	StringLiteralExpr ContinueStmt ExpressionStmt	-0.2255479
-0.5956856	BooleanLiteralExpr ContinueStmt ExpressionStmt	-0.2255479
-0.43412584	NullLiteralExpr ContinueStmt ExpressionStmt	-0.2255479
-0.39527845	<s> ExpressionStmt VariableDeclarationExpr	-3.1423197
-0.5656395	ReturnStmt ExpressionStmt VariableDeclarationExpr	-0.32554317
-0.59394157	SimpleName ExpressionStmt VariableDeclarationExpr	-0.64086115
-0.5087907	IntegerLiteralExpr ExpressionStmt VariableDeclarationExpr	-0.4504819
-0.35596216	StringLiteralExpr ExpressionStmt VariableDeclarationExpr	-0.43674117
-0.643262	VoidType ExpressionStmt VariableDeclarationExpr	-0.2255479
-0.6406071	TryStmt ExpressionStmt VariableDeclarationExpr	-0.48524398
-0.5433631	BooleanLiteralExpr ExpressionStmt VariableDeclarationExpr	-0.43674117
-0.46534914	DoubleLiteralExpr ExpressionStmt VariableDeclarationExpr	-0.24715908
-0.22775769	ForStmt ExpressionStmt VariableDeclarationExpr	-0.6946531
-0.5451876	BreakStmt ExpressionStmt VariableDeclarationExpr	-0.4605699
-0.49232018	NullLiteralExpr ExpressionStmt VariableDeclarationExpr	-0.4504819
-0.82111514	LambdaExpr ExpressionStmt VariableDeclarationExpr	-0.2255479
-0.67652524	ThisExpr ExpressionStmt VariableDeclarationExpr	-0.24715908
-0.88488656	LongLiteralExpr ExpressionStmt VariableDeclarationExpr	-0.2255479
-0.6339866	CharLiteralExpr ExpressionStmt VariableDeclarationExpr	-0.25838178
-0.4663571	EmptyStmt ExpressionStmt VariableDeclarationExpr	-0.2255479
-0.4663571	DoStmt ExpressionStmt VariableDeclarationExpr	-0.2255479
-0.662726	ContinueStmt ExpressionStmt VariableDeclarationExpr	-0.21489242
-1.2694408	SimpleName TryStmt VariableDeclarationExpr	-0.25838178
-1.07174	TryStmt TryStmt VariableDeclarationExpr	-0.2255479
-0.08817277	<s> ForStmt VariableDeclarationExpr	-2.4199162
-0.5389011	ReturnStmt ForStmt VariableDeclarationExpr	-0.25838178
-0.46252298	SimpleName ForStmt VariableDeclarationExpr	-0.64086115
-0.40816325	IntegerLiteralExpr ForStmt VariableDeclarationExpr	-0.33983114
-0.21064334	StringLiteralExpr ForStmt VariableDeclarationExpr	-0.2255479
-0.21064334	VoidType ForStmt VariableDeclarationExpr	-0.2255479
-0.2385974	TryStmt ForStmt VariableDeclarationExpr	-0.43674117
-0.5069728	BooleanLiteralExpr ForStmt VariableDeclarationExpr	-0.25838178
-0.6148255	ForStmt ForStmt VariableDeclarationExpr	-0.2255479
-0.5075003	NullLiteralExpr ForStmt VariableDeclarationExpr	-0.2255479
-0.21064334	LambdaExpr ForStmt VariableDeclarationExpr	-0.2255479
-0.4122547	ThisExpr ForStmt VariableDeclarationExpr	-0.2255479
-0.4122547	LongLiteralExpr ForStmt VariableDeclarationExpr	-0.2255479
-0.0014005122	<s> ForEachStmt VariableDeclarationExpr	-1.2075932
-0.025461316	ReturnStmt ForEachStmt VariableDeclarationExpr	-0.25838178
-0.016820941	SimpleName ForEachStmt VariableDeclarationExpr	-0.35566485
-0.021129968	IntegerLiteralExpr ForEachStmt VariableDeclarationExpr	-0.31444186
-0.02559353	StringLiteralExpr ForEachStmt VariableDeclarationExpr	-0.2255479
-0.02559353	VoidType ForEachStmt VariableDeclarationExpr	-0.2255479
-0.025461316	TryStmt ForEachStmt VariableDeclarationExpr	-0.25838178
-0.02840811	BooleanLiteralExpr ForEachStmt VariableDeclarationExpr	-0.21489242
-0.02559353	BreakStmt ForEachStmt VariableDeclarationExpr	-0.2255479
-0.02559353	NullLiteralExpr ForEachStmt VariableDeclarationExpr	-0.2255479
-0.02559353	ThisExpr ForEachStmt VariableDeclarationExpr	-0.2255479
-0.025461316	LongLiteralExpr ForEachStmt VariableDeclarationExpr	-0.25838178
-0.02559353	CharLiteralExpr ForEachStmt VariableDeclarationExpr	-0.2255479
-0.34705642	ExpressionStmt VariableDeclarationExpr VariableDeclarator	-0.92340773
-0.19456467	TryStmt VariableDeclarationExpr VariableDeclarator	-0.25838178
-0.042231116	ForStmt VariableDeclarationExpr VariableDeclarator	-0.8517145
-0.15587153	ForEachStmt VariableDeclarationExpr VariableDeclarator	-0.7088905
-1.2164385	MarkerAnnotationExpr Name VariableDeclarator	-0.2255479
-0.41808176	VariableDeclarationExpr Modifier VariableDeclarator	-0.2516134
-0.64230245	Modifier Modifier VariableDeclarator	-0.2255479
-0.41381997	FieldDeclaration Modifier VariableDeclarator	-0.23176919
-0.80156684	Name StringLiteralExpr VariableDeclarator	-0.2255479
-0.6079347	SimpleName FieldDeclaration VariableDeclarator	-0.21753186
-0.49715567	IntegerLiteralExpr FieldDeclaration VariableDeclarator	-0.2255479
-0.26204655	VoidType FieldDeclaration VariableDeclarator	-0.2255479
-1.8563432	MethodCallExpr SimpleName ClassOrInterfaceType	-0.2255479
-1.8355309	NameExpr SimpleName ClassOrInterfaceType	-0.33983114
-1.668667	SimpleName SimpleName ClassOrInterfaceType	-0.33983114
-1.151205	ClassOrInterfaceType SimpleName ClassOrInterfaceType	-0.77916384
-1.6549513	IntegerLiteralExpr SimpleName ClassOrInterfaceType	-0.25838178
-1.040359	Modifier SimpleName ClassOrInterfaceType	-0.2255479
-1.3487221	PrimitiveType SimpleName ClassOrInterfaceType	-0.25838178
-1.3299468	WildcardType SimpleName ClassOrInterfaceType	-0.2255479
-0.44731483	VariableDeclarationExpr VariableDeclarator ClassOrInterfaceType	-0.23176919
-0.20235027	Name VariableDeclarator ClassOrInterfaceType	-0.2255479
-0.47838527	Modifier VariableDeclarator ClassOrInterfaceType	-0.24715908
-0.49122378	StringLiteralExpr VariableDeclarator ClassOrInterfaceType	-0.2255479
-0.5255468	FieldDeclaration VariableDeclarator ClassOrInterfaceType	-0.2255479
-0.6960986	VariableDeclarator ClassOrInterfaceType ClassOrInterfaceType	-0.25838178
-0.5512351	ClassOrInterfaceType ClassOrInterfaceType ClassOrInterfaceType	-0.23176919
-0.9726794	ObjectCreationExpr ClassOrInterfaceType ClassOrInterfaceType	-0.24715908
-0.6121216	Parameter ClassOrInterfaceType ClassOrInterfaceType	-0.2255479
-0.80524313	CastExpr ClassOrInterfaceType ClassOrInterfaceType	-0.25838178
-0.6291519	ClassExpr ClassOrInterfaceType ClassOrInterfaceType	-0.24715908
-1.9556609	SimpleName IntegerLiteralExpr ClassOrInterfaceType	-0.25838178
-0.010765408	ReturnStmt ObjectCreationExpr ClassOrInterfaceType	-0.4870417
-0.019018274	MethodCallExpr ObjectCreationExpr ClassOrInterfaceType	-0.33983114
-0.006819756	SimpleName ObjectCreationExpr ClassOrInterfaceType	-0.58286923
-0.019018274	ExpressionStmt ObjectCreationExpr ClassOrInterfaceType	-0.33983114
-0.0151474355	IntegerLiteralExpr ObjectCreationExpr ClassOrInterfaceType	-0.43674117
-0.02290523	StringLiteralExpr ObjectCreationExpr ClassOrInterfaceType	-0.24715908
-0.02302384	VoidType ObjectCreationExpr ClassOrInterfaceType	-0.2255479
-0.02290523	BooleanLiteralExpr ObjectCreationExpr ClassOrInterfaceType	-0.25838178
-0.02302384	EnclosedExpr ObjectCreationExpr ClassOrInterfaceType	-0.2255479
-0.02302384	ArrayInitializerExpr ObjectCreationExpr ClassOrInterfaceType	-0.2255479
-0.025547404	NullLiteralExpr ObjectCreationExpr ClassOrInterfaceType	-0.21489242
-0.007507669	ThrowStmt ObjectCreationExpr ClassOrInterfaceType	-0.73777115
-0.02290523	ThisExpr ObjectCreationExpr ClassOrInterfaceType	-0.25838178
-0.02302384	LongLiteralExpr ObjectCreationExpr ClassOrInterfaceType	-0.2255479
-0.9704898	MarkerAnnotationExpr Name ClassOrInterfaceType	-0.24715908
-0.47126418	Parameter Modifier ClassOrInterfaceType	-0.25838178
-0.77877676	SimpleName Parameter ClassOrInterfaceType	-0.21753186
-0.1261264	CatchClause Parameter ClassOrInterfaceType	-0.6920137
-1.7384944	SimpleName StringLiteralExpr ClassOrInterfaceType	-0.25838178
-1.478807	SimpleName VoidType ClassOrInterfaceType	-0.2255479
-1.8128291	SimpleName BooleanLiteralExpr ClassOrInterfaceType	-0.2255479
-0.19993685	ReturnStmt CastExpr ClassOrInterfaceType	-0.5159224
-0.3299688	SimpleName CastExpr ClassOrInterfaceType	-0.56971437
-0.16725864	ExpressionStmt CastExpr ClassOrInterfaceType	-0.2255479
-0.34436798	IntegerLiteralExpr CastExpr ClassOrInterfaceType	-0.25838178
-0.41705364	BinaryExpr CastExpr ClassOrInterfaceType	-0.21489242
-0.071381286	EnclosedExpr CastExpr ClassOrInterfaceType	-0.51856184
-0.16725864	ThrowStmt CastExpr ClassOrInterfaceType	-0.2255479
-0.268259	SimpleName ArrayType ClassOrInterfaceType	-0.21489242
-0.268259	VariableDeclarator ArrayType ClassOrInterfaceType	-0.21489242
-0.1311671	Name ArrayType ClassOrInterfaceType	-0.2255479
-0.1311671	Modifier ArrayType ClassOrInterfaceType	-0.2255479
-0.29186043	Parameter ArrayType ClassOrInterfaceType	-0.2255479
-0.23080145	CastExpr ArrayType ClassOrInterfaceType	-0.25838178
-0.1311671	ClassExpr ArrayType ClassOrInterfaceType	-0.2255479
-1.0265448	ArrayType PrimitiveType ClassOrInterfaceType	-0.2255479
-1.5703164	ReturnStmt NullLiteralExpr ClassOrInterfaceType	-0.2255479
-0.14141728	MethodCallExpr ClassExpr ClassOrInterfaceType	-0.21753186
-0.042221047	SimpleName ClassExpr ClassOrInterfaceType	-0.5741919
-0.12562999	IntegerLiteralExpr ClassExpr ClassOrInterfaceType	-0.2255479
-0.28386676	StringLiteralExpr ClassExpr ClassOrInterfaceType	-0.2255479
-1.0203599	MethodCallExpr ThisExpr ClassOrInterfaceType	-0.2255479
-0.32039446	InstanceOfExpr ThisExpr ClassOrInterfaceType	-0.25838178
-0.93633	SimpleName WildcardType ClassOrInterfaceType	-0.24715908
-0.15076885	MethodReferenceExpr TypeExpr ClassOrInterfaceType	-0.21489242
-0.3897448	ReturnStmt ArrayCreationExpr ClassOrInterfaceType	-0.25838178
-0.20631602	SimpleName ArrayCreationExpr ClassOrInterfaceType	-0.5159224
-0.35730043	IntegerLiteralExpr ArrayCreationExpr ClassOrInterfaceType	-0.2255479
-0.17529549	NullLiteralExpr ArrayCreationExpr ClassOrInterfaceType	-0.2255479
-1.4082131	<s> ReturnStmt IntegerLiteralExpr	-2.1233773
-1.4823937	SimpleName ReturnStmt IntegerLiteralExpr	-0.23506461
-1.2073252	IntegerLiteralExpr ReturnStmt IntegerLiteralExpr	-0.2440051
-1.190039	PrimitiveType ReturnStmt IntegerLiteralExpr	-0.2255479
-1.4021882	NullLiteralExpr ReturnStmt IntegerLiteralExpr	-0.2255479
-1.1404389	MethodCallExpr SimpleName IntegerLiteralExpr	-0.3125421
-1.3385224	NameExpr SimpleName IntegerLiteralExpr	-0.34747916
-1.2453388	SimpleName SimpleName IntegerLiteralExpr	-0.35193482
-1.4644656	ClassOrInterfaceType SimpleName IntegerLiteralExpr	-0.22644983
-1.3776655	IntegerLiteralExpr SimpleName IntegerLiteralExpr	-0.25784767
-1.2681688	StringLiteralExpr SimpleName IntegerLiteralExpr	-0.24165463
-0.9559735	VoidType SimpleName IntegerLiteralExpr	-0.2255479
-1.0915675	BooleanLiteralExpr SimpleName IntegerLiteralExpr	-0.23613499
-1.302381	PrimitiveType SimpleName IntegerLiteralExpr	-0.2255479
-1.1110232	NullLiteralExpr SimpleName IntegerLiteralExpr	-0.2255479
-1.2513958	ThisExpr SimpleName IntegerLiteralExpr	-0.23838511
-1.07138	LongLiteralExpr SimpleName IntegerLiteralExpr	-0.23838511
-1.8627613	SimpleName ExpressionStmt IntegerLiteralExpr	-0.2255479
-1.0032187	LambdaExpr ExpressionStmt IntegerLiteralExpr	-0.2255479
-1.2146671	ReturnStmt IntegerLiteralExpr IntegerLiteralExpr	-0.2255479
-1.1693501	SimpleName IntegerLiteralExpr IntegerLiteralExpr	-0.33772832
-0.94157857	IntegerLiteralExpr IntegerLiteralExpr IntegerLiteralExpr	-0.34079874
-1.1454254	StringLiteralExpr IntegerLiteralExpr IntegerLiteralExpr	-0.2255479
-0.73887354	BinaryExpr IntegerLiteralExpr IntegerLiteralExpr	-0.24051112
-1.0235868	BooleanLiteralExpr IntegerLiteralExpr IntegerLiteralExpr	-0.24715902
-0.8152222	ArrayInitializerExpr IntegerLiteralExpr IntegerLiteralExpr	-0.23838511
-1.1343715	UnaryExpr IntegerLiteralExpr IntegerLiteralExpr	-0.23467845
-0.6593922	NullLiteralExpr IntegerLiteralExpr IntegerLiteralExpr	-0.2440051
-0.8874609	ThisExpr IntegerLiteralExpr IntegerLiteralExpr	-0.2255479
-1.076695	ArrayCreationLevel IntegerLiteralExpr IntegerLiteralExpr	-0.2255479
-1.2224805	ReturnStmt StringLiteralExpr IntegerLiteralExpr	-0.2255479
-1.3300091	SimpleName StringLiteralExpr IntegerLiteralExpr	-0.23032561
-1.1597862	StringLiteralExpr StringLiteralExpr IntegerLiteralExpr	-0.2255479
-1.2089317	BinaryExpr StringLiteralExpr IntegerLiteralExpr	-0.2255479
-0.90343136	ArrayInitializerExpr StringLiteralExpr IntegerLiteralExpr	-0.2255479
-1.2467643	ReturnStmt BinaryExpr IntegerLiteralExpr	-0.24715908
-0.9638142	SimpleName BinaryExpr IntegerLiteralExpr	-0.34767586
-0.7283771	ExpressionStmt BinaryExpr IntegerLiteralExpr	-0.2255479
-0.8254714	IntegerLiteralExpr BinaryExpr IntegerLiteralExpr	-0.21912327
-0.9029585	BinaryExpr BinaryExpr IntegerLiteralExpr	-0.29767293
-0.9987606	EnclosedExpr BinaryExpr IntegerLiteralExpr	-0.22942579
-0.72654045	ArrayCreationLevel BinaryExpr IntegerLiteralExpr	-0.24715908
-1.5160873	SimpleName VoidType IntegerLiteralExpr	-0.2255479
-1.3071915	SimpleName BooleanLiteralExpr IntegerLiteralExpr	-0.24766888
-1.0361768	IntegerLiteralExpr BooleanLiteralExpr IntegerLiteralExpr	-0.2433962
-1.0650138	StringLiteralExpr BooleanLiteralExpr IntegerLiteralExpr	-0.2255479
-0.761447	NullLiteralExpr BooleanLiteralExpr IntegerLiteralExpr	-0.2255479
-0.96880627	SimpleName ArrayInitializerExpr IntegerLiteralExpr	-0.2255479
-0.87271243	ArrayCreationLevel ArrayInitializerExpr IntegerLiteralExpr	-0.23621905
-1.1329763	ReturnStmt UnaryExpr IntegerLiteralExpr	-0.2255479
-0.65659535	SimpleName UnaryExpr IntegerLiteralExpr	-0.27711824
-0.7000458	IntegerLiteralExpr UnaryExpr IntegerLiteralExpr	-0.2286474
-1.3638895	ReturnStmt NullLiteralExpr IntegerLiteralExpr	-0.2255479
-1.3505517	SimpleName NullLiteralExpr IntegerLiteralExpr	-0.23838511
-1.2700341	IntegerLiteralExpr NullLiteralExpr IntegerLiteralExpr	-0.2255479
-0.67194325	BooleanLiteralExpr NullLiteralExpr IntegerLiteralExpr	-0.25838178
-0.9195532	ArrayInitializerExpr NullLiteralExpr IntegerLiteralExpr	-0.2255479
-1.5136185	SimpleName ThisExpr IntegerLiteralExpr	-0.2255479
-1.694455	SimpleName LongLiteralExpr IntegerLiteralExpr	-0.2255479
-0.9178332	SimpleName ArrayCreationLevel IntegerLiteralExpr	-0.2255479
-0.8662337	PrimitiveType ArrayCreationLevel IntegerLiteralExpr	-0.2255479
-1.1061301	<s> ReturnStmt ObjectCreationExpr	-2.4244075
-1.3894507	SimpleName ReturnStmt ObjectCreationExpr	-0.21489242
-1.3181132	IntegerLiteralExpr ReturnStmt ObjectCreationExpr	-0.2255479
-1.2751147	StringLiteralExpr ReturnStmt ObjectCreationExpr	-0.2255479
-1.16131	NullLiteralExpr ReturnStmt ObjectCreationExpr	-0.25838178
-0.98552966	ThisExpr ReturnStmt ObjectCreationExpr	-0.2255479
-0.7455709	SwitchEntry ReturnStmt ObjectCreationExpr	-0.2255479
-1.1574917	MethodCallExpr MethodCallExpr ObjectCreationExpr	-0.43674117
-1.503643	SimpleName MethodCallExpr ObjectCreationExpr	-0.21489242
-1.2138735	ExpressionStmt MethodCallExpr ObjectCreationExpr	-0.58286923
-1.7642928	IfStmt MethodCallExpr ObjectCreationExpr	-0.2255479
-1.5142897	MethodCallExpr SimpleName ObjectCreationExpr	-0.33983114
-1.5129774	NameExpr SimpleName ObjectCreationExpr	-0.64086115
-1.3999819	SimpleName SimpleName ObjectCreationExpr	-0.58286923
-1.6987411	ClassOrInterfaceType SimpleName ObjectCreationExpr	-0.21489242
-1.1821467	IntegerLiteralExpr SimpleName ObjectCreationExpr	-0.5159224
-1.2813089	StringLiteralExpr SimpleName ObjectCreationExpr	-0.25838178
-1.4183722	BooleanLiteralExpr SimpleName ObjectCreationExpr	-0.21489242
-1.3287698	NullLiteralExpr SimpleName ObjectCreationExpr	-0.2255479
-1.4949683	ThisExpr SimpleName ObjectCreationExpr	-0.2255479
-1.2987138	WildcardType SimpleName ObjectCreationExpr	-0.2255479
-1.2989323	LongLiteralExpr SimpleName ObjectCreationExpr	-0.2255479
-4.195739	<s> ExpressionStmt ObjectCreationExpr	-0.25838178
-1.721259	SimpleName ExpressionStmt ObjectCreationExpr	-0.2255479
-1.4602692	TryStmt ExpressionStmt ObjectCreationExpr	-0.25838178
-1.199679	LambdaExpr ExpressionStmt ObjectCreationExpr	-0.2255479
-1.4094083	ReturnStmt IntegerLiteralExpr ObjectCreationExpr	-0.2255479
-1.5822201	SimpleName IntegerLiteralExpr ObjectCreationExpr	-0.33983114
-1.6050882	IntegerLiteralExpr IntegerLiteralExpr ObjectCreationExpr	-0.25838178
-1.1318349	ArrayInitializerExpr IntegerLiteralExpr ObjectCreationExpr	-0.2255479
-1.4655361	UnaryExpr IntegerLiteralExpr ObjectCreationExpr	-0.2255479
-1.7278388	SimpleName StringLiteralExpr ObjectCreationExpr	-0.25838178
-1.296775	IntegerLiteralExpr StringLiteralExpr ObjectCreationExpr	-0.2255479
-1.38205	SimpleName VoidType ObjectCreationExpr	-0.25838178
-1.4724683	ReturnStmt BooleanLiteralExpr ObjectCreationExpr	-0.25838178
-1.8007756	SimpleName BooleanLiteralExpr ObjectCreationExpr	-0.2255479
-1.261076	SimpleName EnclosedExpr ObjectCreationExpr	-0.2255479
-1.1447551	ArrayCreationLevel ArrayInitializerExpr ObjectCreationExpr	-0.2255479
-1.49921	ReturnStmt NullLiteralExpr ObjectCreationExpr	-0.2255479
-1.4951639	SimpleName NullLiteralExpr ObjectCreationExpr	-0.21489242
-1.3917347	IntegerLiteralExpr NullLiteralExpr ObjectCreationExpr	-0.2255479
-0.016343474	<s> ThrowStmt ObjectCreationExpr	-2.6641135
-0.3356489	SimpleName ThrowStmt ObjectCreationExpr	-0.5159224
-0.37766734	IntegerLiteralExpr ThrowStmt ObjectCreationExpr	-0.25838178
-0.37766734	StringLiteralExpr ThrowStmt ObjectCreationExpr	-0.25838178
-0.37858596	VoidType ThrowStmt ObjectCreationExpr	-0.2255479
-0.2972499	BooleanLiteralExpr ThrowStmt ObjectCreationExpr	-0.21489242
-0.37858596	PrimitiveType ThrowStmt ObjectCreationExpr	-0.2255479
-0.42849302	NullLiteralExpr ThrowStmt ObjectCreationExpr	-0.25838178
-0.18917586	LambdaExpr ThrowStmt ObjectCreationExpr	-0.2255479
-0.18917586	LongLiteralExpr ThrowStmt ObjectCreationExpr	-0.2255479
-1.6022176	SimpleName ThisExpr ObjectCreationExpr	-0.2255479
-1.1729743	ThisExpr ThisExpr ObjectCreationExpr	-0.2255479
-1.694455	SimpleName LongLiteralExpr ObjectCreationExpr	-0.2255479
-1.5749326	IntegerLiteralExpr ReturnStmt MethodDeclaration	-0.2255479
-1.79792	NameExpr SimpleName MethodDeclaration	-0.3936231
-1.9470589	SimpleName SimpleName MethodDeclaration	-0.24715908
-1.5600426	ClassOrInterfaceType SimpleName MethodDeclaration	-0.37789726
-1.6104282	PrimitiveType SimpleName MethodDeclaration	-0.2255479
-1.0679718	SuperExpr SimpleName MethodDeclaration	-0.2255479
-0.33105677	ClassOrInterfaceDeclaration SimpleName MethodDeclaration	-0.2255479
-1.2481158	ReturnStmt IntegerLiteralExpr MethodDeclaration	-0.25838178
-1.5235628	SimpleName IntegerLiteralExpr MethodDeclaration	-0.43674117
-1.8184323	IntegerLiteralExpr IntegerLiteralExpr MethodDeclaration	-0.2255479
-1.5249009	UnaryExpr IntegerLiteralExpr MethodDeclaration	-0.2255479
-1.0667002	ReturnStmt StringLiteralExpr MethodDeclaration	-0.21489242
-1.689513	SimpleName StringLiteralExpr MethodDeclaration	-0.21489242
-1.3301413	SimpleName VoidType MethodDeclaration	-0.21753186
-1.1715715	ReturnStmt BooleanLiteralExpr MethodDeclaration	-0.33983114
-1.6017504	SimpleName BooleanLiteralExpr MethodDeclaration	-0.21489242
-1.0481242	ArrayType PrimitiveType MethodDeclaration	-0.2255479
-1.573346	ReturnStmt NullLiteralExpr MethodDeclaration	-0.2255479
-1.801089	SimpleName NullLiteralExpr MethodDeclaration	-0.2255479
-1.1594954	SimpleName WildcardType MethodDeclaration	-0.2255479
-1.486067	SimpleName LongLiteralExpr MethodDeclaration	-0.25838178
-0.9700194	UnaryExpr LongLiteralExpr MethodDeclaration	-0.2255479
-0.6933268	SimpleName EmptyStmt MethodDeclaration	-0.2255479
-0.60693145	Name ClassOrInterfaceType MarkerAnnotationExpr	-0.2255479
-0.60693145	WildcardType ClassOrInterfaceType MarkerAnnotationExpr	-0.2255479
-0.065434515	ReturnStmt MethodDeclaration MarkerAnnotationExpr	-0.2255479
-0.11710643	SimpleName MethodDeclaration MarkerAnnotationExpr	-0.5159224
-0.05357907	IntegerLiteralExpr MethodDeclaration MarkerAnnotationExpr	-0.33983114
-0.06508047	StringLiteralExpr MethodDeclaration MarkerAnnotationExpr	-0.25838178
-0.19963968	VoidType MethodDeclaration MarkerAnnotationExpr	-0.2255479
-0.06508047	BooleanLiteralExpr MethodDeclaration MarkerAnnotationExpr	-0.25838178
-0.065434515	PrimitiveType MethodDeclaration MarkerAnnotationExpr	-0.2255479
-0.06508047	NullLiteralExpr MethodDeclaration MarkerAnnotationExpr	-0.25838178
-0.065434515	WildcardType MethodDeclaration MarkerAnnotationExpr	-0.2255479
-0.06508047	LongLiteralExpr MethodDeclaration MarkerAnnotationExpr	-0.25838178
-0.065434515	EmptyStmt MethodDeclaration MarkerAnnotationExpr	-0.2255479
-1.209145	MarkerAnnotationExpr Name MarkerAnnotationExpr	-0.2255479
-0.9558326	SimpleName Parameter MarkerAnnotationExpr	-0.25838178
-0.79127765	Name StringLiteralExpr MarkerAnnotationExpr	-0.2255479
-1.5503432	StringLiteralExpr StringLiteralExpr MarkerAnnotationExpr	-0.2255479
-1.0517316	SimpleName FieldDeclaration MarkerAnnotationExpr	-0.2255479
-1.1721005	SimpleName WildcardType MarkerAnnotationExpr	-0.2255479
-0.048631303	ClassOrInterfaceType MarkerAnnotationExpr Name	-0.25838178
-0.014181743	MethodDeclaration MarkerAnnotationExpr Name	-0.51856184
-0.0488908	Name MarkerAnnotationExpr Name	-0.2255479
-0.0488908	Parameter MarkerAnnotationExpr Name	-0.2255479
-0.048631303	StringLiteralExpr MarkerAnnotationExpr Name	-0.25838178
-0.0488908	FieldDeclaration MarkerAnnotationExpr Name	-0.2255479
-0.0488908	WildcardType MarkerAnnotationExpr Name	-0.2255479
-0.7326219	MethodCallExpr ThisExpr Name	-0.25838178
-1.3118422	SimpleName ThisExpr Name	-0.23621905
-1.1339325	FieldAccessExpr ThisExpr Name	-0.2255479
-1.2229953	SynchronizedStmt ThisExpr Name	-0.2255479
-0.06971855	VariableDeclarationExpr SingleMemberAnnotationExpr Name	-0.25838178
-0.06971855	MethodDeclaration SingleMemberAnnotationExpr Name	-0.24715908
-0.07009991	Name SingleMemberAnnotationExpr Name	-0.2255479
-0.07009991	Modifier SingleMemberAnnotationExpr Name	-0.2255479
-0.07009991	FieldDeclaration SingleMemberAnnotationExpr Name	-0.2255479
-0.46095866	ExpressionStmt VariableDeclarationExpr Modifier	-0.6920137
-0.8255567	ForEachStmt VariableDeclarationExpr Modifier	-0.33983114
-0.9099339	MarkerAnnotationExpr Name Modifier	-0.21753186
-0.516351	Name Modifier Modifier	-0.2255479
-0.6414445	Modifier Modifier Modifier	-0.2255479
-0.6140214	FieldDeclaration Modifier Modifier	-0.21489242
-0.86667645	SimpleName Parameter Modifier	-0.25838178
-1.1503036	CatchClause Parameter Modifier	-0.2255479
-0.8004595	Name StringLiteralExpr Modifier	-0.2255479
-0.43862134	SimpleName FieldDeclaration Modifier	-0.25838178
-0.36936322	IntegerLiteralExpr FieldDeclaration Modifier	-0.2255479
-0.18319075	StringLiteralExpr FieldDeclaration Modifier	-0.2255479
-0.18319075	BooleanLiteralExpr FieldDeclaration Modifier	-0.2255479
-0.18319075	LongLiteralExpr FieldDeclaration Modifier	-0.2255479
-2.250178	SimpleName SimpleName Parameter	-0.2255479
-0.6889866	Modifier SimpleName Parameter	-0.22094922
-1.7019142	PrimitiveType SimpleName Parameter	-0.2255479
-1.3353373	UnknownType SimpleName Parameter	-0.2255479
-0.48880076	ReturnStmt LambdaExpr Parameter	-0.2255479
-0.38773924	SimpleName LambdaExpr Parameter	-0.6920137
-0.395558	IntegerLiteralExpr LambdaExpr Parameter	-0.25838178
-0.2571648	NullLiteralExpr LambdaExpr Parameter	-0.2255479
-0.037343983	ReturnStmt CatchClause Parameter	-0.25838178
-0.020365674	SimpleName CatchClause Parameter	-0.4605699
-0.037343983	IntegerLiteralExpr CatchClause Parameter	-0.25838178
-0.037540626	StringLiteralExpr CatchClause Parameter	-0.2255479
-0.037343983	BooleanLiteralExpr CatchClause Parameter	-0.25838178
-0.041733563	BreakStmt CatchClause Parameter	-0.21489242
-0.037343983	NullLiteralExpr CatchClause Parameter	-0.25838178
-0.037540626	ThisExpr CatchClause Parameter	-0.2255479
-0.037343983	ContinueStmt CatchClause Parameter	-0.25838178
-2.6087239	<s> ReturnStmt StringLiteralExpr	-0.94189113
-1.4926077	SimpleName ReturnStmt StringLiteralExpr	-0.23346393
-1.1582159	StringLiteralExpr ReturnStmt StringLiteralExpr	-0.24165463
-1.1399	BooleanLiteralExpr ReturnStmt StringLiteralExpr	-0.2255479
-1.4111768	NullLiteralExpr ReturnStmt StringLiteralExpr	-0.2255479
-1.4248241	ReturnStmt MethodCallExpr StringLiteralExpr	-0.25838178
-1.5989892	BinaryExpr MethodCallExpr StringLiteralExpr	-0.2255479
-1.4667569	UnaryExpr MethodCallExpr StringLiteralExpr	-0.2255479
-1.4797983	IfStmt MethodCallExpr StringLiteralExpr	-0.21489242
-1.4428877	MethodCallExpr SimpleName StringLiteralExpr	-0.24123283
-1.6628972	NameExpr SimpleName StringLiteralExpr	-0.2795747
-1.495541	SimpleName SimpleName StringLiteralExpr	-0.29451972
-1.8057711	ClassOrInterfaceType SimpleName StringLiteralExpr	-0.23892832
-1.7904209	IntegerLiteralExpr SimpleName StringLiteralExpr	-0.2255479
-1.3142115	StringLiteralExpr SimpleName StringLiteralExpr	-0.2516134
-1.5287381	BooleanLiteralExpr SimpleName StringLiteralExpr	-0.24715908
-1.3744814	ThisExpr SimpleName StringLiteralExpr	-0.2255479
-0.7788611	CharLiteralExpr SimpleName StringLiteralExpr	-0.2255479
-1.4628985	ReturnStmt IntegerLiteralExpr StringLiteralExpr	-0.2255479
-1.7841173	SimpleName IntegerLiteralExpr StringLiteralExpr	-0.2286474
-1.6633819	IntegerLiteralExpr IntegerLiteralExpr StringLiteralExpr	-0.2255479
-1.5249009	UnaryExpr IntegerLiteralExpr StringLiteralExpr	-0.2255479
-0.25907755	SingleMemberAnnotationExpr Name StringLiteralExpr	-0.21912327
-1.1253998	SimpleName StringLiteralExpr StringLiteralExpr	-0.32273662
-0.8832579	IntegerLiteralExpr StringLiteralExpr StringLiteralExpr	-0.21489242
-0.916125	StringLiteralExpr StringLiteralExpr StringLiteralExpr	-0.25585625
-0.5656152	ArrayInitializerExpr StringLiteralExpr StringLiteralExpr	-0.24715908
-0.58690786	NullLiteralExpr StringLiteralExpr StringLiteralExpr	-0.2255479
-1.3775657	ReturnStmt BinaryExpr StringLiteralExpr	-0.2516134
-1.1135553	SimpleName BinaryExpr StringLiteralExpr	-0.3074584
-1.3921812	IntegerLiteralExpr BinaryExpr StringLiteralExpr	-0.2255479
-1.2655845	BinaryExpr BinaryExpr StringLiteralExpr	-0.26027107
-1.902647	SimpleName BooleanLiteralExpr StringLiteralExpr	-0.2255479
-0.8748631	SimpleName ArrayInitializerExpr StringLiteralExpr	-0.2255479
-0.2794552	Name ArrayInitializerExpr StringLiteralExpr	-0.2255479
-0.9442852	ArrayCreationLevel ArrayInitializerExpr StringLiteralExpr	-0.2255479
-0.9412244	DoubleLiteralExpr DoubleLiteralExpr StringLiteralExpr	-0.2255479
-0.7951735	StringLiteralExpr NullLiteralExpr StringLiteralExpr	-0.24715908
-0.8510266	<s> ReturnStmt BinaryExpr	-1.6653818
-1.2336046	SimpleName ReturnStmt BinaryExpr	-0.24636191
-1.2744778	IntegerLiteralExpr ReturnStmt BinaryExpr	-0.2255479
-1.2334328	StringLiteralExpr ReturnStmt BinaryExpr	-0.2255479
-1.2226495	BooleanLiteralExpr ReturnStmt BinaryExpr	-0.2255479
-1.1071243	PrimitiveType ReturnStmt BinaryExpr	-0.2255479
-1.2741888	NullLiteralExpr ReturnStmt BinaryExpr	-0.2255479
