\data\
ngram 1=7512
ngram 2=30734

\1-grams:
-4.4775577	<unk>	0
0	<s>	-1.8719575
-4.148369	</s>	0
-3.772955	assertTrue	-4.6150074
-1.2545762	(	-2.1802473
-3.1415794	Thread	-2.5402312
-1.322617	.	-2.609985
-3.9846475	currentThread	-2.432534
-1.1159632	)	-2.7275307
-4.325872	getName	-3.6635308
-4.325872	startsWith	-3.3077886
-4.325872	"RxCachedThreadScheduler"	-0.37867928
-1.6759208	;	-2.3239582
-3.3358207	return	-1.7402296
-4.325872	"Value_"	-1.8764248
-2.1331573	+	-1.423272
-2.8522964	t	-2.90964
-4.325872	"_Thread_"	-1.8764248
-3.4390223	System	-4.4939494
-3.3358207	out	-2.2185328
-4.325872	println	-4.3978896
-4.325872	"t:	-2.052516
-2.0543551	"	-1.390397
-3.4390223	calls	-3.0264132
-2.3566937	[	-2.1649632
-3.3062332	0	-3.2219934
-2.8047163	]	-1.7669492
-2.6539366	++	-2.2701948
-4.325872	"Wait	-0.07938897
-3.5245876	before	-0.99187255
-3.9846475	GC"	-2.4504561
-3.9846475	sleep	-3.4446266
-3.4390223	1000	-2.513389
-4.325872	"GC"	-0.37867928
-4.325872	gc	-3.149426
-4.148369	MemoryMXBean	-1.6489171
-4.148369	memoryMXBean	-2.8058438
-1.2930537	=	-1.8708357
-4.2276278	ManagementFactory	-2.751486
-4.325872	getMemoryMXBean	-2.751486
-3.574654	long	-1.2349938
-3.8660285	initial	-1.5411671
-4.325872	getHeapMemoryUsage	-3.0452168
-4.325872	getUsed	-3.0452168
-4.325872	printf	-3.0377927
-4.325872	"Starting:	-0.37867928
-3.6312535	%.3f	-1.3036284
-4.148369	MB%n"	-2.897614
-1.380686	,	-1.8926785
-3.122431	/	-1.5528722
-4.325872	1024.0	-3.0067585
-3.2785335	int	-1.4810902
-3.0376167	n	-2.5372925
-3.4018295	100	-2.7586
-2.9666905	*	-1.5841117
-3.4390223	if	-4.2524223
-4.2276278	periodic	-0.15822175
-3.4390223	final	-1.8980935
-3.9846475	CountDownLatch	-1.15218
-3.574654	cdl	-2.1313465
-3.3358207	new	-1.4208674
-3.4018295	Runnable	-2.4555876
-3.574654	action	-2.9347558
-3.2785335	@	-4.581004
-4.325872	Override	-4.657237
-4.2276278	public	-2.93639
-3.8660285	void	-3.0368261
-3.4390223	run	-3.4410167
-3.9846475	countDown	-4.1642265
-3.122431	for	-2.4873857
-3.0864944	i	-2.9289484
-1.3937829	<	-2.565562
-3.3675723	%	-1.5904343
-4.2276278	50000	-0.6678051
-2.2618344	==	-1.5475899
-2.9291027	->	-1.4809966
-3.6963503	still	-1.5710307
-4.325872	scheduling:	-0.07938897
-3.0533059	w	-2.8217204
-4.325872	schedulePeriodically	-2.5296373
-3.1415794	1	-3.6109815
-3.6963503	TimeUnit	-3.207701
-4.325872	DAYS	-3.0452168
-4.325872	"Waiting	-0.37867928
-3.1826122	the	-0.6869652
-3.2046802	first	-2.0897546
-4.2276278	round	-0.37867928
-2.842354	to	-2.5043151
-4.325872	finish..."	-0.37867928
-3.9846475	await	-3.950143
-4.2276278	else	-1.1339779
-3.6963503	schedule	-3.5797162
-3.6312535	Functions	-4.5455093
-4.325872	EMPTY_RUNNABLE	-0.88993716
-3.3358207	after	-1.6831136
-4.325872	"Peak:	-0.37867928
-3.5245876	dispose	-2.9470382
-3.5245876	second	-1.2013665
-4.325872	"JDK	-0.37867928
-3.479701	6	-2.5983415
-4.325872	purge	-0.37867928
-2.2130365	is	-2.4511971
-4.2276278	N	-0.37867928
-3.8660285	log	-0.23354448
-4.325872	because	-0.37867928
-3.252495	it	-2.3525112
-4.325872	removes	-0.37867928
-3.6963503	and	-0.17586343
-4.325872	shifts	-0.37867928
-3.9846475	one	-0.47215867
-4.148369	by	-0.70088094
-4.148369	one"	-2.2743647
-3.6312535	Math	-3.1664593
-4.148369	sleepStep	-0.12495283
-3.5245876	while	-3.475762
-2.2995799	>	-2.0315213
-3.772955	>>	-0.62440246
-4.325872	Waiting	-0.37867928
-4.325872	purge:	-0.37867928
-4.2276278	%.2f	-0.37867925
-2.8835661	s	-2.7734594
-4.325872	remaining%n"	-0.37867928
-4.325872	1000d	-0.37867928
-3.6963503	finish	-1.2204486
-4.325872	"After:	-0.07938897
-2.941274	<=	-1.0462346
-3.252495	5	-2.6950378
-4.148369	break	-2.5113492
-4.325872	-=	-0.07938897
-4.325872	"Second	-0.37867928
-3.772955	2000	-2.5531185
-3.4018295	fail	-2.705235
-3.2785335	String	-1.9658839
-4.325872	format	-2.5753949
-4.325872	"Tasks	-0.37867928
-4.325872	retained:	-0.37867928
-4.325872	%.3f"	-0.37867928
-3.6312535	1024	-2.5643995
-4.325872	1024d	-0.37867928
-3.772955	getAndIncrement	-4.0302396
-3.0695834	r	-1.930855
-2.941274	c	-1.9787273
-4.148369	decrementAndGet	-3.6842978
-3.1040912	get	-4.883105
-2.2618344	!=	-1.6222608
-3.4018295	start	-2.5284348
-3.479701	throw	-2.9505641
-3.9846475	IllegalStateException	-1.6329856
-4.2276278	sync	-1.3444986
-3.772955	try	-1.3841177
-4.148369	catch	-3.567995
-3.772955	InterruptedException	-2.8223662
-2.9936874	ex	-3.8039947
-3.8660285	isInterrupted	-2.8425665
-3.3358207	set	-3.174089
-3.8660285	true	-4.2839575
-3.574654	nextCount	-1.294952
-4.325872	firstStepStart	-0.37867928
-4.325872	firstStepEnd	-0.37867928
-3.3062332	latch	-2.0202205
-4.325872	secondStepStart	-0.37867928
-3.0224745	inner	-2.3399377
-4.325872	firstAction	-0.37867928
-4.325872	secondStepEnd	-0.37867928
-4.325872	thirdStepStart	-0.37867928
-4.325872	secondAction	-0.37867928
-4.325872	thirdStepEnd	-0.37867928
-3.0376167	Flowable	-3.2233286
-3.8660285	fromIterable	-2.8478358
-3.479701	Arrays	-2.9148571
-3.9846475	asList	-2.8591862
-4.325872	"a-"	-0.37867928
-3.9846475	id	-0.838885
-4.325872	"b-"	-0.37867928
-4.2276278	subscribeOn	-3.9148462
-4.148369	getScheduler	-1.8764248
-3.6312535	map	-3.4865525
-3.6312535	Function	-3.4889765
-2.9666905	apply	-4.831872
-4.325872	"names=>"	-0.07938897
-4.2276278	invocation	-0.96883506
-4.325872	getMock	-0.07938897
-4.2276278	finally	-1.6286807
-3.9846475	30	-2.7610314
-4.325872	MILLISECONDS	-3.3539965
-3.3358207	10	-3.2049835
-4.2276278	40	-2.517403
-4.2276278	300	-2.5415366
-4.325872	third	-0.37867928
-4.325872	fourth	-0.37867928
-4.148369	400	-1.3849552
-4.2276278	incrementAndGet	-4.158026
-3.3062332	this	-2.7456849
-3.3062332	state	-1.8886997
-3.3358207	Scheduler	-1.5109957
-3.574654	Worker	-1.1668042
-4.2276278	createWorker	-3.2428477
-3.772955	AsyncSubscription	-1.0810722
-3.22793	as	-1.8384652
-3.4018295	subscriber	-3.388462
-3.3675723	onSubscribe	-3.5947006
-4.325872	setResource	-2.7795148
-3.9846475	42	-2.6068032
-3.4018295	onComplete	-2.9023976
-3.4390223	onNext	-3.8906877
-4.325872	"Value:	-1.9733348
-2.8835661	v	-3.7956567
-4.325872	lastValue	-0.37867928
-3.772955	BooleanSubscription	-2.80075
-3.0695834	count	-2.681634
-4.325872	"v:	-2.6893382
-4.2276278	unsafeCreate	-4.0452166
-3.4018295	Publisher	-2.7566054
-3.4390223	subscribe	-3.071388
-3.2785335	Subscriber	-2.517314
-3.0695834	?	-1.8291409
-3.6312535	super	-1.9077032
-4.325872	"value_after_map-"	-0.07938897
-3.3062332	scheduler	-2.6343482
-3.772955	concurrentCounter	-1.0199876
-4.325872	"ConcurrentObserverValidator.onNext:	-0.37867928
-3.3062332	args	-2.4505157
-3.3062332	onError	-2.8036704
-3.6312535	RuntimeException	-2.4193962
-4.325872	"we	-0.37867928
-3.1826122	should	-1.4862943
-3.0376167	not	-1.0833242
-3.6963503	have	-1.9030268
-4.325872	concurrent	-0.37867928
-4.325872	execution	-0.37867928
-3.2785335	of	-1.4376427
-4.325872	onNext"	-0.37867928
-3.9846475	50	-3.0620613
-2.8047163	e	-3.5903347
-3.4018295	sd	-2.5531185
-4.2276278	decoratedCalled	-0.07938897
-3.479701	actual	-2.6581802
-4.148369	scheduleDirect	-3.1194627
-3.5245876	disposable	-1.960422
-4.325872	schedulePeriodicallyDirect	-2.4504561
-3.772955	10000	-2.2171392
-4.325872	$EMPTY$	-4.2108784
-3.9846475	merge	-3.0737054
-3.9846475	filter	-2.4741206
-4.148369	Predicate	-2.8594522
-3.2046802	Integer	-3.0454848
-3.479701	boolean	-1.3961573
-3.6312535	test	-3.3926697
-4.2276278	throws	-3.2516143
-3.4018295	Throwable	-2.218211
-3.122431	2	-3.0100627
-4.2276278	observeOn	-3.9380658
-3.6312535	sch	-2.724614
-3.8660285	false	-3.9878554
-4.325872	hide	-4.080545
-3.6312535	delay	-2.9596088
-4.2276278	SECONDS	-3.949226
-3.574654	now	-1.5713927
-4.2276278	calledOp	-1.8764248
-3.4390223	ExceptionHelper	-3.6322997
-4.148369	wrapOrThrow	-1.9485084
-3.3062332	counter	-2.086434
-4.325872	"counter:	-0.07938897
-3.3062332	bs	-2.260603
-4.325872	aSubscriber	-0.37867928
-3.6963503	!	-1.122514
-3.479701	isCancelled	-3.146521
-4.325872	"Runnable"	-0.37867928
-3.574654	TestException	-3.1421864
-3.1415794	d	-2.9134164
-4.325872	advanceTimeBy	-4.01709
-3.6312535	EmptyDisposable	-3.4674895
-3.8660285	INSTANCE	-3.1450613
-3.574654	Schedulers	-4.3585835
-3.574654	single	-2.3008537
-3.22793	Disposable	-1.9682951
-3.574654	unit	-2.143965
-3.9846475	SchedulerRunnableIntrospection	-0.37354344
-4.2276278	outerWrapper	-0.07938897
-4.148369	innerWrapper	-0.07938897
-4.325872	getWrappedRunnable	-1.8764248
-3.8660285	assertSame	-3.517403
-3.8660285	runnable	-0.70088094
-3.8660285	isDisposed	-4.2897243
-4.2276278	statefulMap	-2.052516
-4.2276278	"a"	-2.6004245
-3.4018295	null	-2.4070601
-4.2276278	put	-3.6027443
-4.2276278	"b"	-2.4687936
-4.2276278	nonThreadSafeCounter	-0.37867928
-4.325872	"nonThreadSafeCounter"	-0.37867928
-4.325872	NUM	-0.37867928
-4.325872	"RxComputationThreadPool"	-1.7514861
-3.9846475	assertNotEquals	-2.6167874
-4.325872	currentThreadName	-1.7514861
-4.325872	setUncaughtExceptionHandler	-2.2743647
-3.252495	thread	-1.9015474
-4.148369	throwable	-1.3371122
-4.325872	repeatCount	-0.07938897
-4.325872	OutOfMemoryError	-0.07938897
-4.2276278	delayTime	-0.95560676
-4.325872	convert	-2.2743647
-4.325872	drift	-0.37867928
-4.325872	NANOSECONDS	-2.1774547
-3.479701	times	-2.6822393
-3.6312535	add	-3.915839
-4.325872	currentTimeMillis	-3.1435964
-3.6963503	assertEquals	-4.667413
-4.148369	workers	-0.4483112
-4.325872	doWorkOnNewTrampoline	-0.07938897
-4.2276278	"A"	-2.149426
-4.2276278	workDone	-0.54286635
-4.148369	"B"	-1.6227009
-4.325872	worker2	-0.37867928
-3.6963503	interval	-2.727683
-4.325872	MICROSECONDS	-1.8764248
-3.3358207	Long	-2.2485983
-4.325872	ount1	-0.37867928
-4.325872	trampolineWorker	-0.07938897
-4.148369	take	-3.6653
-4.2276278	msg	-0.15822175
-3.479701	key	-2.3535461
-4.325872	".1"	-0.37867928
-4.2276278	worker3	-0.15822175
-4.2276278	trampoline	-2.6360927
-4.325872	createPrintAction	-0.07938897
-4.325872	".B.1"	-0.37867928
-4.325872	".B.2"	-0.37867928
-3.6312535	message	-1.4351418
-3.479701	just	-3.4298966
-4.325872	blockingFirst	-2.955606
-4.325872	blockingLast	-3.278686
-4.148369	blockingIterable	-2.8306673
-3.3358207	iterator	-2.892413
-3.1826122	next	-2.1806846
-4.2276278	blockingSubscribe	-3.6454327
-4.325872	blockingSingle	-3.1194627
-4.2276278	blockingForEach	-3.0302396
-4.2276278	emptyConsumer	-3.654576
-4.325872	blockingLatest	-2.7215228
-3.6963503	hasNext	-3.2088633
-4.325872	blockingNext	-2.5296373
-4.325872	toFuture	-2.9178174
-3.122431	Observable	-2.9485862
-3.252495	Single	-2.2783446
-4.325872	blockingGet	-3.507361
-3.252495	Maybe	-2.4904697
-3.252495	Completable	-1.9944961
-3.574654	complete	-2.4968042
-4.325872	blockingAwait	-2.4784849
-4.325872	countGenerated	-0.37867928
-4.2276278	aLong	-1.5571467
-4.325872	"---	-0.37867925
-3.9846475	completed"	-1.8038191
-4.325872	onError"	-0.37867928
-4.325872	countReceived	-0.37867928
-3.5245876	cancel	-2.8872492
-4.325872	"==>	-0.37867928
-4.325872	Received	-0.37867928
-4.325872	"Run:	-1.8764248
-3.9846475	unsubscribeLatch	-0.8438963
-3.6312535	1L	-2.2739437
-3.772955	100000	-1.6680684
-4.325872	Total	-0.07938897
-4.325872	Memory:	-0.07938897
-3.9846475	Runtime	-2.3157575
-4.325872	getRuntime	-2.3157575
-4.325872	totalMemory	-0.07938897
-4.325872	Free:	-0.07938897
-4.325872	freeMemory	-0.07938897
-4.325872	1000000L	-0.07938897
-3.574654	Subscription	-1.8542892
-4.325872	completionLatch	-0.07938897
-3.479701	request	-2.5252357
-4.325872	"Completed"	-0.37867928
-3.479701	completed	-2.4327273
-4.325872	"Error"	-1.7514861
-4.325872	"Thread:	-0.07938897
-4.148369	"The	-0.98839283
-4.325872	released	-0.37867928
-4.325872	we	-0.37867928
-3.9846475	are	-0.37867928
-4.325872	async."	-0.37867928
-3.0376167	error	-3.1650712
-3.2785335	upstream	-2.7651906
-4.2276278	toObservable	-3.7168446
-3.8660285	toFlowable	-3.915839
-3.9846475	BackpressureStrategy	-1.5311105
-4.2276278	MISSING	-1.7854283
-4.2276278	"Forced	-2.5963051
-3.8660285	failure"	-3.2428477
-3.3675723	empty	-3.4624214
-3.8660285	never	-2.7524002
-4.2276278	diff	-0.23354448
-4.325872	abs	-1.9733348
-3.8660285	stop	-0.9727897
-2.7228155	-	-1.5613259
-4.325872	diffUnit	-0.37867928
-3.0864944	source	-2.9875474
-4.325872	maxDiff	-0.37867928
-4.325872	SafeSubscriberTestException	-2.052516
-4.325872	"failure	-0.37867928
-3.8660285	from	-1.6489171
-3.9846475	unsubscribe"	-2.2286072
-4.325872	"onNextFail"	-1.8764248
-4.325872	"onErrorFail"	-1.8764248
-4.325872	"onCompleteFail"	-0.07938897
-4.325872	crashDispose	-0.37867928
-4.325872	"cancel()"	-0.37867928
-4.325872	crashRequest	-0.37867928
-4.325872	"request()"	-0.37867928
-4.325872	crashOnError	-0.07938897
-4.325872	"onError("	-0.07938897
-4.2276278	")"	-2.1951835
-4.325872	crashOnComplete	-0.07938897
-4.325872	"onComplete()"	-0.07938897
-3.574654	List	-2.733379
-4.148369	cel	-2.1951835
-3.5245876	TestHelper	-4.9782577
-4.2276278	compositeList	-3.0939088
-4.148369	assertError	-4.0667567
-3.1040912	index	-2.5270884
-3.4018295	clazz	-1.5020776
-3.2046802	values	-2.3779247
-2.941274	value	-2.1686661
-3.8660285	unsub	-2.3287225
-4.325872	t0	-2.052516
-3.9846475	interrupt	-1.1095552
-4.325872	getMessage	-3.494473
-2.6476135	&&	-0.9819695
-4.148369	contains	-3.4063041
-4.325872	"Forced"	-1.8764248
-3.6312535	ts1	-2.788573
-2.8624713	o	-2.9852657
-3.22793	3	-2.7755594
-3.772955	IllegalArgumentException	-2.0677567
-3.4390223	RxJavaPlugins	-4.5594716
-3.6963503	Future	-2.8366575
-3.0224745	f	-3.2411656
-2.4114013	:	-0.9168133
-4.325872	futures	-0.07938897
-3.5245876	20	-2.2836676
-3.3675723	err	-2.0513134
-4.325872	"Failed	-0.37354344
-3.6312535	waiting	-2.2286072
-3.574654	on	-0.8379102
-4.325872	future."	-0.07938897
-4.148369	printStackTrace	-2.2330625
-3.6312535	events	-2.8472364
-4.148369	TestConcurrencySubscriberEvent	-1.0199876
-3.479701	+=	-0.58825004
-4.325872	waitTime	-0.07938897
-3.8660285	finished	-2.1396663
-4.325872	"Received	-0.7514868
-3.0864944	but	-1.6578354
-4.325872	we're	-2.052516
-3.9846475	already	-0.9819357
-4.325872	finished."	-2.052516
-4.148369	expectedEndingEvent	-2.052516
-4.2276278	ending	-1.8764248
-3.5245876	event	-1.7293323
-3.0078425	expected	-2.1206162
-4.325872	"running	-2.2037838
-3.8660285	TestSingleThreadedObservable	-0.6165815
-3.8660285	thread"	-3.1004395
-4.325872	"TestSingleThreadedObservable	-0.6678051
-3.8660285	onNext:	-2.6360927
-3.574654	NullPointerException	-2.9418178
-3.6963503	npe	-2.4327273
-4.325872	"TestMultiThreadedObservable	-2.3157575
-3.4390223	subscribed	-2.1913319
-4.2276278	..."	-2.5753949
-3.772955	TestMultiThreadedObservable	-2.2444015
-3.3358207	j	-2.3241513
-4.2276278	fj	-1.9733348
-3.9846475	threadPool	-2.654576
-4.325872	execute	-2.420493
-3.8660285	threadsRunning	-3.0939088
-4.148369	concurrentThreads	-2.5296373
-4.148369	maxThreads	-2.5296373
-4.148369	maxConcurrentThreads	-2.9903681
-3.8660285	compareAndSet	-3.8934581
-4.325872	shutdown	-3.0939088
-4.325872	awaitTermination	-2.3535461
-4.325872	"Threadpool	-1.8764248
-3.772955	did	-2.654576
-3.5245876	terminate	-2.3949387
-3.252495	in	-1.0284069
-4.325872	time."	-1.8764248
-4.325872	"starting	-0.9427695
-4.325872	"done	-2.4784849
-4.2276278	starting	-1.0272108
-4.325872	captureMaxThreads	-2.052516
-3.9846475	terminalEvent	-2.420493
-4.325872	">>>>>>>>>>>>>>>>>>>>	-0.07938897
-4.2276278	received:	-1.8764248
-4.2276278	onNextCount	-2.3535461
-3.6312535	serial	-3.0805447
-3.574654	so	-1.1812963
-4.325872	ssRef	-0.07938897
-3.3675723	q	-2.5588453
-3.772955	offer	-3.707334
-3.1040912	--	-0.9800619
-3.6963503	poll	-3.7441869
-3.6963503	to1	-3.121526
-3.4390223	disposed	-2.7726753
-4.2276278	checkSubscriptionOnce	-2.1774547
-3.1826122	errors	-2.7944765
-4.2276278	"onSubscribe	-2.2122169
-3.479701	called	-1.6432221
-4.325872	proper	-2.1774547
-4.325872	order"	-2.1774547
-3.9846475	lastThread	-2.0872781
-4.2276278	establishedFusionMode	-0.07938897
-3.574654	QueueFuseable	-4.101734
-3.8660285	ASYNC	-2.6410148
-3.3675723	qs	-2.2518792
-4.2276278	"onNext	-1.0313275
-3.3358207	received	-1.0418152
-2.7618382	a	-2.3626375
-3.9846475	value"	-1.8291731
-3.4018295	downstream	-3.3109221
-3.479701	SubscriptionHelper	-4.0452166
-4.325872	deferredRequest	-2.5531185
-4.148369	missedRequested	-1.9733348
-4.325872	initialFusionMode	-0.07938897
-3.479701	mode	-1.3907474
-3.0224745	m	-2.7458997
-3.9846475	AssertionError	-1.6557565
-4.325872	"\nexpected:	-2.2286072
-4.325872	fusionModeToString	-1.8764248
-4.325872	"\ngot:	-2.2286072
-4.325872	";	-0.57324994
-4.325872	Fusion	-0.07938897
-4.2276278	different"	-0.4636851
-4.325872	"Upstream	-0.15822175
-4.325872	fuseable"	-0.07938897
-3.252495	size	-2.1756299
-3.4390223	T	-2.1026807
-3.479701	Objects	-4.567285
-4.325872	equals	-3.536816
-4.325872	"Value	-0.37867925
-3.0533059	at	-1.4125595
-4.325872	position	-1.9733348
-3.9846475	equal	-1.7514861
-4.2276278	valueAndClass	-2.388308
-4.148369	Expected	-1.2345208
-4.325872	them	-0.37867928
-3.6312535	be	-1.1405308
-3.574654	U	-1.8472348
-4.2276278	assertSubscribed	-3.3607247
-4.325872	assertValues	-3.9352303
-4.325872	errorPredicate	-0.37867925
-4.325872	assertNotComplete	-3.908842
-4.325872	assertErrorMessage	-3.0667565
-4.148369	switch	-2.4784849
-4.2276278	case	-0.9627913
-3.8660285	NONE	-2.4625568
-4.325872	"NONE"	-0.37867928
-3.772955	SYNC	-2.516076
-4.325872	"SYNC"	-0.37867928
-4.325872	"ASYNC"	-0.37867928
-4.148369	default	-1.5590318
-4.325872	"Unknown("	-0.37867928
-4.325872	getArgument	-0.37867928
-4.325872	MAX_VALUE	-3.0466864
-3.252495	list	-2.6712174
-4.325872	isInstance	-2.2286072
-4.148369	got	-1.228608
-4.325872	initCause	-2.6167874
-2.9291027	instanceof	-0.94617057
-4.148369	UndeliverableException	-0.37354344
-4.2276278	"Outer	-0.4636851
-3.3675723	exception	-1.1591729
-4.325872	getCause	-3.3499117
-4.325872	"Inner	-0.07938897
-4.325872	"Type	-0.37867928
-4.325872	"Message	-0.07938897
-3.6963503	CompositeException	-2.3649325
-3.8660285	ce	-1.8511285
-4.325872	getExceptions	-2.6167874
-4.325872	toString	-3.8903148
-4.2276278	":	-1.5807673
-4.325872	CompositeException"	-1.8764248
-3.1415794	ts	-3.3740947
-3.772955	r1	-3.596584
-2.9537964	b	-2.5680652
-3.6963503	d1	-2.9750686
-3.1826122	observer	-3.3231332
-3.479701	d2	-2.9441464
-3.3358207	subscribers	-3.0134094
-3.772955	length	-2.7160945
-3.8660285	bs1	-2.3750653
-3.8660285	bs2	-2.8617015
-3.9846475	class	-2.8313692
-3.8660285	classes	-1.4563695
-3.6312535	Class	-2.377027
-3.1616113	p	-2.4641361
-3.5245876	QueueDisposable	-2.9402583
-4.325872	SuppressWarnings	-3.8282478
-4.2276278	"unchecked"	-2.283229
-3.3358207	Object	-2.5757334
-3.574654	qd	-3.0083642
-4.2276278	requestFusion	-3.291398
-4.2276278	ANY	-3.1627314
-3.8660285	isEmpty	-2.5058055
-3.8660285	clear	-3.9698465
-3.4390223	QueueSubscription	-3.1194627
-4.2276278	trackPluginErrors	-3.96897
-4.2276278	bad	-0.07938897
-3.4390223	once	-2.3410544
-4.2276278	protected	-3.5542598
-3.9846475	subscribeActual	-3.858696
-3.3062332	Observer	-2.5274627
-4.325872	goodValue	-1.8764248
-4.2276278	"error"	-1.5708951
-4.325872	badValue	-1.8764248
-4.2276278	"second"	-2.7795148
-3.6963503	mapper	-3.277969
-3.3675723	ObservableSource	-2.4745913
-3.5245876	os	-2.5861187
-3.574654	TestObserverEx	-3.9928665
-4.325872	awaitDone	-4.08594
-4.325872	assertNoErrors	-4.2901435
-4.325872	assertComplete	-4.027948
-3.479701	TestSubscriberEx	-4.1574583
-3.5245876	SingleSource	-2.3229806
-3.479701	MaybeSource	-2.3241303
-3.479701	CompletableSource	-1.732093
-4.2276278	assertUndeliverable	-3.9464626
-4.148369	reset	-2.2449703
-3.574654	v1	-1.416377
-3.5245876	v2	-2.3677864
-3.6312535	Exception	-2.0659697
-4.325872	StripBoundarySubscriber	-0.07938897
-3.574654	subscription	-1.0001067
-3.574654	fs	-2.0872781
-3.4390223	&	-1.3310524
-4.325872	~	-0.23354448
-3.8660285	BOUNDARY	-1.6137108
-4.2276278	UnsupportedOperationException	-3.1756415
-4.325872	"Should	-1.795477
-4.325872	called"	-2.1774547
-4.325872	StripBoundaryObserver	-0.37867928
-4.325872	TestConsumerExConverters	-1.7514861
-3.3062332	cancelled	-2.4063318
-3.772955	fusionMode	-1.8435584
-3.6312535	testSubscriber	-2.6635308
-4.325872	initialRequest	-1.1833682
-4.325872	FlowableConverter	-2.897614
-3.9846475	tse	-0.20374706
-4.325872	setInitialFusionMode	-3.4646964
-4.2276278	subscribeWith	-3.7471213
-3.772955	Set	-2.9464626
-4.148369	expectedSet	-0.37354344
-4.148369	HashSet	-3.1256232
-4.325872	failWith	-0.07938897
-4.325872	"Item	-0.07938897
-4.325872	set:	-0.07938897
-4.325872	BaseTestConsumer	-0.07938897
-4.148369	bean	-0.15822175
-4.325872	maxLoop	-0.37867928
-4.148369	usage	-0.37867925
-4.325872	expectedMemoryUsage	-0.37867928
-4.325872	oneSleep	-0.37867928
-4.325872	ForwardingConditionalSubscriber	-0.37867928
-3.772955	a1	-1.7052557
-4.148369	b1	-0.23354448
-3.6963503	onSuccess	-2.502162
-4.325872	"Hello"	-1.3680904
-4.2276278	"fail"	-2.5531185
-4.325872	"SubscribeOn	-0.37867928
-3.9846475	Thread:	-2.052516
-4.325872	"ObserveOn	-1.0256678
-4.2276278	World!"	-2.052516
-4.2276278	computation	-4.0575533
-3.9846475	5000	-0.7647151
-4.325872	"success"	-2.1774547
-3.9846475	SerialDisposable	-0.7734316
-3.574654	interrupted	-2.8153195
-4.325872	replace	-3.4865525
-4.2276278	fromRunnable	-3.3274431
-3.574654	unsubscribed	-2.1468296
-4.2276278	"hello"	-2.848396
-3.8660285	integer	-1.6433786
-3.6963503	atomicInteger	-3.3350627
-3.574654	sum	-1.6107537
-3.9846475	atomicLong	-1.2297877
-3.3062332	result	-2.7724528
-3.0533059	t1	-2.8616457
-3.2785335	t2	-2.3380182
-3.9846475	numberOfSubscribeCalls	-2.3535461
-4.325872	soRef	-0.07938897
-4.325872	SafeObserverTestException	-1.9733348
-3.9846475	Assert	-3.870962
-3.3062332	requested	-2.0482798
-4.148369	normal	-2.388308
-3.6963503	completable	-1.1659143
-4.325872	onSubscribeCalled	-0.37867928
-3.6963503	lazySet	-3.618757
-4.325872	disposedFirst	-1.8764248
-4.2276278	onErrorComplete	-2.9275773
-3.3062332	done	-3.1133454
-3.4018295	CompletableObserver	-1.1149148
-3.3358207	name	-1.7943194
-4.325872	550	-0.37867928
-4.325872	getUncaughtExceptionHandler	-0.07938897
-4.2276278	uncaughtException	-1.9733348
-3.6963503	Action	-2.0650473
-3.6312535	Consumer	-2.990397
-3.772955	accept	-3.39153
-4.325872	toSingleDefault	-1.7514861
-4.2276278	disposableRef	-2.052516
-4.325872	hasRun	-0.07938897
-4.2276278	"foo"	-0.54286635
-4.325872	doneAfter	-0.07938897
-3.5245876	co	-2.5306983
-3.8660285	depth	-0.4298289
-4.325872	MAX_STACK_DEPTH	-0.37867928
-4.2276278	getStackTrace	-1.8764248
-4.325872	StackOverflowError	-0.37867928
-4.148369	ThreadDeath	-0.15822175
-3.252495	task	-2.6893382
-4.148369	setFirst	-2.4504561
-3.574654	f1	-2.7795148
-4.2276278	setRest	-0.07938897
-3.4390223	timer	-2.6519833
-4.2276278	sched	-0.07938897
-4.325872	defer	-2.897614
-3.4390223	Supplier	-2.7051873
-4.325872	0l	-0.07938897
-4.325872	workerActions	-0.07938897
-4.2276278	actions	-1.2297877
-3.8660285	concat	-3.1025949
-3.4390223	worker	-1.9716935
-4.325872	tSched	-0.07938897
-3.772955	sa	-2.1636665
-4.325872	setFuture	-2.5531185
-4.148369	ft	-2.2163727
-3.3062332	call	-2.334707
-4.2276278	"Second"	-3.5531185
-4.148369	"First"	-3.323583
-4.325872	syncb	-1.8764248
-3.772955	list1	-1.7568586
-3.6963503	ArrayList	-2.5073617
-3.9846475	SchedulerMultiWorkerSupport	-0.51525795
-4.2276278	mws	-0.07938897
-4.325872	createWorkers	-1.8764248
-3.574654	max	-1.9358151
-4.325872	WorkerCallback	-0.07938897
-4.2276278	onWorker	-1.8764248
-3.8660285	composite	-2.197386
-4.2276278	threads1	-0.07938897
-3.6963503	list2	-1.5168008
-4.2276278	threads2	-0.07938897
-4.325872	SecurityException	-0.37867928
-4.148369	mayInterruptIfRunning	-2.2520883
-4.2276278	"Inner"	-3.1068738
-3.574654	s1	-1.7494905
-3.5245876	s2	-2.3239574
-3.8660285	assertFalse	-4.527703
-4.325872	spc	-0.37867928
-3.479701	requests	-2.1445885
-4.325872	tester	-1.8764248
-4.325872	"Done"	-2.4504561
-3.9846475	99	-2.7749672
-4.2276278	b2	-0.37867925
-3.772955	IOException	-1.8786356
-4.148369	128	-2.2759135
-4.2276278	fastPathEmitMax	-1.8764248
-4.2276278	fastPathOrderedEmitMax	-1.9733348
-4.148369	ready	-1.1717958
-3.6963503	hasValue	-3.01996
-3.479701	bf	-2.2955542
-4.148369	lift	-0.72572595
-4.2276278	FlowableOperator	-2.3535461
-4.2276278	SubscriberResourceWrapper	-1.9733348
-4.325872	atomicSubscription	-1.1717958
-4.2276278	addAndGet	-3.4918487
-4.325872	deferredSetOnce	-2.4784849
-3.6312535	ac	-0.69134927
-4.325872	replaceResource	-2.052516
-3.772955	ds	-1.0108004
-3.4390223	cs	-3.0794122
-3.9846475	cs2	-1.294952
-4.2276278	concatMapCompletable	-2.7057285
-4.2276278	justFunction	-3.9418178
-3.3675723	pp	-2.9814668
-2.8728907	||	-0.78496814
-4.2276278	concatMapCompletableDelayError	-2.3157575
-4.2276278	concatMapSingleDelayError	-2.654576
-4.2276278	"outer"	-2.654576
-3.4018295	SingleObserver	-1.4644579
-3.772955	obs	-3.0283306
-3.574654	ss	-2.8737018
-4.2276278	concatMapSingle	-2.8184328
-4.325872	flatMapPublisher	-2.5296373
-4.325872	andThen	-2.8184328
-4.325872	switchMapSingle	-2.6360927
-3.6963503	ms1	-1.4970329
-3.772955	ms2	-2.3057733
-3.4390223	ms	-3.0535488
-4.2276278	"inner"	-2.654576
-4.2276278	moRef	-0.9408063
-3.4018295	ps	-2.8313315
-4.148369	ex2	-2.8058438
-4.325872	switchMapSingleDelayError	-2.3535461
-3.9846475	css	-1.2809403
-4.325872	switchMapCompletable	-2.5753949
-4.2276278	ex0	-0.9287578
-4.2276278	"main"	-2.1774547
-4.325872	switchMapCompletableDelayError	-2.052516
-4.2276278	concatMapMaybeDelayError	-2.5531185
-3.4018295	MaybeObserver	-1.2300806
-4.2276278	concatMapMaybe	-2.897614
-4.325872	switchMapMaybe	-2.7367628
-3.4018295	PublishSubject	-2.946001
-3.6963503	create	-3.8440256
-3.4390223	TestObserver	-2.8978992
-4.325872	assertResult	-4.6574616
-4.325872	assertFailure	-4.444333
-3.6312535	MaybeSubject	-3.3535461
-4.325872	hasObservers	-4.1528864
-4.325872	assertEmpty	-4.0027184
-4.325872	checkUndeliverableUponCancel	-3.0667565
-4.325872	ObservableConverter	-2.7215228
-4.325872	switchMapMaybeDelayError	-2.3535461
-4.325872	checkUtilityClass	-2.5753949
-4.2276278	ScalarXMapZHelper	-2.1194627
-3.8660285	range	-2.6809058
-3.2785335	4	-2.561715
-3.574654	8	-2.6970353
-3.5245876	TestSubscriber	-3.8837457
-3.5245876	0L	-3.3754241
-4.2276278	requestMore	-3.278686
-4.325872	checkDoubleOnSubscribeFlowable	-3.3117912
-3.4018295	PublishProcessor	-4.1789002
-4.325872	hasSubscribers	-4.186055
-4.325872	extends	-1.4056996
-4.325872	assertValue	-3.6653
-4.2276278	testConsumer	-3.8860881
-4.325872	assertFailureAndMessage	-3.5022514
-3.6963503	AtomicReference	-3.8742478
-4.325872	RACE_LONG_LOOPS	-3.1719918
-3.8660285	r2	-3.542123
-4.325872	race	-3.892413
-4.325872	flatMapObservable	-2.388308
-4.325872	checkDisposed	-3.8665414
-3.252495	::	-1.3802124
-3.8660285	32	-2.0261805
-4.2276278	assertValueCount	-3.8196719
-3.574654	SingleSubject	-3.3097944
-3.772955	MissingBackpressureException	-2.1157815
-4.2276278	ConcatMapSingleSubscriber	-1.8764248
-3.6312535	operator	-0.76490915
-3.9846475	16	-3.0737054
-3.6963503	ErrorMode	-2.2580018
-4.325872	IMMEDIATE	-2.377027
-3.3062332	queue	-2.538171
-3.5245876	UnicastProcessor	-3.3369467
-3.574654	up	-2.1851423
-3.574654	emit	-1.5493693
-4.2276278	rejectFlowableFusion	-2.1774547
-4.325872	compose	-3.1068738
-4.2276278	flowableStripBoundary	-2.5753949
-3.6312535	CompletableSubject	-1.8712099
-4.148369	512	-1.2297877
-4.2276278	assertValueAt	-2.3535461
-4.325872	checkDoubleOnSubscribeObservable	-3.1774547
-4.325872	concatWith	-3.6959686
-4.2276278	ConcatMapMaybeMainObserver	-1.7514861
-3.8660285	fromArray	-1.7590399
-3.9846475	identity	-3.4079037
-3.5245876	UnicastSubject	-3.2743647
-3.574654	us	-2.011738
-4.2276278	rejectObservableFusion	-2.1774547
-4.2276278	observableStripBoundary	-2.2743647
-3.9846475	Void	-1.9147608
-4.2276278	checkDoubleOnSubscribeFlowableToCompletable	-2.052516
-4.2276278	"Mapper"	-1.7514861
-4.2276278	"Disposer"	-2.7795148
-3.9846475	using	-1.5775945
-4.325872	justSupplier	-3.213884
-4.325872	mapperThrows	-1.8764248
-4.325872	disposerThrows	-1.7514861
-4.2276278	disposer	-2.2886052
-4.2276278	"Mapper-run"	-1.9733348
-4.325872	RACE_DEFAULT_LOOPS	-3.5391827
-4.2276278	"Disposable	-1.1717958
-4.2276278	set!"	-2.4504561
-3.574654	StringBuilder	-1.6662747
-3.574654	sb	-1.7955544
-4.325872	doOnDispose	-3.2428477
-4.325872	append	-4.2867804
-4.325872	"Dispose"	-2.654576
-4.325872	"Resource"	-2.5753949
-4.325872	"ResourceDispose"	-1.8764248
-4.325872	"DisposeResource"	-1.8764248
-4.325872	fromCallable	-3.4838798
-3.8660285	Callable	-2.5791314
-4.325872	flattenAsObservable	-2.8654294
-3.479701	Iterable	-2.9932158
-3.5245876	Collections	-2.6611516
-4.148369	emptyList	-2.266217
-4.325872	assertFuseable	-3.4357328
-4.325872	assertFusionMode	-3.6723049
-4.325872	CrashingIterable	-3.052516
-4.2276278	"iterator()"	-2.4784849
-4.2276278	"hasNext()"	-2.3157575
-4.2276278	"next()"	-2.420493
-4.325872	checkDoubleOnSubscribeSingleToObservable	-1.7514861
-4.2276278	singleton	-2.6723049
-3.4390223	array	-2.2079906
-4.2276278	fill	-3.1256232
-3.772955	500	-2.1930485
-3.9846475	"2"	-2.9733348
-3.8660285	"1"	-2.7972436
-4.325872	assertNoValues	-3.8134408
-2.6603532	returned	-3.1119533
-4.2276278	MaybeSource"	-1.6489171
-4.325872	"something	-2.654576
-4.325872	went	-2.654576
-4.325872	terribly	-2.654576
-4.325872	wrong!"	-2.654576
-4.325872	"test"	-2.5296373
-4.325872	checkDoubleOnSubscribeSingleToMaybe	-2.1774547
-4.2276278	concatArrayEagerDelayError	-2.2743647
-4.148369	fromPublisher	-3.2286072
-4.2276278	IndexOutOfBoundsException	-1.3266978
-3.9846475	NoSuchElementException	-1.6222004
-4.2276278	"Subscription	-1.9275773
-4.325872	doAfterTerminate	-2.751486
-4.325872	afterTerminate	-2.1194627
-4.325872	assertAfterTerminateCalledOnce	-1.8764248
-4.325872	alwaysTrue	-3.7215228
-4.2276278	singleOrError	-3.0302396
-4.325872	checkDoubleOnSubscribeSingle	-2.5296373
-4.325872	onTerminateDetach	-2.9178174
-4.148369	WeakReference	-2.751486
-4.148369	wr	-2.6723049
-3.6963503	200	-3.0047433
-3.8660285	assertNull	-3.8209074
-4.148369	33	-1.9733348
-4.2276278	concatDelayError	-2.8306673
-3.6963503	TestScheduler	-2.5727983
-4.2276278	advanceTimeTo	-3.594511
-4.148369	triggerActions	-2.3157575
-4.2276278	delaySubscription	-3.1986442
-3.772955	io	-3.3450181
-4.148369	newThread	-3.3462467
-4.325872	doOnError	-2.981935
-4.325872	onErrorResumeWith	-2.7057285
-3.8660285	""	-2.1133978
-4.325872	checkDoubleOnSubscribeCompletableToSingle	-0.07938897
-4.325872	checkDoubleOnSubscribeFlowableToSingle	-2.3535461
-4.325872	checkDoubleOnSubscribeObservableToSingle	-2.3535461
-4.2276278	switchOnNext	-2.7928786
-3.8660285	11	-1.9787073
-4.2276278	13	-2.3535461
-4.148369	15	-2.2444015
-4.2276278	switchOnNextDelayError	-2.5048137
-3.8660285	ss1	-1.6150792
-3.6963503	ss2	-2.1396663
-3.772955	cached	-2.7136974
-3.574654	cache	-1.791728
-4.2276278	doubleDisposer	-0.15822175
-4.2276278	mergeArray	-2.9178174
-4.2276278	mergeArrayDelayError	-2.5296373
-4.2276278	flatMapMaybe	-3.27
-4.2276278	timeInterval	-2.9178174
-3.6963503	Timed	-2.1959295
-4.325872	1000L	-1.8764248
-4.325872	doOnCancel	-3.2037838
-4.325872	unsubscribeOn	-2.8764248
-4.325872	doFinally	-3.2520883
-4.325872	SingleDoFinallyTest	-0.07938897
-4.148369	mock	-3.4426658
-3.9846475	onDispose	-2.6723049
-4.2276278	doOnLifecycle	-2.8764248
-3.8660285	verify	-5.019986
-3.8660285	any	-4.4638553
-4.325872	withErrorTracking	-3.4297009
-4.325872	doThrow	-2.7367628
-3.8660285	when	-1.2220656
-4.2276278	concatEager	-2.9178174
-4.2276278	concatEagerDelayError	-2.5753949
-4.325872	doOnComplete	-3.2286072
-4.325872	SingleOnSubscribe	-2.4504561
-4.325872	SingleEmitter	-2.4504561
-4.2276278	setDisposable	-3.1664593
-4.325872	setCancellable	-2.5048137
-4.148369	Cancellable	-2.3157575
-4.2276278	thrown"	-3.278686
-3.772955	Boolean	-2.1360805
-4.148369	response	-2.420493
-4.2276278	tryOnError	-2.596584
-3.3675723	emitter	-2.6284733
-4.2276278	SingleCreate	-0.15822175
-3.6963503	Emitter	-1.9550867
-4.325872	getSimpleName	-3.0737054
-4.325872	materialize	-3.1132138
-3.4018295	Notification	-3.2743647
-4.2276278	createOnNext	-2.8541484
-4.2276278	createOnError	-2.5531185
-4.148369	dematerialize	-2.7003336
-4.2276278	createOnComplete	-2.6360927
-4.2276278	"rawtypes"	-2.4504561
-4.325872	"Value-"	-1.8764248
-4.325872	"Value-1"	-0.07938897
-4.325872	fromSupplier	-3.0737054
-3.574654	supplier	-2.5132468
-3.772955	AtomicInteger	-1.357439
-4.148369	func	-2.7828946
-4.325872	thenReturn	-2.9464626
-4.2276278	fromSupplierSingle	-0.37867928
-4.325872	verifyNoInteractions	-2.2743647
-3.8660285	cdl1	-2.654576
-4.148369	cdl2	-2.5296373
-3.5245876	timeout	-2.0839436
-4.148369	funcLatch	-2.5753949
-3.9846475	observerLatch	-2.5753949
-4.325872	thenAnswer	-2.2743647
-4.325872	Answer	-2.420493
-4.148369	answer	-0.96883506
-4.325872	InvocationOnMock	-2.420493
-4.325872	"should_not_be_delivered"	-2.5753949
-4.148369	fromSupplierObservable	-2.2286072
-4.325872	mockObserver	-3.9750686
-3.6312535	outer	-2.4079037
-4.2276278	verifyNoMoreInteractions	-4.009165
-4.148369	checkedException	-2.1774547
-4.2276278	"test	-1.3184332
-3.574654	exception"	-2.9733348
-4.325872	mockSingleObserver	-3.2334063
-4.325872	doOnSubscribe	-3.1551783
-4.325872	doOnSuccess	-2.654576
-4.2276278	"Outer"	-2.897614
-4.325872	doOnEvent	-2.388308
-3.8660285	BiConsumer	-3.3499117
-4.2276278	"Main"	-2.7657266
-4.2276278	EMPTY_ACTION	-2.45054
-4.325872	startWith	-3.0939088
-3.6312535	subject	-2.6815484
-3.772955	subj	-2.1194627
-3.6963503	fallback	-1.5097754
-4.148369	TimeoutException	-1.1846913
-4.2276278	timeoutMessage	-2.6360927
-4.325872	NonNull	-1.6082206
-3.5245876	pp1	-2.2067568
-3.6312535	pp2	-3.3141754
-4.325872	ambWith	-2.5531185
-4.2276278	singles	-0.07938897
-4.148369	amb	-1.4105227
-4.2276278	ambArray	-3.1004395
-3.9846475	Subject	-2.848396
-3.574654	ReplaySubject	-3.2566361
-3.5245876	ps1	-1.9346298
-3.574654	ps2	-2.8378458
-3.3062332	sources	-2.778167
-3.8660285	31	-1.0810722
-3.772955	AtomicBoolean	-0.9997147
-4.148369	assertNotNull	-3.1881785
-4.325872	"Interrupted!"	-2.388308
-4.325872	SingleOperator	-0.37867928
-3.8660285	ScheduledExecutorService	-0.91476077
-3.479701	exec	-2.0574384
-4.2276278	Executors	-2.7215228
-4.325872	newSingleThreadScheduledExecutor	-2.1774547
-4.2276278	3000	-2.3535461
-4.148369	getClass	-3.1719918
-4.325872	SingleDoAfterSuccessTest	-0.37867928
-4.325872	doAfterSuccess	-2.5296373
-4.325872	afterSuccess	-2.4784849
-4.325872	fromMaybe	-2.5753949
-4.148369	wrap	-2.9903681
-4.148369	Number	-1.4687936
-4.2276278	1d	-0.07938897
-4.325872	cast	-2.6360927
-4.2276278	SingleTransformer	-0.07938897
-4.2276278	assertNotSame	-2.5531185
-4.325872	onErrorReturnItem	-2.6360927
-3.8660285	repeat	-1.1095552
-4.148369	flag	-1.0256678
-4.325872	repeatUntil	-2.4784849
-3.8660285	BooleanSupplier	-1.3296349
-4.2276278	getAsBoolean	-2.8058438
-3.6963503	retry	-1.8909378
-4.2276278	BiPredicate	-2.8541484
-4.325872	ignoreElement	-2.5753949
-4.2276278	sequenceEqual	-3.3312697
-4.2276278	timestamp	-2.8764248
-4.325872	ofType	-2.654576
-4.325872	checkDisposedSingleToMaybe	-0.37867928
-4.2276278	singleElement	-3.6617546
-4.2276278	onErrorReturn	-2.5753949
-4.2276278	"Resume"	-0.07938897
-4.2276278	concatMap	-3.5415366
-3.8660285	null"	-4.214632
-4.325872	"No	-0.76170135
-3.9846475	subscribers?!"	-2.5296373
-4.325872	"Still	-1.7514861
-3.4018295	consumer	-1.9315319
-4.325872	safeSubscribe	-2.9078333
-4.148369	InOrder	-2.4627934
-4.148369	order	-2.099822
-3.8660285	inOrder	-4.303207
-4.2276278	compositeException	-1.9275773
-4.325872	concatArrayDelayError	-2.7367628
-3.772955	callable	-2.0667565
-4.2276278	fromCallableSingle	-0.37867928
-4.148369	fromCallableObservable	-2.2286072
-4.148369	zip	-3.6027443
-3.772955	BiFunction	-2.1847503
-4.2276278	"12"	-2.1774547
-4.2276278	Function3	-2.8058438
-4.2276278	"123"	-2.2743647
-4.325872	Function4	-2.3157575
-4.325872	"1234"	-1.8764248
-4.325872	Function5	-2.1774547
-4.325872	"12345"	-1.8764248
-4.325872	Function6	-2.052516
-4.325872	"123456"	-1.8764248
-3.574654	7	-2.312112
-4.325872	Function7	-2.052516
-3.4018295	g	-2.7657266
-4.325872	"1234567"	-1.8764248
-4.325872	Function8	-2.052516
-3.4390223	h	-1.506405
-4.325872	"12345678"	-1.8764248
-3.574654	9	-2.6019566
-4.325872	Function9	-2.052516
-4.325872	"123456789"	-1.8764248
-4.148369	flatMapCompletable	-1.4704535
-4.325872	assertNotTerminated	-2.6167874
-3.9846475	flatMap	-2.3862154
-4.325872	checkDoubleOnSubscribeSingleToFlowable	-1.7514861
-3.772955	success	-2.066296
-4.2276278	concatArray	-2.9078333
-4.2276278	concatArrayEager	-2.6893382
-4.2276278	firstElement	-1.8143092
-4.2276278	takeUntil	-3.5124109
-4.325872	ignoreElements	-3.4046986
-4.148369	CancellationException	-1.2010475
-3.574654	main	-3.1523118
-3.2785335	other	-2.3336358
-4.325872	"Main	-1.7472497
-3.574654	no	-1.6862953
-4.2276278	observers?"	-3.4892087
-4.325872	"Other	-2.96897
-3.1616113	has	-2.5787227
-3.6963503	source1	-3.3499117
-3.9846475	source2	-3.2176118
-4.2276278	mergeDelayError	-3.282965
-3.8660285	function	-0.768647
-4.325872	value."	-2.964561
-4.148369	SingleInternalHelper	-2.5048137
-4.2276278	NoSuchElementSupplier	-1.7514861
-4.325872	valueOf	-3.0667565
-4.325872	"INSTANCE"	-1.8764248
-4.2276278	ToFlowable	-1.7514861
-4.325872	iterableToFlowable	-0.37867928
-4.148369	singletonList	-1.9878484
-3.574654	Iterator	-2.8317282
-3.9846475	iter	-2.6893382
-4.325872	"Iterator	-0.37867928
-4.148369	reports	-0.93824184
-3.6312535	an	-0.6197611
-4.325872	additional	-0.37867928
-4.2276278	element"	-1.8764248
-3.6312535	was	-1.2224509
-4.2276278	empty"	-2.052516
-4.325872	flattenAsFlowable	-3.0667565
-3.8660285	FlowableSubscriber	-1.4199246
-3.9846475	2L	-3.1934428
-4.148369	5L	-2.7928786
-4.148369	remove	-3.6417208
-4.325872	assertBadRequestReported	-3.1608555
-4.2276278	"One"	-1.4722853
-4.2276278	"Two"	-2.6893382
-4.325872	addString	-2.654576
-3.6963503	pp0	-2.6809049
-4.325872	addString3	-0.07938897
-4.2276278	zipArray	-3.0452168
-4.148369	zipper	-1.8629014
-4.325872	CrashingMappedIterable	-2.420493
-3.8660285	atomicBoolean	-2.371275
-4.325872	doOnTerminate	-2.420493
-4.2276278	":"	-2.5643995
-4.325872	stringCombine	-2.3535461
-4.325872	"1:2"	-0.07938897
-4.2276278	fromFuture	-2.8541484
-4.325872	checkDoubleOnSubscribeCompletable	-2.2286072
-4.325872	CompletableDoFinallyTest	-0.07938897
-4.325872	"bla"	-2.052516
-4.325872	checkDisposedCompletable	-1.7514861
-4.325872	checkDoubleOnSubscribeCompletableToObservable	-0.37867928
-4.148369	fromAction	-3.3077886
-3.8660285	thrown	-0.48147
-4.325872	RuntimeException"	-0.07938897
-4.325872	"Wrong	-0.6503175
-4.325872	cause:	-0.07938897
-4.2276278	onErrorResumeNext	-2.7928786
-4.2276278	action1	-2.052516
-4.2276278	action2	-2.052516
-4.2276278	MergeCompletableObserver	-0.15822175
-3.772955	CompositeDisposable	-1.8594782
-4.325872	repeatWhen	-2.596584
-4.325872	takeWhile	-2.964561
-4.325872	MINUTES	-2.3256013
-4.325872	thrown!"	-2.8425665
-4.325872	NPA(IAE)"	-0.37867928
-4.325872	assertTerminated	-3.5531185
-3.574654	cd	-2.0879464
-4.2276278	TimeOutObserver	-0.15822175
-4.325872	CompletableOnSubscribe	-2.3535461
-4.325872	CompletableEmitter	-1.405879
-4.2276278	CompletableCreate	-0.15822175
-4.325872	IllegalArgumentExceptio"	-0.07938897
-4.325872	"prefetch	-1.8764248
-4.2276278	required	-3.052516
-4.325872	-99"	-1.1449263
-3.4018295	k	-1.5620984
-4.2276278	c0	-0.37867928
-4.325872	"Interrupted!	-1.8764248
-4.2276278	interrupted!"	-2.420493
-3.9846475	ExecutionException	-0.7696203
-4.2276278	Amb	-0.15822175
-4.325872	fromSingle	-2.5296373
-4.325872	checkDoubleOnSubscribeCompletableToFlowable	-0.37867928
-4.325872	"error1"	-0.07938897
-4.325872	"error2"	-0.37867928
-3.9846475	completableRunCount	-0.9287578
-4.2276278	90	-2.4357328
-4.2276278	setErrorHandler	-2.6167874
-4.325872	fromObservable	-2.2743647
-3.6963503	to2	-2.4713407
-4.2276278	to3	-0.9287578
-4.2276278	to4	-0.37867928
-4.325872	assertCompositeExceptions	-2.420493
-4.325872	checkDoubleOnSubscribeCompletableToMaybe	-1.7514861
-4.325872	CompletableOperator	-0.37867928
-4.325872	"maxConcurrency	-1.7514861
-3.9846475	ex1	-2.079619
-4.325872	CompletableMergeArrayDelayError	-0.37867928
-4.2276278	TryTerminateAndReportDisposable	-1.7514861
-3.8660285	AtomicThrowable	-2.1778295
-4.325872	CompletableMergeArray	-0.37867928
-4.148369	InnerCompletableObserver	-0.15822175
-3.9846475	cs1	-1.2566367
-3.574654	ref	-2.4381518
-4.148369	ObservableScalarXMap	-2.5048137
-3.9846475	ScalarDisposable	-2.420493
-4.325872	tryScalarXMapSubscribe	-2.5296373
-4.325872	CallablePublisher	-2.2743647
-4.325872	EmptyCallablePublisher	-0.07938897
-4.325872	OneCallablePublisher	-2.1774547
-4.325872	scalarXMap	-2.388308
-4.2276278	scan	-3.1376877
-4.325872	anyString	-3.2188475
-4.2276278	anyInt	-2.981935
-4.325872	DefaultObserver	-3.052516
-4.2276278	101	-2.5048137
-4.2276278	collect	-3.5415366
-4.2276278	takeLast	-3.4327273
-4.325872	checkBadSourceObservable	-2.5296373
-4.2276278	err2	-0.15822175
-4.325872	CopyOnWriteArrayList	-2.420493
-4.2276278	errorConsumer	-1.7514861
-3.9846475	factory	-2.1036685
-4.2276278	firstObservable	-0.07938897
-4.148369	"one"	-3.8882067
-4.2276278	"two"	-3.7579522
-4.2276278	secondObservable	-0.07938897
-4.2276278	"three"	-2.4749424
-4.2276278	"four"	-3.3274431
-3.8660285	deferred	-2.052516
-4.2276278	firstObserver	-0.8959793
-4.2276278	secondObserver	-0.8959793
-4.325872	thenThrow	-2.420493
-4.2276278	elementAt	-3.1608555
-4.325872	intValue	-3.5391827
-4.2276278	elementAtOrError	-2.4784849
-4.325872	checkDoubleOnSubscribeObservableToMaybe	-1.8764248
-4.148369	innerScheduler	-2.7928786
-4.2276278	publishNext	-3.748581
-4.325872	900	-2.052516
-4.325872	publishCompleted	-3.1068738
-4.2276278	sampled	-2.6893382
-4.2276278	debounce	-3.1435964
-4.148369	800	-0.6678051
-4.2276278	"c"	-2.2147768
-4.148369	"d"	-1.0939095
-4.2276278	"e"	-2.3157575
-4.148369	600	-1.502789
-4.325872	"f"	-2.1774547
-4.2276278	700	-2.420493
-4.325872	"g"	-1.8764248
-4.325872	"h"	-1.8764248
-4.325872	publishError	-2.5296373
-4.325872	701	-0.07938897
-3.8660285	debouncer	-2.149426
-4.2276278	debounceSel	-2.1774547
-4.325872	ObservableDebounceTimed	-0.37867928
-3.8660285	DebounceEmitter	-2.420493
-3.479701	BehaviorSubject	-3.0596945
-4.325872	createDefault	-3.2188475
-4.2276278	DebounceTimedObserver	-1.8764248
-3.6312535	sub	-3.2286072
-3.8660285	de	-0.59312433
-3.5245876	input	-1.7422009
-3.9846475	failed"	-2.5531185
-3.6963503	TestObservable	-1.4741641
-4.148369	testException	-1.3535467
-4.325872	join	-3.475762
-4.325872	"TestObservable	-1.1733389
-4.2276278	finished"	-2.2743647
-4.2276278	"abc"	-0.6678051
-4.325872	"Object	-1.9733348
-4.2276278	retained!"	-2.2286072
-3.8660285	parentSubscription	-0.9819357
-4.2276278	observable1	-1.8764248
-4.2276278	createObservable	-2.2743647
-4.325872	"11"	-1.8764248
-4.325872	"111"	-0.07938897
-4.325872	"1111"	-0.07938897
-4.2276278	observable2	-1.1833682
-4.2276278	"22"	-1.9733348
-4.2276278	"222"	-1.8764248
-4.2276278	"2222"	-1.8764248
-4.2276278	observable3	-1.7514861
-4.148369	"3"	-2.4784849
-4.325872	"33"	-0.07938897
-4.325872	"333"	-0.07938897
-4.325872	"3333"	-0.07938897
-4.148369	expectedException	-0.54286635
-4.325872	"fake	-2.052516
-3.8660285	AtomicLong	-1.3365552
-4.2276278	incrementer	-0.54286635
-3.4390223	o1	-2.4505203
-3.4390223	o2	-2.4437168
-4.2276278	doOnNext	-3.4838798
-4.148369	source3	-1.9089112
-4.2276278	"Source	-1.4277927
-3.772955	doesn't	-0.92757803
-4.2276278	subscribers!"	-2.8058438
-4.148369	stringObserver	-2.9733348
-4.325872	getAllStackTraces	-1.8764248
-4.325872	keySet	-2.052516
-4.325872	"RxNewThread"	-1.8764248
-4.325872	"NewThread	-0.07938897
-4.325872	leak!"	-0.07938897
-4.325872	TestSynchronousObservable	-2.3535461
-4.148369	observableOfObservables	-1.1986449
-4.148369	listOfObservables	-0.37354344
-4.325872	"***	-2.4357328
-4.2276278	unsubscribed"	-1.9733348
-4.325872	"Done	-2.052516
-4.325872	looping	-2.052516
-4.325872	unsubscribe:	-2.052516
-4.148369	only	-1.2345208
-4.2276278	6"	-2.052516
-4.325872	"unsubscribed:	-0.07938897
-4.2276278	TestASynchronousObservable	-1.8764248
-4.325872	"testSynchronizationOfMultipleSequencesLoop	-0.07938897
-4.325872	synchronizationOfMultipleSequences	-0.07938897
-4.148369	endLatch	-0.6678051
-3.9846475	totalCounter	-0.6678051
-4.325872	"failed"	-2.2743647
-4.2276278	"TestASynchronousObservable"	-1.7514861
-4.148369	onNextBeingSent	-2.1774547
-4.325872	TestErrorObservable	-2.654576
-4.2276278	"six"	-2.8541484
-4.2276278	"five"	-3.1435964
-3.772955	o3	-2.1347027
-4.2276278	"seven"	-2.420493
-4.2276278	"eight"	-2.420493
-3.8660285	o4	-1.3216709
-4.2276278	"nine"	-2.420493
-4.325872	valuesToReturn	-2.3535461
-4.325872	"throwing	-2.1774547
-4.148369	scheduler1	-1.0396795
-4.148369	os1	-2.052516
-4.325872	createObservableOf5IntervalsOf1SecondIncrementsWithSubscriptionHook	-1.8764248
-4.148369	scheduler2	-1.0396795
-4.148369	os2	-2.052516
-4.148369	3L	-2.897614
-4.2276278	4L	-2.5643995
-3.6963503	child	-1.686499
-3.6312535	onNextEvents	-2.751486
-4.325872	30000	-1.8764248
-3.9846475	generated1	-2.4100275
-4.325872	createInfiniteObservable	-2.1774547
-4.148369	generated2	-1.8764248
-3.772955	testObserver	-2.052516
-4.325872	"TestObserver	-0.07938897
-3.0376167	=>	-1.1378461
-3.6312535	bufferSize	-2.2335196
-4.325872	"Generated	-2.0276926
-4.148369	1:	-2.388308
-4.148369	2:	-2.1774547
-3.0224745	>=	-1.2600286
-4.325872	flush	-1.8764248
-4.325872	"---"	-0.07938897
-4.325872	backpressureUpstream2	-0.07938897
-4.325872	"done1	-0.37867928
-4.2276278	testBackpressureBothUpstreamAndDownstreamWithRegularObservables	-0.07938897
-4.325872	"done2	-0.37867928
-4.325872	mergeNAsyncStreamsOfN	-2.3535461
-3.8660285	1000000	-1.3650758
-4.325872	200000	-0.07938897
-4.325872	outerSize	-1.8764248
-4.325872	innerSize	-2.1774547
-4.325872	mergeNSyncStreamsOfN	-2.2743647
-3.772955	generated	-2.5296373
-4.325872	assertValueSequence	-2.6893382
-4.2276278	runMerge	-2.1774547
-4.325872	toScalar	-1.8764248
-4.325872	toHiddenScalar	-1.8764248
-3.8660285	req	-1.6314696
-4.2276278	64	-1.5590318
-3.9846475	256	-0.6098131
-3.772955	remaining	-1.1160886
-4.325872	"test_value"	-2.1774547
-4.2276278	"Test	-0.8438963
-4.148369	ObserverResourceWrapper	-2.1774547
-4.148369	orw	-1.3216709
-4.325872	doubleOnSubscribe	-1.7514861
-4.325872	"Premature	-2.388308
-4.148369	subscription"	-2.6893382
-4.325872	withTag	-2.8058438
-4.325872	ObservableOnSubscribe	-2.7795148
-3.8660285	ObservableEmitter	-2.9464626
-3.5245876	ConnectableObservable	-1.3011366
-4.2276278	publish	-3.6007006
-3.4018295	connection	-1.2562673
-3.772955	connect	-2.1502693
-4.325872	"subscriptions	-2.420493
-4.2276278	receive	-1.0302404
-4.2276278	values"	-2.4784849
-4.2276278	fast	-1.0525168
-4.325872	"^^^^^^^^^^^^^	-2.1774547
-4.325872	FAST"	-1.8764248
-3.9846475	slow	-1.0939095
-4.325872	SLOW"	-1.8764248
-3.3062332	emitted	-1.8349407
-3.8660285	xs	-2.3993034
-4.325872	skipWhile	-2.7367628
-4.148369	xsp	-0.6678051
-3.9846475	sourceEmission	-0.6678051
-3.8660285	sourceUnsubscribed	-2.371275
-4.325872	share	-2.3535461
-3.9846475	child1Unsubscribed	-0.6678051
-3.9846475	child2Unsubscribed	-0.7647151
-4.148369	connection2	-0.7514868
-4.148369	ObservablePublish	-1.1717958
-3.0695834	current	-2.2095149
-4.148369	connection1	-0.07938897
-4.2276278	connection3	-0.07938897
-4.325872	checkPublishDisposed	-2.052516
-3.6963503	PublishConnection	-2.5753949
-3.479701	conn	-2.3977497
-4.148369	tos	-0.37867925
-4.325872	HasUpstreamObservableSource	-1.8764248
-4.2276278	autoConnect	-3.3077886
-4.325872	assertValuesOnly	-3.4533417
-4.325872	serialize	-3.1881785
-4.2276278	ObservableCreate	-1.0256678
-4.148369	CreateEmitter	-0.54286635
-4.325872	raceOther	-2.3535461
-4.325872	ObservableDoAfterNextTest	-0.37867928
-4.325872	doAfterNext	-2.8654294
-4.325872	afterNext	-2.7367628
-4.148369	to0	-2.052516
-4.325872	mergeWith	-3.3849545
-4.325872	513	-2.1774547
-4.2276278	observerRef	-0.6678051
-4.325872	"main	-2.3535461
-4.2276278	observers!"	-2.964561
-4.2276278	"other	-1.6928921
-4.325872	observers"	-2.6723049
-3.8660285	predicate	-1.8500326
-4.325872	alwaysFalse	-2.8541484
-3.574654	observable	-1.7785182
-3.9846475	Mockito	-3.7352626
-3.2785335	|	-0.9762931
-4.325872	fromCompletable	-2.7367628
-4.2276278	HasUpstreamCompletableSource	-1.9733348
-3.9846475	num	-2.047434
-3.9846475	upstreamCount	-2.5048137
-4.325872	"boo"	-2.3157575
-3.9846475	testScheduler	-2.6635308
-4.325872	TIME_UNIT	-2.388308
-4.2276278	setComputationSchedulerHandler	-2.420493
-3.4390223	time	-1.3675747
-3.4390223	skip	-1.3849552
-3.9846475	subCount	-2.1194627
-3.9846475	upperLatch	-2.1774547
-3.9846475	lowerLatch	-2.1774547
-3.9846475	onNextLatch	-2.1774547
-4.148369	upperCount	-2.1774547
-4.148369	lowerCount	-2.1774547
-4.2276278	longs	-1.8764248
-3.6312535	subscriptions	-1.4014074
-4.325872	"There	-1.2809403
-4.325872	exactly	-1.8764248
-4.148369	%d	-1.2345208
-4.2276278	un-subscription	-2.1774547
-4.325872	upper	-1.8764248
-4.2276278	stream"	-2.1774547
-4.325872	lower	-1.8764248
-4.148369	refCount	-1.7690365
-3.9846475	disposeCalled	-0.9287578
-4.325872	firstOrError	-2.6360927
-3.479701	R	-1.8639004
-4.325872	rightValues	-0.07938897
-4.2276278	rightValue	-2.052516
-4.325872	leftValue	-1.8764248
-4.325872	MockitoAnnotations	-1.8764248
-4.325872	openMocks	-1.8764248
-4.325872	groupJoin	-2.8764248
-4.325872	add2	-2.420493
-4.2276278	17	-1.3680904
-4.148369	18	-1.4563695
-4.2276278	34	-1.9733348
-4.325872	36	-1.8764248
-4.325872	65	-2.052516
-4.325872	66	-2.052516
-4.325872	68	-1.8764248
-4.148369	Person	-0.37582317
-4.2276278	"Joe"	-0.54286635
-4.325872	"Mike"	-0.07938897
-4.2276278	"Charlie"	-0.07938897
-4.148369	PersonFruit	-2.2444015
-4.325872	"Strawberry"	-1.8764248
-4.325872	"Apple"	-1.8764248
-4.325872	"Peach"	-1.8764248
-3.8660285	PPF	-0.6098131
-3.8660285	just2	-0.37456575
-3.8660285	ppf	-1.0199876
-4.325872	fruits	-1.8764248
-4.325872	person	-2.3535461
-4.325872	personId	-2.052516
-4.325872	fruit	-2.052516
-4.148369	duration1	-1.0939095
-3.6963503	left	-1.4014074
-3.6963503	right	-2.5132468
-3.5245876	l	-2.719796
-3.9846475	exc	-2.7761085
-4.148369	es	-2.1774547
-4.2276278	JoinSupport	-1.8764248
-4.2276278	js	-1.9433715
-4.2276278	LeftRightObserver	-0.4198686
-4.325872	innerValue	-2.1194627
-3.8660285	LeftRightEndObserver	-1.493617
-4.325872	innerClose	-2.052516
-3.5245876	lists	-1.7352495
-3.6312535	observables	-1.1003773
-4.2276278	toList	-3.514914
-4.148369	windowed	-2.2444015
-3.5245876	window	-2.6193426
-3.479701	windows	-2.66794
-4.325872	toLists	-2.1774547
-4.2276278	"zero"	-0.6678051
-4.148369	500000	-2.052516
-4.148369	arg	-1.5107272
-4.325872	random	-2.6893382
-4.325872	"Hot	-1.8764248
-4.325872	done."	-1.8764248
-4.2276278	indicator	-2.052516
-4.325872	999999999	-1.8764248
-4.2276278	hotStream	-1.8764248
-4.325872	startWithItem	-2.6167874
-4.2276278	22	-2.2286072
-4.325872	"Subject	-2.7215228
-4.2276278	"-"	-2.7657266
-4.325872	"1-2-3"	-1.8764248
-4.325872	addToList	-1.8764248
-3.5245876	e1	-2.5376062
-3.6963503	e2	-2.3535461
-4.2276278	Burst	-1.0869343
-3.4390223	items	-1.0783461
-4.325872	supplierListCreator	-2.3535461
-4.325872	biConsumerThrows	-2.1774547
-3.4018295	item	-1.57842
-4.148369	added	-2.1774547
-4.2276278	throwOnFirstOnly	-1.8764248
-4.325872	collectInto	-1.8764248
-4.325872	ClassCastException	-1.7514861
-4.148369	MapNotificationObserver	-0.12495283
-4.148369	mn	-1.8764248
-3.6963503	boundary	-2.5485227
-4.148369	wo	-2.8579414
-4.148369	mo	-2.5797162
-4.2276278	"source	-2.1951835
-4.325872	disposed"	-2.1774547
-4.325872	"boundary	-0.07938897
-3.9846475	refMain	-2.5531185
-3.6312535	replay	-3.3087926
-3.6312535	observer1	-3.147976
-4.148369	60	-1.6653006
-4.148369	dbl	-2.6167874
-3.9846475	selector	-2.5391827
-3.9846475	effectCounter	-2.2743647
-4.325872	"Sideeffect	-2.1774547
-3.9846475	#"	-2.0147274
-4.325872	"-	-1.8764248
-4.325872	-%n"	-1.8764248
-4.2276278	sourceNext	-2.5753949
-4.2276278	sourceCompleted	-2.4406962
-4.2276278	spiedSubscriberBeforeConnect	-2.1774547
-4.2276278	spiedSubscriberAfterConnect	-2.1774547
-4.325872	verifyObserverMock	-2.4784849
-3.9846475	mockScheduler	-2.1774547
-4.2276278	mockObserverBeforeConnect	-2.4406962
-4.2276278	mockObserverAfterConnect	-2.4406962
-4.2276278	sourceError	-2.0013635
-4.2276278	mockFunc	-2.0013635
-4.148369	illegalArgumentException	-2.2743647
-4.325872	verifyObserver	-2.1774547
-4.325872	numItemsExpected	-2.1774547
-4.325872	notNull	-2.7795148
-4.325872	numSubscriptions	-2.1774547
-4.2276278	spy	-2.1194627
-4.325872	InprocessWorker	-1.8764248
-4.2276278	mockDisposable	-2.052516
-3.9846475	BoundedReplayBuffer	-3.0377927
-3.4390223	buf	-2.382446
-4.2276278	private	-1.1366096
-4.2276278	static	-1.4126091
-4.325872	serialVersionUID	-2.596584
-4.325872	5182053207244406872L	-0.07938897
-4.2276278	truncate	-2.1194627
-4.2276278	addLast	-2.8058438
-3.8660285	Node	-1.3462476
-4.325872	removeSome	-2.1774547
-4.2276278	removeFirst	-2.1774547
-4.148369	SizeAndTimeBoundReplayBuffer	-2.7795148
-4.325872	hasCompleted	-2.6893382
-4.325872	hasError	-2.5296373
-3.9846475	SizeBoundReplayBuffer	-2.654576
-4.325872	"published	-2.2286072
-4.148369	being	-1.228608
-4.325872	executed"	-2.5296373
-3.8660285	unsubscribe	-1.2313309
-3.5245876	output	-1.6928921
-4.2276278	firehose	-2.075997
-4.2276278	ObservableSource"	-1.7890958
-3.8660285	ObservableReplay	-2.5861187
-4.325872	multicastSelector	-2.5296373
-4.2276278	connectableFactory	-0.37354344
-4.325872	ConnectableObservable"	-1.7514861
-3.4390223	buffer	-2.2697577
-4.148369	trimHead	-2.8764248
-3.772955	byte	-3.323583
-4.325872	"Bounded	-3.2286072
-4.325872	Replay	-3.2286072
-4.325872	Leak	-3.2286072
-4.325872	check:	-2.4504561
-4.325872	Wait	-2.5296373
-4.325872	MemoryUsage	-1.1717958
-4.2276278	memHeap	-2.052516
-4.325872	Starting:	-2.5296373
-4.2276278	GC	-2.654576
-4.2276278	2"	-2.8306673
-4.325872	After:	-2.5296373
-4.325872	Memory	-2.5296373
-4.325872	leak	-2.5296373
-4.325872	detected:	-2.5296373
-3.9846475	outerObserver	-2.5132468
-3.9846475	innerObserver	-3.1194627
-4.325872	70	-2.1774547
-4.325872	350	-0.6678051
-4.148369	150	-2.388308
-3.9846475	250	-1.7427129
-4.325872	125	-2.1774547
-4.325872	175	-1.8764248
-4.325872	225	-1.8764248
-4.325872	130	-2.1774547
-4.2276278	"1-one"	-2.1774547
-4.2276278	"1-two"	-2.1774547
-4.325872	"1-three"	-2.052516
-4.325872	25	-1.9733348
-4.2276278	"2-one"	-2.1774547
-4.2276278	"2-two"	-2.1774547
-4.2276278	"2-three"	-2.1774547
-4.148369	isUnsubscribed	-0.6678051
-4.325872	"Switch	-0.07938897
-4.325872	propagate	-0.07938897
-4.325872	'unsubscribe'"	-0.07938897
-4.2276278	oneItem	-0.07938897
-3.6312535	src	-1.8558984
-4.2276278	switchMap	-3.27
-4.325872	">	-0.07938897
-4.325872	testIssue2654:	-0.07938897
-4.2276278	switchMapDelayError	-2.420493
-4.2276278	failure	-1.5807673
-4.325872	1"	-1.8764248
-4.325872	3"	-1.9733348
-4.325872	flatten	-0.07938897
-3.9846475	obs1	-1.1717958
-3.9846475	obs2	-1.104849
-3.9846475	ImmediateThinScheduler	-3.5531185
-3.772955	ref1	-2.7003336
-3.772955	ref2	-2.4504561
-4.325872	10_000	-0.07938897
-3.8660285	SerializedObserver	-2.6360927
-4.2276278	concat2Strings	-2.1194627
-4.2276278	zipped	-2.1774547
-4.325872	"a-1"	-2.4784849
-4.325872	"b-2"	-2.4784849
-4.2276278	24	-2.0147274
-4.325872	ObservableOperator	-1.8764248
-4.325872	blockingMostRecent	-2.1194627
-3.8660285	initialValue	-0.57762843
-4.325872	mostRecent	-0.07938897
-4.2276278	"default"	-2.8058438
-4.148369	observableCount	-0.07938897
-4.148369	maxConcurrent	-0.7647151
-3.6963503	subscriptionCount	-2.4784849
-3.9846475	SubscriptionCheckObservable	-0.37354344
-4.148369	scos	-0.07938897
-4.2276278	sco	-0.29664195
-4.2276278	failed	-0.54286635
-3.9846475	sourceList	-2.379875
-4.148369	IoScheduler	-0.12495283
-3.772955	ios	-0.6098131
-4.325872	simpleAsync	-0.07938897
-3.772955	c1	-2.2886052
-4.325872	"Worker	-0.07938897
-4.2276278	leak:	-1.7514861
-4.325872	simpleOneLessAsync	-0.07938897
-4.325872	toMillis	-2.1774547
-3.8660285	observer2	-2.6809049
-4.2276278	ok	-0.07938897
-4.325872	"expected	-0.07938897
-4.325872	failure!"	-2.2743647
-4.2276278	blocker	-0.07938897
-4.148369	cons	-1.131698
-4.148369	ObservableBlockingSubscribe	-2.052516
-4.148369	BlockingFirstObserver	-2.1774547
-4.148369	run2	-2.5048137
-4.2276278	"x"	-1.0256678
-4.325872	"XX"	-0.07938897
-4.325872	toUpperCase	-1.8764248
-4.2276278	distinct	-2.955606
-4.325872	TO_UPPER_WITH_EXCEPTION	-2.1774547
-4.2276278	"C"	-2.052516
-4.2276278	"E"	-2.1774547
-3.6963503	Collection	-2.230098
-4.2276278	nullWarning	-2.4504561
-4.148369	collectionSupplier	-2.149426
-4.325872	Collection."	-2.388308
-4.325872	push	-3.4446266
-4.325872	110	-2.4784849
-4.325872	160	-2.1774547
-4.325872	210	-2.4784849
-4.2276278	openings	-1.8764248
-4.148369	closer	-1.9733348
-4.325872	opening	-1.8764248
-4.325872	observeWindow	-2.1774547
-3.9846475	stringObservable	-1.1664602
-3.8660285	open	-2.1068738
-3.772955	close	-1.5522556
-3.252495	end	-1.8393533
-4.325872	"Start	-2.052516
-4.325872	"End	-1.8764248
-4.2276278	mainDisposed	-0.07938897
-4.2276278	openDisposed	-0.07938897
-4.2276278	closeDisposed	-0.37354344
-4.148369	observableDisposed	-1.8764248
-4.325872	"that's	-0.07938897
-4.325872	everything!"	-0.07938897
-4.325872	INDEX_LESS_THAN_THREE	-0.07938897
-4.325872	LESS_THAN_FIVE	-2.3535461
-4.2276278	ys	-1.8764248
-4.2276278	toArray	-2.8425665
-4.2276278	assertArrayEquals	-3.3677864
-4.148369	oi	-0.37354344
-4.148369	concatBase	-0.37354344
-3.4390223	x	-1.2773218
-4.325872	"testRepeatRetarget	-1.8764248
-4.325872	"times	-2.1774547
-4.325872	"Leak"	-1.8764248
-3.772955	completions	-0.73577416
-3.8660285	ignore	-0.8786584
-3.574654	handler	-1.5016092
-3.772955	signaller	-0.90417856
-4.325872	refCountAsyncActual	-0.07938897
-3.8660285	subscribeCount	-2.3535461
-3.8660285	receivedCount	-2.4046986
-4.325872	260	-0.37867928
-4.325872	"onNext:	-1.8764248
-4.325872	Count:	-0.07938897
-4.325872	-------->	-1.8764248
-4.148369	unsubscribeCount	-0.6678051
-4.325872	"*******************************	-2.1774547
-4.325872	Subscribe	-2.1774547
-3.9846475	received"	-2.6893382
-4.325872	Unsubscribe	-2.3535461
-4.2276278	subscribeLatch	-0.6678051
-4.325872	synchronousInterval	-1.8764248
-4.325872	"send	-1.8764248
-4.325872	"DONE	-1.8764248
-4.325872	sending	-1.8764248
-4.2276278	...	-1.8764248
-4.2276278	waiting"	-2.052516
-4.325872	"Errors:	-2.052516
-4.325872	"timed	-2.052516
-4.325872	connectUnsubscribeRaceCondition	-0.07938897
-3.9846475	subUnsubCount	-0.8786584
-4.325872	SUBSCRIBE	-1.8764248
-3.9846475	unsubscriptionCount	-0.8438963
-4.2276278	refCounted	-0.54286635
-4.325872	longValue	-2.6893382
-4.2276278	6L	-1.2809403
-4.2276278	7L	-2.1774547
-3.772955	list3	-0.78590435
-4.325872	DisposingObserver	-0.07938897
-4.2276278	combined	-1.9733348
-4.148369	combineLatest	-3.3077886
-3.9846475	intervalSubscribed	-0.7647151
-4.325872	"Subscribing	-1.8764248
-4.325872	"Some	-2.052516
-4.325872	"Observer	-0.07938897
-3.9846475	onError:	-2.420493
-4.325872	1300	-0.07938897
-4.325872	awaitGC	-2.1774547
-4.325872	GC_SLEEP_TIME	-2.052516
-4.325872	"%,3d	-2.1774547
-4.325872	%,3d%n"	-2.1774547
-4.325872	ExceptionData	-1.8764248
-4.325872	"subscribeActual"	-1.8764248
-4.325872	"dispose"	-2.1774547
-4.2276278	"connect"	-0.15822175
-4.2276278	BadObservableSubscribe	-0.37867928
-3.5245876	bo	-2.149426
-4.2276278	BadObservableDispose	-0.37867928
-4.2276278	BadObservableConnect	-0.37867928
-4.2276278	BadObservableSubscribe2	-0.37867928
-4.2276278	BadObservableConnect2	-0.37867928
-4.325872	"to1	-0.37867928
-4.325872	"to2	-0.37867928
-4.325872	"Round:	-1.8764248
-4.325872	BadObservableDoubleOnX	-1.7514861
-4.2276278	ProtocolViolationException	-2.6893382
-3.9846475	ObservableRefCount	-2.052516
-4.148369	RefConnection	-0.92757803
-3.5245876	rc	-1.432728
-3.9846475	subscriberCount	-0.8513412
-4.325872	connected	-0.6165815
-4.2276278	TestConnectableObservable	-0.07938897
-4.148369	tco	-0.15822175
-4.325872	"observer1	-0.37867928
-4.325872	"observer2	-0.37867928
-3.5245876	rs	-3.2743647
-3.6963503	shared	-1.861594
-4.2276278	"5"	-0.7647151
-4.2276278	"7"	-0.7647151
-4.2276278	"4"	-2.2286072
-4.2276278	"6"	-0.7647151
-4.148369	odds	-2.052516
-4.148369	even	-2.2286072
-4.2276278	"failed	-0.9819357
-4.325872	threads"	-0.6678051
-4.325872	"testNestedAsyncConcat	-0.07938897
-4.325872	nestedAsyncConcat	-0.07938897
-4.148369	allowThird	-0.7647151
-3.1415794	parent	-2.5121136
-4.2276278	parentHasStarted	-0.6678051
-4.148369	parentHasFinished	-0.7647151
-4.325872	"Emit	-2.052516
-4.325872	o1"	-2.052516
-4.325872	o2"	-2.052516
-4.325872	o3"	-2.052516
-3.9846475	Observable"	-0.6098131
-4.325872	"Thread1	-0.07938897
-4.325872	waitForThreadDone	-2.2743647
-4.325872	"Thread2	-0.07938897
-4.325872	"Parent	-0.07938897
-4.325872	didn't	-0.07938897
-4.325872	within	-0.07938897
-4.325872	limit"	-0.07938897
-3.9846475	callOnce	-2.052516
-3.772955	okToContinue	-2.0872781
-4.2276278	concatF	-2.052516
-3.772955	w1	-2.6068032
-3.772955	w2	-2.6167874
-4.325872	47	-0.07938897
-4.148369	okToContinueW1	-0.07938897
-4.148369	okToContinueW2	-0.07938897
-3.8660285	seed	-0.54736686
-4.2276278	threadHasStarted	-1.8764248
-4.2276278	inOrder1	-2.7367628
-4.2276278	inOrder2	-2.8306673
-3.772955	ExecutorService	-1.0302404
-3.574654	executor	-2.3949387
-4.325872	newFixedThreadPool	-2.4784849
-4.325872	"testIssue2890NoStackoverflow	-2.1774547
-4.148369	awaitTerminationTimeout	-0.07938897
-4.325872	100_000	-1.8764248
-4.325872	"Completed	-1.9733348
-3.9846475	"/"	-1.8764248
-3.772955	timed	-1.3175259
-4.325872	milliseconds."	-1.8764248
-4.2276278	durationSeconds	-1.8764248
-4.2276278	startTime	-0.6098131
-4.325872	"concatMapRangeAsyncLoop	-1.8764248
-4.325872	2500	-2.2743647
-4.2276278	999	-1.9733348
-4.2276278	concatMapDelayError	-3.475762
-4.2276278	concatMapIterable	-2.6723049
-4.325872	retryTwice	-2.1774547
-4.325872	retryOnTestException	-1.8764248
-4.2276278	ioe	-0.6678051
-4.2276278	te	-2.377027
-4.2276278	ObservableRetryTest	-2.1774547
-4.148369	SlowObservable	-1.8764248
-4.325872	"testUnsubscribeAfterError"	-1.8764248
-4.325872	retry5	-2.052516
-4.148369	AsyncObserver	-2.1774547
-3.772955	async	-2.5001488
-4.325872	threads,	-2.1774547
-4.325872	then	-2.1774547
-4.2276278	efforts	-2.2743647
-4.325872	"Only	-0.51525795
-3.479701	active	-1.7812501
-4.148369	maxActive	-2.1774547
-4.325872	"testTimeoutWithRetry"	-1.8764248
-4.2276278	80	-2.052516
-4.325872	"You	-0.15822175
-4.325872	shall	-0.07938897
-4.325872	pass"	-0.07938897
-4.148369	throwException	-1.8764248
-4.2276278	isFirst	-2.052516
-4.325872	"map	-2.1774547
-3.6963503	getAndSet	-3.5666208
-4.325872	"retryable	-2.1774547
-3.8660285	error"	-2.8425665
-4.325872	forEach	-2.388308
-4.325872	190	-2.1774547
-4.325872	95	-0.07938897
-4.325872	195	-0.07938897
-4.2276278	98	-2.3535461
-4.325872	102	-2.1194627
-4.325872	201	-1.8764248
-3.5245876	wip	-1.699946
-4.325872	ObservableWindowWithSizeTest	-0.37867928
-4.325872	done!"	-1.8764248
-4.325872	"inner	-0.6678051
-4.325872	done:	-2.052516
-3.8660285	pv	-2.8654294
-4.325872	"timespan	-0.07938897
-4.2276278	intervalRange	-2.7367628
-3.9846475	21	-2.6454327
-4.148369	doOnNextDone	-2.654576
-4.148369	secondWindowProcessing	-2.654576
-4.2276278	flatMapSingle	-3.282965
-4.325872	assertValueSet	-2.4784849
-3.9846475	NumberFormatException	-2.1194627
-4.2276278	ScalarSupplier	-2.388308
-4.325872	checkDoubleOnSubscribeFlowableToObservable	-0.37867928
-4.325872	BUFFER	-1.7738558
-4.2276278	DROP	-1.4264063
-4.2276278	LATEST	-1.5107272
-4.2276278	ERROR	-1.9878484
-3.4390223	last	-1.2936156
-4.325872	lastElement	-2.8871486
-4.325872	mockMaybeObserver	-2.7215228
-4.325872	lastOrError	-2.654576
-4.325872	retryWhen	-2.7367628
-4.2276278	objectObserver	-1.5149148
-3.9846475	singleObserver	-1.8068354
-4.2276278	"bb"	-2.6034236
-4.325872	"ccc"	-2.5753949
-4.325872	"dddd"	-2.955606
-3.574654	Map	-2.8053231
-4.2276278	mapped	-3.0225527
-4.2276278	toMap	-2.8654294
-4.2276278	lengthFunc	-2.5454316
-3.8660285	HashMap	-3.3425508
-4.325872	duplicate	-2.1774547
-4.2276278	"aa"	-2.1774547
-4.325872	"bbbb"	-2.1774547
-4.325872	"cccccc"	-2.1774547
-4.325872	"dddddddd"	-2.1774547
-4.2276278	lengthFuncErr	-2.1774547
-4.325872	Failure"	-2.9986408
-4.2276278	duplicateErr	-2.1774547
-3.9846475	mapFactory	-1.5581406
-4.325872	LinkedHashMap	-2.6893382
-4.325872	3296811238780863394L	-2.1774547
-4.325872	removeEldestEntry	-2.4784849
-4.2276278	Entry	-2.596584
-4.325872	eldest	-2.4784849
-4.2276278	aAction0	-0.07938897
-4.325872	checkActionCalled	-1.8764248
-4.325872	"expected"	-0.07938897
-3.772955	iterable	-0.8355795
-4.325872	completableComplete	-2.052516
-4.325872	completableError	-1.7514861
-4.325872	completableThrows	-0.37867928
-4.148369	uc	-0.9287578
-4.325872	EmptyDisposingObservable	-0.07938897
-4.325872	"I	-1.8764248
-4.325872	don't	-1.8764248
-4.325872	work."	-1.8764248
-4.2276278	"first	-2.5048137
-4.325872	w1"	-0.07938897
-4.325872	w2"	-0.07938897
-3.772955	w3	-2.4046986
-4.2276278	combineLatestW	-2.052516
-4.325872	getConcat3StringsCombineLatestFunction	-2.052516
-4.325872	"1a"	-2.2743647
-4.325872	"2a"	-2.2743647
-4.325872	"3a"	-2.2743647
-4.325872	"2b"	-2.2743647
-4.325872	"3b"	-2.052516
-4.325872	"3c"	-1.8764248
-4.325872	"3d"	-1.8764248
-4.325872	"1a2a3a"	-2.052516
-4.325872	"1a2b3a"	-1.8764248
-4.325872	"1a2b3b"	-0.07938897
-4.325872	"1a2b3c"	-0.07938897
-4.325872	"1a2b3d"	-0.07938897
-4.325872	"1b"	-2.052516
-4.325872	"1c"	-1.8764248
-4.325872	"1d"	-1.8764248
-4.325872	"1d2b3a"	-0.07938897
-4.325872	"2c"	-0.07938897
-4.325872	"2d"	-0.07938897
-4.325872	"1b2b3a"	-0.07938897
-4.325872	"1b2c3a"	-0.07938897
-4.325872	"1b2d3a"	-0.07938897
-4.325872	"1b2d3b"	-0.07938897
-4.148369	combineLatestFunction	-2.1396663
-4.325872	getConcatStringIntegerCombineLatestFunction	-1.7514861
-4.325872	"two2"	-0.15822175
-4.325872	"two3"	-1.0256678
-4.325872	"two4"	-0.15822175
-4.325872	getConcatStringIntegerIntArrayCombineLatestFunction	-1.8764248
-4.325872	"two2[4,	-0.07938897
-4.2276278	5,	-2.052516
-4.325872	6]"	-2.052516
-4.325872	"one2[4,	-1.8764248
-4.325872	"one2[7,	-0.07938897
-4.325872	8]"	-0.07938897
-3.9846475	a2	-2.1194627
-3.9846475	a3	-2.1194627
-4.2276278	getStringValue	-2.8764248
-4.2276278	iArray	-2.3535461
-4.148369	or	-0.5496347
-4.325872	0x10	-2.052516
-4.325872	0x12	-2.052516
-4.325872	0x20	-2.052516
-4.325872	0x22	-2.052516
-4.325872	0x30	-1.8764248
-4.325872	0x1	-0.07938897
-4.325872	0x2	-0.07938897
-4.325872	"test1ToNSources:	-0.07938897
-4.325872	sources"	-1.8764248
-4.325872	"test1ToNSourcesScheduled:	-0.07938897
-4.2276278	s3	-2.420493
-3.772955	t3	-2.420493
-4.2276278	s4	-2.3535461
-3.772955	t4	-2.0222955
-4.2276278	s5	-2.2743647
-3.772955	t5	-1.971143
-4.2276278	s6	-2.1774547
-4.148369	t6	-1.7434946
-4.2276278	s7	-2.052516
-4.148369	t7	-1.0396996
-4.2276278	s8	-1.8764248
-4.148369	t8	-1.2297877
-4.2276278	s9	-0.07938897
-4.148369	t9	-1.2297877
-4.148369	SIZE	-0.37582317
-3.9846475	doOnEach	-2.5606716
-4.2276278	out"	-2.1774547
-4.2276278	combineLatestArray	-2.654576
-4.2276278	"[1,	-1.5355507
-4.325872	2]"	-2.3535461
-4.2276278	combineLatestArrayDelayError	-2.420493
-4.2276278	combineLatestDelayError	-2.751486
-4.325872	errorList	-2.1774547
-4.2276278	emptyObservable	-0.37867928
-4.2276278	errorObservable	-0.37867928
-3.9846475	integerNotification	-2.2122169
-4.325872	"emptyObservable:	-0.07938897
-3.8660285	doFinally"	-2.3535461
-4.325872	"errorObservable:	-0.07938897
-4.148369	objects	-0.7514868
-4.325872	"combineLatestDelayError:	-1.8764248
-4.325872	"ps1	-2.1774547
-4.325872	"ps2	-2.1774547
-4.325872	"xx"	-0.07938897
-4.2276278	distinctUntilChanged	-2.8541484
-4.325872	compareToIgnoreCase	-1.8764248
-3.9846475	Mutable	-0.54286635
-4.2276278	unsubscribeAction	-0.07938897
-4.325872	isA	-2.7057285
-4.2276278	reduced	-2.3535461
-4.2276278	reduce	-3.3607247
-4.2276278	i1	-2.2743647
-4.148369	i2	-2.4504561
-4.325872	"some	-2.5048137
-4.2276278	skipUntil	-2.7057285
-4.325872	905	-1.8764248
-4.2276278	throttleFirst	-2.5048137
-4.325872	501	-2.052516
-4.148369	1001	-1.4563695
-4.325872	1501	-1.8764248
-4.2276278	subscribedObserver	-1.5590318
-4.2276278	sideEffectObserver	-0.78410333
-3.772955	base	-1.3044214
-4.2276278	errs	-0.07938897
-4.148369	expectedCount	-1.0810722
-4.325872	TRUE	-2.052516
-4.325872	FALSE	-0.6678051
-4.325872	booleans	-2.052516
-3.6312535	exceptions	-0.9365775
-4.325872	Builder	-0.07938897
-3.479701	future	-1.4649756
-4.2276278	"unit	-1.362548
-4.325872	synthetic	-0.07938897
-4.325872	cancellation"	-0.07938897
-3.6312535	isDone	-1.717407
-4.2276278	futureObservable	-0.07938897
-4.325872	waitToFinish	-2.1774547
-4.2276278	BusyObserver	-2.052516
-3.9846475	busyobserver	-2.377027
-4.325872	multiThreadedWithNPE	-0.07938897
-4.325872	"maxConcurrentThreads:	-1.8764248
-4.325872	multiThreadedWithNPEinMiddle	-0.07938897
-4.148369	lessThan9	-0.54286635
-4.325872	count:	-0.07938897
-4.325872	numStringsToSend	-0.07938897
-4.325872	"aString"	-0.07938897
-4.2276278	waitOnThese	-0.07938897
-4.325872	"Error	-0.20374706
-4.325872	CompletionThread"	-0.07938897
-4.325872	TestConcurrencyobserverEvent	-1.8764248
-4.325872	"mocked	-0.07938897
-4.325872	"Expecting	-0.12495283
-4.325872	either	-0.07938897
-3.8660285	onComplete"	-2.420493
-4.325872	">>>	-2.052516
-4.325872	Busyobserver	-2.052516
-4.148369	BlockingObservableNext	-0.07938897
-4.325872	fireOnNextInNewThread	-2.420493
-4.325872	"Calling	-0.07938897
-4.325872	next()	-0.07938897
-4.325872	without	-0.07938897
-4.325872	hasNext()	-0.07938897
-4.325872	wait	-0.07938897
-4.325872	fire"	-0.07938897
-4.325872	"At	-2.3535461
-4.325872	NoSuchElementException"	-2.3535461
-4.325872	fireOnErrorInNewThread	-1.8764248
-4.325872	"Expected	-1.0396795
-4.2276278	TestException"	-2.2743647
-4.325872	assertErrorAfterObservableFail	-2.052516
-4.325872	"hasNext	-0.07938897
-4.2276278	"next	-0.91084313
-3.9846475	COUNT	-0.37354344
-4.2276278	timeHasPassed	-0.7647151
-4.148369	running	-0.7647151
-4.325872	"a	-0.07938897
-4.325872	8000	-0.07938897
-4.325872	"c	-0.07938897
-4.2276278	sequence"	-0.6678051
-3.9846475	that	-0.15822175
-4.325872	["	-0.07938897
-4.325872	"]	-0.07938897
-4.325872	higher	-0.07938897
-3.6963503	than	-0.9128548
-4.325872	"a:	-0.07938897
-4.325872	b:	-0.07938897
-4.325872	c:	-0.07938897
-4.325872	pow	-2.1774547
-3.9846475	terminal	-0.111439586
-4.2276278	NextIterator	-2.052516
-4.325872	"th	-0.07938897
-4.2276278	iteration	-0.07938897
-4.325872	next"	-0.07938897
-4.2276278	NextObserver	-1.2809403
-4.2276278	setWaiting	-2.3535461
-4.325872	takeNext	-2.052516
-4.2276278	getValue	-3.4533417
-4.325872	isOnComplete	-2.3157575
-4.2276278	scheduled	-0.6678051
-4.148369	doneLatch	-0.6678051
-4.325872	SlowInner	-0.07938897
-4.2276278	actualInner	-2.1774547
-3.8660285	common	-0.42469594
-4.148369	delayUnit	-0.07938897
-4.325872	compareTo	-2.4504561
-4.325872	performTestUsing	-1.8764248
-3.8660285	Resource	-1.5596012
-3.479701	resource	-2.6068032
-4.2276278	getTextFromWeb	-2.8058438
-4.2276278	"Hello	-2.0872781
-4.325872	world!"	-0.6678051
-4.2276278	resourceFactory	-2.4784849
-4.148369	observableFactory	-1.2829657
-4.2276278	res	-2.052516
-4.325872	split	-2.7057285
-4.325872	DisposeAction	-2.3535461
-4.325872	disposeEagerly	-1.8764248
-4.325872	"world!"	-2.052516
-4.325872	performTestUsingWithSubscribingTwice	-1.8764248
-4.325872	"Nothing"	-2.052516
-4.325872	performTestUsingWithResourceFactoryError	-1.8764248
-4.325872	disposeSubscription	-1.8764248
-4.325872	performTestUsingWithObservableFactoryError	-0.07938897
-4.325872	it"	-0.07938897
-4.325872	createResourceFactory	-2.1774547
-4.148369	completion	-1.8764248
-4.325872	createOnCompletedAction	-1.8764248
-4.325872	createUnsubAction	-2.1774547
-4.2276278	"disposed"	-2.1194627
-4.2276278	"completed"	-1.269865
-4.325872	createOnErrorAction	-1.8764248
-4.325872	"unsub"	-1.8764248
-4.2276278	"hello	-0.47045344
-4.325872	world"	-2.052516
-4.148369	sourceSupplier	-2.1589713
-4.148369	timeoutFunc	-2.377027
-4.2276278	firstTimeoutFunc	-0.07938897
-3.9846475	observerReceivedTwo	-0.8438963
-4.148369	timeoutEmittedOne	-0.8438963
-3.9846475	observerCompleted	-0.6678051
-4.148369	enteredTimeoutOne	-0.8438963
-4.148369	latchTimeout	-1.0657451
-4.325872	doAnswer	-1.8764248
-4.325872	"CoundDownLatch	-0.07938897
-4.325872	timeout"	-0.07938897
-4.148369	timeoutAndFallback	-1.9433715
-4.325872	checkDoubleOnSubscribeObservableToCompletable	-0.37867928
-4.148369	zipr	-2.3023934
-4.325872	toFunction	-3.1068738
-4.2276278	getConcatStringIntegerIntArrayZipr	-1.8764248
-3.6963503	ws	-0.7647151
-4.2276278	java	-2.052516
-4.325872	util	-0.07938897
-4.2276278	zipW	-1.8764248
-4.325872	getConcat3StringsZipr	-1.8764248
-4.325872	zipr2	-2.7795148
-4.325872	"world"	-2.1774547
-4.325872	"helloworld"	-2.1774547
-4.325872	"again"	-2.052516
-4.325872	again"	-0.07938897
-4.325872	"hi"	-1.8764248
-4.325872	"hello1"	-0.07938897
-4.148369	r3	-0.07938897
-4.325872	zipr3	-0.07938897
-4.325872	"hello2[5,	-0.07938897
-4.325872	6,	-0.07938897
-4.325872	7]"	-0.07938897
-4.325872	"oneA"	-1.8764248
-4.325872	"twoB"	-0.07938897
-4.325872	"threeC"	-0.07938897
-4.325872	"D"	-0.07938897
-4.325872	"fourD"	-0.07938897
-4.325872	"helloagain"	-1.8764248
-4.325872	getConcatStringIntegerZipr	-0.07938897
-4.325872	"one2"	-0.07938897
-4.325872	getDivideZipr	-0.07938897
-4.148369	oA	-2.3023934
-4.148369	oB	-2.4406962
-4.325872	getConcat2Strings	-1.8764248
-4.325872	"a1"	-1.0256678
-4.2276278	"b1"	-1.0256678
-4.325872	"a1-b1"	-1.8764248
-4.325872	"b2"	-1.8764248
-4.325872	"a2"	-1.8764248
-4.325872	"a2-b2"	-1.8764248
-4.325872	"a3"	-1.8764248
-4.325872	"a4"	-1.8764248
-4.325872	"a5"	-1.8764248
-4.325872	"b3"	-1.8764248
-4.325872	"b4"	-1.8764248
-4.325872	"b5"	-1.8764248
-4.325872	"a3-b3"	-0.07938897
-4.325872	"a4-b4"	-0.07938897
-4.325872	"a5-b5"	-0.07938897
-4.325872	"b6"	-1.8764248
-4.325872	"b7"	-1.8764248
-4.325872	"b8"	-1.8764248
-4.325872	"b9"	-1.8764248
-4.2276278	"forced	-2.2743647
-4.2276278	OBSERVABLE_OF_5_INTEGERS	-0.54286635
-4.325872	zipWith	-3.0667565
-4.325872	"1-1"	-2.052516
-4.325872	"2-2"	-2.052516
-4.325872	"5-5"	-2.052516
-4.2276278	ASYNC_OBSERVABLE_OF_INFINITE_INTEGERS	-2.052516
-4.148369	infiniteObservable	-0.37867925
-4.325872	"didn't	-0.07938897
-3.8660285	notification	-1.950293
-4.325872	isOnError	-2.420493
-4.325872	"OnError"	-0.07938897
-4.325872	isOnNext	-2.7057285
-4.325872	"OnNext"	-0.07938897
-4.148369	"OnComplete"	-0.8438963
-4.148369	"null"	-1.8764248
-4.2276278	kind	-2.1774547
-4.325872	"_"	-2.420493
-4.325872	"OnNext_1-OnNext_a"	-0.07938897
-4.325872	"OnNext_2-OnNext_b"	-0.07938897
-4.325872	"OnNext_3-OnNext_c"	-0.07938897
-4.325872	"OnComplete_null-OnComplete_null"	-0.07938897
-4.148369	invoked	-1.0525168
-3.6312535	argument	-0.8807701
-4.2276278	been	-1.2809403
-4.325872	passed"	-2.3535461
-4.148369	generatedA	-2.1396663
-4.148369	generatedB	-2.1396663
-4.325872	A:	-1.8764248
-4.325872	B:	-1.8764248
-4.325872	numEmitted	-1.8764248
-4.325872	yield	-2.5048137
-4.325872	"------->	-2.052516
-4.2276278	infinite	-2.052516
-4.325872	"Starting	-2.052516
-3.8660285	thread:	-2.6723049
-4.325872	"Ending	-2.052516
-4.2276278	zip1	-0.07938897
-4.2276278	1026	-0.6678051
-4.2276278	zip2	-0.07938897
-4.2276278	9000	-0.07938897
-4.2276278	"929"	-1.7514861
-3.9846475	arr	-0.7792399
-3.9846475	1,	-2.3157575
-4.325872	1]"	-1.8764248
-4.325872	substring	-2.9986408
-4.325872	"RxSi"	-1.8764248
-4.325872	"RxCo"	-1.8764248
-4.148369	observableList	-0.20374706
-4.325872	verifyResult	-2.654576
-4.325872	verifyError	-2.4784849
-4.148369	onSubscribed	-0.7647151
-3.9846475	countBefore	-0.7647151
-3.9846475	countAfter	-0.7647151
-4.2276278	sref	-0.6678051
-4.2276278	TestObservableFunc	-0.37867928
-4.325872	INFINITE_OBSERVABLE	-1.8764248
-4.325872	"Emit:	-1.8764248
-4.325872	"Receive:	-1.8764248
-3.9846475	op	-2.5531185
-4.325872	"count	-2.654576
-4.325872	8L	-2.052516
-4.325872	9L	-2.052516
-4.148369	IntervalObserver	-0.07938897
-4.148369	sSource	-2.2743647
-4.148369	sOther	-2.2743647
-4.325872	sendOnNext	-2.751486
-4.325872	sendOnCompleted	-2.1774547
-4.325872	sendOnError	-1.8764248
-3.9846475	until	-1.2571635
-4.325872	"Until	-2.1194627
-4.148369	underlyingSubject	-1.366775
-4.325872	withTimeout	-0.91084313
-4.325872	TIMEOUT	-2.2286072
-4.2276278	exit	-0.7647151
-4.148369	timeoutSetuped	-0.7647151
-4.2276278	observableWithTimeout	-0.07938897
-4.325872	isTerminated	-1.9733348
-4.2276278	"cc"	-3.052516
-4.325872	"dd"	-2.6893382
-4.2276278	toMultimap	-2.9078333
-4.325872	"cccc"	-2.1774547
-4.2276278	"eee"	-2.5753949
-4.325872	"fff"	-2.4784849
-4.325872	2084477070717362859L	-2.1774547
-3.9846475	collectionFactory	-1.7154659
-4.148369	mapSupplier	-2.4918487
-4.2276278	skipLast	-3.0872781
-3.9846475	GroupedObservable	-1.6889944
-4.148369	grouped	-1.0525168
-3.8660285	groupBy	-2.2495384
-4.2276278	sourceStrings	-0.07938897
-4.2276278	errorSource	-0.07938897
-3.8660285	groupCounter	-2.3535461
-3.8660285	eventCounter	-2.7795148
-4.325872	"Event	-2.1774547
-4.325872	key:	-2.052516
-4.325872	getKey	-3.3388228
-4.2276278	value:	-2.2743647
-4.2276278	ConcurrentHashMap	-2.2286072
-3.6963503	K	-1.8915571
-3.772955	V	-1.3837641
-3.8660285	ConcurrentLinkedQueue	-2.4784849
-4.148369	subscribeCounter	-2.2743647
-3.8660285	groupCount	-0.6098131
-3.6963503	Event	-2.6597157
-4.325872	Subscribing	-1.8764248
-4.325872	EventStream	-1.8764248
-4.325872	***"	-1.8764248
-4.325872	"Event-"	-2.2743647
-3.8660285	eventGroupedObservable	-1.1828506
-4.325872	"GroupedObservable	-0.07938897
-3.9846475	Key:	-2.1774547
-4.2276278	"Source:	-2.1774547
-4.325872	Message:	-2.751486
-4.2276278	outputMessage	-2.3535461
-4.148369	sentEventCounter	-2.3535461
-4.325872	doTestUnsubscribeOnNestedTakeAndAsyncInfiniteStream	-1.8764248
-4.148369	SYNC_INFINITE_OBSERVABLE_OF_EVENT	-2.2743647
-4.325872	39	-1.8764248
-4.325872	ASYNC_INFINITE_OBSERVABLE_OF_EVENT	-0.07938897
-4.2276278	"testUnsubscribe	-2.7215228
-4.325872	Source:	-2.654576
-4.325872	likely	-0.07938897
-4.325872	correctly"	-0.07938897
-4.325872	"=>	-2.3535461
-4.325872	58	-0.07938897
-4.148369	numToTake	-2.1774547
-4.325872	37	-0.07938897
-3.479701	group	-1.5238736
-4.325872	completion"	-0.07938897
-4.148369	eventStream	-2.052516
-3.8660285	results	-2.4962134
-4.325872	groups:	-2.751486
-4.325872	"last	-2.5296373
-4.325872	group:	-2.5296373
-4.325872	"Results:	-2.2743647
-4.325872	"----------------------------------------------------------------------------------------------"	-0.07938897
-4.325872	"subscribeOn	-2.052516
-4.325872	"outer	-1.8764248
-4.325872	"Received:	-2.2743647
-4.325872	"notification	-1.8764248
-4.325872	source:	-0.07938897
-4.325872	message:	-0.07938897
-4.2276278	numGroups	-0.54286635
-3.574654	stream	-1.7040621
-4.325872	IS_EVEN	-2.2286072
-4.2276278	4000	-2.2286072
-4.325872	IS_EVEN2	-2.052516
-4.325872	even."	-2.5296373
-4.325872	odd."	-2.5296373
-4.325872	foo"	-0.07938897
-4.325872	FoO	-0.07938897
-4.325872	"baR	-0.07938897
-4.325872	"foO	-0.07938897
-4.325872	Baz	-0.07938897
-4.325872	qux	-0.07938897
-4.325872	bar"	-0.07938897
-4.325872	BAR	-0.07938897
-4.325872	"FOO	-0.07938897
-4.325872	"baz	-0.07938897
-4.325872	bAZ	-0.07938897
-4.325872	fOo	-0.07938897
-4.2276278	keysel	-0.07938897
-3.9846475	trim	-2.8654294
-4.325872	toLowerCase	-2.3535461
-4.2276278	valuesel	-0.07938897
-4.325872	"----------->	-1.8764248
-4.325872	NEXT:	-1.8764248
-4.325872	"ts	-0.07938897
-4.325872	.get	-0.07938897
-4.2276278	"foo-0"	-0.54286635
-4.325872	"foo-1"	-1.8764248
-4.325872	"bar-0"	-1.8764248
-4.325872	"baz-0"	-1.8764248
-4.325872	"qux-0"	-0.07938897
-4.325872	"bar-1"	-0.07938897
-4.325872	"baz-1"	-0.07938897
-4.325872	FLATTEN_INTEGER	-2.1774547
-4.325872	"////////////////////	-2.052516
-4.325872	COMPLETED-A"	-2.052516
-4.325872	COMPLETED-B"	-2.052516
-4.325872	"NEXT:	-1.8764248
-4.325872	"uninitialized"	-0.07938897
-4.148369	groupedObservable	-1.0256678
-4.325872	"Oops"	-0.07938897
-4.148369	inner1	-0.37354344
-4.148369	inner2	-0.37354344
-4.325872	"Round	-0.07938897
-3.4390223	groups	-2.3654454
-3.9846475	receivedException	-2.1774547
-4.325872	"injected	-1.8764248
-4.2276278	resume	-2.2743647
-4.2276278	"twoResume"	-2.388308
-4.2276278	"threeResume"	-2.6893382
-4.325872	"exception	-2.1774547
-4.325872	function"	-2.1774547
-4.325872	"BadMapper:"	-2.3535461
-3.9846475	numbers	-0.07938897
-4.148369	NITERS	-0.07938897
-4.148369	iters	-0.07938897
-4.148369	innerLatch	-0.6678051
-4.2276278	integerObservable	-0.54286635
-4.325872	integers	-0.07938897
-4.325872	wait,	-0.07938897
-4.325872	"Incomplete!	-0.07938897
-4.325872	Went	-0.07938897
-4.325872	through	-0.07938897
-4.148369	getCount	-2.9903681
-4.325872	iterations"	-0.07938897
-4.2276278	forEachWhile	-2.7215228
-4.148369	OnErrorNotImplementedException	-1.2802782
-3.772955	with	-1.4145695
-4.148369	parentThreadName	-0.7514868
-3.6963503	completedLatch	-2.2743647
-3.9846475	threadName	-2.052516
-4.2276278	ThreadName:	-2.1774547
-4.148369	correctThreadName	-2.052516
-4.325872	"RxNewThreadScheduler"	-1.8764248
-4.325872	Correct	-1.8764248
-4.2276278	_multiple	-2.2743647
-4.325872	name:	-2.3535461
-4.325872	"Rx"	-2.388308
-4.325872	randomIntFrom0to100	-1.8764248
-4.148369	nextLatch	-0.6678051
-4.148369	completeTime	-0.7647151
-4.2276278	"onComplete"	-1.1071377
-4.325872	nanoTime	-2.3535461
-4.325872	"it	-2.1774547
-4.325872	shouldn't	-2.1774547
-4.148369	afterSubscribeTime	-0.54286635
-4.325872	"After	-0.15822175
-4.2276278	subscribe:	-1.8764248
-4.2276278	"onComplete	-1.1071377
-4.325872	nanos	-0.07938897
-4.325872	^=	-2.3535461
-3.4390223	<<	-1.2186844
-4.148369	35	-0.6098131
-4.148369	ObserveOnObserver	-1.9733348
-4.148369	oo	-1.2560767
-3.6312535	SimpleQueue	-3.1881785
-4.325872	Nullable	-2.3535461
-4.2276278	DisposeTrackingScheduler	-2.3535461
-4.2276278	disposedCount	-2.388308
-4.325872	TestObserverFusedCanceling	-0.37867928
-4.2276278	buffered	-2.420493
-4.325872	anyList	-2.420493
-4.325872	97	-1.8764248
-4.2276278	LongTimeAction	-0.07938897
-4.2276278	61	-2.052516
-4.2276278	DisposableObserver	-1.9733348
-4.2276278	createArrayList	-2.3535461
-4.148369	openIndicator	-2.4406962
-4.148369	closeIndicator	-2.420493
-4.2276278	BufferExactUnboundedObserver	-1.7514861
-3.9846475	enter	-2.8184328
-4.148369	BufferSkipBoundedObserver	-0.6098131
-4.2276278	BufferExactBoundedObserver	-1.7514861
-3.6963503	producerIndex	-0.69259286
-4.148369	BufferExactObserver	-1.8764248
-4.148369	notifications	-2.5753949
-4.2276278	-1"	-0.7189576
-4.325872	MIN_VALUE	-1.954348
-4.325872	"Overflow!	-2.052516
-4.325872	bigger	-2.052516
-4.325872	Long.MAX_VALUE"	-0.54286635
-4.2276278	sumErr	-1.8764248
-4.325872	reduceWith	-2.1194627
-3.772955	delayed	-1.1909672
-4.325872	500L	-2.2743647
-4.325872	1499L	-2.052516
-4.325872	anyLong	-2.9903681
-4.325872	1500L	-2.052516
-4.325872	2400L	-1.8764248
-4.325872	2500L	-2.052516
-4.325872	3400L	-1.8764248
-4.325872	3500L	-2.052516
-4.325872	5999L	-0.07938897
-4.325872	6000L	-0.07938897
-4.325872	6999L	-0.07938897
-4.325872	7000L	-0.07938897
-4.325872	7999L	-0.07938897
-4.325872	8000L	-0.07938897
-4.325872	"error!"	-1.8764248
-4.325872	1999L	-0.07938897
-4.325872	2000L	-1.8764248
-4.325872	5000L	-0.07938897
-4.325872	2499L	-0.07938897
-4.148369	delays	-0.7647151
-4.148369	delayFunc	-2.6167874
-4.2276278	subFunc	-2.1194627
-4.148369	sdelay	-0.37354344
-4.2276278	delayer	-0.54286635
-3.9846475	subjects	-1.2418363
-4.148369	itemDelay	-0.29664195
-3.9846475	ps3	-1.2300112
-4.2276278	resFunc	-2.1774547
-4.2276278	flatMapIterable	-3.1194627
-4.148369	just0	-1.1300626
-4.2276278	funcThrow	-1.8764248
-4.325872	funcThrow0	-1.8764248
-4.325872	"Too	-2.2286072
-4.325872	many	-1.2345208
-4.325872	subscriptions!	-1.8764248
-4.325872	unsubscriptions!	-1.8764248
-4.148369	composer	-2.149426
-4.325872	41	-2.2286072
-4.325872	51	-1.2809403
-4.325872	71	-0.07938897
-4.325872	81	-0.07938897
-4.325872	91	-0.07938897
-4.325872	containsAll	-2.2743647
-4.325872	1010	-0.07938897
-4.325872	1011	-0.07938897
-4.325872	2020	-0.07938897
-4.325872	2021	-0.07938897
-4.325872	3030	-0.07938897
-4.325872	3031	-0.07938897
-4.325872	4040	-0.07938897
-4.325872	4041	-0.07938897
-4.325872	5050	-0.07938897
-4.325872	5051	-0.07938897
-4.325872	6060	-0.07938897
-4.325872	6061	-0.07938897
-4.325872	7070	-0.07938897
-4.325872	7071	-0.07938897
-4.325872	8080	-0.07938897
-4.325872	8081	-0.07938897
-4.325872	9090	-0.07938897
-4.325872	9091	-0.07938897
-4.325872	10100	-0.07938897
-4.325872	10101	-0.07938897
-4.325872	"-->	-0.07938897
-4.325872	testFlatMapSelectorMaxConcurrent:	-0.07938897
-4.325872	"testFlatMapTransformsMaxConcurrentNormalLoop	-0.07938897
-4.325872	flatMapTransformsMaxConcurrentNormal	-0.07938897
-4.325872	"flatMapRangeAsyncLoop	-0.07938897
-4.2276278	Random	-2.1774547
-4.2276278	rnd	-2.149426
-4.325872	nextBoolean	-1.8764248
-4.325872	missing"	-0.07938897
-4.325872	"flatMapTwoNestedSync	-0.07938897
-4.325872	Iterable"	-1.8764248
-3.9846475	fusedSource	-1.0256678
-4.2276278	ObservableFlatMap	-0.51525795
-4.2276278	MergeObserver	-1.7514861
-4.148369	merger	-2.2037838
-4.148369	drainLoop	-2.955606
-4.148369	12	-1.2428485
-4.148369	14	-2.2286072
-4.325872	23	-2.5753949
-4.148369	ps4	-0.20374706
-3.9846475	subscribers?"	-3.052516
-4.325872	"Has	-0.51525795
-4.2276278	throttleLatest	-2.7657266
-3.8660285	onCancel	-1.1003773
-4.148369	TimerObserver	-0.20374706
-4.2276278	tm	-0.15822175
-4.325872	newSlowProcessor	-1.8764248
-3.9846475	onStart	-3.1194627
-3.9846475	producer	-0.7386695
-4.325872	getAndDecrement	-2.1774547
-4.2276278	attempts	-0.54286635
-3.8660285	Tuple	-2.2122169
-4.325872	"Retry	-2.052516
-4.2276278	#	-2.3535461
-3.9846475	numRetries	-2.3023934
-4.2276278	origin	-2.7215228
-4.325872	FuncWithErrors	-2.654576
-4.325872	"beginningEveryTime"	-2.7057285
-4.325872	"onSuccessOnly"	-2.6723049
-4.148369	inc	-0.6678051
-4.2276278	attempt	-0.54286635
-4.325872	output"	-0.07938897
-4.325872	"Subscribe	-0.07938897
-4.2276278	once"	-0.15822175
-3.772955	numFailures	-2.371275
-4.2276278	record	-0.8438963
-4.325872	failure:	-1.9733348
-3.8660285	subsCount	-2.596584
-4.148369	streamWithRetry	-0.54286635
-4.325872	context	-0.07938897
-4.2276278	nr	-1.8764248
-4.325872	emitDelay	-1.8764248
-4.325872	nextBeforeFailure	-1.8764248
-4.325872	"expected-failed"	-1.8764248
-4.325872	interrupted"	-0.07938897
-3.772955	target	-0.69513345
-4.2276278	NUM_LOOPS	-1.8764248
-4.148369	NUM_RETRIES	-0.6545768
-4.148369	ncpu	-0.37354344
-4.325872	availableProcessors	-2.1194627
-4.325872	"testRetryWithBackpressureParallelLoop	-0.07938897
-4.148369	timeouts	-0.6678051
-3.9846475	data	-1.352288
-4.2276278	nexts	-1.8764248
-4.325872	!!!	-1.8764248
-4.325872	"Data	-0.07938897
-4.148369	content	-0.20374706
-4.325872	mismatch:	-0.07938897
-4.325872	allSequenceFrequency	-0.07938897
-4.325872	its	-0.07938897
-4.325872	entrySet	-2.052516
-4.2276278	",	-1.1465731
-4.325872	"={"	-0.07938897
-4.325872	sequenceFrequency	-0.07938897
-4.2276278	"}"	-0.8654301
-3.6312535	prev	-1.3184332
-3.772955	cnt	-1.0686035
-3.4018295	curr	-1.5420471
-3.9846475	NUM_MSG	-1.9733348
-4.325872	1034	-1.8764248
-4.325872	"msg:	-1.8764248
-4.325872	lang	-1.8764248
-4.325872	"msg:"	-1.8764248
-4.325872	retryUntil	-2.3157575
-4.2276278	withLatestFrom	-3.1132138
-4.325872	COMBINER	-2.4784849
-4.325872	COMBINER_ERROR	-0.07938897
-4.2276278	"="	-0.54286635
-4.2276278	"[2,	-1.1071377
-4.325872	a,	-2.5753949
-4.325872	A,	-2.5753949
-4.2276278	=]"	-2.420493
-4.325872	"[3,	-1.2809403
-4.325872	b,	-2.1774547
-4.325872	B,	-2.1774547
-4.325872	"ps3	-1.8764248
-3.9846475	val	-1.2157707
-3.772955	combiner	-2.7712944
-4.325872	1250	-0.07938897
-4.2276278	TimesteppingScheduler	-0.91084313
-4.325872	stepEnabled	-1.8764248
-4.2276278	BlockingObservableIterator	-2.2743647
-4.2276278	cb	-2.5296373
-4.325872	BrokenBarrierException	-2.420493
-3.9846475	capturedException	-2.1774547
-4.2276278	"failure"	-0.54286635
-4.2276278	"resume"	-0.54286635
-4.325872	defaultIfEmpty	-2.3157575
-4.2276278	concatMapEager	-3.1608555
-4.2276278	concatMapEagerDelayError	-2.9178174
-4.325872	toJust	-1.9275773
-4.325872	toRange	-0.07938897
-3.9846475	Method	-0.8512323
-4.325872	getMethod	-2.5048137
-4.325872	"concatArrayEager"	-0.37867928
-4.325872	invoke	-2.6893382
-4.2276278	"bufferSize	-0.9287578
-4.148369	lst	-0.07938897
-4.325872	nextInt	-2.052516
-3.9846475	generate	-1.528143
-4.2276278	ObservableInternalHelper	-2.5753949
-4.325872	MapToInt	-1.7514861
-4.2276278	TestAsyncErrorObservable	-0.82007223
-4.2276278	TestLocalObserver	-0.07938897
-4.325872	getError	-2.7657266
-4.2276278	"subscription	-1.2809403
-4.325872	complete"	-2.1774547
-4.2276278	CaptureObserver	-0.07938897
-4.325872	test"	-0.07938897
-4.325872	path"	-2.1774547
-4.325872	"interrupted"	-0.07938897
-4.148369	errorThrown	-0.54286635
-4.2276278	TestASynchronous1sDelayedObservable	-0.20374706
-4.2276278	parentObservable	-0.37867928
-4.325872	parent"	-1.8764248
-4.325872	"testErrorInParentObservableDelayed	-0.37867928
-4.2276278	UIEventLoopScheduler	-1.8764248
-3.8660285	uiEventLoop	-2.0982735
-4.2276278	ThreadSubscription	-1.8764248
-3.772955	subscribeThread	-2.3535461
-3.9846475	unsubscribeThread	-1.5605639
-4.325872	getThread	-2.2743647
-4.325872	"unsubscribeThread:	-1.8764248
-4.325872	"subscribeThread.get():	-1.8764248
-4.325872	"UI	-0.07938897
-4.325872	"unsubscribe	-0.07938897
-4.325872	invoked:	-0.07938897
-4.325872	eventLoop	-0.07938897
-4.2276278	wm	-2.6101568
-4.325872	IS_D	-2.1774547
-3.9846475	ObservableCache	-2.3157575
-4.2276278	connected!"	-2.052516
-4.325872	isConnected	-2.052516
-4.325872	"Subscribers	-1.8764248
-4.325872	cachedEventCount	-1.8764248
-4.325872	ObservableDoFinallyTest	-1.8764248
-4.2276278	"finally"	-2.3535461
-4.325872	"onNext"	-2.149426
-4.325872	"onError"	-0.7647151
-4.148369	dst	-2.052516
-4.325872	rangeLong	-3.1256232
-4.148369	IllegalArgumentException"	-2.388308
-4.325872	5495454L	-0.07938897
-4.325872	checkFusedIsEmptyClear	-1.7514861
-4.2276278	switchIfEmpty	-2.8306673
-4.2276278	withProducer	-1.7514861
-4.325872	42L	-2.1194627
-4.2276278	"RxSingleScheduler"	-2.5296373
-4.325872	890	-2.052516
-4.325872	120	-2.052516
-4.325872	exp"	-2.5296373
-4.325872	"RxSingleScheduler-"	-2.5296373
-3.574654	flowable	-2.649263
-3.5245876	processor	-2.752674
-4.325872	print	-3.1316972
-4.325872	"concatArray"	-1.7514861
-4.325872	"startWithArray"	-1.7514861
-3.6963503	ts0	-2.2955542
-4.2276278	sample	-3.0302396
-4.325872	400L	-0.07938897
-4.325872	800L	-0.07938897
-4.325872	1200L	-0.07938897
-4.325872	1600L	-0.07938897
-4.325872	3000L	-0.07938897
-3.772955	sampler	-2.6167874
-4.325872	throttleLast	-1.8764248
-3.6963503	all	-1.6624899
-4.2276278	allOdd	-1.8764248
-4.325872	"Boo!"	-2.1774547
-4.325872	"one-"	-2.420493
-4.325872	"two-"	-2.3535461
-4.325872	"three-"	-2.052516
-4.325872	"one-1"	-2.2743647
-4.325872	"two-2"	-2.1774547
-4.325872	"three-3"	-0.07938897
-4.325872	"Not	-0.8412615
-4.325872	supported	-2.3535461
-4.325872	yet."	-2.3535461
-4.325872	"Omg	-0.07938897
-4.325872	I'm	-0.07938897
-4.325872	calculating	-0.07938897
-4.325872	hard:	-0.07938897
-4.2276278	"*"	-0.4636851
-4.2276278	SquareStr	-0.07938897
-4.148369	squareStr	-0.07938897
-4.325872	printer	-0.07938897
-3.574654	sr	-2.0225527
-4.325872	stringObserver2	-0.37867928
-4.148369	m1	-2.2286072
-4.325872	getMap	-2.7215228
-4.2276278	m2	-2.2286072
-4.325872	"firstName"	-1.0199876
-4.325872	"OneFirst"	-2.052516
-4.325872	"TwoFirst"	-2.052516
-4.2276278	ids	-0.07938897
-4.148369	subObservable	-0.6678051
-4.2276278	m3	-2.052516
-4.325872	"Three"	-2.052516
-4.2276278	m4	-2.052516
-4.325872	"Four"	-2.052516
-4.325872	"ThreeFirst"	-1.8764248
-4.325872	"FourFirst"	-1.8764248
-4.2276278	arg0	-1.8764248
-4.325872	"any	-2.1774547
-3.8660285	prefix	-1.104849
-4.325872	"lastName"	-0.07938897
-4.325872	"Last"	-0.07938897
-4.325872	950	-1.7514861
-4.325872	1050	-1.7514861
-4.2276278	toSortedList	-2.7795148
-4.148369	Comparator	-1.6691204
-4.2276278	compare	-2.654576
-4.2276278	sorted	-2.5048137
-4.2276278	anyEven	-1.8764248
-4.325872	FlowableMapNotification	-1.8764248
-4.148369	MapNotificationSubscriber	-0.12495283
-4.2276278	objectSubscriber	-1.5149148
-4.325872	mockSubscriber	-3.9680917
-3.8660285	subscriber1	-3.1551783
-4.148369	subscriber2	-2.3282497
-4.325872	doOnRequest	-2.8654294
-4.325872	LongConsumer	-2.7657266
-4.2276278	tsBp	-2.166769
-4.2276278	reqCount	-1.7514861
-4.325872	rebatchRequests	-2.8058438
-3.9846475	pp3	-2.2405064
-4.325872	withBackpressureOneByOne	-0.07938897
-4.325872	withBackpressureAllAtOnce	-0.07938897
-4.325872	DefaultSubscriber	-3.278686
-4.325872	5495454	-0.37867928
-4.2276278	conditional	-0.96883506
-4.325872	FlowableDebounceTimed	-0.37867928
-4.2276278	checkBadSourceFlowable	-2.8541484
-3.4390223	BehaviorProcessor	-3.1664593
-4.325872	org	-0.37867928
-4.325872	reactivestreams	-0.37867928
-4.2276278	DebounceTimedSubscriber	-1.8764248
-3.772955	TestFlowable	-0.74225444
-4.325872	"TestFlowable	-0.89761484
-4.148369	backpressure	-0.37867925
-3.9846475	errorOccurred	-2.1774547
-4.2276278	THROW_NON_FATAL	-0.07938897
-3.8660285	types	-0.29664195
-4.325872	forName	-1.9733348
-4.325872	"io.reactivex.rxjava3.functions.Function"	-0.07938897
-4.325872	"combineLatest"	-0.37867928
-3.6312535	params	-2.1068738
-4.148369	ArgsToString	-2.3535461
-4.325872	'1'	-0.07938897
-4.148369	params0	-0.07938897
-4.325872	clone	-2.1194627
-4.325872	InvocationTargetException	-1.9733348
-4.325872	"source"	-0.07938897
-4.2276278	"combiner	-1.9799103
-4.2276278	emptyFlowable	-0.37867928
-4.2276278	errorFlowable	-0.37867928
-4.325872	"emptyFlowable:	-0.07938897
-4.325872	"errorFlowable:	-0.07938897
-4.325872	"pp1	-0.07938897
-4.325872	"pp2	-0.07938897
-4.148369	parallel	-2.462501
-4.2276278	sequential	-3.6068032
-3.8660285	FlowableProcessor	-2.8598256
-4.148369	BlockingFlowableNext	-0.15822175
-4.2276278	NextSubscriber	-2.1774547
-4.2276278	SimpleScalarSubscription	-2.052516
-4.2276278	flowableOfFlowables	-1.7514861
-3.8660285	Flowable"	-1.1717958
-4.148369	awaitTerminationTimeoutMillis	-0.07938897
-3.479701	f2	-2.751486
-4.325872	InfiniteIterator	-0.37867928
-4.325872	FlowableOnSubscribe	-2.955606
-3.772955	FlowableEmitter	-1.5640556
-3.8660285	maybe	-1.4743689
-4.325872	checkDoubleOnSubscribeFlowableToMaybe	-1.9733348
-4.2276278	TestNotificationSubscriber	-0.20374706
-3.574654	elements	-1.2853425
-3.6963503	ts2	-2.4474423
-3.5245876	ConnectableFlowable	-1.4294552
-3.9846475	itemCount	-0.37867928
-3.6312535	*=	-0.89761484
-3.9846475	concurrency	-0.23354448
-4.325872	"itemCount="	-0.37867928
-4.325872	concurrency="	-0.37867928
-3.772955	GroupedFlowable	-1.8753047
-3.8660285	eventGroupedFlowable	-1.1828506
-4.325872	"GroupedFlowable	-0.07938897
-4.325872	"testgroupByBackpressure2	-0.07938897
-4.148369	groupedFlowable	-1.0256678
-3.9846475	evictingMapFactory	-0.8056163
-3.9846475	notify	-2.0872781
-4.2276278	tick	-0.37867928
-4.325872	createEvictingMapFactorySynchronousOnly	-0.07938897
-4.325872	addCompletedKey	-0.07938897
-4.148369	Cache	-1.7514861
-4.148369	cacheOut	-0.7498513
-4.325872	createEvictingMapFactoryGuava	-0.37867928
-3.9846475	numValues	-0.20374706
-4.325872	mod5	-0.37867928
-4.325872	0.9	-0.37867928
-4.325872	invalidateAll	-0.37867928
-4.2276278	TestTicker	-0.37867928
-4.148369	testTicker	-0.20374706
-4.148369	CacheBuilder	-2.052516
-4.325872	newBuilder	-2.052516
-4.325872	expireAfterAccess	-0.07938897
-4.325872	removalListener	-2.052516
-4.325872	RemovalListener	-1.8764248
-4.325872	onRemoval	-1.8764248
-4.325872	RemovalNotification	-1.8764248
-4.325872	ticker	-0.07938897
-4.325872	build	-2.052516
-4.325872	asMap	-2.052516
-4.148369	canceled"	-0.80610776
-4.2276278	"Group	-1.8764248
-4.325872	awaitCount	-0.07938897
-4.325872	toNanos	-2.2286072
-4.325872	containsKey	-0.07938897
-4.325872	containsValue	-0.37867928
-3.6312535	maxSize	-1.506988
-4.325872	evictedListener	-0.37867928
-3.9846475	entry	-0.67015994
-4.325872	maximumSize	-1.7514861
-4.325872	SingleThreadEvictingHashMap	-0.07938897
-4.2276278	object	-1.9733348
-4.148369	2048	-0.07938897
-4.2276278	runOn	-2.9733348
-3.9846475	tss	-2.0013635
-3.9846475	FlowableTransformer	-2.5048137
-4.148369	operation	-0.20374706
-4.325872	issue6974Run	-0.07938897
-4.325872	500_000	-0.8438963
-4.325872	iterations	-0.37867928
-4.2276278	sizeCap	-1.1717958
-4.325872	notifyOnExplicitRevoke	-0.37867928
-4.2276278	gf	-2.3157575
-4.325872	flatMapConcurrency	-0.37867928
-4.2276278	itemEvictConsumer	-0.07938897
-4.325872	maxCapacity	-0.37867928
-4.2276278	RemovalCause	-0.07938897
-4.325872	EXPLICIT	-0.37867928
-4.325872	notifyOnExplicit	-0.37867928
-4.148369	groupByBufferSize	-2.2520883
-4.2276278	notifyOnExplicitEviction	-2.149426
-4.2276278	flatMapMaxConcurrency	-2.1774547
-4.325872	issue6974RunPart2	-0.07938897
-4.325872	issue6974RunPart2NoEvict	-0.37867928
-4.325872	"Cancelling	-1.8764248
-4.325872	upstream"	-1.8764248
-4.2276278	1_000_000	-2.0147274
-4.325872	expireAfterWrite	-0.37867928
-4.325872	ttl	-0.37867928
-4.325872	com	-0.37867928
-4.325872	google	-0.37867928
-4.325872	ttlCapGuava	-0.07938897
-4.325872	Duration	-0.07938897
-4.325872	ofMillis	-0.07938897
-4.2276278	FlowableInternalHelper	-2.5753949
-4.325872	checkEnum	-2.2286072
-4.325872	RequestMax	-0.07938897
-4.325872	"PublishProcessor	-0.07938897
-4.2276278	Subscribers?!"	-1.8764248
-4.2276278	emptySet	-2.9371226
-4.2276278	empty!"	-2.3535461
-4.325872	non-empty!"	-0.07938897
-4.325872	600L	-1.7514861
-4.325872	"Share:	-0.07938897
-4.2276278	FlattenIterableSubscriber	-2.2743647
-4.2276278	"first"	-2.5048137
-4.2276278	cmp	-2.052516
-4.2276278	TestFlowableFunc	-0.37867928
-4.325872	onBackpressureDrop	-2.596584
-4.325872	FlowableOnBackpressureError	-2.052516
-3.9846475	subscribed?"	-2.420493
-4.325872	"Subscribed?"	-1.8764248
-3.772955	ConditionalSubscriber	-2.848396
-4.2276278	tryOnNext	-3.1004395
-4.325872	"Processor	-2.4784849
-4.148369	FlowableEventStream	-2.1194627
-4.325872	getEventStream	-2.3535461
-4.325872	"HTTP-ClusterB"	-2.1774547
-3.8660285	accum	-2.1774547
-4.2276278	perInstanceEvent	-1.9733348
-4.325872	"instance"	-2.2743647
-4.325872	instanceId	-1.9433715
-4.2276278	throwingBiFunction	-1.8764248
-3.9846475	n1	-0.82903254
-4.325872	n2	-1.7514861
-4.2276278	SUM	-2.052516
-4.2276278	scanWith	-2.2286072
-4.325872	throwingSupplier	-0.37867928
-4.325872	onBackpressureReduce	-2.7215228
-4.325872	TEST_INT_REDUCER	-1.9733348
-4.325872	168	-0.15822175
-4.325872	67	-0.37867928
-4.325872	nextDouble	-2.052516
-4.325872	0.001	-2.052516
-4.325872	"testAsynchronousDrop	-1.7514861
-4.325872	"All	-1.7514861
-4.325872	received?"	-1.7514861
-4.325872	totalValues	-0.07938897
-3.6963503	previous	-1.2096971
-4.2276278	sequence	-0.9287578
-4.2276278	must	-1.8764248
-4.325872	increasing	-1.7514861
-4.325872	[current	-1.7514861
-4.148369	value="	-2.1194627
-4.2276278	"]"	-2.0872781
-4.325872	createDelayedSubscriber	-1.8764248
-4.325872	assertValuesDropped	-1.8764248
-4.325872	assertIncreasingSequence	-0.07938897
-4.325872	sum:	-0.07938897
-4.325872	5000050000L	-0.07938897
-4.148369	reducer	-2.420493
-4.325872	TEST_OBJECT_REDUCER	-1.7514861
-4.325872	performTestUsingWithFlowableFactoryError	-0.07938897
-3.9846475	Publisher"	-2.7795148
-4.325872	"Cancel"	-2.052516
-4.325872	"ResourceCancel"	-0.37867928
-4.325872	"CancelResource"	-0.37867928
-4.148369	stringSubscriber	-2.981935
-4.325872	stringSubscriber2	-0.37867928
-4.148369	subFlowable	-0.6678051
-4.2276278	flowable1	-1.8764248
-4.2276278	flowable2	-1.1833682
-4.2276278	MySubscriber	-0.07938897
-4.2276278	"n	-1.7514861
-4.325872	10L	-2.2286072
-3.772955	l1	-0.7647151
-3.8660285	l2	-0.6678051
-3.6312535	MulticastProcessor	-3.0340326
-3.4018295	mp	-2.6394384
-3.6312535	MulticastSubscription	-2.6635308
-4.148369	errorAll	-2.654576
-4.2276278	completeAll	-1.7514861
-3.8660285	drain	-3.8839593
-4.2276278	OutputCanceller	-1.7514861
-4.325872	1000001	-0.07938897
-4.148369	FlowableBlockingSubscribe	-2.2286072
-4.148369	strategy	-0.43822235
-4.148369	emitterMap	-1.1717958
-4.148369	FlowableCreate	-0.8959793
-4.2276278	MissingEmitter	-0.37867928
-4.2276278	ErrorAsyncEmitter	-0.37867928
-4.2276278	DropAsyncEmitter	-0.37867928
-4.2276278	LatestAsyncEmitter	-0.37867928
-4.2276278	BufferAsyncEmitter	-0.37867928
-4.148369	delayUntil	-0.07938897
-4.325872	DisposableSubscriber	-1.7514861
-4.325872	DisposableCompletableObserver	-0.07938897
-4.325872	anyBoolean	-0.07938897
-4.148369	FutureTask	-2.8541484
-4.325872	justCallable	-2.1194627
-4.148369	pp4	-0.20374706
-3.9846475	FlowableFlatMap	-1.2297877
-3.6963503	InnerSubscriber	-1.5819702
-3.772955	EmptySubscription	-3.1435964
-4.325872	ScalarEmptyCancel	-0.37867928
-3.9846475	FlowableCache	-2.388308
-4.325872	other"	-0.37867928
-4.2276278	withError	-1.9733348
-4.148369	cex	-1.2297877
